1.70556e-06 2.30874e-06 3.22866e-06 3.95495e-07 8.56424e-06 -1.24975e-05 -2.55152e-06 -9.34572e-06 2.27987e-06 -5.21459e-06 5.62337e-07 7.02451e-06 3.19401e-06 4.64571e-06 9.17766e-06 -1.21246e-06 
1.71356e-06 2.82853e-06 3.32335e-06 1.49925e-07 1.07968e-05 -1.41708e-05 -4.33064e-06 -1.08051e-05 2.52266e-06 -5.83933e-06 7.03326e-07 7.71371e-06 3.30251e-06 5.13728e-06 1.05297e-05 -1.39846e-06 
1.50374e-06 2.76698e-06 2.84401e-06 3.66857e-07 7.3803e-06 -1.25124e-05 -2.1387e-06 -8.67375e-06 2.45978e-06 -5.44184e-06 1.55137e-07 6.86323e-06 2.65182e-06 4.5285e-06 9.39095e-06 -1.042e-06 
3.41228e-06 5.84082e-06 6.59774e-06 1.01485e-06 1.80603e-05 -2.64509e-05 -6.67505e-06 -1.9636e-05 4.79495e-06 -1.09788e-05 9.30467e-07 1.46403e-05 6.45103e-06 9.61316e-06 1.9324e-05 -2.39956e-06 
1.57752e-06 2.73796e-06 3.02683e-06 4.29885e-07 8.19933e-06 -1.24888e-05 -2.82373e-06 -9.06852e-06 2.3247e-06 -5.2661e-06 3.65228e-07 6.89878e-06 2.92523e-06 4.54305e-06 9.21998e-06 -1.12006e-06 
2.34906e-06 4.50736e-06 4.45277e-06 7.35576e-07 1.10678e-05 -1.93856e-05 -3.22322e-06 -1.33272e-05 3.81423e-06 -8.4312e-06 1.4966e-07 1.06472e-05 4.13029e-06 6.99275e-06 1.44674e-05 -1.56244e-06 
1.63293e-06 2.55281e-06 3.13389e-06 2.87098e-07 9.3835e-06 -1.28191e-05 -3.50434e-06 -9.7139e-06 2.28724e-06 -5.27878e-06 5.92745e-07 7.03775e-06 3.10867e-06 4.66907e-06 9.42014e-06 -1.23266e-06 
3.05183e-06 5.02021e-06 5.86942e-06 8.41532e-07 1.6207e-05 -2.35939e-05 -5.84026e-06 -1.76066e-05 4.26135e-06 -9.76675e-06 8.65124e-07 1.30031e-05 5.73782e-06 8.55277e-06 1.71962e-05 -2.13164e-06 
1.3665e-06 2.67757e-06 2.54371e-06 2.28543e-07 6.72204e-06 -1.21898e-05 -1.71987e-06 -8.18402e-06 2.48769e-06 -5.41345e-06 -4.2894e-09 6.574e-06 2.285e-06 4.35589e-06 9.27237e-06 -9.4225e-07 
3.54901e-06 5.55562e-06 6.78332e-06 9.97463e-07 1.85379e-05 -2.66751e-05 -6.52705e-06 -1.99693e-05 4.79148e-06 -1.10068e-05 1.06928e-06 1.47995e-05 6.70235e-06 9.75186e-06 1.93899e-05 -2.47435e-06 
1.05622e-06 1.72767e-06 1.99787e-06 2.18494e-07 5.37456e-06 -8.45731e-06 -1.58745e-06 -6.02945e-06 1.61755e-06 -3.62979e-06 2.31915e-07 4.67974e-06 1.91411e-06 3.10146e-06 6.33737e-06 -7.72961e-07 
1.68564e-06 2.8914e-06 3.19683e-06 4.08325e-07 8.31737e-06 -1.35883e-05 -2.41283e-06 -9.60093e-06 2.62553e-06 -5.85333e-06 2.74034e-07 7.4994e-06 3.02573e-06 4.94744e-06 1.01389e-05 -1.17407e-06 
1.01841e-06 1.84831e-06 1.91789e-06 1.48916e-07 5.31074e-06 -8.76126e-06 -1.52162e-06 -6.05284e-06 1.7338e-06 -3.8368e-06 1.42894e-07 4.78542e-06 1.78892e-06 3.18248e-06 6.66972e-06 -7.68483e-07 
1.40883e-06 2.07119e-06 2.66269e-06 3.22292e-07 7.18658e-06 -1.06334e-05 -2.24436e-06 -7.84635e-06 1.96152e-06 -4.45453e-06 4.09191e-07 5.91809e-06 2.61909e-06 3.91684e-06 7.83202e-06 -1.00148e-06 
1.99215e-06 3.01017e-06 3.8171e-06 2.68214e-07 1.18603e-05 -1.55289e-05 -4.52946e-06 -1.18601e-05 2.74317e-06 -6.36932e-06 8.31867e-07 8.56105e-06 3.84782e-06 5.70888e-06 1.1458e-05 -1.57813e-06 
2.91128e-06 4.95563e-06 5.63238e-06 7.60101e-07 1.59222e-05 -2.2832e-05 -5.98658e-06 -1.70324e-05 4.1253e-06 -9.46458e-06 8.63916e-07 1.25996e-05 5.52318e-06 8.29428e-06 1.67331e-05 -2.1054e-06 
7.57994e-07 1.70932e-06 1.39185e-06 -7.94959e-08 4.31367e-06 -7.92892e-06 -1.0854e-06 -5.09364e-06 1.69637e-06 -3.63866e-06 -6.27993e-08 4.18911e-06 1.18785e-06 2.81979e-06 6.2772e-06 -6.30202e-07 
2.10999e-06 3.19597e-06 4.03274e-06 3.97507e-07 1.19359e-05 -1.61873e-05 -4.40002e-06 -1.22836e-05 2.87695e-06 -6.65055e-06 7.85087e-07 8.93907e-06 4.03312e-06 5.93519e-06 1.18661e-05 -1.58515e-06 
1.59239e-06 2.48408e-06 3.05588e-06 2.69823e-07 9.14244e-06 -1.25449e-05 -3.38325e-06 -9.49656e-06 2.24622e-06 -5.17418e-06 5.72526e-07 6.88222e-06 3.0255e-06 4.56385e-06 9.22819e-06 -1.2013e-06 
1.088e-06 1.79534e-06 2.05074e-06 1.37016e-07 5.74759e-06 -9.06491e-06 -1.64887e-06 -6.40776e-06 1.76098e-06 -3.92712e-06 2.30054e-07 4.97394e-06 1.94529e-06 3.31312e-06 6.86596e-06 -8.26463e-07 
1.35054e-06 2.1473e-06 2.55629e-06 3.61282e-07 6.62309e-06 -1.03976e-05 -1.98105e-06 -7.49946e-06 1.95965e-06 -4.41305e-06 2.98245e-07 5.78102e-06 2.46882e-06 3.81345e-06 7.68669e-06 -9.35317e-07 
1.75225e-06 2.44233e-06 3.33491e-06 7.37114e-08 1.09937e-05 -1.38019e-05 -4.20638e-06 -1.07103e-05 2.41236e-06 -5.62506e-06 8.34508e-07 7.54906e-06 3.39078e-06 5.06862e-06 1.02103e-05 -1.43702e-06 
1.5646e-06 2.18023e-06 2.96881e-06 1.90359e-07 9.14941e-06 -1.20023e-05 -3.32652e-06 -9.22216e-06 2.11321e-06 -4.90657e-06 6.6075e-07 6.59959e-06 2.99282e-06 4.40797e-06 8.81828e-06 -1.21057e-06 
1.50117e-06 2.05889e-06 2.85042e-06 8.84615e-08 9.24864e-06 -1.17177e-05 -3.4753e-06 -9.08449e-06 2.0476e-06 -4.77399e-06 7.00698e-07 6.41194e-06 2.89246e-06 4.30292e-06 8.64834e-06 -1.21203e-06 
1.6533e-06 2.39343e-06 3.14218e-06 3.49008e-07 8.9596e-06 -1.24154e-05 -3.11247e-06 -9.39202e-06 2.21629e-06 -5.11009e-06 5.91359e-07 6.8855e-06 3.13673e-06 4.56674e-06 9.08072e-06 -1.20917e-06 
1.77102e-06 2.54767e-06 3.3719e-06 2.25525e-07 1.04155e-05 -1.368e-05 -3.86082e-06 -1.04922e-05 2.41147e-06 -5.59638e-06 7.36397e-07 7.51924e-06 3.39434e-06 5.01818e-06 1.00552e-05 -1.37255e-06 
1.56829e-06 2.3951e-06 2.98554e-06 3.79655e-07 8.26703e-06 -1.19046e-05 -2.81687e-06 -8.88043e-06 2.15597e-06 -4.93893e-06 4.84019e-07 6.59662e-06 2.94528e-06 4.36184e-06 8.71385e-06 -1.11875e-06 
9.75006e-07 1.7726e-06 1.8349e-06 1.27238e-07 5.13027e-06 -8.44927e-06 -1.46867e-06 -5.82778e-06 1.67526e-06 -3.70592e-06 1.39073e-07 4.61003e-06 1.70945e-06 3.07007e-06 6.44915e-06 -7.45284e-07 
1.34234e-06 1.59372e-06 2.51355e-06 2.11327e-07 6.96325e-06 -9.73335e-06 -2.02459e-06 -7.39147e-06 1.75854e-06 -4.0348e-06 5.19414e-07 5.45632e-06 2.51807e-06 3.63518e-06 7.16361e-06 -9.82539e-07 
1.36124e-06 2.16909e-06 2.57982e-06 3.75065e-07 6.69047e-06 -1.04515e-05 -2.03348e-06 -7.55838e-06 1.96049e-06 -4.42453e-06 3.07464e-07 5.80965e-06 2.49471e-06 3.83089e-06 7.7117e-06 -9.41397e-07 
2.29898e-06 3.94714e-06 4.39094e-06 7.94702e-07 1.08492e-05 -1.76598e-05 -3.32233e-06 -1.26087e-05 3.33744e-06 -7.50731e-06 4.00668e-07 9.84696e-06 4.20767e-06 6.45221e-06 1.29837e-05 -1.53265e-06 
1.02762e-06 1.26534e-06 1.93735e-06 1.33785e-07 5.62725e-06 -7.61492e-06 -1.76068e-06 -5.78642e-06 1.36042e-06 -3.15388e-06 4.51407e-07 4.2631e-06 1.95272e-06 2.85389e-06 5.66011e-06 -8.14311e-07 
1.58664e-06 2.11175e-06 3.00408e-06 6.35393e-08 9.83386e-06 -1.23739e-05 -3.66233e-06 -9.63339e-06 2.15786e-06 -5.03315e-06 7.54967e-07 6.75727e-06 3.05209e-06 4.53981e-06 9.12434e-06 -1.27943e-06 
2.15732e-06 3.04021e-06 4.08947e-06 3.61238e-07 1.21407e-05 -1.63816e-05 -4.30865e-06 -1.2525e-05 2.89358e-06 -6.70139e-06 8.30982e-07 9.00819e-06 4.09158e-06 5.99623e-06 1.19655e-05 -1.59862e-06 
2.22211e-06 3.15364e-06 4.20493e-06 5.82885e-07 1.12722e-05 -1.62829e-05 -3.65027e-06 -1.22082e-05 2.93373e-06 -6.72396e-06 7.08344e-07 9.07889e-06 4.17683e-06 5.99938e-06 1.18614e-05 -1.54988e-06 
3.17335e-06 5.44873e-06 6.1419e-06 8.92189e-07 1.70863e-05 -2.4763e-05 -6.3924e-06 -1.8416e-05 4.48402e-06 -1.02757e-05 8.99955e-07 1.36922e-05 6.01507e-06 8.99964e-06 1.81253e-05 -2.26667e-06 
1.58502e-06 2.09423e-06 3.00361e-06 -1.08664e-08 1.01914e-05 -1.25282e-05 -3.8828e-06 -9.80592e-06 2.17692e-06 -5.08784e-06 8.04317e-07 6.823e-06 3.06772e-06 4.59796e-06 9.27437e-06 -1.31959e-06 
1.4152e-06 2.21023e-06 2.72369e-06 1.68171e-07 8.52387e-06 -1.13525e-05 -3.25922e-06 -8.63936e-06 2.02201e-06 -4.67674e-06 5.67464e-07 6.21251e-06 2.71166e-06 4.13686e-06 8.40627e-06 -1.1238e-06 
1.17906e-06 2.13105e-06 2.22694e-06 2.27539e-07 5.99335e-06 -9.92593e-06 -1.74162e-06 -6.89446e-06 1.95146e-06 -4.32441e-06 1.59468e-07 5.44066e-06 2.08485e-06 3.60491e-06 7.50083e-06 -8.57723e-07 
2.44459e-06 4.15134e-06 4.73831e-06 5.30324e-07 1.39597e-05 -1.94699e-05 -5.3752e-06 -1.45942e-05 3.49917e-06 -8.05849e-06 8.1365e-07 1.0706e-05 4.66583e-06 7.07484e-06 1.43345e-05 -1.84614e-06 
1.35585e-05 2.46183e-05 2.63007e-05 6.21663e-06 6.31218e-05 -0.000100357 -2.23345e-05 -7.25101e-05 1.83965e-05 -4.19558e-05 2.62176e-06 5.6584e-05 2.55792e-05 3.67856e-05 7.27114e-05 -8.86966e-06 
1.11106e-06 1.67432e-06 2.09218e-06 1.66729e-07 5.79677e-06 -8.84616e-06 -1.66177e-06 -6.3723e-06 1.68033e-06 -3.78493e-06 3.01618e-07 4.89089e-06 2.02024e-06 3.25936e-06 6.65086e-06 -8.41337e-07 
2.56444e-06 3.89917e-06 4.89073e-06 6.34555e-07 1.37118e-05 -1.93343e-05 -4.84886e-06 -1.45637e-05 3.45508e-06 -7.95774e-06 8.39519e-07 1.07015e-05 4.85161e-06 7.07392e-06 1.408e-05 -1.82556e-06 
1.25586e-06 1.49531e-06 2.3565e-06 1.85376e-07 6.5835e-06 -9.14632e-06 -1.93322e-06 -6.94498e-06 1.65211e-06 -3.79571e-06 5.00234e-07 5.13265e-06 2.36281e-06 3.42307e-06 6.75314e-06 -9.36103e-07 
7.37217e-07 1.63609e-06 1.34694e-06 -8.13555e-08 4.17705e-06 -7.72097e-06 -1.00336e-06 -4.94473e-06 1.65022e-06 -3.54652e-06 -5.4266e-08 4.07208e-06 1.14537e-06 2.74773e-06 6.12554e-06 -6.22672e-07 
2.17795e-06 3.92321e-06 4.14061e-06 7.22117e-07 1.02298e-05 -1.72574e-05 -3.04869e-06 -1.2113e-05 3.32645e-06 -7.4131e-06 2.61286e-07 9.55136e-06 3.90998e-06 6.26277e-06 1.2762e-05 -1.43619e-06 
1.4337e-06 2.25005e-06 2.72774e-06 3.36204e-07 7.51063e-06 -1.10579e-05 -2.50096e-06 -8.15674e-06 2.03225e-06 -4.62702e-06 4.03886e-07 6.12035e-06 2.67017e-06 4.04712e-06 8.13788e-06 -1.0247e-06 
2.04401e-06 3.60147e-06 3.91768e-06 6.60814e-07 9.93044e-06 -1.5955e-05 -3.15083e-06 -1.13623e-05 3.02532e-06 -6.80397e-06 3.75001e-07 8.89892e-06 3.7599e-06 5.83979e-06 1.1804e-05 -1.41273e-06 
9.5096e-07 1.51929e-06 1.77991e-06 1.29764e-07 4.9448e-06 -7.83508e-06 -1.36997e-06 -5.53701e-06 1.51667e-06 -3.39144e-06 2.09162e-07 4.3022e-06 1.69035e-06 2.86999e-06 5.9336e-06 -7.22046e-07 
1.79716e-06 2.48767e-06 3.39952e-06 3.63284e-07 9.58846e-06 -1.33226e-05 -3.19556e-06 -1.00643e-05 2.39023e-06 -5.49483e-06 6.55164e-07 7.42077e-06 3.40871e-06 4.9251e-06 9.76986e-06 -1.321e-06 
9.43611e-07 1.05409e-06 1.78267e-06 -2.51958e-07 7.24648e-06 -7.8134e-06 -2.94425e-06 -6.3249e-06 1.30205e-06 -3.12807e-06 7.07383e-07 4.20574e-06 1.89011e-06 2.90074e-06 5.91775e-06 -9.5774e-07 
3.03147e-06 4.98724e-06 5.82203e-06 9.83583e-07 1.54045e-05 -2.29181e-05 -5.42512e-06 -1.69995e-05 4.14783e-06 -9.49554e-06 7.94528e-07 1.27177e-05 5.69515e-06 8.3443e-06 1.66425e-05 -2.05912e-06 
2.56763e-06 4.32018e-06 4.9663e-06 5.94484e-07 1.44114e-05 -2.02959e-05 -5.4673e-06 -1.51993e-05 3.64929e-06 -8.3989e-06 8.28e-07 1.1167e-05 4.88273e-06 7.37279e-06 1.49113e-05 -1.90736e-06 
1.5976e-06 2.28089e-06 3.04553e-06 1.35969e-07 9.74528e-06 -1.24808e-05 -3.70006e-06 -9.62188e-06 2.18975e-06 -5.09766e-06 7.19087e-07 6.84855e-06 3.08347e-06 4.58645e-06 9.2161e-06 -1.28476e-06 
1.48395e-06 2.05524e-06 2.82829e-06 8.10216e-09 9.6029e-06 -1.17931e-05 -3.74218e-06 -9.1893e-06 2.05209e-06 -4.80099e-06 7.5584e-07 6.44655e-06 2.89259e-06 4.34147e-06 8.76179e-06 -1.25971e-06 
1.67033e-06 2.60604e-06 3.20314e-06 3.10622e-07 9.44951e-06 -1.3086e-05 -3.46192e-06 -9.88874e-06 2.3455e-06 -5.39915e-06 5.82349e-07 7.18595e-06 3.16631e-06 4.75988e-06 9.60983e-06 -1.24342e-06 
1.04463e-06 1.15034e-06 1.95981e-06 6.20576e-08 5.77848e-06 -7.73749e-06 -1.6877e-06 -5.91851e-06 1.39426e-06 -3.22159e-06 4.87056e-07 4.34517e-06 1.97676e-06 2.91912e-06 5.78822e-06 -8.39677e-07 
2.93995e-06 4.92213e-06 5.63109e-06 1.05144e-06 1.42083e-05 -2.224e-05 -4.67876e-06 -1.6247e-05 4.09075e-06 -9.29644e-06 6.20274e-07 1.23461e-05 5.44007e-06 8.07714e-06 1.61493e-05 -1.92297e-06 
2.10643e-06 3.09306e-06 4.00899e-06 3.98691e-07 1.17633e-05 -1.60371e-05 -4.22783e-06 -1.21959e-05 2.84695e-06 -6.57894e-06 7.75243e-07 8.84212e-06 4.00354e-06 5.87125e-06 1.17197e-05 -1.55383e-06 
1.55447e-06 2.68053e-06 2.96509e-06 4.09563e-07 7.75181e-06 -1.23562e-05 -2.38824e-06 -8.79024e-06 2.36061e-06 -5.29343e-06 2.99628e-07 6.86098e-06 2.83895e-06 4.52141e-06 9.20396e-06 -1.10326e-06 
1.54043e-06 1.6401e-06 2.85784e-06 1.5778e-07 8.26735e-06 -1.09988e-05 -2.45616e-06 -8.47606e-06 1.96096e-06 -4.51468e-06 6.80521e-07 6.15793e-06 2.91598e-06 4.12887e-06 8.09845e-06 -1.16043e-06 
9.43253e-07 9.54756e-07 1.76306e-06 1.88225e-08 5.32993e-06 -6.97268e-06 -1.52753e-06 -5.36507e-06 1.24559e-06 -2.89848e-06 4.86812e-07 3.91695e-06 1.78987e-06 2.64583e-06 5.24546e-06 -7.90803e-07 
3.29967e-06 5.57313e-06 6.35666e-06 1.14257e-06 1.65868e-05 -2.49203e-05 -5.8991e-06 -1.84022e-05 4.52636e-06 -1.03477e-05 8.19991e-07 1.38757e-05 6.21378e-06 9.08606e-06 1.81046e-05 -2.23148e-06 
1.84081e-06 3.02741e-06 3.56328e-06 2.14382e-07 1.12923e-05 -1.50565e-05 -4.45336e-06 -1.14484e-05 2.68754e-06 -6.20823e-06 7.14241e-07 8.20885e-06 3.53064e-06 5.45549e-06 1.11493e-05 -1.46155e-06 
1.02067e-06 1.06999e-06 1.90788e-06 5.48431e-08 5.62034e-06 -7.50993e-06 -1.59487e-06 -5.759e-06 1.34782e-06 -3.12193e-06 4.87761e-07 4.21428e-06 1.92569e-06 2.8363e-06 5.61608e-06 -8.22026e-07 
1.5644e-06 2.1546e-06 2.9674e-06 1.65414e-07 9.22688e-06 -1.20091e-05 -3.368e-06 -9.24744e-06 2.11462e-06 -4.90827e-06 6.75406e-07 6.60669e-06 2.99879e-06 4.41742e-06 8.83717e-06 -1.22006e-06 
2.49096e-06 3.99689e-06 4.79772e-06 5.26583e-07 1.41716e-05 -1.92536e-05 -5.40939e-06 -1.45069e-05 3.42735e-06 -7.93466e-06 9.24004e-07 1.06785e-05 4.80088e-06 7.08396e-06 1.41788e-05 -1.91936e-06 
1.41737e-06 2.13019e-06 2.70595e-06 3.25767e-07 7.54821e-06 -1.0771e-05 -2.58193e-06 -8.08364e-06 1.9438e-06 -4.4614e-06 4.62866e-07 5.97118e-06 2.67142e-06 3.94701e-06 7.89151e-06 -1.02128e-06 
1.14601e-06 1.71161e-06 2.14877e-06 2.21113e-07 5.81118e-06 -8.91514e-06 -1.68216e-06 -6.45382e-06 1.68328e-06 -3.78939e-06 2.90823e-07 4.93325e-06 2.08259e-06 3.27632e-06 6.63696e-06 -8.24534e-07 
1.48733e-06 2.08661e-06 2.83294e-06 8.16046e-08 9.27554e-06 -1.16821e-05 -3.54474e-06 -9.04699e-06 2.04095e-06 -4.76379e-06 7.06602e-07 6.39987e-06 2.88022e-06 4.29595e-06 8.64536e-06 -1.22257e-06 
3.15618e-06 5.3095e-06 6.0792e-06 1.06629e-06 1.59191e-05 -2.39144e-05 -5.63517e-06 -1.76613e-05 4.34908e-06 -9.93675e-06 7.91121e-07 1.33041e-05 5.93787e-06 8.71502e-06 1.73961e-05 -2.14386e-06 
1.55382e-06 2.56398e-06 2.96922e-06 4.6237e-07 7.78688e-06 -1.19489e-05 -2.5633e-06 -8.71738e-06 2.21305e-06 -5.02008e-06 3.6496e-07 6.63117e-06 2.87841e-06 4.36063e-06 8.76762e-06 -1.06937e-06 
1.54096e-06 2.75753e-06 2.92164e-06 3.87737e-07 7.73696e-06 -1.25348e-05 -2.41158e-06 -8.83597e-06 2.4167e-06 -5.38852e-06 2.39086e-07 6.89812e-06 2.77356e-06 4.55117e-06 9.35338e-06 -1.08118e-06 
1.2421e-06 2.39757e-06 2.34742e-06 2.22009e-07 6.35931e-06 -1.08074e-05 -1.8541e-06 -7.39614e-06 2.15999e-06 -4.75161e-06 1.04138e-07 5.89626e-06 2.16751e-06 3.90421e-06 8.21024e-06 -9.03739e-07 
1.60951e-06 2.13738e-06 3.03183e-06 3.52158e-07 8.29112e-06 -1.17206e-05 -2.60867e-06 -8.84538e-06 2.10922e-06 -4.83902e-06 5.66572e-07 6.55024e-06 3.03314e-06 4.34299e-06 8.56835e-06 -1.15014e-06 
1.24846e-06 2.17661e-06 2.34871e-06 2.43424e-07 6.39951e-06 -1.03401e-05 -1.91899e-06 -7.27051e-06 2.00505e-06 -4.4628e-06 2.03297e-07 5.65587e-06 2.22017e-06 3.75091e-06 7.76819e-06 -9.00228e-07 
2.65884e-06 4.4494e-06 5.13482e-06 6.40171e-07 1.47398e-05 -2.09142e-05 -5.52189e-06 -1.56537e-05 3.76562e-06 -8.65614e-06 8.31037e-07 1.15108e-05 5.04219e-06 7.59132e-06 1.53343e-05 -1.94511e-06 
7.05879e-07 1.54496e-06 1.27952e-06 -1.02362e-07 3.97802e-06 -7.45829e-06 -8.94716e-07 -4.76891e-06 1.60599e-06 -3.43459e-06 -7.30308e-08 3.91559e-06 1.07533e-06 2.64346e-06 5.91506e-06 -5.81647e-07 
1.50495e-06 2.51983e-06 2.87892e-06 4.32636e-07 7.61597e-06 -1.16982e-05 -2.5228e-06 -8.51722e-06 2.1733e-06 -4.92528e-06 3.4782e-07 6.48098e-06 2.78364e-06 4.26341e-06 8.60359e-06 -1.04417e-06 
3.01151e-06 4.58318e-06 5.73935e-06 1.08332e-06 1.40884e-05 -2.18434e-05 -4.26991e-06 -1.60513e-05 3.99285e-06 -9.11951e-06 7.65228e-07 1.23012e-05 5.61367e-06 8.06113e-06 1.587e-05 -2.00316e-06 
1.59151e-06 2.44102e-06 2.99977e-06 4.08134e-07 7.68889e-06 -1.22124e-05 -2.14479e-06 -8.81565e-06 2.3089e-06 -5.1892e-06 3.40398e-07 6.77397e-06 2.88435e-06 4.46822e-06 9.00863e-06 -1.08048e-06 
3.94669e-06 6.28029e-06 7.54571e-06 1.56417e-06 1.81349e-05 -2.86357e-05 -5.59306e-06 -2.09208e-05 5.2492e-06 -1.19671e-05 8.95932e-07 1.61392e-05 7.35569e-06 1.05386e-05 2.07427e-05 -2.56797e-06 
2.2751e-06 3.53969e-06 4.36025e-06 4.82454e-07 1.27275e-05 -1.74429e-05 -4.71654e-06 -1.31741e-05 3.10849e-06 -7.1803e-06 8.16365e-07 9.65546e-06 4.35273e-06 6.39956e-06 1.27887e-05 -1.70237e-06 
2.09915e-06 3.08134e-06 3.9938e-06 4.3412e-07 1.15289e-05 -1.58653e-05 -4.08724e-06 -1.20281e-05 2.82223e-06 -6.5176e-06 7.56723e-07 8.77358e-06 3.98693e-06 5.81959e-06 1.15918e-05 -1.53907e-06 
1.62758e-06 2.59027e-06 3.14295e-06 1.09275e-07 1.0287e-05 -1.34364e-05 -4.06372e-06 -1.02911e-05 2.38477e-06 -5.52385e-06 6.83441e-07 7.28691e-06 3.12218e-06 4.86135e-06 9.96759e-06 -1.3212e-06 
1.91346e-06 3.57986e-06 3.60807e-06 5.34564e-07 9.08989e-06 -1.58669e-05 -2.5439e-06 -1.09264e-05 3.13171e-06 -6.91039e-06 1.29161e-07 8.68967e-06 3.34235e-06 5.71692e-06 1.18577e-05 -1.2757e-06 
2.39035e-06 3.98644e-06 4.6212e-06 5.02253e-07 1.36227e-05 -1.89945e-05 -5.19369e-06 -1.427e-05 3.40948e-06 -7.8525e-06 7.99349e-07 1.04294e-05 4.54869e-06 6.89567e-06 1.39709e-05 -1.79389e-06 
1.28226e-06 2.29013e-06 2.42162e-06 2.80649e-07 6.39546e-06 -1.06411e-05 -1.84308e-06 -7.41353e-06 2.08333e-06 -4.6215e-06 1.70701e-07 5.84074e-06 2.27027e-06 3.86325e-06 8.00325e-06 -9.11037e-07 
1.08325e-06 1.94311e-06 2.03918e-06 1.79497e-07 5.55411e-06 -9.2094e-06 -1.57882e-06 -6.38195e-06 1.8183e-06 -4.02273e-06 1.45161e-07 5.03387e-06 1.90293e-06 3.34219e-06 6.9804e-06 -7.95981e-07 
1.29924e-06 1.72256e-06 2.46465e-06 -1.74871e-08 8.41765e-06 -1.02903e-05 -3.23116e-06 -8.05674e-06 1.78621e-06 -4.1793e-06 6.71161e-07 5.6085e-06 2.52209e-06 3.78248e-06 7.63147e-06 -1.09472e-06 
2.12188e-06 3.76632e-06 4.0767e-06 6.3081e-07 1.09041e-05 -1.68256e-05 -3.78516e-06 -1.21814e-05 3.13176e-06 -7.09316e-06 4.52625e-07 9.28004e-06 3.9224e-06 6.10104e-06 1.23921e-05 -1.48161e-06 
1.35132e-06 1.70246e-06 2.55764e-06 -1.30364e-07 9.23375e-06 -1.08694e-05 -3.60611e-06 -8.60915e-06 1.86958e-06 -4.39524e-06 7.77368e-07 5.89115e-06 2.64092e-06 3.99698e-06 8.09896e-06 -1.19113e-06 
1.25374e-06 2.21041e-06 2.36248e-06 2.71892e-07 6.23256e-06 -1.03894e-05 -1.75986e-06 -7.2328e-06 2.03173e-06 -4.51217e-06 1.73402e-07 5.69754e-06 2.21315e-06 3.77325e-06 7.81824e-06 -8.95147e-07 
3.23151e-06 5.50972e-06 6.24716e-06 9.23946e-07 1.7269e-05 -2.5128e-05 -6.40515e-06 -1.86852e-05 4.54949e-06 -1.0424e-05 9.05989e-07 1.38927e-05 6.11345e-06 9.13011e-06 1.8372e-05 -2.29055e-06 
1.37834e-06 2.43065e-06 2.61868e-06 2.50015e-07 7.13612e-06 -1.14732e-05 -2.12445e-06 -8.06268e-06 2.23655e-06 -4.97657e-06 2.40166e-07 6.31755e-06 2.47601e-06 4.18337e-06 8.65528e-06 -1.01737e-06 
1.15447e-06 2.18777e-06 2.17066e-06 1.81972e-07 5.90795e-06 -1.01025e-05 -1.65492e-06 -6.89884e-06 2.02447e-06 -4.45016e-06 9.57799e-08 5.49449e-06 1.99527e-06 3.64714e-06 7.69324e-06 -8.44904e-07 
1.31883e-06 2.14455e-06 2.51019e-06 3.08781e-07 6.93927e-06 -1.03231e-05 -2.3312e-06 -7.55651e-06 1.90985e-06 -4.33741e-06 3.49646e-07 5.70006e-06 2.44629e-06 3.77004e-06 7.62233e-06 -9.49542e-07 
1.22845e-06 2.03876e-06 2.30877e-06 1.74798e-07 6.29557e-06 -1.02348e-05 -1.71294e-06 -7.20148e-06 2.00538e-06 -4.44635e-06 2.06422e-07 5.60207e-06 2.16802e-06 3.7204e-06 7.72018e-06 -8.89401e-07 
1.74983e-06 2.6259e-06 3.33756e-06 3.80381e-07 9.56312e-06 -1.32565e-05 -3.41632e-06 -1.00165e-05 2.3676e-06 -5.45695e-06 6.12039e-07 7.34288e-06 3.32701e-06 4.86466e-06 9.69701e-06 -1.28063e-06 
1.47004e-06 2.07306e-06 2.80222e-06 7.04969e-08 9.22659e-06 -1.15816e-05 -3.54789e-06 -8.9728e-06 2.02441e-06 -4.72375e-06 7.02394e-07 6.34424e-06 2.85109e-06 4.25922e-06 8.57741e-06 -1.2138e-06 
1.13673e-06 1.71871e-06 2.14091e-06 1.79839e-07 5.90207e-06 -9.02942e-06 -1.6897e-06 -6.50492e-06 1.71468e-06 -3.86197e-06 3.03839e-07 4.99429e-06 2.06717e-06 3.32514e-06 6.77993e-06 -8.55047e-07 
1.5986e-06 2.23375e-06 3.04501e-06 6.64048e-08 1.0053e-05 -1.25916e-05 -3.85929e-06 -9.76948e-06 2.19975e-06 -5.13293e-06 7.67805e-07 6.8934e-06 3.09887e-06 4.62987e-06 9.32348e-06 -1.31877e-06 
1.4582e-06 2.27289e-06 2.79918e-06 3.37948e-07 7.91494e-06 -1.12073e-05 -2.80498e-06 -8.3929e-06 2.01752e-06 -4.64626e-06 4.93484e-07 6.21751e-06 2.76628e-06 4.11272e-06 8.24677e-06 -1.08442e-06 
7.37753e-07 1.66435e-06 1.35183e-06 -8.74748e-08 4.21736e-06 -7.76858e-06 -1.04746e-06 -4.97839e-06 1.66426e-06 -3.57001e-06 -6.15858e-08 4.09904e-06 1.14971e-06 2.76301e-06 6.16337e-06 -6.20722e-07 
1.96218e-06 2.88198e-06 3.73908e-06 3.24301e-07 1.12221e-05 -1.50521e-05 -4.10988e-06 -1.1478e-05 2.66494e-06 -6.17041e-06 7.61978e-07 8.29273e-06 3.74747e-06 5.5175e-06 1.10344e-05 -1.48419e-06 
1.49489e-06 2.10562e-06 2.84818e-06 8.3809e-08 9.31457e-06 -1.17462e-05 -3.56234e-06 -9.09356e-06 2.05435e-06 -4.79156e-06 7.05161e-07 6.4359e-06 2.89466e-06 4.31835e-06 8.69108e-06 -1.22556e-06 
2.0347e-06 3.31953e-06 3.92546e-06 3.82737e-07 1.17054e-05 -1.61737e-05 -4.43692e-06 -1.21914e-05 2.89987e-06 -6.68107e-06 7.06824e-07 8.87263e-06 3.87222e-06 5.87595e-06 1.19072e-05 -1.53867e-06 
1.4206e-06 1.93245e-06 2.6977e-06 4.50831e-08 8.92841e-06 -1.11596e-05 -3.38963e-06 -8.6823e-06 1.94644e-06 -4.54253e-06 6.87903e-07 6.09849e-06 2.74606e-06 4.0993e-06 8.25256e-06 -1.16573e-06 
1.48488e-06 2.03337e-06 2.83135e-06 -6.27701e-08 9.95877e-06 -1.19511e-05 -3.95096e-06 -9.36476e-06 2.07006e-06 -4.85617e-06 8.08044e-07 6.51458e-06 2.91189e-06 4.40161e-06 8.91325e-06 -1.30228e-06 
1.62518e-06 2.41444e-06 3.1124e-06 1.4789e-07 9.99424e-06 -1.27867e-05 -3.86955e-06 -9.82521e-06 2.24932e-06 -5.23457e-06 7.28632e-07 7.03238e-06 3.15405e-06 4.70375e-06 9.46463e-06 -1.3242e-06 
6.18869e-07 1.46156e-06 1.12538e-06 -1.39581e-07 3.73197e-06 -6.90663e-06 -9.02062e-07 -4.34931e-06 1.49782e-06 -3.20849e-06 -6.11497e-08 3.6194e-06 9.36192e-07 2.45677e-06 5.56072e-06 -5.69561e-07 
1.50776e-06 2.11355e-06 2.87105e-06 9.25268e-08 9.34922e-06 -1.18174e-05 -3.56108e-06 -9.14477e-06 2.0653e-06 -4.8191e-06 7.09484e-07 6.4746e-06 2.91604e-06 4.34517e-06 8.73966e-06 -1.23277e-06 
1.87827e-06 2.62851e-06 3.56009e-06 2.90465e-07 1.06409e-05 -1.42661e-05 -3.78581e-06 -1.09146e-05 2.52372e-06 -5.84007e-06 7.39217e-07 7.85743e-06 3.57229e-06 5.23366e-06 1.04434e-05 -1.40671e-06 
9.77606e-07 1.77059e-06 1.82583e-06 1.16776e-07 5.08031e-06 -8.54844e-06 -1.37736e-06 -5.85455e-06 1.70777e-06 -3.76382e-06 1.13754e-07 4.6419e-06 1.68552e-06 3.09504e-06 6.53297e-06 -7.38016e-07 
1.72528e-06 2.75554e-06 3.31961e-06 3.23158e-07 9.83576e-06 -1.35918e-05 -3.67199e-06 -1.02532e-05 2.43928e-06 -5.61446e-06 6.0179e-07 7.47291e-06 3.28304e-06 4.94913e-06 1.00021e-05 -1.29811e-06 
1.57205e-06 2.0764e-06 2.96647e-06 1.78275e-07 8.93069e-06 -1.19503e-05 -3.04997e-06 -9.15386e-06 2.12961e-06 -4.90814e-06 6.4097e-07 6.58335e-06 2.9807e-06 4.39396e-06 8.7931e-06 -1.19374e-06 
3.15213e-06 4.97689e-06 6.03532e-06 8.71925e-07 1.66659e-05 -2.37724e-05 -5.95213e-06 -1.77927e-05 4.26046e-06 -9.81054e-06 9.89737e-07 1.32027e-05 5.97834e-06 8.70812e-06 1.73259e-05 -2.24639e-06 
1.14437e-06 1.37985e-06 2.15406e-06 1.24588e-07 6.31111e-06 -8.49831e-06 -1.97056e-06 -6.48776e-06 1.52038e-06 -3.51734e-06 5.01479e-07 4.74846e-06 2.16937e-06 3.1795e-06 6.30724e-06 -8.96262e-07 
1.36756e-06 1.36684e-06 2.53068e-06 7.11356e-08 7.58488e-06 -9.78857e-06 -2.27496e-06 -7.59743e-06 1.73589e-06 -4.01093e-06 6.64751e-07 5.48139e-06 2.60493e-06 3.69269e-06 7.24803e-06 -1.07306e-06 
1.95776e-06 2.79881e-06 3.72509e-06 2.52819e-07 1.14727e-05 -1.50922e-05 -4.23418e-06 -1.15789e-05 2.65962e-06 -6.17224e-06 8.11272e-07 8.29423e-06 3.74783e-06 5.53582e-06 1.10867e-05 -1.51095e-06 
1.4924e-06 2.6646e-06 2.83723e-06 3.86994e-07 7.48152e-06 -1.20749e-05 -2.34167e-06 -8.52918e-06 2.32219e-06 -5.18569e-06 2.43116e-07 6.66119e-06 2.69905e-06 4.39148e-06 9.00278e-06 -1.0491e-06 
1.84878e-06 3.30633e-06 3.50119e-06 5.53573e-07 8.77449e-06 -1.48414e-05 -2.54918e-06 -1.03854e-05 2.87889e-06 -6.39842e-06 2.13821e-07 8.1842e-06 3.29236e-06 5.3799e-06 1.10216e-05 -1.23209e-06 
1.17942e-06 1.01788e-06 2.17212e-06 -1.33165e-07 7.36595e-06 -8.72811e-06 -2.38033e-06 -6.94998e-06 1.51536e-06 -3.54305e-06 7.13053e-07 4.82759e-06 2.27462e-06 3.29511e-06 6.53191e-06 -1.01788e-06 
1.91627e-06 2.74757e-06 3.64802e-06 2.34486e-07 1.13262e-05 -1.48129e-05 -4.19934e-06 -1.13714e-05 2.6073e-06 -6.0582e-06 8.10165e-07 8.14165e-06 3.67689e-06 5.43586e-06 1.08937e-05 -1.4957e-06 
1.85409e-06 2.9879e-06 3.52022e-06 5.42776e-07 8.94606e-06 -1.42088e-05 -2.64711e-06 -1.02305e-05 2.67751e-06 -6.0315e-06 3.88931e-07 7.91218e-06 3.39193e-06 5.20592e-06 1.04742e-05 -1.26566e-06 
1.00232e-06 1.60913e-06 1.88914e-06 1.47666e-07 5.26057e-06 -8.20981e-06 -1.50605e-06 -5.82559e-06 1.57719e-06 -3.54167e-06 2.43062e-07 4.52036e-06 1.80478e-06 3.01463e-06 6.21334e-06 -7.74021e-07 
2.38575e-06 3.95311e-06 4.59457e-06 6.90103e-07 1.2615e-05 -1.82632e-05 -4.60576e-06 -1.36041e-05 3.29646e-06 -7.56286e-06 6.90744e-07 1.01302e-05 4.5201e-06 6.66353e-06 1.33298e-05 -1.68616e-06 
1.70308e-06 2.47696e-06 3.2292e-06 3.65715e-07 8.98127e-06 -1.27998e-05 -2.9674e-06 -9.56168e-06 2.32639e-06 -5.31904e-06 5.63175e-07 7.12653e-06 3.21016e-06 4.72107e-06 9.41154e-06 -1.24058e-06 
2.16802e-06 3.58057e-06 4.1907e-06 3.86144e-07 1.26532e-05 -1.73793e-05 -4.86991e-06 -1.31152e-05 3.11254e-06 -7.17585e-06 7.64027e-07 9.51563e-06 4.13276e-06 6.30417e-06 1.28079e-05 -1.65476e-06 
2.67725e-06 4.53339e-06 5.18039e-06 6.42554e-07 1.49111e-05 -2.11285e-05 -5.65287e-06 -1.58067e-05 3.80875e-06 -8.75059e-06 8.34391e-07 1.16382e-05 5.08836e-06 7.67388e-06 1.55117e-05 -1.96777e-06 
2.23702e-06 3.81739e-06 4.34268e-06 4.15096e-07 1.31325e-05 -1.80319e-05 -5.15374e-06 -1.35694e-05 3.23849e-06 -7.46107e-06 7.79257e-07 9.89986e-06 4.28724e-06 6.55001e-06 1.33184e-05 -1.7254e-06 
2.95013e-06 5.04738e-06 5.71099e-06 7.77817e-07 1.61233e-05 -2.31444e-05 -6.0776e-06 -1.72537e-05 4.1849e-06 -9.59776e-06 8.68577e-07 1.27779e-05 5.59981e-06 8.40896e-06 1.69637e-05 -2.1323e-06 
1.30111e-06 1.74377e-06 2.47153e-06 -1.58255e-08 8.45591e-06 -1.03248e-05 -3.2648e-06 -8.07674e-06 1.79202e-06 -4.1952e-06 6.75256e-07 5.63104e-06 2.5305e-06 3.79769e-06 7.66476e-06 -1.10346e-06 
6.86287e-07 1.11929e-06 1.27552e-06 -8.3021e-08 4.07786e-06 -6.34446e-06 -1.06602e-06 -4.37797e-06 1.26862e-06 -2.81729e-06 1.771e-07 3.42601e-06 1.18578e-06 2.32578e-06 4.98383e-06 -6.2419e-07 
1.25651e-06 1.74354e-06 2.38533e-06 2.05908e-07 6.99034e-06 -9.48805e-06 -2.41e-06 -7.2145e-06 1.69012e-06 -3.90732e-06 4.95002e-07 5.26242e-06 2.39062e-06 3.50474e-06 6.98023e-06 -9.52936e-07 
1.37141e-06 2.14266e-06 2.60251e-06 3.68204e-07 6.89937e-06 -1.04476e-05 -2.19663e-06 -7.65177e-06 1.93103e-06 -4.38442e-06 3.52728e-07 5.80067e-06 2.53686e-06 3.82818e-06 7.67528e-06 -9.54733e-07 
1.61274e-06 2.86833e-06 3.0561e-06 4.47491e-07 7.78724e-06 -1.30196e-05 -2.27552e-06 -9.12511e-06 2.5256e-06 -5.61698e-06 2.08672e-07 7.179e-06 2.87866e-06 4.72622e-06 9.69681e-06 -1.09748e-06 
1.42194e-06 2.01874e-06 2.69997e-06 2.94577e-07 7.63774e-06 -1.06388e-05 -2.59055e-06 -8.04095e-06 1.90524e-06 -4.38848e-06 5.09791e-07 5.9132e-06 2.69257e-06 3.92313e-06 7.79319e-06 -1.03996e-06 
2.09126e-06 2.63464e-06 3.92374e-06 4.22007e-07 1.07382e-05 -1.50887e-05 -3.27667e-06 -1.14355e-05 2.71258e-06 -6.2239e-06 7.61904e-07 8.44274e-06 3.93473e-06 5.60714e-06 1.10287e-05 -1.49204e-06 
1.76276e-06 2.55814e-06 3.36079e-06 2.19085e-07 1.0424e-05 -1.36568e-05 -3.89878e-06 -1.04726e-05 2.4083e-06 -5.58884e-06 7.36847e-07 7.50922e-06 3.38501e-06 5.0122e-06 1.00499e-05 -1.37446e-06 
1.20589e-06 2.01099e-06 2.28731e-06 1.6908e-07 6.79138e-06 -9.91761e-06 -2.3343e-06 -7.21252e-06 1.85241e-06 -4.19824e-06 3.39593e-07 5.41822e-06 2.21951e-06 3.61215e-06 7.42562e-06 -9.30717e-07 
2.66537e-06 4.10113e-06 5.08895e-06 6.89221e-07 1.41789e-05 -2.00857e-05 -5.01777e-06 -1.50965e-05 3.59258e-06 -8.27458e-06 8.59577e-07 1.11306e-05 5.04559e-06 7.3511e-06 1.46278e-05 -1.89654e-06 
1.739e-06 2.37484e-06 3.28649e-06 4.21591e-07 8.75839e-06 -1.27225e-05 -2.68875e-06 -9.5481e-06 2.30529e-06 -5.27817e-06 5.62215e-07 7.11575e-06 3.25363e-06 4.70426e-06 9.29017e-06 -1.21268e-06 
2.54291e-06 3.89908e-06 4.86906e-06 4.79363e-07 1.44589e-05 -1.95776e-05 -5.38409e-06 -1.4844e-05 3.48016e-06 -8.04693e-06 9.50103e-07 1.08136e-05 4.87026e-06 7.18033e-06 1.43671e-05 -1.92341e-06 
9.78527e-07 1.60921e-06 1.82964e-06 1.38278e-07 5.06658e-06 -8.12332e-06 -1.41245e-06 -5.71333e-06 1.58177e-06 -3.52028e-06 1.85683e-07 4.44404e-06 1.73084e-06 2.96072e-06 6.14054e-06 -7.27896e-07 
1.5134e-06 2.17362e-06 2.87481e-06 3.35705e-07 8.03947e-06 -1.13129e-05 -2.70936e-06 -8.53346e-06 2.02964e-06 -4.66977e-06 5.21374e-07 6.28695e-06 2.85869e-06 4.16418e-06 8.2707e-06 -1.0908e-06 
1.73735e-06 2.89619e-06 3.37373e-06 1.61148e-07 1.09401e-05 -1.43757e-05 -4.40846e-06 -1.09468e-05 2.56118e-06 -5.92731e-06 7.08917e-07 7.83227e-06 3.3526e-06 5.21443e-06 1.06867e-05 -1.42007e-06 
1.46986e-06 2.3783e-06 2.80632e-06 4.20712e-07 7.46363e-06 -1.12525e-05 -2.48697e-06 -8.26222e-06 2.06926e-06 -4.70872e-06 3.75332e-07 6.24207e-06 2.73405e-06 4.11008e-06 8.24686e-06 -1.02065e-06 
3.03934e-06 4.65784e-06 5.80077e-06 8.11209e-07 1.60062e-05 -2.2823e-05 -5.63452e-06 -1.71383e-05 4.08356e-06 -9.40003e-06 9.6068e-07 1.26474e-05 5.74071e-06 8.35316e-06 1.66055e-05 -2.14093e-06 
1.65235e-06 2.12311e-06 3.10221e-06 2.89266e-07 8.7946e-06 -1.21449e-05 -2.816e-06 -9.24359e-06 2.17218e-06 -4.99237e-06 6.20742e-07 6.74087e-06 3.11345e-06 4.48413e-06 8.88174e-06 -1.19804e-06 
1.3926e-06 1.88383e-06 2.64381e-06 3.1038e-08 8.81034e-06 -1.09577e-05 -3.35303e-06 -8.53614e-06 1.90887e-06 -4.45797e-06 6.84683e-07 5.98465e-06 2.69441e-06 4.026e-06 8.10857e-06 -1.14998e-06 
1.06406e-06 1.47811e-06 1.99306e-06 1.50041e-07 5.54643e-06 -8.24917e-06 -1.56778e-06 -6.03083e-06 1.54742e-06 -3.49995e-06 3.26342e-07 4.57107e-06 1.94681e-06 3.04898e-06 6.16717e-06 -7.97939e-07 
2.08025e-06 3.08229e-06 3.9725e-06 3.10936e-07 1.21035e-05 -1.6068e-05 -4.51605e-06 -1.22711e-05 2.84344e-06 -6.58732e-06 8.30508e-07 8.85288e-06 3.98994e-06 5.89608e-06 1.18104e-05 -1.59968e-06 
3.14001e-06 5.97124e-06 5.98584e-06 1.13842e-06 1.45366e-05 -2.51732e-05 -4.396e-06 -1.74732e-05 4.88734e-06 -1.08602e-05 2.58856e-07 1.39193e-05 5.60938e-06 9.10494e-06 1.86288e-05 -2.04438e-06 
2.2519e-06 4.1433e-06 4.28509e-06 7.44294e-07 1.05983e-05 -1.80325e-05 -3.15576e-06 -1.25911e-05 3.49215e-06 -7.77094e-06 2.41942e-07 9.96734e-06 4.02965e-06 6.53531e-06 1.3366e-05 -1.49239e-06 
1.45514e-06 2.6953e-06 2.75741e-06 3.49879e-07 7.22993e-06 -1.2109e-05 -2.14995e-06 -8.40446e-06 2.37647e-06 -5.26361e-06 1.67289e-07 6.65412e-06 2.58308e-06 4.39078e-06 9.09709e-06 -1.02392e-06 
1.2596e-06 2.59192e-06 2.35607e-06 1.72933e-07 6.43795e-06 -1.15479e-05 -1.75496e-06 -7.69934e-06 2.36927e-06 -5.15364e-06 -4.31211e-09 6.22671e-06 2.11312e-06 4.13384e-06 8.85782e-06 -9.15233e-07 
1.16942e-06 1.82272e-06 2.21118e-06 1.90211e-07 6.11042e-06 -9.33259e-06 -1.80976e-06 -6.71797e-06 1.77607e-06 -3.99412e-06 3.03548e-07 5.16817e-06 2.13589e-06 3.43569e-06 7.00866e-06 -8.78609e-07 
1.77468e-06 2.44687e-06 3.36746e-06 1.60193e-07 1.06463e-05 -1.37343e-05 -3.93594e-06 -1.06085e-05 2.4077e-06 -5.60137e-06 7.84225e-07 7.52485e-06 3.40204e-06 5.03843e-06 1.01039e-05 -1.39494e-06 
2.12268e-06 3.43032e-06 4.08361e-06 4.85126e-07 1.1715e-05 -1.65591e-05 -4.2901e-06 -1.24232e-05 2.97994e-06 -6.85036e-06 6.84917e-07 9.12408e-06 4.02048e-06 6.02468e-06 1.21411e-05 -1.55329e-06 
1.02597e-06 1.58747e-06 1.93757e-06 1.38317e-07 5.5877e-06 -8.26065e-06 -1.74308e-06 -5.98351e-06 1.55226e-06 -3.51561e-06 3.0939e-07 4.55174e-06 1.88549e-06 3.03948e-06 6.21962e-06 -8.05201e-07 
2.01184e-06 3.37387e-06 3.90103e-06 3.01483e-07 1.20988e-05 -1.6348e-05 -4.76928e-06 -1.23678e-05 2.92581e-06 -6.75213e-06 7.44944e-07 8.94423e-06 3.85941e-06 5.93234e-06 1.20955e-05 -1.57945e-06 
1.05127e-06 1.87689e-06 1.97558e-06 1.63107e-07 5.39963e-06 -8.96591e-06 -1.51518e-06 -6.209e-06 1.77367e-06 -3.92023e-06 1.38541e-07 4.89485e-06 1.84085e-06 3.25168e-06 6.80044e-06 -7.72694e-07 
1.17152e-06 1.33415e-06 2.19283e-06 1.31348e-07 6.27087e-06 -8.55863e-06 -1.83742e-06 -6.53201e-06 1.54046e-06 -3.54827e-06 4.98914e-07 4.79692e-06 2.20664e-06 3.20994e-06 6.33958e-06 -8.94137e-07 
9.52482e-07 1.75903e-06 1.78234e-06 9.93947e-08 5.02081e-06 -8.4144e-06 -1.39415e-06 -5.75475e-06 1.687e-06 -3.71167e-06 1.06441e-07 4.5683e-06 1.64454e-06 3.04578e-06 6.44447e-06 -7.25685e-07 
1.17772e-06 1.3387e-06 2.20197e-06 1.40923e-07 6.27842e-06 -8.55044e-06 -1.84925e-06 -6.52922e-06 1.53681e-06 -3.53818e-06 4.99827e-07 4.79486e-06 2.22214e-06 3.20762e-06 6.32274e-06 -8.93818e-07 
1.87071e-06 2.71555e-06 3.56186e-06 2.78154e-07 1.08232e-05 -1.43848e-05 -3.97328e-06 -1.09996e-05 2.54143e-06 -5.89106e-06 7.4929e-07 7.91633e-06 3.57699e-06 5.27365e-06 1.05544e-05 -1.42901e-06 
8.14844e-07 1.55317e-06 1.51241e-06 2.02171e-08 4.41724e-06 -7.5908e-06 -1.14132e-06 -5.08994e-06 1.55012e-06 -3.39379e-06 6.65629e-08 4.07995e-06 1.36423e-06 2.73783e-06 5.8963e-06 -6.55268e-07 
1.62039e-06 2.56845e-06 3.12674e-06 1.05146e-07 1.02365e-05 -1.3373e-05 -4.02882e-06 -1.02494e-05 2.37432e-06 -5.49744e-06 6.78448e-07 7.24987e-06 3.10575e-06 4.83528e-06 9.91478e-06 -1.31094e-06 
1.23243e-06 2.09676e-06 2.32832e-06 1.84913e-07 6.4176e-06 -1.03194e-05 -1.82957e-06 -7.24461e-06 2.01241e-06 -4.48354e-06 2.33583e-07 5.66373e-06 2.19493e-06 3.76738e-06 7.82169e-06 -9.30434e-07 
1.64055e-06 2.27404e-06 3.11216e-06 2.06399e-07 9.50439e-06 -1.25308e-05 -3.42531e-06 -9.61545e-06 2.21415e-06 -5.13021e-06 6.82546e-07 6.90608e-06 3.13681e-06 4.61038e-06 9.21032e-06 -1.26165e-06 
1.29778e-06 1.714e-06 2.46099e-06 -1.70265e-08 8.40211e-06 -1.02702e-05 -3.2189e-06 -8.04219e-06 1.78166e-06 -4.17019e-06 6.71926e-07 5.59675e-06 2.51842e-06 3.77531e-06 7.61543e-06 -1.09358e-06 
2.97709e-06 5.33609e-06 5.72959e-06 1.14293e-06 1.40479e-05 -2.27829e-05 -4.56254e-06 -1.62441e-05 4.28473e-06 -9.66811e-06 5.19433e-07 1.27641e-05 5.51134e-06 8.3401e-06 1.67288e-05 -1.99907e-06 
1.51876e-06 2.39334e-06 2.93174e-06 5.34727e-08 9.81025e-06 -1.26447e-05 -3.89633e-06 -9.72482e-06 2.23959e-06 -5.19321e-06 6.6556e-07 6.84004e-06 2.91876e-06 4.57032e-06 9.3953e-06 -1.25283e-06 
1.41479e-06 2.21614e-06 2.67581e-06 3.15777e-07 7.08597e-06 -1.10513e-05 -2.06785e-06 -7.9623e-06 2.09434e-06 -4.71022e-06 3.29237e-07 6.13125e-06 2.57945e-06 4.05618e-06 8.21864e-06 -1.00739e-06 
1.33106e-06 1.58731e-06 2.49832e-06 2.06655e-07 6.87844e-06 -9.72004e-06 -1.9497e-06 -7.36155e-06 1.76324e-06 -4.04614e-06 5.10214e-07 5.45168e-06 2.48785e-06 3.63053e-06 7.17149e-06 -9.78146e-07 
1.65879e-06 2.1706e-06 3.13117e-06 3.78258e-07 8.29014e-06 -1.2084e-05 -2.41301e-06 -9.0551e-06 2.1962e-06 -5.03419e-06 5.63719e-07 6.78772e-06 3.09851e-06 4.49702e-06 8.87261e-06 -1.18193e-06 
3.01976e-06 5.09795e-06 5.83233e-06 8.17305e-07 1.63031e-05 -2.35498e-05 -6.0471e-06 -1.75582e-05 4.25685e-06 -9.7605e-06 8.73667e-07 1.29982e-05 5.71214e-06 8.551e-06 1.72265e-05 -2.15432e-06 
8.56505e-07 8.10887e-07 1.59822e-06 -2.27676e-08 4.97972e-06 -6.35456e-06 -1.42845e-06 -4.91624e-06 1.12888e-06 -2.64007e-06 4.81813e-07 3.57159e-06 1.63333e-06 2.4242e-06 4.81134e-06 -7.4866e-07 
1.54771e-06 2.37619e-06 2.96977e-06 1.89577e-07 9.20877e-06 -1.23475e-05 -3.45971e-06 -9.40762e-06 2.20208e-06 -5.08411e-06 6.03157e-07 6.74981e-06 2.95042e-06 4.49e-06 9.11365e-06 -1.20208e-06 
1.58326e-06 3.27136e-06 2.99776e-06 3.35464e-07 7.98931e-06 -1.40205e-05 -2.37591e-06 -9.45385e-06 2.82935e-06 -6.19849e-06 4.88115e-08 7.63479e-06 2.7377e-06 5.04432e-06 1.06688e-05 -1.13745e-06 
1.79744e-06 2.52336e-06 3.40798e-06 2.87888e-07 1.01456e-05 -1.36289e-05 -3.60267e-06 -1.04173e-05 2.41245e-06 -5.58229e-06 7.03658e-07 7.51473e-06 3.41994e-06 5.00337e-06 9.97712e-06 -1.34522e-06 
2.05343e-06 3.0046e-06 3.90716e-06 4.10731e-07 1.13441e-05 -1.55417e-05 -4.03845e-06 -1.17944e-05 2.76186e-06 -6.3821e-06 7.52531e-07 8.59179e-06 3.90383e-06 5.70325e-06 1.13643e-05 -1.51496e-06 
9.38832e-07 1.81867e-06 1.74399e-06 4.5532e-08 5.07909e-06 -8.67753e-06 -1.40163e-06 -5.86066e-06 1.76559e-06 -3.85755e-06 5.90195e-08 4.65621e-06 1.57914e-06 3.11328e-06 6.68851e-06 -7.21726e-07 
1.23944e-06 2.19154e-06 2.33795e-06 2.60426e-07 6.19863e-06 -1.02731e-05 -1.78129e-06 -7.17402e-06 2.01101e-06 -4.45818e-06 1.67512e-07 5.63514e-06 2.19376e-06 3.7276e-06 7.71958e-06 -8.76167e-07 
2.34155e-06 3.39535e-06 4.45407e-06 3.83716e-07 1.33582e-05 -1.7927e-05 -4.84446e-06 -1.36868e-05 3.16985e-06 -7.34306e-06 9.11886e-07 9.86634e-06 4.46273e-06 6.56539e-06 1.31273e-05 -1.76393e-06 
1.95258e-06 2.90201e-06 3.72736e-06 3.18416e-07 1.12397e-05 -1.50301e-05 -4.15895e-06 -1.14538e-05 2.66213e-06 -6.16477e-06 7.6372e-07 8.28458e-06 3.73835e-06 5.5127e-06 1.10321e-05 -1.48883e-06 
2.51193e-06 4.55079e-06 4.82358e-06 8.36577e-07 1.21648e-05 -1.97848e-05 -3.87034e-06 -1.40018e-05 3.76834e-06 -8.46357e-06 4.20664e-07 1.1025e-05 4.60837e-06 7.23043e-06 1.46595e-05 -1.73734e-06 
3.4348e-06 5.83946e-06 6.63447e-06 1.034e-06 1.80835e-05 -2.65445e-05 -6.62813e-06 -1.96976e-05 4.80785e-06 -1.1013e-05 9.36316e-07 1.46865e-05 6.48372e-06 9.64571e-06 1.9373e-05 -2.40623e-06 
1.68787e-06 2.4126e-06 3.21371e-06 1.82979e-07 1.00797e-05 -1.30945e-05 -3.76587e-06 -1.00689e-05 2.30346e-06 -5.35262e-06 7.26474e-07 7.19086e-06 3.24322e-06 4.80583e-06 9.64069e-06 -1.3273e-06 
1.80804e-06 3.42907e-06 3.41269e-06 4.77565e-07 8.70792e-06 -1.5159e-05 -2.48121e-06 -1.0412e-05 3.0012e-06 -6.6162e-06 1.19647e-07 8.29456e-06 3.15629e-06 5.46435e-06 1.13709e-05 -1.2258e-06 
1.69031e-06 2.71443e-06 3.25608e-06 3.06119e-07 9.72233e-06 -1.33637e-05 -3.66203e-06 -1.00831e-05 2.39621e-06 -5.52044e-06 6.01929e-07 7.34759e-06 3.22403e-06 4.86934e-06 9.8493e-06 -1.28677e-06 
1.7108e-06 2.70471e-06 3.2613e-06 4.47133e-07 8.8934e-06 -1.30802e-05 -3.01159e-06 -9.67618e-06 2.38648e-06 -5.4499e-06 4.81773e-07 7.24335e-06 3.19648e-06 4.78146e-06 9.58056e-06 -1.20674e-06 
1.37533e-06 2.90583e-06 2.59711e-06 2.30476e-07 7.10294e-06 -1.25189e-05 -2.08806e-06 -8.37297e-06 2.55144e-06 -5.57073e-06 2.15433e-08 6.7888e-06 2.35314e-06 4.49693e-06 9.59344e-06 -1.0161e-06 
1.20676e-06 1.92774e-06 2.28152e-06 2.82122e-07 6.0556e-06 -9.45041e-06 -1.81708e-06 -6.80111e-06 1.78881e-06 -4.02456e-06 2.73376e-07 5.23831e-06 2.19916e-06 3.46447e-06 7.02527e-06 -8.57318e-07 
1.40987e-06 2.25767e-06 2.73355e-06 -1.55998e-08 9.50614e-06 -1.19617e-05 -3.89241e-06 -9.22845e-06 2.11224e-06 -4.91174e-06 6.68404e-07 6.46159e-06 2.7357e-06 4.33112e-06 8.94311e-06 -1.21807e-06 
2.46313e-06 3.72347e-06 4.70219e-06 5.14405e-07 1.36677e-05 -1.87674e-05 -4.95386e-06 -1.42095e-05 3.33904e-06 -7.71399e-06 8.83629e-07 1.03721e-05 4.69114e-06 6.8768e-06 1.37243e-05 -1.81927e-06 
1.49691e-06 1.9964e-06 2.83031e-06 1.33197e-07 8.87328e-06 -1.14688e-05 -3.20371e-06 -8.86545e-06 2.0135e-06 -4.67879e-06 6.63061e-07 6.29709e-06 2.86444e-06 4.21659e-06 8.43367e-06 -1.16896e-06 
3.07799e-06 5.28753e-06 5.95975e-06 8.44206e-07 1.66933e-05 -2.40829e-05 -6.27697e-06 -1.79244e-05 4.3575e-06 -9.99151e-06 8.8987e-07 1.33101e-05 5.84084e-06 8.75354e-06 1.76432e-05 -2.21485e-06 
1.30481e-06 2.31775e-06 2.46234e-06 2.89475e-07 6.46689e-06 -1.07921e-05 -1.84997e-06 -7.52645e-06 2.11367e-06 -4.68409e-06 1.66605e-07 5.9219e-06 2.30706e-06 3.91432e-06 8.10155e-06 -9.14249e-07 
1.20394e-06 2.04005e-06 2.27311e-06 2.59594e-07 6.09827e-06 -9.74934e-06 -1.82718e-06 -6.91768e-06 1.87467e-06 -4.18631e-06 2.19327e-07 5.36093e-06 2.16337e-06 3.54744e-06 7.28414e-06 -8.55291e-07 
2.51218e-06 3.84725e-06 4.80066e-06 5.74966e-07 1.37171e-05 -1.9055e-05 -4.95041e-06 -1.43729e-05 3.40358e-06 -7.84657e-06 8.63507e-07 1.05603e-05 4.78261e-06 6.98884e-06 1.39272e-05 -1.83415e-06 
1.80538e-06 2.95804e-06 3.49399e-06 1.95386e-07 1.11295e-05 -1.47946e-05 -4.3935e-06 -1.12627e-05 2.63987e-06 -6.09822e-06 7.06945e-07 8.05958e-06 3.46299e-06 5.3586e-06 1.09578e-05 -1.4366e-06 
1.14785e-06 1.27935e-06 2.13784e-06 1.1606e-07 6.30964e-06 -8.32599e-06 -1.95712e-06 -6.41202e-06 1.47446e-06 -3.41249e-06 5.21739e-07 4.64088e-06 2.17971e-06 3.11504e-06 6.14291e-06 -8.87477e-07 
1.62971e-06 2.41184e-06 3.1196e-06 1.50989e-07 9.9987e-06 -1.28055e-05 -3.86116e-06 -9.84047e-06 2.25183e-06 -5.24115e-06 7.29844e-07 7.04203e-06 3.16044e-06 4.71061e-06 9.47578e-06 -1.32538e-06 
1.24096e-06 1.99702e-06 2.36923e-06 3.07371e-07 6.50881e-06 -9.62895e-06 -2.20052e-06 -7.08666e-06 1.76885e-06 -4.03162e-06 3.45496e-07 5.3278e-06 2.31336e-06 3.5194e-06 7.09255e-06 -8.92075e-07 
1.47967e-06 2.03582e-06 2.81841e-06 6.33873e-09 9.56843e-06 -1.17475e-05 -3.72209e-06 -9.15838e-06 2.04275e-06 -4.78027e-06 7.55568e-07 6.41931e-06 2.88225e-06 4.32484e-06 8.72662e-06 -1.25512e-06 
1.43962e-06 1.94887e-06 2.74347e-06 -8.57768e-08 9.75876e-06 -1.16189e-05 -3.88192e-06 -9.12695e-06 2.0085e-06 -4.71673e-06 8.01604e-07 6.32667e-06 2.82705e-06 4.28019e-06 8.67385e-06 -1.27434e-06 
1.1938e-06 2.13268e-06 2.25285e-06 2.37504e-07 6.02967e-06 -9.98363e-06 -1.73991e-06 -6.95102e-06 1.95866e-06 -4.34228e-06 1.63632e-07 5.4735e-06 2.11139e-06 3.62502e-06 7.52822e-06 -8.59704e-07 
1.25979e-06 1.9838e-06 2.38138e-06 3.21242e-07 6.23356e-06 -9.72644e-06 -1.86728e-06 -7.03062e-06 1.82982e-06 -4.12363e-06 2.8657e-07 5.39529e-06 2.30022e-06 3.56312e-06 7.19081e-06 -8.76069e-07 
1.35832e-06 1.7329e-06 2.56638e-06 -1.45563e-08 8.68379e-06 -1.06388e-05 -3.26304e-06 -8.34121e-06 1.84556e-06 -4.31724e-06 7.01549e-07 5.80401e-06 2.62829e-06 3.91619e-06 7.8784e-06 -1.13271e-06 
1.70852e-06 2.82227e-06 3.3134e-06 1.45622e-07 1.07741e-05 -1.41391e-05 -4.32173e-06 -1.07829e-05 2.51885e-06 -5.82699e-06 6.98562e-07 7.69475e-06 3.29223e-06 5.12354e-06 1.05035e-05 -1.3916e-06 
1.44181e-06 2.74283e-06 2.73046e-06 3.25419e-07 7.19596e-06 -1.22358e-05 -2.10834e-06 -8.42318e-06 2.42364e-06 -5.34879e-06 1.30809e-07 6.70105e-06 2.53563e-06 4.42391e-06 9.22838e-06 -1.01949e-06 
1.02587e-06 1.18888e-06 1.93176e-06 -1.42376e-07 7.12674e-06 -8.19668e-06 -2.74833e-06 -6.53554e-06 1.3983e-06 -3.30539e-06 6.41672e-07 4.44738e-06 2.01353e-06 3.03358e-06 6.13628e-06 -9.36315e-07 
1.50127e-06 2.55462e-06 2.85857e-06 3.34636e-07 7.97334e-06 -1.20253e-05 -2.70008e-06 -8.71568e-06 2.25003e-06 -5.08572e-06 3.59355e-07 6.61633e-06 2.76582e-06 4.37731e-06 8.92175e-06 -1.08896e-06 
1.04694e-06 1.74177e-06 1.96336e-06 1.69279e-07 5.37858e-06 -8.63372e-06 -1.5302e-06 -6.0841e-06 1.67867e-06 -3.7345e-06 1.90881e-07 4.73201e-06 1.85975e-06 3.14517e-06 6.50478e-06 -7.65142e-07 
1.5022e-06 2.38227e-06 2.89598e-06 1.77939e-07 9.12283e-06 -1.20927e-05 -3.53525e-06 -9.20436e-06 2.15132e-06 -4.98006e-06 6.06437e-07 6.61732e-06 2.88647e-06 4.40512e-06 8.95563e-06 -1.19992e-06 
1.65604e-06 2.35383e-06 3.15136e-06 2.05108e-07 9.73731e-06 -1.27436e-05 -3.59287e-06 -9.77315e-06 2.24566e-06 -5.21555e-06 7.04234e-07 7.02006e-06 3.18036e-06 4.68912e-06 9.38433e-06 -1.29674e-06 
1.40395e-06 2.22393e-06 2.70519e-06 1.71507e-07 8.4563e-06 -1.12779e-05 -3.24801e-06 -8.57117e-06 2.01374e-06 -4.65098e-06 5.53964e-07 6.17753e-06 2.69374e-06 4.1086e-06 8.35004e-06 -1.11223e-06 
1.53269e-06 2.35993e-06 2.93264e-06 3.63587e-07 8.22112e-06 -1.16902e-05 -2.8867e-06 -8.77386e-06 2.10523e-06 -4.83643e-06 4.96347e-07 6.47647e-06 2.89653e-06 4.27894e-06 8.5575e-06 -1.10497e-06 
2.14918e-06 3.53026e-06 4.15144e-06 3.7937e-07 1.25448e-05 -1.72165e-05 -4.81244e-06 -1.29985e-05 3.08051e-06 -7.10588e-06 7.62926e-07 9.42231e-06 4.09457e-06 6.24436e-06 1.26854e-05 -1.64164e-06 
1.12999e-06 1.71995e-06 2.14088e-06 1.99115e-07 6.04383e-06 -8.83659e-06 -1.93174e-06 -6.47066e-06 1.64129e-06 -3.72954e-06 3.49826e-07 4.89881e-06 2.10123e-06 3.25811e-06 6.59288e-06 -8.59335e-07 
1.9169e-06 2.26846e-06 3.58278e-06 3.2389e-07 9.91329e-06 -1.37335e-05 -2.95333e-06 -1.04603e-05 2.47018e-06 -5.66415e-06 7.4109e-07 7.70291e-06 3.61263e-06 5.1298e-06 1.00687e-05 -1.38681e-06 
1.65664e-06 2.69173e-06 3.20837e-06 1.08643e-07 1.05551e-05 -1.3744e-05 -4.22675e-06 -1.05133e-05 2.44308e-06 -5.65766e-06 6.98786e-07 7.46617e-06 3.19168e-06 4.97946e-06 1.02171e-05 -1.36017e-06 
1.93952e-06 2.88314e-06 3.70368e-06 3.08714e-07 1.12019e-05 -1.49511e-05 -4.16545e-06 -1.14029e-05 2.64758e-06 -6.13156e-06 7.62722e-07 8.24194e-06 3.71612e-06 5.48579e-06 1.09838e-05 -1.48363e-06 
1.4511e-06 2.33844e-06 2.77949e-06 3.60036e-07 7.74833e-06 -1.12249e-05 -2.72801e-06 -8.33527e-06 2.04019e-06 -4.6696e-06 4.31071e-07 6.20672e-06 2.72842e-06 4.09816e-06 8.24066e-06 -1.04654e-06 
1.29654e-06 1.66087e-06 2.44855e-06 1.97353e-07 6.9754e-06 -9.61981e-06 -2.19685e-06 -7.29668e-06 1.73174e-06 -3.98864e-06 5.15177e-07 5.3802e-06 2.45173e-06 3.58576e-06 7.10966e-06 -9.81301e-07 
1.06967e-06 1.74258e-06 2.01861e-06 1.65449e-07 5.56159e-06 -8.75407e-06 -1.60077e-06 -6.21667e-06 1.69046e-06 -3.77762e-06 2.31683e-07 4.82033e-06 1.9236e-06 3.20436e-06 6.59996e-06 -7.98639e-07 
1.37561e-06 1.71846e-06 2.59948e-06 -1.17444e-07 9.29197e-06 -1.10097e-05 -3.5914e-06 -8.71527e-06 1.8953e-06 -4.45155e-06 7.77114e-07 5.96629e-06 2.67902e-06 4.04505e-06 8.18741e-06 -1.19625e-06 
1.3679e-06 2.05567e-06 2.57308e-06 3.0397e-07 6.76914e-06 -1.05972e-05 -1.87213e-06 -7.64357e-06 2.00081e-06 -4.5116e-06 3.32298e-07 5.87139e-06 2.47941e-06 3.8908e-06 7.87394e-06 -9.74068e-07 
1.51933e-06 2.47728e-06 2.94773e-06 5.42022e-08 9.9526e-06 -1.2751e-05 -4.0453e-06 -9.78064e-06 2.25821e-06 -5.24428e-06 6.79759e-07 6.91227e-06 2.94145e-06 4.61998e-06 9.50969e-06 -1.28482e-06 
1.37122e-06 2.12128e-06 2.59974e-06 3.17038e-07 7.02295e-06 -1.05537e-05 -2.21134e-06 -7.71537e-06 1.96344e-06 -4.44701e-06 3.68285e-07 5.86003e-06 2.5382e-06 3.87598e-06 7.80292e-06 -9.81728e-07 
1.41411e-06 2.30336e-06 2.74744e-06 -9.8476e-10 9.52548e-06 -1.20099e-05 -3.92702e-06 -9.24662e-06 2.12181e-06 -4.93512e-06 6.66155e-07 6.49557e-06 2.74935e-06 4.35113e-06 8.98496e-06 -1.22591e-06 
2.0417e-06 3.39757e-06 3.95363e-06 3.21517e-07 1.21751e-05 -1.65161e-05 -4.75503e-06 -1.24863e-05 2.95413e-06 -6.81918e-06 7.50272e-07 9.03472e-06 3.90817e-06 5.99216e-06 1.22033e-05 -1.59187e-06 
1.51826e-06 2.41543e-06 2.92333e-06 2.49377e-07 8.91052e-06 -1.1992e-05 -3.41678e-06 -9.09229e-06 2.13473e-06 -4.93758e-06 5.77791e-07 6.59322e-06 2.91327e-06 4.3797e-06 8.84208e-06 -1.17811e-06 
2.97842e-06 5.08331e-06 5.76321e-06 7.92956e-07 1.62219e-05 -2.33302e-05 -6.09336e-06 -1.73898e-05 4.21863e-06 -9.67409e-06 8.71717e-07 1.2881e-05 5.64906e-06 8.47575e-06 1.70917e-05 -2.14541e-06 
1.74508e-06 1.5333e-06 3.20349e-06 -4.89493e-08 1.00673e-05 -1.24823e-05 -3.02303e-06 -9.81201e-06 2.20295e-06 -5.09421e-06 9.37268e-07 6.97593e-06 3.33917e-06 4.72965e-06 9.28368e-06 -1.41458e-06 
1.48226e-06 1.93307e-06 2.80941e-06 -6.30571e-08 9.78886e-06 -1.18116e-05 -3.78035e-06 -9.28588e-06 2.04385e-06 -4.78953e-06 7.94719e-07 6.42237e-06 2.883e-06 4.33996e-06 8.77198e-06 -1.26774e-06 
1.21139e-06 1.83977e-06 2.28139e-06 2.65077e-07 6.13748e-06 -9.34801e-06 -1.84991e-06 -6.79616e-06 1.75183e-06 -3.955e-06 3.11956e-07 5.18198e-06 2.219e-06 3.43407e-06 6.92998e-06 -8.64401e-07 
4.17305e-06 7.18806e-06 8.06359e-06 1.40398e-06 2.1312e-05 -3.19446e-05 -7.722e-06 -2.35852e-05 5.80991e-06 -1.32774e-05 1.03509e-06 1.774e-05 7.86146e-06 1.16167e-05 2.32598e-05 -2.85078e-06 
1.9418e-06 2.63487e-06 3.66751e-06 5.19158e-07 9.41984e-06 -1.40836e-05 -2.71138e-06 -1.05045e-05 2.5715e-06 -5.87032e-06 5.84232e-07 7.90698e-06 3.6094e-06 5.21426e-06 1.02741e-05 -1.32269e-06 
1.15357e-06 1.50931e-06 2.19266e-06 -8.93391e-08 7.87472e-06 -9.29058e-06 -3.11372e-06 -7.32562e-06 1.59885e-06 -3.76411e-06 6.63563e-07 5.05302e-06 2.26541e-06 3.4261e-06 6.93991e-06 -1.03047e-06 
8.77038e-07 1.45731e-06 1.64191e-06 8.88469e-09 4.88505e-06 -7.72897e-06 -1.32184e-06 -5.3783e-06 1.52944e-06 -3.39779e-06 1.92336e-07 4.20354e-06 1.53603e-06 2.82529e-06 5.96634e-06 -7.25529e-07 
1.07842e-06 1.36107e-06 2.03328e-06 1.2205e-07 6.12597e-06 -8.08688e-06 -2.05387e-06 -6.20506e-06 1.42739e-06 -3.31958e-06 4.81702e-07 4.48363e-06 2.05514e-06 3.00437e-06 5.97447e-06 -8.48933e-07 
2.2047e-06 3.65751e-06 4.26202e-06 3.99197e-07 1.28234e-05 -1.76696e-05 -4.92966e-06 -1.3332e-05 3.17137e-06 -7.30062e-06 7.60058e-07 9.68053e-06 4.20116e-06 6.40588e-06 1.30139e-05 -1.67002e-06 
1.08148e-06 1.76328e-06 2.07235e-06 1.48671e-07 6.22931e-06 -8.83204e-06 -2.21537e-06 -6.54138e-06 1.62137e-06 -3.70455e-06 3.54522e-07 4.83172e-06 2.02288e-06 3.21395e-06 6.5861e-06 -8.43487e-07 
2.65529e-06 4.4154e-06 5.12475e-06 6.37076e-07 1.46891e-05 -2.08592e-05 -5.49214e-06 -1.56197e-05 3.75426e-06 -8.62897e-06 8.29249e-07 1.14748e-05 5.02937e-06 7.57103e-06 1.52894e-05 -1.93601e-06 
1.11486e-06 1.73803e-06 2.16471e-06 -1.4691e-07 8.17881e-06 -9.78892e-06 -3.4458e-06 -7.65275e-06 1.70834e-06 -4.00267e-06 6.26136e-07 5.24238e-06 2.18792e-06 3.54105e-06 7.38289e-06 -1.04302e-06 
1.24435e-06 1.87029e-06 2.35274e-06 2.59716e-07 6.4512e-06 -9.59501e-06 -2.00606e-06 -7.02518e-06 1.77915e-06 -4.04141e-06 3.62744e-07 5.32006e-06 2.30144e-06 3.5313e-06 7.118e-06 -9.13665e-07 
1.10248e-06 1.34742e-06 2.08188e-06 -5.85993e-08 7.2639e-06 -8.66269e-06 -2.74343e-06 -6.81921e-06 1.49012e-06 -3.51141e-06 6.32605e-07 4.73412e-06 2.15233e-06 3.2125e-06 6.46665e-06 -9.73312e-07 
1.45685e-06 2.10338e-06 2.77227e-06 2.86666e-07 7.95202e-06 -1.10066e-05 -2.74768e-06 -8.32696e-06 1.96949e-06 -4.54056e-06 5.2864e-07 6.10633e-06 2.76323e-06 4.05212e-06 8.0714e-06 -1.07614e-06 
1.34074e-06 2.12371e-06 2.53976e-06 3.58749e-07 6.62144e-06 -1.02985e-05 -2.01469e-06 -7.45266e-06 1.93186e-06 -4.35988e-06 3.10549e-07 5.72571e-06 2.45947e-06 3.77821e-06 7.6074e-06 -9.33689e-07 
3.43213e-06 5.48493e-06 6.57098e-06 1.07942e-06 1.74952e-05 -2.56568e-05 -6.11888e-06 -1.90937e-05 4.62354e-06 -1.06078e-05 9.64953e-07 1.42746e-05 6.47208e-06 9.38429e-06 1.86265e-05 -2.356e-06 
2.36698e-06 3.95895e-06 4.57811e-06 4.91267e-07 1.35436e-05 -1.88399e-05 -5.18051e-06 -1.41545e-05 3.38057e-06 -7.78917e-06 7.98688e-07 1.03445e-05 4.50885e-06 6.84074e-06 1.38653e-05 -1.78554e-06 
1.00477e-06 1.06058e-06 1.88011e-06 4.47082e-08 5.58034e-06 -7.42131e-06 -1.6024e-06 -5.69303e-06 1.33325e-06 -3.08702e-06 4.84425e-07 4.1659e-06 1.89977e-06 2.80424e-06 5.55768e-06 -8.15179e-07 
2.28813e-06 3.50071e-06 4.37825e-06 4.4175e-07 1.29069e-05 -1.76173e-05 -4.76256e-06 -1.33538e-05 3.13726e-06 -7.2452e-06 8.32624e-07 9.72346e-06 4.36641e-06 6.45079e-06 1.29179e-05 -1.71101e-06 
1.07864e-06 1.78369e-06 2.04096e-06 1.72193e-07 5.64544e-06 -8.84715e-06 -1.66074e-06 -6.27544e-06 1.7056e-06 -3.81811e-06 2.41084e-07 4.87779e-06 1.94808e-06 3.24348e-06 6.68121e-06 -8.17591e-07 
1.28455e-06 2.2281e-06 2.43503e-06 2.974e-07 6.50929e-06 -1.04025e-05 -2.00217e-06 -7.37125e-06 1.99882e-06 -4.4668e-06 2.31379e-07 5.73288e-06 2.32025e-06 3.7887e-06 7.77263e-06 -9.15994e-07 
1.34802e-06 2.15923e-06 2.57959e-06 2.78703e-07 7.37072e-06 -1.06012e-05 -2.5843e-06 -7.86475e-06 1.93601e-06 -4.4246e-06 4.16481e-07 5.84343e-06 2.52917e-06 3.86943e-06 7.83051e-06 -9.99261e-07 
1.46838e-06 2.42624e-06 2.78177e-06 3.68979e-07 7.22481e-06 -1.15921e-05 -2.11037e-06 -8.27033e-06 2.21571e-06 -4.96085e-06 2.78105e-07 6.41705e-06 2.65715e-06 4.23253e-06 8.61026e-06 -1.01861e-06 
2.45099e-06 3.6716e-06 4.67441e-06 5.06577e-07 1.35703e-05 -1.8647e-05 -4.89642e-06 -1.4131e-05 3.31699e-06 -7.6603e-06 8.7729e-07 1.02988e-05 4.66101e-06 6.83015e-06 1.36272e-05 -1.80099e-06 
1.68524e-06 2.38315e-06 3.20456e-06 1.80069e-07 1.00307e-05 -1.30498e-05 -3.72378e-06 -1.00465e-05 2.29586e-06 -5.33196e-06 7.21393e-07 7.16257e-06 3.2322e-06 4.78652e-06 9.59933e-06 -1.31608e-06 
1.29191e-06 1.90743e-06 2.43354e-06 2.66775e-07 6.58674e-06 -9.91089e-06 -1.95404e-06 -7.22628e-06 1.85092e-06 -4.19085e-06 3.64345e-07 5.50838e-06 2.3783e-06 3.65579e-06 7.36115e-06 -9.41778e-07 
1.11859e-06 1.27915e-06 2.09669e-06 1.16957e-07 6.05804e-06 -8.17846e-06 -1.80766e-06 -6.24347e-06 1.46984e-06 -3.39046e-06 4.92795e-07 4.59279e-06 2.11922e-06 3.07642e-06 6.07504e-06 -8.712e-07 
1.71349e-06 2.74464e-06 3.28053e-06 4.3235e-07 9.12214e-06 -1.3131e-05 -3.21118e-06 -9.75175e-06 2.38412e-06 -5.46086e-06 5.20402e-07 7.28962e-06 3.23652e-06 4.81381e-06 9.63595e-06 -1.2405e-06 
3.04628e-06 5.09698e-06 5.87729e-06 8.39648e-07 1.63453e-05 -2.36651e-05 -6.0173e-06 -1.76342e-05 4.27042e-06 -9.80109e-06 8.86197e-07 1.30564e-05 5.75279e-06 8.59558e-06 1.72978e-05 -2.16862e-06 
1.02001e-06 1.07535e-06 1.90188e-06 7.64402e-08 5.61626e-06 -7.4077e-06 -1.65096e-06 -5.69435e-06 1.31655e-06 -3.05851e-06 4.94477e-07 4.15672e-06 1.93642e-06 2.79873e-06 5.51833e-06 -8.20455e-07 
1.20818e-06 1.96692e-06 2.28557e-06 2.94353e-07 5.9763e-06 -9.51542e-06 -1.75239e-06 -6.80309e-06 1.81401e-06 -4.06855e-06 2.45141e-07 5.27138e-06 2.18839e-06 3.48205e-06 7.07734e-06 -8.47453e-07 
1.95305e-06 3.15764e-06 3.76891e-06 2.66434e-07 1.17236e-05 -1.57986e-05 -4.52499e-06 -1.19966e-05 2.81873e-06 -6.51168e-06 7.38909e-07 8.61917e-06 3.72823e-06 5.72469e-06 1.1666e-05 -1.52323e-06 
1.52646e-06 2.31739e-06 2.92374e-06 1.9088e-07 9.04833e-06 -1.21334e-05 -3.38231e-06 -9.25846e-06 2.15864e-06 -4.98773e-06 5.94603e-07 6.62479e-06 2.90419e-06 4.40771e-06 8.93841e-06 -1.17656e-06 
1.56214e-06 2.65026e-06 2.9728e-06 4.12903e-07 7.71537e-06 -1.23594e-05 -2.3313e-06 -8.80241e-06 2.36097e-06 -5.29036e-06 2.9484e-07 6.85572e-06 2.84225e-06 4.5184e-06 9.18912e-06 -1.09274e-06 
2.61022e-06 4.38051e-06 5.04503e-06 6.14582e-07 1.45634e-05 -2.05869e-05 -5.49246e-06 -1.54142e-05 3.70516e-06 -8.5202e-06 8.2716e-07 1.1328e-05 4.95657e-06 7.47469e-06 1.51087e-05 -1.92248e-06 
1.81887e-06 3.30003e-06 3.48216e-06 4.71345e-07 9.15586e-06 -1.47689e-05 -2.87256e-06 -1.04139e-05 2.84985e-06 -6.3647e-06 3.04196e-07 8.18677e-06 3.31224e-06 5.39047e-06 1.10452e-05 -1.29985e-06 
2.22003e-06 3.47407e-06 4.24614e-06 6.2049e-07 1.15959e-05 -1.66711e-05 -4.08744e-06 -1.24671e-05 2.99912e-06 -6.8872e-06 6.77474e-07 9.27089e-06 4.20208e-06 6.11086e-06 1.21479e-05 -1.56327e-06 
2.41723e-06 4.07086e-06 4.67778e-06 5.25485e-07 1.37122e-05 -1.91823e-05 -5.24296e-06 -1.43932e-05 3.45235e-06 -7.93917e-06 7.89739e-07 1.05542e-05 4.60627e-06 6.96955e-06 1.41093e-05 -1.8055e-06 
1.7293e-06 2.75678e-06 3.33608e-06 1.63316e-07 1.06979e-05 -1.41492e-05 -4.17551e-06 -1.08046e-05 2.5153e-06 -5.82089e-06 6.97709e-07 7.68798e-06 3.30778e-06 5.12037e-06 1.04727e-05 -1.37913e-06 
1.23355e-06 2.21863e-06 2.31585e-06 2.37375e-07 6.14803e-06 -1.04046e-05 -1.70451e-06 -7.19928e-06 2.06033e-06 -4.54272e-06 1.27243e-07 5.6815e-06 2.15193e-06 3.761e-06 7.84313e-06 -8.65742e-07 
1.85902e-06 3.00197e-06 3.57756e-06 4.04248e-07 1.03587e-05 -1.45311e-05 -3.83148e-06 -1.09169e-05 2.61422e-06 -6.00943e-06 6.13714e-07 8.00941e-06 3.53097e-06 5.29279e-06 1.06709e-05 -1.37367e-06 
2.66254e-06 3.58722e-06 5.01756e-06 7.13872e-07 1.30833e-05 -1.90931e-05 -3.94751e-06 -1.43006e-05 3.45699e-06 -7.9069e-06 8.49543e-07 1.07279e-05 4.99512e-06 7.08463e-06 1.39024e-05 -1.83417e-06 
1.60842e-06 2.54755e-06 3.08789e-06 3.59446e-07 8.90685e-06 -1.24229e-05 -3.27731e-06 -9.34808e-06 2.2251e-06 -5.12631e-06 5.45092e-07 6.86203e-06 3.06041e-06 4.53953e-06 9.10787e-06 -1.18767e-06 
1.02463e-06 1.37676e-06 1.92655e-06 1.81808e-07 5.2449e-06 -7.73567e-06 -1.48705e-06 -5.71693e-06 1.43064e-06 -3.25855e-06 3.34998e-07 4.31312e-06 1.89099e-06 2.86989e-06 5.74466e-06 -7.56036e-07 
2.51273e-06 4.15004e-06 4.83459e-06 7.57257e-07 1.31133e-05 -1.91412e-05 -4.73442e-06 -1.42382e-05 3.45683e-06 -7.92715e-06 7.07907e-07 1.06221e-05 4.74934e-06 6.9823e-06 1.39491e-05 -1.75543e-06 
1.33861e-06 1.33491e-06 2.4808e-06 -9.30287e-08 8.41921e-06 -1.00214e-05 -2.91347e-06 -7.96193e-06 1.72928e-06 -4.04893e-06 7.71258e-07 5.51246e-06 2.58918e-06 3.74758e-06 7.44886e-06 -1.13333e-06 
2.58755e-06 3.94968e-06 4.95015e-06 5.04955e-07 1.46073e-05 -1.98602e-05 -5.39996e-06 -1.50514e-05 3.52965e-06 -8.16193e-06 9.57754e-07 1.09711e-05 4.94744e-06 7.2828e-06 1.45621e-05 -1.94603e-06 
1.15961e-06 1.79099e-06 2.1869e-06 2.4748e-07 5.94395e-06 -9.02904e-06 -1.82078e-06 -6.5578e-06 1.69156e-06 -3.82232e-06 3.0016e-07 4.99629e-06 2.12437e-06 3.31255e-06 6.70339e-06 -8.3655e-07 
1.65391e-06 2.93703e-06 3.15324e-06 3.89584e-07 8.34469e-06 -1.34885e-05 -2.53852e-06 -9.50817e-06 2.60972e-06 -5.82135e-06 2.79036e-07 7.45637e-06 2.99115e-06 4.91992e-06 1.01062e-05 -1.18535e-06 
1.27313e-06 1.7068e-06 2.41905e-06 -2.11803e-08 8.30082e-06 -1.01156e-05 -3.21151e-06 -7.91463e-06 1.75602e-06 -4.11099e-06 6.64695e-07 5.518e-06 2.47834e-06 3.72236e-06 7.5153e-06 -1.0842e-06 
1.28919e-06 2.04205e-06 2.43646e-06 3.27607e-07 6.34456e-06 -9.98291e-06 -1.87148e-06 -7.18674e-06 1.88752e-06 -4.24597e-06 2.83171e-07 5.54302e-06 2.34829e-06 3.66045e-06 7.39583e-06 -8.9797e-07 
1.46872e-06 2.05573e-06 2.797e-06 6.95606e-08 9.1949e-06 -1.15537e-05 -3.51913e-06 -8.95604e-06 2.01964e-06 -4.71087e-06 6.99151e-07 6.32578e-06 2.84453e-06 4.24684e-06 8.54982e-06 -1.20667e-06 
5.21355e-06 8.90007e-06 1.00472e-05 1.94893e-06 2.55334e-05 -3.92676e-05 -8.91694e-06 -2.88533e-05 7.15606e-06 -1.6328e-05 1.17278e-06 2.18503e-05 9.75961e-06 1.42771e-05 2.84474e-05 -3.43324e-06 
2.52173e-06 4.13311e-06 4.859e-06 5.73144e-07 1.40437e-05 -1.983e-05 -5.22278e-06 -1.48879e-05 3.5612e-06 -8.19432e-06 8.10305e-07 1.08907e-05 4.77206e-06 7.19247e-06 1.45353e-05 -1.84722e-06 
1.20274e-06 1.4284e-06 2.25308e-06 1.69805e-07 6.41847e-06 -8.76708e-06 -1.9526e-06 -6.68889e-06 1.56919e-06 -3.61809e-06 4.96574e-07 4.9004e-06 2.2695e-06 3.27364e-06 6.46029e-06 -9.0373e-07 
2.69851e-06 4.63351e-06 5.21721e-06 7.93406e-07 1.433e-05 -2.09729e-05 -5.26196e-06 -1.55131e-05 3.80613e-06 -8.72402e-06 7.54619e-07 1.16187e-05 5.10472e-06 7.63824e-06 1.53675e-05 -1.93438e-06 
1.3503e-06 1.83615e-06 2.56736e-06 8.6252e-09 8.67545e-06 -1.0688e-05 -3.34405e-06 -8.33696e-06 1.85944e-06 -4.3475e-06 6.82133e-07 5.83625e-06 2.62283e-06 3.93068e-06 7.9273e-06 -1.1338e-06 
9.58805e-07 6.00636e-07 1.74471e-06 -1.4947e-07 5.8904e-06 -6.82646e-06 -1.70362e-06 -5.47315e-06 1.17907e-06 -2.77279e-06 6.46038e-07 3.82099e-06 1.85389e-06 2.62981e-06 5.15888e-06 -8.63388e-07 
2.75868e-06 4.68651e-06 5.33842e-06 6.82993e-07 1.52703e-05 -2.17285e-05 -5.77695e-06 -1.62363e-05 3.92094e-06 -9.00272e-06 8.43932e-07 1.19768e-05 5.2405e-06 7.89221e-06 1.59424e-05 -2.01598e-06 
1.3953e-06 1.913e-06 2.64842e-06 1.00629e-07 8.47966e-06 -1.08264e-05 -3.15321e-06 -8.37283e-06 1.89805e-06 -4.41768e-06 6.38008e-07 5.93957e-06 2.68612e-06 3.98137e-06 7.98837e-06 -1.11734e-06 
1.77581e-06 2.83433e-06 3.41492e-06 3.49671e-07 1.00336e-05 -1.39416e-05 -3.72187e-06 -1.05061e-05 2.50348e-06 -5.75981e-06 6.07954e-07 7.66889e-06 3.37408e-06 5.07569e-06 1.02482e-05 -1.32511e-06 
1.00746e-06 1.91702e-06 1.88885e-06 1.09763e-07 5.29345e-06 -8.99776e-06 -1.47283e-06 -6.12372e-06 1.8142e-06 -3.98003e-06 8.54673e-08 4.87688e-06 1.73031e-06 3.2469e-06 6.89266e-06 -7.58891e-07 
1.4678e-06 2.21774e-06 2.81138e-06 1.60983e-07 8.80438e-06 -1.17147e-05 -3.30816e-06 -8.95649e-06 2.08125e-06 -4.81295e-06 5.87219e-07 6.38929e-06 2.79652e-06 4.25549e-06 8.64021e-06 -1.14335e-06 
1.26577e-06 2.16637e-06 2.39482e-06 2.89472e-07 6.38956e-06 -1.02264e-05 -1.93796e-06 -7.25446e-06 1.96404e-06 -4.38893e-06 2.2881e-07 5.63145e-06 2.2807e-06 3.72316e-06 7.63623e-06 -8.98036e-07 
9.62538e-07 1.75311e-06 1.81127e-06 1.20995e-07 5.08118e-06 -8.3622e-06 -1.45521e-06 -5.76474e-06 1.65912e-06 -3.66977e-06 1.37865e-07 4.56151e-06 1.68706e-06 3.03861e-06 6.38792e-06 -7.38975e-07 
8.93567e-07 1.71251e-06 1.66586e-06 4.97056e-08 4.77251e-06 -8.20023e-06 -1.27418e-06 -5.53334e-06 1.67202e-06 -3.65284e-06 6.01475e-08 4.41999e-06 1.5089e-06 2.95286e-06 6.32627e-06 -6.87732e-07 
7.04874e-07 1.0492e-06 1.38465e-06 -3.45093e-07 6.52497e-06 -6.86387e-06 -2.97419e-06 -5.53185e-06 1.15461e-06 -2.7781e-06 6.04929e-07 3.60533e-06 1.44673e-06 2.49183e-06 5.32757e-06 -8.44109e-07 
1.08153e-06 1.79693e-06 2.0781e-06 1.47475e-07 6.28297e-06 -8.87563e-06 -2.27144e-06 -6.56599e-06 1.63053e-06 -3.72602e-06 3.57036e-07 4.86045e-06 2.03072e-06 3.23255e-06 6.62987e-06 -8.529e-07 
1.84575e-06 2.65089e-06 3.50986e-06 2.67671e-07 1.06808e-05 -1.41745e-05 -3.89649e-06 -1.08515e-05 2.50157e-06 -5.80156e-06 7.44982e-07 7.79589e-06 3.52618e-06 5.19496e-06 1.03945e-05 -1.4091e-06 
1.48588e-06 2.09307e-06 2.83115e-06 7.85922e-08 9.2797e-06 -1.16858e-05 -3.55347e-06 -9.04961e-06 2.04389e-06 -4.76681e-06 7.02824e-07 6.40173e-06 2.87824e-06 4.29583e-06 8.64759e-06 -1.21971e-06 
1.20059e-06 1.62107e-06 2.25825e-06 2.557e-07 6.054e-06 -8.89267e-06 -1.76973e-06 -6.60428e-06 1.63213e-06 -3.72071e-06 3.85251e-07 4.96939e-06 2.22937e-06 3.29716e-06 6.55295e-06 -8.60553e-07 
2.79842e-06 4.76215e-06 5.41598e-06 7.01488e-07 1.54506e-05 -2.20269e-05 -5.8428e-06 -1.64537e-05 3.97711e-06 -9.12843e-06 8.48192e-07 1.21462e-05 5.31534e-06 8.00095e-06 1.61588e-05 -2.03965e-06 
1.17807e-06 1.3827e-06 2.21561e-06 1.27783e-07 6.33746e-06 -8.6994e-06 -1.8601e-06 -6.61289e-06 1.57439e-06 -3.62439e-06 4.99523e-07 4.88546e-06 2.22136e-06 3.26681e-06 6.47106e-06 -9.11763e-07 
8.6342e-06 1.42466e-05 1.65254e-05 3.61929e-06 3.97379e-05 -6.29538e-05 -1.29631e-05 -4.60785e-05 1.14813e-05 -2.61546e-05 1.74643e-06 3.52203e-05 1.60528e-05 2.29547e-05 4.52444e-05 -5.40124e-06 
1.23061e-06 2.14465e-06 2.32401e-06 2.6692e-07 6.18772e-06 -1.01053e-05 -1.81461e-06 -7.09927e-06 1.96118e-06 -4.36593e-06 1.93869e-07 5.54944e-06 2.19308e-06 3.67223e-06 7.57865e-06 -8.76327e-07 
1.47354e-06 1.85482e-06 2.76383e-06 2.76105e-07 7.6885e-06 -1.06853e-05 -2.39407e-06 -8.11349e-06 1.91635e-06 -4.40109e-06 5.53157e-07 5.96713e-06 2.77886e-06 3.96889e-06 7.82166e-06 -1.06617e-06 
1.16477e-06 2.0607e-06 2.20182e-06 2.20848e-07 6.04838e-06 -9.691e-06 -1.85363e-06 -6.81396e-06 1.87953e-06 -4.18731e-06 2.00947e-07 5.31378e-06 2.08566e-06 3.5236e-06 7.2985e-06 -8.56286e-07 
2.82196e-06 4.40027e-06 5.38481e-06 9.10884e-07 1.40757e-05 -2.08811e-05 -4.75383e-06 -1.55235e-05 3.76921e-06 -8.63602e-06 7.75703e-07 1.163e-05 5.29789e-06 7.64289e-06 1.51344e-05 -1.90704e-06 
1.65143e-06 2.46344e-06 3.15302e-06 3.03262e-07 9.30238e-06 -1.26167e-05 -3.38825e-06 -9.56545e-06 2.2474e-06 -5.19092e-06 6.24392e-07 6.9861e-06 3.16026e-06 4.64107e-06 9.27192e-06 -1.25146e-06 
1.97467e-06 3.2883e-06 3.82614e-06 2.83525e-07 1.19092e-05 -1.60534e-05 -4.68661e-06 -1.2159e-05 2.87031e-06 -6.62671e-06 7.39172e-07 8.77556e-06 3.78609e-06 5.82377e-06 1.18777e-05 -1.55274e-06 
2.53601e-06 4.32358e-06 4.91458e-06 5.6664e-07 1.43698e-05 -2.01645e-05 -5.52368e-06 -1.51091e-05 3.63381e-06 -8.3517e-06 8.14186e-07 1.10987e-05 4.83482e-06 7.32378e-06 1.48339e-05 -1.89143e-06 
1.4484e-06 2.36735e-06 2.81315e-06 1.87628e-08 9.67091e-06 -1.22553e-05 -3.96504e-06 -9.42051e-06 2.167e-06 -5.03892e-06 6.71595e-07 6.63536e-06 2.81363e-06 4.43996e-06 9.15877e-06 -1.24749e-06 
1.02446e-06 1.78206e-06 1.95786e-06 1.14639e-07 5.94871e-06 -8.69656e-06 -2.09313e-06 -6.32375e-06 1.63172e-06 -3.69249e-06 2.83384e-07 4.72422e-06 1.88243e-06 3.14546e-06 6.53599e-06 -8.04356e-07 
1.04679e-06 1.85716e-06 1.96547e-06 1.62181e-07 5.36513e-06 -8.91786e-06 -1.49373e-06 -6.1762e-06 1.76324e-06 -3.89857e-06 1.39649e-07 4.86713e-06 1.83075e-06 3.23467e-06 6.76443e-06 -7.69531e-07 
1.20058e-06 2.04671e-06 2.2648e-06 1.57838e-07 6.26811e-06 -1.01086e-05 -1.7716e-06 -7.09994e-06 1.98429e-06 -4.39905e-06 2.06182e-07 5.53766e-06 2.12942e-06 3.67877e-06 7.65106e-06 -8.88147e-07 
4.45695e-06 7.61494e-06 8.59706e-06 1.55232e-06 2.23975e-05 -3.38924e-05 -7.97876e-06 -2.49965e-05 6.16794e-06 -1.40852e-05 1.06663e-06 1.88276e-05 8.36882e-06 1.23196e-05 2.46223e-05 -2.99559e-06 
1.46986e-06 1.62414e-06 2.73698e-06 1.51976e-07 7.95972e-06 -1.05747e-05 -2.42017e-06 -8.13073e-06 1.88872e-06 -4.3492e-06 6.50077e-07 5.92818e-06 2.79273e-06 3.97238e-06 7.80612e-06 -1.12137e-06 
1.3987e-06 1.90663e-06 2.6531e-06 1.03283e-07 8.47423e-06 -1.08343e-05 -3.13671e-06 -8.38038e-06 1.89892e-06 -4.41981e-06 6.38038e-07 5.94255e-06 2.68974e-06 3.98344e-06 7.98932e-06 -1.11627e-06 
1.41591e-06 1.84755e-06 2.67075e-06 2.77272e-07 7.36368e-06 -1.03696e-05 -2.288e-06 -7.83278e-06 1.87096e-06 -4.29557e-06 5.17162e-07 5.80623e-06 2.66795e-06 3.85626e-06 7.61668e-06 -1.03043e-06 
2.6071e-06 4.13948e-06 4.9917e-06 8.65181e-07 1.28876e-05 -1.93326e-05 -4.33415e-06 -1.43093e-05 3.51256e-06 -8.0316e-06 6.89664e-07 1.08122e-05 4.89874e-06 7.095e-06 1.40515e-05 -1.76419e-06 
1.3153e-06 2.23692e-06 2.51585e-06 2.99647e-07 7.01551e-06 -1.05357e-05 -2.4034e-06 -7.67507e-06 1.96187e-06 -4.4445e-06 3.27361e-07 5.79616e-06 2.43269e-06 3.82935e-06 7.80651e-06 -9.54478e-07 
1.41806e-06 2.28759e-06 2.75075e-06 -1.43464e-09 9.50317e-06 -1.2015e-05 -3.8919e-06 -9.25942e-06 2.12479e-06 -4.93593e-06 6.5923e-07 6.49442e-06 2.74984e-06 4.3485e-06 8.97644e-06 -1.21591e-06 
2.55521e-06 4.45123e-06 4.87809e-06 8.60081e-07 1.20774e-05 -1.98797e-05 -3.66156e-06 -1.41067e-05 3.78119e-06 -8.48447e-06 4.10782e-07 1.10535e-05 4.64666e-06 7.2516e-06 1.46648e-05 -1.71101e-06 
1.33705e-06 2.80184e-06 2.51657e-06 2.07544e-07 6.87537e-06 -1.2203e-05 -1.9708e-06 -8.15722e-06 2.49596e-06 -5.43604e-06 4.7722e-09 6.60298e-06 2.27104e-06 4.37464e-06 9.34672e-06 -9.73892e-07 
1.85655e-06 2.89772e-06 3.56064e-06 3.51145e-07 1.04816e-05 -1.45372e-05 -3.84159e-06 -1.09823e-05 2.60477e-06 -5.99736e-06 6.45235e-07 7.98284e-06 3.51727e-06 5.28817e-06 1.0674e-05 -1.37986e-06 
1.39816e-06 2.98727e-06 2.64778e-06 2.41792e-07 7.26341e-06 -1.2734e-05 -2.18305e-06 -8.51763e-06 2.59222e-06 -5.66487e-06 2.83362e-08 6.91529e-06 2.40488e-06 4.57855e-06 9.76196e-06 -1.04164e-06 
1.10518e-06 1.78813e-06 2.08617e-06 1.51966e-07 5.88855e-06 -9.0938e-06 -1.74865e-06 -6.48742e-06 1.74247e-06 -3.91129e-06 2.68172e-07 4.99311e-06 1.99421e-06 3.32797e-06 6.86595e-06 -8.46339e-07 
1.04431e-06 1.79747e-06 1.9974e-06 1.49232e-07 5.93311e-06 -8.70894e-06 -2.07116e-06 -6.33815e-06 1.62953e-06 -3.69161e-06 2.88164e-07 4.75342e-06 1.92659e-06 3.15933e-06 6.52561e-06 -8.08129e-07 
1.43206e-06 1.99049e-06 2.72653e-06 5.05281e-08 9.03958e-06 -1.12897e-05 -3.47158e-06 -8.76685e-06 1.97075e-06 -4.60017e-06 6.94472e-07 6.17691e-06 2.77667e-06 4.15099e-06 8.36175e-06 -1.18528e-06 
3.68285e-06 6.08192e-06 7.09193e-06 1.06852e-06 1.95877e-05 -2.79947e-05 -7.20226e-06 -2.08496e-05 5.03359e-06 -1.15844e-05 1.13339e-06 1.55888e-05 7.02518e-06 1.02674e-05 2.04614e-05 -2.66032e-06 
2.50519e-06 4.16141e-06 4.82546e-06 7.37797e-07 1.31874e-05 -1.9175e-05 -4.80341e-06 -1.4271e-05 3.46305e-06 -7.94262e-06 7.13982e-07 1.06343e-05 4.74081e-06 6.99239e-06 1.39902e-05 -1.76278e-06 
1.44932e-06 2.60174e-06 2.7323e-06 3.517e-07 7.07554e-06 -1.1957e-05 -2.00572e-06 -8.31013e-06 2.34385e-06 -5.19145e-06 1.63979e-07 6.55934e-06 2.55415e-06 4.33046e-06 8.96027e-06 -1.00128e-06 
4.31192e-06 7.40361e-06 8.32584e-06 1.47566e-06 2.18548e-05 -3.2908e-05 -7.86074e-06 -2.42832e-05 5.9875e-06 -1.36777e-05 1.05052e-06 1.82789e-05 8.1112e-06 1.19649e-05 2.39369e-05 -2.92303e-06 
1.70969e-06 2.48739e-06 3.26185e-06 1.95895e-07 1.0231e-05 -1.32929e-05 -3.85251e-06 -1.02016e-05 2.33931e-06 -5.43896e-06 7.36444e-07 7.30901e-06 3.29329e-06 4.88264e-06 9.7982e-06 -1.35481e-06 
1.33791e-06 1.6168e-06 2.51433e-06 2.08491e-07 6.93401e-06 -9.79351e-06 -1.98732e-06 -7.41182e-06 1.7783e-06 -4.07877e-06 5.10505e-07 5.49458e-06 2.50395e-06 3.65782e-06 7.22915e-06 -9.84977e-07 
1.76613e-06 2.56324e-06 3.3666e-06 2.2215e-07 1.04339e-05 -1.36761e-05 -3.89524e-06 -1.04848e-05 2.41146e-06 -5.59705e-06 7.37786e-07 7.52023e-06 3.39098e-06 5.01886e-06 1.0062e-05 -1.37674e-06 
1.14366e-06 1.29808e-06 2.14191e-06 1.34047e-07 6.11621e-06 -8.32946e-06 -1.79004e-06 -6.35201e-06 1.49566e-06 -3.45255e-06 4.97104e-07 4.67593e-06 2.15909e-06 3.13125e-06 6.17834e-06 -8.82832e-07 
2.25844e-06 3.50192e-06 4.3261e-06 4.75198e-07 1.26388e-05 -1.73084e-05 -4.67184e-06 -1.30774e-05 3.08344e-06 -7.12358e-06 8.13073e-07 9.57842e-06 4.31955e-06 6.34904e-06 1.26868e-05 -1.68966e-06 
2.0281e-06 3.09743e-06 3.88485e-06 3.5581e-07 1.16762e-05 -1.56583e-05 -4.38722e-06 -1.1895e-05 2.7769e-06 -6.432e-06 7.86205e-07 8.64973e-06 3.89558e-06 5.7516e-06 1.15167e-05 -1.55938e-06 
1.82266e-06 2.63534e-06 3.46513e-06 3.44025e-07 1.01001e-05 -1.37912e-05 -3.58317e-06 -1.04806e-05 2.45394e-06 -5.66466e-06 6.75086e-07 7.62748e-06 3.46667e-06 5.06574e-06 1.00938e-05 -1.34777e-06 
1.47304e-06 2.41021e-06 2.86123e-06 3.05547e-08 9.78002e-06 -1.24355e-05 -4.00769e-06 -9.55081e-06 2.19982e-06 -5.1136e-06 6.75829e-07 6.73673e-06 2.85961e-06 4.5068e-06 9.29058e-06 -1.26299e-06 
1.71052e-06 2.90971e-06 3.33262e-06 1.49153e-07 1.09173e-05 -1.42513e-05 -4.46469e-06 -1.08379e-05 2.53868e-06 -5.88099e-06 7.1308e-07 7.76925e-06 3.31745e-06 5.17472e-06 1.06181e-05 -1.42382e-06 
1.56887e-06 2.23264e-06 2.98394e-06 1.94063e-07 9.21031e-06 -1.21032e-05 -3.38612e-06 -9.28476e-06 2.13447e-06 -4.95254e-06 6.55186e-07 6.65252e-06 3.00364e-06 4.44115e-06 8.89856e-06 -1.2161e-06 
5.26355e-06 8.50924e-06 1.00749e-05 1.8827e-06 2.57473e-05 -3.89408e-05 -8.77268e-06 -2.87913e-05 7.04833e-06 -1.61275e-05 1.31196e-06 2.17103e-05 9.86501e-06 1.42258e-05 2.81578e-05 -3.48168e-06 
2.34681e-06 3.46829e-06 4.46893e-06 4.53594e-07 1.30856e-05 -1.78682e-05 -4.70417e-06 -1.35761e-05 3.17445e-06 -7.33407e-06 8.57074e-07 9.85665e-06 4.46198e-06 6.54137e-06 1.30556e-05 -1.72924e-06 
1.11698e-06 1.66187e-06 2.10524e-06 1.86522e-07 5.92012e-06 -8.72292e-06 -1.83398e-06 -6.38114e-06 1.62591e-06 -3.68492e-06 3.35292e-07 4.82473e-06 2.06128e-06 3.21151e-06 6.50375e-06 -8.37925e-07 
2.74707e-06 4.61659e-06 5.30693e-06 6.85435e-07 1.51387e-05 -2.15645e-05 -5.6697e-06 -1.61172e-05 3.88474e-06 -8.92834e-06 8.46764e-07 1.18794e-05 5.20883e-06 7.83114e-06 1.58078e-05 -2.00357e-06 
1.71635e-06 3.38236e-06 3.23168e-06 4.07975e-07 8.35098e-06 -1.48177e-05 -2.33663e-06 -1.00513e-05 2.9739e-06 -6.52101e-06 5.43439e-08 8.06842e-06 2.9541e-06 5.32241e-06 1.11876e-05 -1.1779e-06 
2.32102e-06 3.91032e-06 4.4943e-06 4.62039e-07 1.33917e-05 -1.8558e-05 -5.16204e-06 -1.39518e-05 3.33419e-06 -7.67613e-06 7.8525e-07 1.01875e-05 4.42863e-06 6.73566e-06 1.36677e-05 -1.75735e-06 
1.80403e-06 2.47454e-06 3.40769e-06 4.66617e-07 8.98594e-06 -1.31329e-05 -2.75049e-06 -9.84189e-06 2.37723e-06 -5.44377e-06 5.71036e-07 7.34752e-06 3.37267e-06 4.85421e-06 9.57217e-06 -1.24658e-06 
1.34927e-06 2.16636e-06 2.57765e-06 2.96054e-07 7.27497e-06 -1.05456e-05 -2.50304e-06 -7.76581e-06 1.93259e-06 -4.4183e-06 4.12926e-07 5.8394e-06 2.5308e-06 3.87147e-06 7.81225e-06 -1.01147e-06 
1.38655e-06 1.92038e-06 2.62638e-06 2.76879e-07 7.41766e-06 -1.03305e-05 -2.467e-06 -7.82037e-06 1.85058e-06 -4.26108e-06 5.01577e-07 5.74293e-06 2.62032e-06 3.81179e-06 7.56464e-06 -1.01057e-06 
3.06806e-06 5.863e-06 5.85134e-06 1.10505e-06 1.4266e-05 -2.46735e-05 -4.33175e-06 -1.71083e-05 4.79215e-06 -1.06525e-05 2.58219e-07 1.36433e-05 5.48324e-06 8.92786e-06 1.82844e-05 -2.01546e-06 
1.33904e-06 2.40787e-06 2.53305e-06 3.07391e-07 6.65854e-06 -1.10738e-05 -1.94202e-06 -7.72104e-06 2.16595e-06 -4.80483e-06 1.74859e-07 6.08484e-06 2.37759e-06 4.01964e-06 8.31397e-06 -9.44151e-07 
1.0965e-06 2.36666e-06 2.05224e-06 8.73137e-08 5.84122e-06 -1.04522e-05 -1.63416e-06 -6.89932e-06 2.16908e-06 -4.70161e-06 -2.21538e-08 5.61672e-06 1.82523e-06 3.73917e-06 8.09679e-06 -8.36314e-07 
3.45531e-06 5.46332e-06 6.6114e-06 1.02762e-06 1.78794e-05 -2.58993e-05 -6.28466e-06 -1.93324e-05 4.65305e-06 -1.06959e-05 1.02505e-06 1.43951e-05 6.52809e-06 9.47856e-06 1.88284e-05 -2.40904e-06 
1.36054e-06 1.37554e-06 2.52285e-06 -8.378e-08 8.51187e-06 -1.01846e-05 -2.94271e-06 -8.08071e-06 1.76138e-06 -4.118e-06 7.70244e-07 5.6035e-06 2.62892e-06 3.80519e-06 7.56299e-06 -1.14246e-06 
1.01265e-06 1.5521e-06 1.96838e-06 -2.00117e-07 7.75445e-06 -9.05324e-06 -3.31498e-06 -7.12625e-06 1.56987e-06 -3.69305e-06 6.17784e-07 4.82616e-06 1.99918e-06 3.2745e-06 6.86017e-06 -9.86951e-07 
1.2769e-06 2.18946e-06 2.41611e-06 2.94199e-07 6.43776e-06 -1.03157e-05 -1.95159e-06 -7.31435e-06 1.98187e-06 -4.42794e-06 2.28644e-07 5.68094e-06 2.30039e-06 3.75525e-06 7.70176e-06 -9.04728e-07 
2.06215e-06 2.93243e-06 3.90647e-06 4.92486e-07 1.06837e-05 -1.52207e-05 -3.52857e-06 -1.1443e-05 2.74476e-06 -6.28741e-06 6.80406e-07 8.48592e-06 3.89211e-06 5.612e-06 1.11176e-05 -1.4616e-06 
1.56759e-06 3.07453e-06 2.93737e-06 3.32967e-07 7.64448e-06 -1.36872e-05 -2.05699e-06 -9.24906e-06 2.76396e-06 -6.04392e-06 2.97942e-08 7.42534e-06 2.66799e-06 4.90615e-06 1.03607e-05 -1.07653e-06 
1.7124e-06 2.97366e-06 3.25457e-06 4.19831e-07 8.48659e-06 -1.38282e-05 -2.50863e-06 -9.76694e-06 2.6718e-06 -5.95715e-06 2.78753e-07 7.63818e-06 3.08301e-06 5.03707e-06 1.03224e-05 -1.19778e-06 
1.55164e-06 2.58807e-06 2.95058e-06 3.90748e-07 7.99711e-06 -1.22203e-05 -2.62452e-06 -8.85765e-06 2.28204e-06 -5.16138e-06 3.60905e-07 6.74126e-06 2.85272e-06 4.45262e-06 9.02943e-06 -1.09897e-06 
1.12791e-06 1.28568e-06 2.11604e-06 1.10402e-07 6.11183e-06 -8.28999e-06 -1.79624e-06 -6.32145e-06 1.49322e-06 -3.44547e-06 4.9799e-07 4.65538e-06 2.13159e-06 3.11907e-06 6.17009e-06 -8.83211e-07 
1.73611e-06 3.07475e-06 3.3264e-06 5.02738e-07 8.63662e-06 -1.37532e-05 -2.74445e-06 -9.77611e-06 2.62047e-06 -5.88555e-06 3.31094e-07 7.65862e-06 3.19234e-06 5.03605e-06 1.02285e-05 -1.23211e-06 
1.27525e-06 1.75747e-06 2.41914e-06 2.12467e-07 7.06899e-06 -9.60499e-06 -2.42311e-06 -7.3037e-06 1.70945e-06 -3.95426e-06 5.03631e-07 5.32837e-06 2.42461e-06 3.54942e-06 7.06438e-06 -9.66345e-07 
1.45145e-06 2.88294e-06 2.7166e-06 2.74342e-07 7.17493e-06 -1.28657e-05 -1.92671e-06 -8.65444e-06 2.61105e-06 -5.70087e-06 1.83885e-08 6.96451e-06 2.45712e-06 4.60965e-06 9.78107e-06 -1.01532e-06 
1.7931e-06 3.37588e-06 3.45295e-06 4.56877e-07 9.23738e-06 -1.47339e-05 -3.03371e-06 -1.03608e-05 2.84575e-06 -6.36186e-06 3.1321e-07 8.18314e-06 3.2933e-06 5.3886e-06 1.10665e-05 -1.32218e-06 
1.04806e-06 1.95327e-06 1.96558e-06 1.39546e-07 5.4282e-06 -9.20425e-06 -1.50403e-06 -6.29158e-06 1.84374e-06 -4.05585e-06 1.01957e-07 4.99917e-06 1.80851e-06 3.32608e-06 7.02552e-06 -7.80375e-07 
1.46041e-06 1.71457e-06 2.72959e-06 1.73425e-07 7.98883e-06 -1.06464e-05 -2.53379e-06 -8.18677e-06 1.89241e-06 -4.3664e-06 6.24804e-07 5.92919e-06 2.76989e-06 3.96648e-06 7.82534e-06 -1.09996e-06 
2.22018e-06 3.24554e-06 4.22776e-06 3.88342e-07 1.25644e-05 -1.69621e-05 -4.56441e-06 -1.29246e-05 3.00422e-06 -6.95275e-06 8.46485e-07 9.3465e-06 4.23011e-06 6.21645e-06 1.2419e-05 -1.66183e-06 
8.83486e-07 1.49779e-06 1.65876e-06 7.35813e-09 4.95473e-06 -7.81922e-06 -1.37712e-06 -5.44085e-06 1.55022e-06 -3.4391e-06 1.88656e-07 4.25574e-06 1.55258e-06 2.85745e-06 6.0372e-06 -7.30402e-07 
2.57742e-06 3.9337e-06 4.91767e-06 6.41093e-07 1.37844e-05 -1.94425e-05 -4.88294e-06 -1.46392e-05 3.47556e-06 -8.00435e-06 8.41899e-07 1.07641e-05 4.87843e-06 7.11398e-06 1.41608e-05 -1.83617e-06 
5.29608e-07 1.27145e-06 9.48815e-07 -1.81227e-07 3.30525e-06 -6.21705e-06 -7.31646e-07 -3.85771e-06 1.36659e-06 -2.91604e-06 -6.96939e-08 3.22839e-06 7.65395e-07 2.2058e-06 5.05992e-06 -5.14082e-07 
1.49626e-06 2.14787e-06 2.84429e-06 2.84848e-07 8.24243e-06 -1.12875e-05 -2.89117e-06 -8.56234e-06 2.01187e-06 -4.64346e-06 5.57618e-07 6.25614e-06 2.84616e-06 4.15615e-06 8.27499e-06 -1.11223e-06 
1.8383e-06 2.46651e-06 3.47127e-06 4.68619e-07 9.00686e-06 -1.33514e-05 -2.5997e-06 -9.97233e-06 2.43382e-06 -5.56447e-06 5.77366e-07 7.4976e-06 3.42296e-06 4.95159e-06 9.76044e-06 -1.27211e-06 
1.40052e-06 1.86929e-06 2.65224e-06 7.89086e-08 8.5489e-06 -1.08466e-05 -3.15474e-06 -8.41382e-06 1.89898e-06 -4.42151e-06 6.54315e-07 5.9467e-06 2.69481e-06 3.99108e-06 8.00504e-06 -1.12476e-06 
1.84214e-06 2.87327e-06 3.53095e-06 3.53674e-07 1.03916e-05 -1.44055e-05 -3.8081e-06 -1.0891e-05 2.57754e-06 -5.93807e-06 6.39178e-07 7.90701e-06 3.48886e-06 5.23641e-06 1.05652e-05 -1.36449e-06 
1.44918e-06 2.2283e-06 2.7721e-06 3.60409e-07 7.7103e-06 -1.09919e-05 -2.695e-06 -8.23738e-06 1.97751e-06 -4.5471e-06 4.69824e-07 6.10002e-06 2.74067e-06 4.0301e-06 8.04476e-06 -1.04555e-06 
7.89317e-07 1.29843e-06 1.47174e-06 -3.86046e-08 4.49975e-06 -7.09521e-06 -1.19051e-06 -4.9263e-06 1.41488e-06 -3.13311e-06 1.74348e-07 3.84382e-06 1.37085e-06 2.59109e-06 5.5064e-06 -6.66538e-07 
1.44574e-06 2.26936e-06 2.73681e-06 4.04507e-07 7.07884e-06 -1.10055e-05 -2.15411e-06 -7.98875e-06 2.05684e-06 -4.64544e-06 3.33641e-07 6.12068e-06 2.65386e-06 4.03461e-06 8.09807e-06 -9.90626e-07 
1.89806e-06 2.86894e-06 3.62738e-06 3.7701e-07 1.06069e-05 -1.44877e-05 -3.86002e-06 -1.09644e-05 2.58212e-06 -5.96328e-06 6.969e-07 8.02285e-06 3.62682e-06 5.32304e-06 1.06259e-05 -1.42238e-06 
1.61969e-06 2.11531e-06 3.0635e-06 9.03881e-09 1.02743e-05 -1.27249e-05 -3.86069e-06 -9.95473e-06 2.21167e-06 -5.16636e-06 8.06607e-07 6.92932e-06 3.1228e-06 4.6665e-06 9.39991e-06 -1.32941e-06 
1.27367e-06 2.16622e-06 2.40779e-06 2.95616e-07 6.40103e-06 -1.02619e-05 -1.92509e-06 -7.28012e-06 1.96898e-06 -4.40205e-06 2.31168e-07 5.64999e-06 2.2926e-06 3.73593e-06 7.65727e-06 -9.01091e-07 
1.52759e-06 2.60513e-06 2.90974e-06 3.29578e-07 8.19634e-06 -1.22745e-05 -2.80713e-06 -8.90402e-06 2.29201e-06 -5.18784e-06 3.77992e-07 6.74856e-06 2.8187e-06 4.46945e-06 9.11584e-06 -1.12032e-06 
9.32163e-07 9.47334e-07 1.74402e-06 1.3917e-08 5.30379e-06 -6.90668e-06 -1.53404e-06 -5.31418e-06 1.23274e-06 -2.87177e-06 4.88525e-07 3.88203e-06 1.7729e-06 2.62386e-06 5.20458e-06 -7.90091e-07 
1.16567e-06 1.73091e-06 2.20396e-06 2.1026e-07 6.17174e-06 -9.02918e-06 -1.94498e-06 -6.63679e-06 1.67287e-06 -3.80136e-06 3.60427e-07 5.00532e-06 2.16428e-06 3.32758e-06 6.71449e-06 -8.71382e-07 
1.48829e-06 2.05737e-06 2.82879e-06 7.94365e-08 9.22332e-06 -1.16544e-05 -3.48762e-06 -9.03671e-06 2.03854e-06 -4.75031e-06 6.96473e-07 6.37784e-06 2.87228e-06 4.27936e-06 8.60708e-06 -1.20598e-06 
1.43263e-06 1.95227e-06 2.72094e-06 5.24648e-08 8.97925e-06 -1.12426e-05 -3.40653e-06 -8.74023e-06 1.96057e-06 -4.57663e-06 6.91846e-07 6.1454e-06 2.76867e-06 4.13072e-06 8.31329e-06 -1.1749e-06 
1.42281e-06 1.91473e-06 2.69018e-06 2.09541e-07 7.97815e-06 -1.06782e-05 -2.7583e-06 -8.16296e-06 1.89492e-06 -4.38119e-06 5.77634e-07 5.91566e-06 2.71157e-06 3.94535e-06 7.84371e-06 -1.07837e-06 
5.80996e-06 9.2802e-06 1.10812e-05 2.24026e-06 2.7329e-05 -4.24364e-05 -8.86137e-06 -3.12874e-05 7.70762e-06 -1.75865e-05 1.29624e-06 2.36724e-05 1.0801e-05 1.5464e-05 3.05064e-05 -3.67838e-06 
2.20588e-06 3.35562e-06 4.21524e-06 4.4718e-07 1.23259e-05 -1.68651e-05 -4.50807e-06 -1.27727e-05 3.00232e-06 -6.93364e-06 7.96339e-07 9.32015e-06 4.20812e-06 6.18051e-06 1.23454e-05 -1.6379e-06 
1.45453e-06 2.28951e-06 2.79384e-06 2.77598e-07 8.28376e-06 -1.1347e-05 -3.09002e-06 -8.5727e-06 2.02662e-06 -4.67814e-06 5.26356e-07 6.25371e-06 2.77736e-06 4.14643e-06 8.34503e-06 -1.10244e-06 
1.53199e-06 2.60781e-06 2.9093e-06 3.56069e-07 7.67695e-06 -1.23153e-05 -2.29516e-06 -8.74606e-06 2.36865e-06 -5.29135e-06 2.79467e-07 6.80683e-06 2.7702e-06 4.49404e-06 9.1938e-06 -1.08276e-06 
1.47717e-06 2.39672e-06 2.86703e-06 1.8317e-08 9.82981e-06 -1.24745e-05 -4.02416e-06 -9.59389e-06 2.20681e-06 -5.12782e-06 6.8114e-07 6.75428e-06 2.86594e-06 4.52111e-06 9.3211e-06 -1.2658e-06 
2.51993e-06 3.8555e-06 4.81089e-06 6.10558e-07 1.35782e-05 -1.90582e-05 -4.84717e-06 -1.43582e-05 3.40509e-06 -7.84548e-06 8.36317e-07 1.05502e-05 4.77732e-06 6.97625e-06 1.38957e-05 -1.80934e-06 
3.3167e-06 5.68924e-06 6.41636e-06 9.65207e-07 1.768e-05 -2.57839e-05 -6.57164e-06 -1.91541e-05 4.67243e-06 -1.07016e-05 9.18417e-07 1.42666e-05 6.27795e-06 9.37111e-06 1.88528e-05 -2.34771e-06 
2.55524e-06 3.83933e-06 4.86957e-06 8.30683e-07 1.22292e-05 -1.86611e-05 -3.75084e-06 -1.37681e-05 3.41983e-06 -7.79669e-06 6.7998e-07 1.05045e-05 4.77448e-06 6.89409e-06 1.35981e-05 -1.72201e-06 
1.68533e-06 3.33593e-06 3.17507e-06 3.87845e-07 8.24143e-06 -1.46163e-05 -2.32856e-06 -9.91017e-06 2.9381e-06 -6.43684e-06 4.9015e-08 7.95491e-06 2.89887e-06 5.25052e-06 1.10505e-05 -1.16015e-06 
2.17342e-06 3.28692e-06 4.15809e-06 3.59984e-07 1.25577e-05 -1.67835e-05 -4.69773e-06 -1.27723e-05 2.97627e-06 -6.89083e-06 8.47347e-07 9.26121e-06 4.17153e-06 6.15962e-06 1.23341e-05 -1.66666e-06 
2.61859e-06 4.26659e-06 5.04248e-06 6.58213e-07 1.43896e-05 -2.00686e-05 -5.38995e-06 -1.50336e-05 3.59366e-06 -8.28941e-06 8.80509e-07 1.11543e-05 5.0192e-06 7.37026e-06 1.47201e-05 -1.94786e-06 
1.9384e-06 2.68941e-06 3.67347e-06 2.45751e-07 1.12614e-05 -1.48523e-05 -4.06547e-06 -1.14219e-05 2.61424e-06 -6.06584e-06 7.99551e-07 8.14938e-06 3.69322e-06 5.43947e-06 1.0881e-05 -1.47493e-06 
2.70992e-06 4.62059e-06 5.2484e-06 6.56634e-07 1.50983e-05 -2.14059e-05 -5.74927e-06 -1.60026e-05 3.86193e-06 -8.86963e-06 8.39231e-07 1.1798e-05 5.15534e-06 7.77683e-06 1.57212e-05 -1.99348e-06 
1.34636e-06 2.04334e-06 2.57824e-06 1.9355e-07 7.90065e-06 -1.05657e-05 -2.96042e-06 -8.0509e-06 1.8758e-06 -4.34093e-06 5.28491e-07 5.79827e-06 2.57397e-06 3.85828e-06 7.77958e-06 -1.04001e-06 
1.37895e-06 1.65533e-06 2.57789e-06 1.86522e-07 7.49694e-06 -1.00696e-05 -2.39002e-06 -7.72442e-06 1.78871e-06 -4.1283e-06 5.74948e-07 5.59891e-06 2.60976e-06 3.7422e-06 7.38997e-06 -1.03096e-06 
1.27197e-06 1.89455e-06 2.4321e-06 1.90873e-07 7.33237e-06 -9.9432e-06 -2.64975e-06 -7.5298e-06 1.77382e-06 -4.10384e-06 5.01648e-07 5.47385e-06 2.4225e-06 3.64565e-06 7.3548e-06 -9.95386e-07 
2.15126e-06 4.03585e-06 4.10467e-06 6.85395e-07 1.02917e-05 -1.74118e-05 -3.15554e-06 -1.21395e-05 3.38145e-06 -7.51778e-06 2.30845e-07 9.62593e-06 3.85979e-06 6.31517e-06 1.29527e-05 -1.45028e-06 
2.34084e-06 3.96196e-06 4.53584e-06 4.6814e-07 1.351e-05 -1.87324e-05 -5.22916e-06 -1.40806e-05 3.36808e-06 -7.75059e-06 7.8729e-07 1.02884e-05 4.46936e-06 6.80074e-06 1.38023e-05 -1.77229e-06 
1.93604e-06 3.20778e-06 3.74879e-06 2.62093e-07 1.1718e-05 -1.57606e-05 -4.6043e-06 -1.1953e-05 2.81843e-06 -6.50407e-06 7.27391e-07 8.60737e-06 3.7097e-06 5.71285e-06 1.16577e-05 -1.52045e-06 
1.8778e-06 3.17536e-06 3.60875e-06 4.96935e-07 9.89717e-06 -1.47616e-05 -3.46772e-06 -1.08558e-05 2.71544e-06 -6.17981e-06 4.81254e-07 8.14368e-06 3.50239e-06 5.36148e-06 1.08489e-05 -1.32821e-06 
1.55884e-06 3.24269e-06 2.95337e-06 3.2531e-07 7.91082e-06 -1.38583e-05 -2.36675e-06 -9.33193e-06 2.79756e-06 -6.1316e-06 5.1448e-08 7.54697e-06 2.69729e-06 4.98844e-06 1.05614e-05 -1.13231e-06 
1.63326e-06 2.27412e-06 3.10805e-06 8.59451e-08 1.01665e-05 -1.2812e-05 -3.86969e-06 -9.93001e-06 2.23919e-06 -5.22298e-06 7.71987e-07 7.01506e-06 3.15841e-06 4.70883e-06 9.47319e-06 -1.33441e-06 
1.5965e-06 2.17853e-06 3.0355e-06 2.32268e-08 1.01983e-05 -1.26215e-05 -3.91579e-06 -9.8316e-06 2.19778e-06 -5.13683e-06 7.98363e-07 6.8948e-06 3.09791e-06 4.64083e-06 9.3584e-06 -1.33587e-06 
1.88588e-06 2.73793e-06 3.59149e-06 2.85559e-07 1.08881e-05 -1.44913e-05 -4.00246e-06 -1.10759e-05 2.55986e-06 -5.93388e-06 7.53509e-07 7.97528e-06 3.60478e-06 5.3144e-06 1.06337e-05 -1.43928e-06 
1.27317e-06 1.78784e-06 2.41976e-06 1.61324e-07 7.4355e-06 -9.77286e-06 -2.70604e-06 -7.48716e-06 1.72233e-06 -4.00152e-06 5.42694e-07 5.38417e-06 2.44021e-06 3.59776e-06 7.20044e-06 -9.98105e-07 
1.1509e-06 1.81943e-06 2.17228e-06 2.5968e-07 5.75997e-06 -9.01647e-06 -1.69257e-06 -6.48156e-06 1.71113e-06 -3.84505e-06 2.59095e-07 4.99621e-06 2.09182e-06 3.30615e-06 6.70791e-06 -8.1724e-07 
1.54554e-06 1.96381e-06 2.91727e-06 -2.88375e-08 9.92691e-06 -1.2165e-05 -3.72857e-06 -9.55688e-06 2.10762e-06 -4.92993e-06 7.94743e-07 6.61069e-06 2.98062e-06 4.46088e-06 8.99212e-06 -1.27972e-06 
2.33358e-06 3.4632e-06 4.44782e-06 4.46792e-07 1.30673e-05 -1.77978e-05 -4.73225e-06 -1.35207e-05 3.15996e-06 -7.30501e-06 8.61278e-07 9.81994e-06 4.44325e-06 6.52033e-06 1.30186e-05 -1.73152e-06 
1.59317e-06 2.59277e-06 3.08829e-06 7.5057e-08 1.03062e-05 -1.33049e-05 -4.16219e-06 -1.01969e-05 2.36271e-06 -5.47544e-06 6.90446e-07 7.22049e-06 3.07715e-06 4.82014e-06 9.90792e-06 -1.32583e-06 
1.78528e-06 2.90585e-06 3.45217e-06 1.89732e-07 1.10139e-05 -1.46182e-05 -4.33118e-06 -1.11324e-05 2.60448e-06 -6.02242e-06 7.07309e-07 7.95845e-06 3.42262e-06 5.29429e-06 1.0825e-05 -1.42427e-06 
2.09542e-06 2.72234e-06 3.94334e-06 4.41132e-07 1.07906e-05 -1.51261e-05 -3.37197e-06 -1.14183e-05 2.72603e-06 -6.2516e-06 7.65563e-07 8.49899e-06 3.96776e-06 5.64153e-06 1.10889e-05 -1.51829e-06 
2.76803e-06 4.70257e-06 5.35158e-06 7.64059e-07 1.49103e-05 -2.1553e-05 -5.54502e-06 -1.60396e-05 3.90025e-06 -8.94162e-06 8.00476e-07 1.19205e-05 5.24698e-06 7.84069e-06 1.57806e-05 -1.98388e-06 
1.10074e-06 1.68659e-06 2.07403e-06 1.73531e-07 5.73836e-06 -8.77868e-06 -1.6651e-06 -6.3189e-06 1.66869e-06 -3.75548e-06 2.88731e-07 4.85109e-06 2.00156e-06 3.22897e-06 6.59177e-06 -8.2729e-07 
1.3831e-06 1.93102e-06 2.63683e-06 2.59749e-08 8.87536e-06 -1.09689e-05 -3.4495e-06 -8.52995e-06 1.91113e-06 -4.46839e-06 6.92385e-07 6.00049e-06 2.69304e-06 4.03727e-06 8.14407e-06 -1.16673e-06 
1.00836e-06 1.58547e-06 1.89488e-06 1.86847e-07 5.11835e-06 -8.06431e-06 -1.44444e-06 -5.75551e-06 1.54355e-06 -3.46247e-06 2.27413e-07 4.45054e-06 1.81304e-06 2.95643e-06 6.0474e-06 -7.37695e-07 
1.00859e-06 1.92745e-06 1.88948e-06 1.09194e-07 5.28257e-06 -9.04326e-06 -1.4517e-06 -6.13543e-06 1.82732e-06 -4.00638e-06 7.85233e-08 4.89729e-06 1.72515e-06 3.26201e-06 6.93538e-06 -7.60847e-07 
2.58906e-06 3.75876e-06 4.91844e-06 5.08501e-07 1.4296e-05 -1.96256e-05 -5.0683e-06 -1.49251e-05 3.48398e-06 -8.04637e-06 9.34269e-07 1.08119e-05 4.9022e-06 7.17683e-06 1.43135e-05 -1.88328e-06 
1.09849e-06 1.86942e-06 2.09268e-06 1.65665e-07 6.19592e-06 -9.0535e-06 -2.14085e-06 -6.55538e-06 1.69223e-06 -3.84287e-06 3.18003e-07 4.96636e-06 2.03348e-06 3.31002e-06 6.80466e-06 -8.68916e-07 
1.68304e-06 2.76073e-06 3.26181e-06 1.32423e-07 1.06391e-05 -1.39359e-05 -4.26036e-06 -1.0641e-05 2.48138e-06 -5.74053e-06 6.92693e-07 7.57764e-06 3.24102e-06 5.04775e-06 1.03512e-05 -1.3706e-06 
1.5917e-06 2.5286e-06 3.0692e-06 1.67352e-07 9.73861e-06 -1.29367e-05 -3.77521e-06 -9.86052e-06 2.3038e-06 -5.32704e-06 6.3484e-07 7.04823e-06 3.04555e-06 4.69234e-06 9.57554e-06 -1.264e-06 
2.45982e-06 3.90274e-06 4.72913e-06 5.08502e-07 1.39653e-05 -1.89829e-05 -5.28116e-06 -1.43271e-05 3.38049e-06 -7.82008e-06 9.07085e-07 1.05201e-05 4.73144e-06 6.97634e-06 1.3961e-05 -1.88013e-06 
1.57738e-06 2.09122e-06 2.98425e-06 3.29929e-07 8.03831e-06 -1.15859e-05 -2.40194e-06 -8.68848e-06 2.11031e-06 -4.83324e-06 5.48568e-07 6.51207e-06 2.95986e-06 4.31624e-06 8.5329e-06 -1.14256e-06 
2.40587e-06 4.40902e-06 4.58849e-06 8.32807e-07 1.12949e-05 -1.9067e-05 -3.43149e-06 -1.33662e-05 3.67011e-06 -8.18895e-06 2.86232e-07 1.0567e-05 4.33451e-06 6.9222e-06 1.4098e-05 -1.59263e-06 
1.30927e-06 2.23011e-06 2.4755e-06 3.12187e-07 6.54778e-06 -1.05256e-05 -1.96501e-06 -7.46714e-06 2.01985e-06 -4.51426e-06 2.32286e-07 5.7973e-06 2.35653e-06 3.8304e-06 7.8451e-06 -9.19607e-07 
1.46333e-06 2.71212e-06 2.76116e-06 3.39536e-07 7.18511e-06 -1.23033e-05 -2.03394e-06 -8.48496e-06 2.43215e-06 -5.36948e-06 1.32226e-07 6.73149e-06 2.56093e-06 4.44538e-06 9.25597e-06 -1.01698e-06 
1.10702e-06 1.82091e-06 2.09373e-06 1.88098e-07 5.74806e-06 -9.0343e-06 -1.6804e-06 -6.41179e-06 1.7388e-06 -3.89487e-06 2.46084e-07 4.98243e-06 1.99836e-06 3.31177e-06 6.81237e-06 -8.32999e-07 
9.0307e-07 1.56194e-06 1.70076e-06 1.33054e-08 5.08022e-06 -8.0026e-06 -1.44827e-06 -5.56962e-06 1.58788e-06 -3.51946e-06 1.87436e-07 4.36092e-06 1.59375e-06 2.92366e-06 6.17446e-06 -7.43765e-07 
4.0503e-06 6.81636e-06 7.81331e-06 1.41675e-06 2.05874e-05 -3.03875e-05 -7.46934e-06 -2.24079e-05 5.47282e-06 -1.25965e-05 1.13862e-06 1.69881e-05 7.69401e-06 1.11672e-05 2.21695e-05 -2.86265e-06 
2.84888e-06 4.86632e-06 5.51543e-06 7.27751e-07 1.56872e-05 -2.24071e-05 -5.93293e-06 -1.67218e-05 4.04758e-06 -9.28893e-06 8.56635e-07 1.23623e-05 5.41212e-06 8.14065e-06 1.64354e-05 -2.07393e-06 
9.05277e-07 1.43536e-06 1.70118e-06 9.34291e-08 4.84934e-06 -7.52921e-06 -1.35935e-06 -5.3291e-06 1.45356e-06 -3.26104e-06 2.29699e-07 4.13464e-06 1.62209e-06 2.76674e-06 5.73321e-06 -7.19714e-07 
1.17883e-06 1.99017e-06 2.22312e-06 2.46636e-07 5.98004e-06 -9.57181e-06 -1.77594e-06 -6.78288e-06 1.8421e-06 -4.1138e-06 2.1643e-07 5.25898e-06 2.11362e-06 3.48344e-06 7.16167e-06 -8.42751e-07 
1.92737e-06 3.48017e-06 3.65745e-06 5.96861e-07 9.16025e-06 -1.54433e-05 -2.69907e-06 -1.08073e-05 2.98941e-06 -6.65417e-06 2.30804e-07 8.53023e-06 3.4469e-06 5.60249e-06 1.14643e-05 -1.29215e-06 
1.06761e-06 1.73797e-06 2.01515e-06 1.70359e-07 5.54514e-06 -8.71289e-06 -1.60542e-06 -6.19367e-06 1.67974e-06 -3.75581e-06 2.33087e-07 4.79914e-06 1.92247e-06 3.18953e-06 6.56282e-06 -7.95328e-07 
1.5485e-06 1.97878e-06 2.91749e-06 3.12408e-07 7.81047e-06 -1.13059e-05 -2.25506e-06 -8.50414e-06 2.06099e-06 -4.71131e-06 5.30646e-07 6.34342e-06 2.88913e-06 4.2047e-06 8.30216e-06 -1.09829e-06 
1.73636e-06 2.4759e-06 3.3026e-06 2.59039e-07 9.81654e-06 -1.32795e-05 -3.47199e-06 -1.00893e-05 2.37658e-06 -5.47372e-06 6.76712e-07 7.34885e-06 3.31259e-06 4.89083e-06 9.79374e-06 -1.32725e-06 
2.16577e-06 3.23673e-06 4.13836e-06 3.59499e-07 1.24712e-05 -1.66788e-05 -4.6336e-06 -1.27013e-05 2.95368e-06 -6.8426e-06 8.48257e-07 9.19824e-06 4.15045e-06 6.12121e-06 1.22493e-05 -1.65653e-06 
1.77477e-06 3.05252e-06 3.37757e-06 4.77112e-07 8.72126e-06 -1.41128e-05 -2.6185e-06 -1.00178e-05 2.7055e-06 -6.05178e-06 3.09025e-07 7.818e-06 3.2169e-06 5.14884e-06 1.04924e-05 -1.23131e-06 
9.55314e-07 9.68485e-07 1.78054e-06 4.47163e-08 5.32545e-06 -6.96346e-06 -1.53986e-06 -5.3637e-06 1.23758e-06 -2.88025e-06 4.84182e-07 3.91061e-06 1.81494e-06 2.63909e-06 5.21029e-06 -7.857e-07 
1.01414e-06 1.75669e-06 1.89656e-06 1.27992e-07 5.39133e-06 -8.63356e-06 -1.58557e-06 -6.03999e-06 1.68665e-06 -3.74776e-06 1.76933e-07 4.69436e-06 1.78634e-06 3.13059e-06 6.54664e-06 -7.66298e-07 
1.74865e-06 2.74921e-06 3.35383e-06 3.70404e-07 9.73955e-06 -1.35554e-05 -3.57757e-06 -1.02251e-05 2.42727e-06 -5.58965e-06 5.94076e-07 7.46946e-06 3.32019e-06 4.94224e-06 9.93234e-06 -1.28646e-06 
1.67945e-06 2.86967e-06 3.18292e-06 4.06314e-07 8.27141e-06 -1.35275e-05 -2.38178e-06 -9.55835e-06 2.61391e-06 -5.82709e-06 2.72426e-07 7.46377e-06 3.01172e-06 4.92406e-06 1.00899e-05 -1.16726e-06 
1.91246e-06 2.76713e-06 3.6379e-06 3.01268e-07 1.09618e-05 -1.46545e-05 -3.98415e-06 -1.11974e-05 2.59071e-06 -6.00235e-06 7.5283e-07 8.06607e-06 3.64899e-06 5.36925e-06 1.07367e-05 -1.4469e-06 
1.64746e-06 2.57042e-06 3.15555e-06 4.29142e-07 8.64967e-06 -1.25339e-05 -2.98856e-06 -9.35954e-06 2.26816e-06 -5.19967e-06 5.01727e-07 6.95628e-06 3.10336e-06 4.58588e-06 9.16992e-06 -1.17027e-06 
1.44204e-06 2.24537e-06 2.77019e-06 2.3207e-07 8.42618e-06 -1.1343e-05 -3.18717e-06 -8.6117e-06 2.01635e-06 -4.66705e-06 5.55707e-07 6.23381e-06 2.76087e-06 4.1441e-06 8.36065e-06 -1.11729e-06 
1.18277e-06 1.60649e-06 2.24404e-06 1.43178e-07 6.79859e-06 -9.02906e-06 -2.37552e-06 -6.90975e-06 1.60066e-06 -3.71149e-06 5.00056e-07 4.98987e-06 2.25572e-06 3.33385e-06 6.6613e-06 -9.20769e-07 
1.74855e-06 2.53825e-06 3.33445e-06 2.12117e-07 1.03739e-05 -1.35611e-05 -3.88947e-06 -1.04033e-05 2.39013e-06 -5.54921e-06 7.36706e-07 7.45678e-06 3.36055e-06 4.97846e-06 9.9851e-06 -1.36919e-06 
4.58325e-06 7.30311e-06 8.76076e-06 1.53196e-06 2.28148e-05 -3.40259e-05 -7.79476e-06 -2.52637e-05 6.1465e-06 -1.40747e-05 1.20487e-06 1.89351e-05 8.59924e-06 1.24244e-05 2.46189e-05 -3.06344e-06 
1.51388e-06 2.13039e-06 2.88348e-06 9.32314e-08 9.38176e-06 -1.18729e-05 -3.57627e-06 -9.18608e-06 2.07781e-06 -4.84356e-06 7.06444e-07 6.50551e-06 2.92752e-06 4.3638e-06 8.7783e-06 -1.23352e-06 
1.48635e-06 2.32232e-06 2.8397e-06 4.09623e-07 7.67782e-06 -1.12392e-05 -2.61591e-06 -8.35607e-06 2.03849e-06 -4.66696e-06 4.33611e-07 6.24238e-06 2.79115e-06 4.11489e-06 8.21154e-06 -1.04339e-06 
2.71542e-06 4.74573e-06 5.18628e-06 9.4202e-07 1.27642e-05 -2.10469e-05 -3.86751e-06 -1.49468e-05 3.99997e-06 -8.97674e-06 4.27345e-07 1.17142e-05 4.94445e-06 7.67294e-06 1.54949e-05 -1.80268e-06 
1.73546e-06 2.48671e-06 3.30436e-06 2.07902e-07 1.02706e-05 -1.34259e-05 -3.8213e-06 -1.03084e-05 2.36352e-06 -5.48972e-06 7.34042e-07 7.37661e-06 3.32975e-06 4.92719e-06 9.87684e-06 -1.35455e-06 
1.34798e-06 2.16256e-06 2.58804e-06 2.82973e-07 7.50445e-06 -1.05538e-05 -2.73023e-06 -7.89465e-06 1.90366e-06 -4.37753e-06 4.49179e-07 5.8203e-06 2.55337e-06 3.85478e-06 7.7746e-06 -1.01002e-06 
1.75041e-06 2.46785e-06 3.3259e-06 2.26085e-07 1.02069e-05 -1.3424e-05 -3.7268e-06 -1.02942e-05 2.36696e-06 -5.49319e-06 7.34057e-07 7.39335e-06 3.35315e-06 4.93568e-06 9.87162e-06 -1.35729e-06 
1.12533e-06 1.92374e-06 2.12771e-06 1.89459e-07 5.98885e-06 -9.29815e-06 -1.88694e-06 -6.62282e-06 1.78196e-06 -3.99013e-06 2.38633e-07 5.09432e-06 2.03258e-06 3.38347e-06 6.98724e-06 -8.3839e-07 
1.10085e-06 1.97674e-06 2.07306e-06 1.86967e-07 5.62992e-06 -9.34137e-06 -1.60333e-06 -6.47766e-06 1.84428e-06 -4.07869e-06 1.4448e-07 5.10763e-06 1.93505e-06 3.38879e-06 7.07282e-06 -8.03605e-07 
1.41379e-06 2.26143e-06 2.6795e-06 3.21332e-07 7.11323e-06 -1.10945e-05 -2.12212e-06 -7.97856e-06 2.10446e-06 -4.73153e-06 3.23306e-07 6.1559e-06 2.58212e-06 4.07123e-06 8.25831e-06 -1.01096e-06 
2.19523e-06 3.59133e-06 4.17845e-06 7.1451e-07 1.04056e-05 -1.66776e-05 -3.12723e-06 -1.2006e-05 3.13485e-06 -7.06382e-06 4.33273e-07 9.30254e-06 4.0234e-06 6.10601e-06 1.22428e-05 -1.46485e-06 
1.363e-06 2.23863e-06 2.59346e-06 3.35576e-07 7.06846e-06 -1.06714e-05 -2.33982e-06 -7.77369e-06 1.98428e-06 -4.49565e-06 3.38102e-07 5.89566e-06 2.51844e-06 3.89533e-06 7.88037e-06 -9.70642e-07 
1.51733e-06 3.14923e-06 2.86839e-06 3.00957e-07 7.68854e-06 -1.35363e-05 -2.25887e-06 -9.10817e-06 2.74225e-06 -5.99688e-06 3.37146e-08 7.3598e-06 2.61231e-06 4.86351e-06 1.03121e-05 -1.09076e-06 
1.57214e-06 2.46383e-06 3.0036e-06 3.72005e-07 8.41512e-06 -1.20441e-05 -2.94352e-06 -8.97466e-06 2.18318e-06 -5.00256e-06 4.90993e-07 6.67624e-06 2.96544e-06 4.41492e-06 8.8404e-06 -1.14032e-06 
1.4802e-06 2.04079e-06 2.81302e-06 7.52004e-08 9.18578e-06 -1.15937e-05 -3.47446e-06 -8.99352e-06 2.02728e-06 -4.7246e-06 6.95207e-07 6.34314e-06 2.85679e-06 4.25719e-06 8.56304e-06 -1.20051e-06 
9.91348e-07 1.15397e-06 1.8762e-06 -2.35641e-07 7.46669e-06 -8.18999e-06 -3.03136e-06 -6.59961e-06 1.37835e-06 -3.28855e-06 7.0163e-07 4.41555e-06 1.97799e-06 3.03317e-06 6.18382e-06 -9.762e-07 
1.90432e-06 2.84991e-06 3.64062e-06 2.91167e-07 1.10946e-05 -1.47303e-05 -4.15992e-06 -1.12357e-05 2.60737e-06 -6.04208e-06 7.60852e-07 8.12085e-06 3.65755e-06 5.40748e-06 1.08349e-05 -1.47142e-06 
2.83804e-06 4.73959e-06 5.47427e-06 7.28334e-07 1.54567e-05 -2.21791e-05 -5.71842e-06 -1.6573e-05 4.00215e-06 -9.18378e-06 8.45559e-07 1.2219e-05 5.36524e-06 8.04647e-06 1.62246e-05 -2.03549e-06 
3.02962e-06 5.43643e-06 5.79388e-06 1.1777e-06 1.39187e-05 -2.33052e-05 -4.28703e-06 -1.64958e-05 4.42593e-06 -9.92746e-06 4.10972e-07 1.29902e-05 5.51865e-06 8.48045e-06 1.70786e-05 -1.9567e-06 
2.98367e-06 5.10741e-06 5.77609e-06 7.95699e-07 1.62698e-05 -2.33869e-05 -6.12698e-06 -1.74276e-05 4.22897e-06 -9.6991e-06 8.75011e-07 1.29155e-05 5.6628e-06 8.49839e-06 1.71394e-05 -2.15425e-06 
1.45645e-06 1.82921e-06 2.74145e-06 2.79563e-07 7.44718e-06 -1.06108e-05 -2.17152e-06 -7.99722e-06 1.92222e-06 -4.41381e-06 5.36812e-07 5.95923e-06 2.73041e-06 3.95984e-06 7.81298e-06 -1.06358e-06 
1.72495e-06 1.95368e-06 3.21804e-06 2.29765e-07 9.1388e-06 -1.2371e-05 -2.7385e-06 -9.46879e-06 2.21478e-06 -5.09485e-06 7.25864e-07 6.93911e-06 3.26518e-06 4.63953e-06 9.10869e-06 -1.28964e-06 
1.81163e-06 2.98037e-06 3.50762e-06 2.03555e-07 1.1172e-05 -1.48418e-05 -4.41386e-06 -1.12862e-05 2.64559e-06 -6.11839e-06 7.15335e-07 8.08887e-06 3.47853e-06 5.37903e-06 1.09972e-05 -1.45019e-06 
1.97128e-06 2.9274e-06 3.76821e-06 2.55207e-07 1.16914e-05 -1.53249e-05 -4.41752e-06 -1.17265e-05 2.70771e-06 -6.28066e-06 8.1746e-07 8.43784e-06 3.79599e-06 5.62676e-06 1.1288e-05 -1.54441e-06 
1.11502e-06 1.81317e-06 2.10639e-06 2.35179e-07 5.63112e-06 -8.89237e-06 -1.65416e-06 -6.34738e-06 1.70174e-06 -3.81353e-06 2.36528e-07 4.91957e-06 2.01711e-06 3.25773e-06 6.64932e-06 -8.02888e-07 
1.07281e-06 1.8994e-06 2.0178e-06 1.76791e-07 5.49388e-06 -9.07118e-06 -1.55961e-06 -6.30775e-06 1.7875e-06 -3.95513e-06 1.4822e-07 4.9584e-06 1.8866e-06 3.29119e-06 6.86236e-06 -7.81716e-07 
2.9091e-06 4.93335e-06 5.625e-06 7.61425e-07 1.58844e-05 -2.27889e-05 -5.95235e-06 -1.70031e-05 4.11534e-06 -9.44446e-06 8.65079e-07 1.25739e-05 5.51562e-06 8.27828e-06 1.6697e-05 -2.10199e-06 
9.90045e-07 1.77534e-06 1.85914e-06 1.3419e-07 5.15239e-06 -8.5287e-06 -1.4442e-06 -5.89128e-06 1.69085e-06 -3.73747e-06 1.35562e-07 4.65088e-06 1.73054e-06 3.09506e-06 6.49356e-06 -7.43562e-07 
1.29538e-06 2.29178e-06 2.44407e-06 2.87365e-07 6.42314e-06 -1.0693e-05 -1.83713e-06 -7.46664e-06 2.09205e-06 -4.63798e-06 1.69284e-07 5.86863e-06 2.29249e-06 3.87851e-06 8.02207e-06 -9.06889e-07 
1.42929e-06 1.86811e-06 2.71284e-06 -8.82215e-08 9.61455e-06 -1.14624e-05 -3.76169e-06 -9.02632e-06 1.9772e-06 -4.64524e-06 7.96077e-07 6.23091e-06 2.7936e-06 4.21821e-06 8.5383e-06 -1.25139e-06 
1.36741e-06 2.09224e-06 2.62263e-06 1.74143e-07 8.17268e-06 -1.08294e-05 -3.109e-06 -8.26777e-06 1.9188e-06 -4.44623e-06 5.51146e-07 5.93002e-06 2.62001e-06 3.94992e-06 7.98551e-06 -1.07114e-06 
2.10046e-06 3.07979e-06 3.99389e-06 5.16581e-07 1.09741e-05 -1.55843e-05 -3.70903e-06 -1.16784e-05 2.80958e-06 -6.44612e-06 7.01854e-07 8.70337e-06 3.98408e-06 5.75508e-06 1.14118e-05 -1.51696e-06 
2.13978e-06 3.5825e-06 4.14388e-06 3.66054e-07 1.2612e-05 -1.72498e-05 -4.90945e-06 -1.30206e-05 3.09368e-06 -7.12837e-06 7.57216e-07 9.44955e-06 4.09097e-06 6.25758e-06 1.27307e-05 -1.64601e-06 
2.05482e-06 3.57266e-06 3.91321e-06 5.96702e-07 9.93492e-06 -1.62876e-05 -2.96138e-06 -1.15341e-05 3.1257e-06 -6.98575e-06 3.25769e-07 9.02473e-06 3.71619e-06 5.93309e-06 1.20794e-05 -1.39886e-06 
1.0452e-06 1.85413e-06 1.96425e-06 1.6348e-07 5.37593e-06 -8.88757e-06 -1.51514e-06 -6.16423e-06 1.75371e-06 -3.88131e-06 1.46183e-07 4.85386e-06 1.8337e-06 3.22587e-06 6.73975e-06 -7.7134e-07 
1.46698e-06 1.97694e-06 2.77946e-06 1.08148e-07 8.86052e-06 -1.13272e-05 -3.25975e-06 -8.76649e-06 1.98406e-06 -4.61947e-06 6.71897e-07 6.21541e-06 2.81931e-06 4.16761e-06 8.35197e-06 -1.16974e-06 
9.97389e-07 1.45818e-06 1.87135e-06 1.14582e-07 5.29364e-06 -7.99791e-06 -1.48286e-06 -5.76135e-06 1.51861e-06 -3.42769e-06 2.94659e-07 4.41426e-06 1.80926e-06 2.95323e-06 6.04476e-06 -7.80192e-07 
2.24313e-06 3.8543e-06 4.27105e-06 7.05752e-07 1.0684e-05 -1.75234e-05 -3.18918e-06 -1.24516e-05 3.34099e-06 -7.48536e-06 3.64777e-07 9.72544e-06 4.06682e-06 6.3866e-06 1.29395e-05 -1.50406e-06 
3.03243e-06 5.34001e-06 5.79982e-06 1.10089e-06 1.41495e-05 -2.33752e-05 -4.32702e-06 -1.6613e-05 4.43629e-06 -9.95655e-06 4.61966e-07 1.30279e-05 5.53526e-06 8.51737e-06 1.71592e-05 -1.98731e-06 
1.35831e-06 2.04537e-06 2.5672e-06 3.41882e-07 6.77524e-06 -1.02827e-05 -2.06532e-06 -7.52449e-06 1.90962e-06 -4.325e-06 3.56893e-07 5.72063e-06 2.50697e-06 3.78051e-06 7.57273e-06 -9.49475e-07 
8.46588e-07 1.61274e-06 1.57408e-06 3.45262e-08 4.55647e-06 -7.82726e-06 -1.19066e-06 -5.26054e-06 1.59538e-06 -3.49329e-06 6.80538e-08 4.21245e-06 1.42287e-06 2.82297e-06 6.0647e-06 -6.7164e-07 
2.10589e-06 3.49167e-06 4.07356e-06 3.48375e-07 1.24176e-05 -1.69688e-05 -4.81179e-06 -1.28267e-05 3.04191e-06 -7.00813e-06 7.47895e-07 9.2865e-06 4.02053e-06 6.15161e-06 1.25165e-05 -1.61475e-06 
1.60618e-06 3.41591e-06 3.05799e-06 3.44493e-07 8.24208e-06 -1.43142e-05 -2.5615e-06 -9.64248e-06 2.88825e-06 -6.33265e-06 5.68251e-08 7.81281e-06 2.80285e-06 5.15702e-06 1.09112e-05 -1.17677e-06 
1.15594e-06 1.78069e-06 2.18012e-06 1.95841e-07 5.98423e-06 -9.19465e-06 -1.7388e-06 -6.61318e-06 1.74724e-06 -3.93264e-06 2.9805e-07 5.08503e-06 2.10251e-06 3.38255e-06 6.89886e-06 -8.64033e-07 
9.54483e-07 1.63325e-06 1.79757e-06 4.48868e-08 5.27635e-06 -8.34184e-06 -1.49355e-06 -5.81318e-06 1.64562e-06 -3.65825e-06 2.02319e-07 4.55281e-06 1.68749e-06 3.05036e-06 6.41762e-06 -7.78493e-07 
1.15122e-06 9.67129e-07 2.11182e-06 -3.74251e-08 6.63891e-06 -8.20395e-06 -1.95627e-06 -6.46054e-06 1.44079e-06 -3.34564e-06 6.37799e-07 4.58652e-06 2.20144e-06 3.11573e-06 6.11081e-06 -9.44383e-07 
