-0.000121395 -5.42908e-05 0.000122913 -3.28317e-05 1.65045e-05 0.000196509 -0.000185927 2.62377e-05 0.000113385 -4.86567e-05 -0.000105672 5.33561e-05 0.00024137 0.000105923 0.000100679 0.000115593 
-7.46356e-05 -2.65262e-05 0.000122568 -4.77085e-06 9.31992e-07 0.000191442 -0.000144555 3.04511e-05 0.000125946 -6.86608e-05 -6.38405e-05 5.18798e-05 0.00022769 0.00011572 0.000116056 0.00012195 
-3.4704e-05 -1.37984e-05 9.32715e-05 -1.15661e-06 -4.62101e-06 0.000163165 -7.0961e-05 3.41301e-05 0.0001156 -7.81308e-05 -4.35762e-05 5.47774e-05 0.000183115 9.66613e-05 0.000109321 0.000103 
-7.46354e-05 -2.65262e-05 0.000122569 -4.77061e-06 9.31867e-07 0.000191445 -0.000144556 3.04516e-05 0.000125948 -6.86622e-05 -6.38405e-05 5.18802e-05 0.000227693 0.000115722 0.000116058 0.000121952 
-4.0073e-05 -1.51359e-05 7.35965e-05 -3.38614e-06 -5.58906e-07 0.0001214 -7.59078e-05 2.19233e-05 8.1909e-05 -4.92795e-05 -3.91912e-05 3.66141e-05 0.000141219 7.19958e-05 7.62732e-05 7.64968e-05 
-3.61197e-05 -1.43893e-05 0.000110234 1.71782e-07 -6.54017e-06 0.000193488 -7.82495e-05 4.12321e-05 0.000138442 -9.49686e-05 -4.81373e-05 6.54212e-05 0.000215624 0.000115283 0.000131209 0.000122618 
-9.98851e-05 -4.71949e-05 6.37476e-05 -3.49941e-05 2.06344e-05 9.58255e-05 -0.000138625 8.92835e-06 4.34768e-05 -4.00327e-06 -8.46694e-05 1.85217e-05 0.000127411 4.5334e-05 3.41104e-05 5.06635e-05 
-7.46356e-05 -2.65262e-05 0.000122568 -4.77087e-06 9.32042e-07 0.000191442 -0.000144555 3.04509e-05 0.000125946 -6.86605e-05 -6.38404e-05 5.18796e-05 0.00022769 0.00011572 0.000116056 0.00012195 
-3.61246e-05 -1.43922e-05 0.000110233 1.68958e-07 -6.53845e-06 0.000193487 -7.82543e-05 4.12313e-05 0.00013844 -9.49655e-05 -4.81412e-05 6.54205e-05 0.000215624 0.000115281 0.000131206 0.000122616 
-0.000238986 -0.000126905 2.86936e-05 -0.000118363 7.315e-05 3.00608e-05 -0.000265106 -1.83853e-05 -5.11827e-05 9.98082e-05 -0.000200824 -1.95239e-05 8.49402e-05 -2.69707e-05 -6.8824e-05 -1.81854e-05 
-5.0535e-05 -2.17422e-05 7.94161e-05 -9.64696e-06 2.31072e-06 0.000133844 -8.60435e-05 2.38959e-05 8.76825e-05 -5.15362e-05 -5.05157e-05 4.14452e-05 0.000156 7.63746e-05 8.11115e-05 8.21493e-05 
-4.19473e-05 -1.66177e-05 0.000105497 -2.1137e-06 -4.73044e-06 0.000184543 -8.29084e-05 3.82195e-05 0.000130056 -8.72757e-05 -5.12929e-05 6.20203e-05 0.000207898 0.000108879 0.000122883 0.000116178 
-3.50453e-05 -1.39781e-05 8.83652e-05 -1.83814e-06 -3.85447e-06 0.000154198 -6.98006e-05 3.18507e-05 0.000108574 -7.26784e-05 -4.26753e-05 5.15161e-05 0.000173696 9.10528e-05 0.000102526 9.7119e-05 
-6.58272e-05 -2.63603e-05 8.50857e-05 -1.20264e-05 3.94328e-06 0.000140862 -0.000106982 2.29152e-05 8.91607e-05 -4.86577e-05 -6.06042e-05 4.22508e-05 0.000168554 7.96037e-05 8.17799e-05 8.57629e-05 
-0.000221179 -0.000118576 2.70192e-05 -0.000111009 6.85751e-05 2.8746e-05 -0.000245311 -1.63982e-05 -4.68788e-05 9.20974e-05 -0.000186998 -1.83187e-05 7.9158e-05 -2.4783e-05 -6.34236e-05 -1.65539e-05 
-7.46353e-05 -2.65261e-05 0.000122569 -4.77051e-06 9.31781e-07 0.000191445 -0.000144556 3.04516e-05 0.000125948 -6.86621e-05 -6.38403e-05 5.18803e-05 0.000227692 0.000115721 0.000116058 0.000121952 
-3.61211e-05 -1.43907e-05 0.000110235 1.70362e-07 -6.53946e-06 0.000193491 -7.82512e-05 4.12328e-05 0.000138444 -9.49693e-05 -4.81392e-05 6.5422e-05 0.000215627 0.000115284 0.00013121 0.000122619 
-0.000199089 -0.000106217 2.52364e-05 -9.91157e-05 6.11965e-05 2.73619e-05 -0.000221312 -1.46095e-05 -4.09639e-05 8.19766e-05 -0.00016797 -1.57564e-05 7.304e-05 -2.11669e-05 -5.58174e-05 -1.37545e-05 
-6.31536e-05 -2.27144e-05 9.49502e-05 -5.71031e-06 1.59554e-06 0.00014962 -0.000116306 2.34434e-05 9.71226e-05 -5.22605e-05 -5.41971e-05 4.12522e-05 0.000179138 8.91477e-05 8.93394e-05 9.43964e-05 
-4.31612e-05 -1.71505e-05 9.68948e-05 -3.46945e-06 -3.22157e-06 0.000168469 -8.1852e-05 3.40555e-05 0.000117303 -7.71781e-05 -5.00331e-05 5.59131e-05 0.000191211 9.88592e-05 0.000110489 0.000105621 
-5.98805e-05 -2.57436e-05 7.81675e-05 -1.31675e-05 4.83612e-06 0.000129952 -9.6844e-05 2.1508e-05 8.19485e-05 -4.46119e-05 -5.65543e-05 3.87405e-05 0.000154517 7.27358e-05 7.49638e-05 7.86518e-05 
-0.000238994 -0.000126908 2.86946e-05 -0.000118365 7.31515e-05 3.00615e-05 -0.000265117 -1.83862e-05 -5.11843e-05 9.98114e-05 -0.00020083 -1.9525e-05 8.49436e-05 -2.69712e-05 -6.8826e-05 -1.81856e-05 
-0.000178182 -9.38958e-05 3.13162e-05 -8.60244e-05 5.28715e-05 3.88406e-05 -0.000202545 -1.03768e-05 -2.55331e-05 6.54732e-05 -0.000150244 -9.12057e-06 8.12653e-05 -9.25959e-06 -3.90773e-05 -2.24868e-06 
-0.00019909 -0.000106217 2.52366e-05 -9.91156e-05 6.11965e-05 2.7362e-05 -0.000221313 -1.46096e-05 -4.09639e-05 8.19766e-05 -0.00016797 -1.57565e-05 7.30402e-05 -2.11668e-05 -5.58174e-05 -1.37544e-05 
-0.00013962 -7.05118e-05 4.46007e-05 -6.08328e-05 3.66754e-05 6.40216e-05 -0.000168788 -1.6213e-06 6.22168e-06 3.23037e-05 -0.000117707 4.78225e-06 0.000101009 1.5336e-05 -4.89634e-06 2.17772e-05 
-0.000199089 -0.000106217 2.52365e-05 -9.9115e-05 6.11961e-05 2.73622e-05 -0.000221311 -1.46094e-05 -4.09634e-05 8.19759e-05 -0.000167969 -1.57562e-05 7.30401e-05 -2.11665e-05 -5.58168e-05 -1.37541e-05 
-0.00010709 -5.50651e-05 3.85135e-05 -4.76667e-05 2.81533e-05 5.82325e-05 -0.000129174 1.65663e-06 1.173e-05 1.90327e-05 -9.30227e-05 7.25798e-06 8.65415e-05 1.67042e-05 2.83343e-06 2.20202e-05 
-3.50453e-05 -1.39781e-05 8.83654e-05 -1.83814e-06 -3.85449e-06 0.000154198 -6.98006e-05 3.18509e-05 0.000108574 -7.26787e-05 -4.26753e-05 5.15162e-05 0.000173696 9.10531e-05 0.000102526 9.71193e-05 
-0.000122883 -5.41475e-05 0.000116258 -3.3272e-05 1.69881e-05 0.000185365 -0.000185083 2.3772e-05 0.000104847 -4.25993e-05 -0.000105729 4.96017e-05 0.000230248 9.88032e-05 9.25024e-05 0.000108169 
-6.06617e-05 -2.68623e-05 7.05798e-05 -1.54111e-05 6.57258e-06 0.00011684 -9.43334e-05 1.86733e-05 7.15589e-05 -3.6799e-05 -5.66322e-05 3.39718e-05 0.000140386 6.40474e-05 6.47855e-05 6.95831e-05 
-3.97858e-05 -1.57946e-05 9.0152e-05 -3.06526e-06 -3.08926e-06 0.000156703 -7.58543e-05 3.16353e-05 0.000109166 -7.18462e-05 -4.61317e-05 5.20322e-05 0.000177769 9.20151e-05 0.000102848 9.83123e-05 
-8.74882e-05 -3.71714e-05 9.37322e-05 -2.05414e-05 9.77058e-06 0.000150352 -0.000136708 2.08568e-05 8.91052e-05 -4.09592e-05 -7.59564e-05 4.17638e-05 0.000184128 8.26855e-05 7.99561e-05 8.96937e-05 
-0.000221179 -0.000118576 2.70187e-05 -0.00011101 6.85753e-05 2.87452e-05 -0.000245311 -1.63985e-05 -4.68797e-05 9.20982e-05 -0.000186998 -1.8319e-05 7.91571e-05 -2.47837e-05 -6.34245e-05 -1.65546e-05 
-0.000221185 -0.000118579 2.70179e-05 -0.000111013 6.85773e-05 2.87435e-05 -0.000245317 -1.63994e-05 -4.68828e-05 9.21018e-05 -0.000187003 -1.83203e-05 7.91565e-05 -2.4786e-05 -6.34279e-05 -1.65567e-05 
-8.61739e-05 -3.11472e-05 0.000107142 -1.14498e-05 3.6149e-06 0.000173227 -0.000142297 2.60648e-05 0.000108924 -5.71401e-05 -7.42204e-05 5.07552e-05 0.000210546 9.96427e-05 9.99228e-05 0.000106666 
-7.46365e-05 -2.65266e-05 0.000122568 -4.77121e-06 9.32215e-07 0.000191443 -0.000144556 3.0451e-05 0.000125946 -6.86605e-05 -6.38411e-05 5.18797e-05 0.000227691 0.00011572 0.000116056 0.00012195 
-0.000238991 -0.000126907 2.86931e-05 -0.000118365 7.31513e-05 3.00599e-05 -0.000265111 -1.8386e-05 -5.11849e-05 9.98108e-05 -0.000200829 -1.95247e-05 8.49407e-05 -2.69723e-05 -6.88263e-05 -1.81867e-05 
-6.49629e-05 -2.3563e-05 9.58442e-05 -6.36376e-06 1.99537e-06 0.000150888 -0.000118708 2.34799e-05 9.75436e-05 -5.20548e-05 -5.5659e-05 4.14425e-05 0.000180943 8.96808e-05 8.96061e-05 9.50048e-05 
-3.50458e-05 -1.39784e-05 8.83654e-05 -1.8384e-06 -3.85433e-06 0.000154198 -6.98012e-05 3.18508e-05 0.000108574 -7.26784e-05 -4.26757e-05 5.15162e-05 0.000173696 9.1053e-05 0.000102526 9.71192e-05 
-7.46342e-05 -2.65255e-05 0.000122566 -4.77039e-06 9.31728e-07 0.00019144 -0.000144553 3.04507e-05 0.000125944 -6.86602e-05 -6.38392e-05 5.18792e-05 0.000227687 0.000115718 0.000116055 0.000121949 
-0.000221179 -0.000118576 2.70182e-05 -0.00011101 6.85757e-05 2.87442e-05 -0.00024531 -1.63986e-05 -4.68804e-05 9.20987e-05 -0.000186998 -1.83194e-05 7.91556e-05 -2.47844e-05 -6.34253e-05 -1.65554e-05 
-4.80291e-05 -1.90071e-05 9.67334e-05 -4.85663e-06 -2.12191e-06 0.000166815 -8.80561e-05 3.24926e-05 0.000114478 -7.34028e-05 -5.25041e-05 5.46823e-05 0.00019093 9.73832e-05 0.000107469 0.000104201 
-0.000199089 -0.000106217 2.52371e-05 -9.91152e-05 6.11962e-05 2.7363e-05 -0.000221312 -1.46092e-05 -4.09628e-05 8.19756e-05 -0.000167969 -1.5756e-05 7.3041e-05 -2.11661e-05 -5.58163e-05 -1.37536e-05 
-0.000119501 -5.19705e-05 0.000113656 -3.13166e-05 1.59919e-05 0.000180866 -0.000180975 2.29853e-05 0.000102583 -4.17831e-05 -0.000102125 4.83886e-05 0.00022502 9.68472e-05 9.06964e-05 0.000105996 
-3.61169e-05 -1.43882e-05 0.000110236 1.73006e-07 -6.54125e-06 0.000193493 -7.8247e-05 4.12337e-05 0.000138447 -9.49728e-05 -4.81358e-05 6.54234e-05 0.000215629 0.000115287 0.000131213 0.000122621 
-3.68117e-05 -1.46506e-05 9.2102e-05 -1.94244e-06 -3.95732e-06 0.000160443 -7.33048e-05 3.29807e-05 0.00011282 -7.53107e-05 -4.44344e-05 5.34839e-05 0.000180842 9.47712e-05 0.000106498 0.000101061 
-8.84698e-05 -4.49751e-05 4.65322e-05 -3.71058e-05 2.08959e-05 7.47134e-05 -0.000111712 7.73154e-06 3.03024e-05 6.96162e-08 -7.9713e-05 1.56902e-05 9.99843e-05 3.04512e-05 2.23085e-05 3.57468e-05 
-3.97862e-05 -1.57951e-05 9.01535e-05 -3.06564e-06 -3.08914e-06 0.000156706 -7.58552e-05 3.16359e-05 0.000109168 -7.18474e-05 -4.61326e-05 5.20331e-05 0.000177772 9.20167e-05 0.000102849 9.83139e-05 
-6.27291e-05 -2.74637e-05 9.07279e-05 -1.33728e-05 4.35469e-06 0.000151395 -0.00010458 2.59152e-05 9.72351e-05 -5.48324e-05 -6.08076e-05 4.5806e-05 0.000177801 8.56509e-05 8.938e-05 9.22946e-05 
-8.61887e-05 -3.11529e-05 0.000107125 -1.14569e-05 3.61989e-06 0.000173199 -0.000142306 2.60575e-05 0.000108899 -5.71199e-05 -7.42305e-05 5.07448e-05 0.000210521 9.96217e-05 9.98986e-05 0.000106646 
-0.000221178 -0.000118575 2.702e-05 -0.000111009 6.85746e-05 2.87478e-05 -0.00024531 -1.63977e-05 -4.68772e-05 9.20959e-05 -0.000186997 -1.83178e-05 7.91596e-05 -2.47818e-05 -6.3422e-05 -1.65527e-05 
-0.000104559 -4.97433e-05 6.45113e-05 -3.7343e-05 2.21544e-05 9.6438e-05 -0.000144182 8.56241e-06 4.24852e-05 -1.93183e-06 -8.85448e-05 1.79028e-05 0.000129103 4.4901e-05 3.27272e-05 5.03653e-05 
-7.46327e-05 -2.65247e-05 0.000122569 -4.76921e-06 9.30942e-07 0.000191444 -0.000144552 3.04517e-05 0.000125948 -6.86632e-05 -6.38382e-05 5.18808e-05 0.000227691 0.000115722 0.000116059 0.000121952 
-0.000199089 -0.000106217 2.52365e-05 -9.91152e-05 6.11962e-05 2.73621e-05 -0.000221312 -1.46095e-05 -4.09636e-05 8.19762e-05 -0.000167969 -1.57563e-05 7.30401e-05 -2.11667e-05 -5.5817e-05 -1.37542e-05 
-0.000221179 -0.000118576 2.70184e-05 -0.000111009 6.85752e-05 2.87447e-05 -0.000245311 -1.63985e-05 -4.68799e-05 9.20982e-05 -0.000186998 -1.83191e-05 7.91566e-05 -2.47839e-05 -6.34246e-05 -1.65549e-05 
-6.31537e-05 -2.27145e-05 9.49501e-05 -5.71038e-06 1.59558e-06 0.00014962 -0.000116306 2.34433e-05 9.71224e-05 -5.22604e-05 -5.41972e-05 4.12521e-05 0.000179138 8.91475e-05 8.93392e-05 9.43963e-05 
-0.000121395 -5.42904e-05 0.000122917 -3.28308e-05 1.65038e-05 0.000196515 -0.000185929 2.62391e-05 0.00011339 -4.86603e-05 -0.000105673 5.33581e-05 0.000241377 0.000105927 0.000100684 0.000115597 
-4.65469e-05 -1.71355e-05 8.62962e-05 -3.01387e-06 -7.4915e-07 0.000140275 -9.04552e-05 2.47832e-05 9.46128e-05 -5.60545e-05 -4.41652e-05 4.12744e-05 0.000163635 8.39766e-05 8.79952e-05 8.8924e-05 
-0.000199089 -0.000106217 2.52362e-05 -9.91153e-05 6.11963e-05 2.73616e-05 -0.000221312 -1.46096e-05 -4.0964e-05 8.19766e-05 -0.000167969 -1.57565e-05 7.30396e-05 -2.1167e-05 -5.58175e-05 -1.37546e-05 
-3.97849e-05 -1.57942e-05 9.01525e-05 -3.06479e-06 -3.08957e-06 0.000156704 -7.58536e-05 3.16356e-05 0.000109167 -7.18471e-05 -4.61311e-05 5.20327e-05 0.00017777 9.20159e-05 0.000102849 9.8313e-05 
-0.000167645 -7.04678e-05 0.000139674 -4.33878e-05 2.27281e-05 0.000220905 -0.000246349 2.53797e-05 0.000119993 -4.26776e-05 -0.000139919 5.74474e-05 0.000281779 0.000115655 0.000104669 0.000127439 
-0.000121392 -5.42886e-05 0.000122923 -3.28282e-05 1.65019e-05 0.000196525 -0.000185928 2.62416e-05 0.000113399 -4.86675e-05 -0.00010567 5.33621e-05 0.000241387 0.000105934 0.000100693 0.000115605 
-0.000103711 -5.02737e-05 5.8892e-05 -3.89546e-05 2.3239e-05 8.75473e-05 -0.000140139 7.01039e-06 3.57501e-05 2.59517e-06 -8.81132e-05 1.50235e-05 0.000118951 3.88758e-05 2.62088e-05 4.41583e-05 
-7.46361e-05 -2.65265e-05 0.000122568 -4.77108e-06 9.32152e-07 0.000191442 -0.000144556 3.04509e-05 0.000125945 -6.86604e-05 -6.38407e-05 5.18796e-05 0.00022769 0.00011572 0.000116056 0.00012195 
-0.000121399 -5.42927e-05 0.000122916 -3.28332e-05 1.65053e-05 0.000196513 -0.000185932 2.62382e-05 0.000113388 -4.86574e-05 -0.000105676 5.33572e-05 0.000241376 0.000105925 0.000100681 0.000115596 
-0.000185806 -9.75465e-05 3.71149e-05 -8.86409e-05 5.43586e-05 4.78516e-05 -0.000213525 -9.36381e-06 -2.09739e-05 6.42948e-05 -0.000156826 -7.10824e-06 9.28172e-05 -4.78176e-06 -3.52599e-05 2.75896e-06 
-0.00022118 -0.000118577 2.70202e-05 -0.00011101 6.85755e-05 2.87477e-05 -0.000245313 -1.63979e-05 -4.6878e-05 9.20972e-05 -0.000186999 -1.83183e-05 7.91599e-05 -2.47824e-05 -6.3423e-05 -1.65532e-05 
-6.65008e-05 -2.68379e-05 7.95415e-05 -1.25385e-05 5.8253e-06 0.000125819 -0.000110413 1.8096e-05 7.70569e-05 -3.72562e-05 -5.70359e-05 3.4104e-05 0.00015323 7.15562e-05 6.97092e-05 7.68396e-05 
-7.50763e-05 -3.25183e-05 8.65951e-05 -1.80328e-05 7.79277e-06 0.000142053 -0.000117887 2.18279e-05 8.6549e-05 -4.35307e-05 -6.83232e-05 4.08955e-05 0.000171462 7.82449e-05 7.83074e-05 8.49384e-05 
-0.000199089 -0.000106217 2.52362e-05 -9.9115e-05 6.11961e-05 2.73616e-05 -0.000221312 -1.46096e-05 -4.09639e-05 8.19764e-05 -0.000167969 -1.57564e-05 7.30396e-05 -2.11669e-05 -5.58173e-05 -1.37546e-05 
-6.31539e-05 -2.27146e-05 9.49503e-05 -5.71044e-06 1.59562e-06 0.000149621 -0.000116306 2.34434e-05 9.71226e-05 -5.22605e-05 -5.41974e-05 4.12521e-05 0.000179138 8.91477e-05 8.93394e-05 9.43964e-05 
-4.82916e-05 -1.95837e-05 6.91927e-05 -8.09686e-06 2.6634e-06 0.000112856 -8.31756e-05 1.86183e-05 7.25421e-05 -3.99305e-05 -4.45601e-05 3.28046e-05 0.00013396 6.49964e-05 6.66369e-05 6.9633e-05 
-4.348e-05 -1.66173e-05 8.60228e-05 -3.68337e-06 -1.91568e-06 0.000146589 -8.08518e-05 2.80882e-05 0.000100345 -6.35598e-05 -4.6026e-05 4.70974e-05 0.000168496 8.61737e-05 9.40613e-05 9.18833e-05 
-3.40934e-05 -1.36065e-05 9.57986e-05 -7.71571e-07 -5.07737e-06 0.000167975 -7.09095e-05 3.54467e-05 0.000119472 -8.1274e-05 -4.38611e-05 5.66268e-05 0.000187996 9.96556e-05 0.000113085 0.000106147 
-9.95286e-05 -3.95208e-05 9.85749e-05 -2.0821e-05 9.92612e-06 0.000157328 -0.000153533 2.06804e-05 9.1978e-05 -4.06712e-05 -8.38664e-05 4.32757e-05 0.000196254 8.64065e-05 8.24162e-05 9.38591e-05 
-4.34804e-05 -1.66174e-05 8.6023e-05 -3.68333e-06 -1.91569e-06 0.000146589 -8.08525e-05 2.80882e-05 0.000100345 -6.35598e-05 -4.60262e-05 4.70974e-05 0.000168496 8.6174e-05 9.40615e-05 9.18835e-05 
-7.4635e-05 -2.6526e-05 0.000122566 -4.77079e-06 9.31999e-07 0.00019144 -0.000144554 3.04506e-05 0.000125944 -6.86599e-05 -6.38398e-05 5.18792e-05 0.000227688 0.000115719 0.000116055 0.000121949 
-3.6122e-05 -1.4391e-05 0.000110238 1.70492e-07 -6.53969e-06 0.000193495 -7.8253e-05 4.12335e-05 0.000138447 -9.49712e-05 -4.814e-05 6.54235e-05 0.000215632 0.000115287 0.000131213 0.000122622 
-4.47285e-05 -1.81848e-05 7.04532e-05 -6.80493e-06 1.74632e-06 0.00011547 -7.95207e-05 1.97813e-05 7.55569e-05 -4.30643e-05 -4.23722e-05 3.40426e-05 0.000135688 6.71214e-05 6.97296e-05 7.17128e-05 
-0.000121399 -5.42937e-05 0.000122917 -3.28342e-05 1.65061e-05 0.000196515 -0.000185934 2.62385e-05 0.000113388 -4.86572e-05 -0.000105677 5.33567e-05 0.000241377 0.000105925 0.000100681 0.000115596 
-4.80321e-05 -1.90085e-05 9.67297e-05 -4.85816e-06 -2.1205e-06 0.000166808 -8.80585e-05 3.24903e-05 0.000114472 -7.3397e-05 -5.25054e-05 5.46793e-05 0.000190923 9.73783e-05 0.000107462 0.000104196 
-0.000121394 -5.4291e-05 0.000122919 -3.28313e-05 1.65042e-05 0.000196518 -0.000185928 2.62398e-05 0.000113393 -4.86617e-05 -0.000105672 5.33587e-05 0.000241379 0.000105929 0.000100686 0.000115599 
-0.000199089 -0.000106217 2.52363e-05 -9.91151e-05 6.11962e-05 2.73618e-05 -0.000221311 -1.46095e-05 -4.09637e-05 8.19762e-05 -0.000167969 -1.57563e-05 7.30398e-05 -2.11668e-05 -5.58171e-05 -1.37544e-05 
-0.000188273 -9.91777e-05 3.51619e-05 -9.05794e-05 5.56248e-05 4.44303e-05 -0.000215096 -1.02512e-05 -2.43985e-05 6.73908e-05 -0.000158932 -8.61803e-06 8.95457e-05 -7.56924e-06 -3.8809e-05 -5.19394e-08 
-7.46359e-05 -2.65264e-05 0.000122567 -4.77111e-06 9.32175e-07 0.000191441 -0.000144555 3.04507e-05 0.000125945 -6.866e-05 -6.38406e-05 5.18794e-05 0.000227689 0.000115719 0.000116055 0.000121949 
-3.70271e-05 -1.46498e-05 0.000104415 -5.89708e-07 -5.60923e-06 0.000182646 -7.76242e-05 3.8383e-05 0.000129869 -8.81834e-05 -4.72738e-05 6.13809e-05 0.000204475 0.000108544 0.000122911 0.00011554 
-7.46348e-05 -2.65258e-05 0.000122567 -4.77047e-06 9.31766e-07 0.000191442 -0.000144554 3.04509e-05 0.000125946 -6.86608e-05 -6.38397e-05 5.18797e-05 0.000227689 0.00011572 0.000116056 0.00012195 
-3.50457e-05 -1.39782e-05 8.83652e-05 -1.83827e-06 -3.85438e-06 0.000154198 -6.9801e-05 3.18507e-05 0.000108573 -7.26783e-05 -4.26755e-05 5.15161e-05 0.000173696 9.10528e-05 0.000102526 9.7119e-05 
-3.50454e-05 -1.39781e-05 8.83653e-05 -1.8381e-06 -3.8545e-06 0.000154198 -6.98007e-05 3.18507e-05 0.000108574 -7.26785e-05 -4.26753e-05 5.15161e-05 0.000173696 9.10529e-05 0.000102526 9.71191e-05 
-0.00019909 -0.000106217 2.52368e-05 -9.91155e-05 6.11964e-05 2.73624e-05 -0.000221312 -1.46095e-05 -4.09635e-05 8.19763e-05 -0.00016797 -1.57563e-05 7.30406e-05 -2.11665e-05 -5.5817e-05 -1.37541e-05 
-4.37902e-05 -1.61103e-05 8.65663e-05 -2.22619e-06 -1.39475e-06 0.000141427 -8.71266e-05 2.55566e-05 9.62438e-05 -5.81061e-05 -4.2547e-05 4.20579e-05 0.000163979 8.49453e-05 8.97229e-05 8.9867e-05 
-0.000238988 -0.000126904 2.86925e-05 -0.000118362 7.31493e-05 3.00586e-05 -0.000265109 -1.83864e-05 -5.11846e-05 9.98098e-05 -0.000200825 -1.95245e-05 8.49393e-05 -2.69719e-05 -6.88257e-05 -1.81866e-05 
-3.50455e-05 -1.39781e-05 8.83656e-05 -1.83807e-06 -3.85453e-06 0.000154198 -6.98009e-05 3.18508e-05 0.000108574 -7.26787e-05 -4.26753e-05 5.15163e-05 0.000173696 9.10532e-05 0.000102526 9.71194e-05 
-7.46354e-05 -2.65261e-05 0.000122568 -4.77067e-06 9.31904e-07 0.000191443 -0.000144555 3.04512e-05 0.000125946 -6.86612e-05 -6.38403e-05 5.18799e-05 0.000227691 0.00011572 0.000116057 0.000121951 
-4.19482e-05 -1.66184e-05 0.000105493 -2.11476e-06 -4.7295e-06 0.000184537 -8.29082e-05 3.82177e-05 0.000130051 -8.72712e-05 -5.12929e-05 6.20179e-05 0.000207891 0.000108875 0.000122878 0.000116174 
-3.40922e-05 -1.36056e-05 9.57989e-05 -7.70626e-07 -5.07798e-06 0.000167976 -7.09084e-05 3.54469e-05 0.000119473 -8.1275e-05 -4.386e-05 5.66272e-05 0.000187996 9.96562e-05 0.000113086 0.000106148 
-7.59378e-05 -3.79705e-05 4.48862e-05 -3.04183e-05 1.68654e-05 7.23987e-05 -9.82242e-05 8.37157e-06 3.24792e-05 -4.67874e-06 -6.86417e-05 1.63353e-05 9.48968e-05 3.16874e-05 2.54405e-05 3.63836e-05 
-4.19511e-05 -1.66197e-05 0.000105495 -2.1158e-06 -4.72897e-06 0.000184539 -8.29117e-05 3.82178e-05 0.000130052 -8.72712e-05 -5.12954e-05 6.20186e-05 0.000207894 0.000108876 0.000122878 0.000116175 
-0.00013509 -6.92902e-05 3.58501e-05 -6.12699e-05 3.71511e-05 4.99949e-05 -0.000159161 -3.58366e-06 -3.15888e-06 3.76197e-05 -0.000114353 5.034e-07 8.43525e-05 6.78075e-06 -1.37567e-05 1.25576e-05 
-0.000199089 -0.000106217 2.52367e-05 -9.91151e-05 6.11962e-05 2.73624e-05 -0.000221311 -1.46094e-05 -4.09633e-05 8.19759e-05 -0.000167969 -1.57561e-05 7.30403e-05 -2.11664e-05 -5.58167e-05 -1.3754e-05 
-4.80281e-05 -1.90061e-05 9.67328e-05 -4.85559e-06 -2.12236e-06 0.000166814 -8.80555e-05 3.24925e-05 0.000114478 -7.34029e-05 -5.2503e-05 5.46818e-05 0.000190929 9.73829e-05 0.000107469 0.000104201 
-0.000221176 -0.000118573 2.70193e-05 -0.000111007 6.85734e-05 2.87464e-05 -0.000245308 -1.63979e-05 -4.68773e-05 9.20953e-05 -0.000186995 -1.8318e-05 7.91579e-05 -2.47819e-05 -6.34218e-05 -1.6553e-05 
-6.36672e-05 -2.55108e-05 8.15757e-05 -1.10517e-05 4.88346e-06 0.000129145 -0.000108381 1.91539e-05 8.04344e-05 -4.02855e-05 -5.50168e-05 3.53219e-05 0.000156054 7.4283e-05 7.31044e-05 7.94775e-05 
-3.61178e-05 -1.43883e-05 0.000110239 1.73316e-07 -6.54162e-06 0.000193497 -7.82486e-05 4.12344e-05 0.00013845 -9.49747e-05 -4.81364e-05 6.54251e-05 0.000215633 0.000115289 0.000131216 0.000122624 
-0.000199089 -0.000106217 2.52361e-05 -9.91155e-05 6.11964e-05 2.73614e-05 -0.000221312 -1.46097e-05 -4.09642e-05 8.19767e-05 -0.000167969 -1.57565e-05 7.30394e-05 -2.11672e-05 -5.58177e-05 -1.37548e-05 
-0.000199088 -0.000106216 2.52365e-05 -9.91148e-05 6.1196e-05 2.73621e-05 -0.000221311 -1.46094e-05 -4.09633e-05 8.19758e-05 -0.000167969 -1.57562e-05 7.30399e-05 -2.11665e-05 -5.58167e-05 -1.37541e-05 
-7.36424e-05 -2.7229e-05 0.000110325 -7.55106e-06 2.71142e-06 0.00017254 -0.000136304 2.6831e-05 0.00011154 -5.90636e-05 -6.30295e-05 4.64895e-05 0.000206577 0.000102849 0.00010227 0.000108771 
-0.000199089 -0.000106217 2.52364e-05 -9.91152e-05 6.11963e-05 2.73619e-05 -0.000221312 -1.46096e-05 -4.09637e-05 8.19764e-05 -0.000167969 -1.57563e-05 7.30399e-05 -2.11668e-05 -5.58172e-05 -1.37544e-05 
-0.000238992 -0.000126908 2.8696e-05 -0.000118366 7.31515e-05 3.00647e-05 -0.000265113 -1.83849e-05 -5.11817e-05 9.98088e-05 -0.00020083 -1.95234e-05 8.49456e-05 -2.69695e-05 -6.88235e-05 -1.81839e-05 
-0.000199089 -0.000106217 2.52367e-05 -9.91157e-05 6.11965e-05 2.73624e-05 -0.000221312 -1.46094e-05 -4.09635e-05 8.19763e-05 -0.00016797 -1.57562e-05 7.30405e-05 -2.11667e-05 -5.5817e-05 -1.37542e-05 
-3.6117e-05 -1.43892e-05 0.00011024 1.72151e-07 -6.54103e-06 0.000193501 -7.82482e-05 4.12357e-05 0.000138452 -9.49768e-05 -4.81374e-05 6.54258e-05 0.000215636 0.000115291 0.000131218 0.000122626 
-0.000199089 -0.000106217 2.52364e-05 -9.91155e-05 6.11965e-05 2.73618e-05 -0.000221312 -1.46096e-05 -4.0964e-05 8.19766e-05 -0.00016797 -1.57565e-05 7.30399e-05 -2.11669e-05 -5.58174e-05 -1.37545e-05 
-0.000194557 -0.000101453 3.79236e-05 -9.20024e-05 5.64622e-05 4.84116e-05 -0.000223295 -1.04239e-05 -2.31148e-05 6.80978e-05 -0.000163437 -7.65521e-06 9.56372e-05 -5.82596e-06 -3.79099e-05 1.95871e-06 
-3.68116e-05 -1.46505e-05 9.21022e-05 -1.94223e-06 -3.95745e-06 0.000160444 -7.33048e-05 3.29807e-05 0.00011282 -7.53109e-05 -4.44342e-05 5.34841e-05 0.000180842 9.47715e-05 0.000106498 0.000101061 
-6.4963e-05 -2.35631e-05 9.5844e-05 -6.36387e-06 1.99545e-06 0.000150887 -0.000118708 2.34798e-05 9.75433e-05 -5.20545e-05 -5.56591e-05 4.14424e-05 0.000180942 8.96806e-05 8.96058e-05 9.50046e-05 
-8.98258e-05 -3.30653e-05 0.000112169 -1.24812e-05 4.49616e-06 0.000179648 -0.000149942 2.68046e-05 0.000112643 -5.81093e-05 -7.6999e-05 5.13231e-05 0.000218381 0.000103611 0.000103021 0.000110723 
-0.000221181 -0.000118577 2.70196e-05 -0.000111011 6.85761e-05 2.87466e-05 -0.000245314 -1.63982e-05 -4.68792e-05 9.20983e-05 -0.000187 -1.8319e-05 7.9159e-05 -2.47832e-05 -6.34242e-05 -1.65539e-05 
-0.000122589 -5.69001e-05 9.79295e-05 -3.92172e-05 2.14226e-05 0.000154263 -0.000175831 1.77112e-05 8.06423e-05 -2.49442e-05 -0.000105406 3.83431e-05 0.000195663 7.80764e-05 6.87664e-05 8.65176e-05 
-0.00016764 -7.04656e-05 0.000139674 -4.33859e-05 2.27267e-05 0.000220907 -0.000246343 2.53807e-05 0.000119996 -4.2681e-05 -0.000139916 5.74489e-05 0.00028178 0.000115657 0.000104672 0.00012744 
-0.000221178 -0.000118575 2.70193e-05 -0.000111009 6.85747e-05 2.87461e-05 -0.00024531 -1.63981e-05 -4.68785e-05 9.20969e-05 -0.000186997 -1.83185e-05 7.9158e-05 -2.47827e-05 -6.34232e-05 -1.65536e-05 
-3.99498e-05 -1.55443e-05 8.1716e-05 -3.51159e-06 -1.96777e-06 0.000140058 -7.46003e-05 2.73137e-05 9.63244e-05 -6.16895e-05 -4.34457e-05 4.53628e-05 0.000160361 8.22461e-05 9.03902e-05 8.77468e-05 
-3.68116e-05 -1.46503e-05 9.21023e-05 -1.94208e-06 -3.95755e-06 0.000160444 -7.33048e-05 3.29808e-05 0.00011282 -7.53111e-05 -4.44342e-05 5.34842e-05 0.000180843 9.47717e-05 0.000106498 0.000101061 
-0.000204608 -9.62754e-05 0.000126484 -7.1996e-05 4.11401e-05 0.000195717 -0.000277439 1.7431e-05 8.79223e-05 -8.98339e-06 -0.000173543 4.2519e-05 0.000260268 9.03247e-05 6.97321e-05 0.000102704 
-0.000221177 -0.000118574 2.70193e-05 -0.000111008 6.85743e-05 2.8746e-05 -0.00024531 -1.63982e-05 -4.68782e-05 9.20966e-05 -0.000186996 -1.83186e-05 7.91579e-05 -2.47825e-05 -6.34228e-05 -1.65534e-05 
-4.80349e-05 -1.90107e-05 9.67301e-05 -4.86074e-06 -2.11908e-06 0.000166809 -8.80611e-05 3.24907e-05 0.000114472 -7.33962e-05 -5.25088e-05 5.46789e-05 0.000190924 9.73779e-05 0.000107462 0.000104196 
-3.96857e-05 -1.57117e-05 8.82932e-05 -3.16592e-06 -2.87959e-06 0.000153236 -7.52546e-05 3.07771e-05 0.00010653 -6.98435e-05 -4.55551e-05 5.07473e-05 0.00017409 8.99355e-05 0.000100313 9.60958e-05 
-0.00010819 -5.34229e-05 5.23545e-05 -4.31162e-05 2.5931e-05 7.67938e-05 -0.000141248 4.39442e-06 2.5974e-05 1.06597e-05 -9.1766e-05 1.10999e-05 0.000108053 3.0656e-05 1.63848e-05 3.58924e-05 
-7.5994e-05 -2.84726e-05 9.8513e-05 -1.1113e-05 3.28691e-06 0.00016122 -0.00012552 2.55472e-05 0.000102406 -5.55015e-05 -6.78333e-05 4.79797e-05 0.000194116 9.23962e-05 9.41312e-05 9.90475e-05 
-7.4635e-05 -2.6526e-05 0.000122568 -4.77053e-06 9.31833e-07 0.000191443 -0.000144555 3.04512e-05 0.000125946 -6.86612e-05 -6.384e-05 5.18798e-05 0.00022769 0.00011572 0.000116057 0.000121951 
-7.46357e-05 -2.65262e-05 0.000122568 -4.77078e-06 9.31937e-07 0.000191443 -0.000144556 3.04512e-05 0.000125946 -6.86612e-05 -6.38405e-05 5.188e-05 0.000227691 0.00011572 0.000116057 0.000121951 
-7.4635e-05 -2.65259e-05 0.000122569 -4.77039e-06 9.31686e-07 0.000191444 -0.000144555 3.04515e-05 0.000125947 -6.86619e-05 -6.38401e-05 5.18802e-05 0.000227692 0.000115721 0.000116058 0.000121951 
-7.46359e-05 -2.65265e-05 0.000122567 -4.77113e-06 9.32213e-07 0.000191442 -0.000144556 3.04509e-05 0.000125945 -6.86602e-05 -6.38407e-05 5.18793e-05 0.000227689 0.000115719 0.000116056 0.00012195 
-0.00019909 -0.000106217 2.52363e-05 -9.91157e-05 6.11965e-05 2.73618e-05 -0.000221312 -1.46096e-05 -4.09641e-05 8.19767e-05 -0.00016797 -1.57565e-05 7.30399e-05 -2.1167e-05 -5.58176e-05 -1.37546e-05 
-4.19339e-05 -1.66106e-05 0.000105505 -2.10598e-06 -4.7358e-06 0.000184559 -8.28975e-05 3.82246e-05 0.000130072 -8.72911e-05 -5.12834e-05 6.20274e-05 0.000207911 0.000108892 0.0001229 0.000116191 
-0.000122534 -6.11654e-05 5.05805e-05 -5.09506e-05 3.02864e-05 7.52715e-05 -0.000153401 2.27705e-06 1.99809e-05 1.81448e-05 -0.000103801 1.08203e-05 0.000109346 2.59322e-05 9.77949e-06 3.21514e-05 
-7.42639e-05 -3.54891e-05 5.5232e-05 -2.60143e-05 1.39576e-05 8.90707e-05 -0.000102406 1.12757e-05 4.58137e-05 -1.42667e-05 -6.63996e-05 2.22337e-05 0.000113188 4.34418e-05 3.86469e-05 4.85753e-05 
-3.50456e-05 -1.39782e-05 8.83653e-05 -1.83827e-06 -3.85439e-06 0.000154198 -6.9801e-05 3.18507e-05 0.000108573 -7.26783e-05 -4.26755e-05 5.15161e-05 0.000173696 9.10528e-05 0.000102526 9.7119e-05 
-0.000120642 -5.98603e-05 5.23327e-05 -4.93691e-05 2.92433e-05 7.83365e-05 -0.000152324 3.0764e-06 2.29728e-05 1.54778e-05 -0.000102219 1.21216e-05 0.000112347 2.83709e-05 1.28563e-05 3.46115e-05 
-0.000173382 -7.43123e-05 0.000134053 -4.79721e-05 2.60524e-05 0.000210215 -0.000250506 2.25388e-05 0.000109943 -3.35665e-05 -0.000144249 5.23982e-05 0.000271505 0.000107724 9.44115e-05 0.000119398 
-0.00019909 -0.000106217 2.52365e-05 -9.91157e-05 6.11966e-05 2.73621e-05 -0.000221312 -1.46095e-05 -4.09639e-05 8.19766e-05 -0.00016797 -1.57564e-05 7.30402e-05 -2.11669e-05 -5.58174e-05 -1.37544e-05 
-0.000100358 -5.21976e-05 4.65691e-05 -4.44475e-05 2.53708e-05 7.4255e-05 -0.000123692 6.80221e-06 2.60977e-05 6.11971e-06 -9.05656e-05 1.38613e-05 0.000101634 2.74424e-05 1.71193e-05 3.31187e-05 
-0.00019909 -0.000106217 2.52368e-05 -9.91156e-05 6.11965e-05 2.73626e-05 -0.000221313 -1.46094e-05 -4.09634e-05 8.19762e-05 -0.00016797 -1.57563e-05 7.30407e-05 -2.11665e-05 -5.58169e-05 -1.37541e-05 
-0.000124623 -5.82613e-05 9.48794e-05 -4.10157e-05 2.26554e-05 0.000148998 -0.000176595 1.64655e-05 7.59703e-05 -2.1074e-05 -0.000106975 3.62276e-05 0.000190378 7.42143e-05 6.40646e-05 8.25836e-05 
-0.000238986 -0.000126904 2.86935e-05 -0.000118362 7.31495e-05 3.00606e-05 -0.000265107 -1.83854e-05 -5.11828e-05 9.98081e-05 -0.000200824 -1.95239e-05 8.49405e-05 -2.69706e-05 -6.88239e-05 -1.81853e-05 
-4.71238e-05 -1.99048e-05 8.39691e-05 -7.64901e-06 3.8944e-07 0.000144004 -8.25694e-05 2.75365e-05 9.69265e-05 -6.02986e-05 -5.02432e-05 4.59881e-05 0.000165917 8.29133e-05 9.03547e-05 8.89813e-05 
-0.000122534 -6.11654e-05 5.05805e-05 -5.09506e-05 3.02864e-05 7.52714e-05 -0.000153401 2.27704e-06 1.99809e-05 1.81449e-05 -0.000103801 1.08203e-05 0.000109346 2.59321e-05 9.77945e-06 3.21513e-05 
-7.46355e-05 -2.65261e-05 0.000122568 -4.77076e-06 9.31924e-07 0.000191442 -0.000144555 3.04511e-05 0.000125946 -6.86609e-05 -6.38403e-05 5.18798e-05 0.00022769 0.00011572 0.000116056 0.00012195 
-6.02438e-05 -2.72063e-05 5.70039e-05 -1.73773e-05 8.89867e-06 9.14159e-05 -9.01123e-05 1.28665e-05 5.2162e-05 -2.20059e-05 -5.36868e-05 2.39467e-05 0.000113128 4.85099e-05 4.5884e-05 5.29855e-05 
-0.00022118 -0.000118575 2.7018e-05 -0.000111009 6.85749e-05 2.87438e-05 -0.000245312 -1.63989e-05 -4.68806e-05 9.20988e-05 -0.000186998 -1.83195e-05 7.91562e-05 -2.47843e-05 -6.34252e-05 -1.65552e-05 
-8.61926e-05 -3.11551e-05 0.000107125 -1.14589e-05 3.62137e-06 0.000173197 -0.000142311 2.60562e-05 0.000108896 -5.71162e-05 -7.42329e-05 5.07435e-05 0.00021052 9.96201e-05 9.98953e-05 0.000106644 
-0.00019909 -0.000106217 2.52364e-05 -9.91158e-05 6.11966e-05 2.73619e-05 -0.000221313 -1.46096e-05 -4.0964e-05 8.19767e-05 -0.00016797 -1.57565e-05 7.304e-05 -2.1167e-05 -5.58175e-05 -1.37546e-05 
-6.3442e-05 -2.64667e-05 9.4469e-05 -1.17182e-05 2.82142e-06 0.000159454 -0.000105911 2.81657e-05 0.000103903 -6.065e-05 -6.24588e-05 4.94941e-05 0.000187093 9.06332e-05 9.60713e-05 9.76382e-05 
-0.000221179 -0.000118576 2.70187e-05 -0.000111009 6.85751e-05 2.8745e-05 -0.000245312 -1.63986e-05 -4.68797e-05 9.20982e-05 -0.000186998 -1.83191e-05 7.91571e-05 -2.47836e-05 -6.34244e-05 -1.65545e-05 
-3.612e-05 -1.43902e-05 0.000110236 1.70925e-07 -6.53984e-06 0.000193492 -7.82501e-05 4.12331e-05 0.000138445 -9.49703e-05 -4.81384e-05 6.54224e-05 0.000215628 0.000115285 0.000131211 0.00012262 
-3.40943e-05 -1.3607e-05 9.57986e-05 -7.72179e-07 -5.07701e-06 0.000167975 -7.09104e-05 3.54466e-05 0.000119472 -8.12735e-05 -4.38619e-05 5.66267e-05 0.000187996 9.96553e-05 0.000113084 0.000106147 
-3.68128e-05 -1.46512e-05 9.21016e-05 -1.94305e-06 -3.95693e-06 0.000160442 -7.33057e-05 3.29804e-05 0.000112819 -7.53097e-05 -4.44352e-05 5.34835e-05 0.000180841 9.47705e-05 0.000106497 0.00010106 
-3.61206e-05 -1.43895e-05 0.000110228 1.7102e-07 -6.53955e-06 0.000193479 -7.82479e-05 4.12298e-05 0.000138435 -9.49631e-05 -4.81369e-05 6.54184e-05 0.000215614 0.000115277 0.000131202 0.000122611 
-4.80272e-05 -1.90061e-05 9.67325e-05 -4.85585e-06 -2.12228e-06 0.000166814 -8.80539e-05 3.24927e-05 0.000114478 -7.34032e-05 -5.25027e-05 5.46819e-05 0.000190928 9.73827e-05 0.000107469 0.000104201 
-0.000221182 -0.000118577 2.70178e-05 -0.000111011 6.85761e-05 2.87434e-05 -0.000245314 -1.63993e-05 -4.68818e-05 9.21005e-05 -0.000187 -1.83199e-05 7.91561e-05 -2.47852e-05 -6.34267e-05 -1.65561e-05 
-7.44422e-05 -2.81578e-05 0.000107162 -9.04879e-06 3.58376e-06 0.000167898 -0.000135108 2.57394e-05 0.000107524 -5.60686e-05 -6.37263e-05 4.52262e-05 0.000201545 9.92607e-05 9.83621e-05 0.00010529 
-4.75171e-05 -1.80081e-05 8.51265e-05 -4.77695e-06 -1.05021e-06 0.000144311 -8.52525e-05 2.68294e-05 9.75354e-05 -6.03723e-05 -4.83645e-05 4.59942e-05 0.000167371 8.43383e-05 9.1173e-05 9.00833e-05 
-7.46356e-05 -2.65262e-05 0.000122568 -4.77086e-06 9.32004e-07 0.000191442 -0.000144555 3.0451e-05 0.000125946 -6.86608e-05 -6.38404e-05 5.18797e-05 0.00022769 0.00011572 0.000116056 0.00012195 
-3.50462e-05 -1.39785e-05 8.83652e-05 -1.83858e-06 -3.8542e-06 0.000154198 -6.98015e-05 3.18507e-05 0.000108573 -7.2678e-05 -4.26759e-05 5.1516e-05 0.000173696 9.10527e-05 0.000102526 9.71189e-05 
-0.000122331 -5.49607e-05 0.000114452 -3.46289e-05 1.79527e-05 0.000182172 -0.00018339 2.32731e-05 0.000102287 -4.0613e-05 -0.000105739 4.82321e-05 0.000226241 9.65451e-05 8.98996e-05 0.00010582 
-3.68128e-05 -1.46512e-05 9.21026e-05 -1.94299e-06 -3.95702e-06 0.000160444 -7.3306e-05 3.29809e-05 0.00011282 -7.53108e-05 -4.44354e-05 5.34841e-05 0.000180843 9.47716e-05 0.000106498 0.000101061 
-0.000120887 -5.24054e-05 0.000112285 -3.18417e-05 1.63145e-05 0.000178621 -0.000181831 2.24087e-05 0.000100566 -4.0165e-05 -0.000103042 4.76106e-05 0.000223012 9.51969e-05 8.86807e-05 0.000104295 
-0.000199089 -0.000106217 2.52366e-05 -9.91152e-05 6.11962e-05 2.73623e-05 -0.000221311 -1.46094e-05 -4.09634e-05 8.1976e-05 -0.000167969 -1.57562e-05 7.30401e-05 -2.11665e-05 -5.58168e-05 -1.37541e-05 
-3.40915e-05 -1.36053e-05 9.58001e-05 -7.70287e-07 -5.07823e-06 0.000167978 -7.09082e-05 3.54474e-05 0.000119475 -8.12764e-05 -4.38597e-05 5.66279e-05 0.000187998 9.96576e-05 0.000113087 0.000106149 
-7.46356e-05 -2.65262e-05 0.000122567 -4.77098e-06 9.32113e-07 0.000191441 -0.000144555 3.04507e-05 0.000125945 -6.86599e-05 -6.38403e-05 5.18793e-05 0.000227688 0.000115719 0.000116055 0.000121949 
-4.19337e-05 -1.66094e-05 0.000105503 -2.1045e-06 -4.73642e-06 0.000184555 -8.28965e-05 3.82228e-05 0.000130069 -8.72884e-05 -5.12814e-05 6.20264e-05 0.000207907 0.000108889 0.000122897 0.000116188 
-0.00018341 -9.58786e-05 4.11519e-05 -8.64357e-05 5.27486e-05 5.51894e-05 -0.000212638 -7.5129e-06 -1.45354e-05 5.88643e-05 -0.00015526 -4.11795e-06 0.000100275 3.90834e-07 -2.87954e-05 8.10439e-06 
-0.000199089 -0.000106217 2.52367e-05 -9.9115e-05 6.11961e-05 2.73624e-05 -0.000221312 -1.46094e-05 -4.09633e-05 8.19759e-05 -0.000167969 -1.57562e-05 7.30404e-05 -2.11664e-05 -5.58167e-05 -1.3754e-05 
-3.97836e-05 -1.57934e-05 9.01516e-05 -3.06417e-06 -3.0899e-06 0.000156703 -7.5852e-05 3.16354e-05 0.000109166 -7.1847e-05 -4.61299e-05 5.20323e-05 0.000177768 9.20153e-05 0.000102848 9.83123e-05 
-7.46354e-05 -2.65261e-05 0.000122567 -4.77088e-06 9.32049e-07 0.000191441 -0.000144554 3.04506e-05 0.000125945 -6.86599e-05 -6.38401e-05 5.18793e-05 0.000227688 0.000115719 0.000116055 0.000121949 
-4.80316e-05 -1.90089e-05 9.67293e-05 -4.85912e-06 -2.1203e-06 0.000166809 -8.80564e-05 3.24911e-05 0.000114472 -7.33979e-05 -5.25061e-05 5.46798e-05 0.000190922 9.73781e-05 0.000107462 0.000104196 
-0.000121395 -5.42902e-05 0.000122916 -3.28304e-05 1.65037e-05 0.000196513 -0.000185929 2.62384e-05 0.000113389 -4.86591e-05 -0.000105672 5.33574e-05 0.000241375 0.000105926 0.000100682 0.000115596 
-0.000121396 -5.42897e-05 0.000122916 -3.28297e-05 1.65034e-05 0.000196513 -0.00018593 2.62383e-05 0.000113389 -4.86591e-05 -0.000105672 5.33571e-05 0.000241376 0.000105926 0.000100683 0.000115597 
-7.46361e-05 -2.65265e-05 0.000122567 -4.77121e-06 9.32292e-07 0.000191441 -0.000144556 3.04507e-05 0.000125945 -6.86598e-05 -6.38407e-05 5.18792e-05 0.000227689 0.000115719 0.000116055 0.000121949 
-0.000121386 -5.4285e-05 0.000122922 -3.28246e-05 1.64996e-05 0.000196526 -0.000185921 2.62422e-05 0.000113401 -4.86708e-05 -0.000105665 5.33635e-05 0.000241387 0.000105936 0.000100695 0.000115606 
-7.81387e-05 -3.03433e-05 0.000105185 -1.14868e-05 5.13792e-06 0.000164473 -0.000137939 2.46597e-05 0.000103714 -5.24002e-05 -6.67493e-05 4.36972e-05 0.000198596 9.62108e-05 9.43829e-05 0.000102308 
-3.61197e-05 -1.439e-05 0.000110234 1.70953e-07 -6.53988e-06 0.000193489 -7.82488e-05 4.12326e-05 0.000138443 -9.49693e-05 -4.81379e-05 6.5422e-05 0.000215625 0.000115284 0.000131209 0.000122618 
-0.000185807 -9.75467e-05 3.71146e-05 -8.86412e-05 5.43588e-05 4.7851e-05 -0.000213525 -9.36396e-06 -2.09744e-05 6.42954e-05 -0.000156826 -7.10848e-06 9.28166e-05 -4.78223e-06 -3.52604e-05 2.7585e-06 
-0.000188273 -9.91775e-05 3.51618e-05 -9.05791e-05 5.56246e-05 4.44303e-05 -0.000215096 -1.02512e-05 -2.43984e-05 6.73908e-05 -0.000158932 -8.61801e-06 8.95458e-05 -7.56917e-06 -3.88089e-05 -5.18548e-08 
-4.19189e-05 -1.69897e-05 9.69894e-05 -3.41857e-06 -3.0928e-06 0.000167695 -8.13873e-05 3.39091e-05 0.000116826 -7.66795e-05 -4.87593e-05 5.49976e-05 0.000189872 9.87671e-05 0.000109909 0.000105274 
-3.61129e-05 -1.45074e-05 8.6395e-05 -2.52996e-06 -3.25878e-06 0.000150412 -7.04268e-05 3.07777e-05 0.00010533 -6.99086e-05 -4.30036e-05 4.99724e-05 0.000169946 8.8557e-05 9.93121e-05 9.45176e-05 
-0.000238998 -0.000126912 2.87015e-05 -0.000118369 7.31535e-05 3.00729e-05 -0.000265123 -1.83836e-05 -5.11773e-05 9.98076e-05 -0.000200836 -1.95224e-05 8.49561e-05 -2.69654e-05 -6.88198e-05 -1.81791e-05 
-0.000199088 -0.000106217 2.52362e-05 -9.91151e-05 6.11962e-05 2.73616e-05 -0.000221311 -1.46095e-05 -4.09638e-05 8.19762e-05 -0.000167969 -1.57564e-05 7.30395e-05 -2.11669e-05 -5.58172e-05 -1.37545e-05 
-4.19477e-05 -1.66179e-05 0.000105491 -2.1146e-06 -4.72961e-06 0.000184533 -8.29068e-05 3.82171e-05 0.000130048 -8.72698e-05 -5.12924e-05 6.20166e-05 0.000207887 0.000108872 0.000122875 0.000116171 
-7.46354e-05 -2.65261e-05 0.000122567 -4.77084e-06 9.32037e-07 0.000191441 -0.000144555 3.04508e-05 0.000125945 -6.86602e-05 -6.38402e-05 5.18794e-05 0.000227689 0.000115719 0.000116055 0.00012195 
-0.00019909 -0.000106217 2.52362e-05 -9.91158e-05 6.11966e-05 2.73615e-05 -0.000221312 -1.46097e-05 -4.09643e-05 8.1977e-05 -0.00016797 -1.57566e-05 7.30396e-05 -2.11672e-05 -5.58178e-05 -1.37548e-05 
-3.7027e-05 -1.46496e-05 0.000104413 -5.89603e-07 -5.60923e-06 0.000182644 -7.76236e-05 3.83825e-05 0.000129867 -8.81824e-05 -4.72735e-05 6.13802e-05 0.000204473 0.000108543 0.000122909 0.000115539 
-6.49628e-05 -2.3563e-05 9.58442e-05 -6.36374e-06 1.99536e-06 0.000150887 -0.000118708 2.34799e-05 9.75436e-05 -5.20548e-05 -5.5659e-05 4.14425e-05 0.000180942 8.96808e-05 8.96061e-05 9.50048e-05 
-0.000102358 -5.28407e-05 3.95811e-05 -4.5601e-05 2.66649e-05 6.10458e-05 -0.000123927 3.14873e-06 1.5398e-05 1.48384e-05 -9.0071e-05 8.92034e-06 8.82902e-05 1.91372e-05 6.71052e-06 2.43966e-05 
-3.61211e-05 -1.4391e-05 0.000110233 1.6967e-07 -6.53894e-06 0.000193486 -7.82499e-05 4.12319e-05 0.00013844 -9.49669e-05 -4.8139e-05 6.54205e-05 0.000215622 0.000115282 0.000131207 0.000122616 
-5.91446e-05 -2.57942e-05 7.87746e-05 -1.32863e-05 4.88897e-06 0.00013093 -9.61225e-05 2.18395e-05 8.27727e-05 -4.52647e-05 -5.62752e-05 3.90359e-05 0.000155146 7.33804e-05 7.57158e-05 7.92572e-05 
-7.73099e-05 -2.77998e-05 0.000122799 -5.91688e-06 1.62518e-06 0.00019168 -0.000147428 3.01692e-05 0.000125315 -6.75375e-05 -6.5957e-05 5.17625e-05 0.000228579 0.000115392 0.000115266 0.000121709 
-0.00022118 -0.000118576 2.70183e-05 -0.00011101 6.85756e-05 2.87446e-05 -0.000245311 -1.63986e-05 -4.68803e-05 9.20987e-05 -0.000186999 -1.83192e-05 7.91564e-05 -2.47843e-05 -6.34252e-05 -1.65552e-05 
-0.000185807 -9.75467e-05 3.71142e-05 -8.86412e-05 5.43588e-05 4.78504e-05 -0.000213525 -9.36413e-06 -2.09749e-05 6.42957e-05 -0.000156826 -7.10862e-06 9.2816e-05 -4.78262e-06 -3.52609e-05 2.75809e-06 
-7.46355e-05 -2.65262e-05 0.000122568 -4.77079e-06 9.3196e-07 0.000191442 -0.000144555 3.04511e-05 0.000125946 -6.86608e-05 -6.38403e-05 5.18797e-05 0.00022769 0.00011572 0.000116056 0.00012195 
-3.50459e-05 -1.39784e-05 8.83651e-05 -1.83845e-06 -3.85427e-06 0.000154198 -6.98012e-05 3.18506e-05 0.000108573 -7.2678e-05 -4.26757e-05 5.1516e-05 0.000173696 9.10526e-05 0.000102526 9.71188e-05 
-3.93867e-05 -1.54881e-05 7.857e-05 -3.89488e-06 -1.56751e-06 0.000134606 -7.27524e-05 2.61061e-05 9.22422e-05 -5.87601e-05 -4.25438e-05 4.35064e-05 0.000154338 7.88265e-05 8.64762e-05 8.4174e-05 
-0.000210843 -0.00011212 3.22036e-05 -0.000103771 6.39175e-05 3.80598e-05 -0.00023718 -1.36491e-05 -3.64183e-05 8.1912e-05 -0.000178154 -1.37276e-05 8.73019e-05 -1.6444e-05 -5.23556e-05 -8.28598e-06 
-7.46361e-05 -2.65265e-05 0.000122567 -4.77119e-06 9.32247e-07 0.000191441 -0.000144555 3.04506e-05 0.000125945 -6.86597e-05 -6.38407e-05 5.18792e-05 0.000227689 0.000115719 0.000116055 0.000121949 
-0.000105546 -4.27069e-05 0.000100086 -2.36936e-05 1.16126e-05 0.00015954 -0.000160499 2.04495e-05 9.17204e-05 -3.88859e-05 -8.89152e-05 4.33893e-05 0.000199895 8.65811e-05 8.16661e-05 9.4326e-05 
-0.00019909 -0.000106217 2.52365e-05 -9.91156e-05 6.11965e-05 2.7362e-05 -0.000221312 -1.46096e-05 -4.09639e-05 8.19766e-05 -0.00016797 -1.57564e-05 7.30402e-05 -2.11669e-05 -5.58174e-05 -1.37545e-05 
-5.90007e-05 -2.67123e-05 5.62155e-05 -1.7063e-05 8.72875e-06 9.01936e-05 -8.83787e-05 1.27866e-05 5.15898e-05 -2.19155e-05 -5.27202e-05 2.36404e-05 0.000111474 4.79118e-05 4.54084e-05 5.23115e-05 
-0.000221179 -0.000118575 2.70183e-05 -0.000111009 6.85749e-05 2.87446e-05 -0.000245311 -1.63986e-05 -4.68799e-05 9.20981e-05 -0.000186998 -1.83191e-05 7.91566e-05 -2.47838e-05 -6.34246e-05 -1.65548e-05 
-0.000238991 -0.000126907 2.86959e-05 -0.000118365 7.31511e-05 3.00645e-05 -0.000265112 -1.83849e-05 -5.11815e-05 9.98084e-05 -0.000200829 -1.95232e-05 8.49453e-05 -2.69693e-05 -6.88232e-05 -1.81838e-05 
-3.5368e-05 -1.40981e-05 8.7461e-05 -2.0208e-06 -3.65584e-06 0.000152433 -6.99561e-05 3.13515e-05 0.000107121 -7.14654e-05 -4.26372e-05 5.08111e-05 0.000171929 8.99473e-05 0.000101104 9.59536e-05 
-5.49856e-05 -2.35427e-05 7.43757e-05 -1.16615e-05 4.06811e-06 0.000123709 -8.99468e-05 2.07761e-05 7.86473e-05 -4.34589e-05 -5.23221e-05 3.7046e-05 0.000146556 6.96463e-05 7.20915e-05 7.5132e-05 
-0.000210843 -0.00011212 3.2203e-05 -0.000103771 6.39173e-05 3.80588e-05 -0.000237178 -1.36493e-05 -3.64189e-05 8.19123e-05 -0.000178153 -1.37276e-05 8.73007e-05 -1.64446e-05 -5.23562e-05 -8.28661e-06 
-7.46355e-05 -2.65262e-05 0.000122568 -4.77085e-06 9.32006e-07 0.000191442 -0.000144555 3.04509e-05 0.000125946 -6.86606e-05 -6.38403e-05 5.18796e-05 0.00022769 0.00011572 0.000116056 0.00012195 
-3.40924e-05 -1.36059e-05 9.57982e-05 -7.71027e-07 -5.07768e-06 0.000167975 -7.09082e-05 3.54466e-05 0.000119472 -8.12741e-05 -4.38602e-05 5.66267e-05 0.000187995 9.96554e-05 0.000113085 0.000106147 
-0.000194553 -0.00010145 3.79237e-05 -9.20001e-05 5.64607e-05 4.84122e-05 -0.00022329 -1.04235e-05 -2.31132e-05 6.80955e-05 -0.000163434 -7.6543e-06 9.56369e-05 -5.82478e-06 -3.7908e-05 1.95972e-06 
-8.91067e-05 -4.49991e-05 5.0897e-05 -3.6528e-05 2.03051e-05 8.22039e-05 -0.000114126 9.36662e-06 3.59102e-05 -3.95242e-06 -8.07738e-05 1.8253e-05 0.000108171 3.51879e-05 2.76671e-05 4.06448e-05 
-4.73817e-05 -2.00343e-05 8.3687e-05 -7.79977e-06 5.06287e-07 0.00014346 -8.27681e-05 2.73738e-05 9.64299e-05 -5.98547e-05 -5.03806e-05 4.5755e-05 0.000165403 8.25333e-05 8.9856e-05 8.85909e-05 
-8.35073e-05 -3.45596e-05 9.45931e-05 -1.73611e-05 9.13464e-06 0.000146457 -0.000138308 2.04803e-05 8.80101e-05 -3.9668e-05 -7.09535e-05 3.68493e-05 0.000179903 8.3102e-05 7.86606e-05 8.8922e-05 
-0.000188272 -9.91769e-05 3.51613e-05 -9.05786e-05 5.56243e-05 4.44295e-05 -0.000215094 -1.02512e-05 -2.43986e-05 6.73906e-05 -0.000158931 -8.618e-06 8.95446e-05 -7.56949e-06 -3.88091e-05 -5.2263e-08 
-6.31534e-05 -2.27143e-05 9.49502e-05 -5.7102e-06 1.59545e-06 0.00014962 -0.000116306 2.34434e-05 9.71226e-05 -5.22607e-05 -5.41969e-05 4.12522e-05 0.000179138 8.91477e-05 8.93395e-05 9.43964e-05 
-8.5285e-05 -3.95547e-05 6.28766e-05 -2.78595e-05 1.5852e-05 9.68598e-05 -0.000121619 1.04666e-05 4.85208e-05 -1.17268e-05 -7.26883e-05 2.17386e-05 0.000125125 4.82514e-05 4.03203e-05 5.34493e-05 
-7.4635e-05 -2.65259e-05 0.000122567 -4.77061e-06 9.31826e-07 0.000191442 -0.000144554 3.0451e-05 0.000125946 -6.86609e-05 -6.38399e-05 5.18797e-05 0.000227689 0.00011572 0.000116056 0.00012195 
-5.0866e-05 -1.95526e-05 8.22527e-05 -6.40299e-06 2.80514e-07 0.000138284 -8.84603e-05 2.46968e-05 9.1796e-05 -5.49325e-05 -4.97804e-05 4.33089e-05 0.000161864 8.01796e-05 8.53878e-05 8.58062e-05 
-0.000177064 -7.38854e-05 0.000147585 -4.5002e-05 2.37213e-05 0.000232816 -0.000261189 2.64003e-05 0.000126488 -4.46711e-05 -0.000147008 6.02507e-05 0.000297604 0.000122234 0.000110461 0.000134749 
-7.73101e-05 -2.77999e-05 0.000122799 -5.91694e-06 1.62521e-06 0.000191681 -0.000147428 3.01693e-05 0.000125315 -6.75376e-05 -6.59571e-05 5.17626e-05 0.000228579 0.000115392 0.000115266 0.000121709 
-0.000199088 -0.000106216 2.52369e-05 -9.91143e-05 6.11957e-05 2.73626e-05 -0.000221311 -1.46093e-05 -4.09628e-05 8.19754e-05 -0.000167968 -1.5756e-05 7.30405e-05 -2.1166e-05 -5.58162e-05 -1.37536e-05 
-6.75684e-05 -3.12687e-05 5.40558e-05 -2.1658e-05 1.18863e-05 8.50901e-05 -9.71372e-05 1.08139e-05 4.51408e-05 -1.4834e-05 -5.93405e-05 2.03519e-05 0.00010798 4.32835e-05 3.84236e-05 4.7659e-05 
-0.000122589 -5.69001e-05 9.79293e-05 -3.92172e-05 2.14226e-05 0.000154263 -0.000175831 1.77112e-05 8.06421e-05 -2.49441e-05 -0.000105406 3.8343e-05 0.000195662 7.80762e-05 6.87662e-05 8.65174e-05 
-3.9784e-05 -1.57936e-05 9.01529e-05 -3.06418e-06 -3.08998e-06 0.000156705 -7.58529e-05 3.16358e-05 0.000109168 -7.1848e-05 -4.61304e-05 5.20331e-05 0.00017777 9.20166e-05 0.00010285 9.83137e-05 
-0.000238999 -0.000126912 2.86922e-05 -0.000118369 7.31542e-05 3.00574e-05 -0.00026512 -1.83875e-05 -5.11894e-05 9.98164e-05 -0.000200835 -1.95268e-05 8.49399e-05 -2.69754e-05 -6.88313e-05 -1.81895e-05 
-4.80337e-05 -1.9009e-05 9.67298e-05 -4.85856e-06 -2.12024e-06 0.000166808 -8.80611e-05 3.24902e-05 0.000114472 -7.33963e-05 -5.25064e-05 5.46787e-05 0.000190923 9.73781e-05 0.000107462 0.000104196 
-7.46358e-05 -2.65263e-05 0.000122568 -4.77089e-06 9.32016e-07 0.000191443 -0.000144556 3.0451e-05 0.000125946 -6.86608e-05 -6.38406e-05 5.18798e-05 0.00022769 0.00011572 0.000116056 0.000121951 
-5.08671e-05 -1.95532e-05 8.22525e-05 -6.40365e-06 2.80943e-07 0.000138284 -8.84613e-05 2.46966e-05 9.17953e-05 -5.49316e-05 -4.97813e-05 4.33085e-05 0.000161864 8.0179e-05 8.5387e-05 8.58057e-05 
-7.46349e-05 -2.65258e-05 0.000122567 -4.77052e-06 9.31798e-07 0.000191442 -0.000144554 3.0451e-05 0.000125946 -6.86608e-05 -6.38398e-05 5.18797e-05 0.000227689 0.00011572 0.000116056 0.00012195 
-7.46347e-05 -2.65257e-05 0.000122567 -4.77043e-06 9.31729e-07 0.000191441 -0.000144554 3.04509e-05 0.000125945 -6.86608e-05 -6.38396e-05 5.18797e-05 0.000227689 0.000115719 0.000116056 0.00012195 
-0.00010819 -5.3423e-05 5.23544e-05 -4.31162e-05 2.5931e-05 7.67937e-05 -0.000141248 4.39439e-06 2.59739e-05 1.06598e-05 -9.17661e-05 1.10998e-05 0.000108053 3.06559e-05 1.63847e-05 3.58923e-05 
-7.46353e-05 -2.6526e-05 0.000122569 -4.77052e-06 9.31765e-07 0.000191444 -0.000144556 3.04515e-05 0.000125947 -6.8662e-05 -6.38403e-05 5.18803e-05 0.000227692 0.000115721 0.000116058 0.000121952 
-0.000240909 -0.000101992 0.000204729 -6.30628e-05 3.23759e-05 0.000326024 -0.000353413 3.89617e-05 0.000178814 -6.66137e-05 -0.000203196 8.63552e-05 0.000413174 0.000170812 0.00015637 0.000187921 
-0.000238987 -0.000126905 2.86958e-05 -0.000118362 7.31497e-05 3.00647e-05 -0.000265109 -1.83845e-05 -5.118e-05 9.98063e-05 -0.000200826 -1.95228e-05 8.49453e-05 -2.69684e-05 -6.88213e-05 -1.81828e-05 
-6.999e-05 -2.98345e-05 8.10037e-05 -1.61207e-05 6.91455e-06 0.000132521 -0.000110441 2.02627e-05 8.09004e-05 -4.07113e-05 -6.32646e-05 3.80908e-05 0.000160181 7.33121e-05 7.32594e-05 7.94583e-05 
-7.46354e-05 -2.65261e-05 0.000122569 -4.77058e-06 9.31815e-07 0.000191444 -0.000144556 3.04515e-05 0.000125947 -6.86618e-05 -6.38404e-05 5.18802e-05 0.000227692 0.000115721 0.000116058 0.000121952 
-0.000121395 -5.42905e-05 0.000122916 -3.2831e-05 1.65041e-05 0.000196513 -0.000185928 2.62386e-05 0.000113389 -4.8659e-05 -0.000105672 5.33571e-05 0.000241375 0.000105926 0.000100682 0.000115596 
-0.000199089 -0.000106217 2.52366e-05 -9.91152e-05 6.11962e-05 2.73623e-05 -0.000221312 -1.46094e-05 -4.09634e-05 8.1976e-05 -0.000167969 -1.57562e-05 7.30403e-05 -2.11666e-05 -5.58169e-05 -1.37541e-05 
-4.19447e-05 -1.66168e-05 0.0001055 -2.11268e-06 -4.73139e-06 0.00018455 -8.29066e-05 3.82213e-05 0.000130062 -8.72803e-05 -5.12919e-05 6.20228e-05 0.000207903 0.000108883 0.000122888 0.000116182 
-0.000123111 -6.06145e-05 5.8378e-05 -4.91215e-05 2.88921e-05 8.82835e-05 -0.000157849 4.77818e-06 2.98612e-05 1.12168e-05 -0.000104478 1.5261e-05 0.000123799 3.4451e-05 1.93741e-05 4.10852e-05 
-7.46357e-05 -2.65263e-05 0.000122568 -4.77087e-06 9.32016e-07 0.000191443 -0.000144556 3.04512e-05 0.000125946 -6.86612e-05 -6.38406e-05 5.18799e-05 0.000227691 0.00011572 0.000116057 0.000121951 
-4.24589e-05 -1.58537e-05 7.88083e-05 -3.13639e-06 -6.85841e-07 0.000129133 -8.15988e-05 2.31025e-05 8.71816e-05 -5.21359e-05 -4.10007e-05 3.85447e-05 0.000150334 7.69441e-05 8.11563e-05 8.16297e-05 
-7.46351e-05 -2.6526e-05 0.000122568 -4.77064e-06 9.31866e-07 0.000191442 -0.000144555 3.0451e-05 0.000125946 -6.86608e-05 -6.384e-05 5.18797e-05 0.00022769 0.00011572 0.000116056 0.00012195 
-7.44296e-05 -2.64411e-05 0.000122146 -4.75683e-06 9.21345e-07 0.000190817 -0.000144079 3.03489e-05 0.000125527 -6.84404e-05 -6.36651e-05 5.17394e-05 0.000226958 0.000115329 0.000115674 0.000121543 
-5.08656e-05 -1.95523e-05 8.22527e-05 -6.40259e-06 2.80297e-07 0.000138284 -8.84599e-05 2.46968e-05 9.17961e-05 -5.49326e-05 -4.97799e-05 4.33089e-05 0.000161864 8.01797e-05 8.5388e-05 8.58063e-05 
-0.00018341 -9.58788e-05 4.11524e-05 -8.64359e-05 5.27487e-05 5.51903e-05 -0.000212638 -7.51266e-06 -1.45348e-05 5.88639e-05 -0.00015526 -4.11761e-06 0.000100275 3.91321e-07 -2.87948e-05 8.10489e-06 
-0.000128174 -6.52675e-05 4.73807e-05 -5.57004e-05 3.33259e-05 6.95778e-05 -0.00015736 7.19539e-07 1.3633e-05 2.42793e-05 -0.000108976 8.01395e-06 0.000103951 2.07767e-05 3.02174e-06 2.70198e-05 
-5.7807e-05 -2.43416e-05 7.59349e-05 -1.1955e-05 4.25241e-06 0.000125905 -9.40986e-05 2.07041e-05 7.95716e-05 -4.33621e-05 -5.41118e-05 3.75468e-05 0.000149877 7.08059e-05 7.28647e-05 7.64368e-05 
-0.000199089 -0.000106217 2.52361e-05 -9.91156e-05 6.11965e-05 2.73613e-05 -0.000221312 -1.46097e-05 -4.09644e-05 8.19769e-05 -0.000167969 -1.57566e-05 7.30392e-05 -2.11673e-05 -5.58178e-05 -1.37549e-05 
-7.46353e-05 -2.65261e-05 0.000122567 -4.77088e-06 9.32073e-07 0.00019144 -0.000144554 3.04506e-05 0.000125944 -6.86598e-05 -6.384e-05 5.18791e-05 0.000227688 0.000115719 0.000116055 0.000121949 
-0.000121396 -5.42906e-05 0.000122916 -3.2831e-05 1.65039e-05 0.000196514 -0.000185929 2.62385e-05 0.000113389 -4.86592e-05 -0.000105673 5.3358e-05 0.000241375 0.000105926 0.000100682 0.000115596 
-0.000194211 -0.000102115 3.93553e-05 -9.27874e-05 5.70063e-05 5.03751e-05 -0.000223773 -9.48266e-06 -2.15545e-05 6.70254e-05 -0.000164187 -7.86305e-06 9.73151e-05 -4.5837e-06 -3.6642e-05 3.10414e-06 
-3.97835e-05 -1.57933e-05 9.01523e-05 -3.06387e-06 -3.09013e-06 0.000156704 -7.58521e-05 3.16356e-05 0.000109167 -7.18477e-05 -4.61298e-05 5.20328e-05 0.000177769 9.20161e-05 0.000102849 9.83132e-05 
-3.89387e-05 -1.51971e-05 7.96052e-05 -3.48551e-06 -1.89216e-06 0.000136519 -7.26269e-05 2.66078e-05 9.38667e-05 -6.01108e-05 -4.23675e-05 4.42678e-05 0.000156292 8.01148e-05 8.80884e-05 8.5511e-05 
-5.23714e-05 -2.00465e-05 7.84082e-05 -6.71662e-06 1.77524e-06 0.000126852 -9.30718e-05 2.09589e-05 8.24805e-05 -4.58829e-05 -4.75753e-05 3.65786e-05 0.000150668 7.41921e-05 7.59909e-05 7.90742e-05 
-4.08389e-05 -1.64032e-05 8.8511e-05 -3.84311e-06 -2.48791e-06 0.000153621 -7.6458e-05 3.07879e-05 0.000106457 -6.95195e-05 -4.66617e-05 5.07553e-05 0.000174714 8.98966e-05 0.00010014 9.61226e-05 
-0.000221181 -0.000118577 2.70173e-05 -0.000111011 6.85761e-05 2.87424e-05 -0.000245312 -1.63993e-05 -4.68823e-05 9.21006e-05 -0.000186999 -1.83201e-05 7.91544e-05 -2.47858e-05 -6.34272e-05 -1.65567e-05 
-0.00019909 -0.000106217 2.52371e-05 -9.91156e-05 6.11965e-05 2.7363e-05 -0.000221313 -1.46094e-05 -4.09632e-05 8.19762e-05 -0.00016797 -1.57562e-05 7.30413e-05 -2.11662e-05 -5.58167e-05 -1.37538e-05 
-7.58379e-05 -3.21262e-05 9.0317e-05 -1.71297e-05 6.78765e-06 0.000149842 -0.000119276 2.40352e-05 9.28074e-05 -4.88051e-05 -7.02572e-05 4.41883e-05 0.000180256 8.29173e-05 8.4495e-05 8.99787e-05 
-0.000119925 -5.22017e-05 0.000113218 -3.16073e-05 1.61849e-05 0.000180127 -0.000181256 2.28333e-05 0.000101915 -4.12316e-05 -0.000102489 4.80512e-05 0.000224329 9.62847e-05 9.00149e-05 0.000105429 
-0.000111463 -5.78239e-05 3.70284e-05 -5.07168e-05 3.00179e-05 5.5804e-05 -0.000132651 9.34509e-07 8.48602e-06 2.23522e-05 -9.70989e-05 5.94594e-06 8.46737e-05 1.40347e-05 -7.00917e-07 1.94578e-05 
-7.46344e-05 -2.65256e-05 0.000122567 -4.77027e-06 9.31635e-07 0.000191442 -0.000144554 3.04511e-05 0.000125946 -6.86612e-05 -6.38394e-05 5.18798e-05 0.000227689 0.00011572 0.000116056 0.00012195 
-0.000120799 -5.29382e-05 0.000109868 -3.2833e-05 1.70841e-05 0.000174368 -0.000180688 2.15894e-05 9.72287e-05 -3.76344e-05 -0.000103026 4.58954e-05 0.000218254 9.23603e-05 8.53859e-05 0.000101355 
-5.06993e-05 -2.18588e-05 7.86513e-05 -9.85844e-06 2.48448e-06 0.000132485 -8.59281e-05 2.35753e-05 8.65879e-05 -5.0685e-05 -5.05417e-05 4.09373e-05 0.000154579 7.54823e-05 8.00389e-05 8.12181e-05 
-7.731e-05 -2.77998e-05 0.000122799 -5.91687e-06 1.62517e-06 0.000191681 -0.000147428 3.01694e-05 0.000125315 -6.75379e-05 -6.59571e-05 5.17627e-05 0.00022858 0.000115392 0.000115267 0.00012171 
-8.35075e-05 -3.45596e-05 9.45928e-05 -1.73612e-05 9.1347e-06 0.000146456 -0.000138307 2.04802e-05 8.80097e-05 -3.96677e-05 -7.09536e-05 3.68492e-05 0.000179903 8.31017e-05 7.86602e-05 8.89216e-05 
-3.97834e-05 -1.5793e-05 9.0152e-05 -3.06359e-06 -3.09026e-06 0.000156703 -7.58519e-05 3.16355e-05 0.000109167 -7.18475e-05 -4.61295e-05 5.20327e-05 0.000177769 9.20159e-05 0.000102849 9.83129e-05 
-7.46342e-05 -2.65255e-05 0.000122567 -4.77033e-06 9.31707e-07 0.000191441 -0.000144553 3.04509e-05 0.000125945 -6.86606e-05 -6.38393e-05 5.18795e-05 0.000227688 0.000115719 0.000116056 0.00012195 
-4.19574e-05 -1.66243e-05 0.000105492 -2.1209e-06 -4.72555e-06 0.000184534 -8.29175e-05 3.82164e-05 0.000130046 -8.72649e-05 -5.13012e-05 6.20151e-05 0.000207889 0.000108871 0.000122872 0.00011617 
-0.00013509 -6.92902e-05 3.585e-05 -6.12699e-05 3.71511e-05 4.99948e-05 -0.000159161 -3.58367e-06 -3.15896e-06 3.76198e-05 -0.000114353 5.03366e-07 8.43525e-05 6.78067e-06 -1.37568e-05 1.25576e-05 
-7.88001e-05 -2.93781e-05 0.000117443 -8.42053e-06 3.2654e-06 0.000183057 -0.000146065 2.83452e-05 0.000118094 -6.20493e-05 -6.72866e-05 4.87724e-05 0.000219332 0.000109134 0.00010813 0.000115382 
-7.46363e-05 -2.65266e-05 0.000122566 -4.7714e-06 9.32377e-07 0.000191439 -0.000144555 3.04501e-05 0.000125943 -6.86586e-05 -6.38406e-05 5.18788e-05 0.000227687 0.000115718 0.000116053 0.000121948 
-3.68124e-05 -1.4651e-05 9.2102e-05 -1.94277e-06 -3.95711e-06 0.000160443 -7.33055e-05 3.29806e-05 0.000112819 -7.53103e-05 -4.4435e-05 5.34838e-05 0.000180842 9.4771e-05 0.000106497 0.000101061 
-6.31536e-05 -2.27144e-05 9.49503e-05 -5.71031e-06 1.59553e-06 0.000149621 -0.000116306 2.34434e-05 9.71227e-05 -5.22606e-05 -5.41971e-05 4.12522e-05 0.000179138 8.91478e-05 8.93395e-05 9.43965e-05 
-0.000177087 -7.39011e-05 0.000147551 -4.50226e-05 2.37352e-05 0.000232759 -0.000261197 2.63861e-05 0.000126436 -4.46278e-05 -0.000147026 6.02282e-05 0.000297547 0.000122192 0.000110409 0.000134706 
-9.32166e-05 -4.5056e-05 5.06077e-05 -3.5217e-05 2.08831e-05 7.57047e-05 -0.000124142 5.73608e-06 2.99039e-05 3.53791e-06 -7.92209e-05 1.31763e-05 0.000103706 3.27779e-05 2.15398e-05 3.75624e-05 
-6.91927e-05 -3.01044e-05 8.72583e-05 -1.58612e-05 6.35567e-06 0.000143824 -0.000111194 2.28634e-05 8.9487e-05 -4.70539e-05 -6.40748e-05 4.23579e-05 0.000171657 8.01854e-05 8.1526e-05 8.67679e-05 
-0.00010819 -5.3423e-05 5.23545e-05 -4.31162e-05 2.5931e-05 7.67938e-05 -0.000141248 4.3944e-06 2.5974e-05 1.06598e-05 -9.1766e-05 1.10998e-05 0.000108053 3.0656e-05 1.63847e-05 3.58923e-05 
-0.000229608 -0.000113354 9.39339e-05 -9.37441e-05 5.61086e-05 0.000138122 -0.000288864 3.04434e-06 3.55018e-05 3.58055e-05 -0.000192645 1.8882e-05 0.000202578 4.76581e-05 1.66207e-05 5.90798e-05 
-0.000238983 -0.000126902 2.86932e-05 -0.00011836 7.31482e-05 3.00603e-05 -0.000265104 -1.83854e-05 -5.1182e-05 9.98068e-05 -0.000200822 -1.95235e-05 8.49399e-05 -2.69701e-05 -6.88228e-05 -1.81849e-05 
-6.71871e-05 -2.94876e-05 7.41639e-05 -1.70748e-05 7.70245e-06 0.000121363 -0.000103846 1.84638e-05 7.30411e-05 -3.5785e-05 -6.11218e-05 3.45037e-05 0.000147063 6.62879e-05 6.57389e-05 7.20021e-05 
-4.19486e-05 -1.66177e-05 0.00010549 -2.11411e-06 -4.72979e-06 0.000184532 -8.29075e-05 3.82162e-05 0.000130047 -8.72685e-05 -5.1292e-05 6.20166e-05 0.000207886 0.000108872 0.000122874 0.000116171 
-0.000194834 -0.000103603 2.74068e-05 -9.61933e-05 5.93203e-05 3.12179e-05 -0.000217986 -1.34319e-05 -3.66346e-05 7.77665e-05 -0.000164394 -1.39189e-05 7.63908e-05 -1.77151e-05 -5.1258e-05 -1.03532e-05 
-6.03219e-05 -2.57776e-05 8.0202e-05 -1.28585e-05 4.58322e-06 0.000133266 -9.83001e-05 2.20574e-05 8.43325e-05 -4.61546e-05 -5.69009e-05 3.98546e-05 0.000158238 7.48581e-05 7.72514e-05 8.08756e-05 
-0.000199089 -0.000106217 2.52365e-05 -9.91152e-05 6.11962e-05 2.7362e-05 -0.000221311 -1.46095e-05 -4.09636e-05 8.19761e-05 -0.000167969 -1.57563e-05 7.30399e-05 -2.11667e-05 -5.5817e-05 -1.37543e-05 
-7.4636e-05 -2.65265e-05 0.000122566 -4.7713e-06 9.32394e-07 0.000191439 -0.000144555 3.04502e-05 0.000125943 -6.86587e-05 -6.38405e-05 5.18786e-05 0.000227687 0.000115718 0.000116054 0.000121948 
-7.46358e-05 -2.65263e-05 0.000122568 -4.77092e-06 9.3205e-07 0.000191442 -0.000144555 3.04509e-05 0.000125946 -6.86606e-05 -6.38405e-05 5.18797e-05 0.00022769 0.00011572 0.000116056 0.00012195 
-0.000118755 -5.31533e-05 9.58928e-05 -3.53107e-05 1.90668e-05 0.000151178 -0.000171798 1.72815e-05 8.00295e-05 -2.59556e-05 -0.000100904 3.81018e-05 0.000192379 7.7442e-05 6.879e-05 8.56555e-05 
-6.22486e-05 -2.23471e-05 0.000104209 -4.22862e-06 4.22078e-07 0.000164897 -0.000119685 2.69996e-05 0.000109071 -6.08964e-05 -5.47393e-05 4.59656e-05 0.000195216 9.91811e-05 0.000100772 0.000104753 
-0.000199089 -0.000106217 2.52366e-05 -9.91152e-05 6.11962e-05 2.73622e-05 -0.000221312 -1.46095e-05 -4.09635e-05 8.19762e-05 -0.000167969 -1.57563e-05 7.30402e-05 -2.11666e-05 -5.5817e-05 -1.37542e-05 
-0.000177028 -7.38678e-05 0.000147612 -4.49829e-05 2.37062e-05 0.000232872 -0.000261153 2.64164e-05 0.00012654 -4.47201e-05 -0.000146986 6.02795e-05 0.000297654 0.000122273 0.000110515 0.00013479 
-7.46347e-05 -2.65258e-05 0.000122567 -4.77054e-06 9.31817e-07 0.000191442 -0.000144554 3.0451e-05 0.000125946 -6.86608e-05 -6.38398e-05 5.18796e-05 0.000227689 0.00011572 0.000116056 0.00012195 
-0.000178182 -9.38956e-05 3.13163e-05 -8.60242e-05 5.28714e-05 3.88408e-05 -0.000202545 -1.03767e-05 -2.55328e-05 6.54729e-05 -0.000150244 -9.12046e-06 8.12655e-05 -9.25939e-06 -3.90771e-05 -2.24848e-06 
-6.4963e-05 -2.35631e-05 9.58441e-05 -6.36382e-06 1.99541e-06 0.000150887 -0.000118708 2.34798e-05 9.75434e-05 -5.20546e-05 -5.56591e-05 4.14424e-05 0.000180942 8.96807e-05 8.96059e-05 9.50047e-05 
-3.54465e-05 -1.43373e-05 9.40972e-05 -1.65406e-06 -4.39828e-06 0.000164734 -7.18426e-05 3.45052e-05 0.000116552 -7.87011e-05 -4.45698e-05 5.52652e-05 0.000184858 9.73986e-05 0.000110156 0.000103824 
-8.35076e-05 -3.45597e-05 9.45927e-05 -1.73613e-05 9.13474e-06 0.000146456 -0.000138308 2.04801e-05 8.80096e-05 -3.96676e-05 -7.09537e-05 3.68491e-05 0.000179903 8.31016e-05 7.86601e-05 8.89216e-05 
-3.90392e-05 -1.52588e-05 7.92044e-05 -3.58945e-06 -1.79735e-06 0.000135771 -7.26142e-05 2.64149e-05 9.32576e-05 -5.96184e-05 -4.23601e-05 4.39757e-05 0.000155518 7.9634e-05 8.74906e-05 8.50069e-05 
-3.50454e-05 -1.39781e-05 8.83653e-05 -1.83821e-06 -3.85444e-06 0.000154198 -6.98007e-05 3.18508e-05 0.000108574 -7.26785e-05 -4.26754e-05 5.15162e-05 0.000173696 9.10529e-05 0.000102526 9.71191e-05 
-3.40936e-05 -1.36064e-05 9.57987e-05 -7.71466e-07 -5.07744e-06 0.000167975 -7.09097e-05 3.54466e-05 0.000119472 -8.1274e-05 -4.38611e-05 5.66269e-05 0.000187996 9.96556e-05 0.000113085 0.000106147 
-7.46329e-05 -2.65248e-05 0.000122567 -4.76961e-06 9.31153e-07 0.000191442 -0.000144552 3.04512e-05 0.000125946 -6.86619e-05 -6.38383e-05 5.18803e-05 0.000227689 0.00011572 0.000116057 0.00012195 
-4.24589e-05 -1.58537e-05 7.88083e-05 -3.13636e-06 -6.85859e-07 0.000129133 -8.15987e-05 2.31025e-05 8.71816e-05 -5.21359e-05 -4.10007e-05 3.85447e-05 0.000150334 7.69441e-05 8.11563e-05 8.16297e-05 
-0.000199089 -0.000106217 2.52369e-05 -9.91152e-05 6.11962e-05 2.73627e-05 -0.000221311 -1.46093e-05 -4.0963e-05 8.19758e-05 -0.000167969 -1.57561e-05 7.30407e-05 -2.11663e-05 -5.58165e-05 -1.37538e-05 
-0.000199089 -0.000106217 2.52366e-05 -9.91154e-05 6.11963e-05 2.73621e-05 -0.000221312 -1.46095e-05 -4.09637e-05 8.19763e-05 -0.000167969 -1.57563e-05 7.30402e-05 -2.11667e-05 -5.58171e-05 -1.37543e-05 
-8.01234e-05 -3.43938e-05 8.71754e-05 -1.93455e-05 8.79023e-06 0.000141889 -0.00012435 2.07031e-05 8.49197e-05 -4.07191e-05 -7.12687e-05 4.02679e-05 0.000172857 7.76526e-05 7.6461e-05 8.44752e-05 
-7.4636e-05 -2.65265e-05 0.000122568 -4.771e-06 9.32095e-07 0.000191443 -0.000144556 3.04512e-05 0.000125946 -6.8661e-05 -6.38408e-05 5.18798e-05 0.000227691 0.00011572 0.000116057 0.000121951 
-0.000121396 -5.42914e-05 0.000122917 -3.28317e-05 1.65044e-05 0.000196515 -0.00018593 2.6239e-05 0.00011339 -4.86596e-05 -0.000105674 5.33579e-05 0.000241377 0.000105927 0.000100683 0.000115597 
-0.000239002 -0.000126914 2.86896e-05 -0.000118373 7.31563e-05 3.00534e-05 -0.000265121 -1.83883e-05 -5.11937e-05 9.98203e-05 -0.000200838 -1.95285e-05 8.49353e-05 -2.69792e-05 -6.8836e-05 -1.81934e-05 
-3.74504e-05 -1.5073e-05 8.27231e-05 -3.35211e-06 -2.36936e-06 0.000143079 -7.11849e-05 2.86842e-05 9.92648e-05 -6.47737e-05 -4.28204e-05 4.69527e-05 0.000162566 8.39827e-05 9.3343e-05 8.96688e-05 
-0.000105546 -4.27069e-05 0.000100084 -2.36938e-05 1.16128e-05 0.000159537 -0.000160498 2.0449e-05 9.17187e-05 -3.88847e-05 -8.89148e-05 4.33886e-05 0.000199893 8.65796e-05 8.16644e-05 9.43244e-05 
-3.93951e-05 -1.51812e-05 8.26445e-05 -3.03598e-06 -2.3199e-06 0.000141755 -7.43579e-05 2.7765e-05 9.7818e-05 -6.2959e-05 -4.31291e-05 4.60489e-05 0.000162072 8.34368e-05 9.18851e-05 8.89702e-05 
-0.000135233 -6.76725e-05 4.42665e-05 -5.80568e-05 3.48727e-05 6.40498e-05 -0.000163488 -9.14524e-07 7.9098e-06 2.95326e-05 -0.000114235 5.67685e-06 0.000100134 1.63787e-05 -2.85386e-06 2.2471e-05 
-0.000135233 -6.76725e-05 4.42666e-05 -5.80568e-05 3.48728e-05 6.40499e-05 -0.000163488 -9.14466e-07 7.90988e-06 2.95325e-05 -0.000114235 5.6769e-06 0.000100134 1.63787e-05 -2.85379e-06 2.2471e-05 
-7.46365e-05 -2.65268e-05 0.000122568 -4.7714e-06 9.32319e-07 0.000191442 -0.000144556 3.04509e-05 0.000125945 -6.86601e-05 -6.38412e-05 5.18795e-05 0.00022769 0.000115719 0.000116056 0.00012195 
-7.46352e-05 -2.6526e-05 0.000122568 -4.77058e-06 9.31842e-07 0.000191443 -0.000144555 3.04512e-05 0.000125946 -6.86613e-05 -6.38402e-05 5.18799e-05 0.000227691 0.00011572 0.000116057 0.000121951 
-7.4635e-05 -2.6526e-05 0.000122565 -4.77091e-06 9.32087e-07 0.000191438 -0.000144553 3.04502e-05 0.000125943 -6.86589e-05 -6.38397e-05 5.18788e-05 0.000227686 0.000115717 0.000116053 0.000121948 
-3.96516e-05 -1.47942e-05 8.01702e-05 -2.20108e-06 -1.49422e-06 0.000132311 -7.85103e-05 2.44301e-05 9.04324e-05 -5.54643e-05 -3.96757e-05 4.0069e-05 0.000152828 7.91721e-05 8.4454e-05 8.38994e-05 
-3.50455e-05 -1.39781e-05 8.83654e-05 -1.83809e-06 -3.85452e-06 0.000154198 -6.98008e-05 3.18508e-05 0.000108574 -7.26786e-05 -4.26754e-05 5.15163e-05 0.000173696 9.10531e-05 0.000102526 9.71193e-05 
-4.19519e-05 -1.66204e-05 0.000105495 -2.11652e-06 -4.72869e-06 0.00018454 -8.29122e-05 3.82181e-05 0.000130052 -8.72714e-05 -5.12963e-05 6.20191e-05 0.000207895 0.000108876 0.000122879 0.000116175 
-7.46365e-05 -2.65267e-05 0.00012257 -4.77099e-06 9.32037e-07 0.000191446 -0.000144558 3.04517e-05 0.000125948 -6.86622e-05 -6.38414e-05 5.18806e-05 0.000227694 0.000115722 0.000116058 0.000121953 
-0.000159314 -6.767e-05 0.000133865 -4.20116e-05 2.20328e-05 0.00021187 -0.000234303 2.46711e-05 0.000115314 -4.13381e-05 -0.000133635 5.5037e-05 0.000269527 0.000110887 0.000100578 0.000122171 
-0.000178182 -9.38955e-05 3.13162e-05 -8.60242e-05 5.28714e-05 3.88407e-05 -0.000202545 -1.03767e-05 -2.55329e-05 6.5473e-05 -0.000150244 -9.1205e-06 8.12654e-05 -9.25946e-06 -3.90771e-05 -2.24855e-06 
-0.000118532 -5.33711e-05 9.5408e-05 -3.56731e-05 1.93542e-05 0.000150249 -0.000171343 1.71145e-05 7.92943e-05 -2.53537e-05 -0.000100816 3.76591e-05 0.000191229 7.68175e-05 6.80536e-05 8.50178e-05 
-0.000130219 -6.60361e-05 5.40053e-05 -5.54895e-05 3.29465e-05 8.06296e-05 -0.000162494 2.76934e-06 2.14273e-05 1.92671e-05 -0.000111183 1.15594e-05 0.000116356 2.75292e-05 1.04039e-05 3.41921e-05 
-4.05251e-05 -1.54189e-05 7.28419e-05 -3.76105e-06 -2.91472e-07 0.000120071 -7.60702e-05 2.15689e-05 8.07346e-05 -4.82955e-05 -3.94592e-05 3.61076e-05 0.000139885 7.10478e-05 7.51039e-05 7.55316e-05 
-7.46352e-05 -2.6526e-05 0.000122568 -4.77065e-06 9.31895e-07 0.000191442 -0.000144555 3.0451e-05 0.000125946 -6.86608e-05 -6.38401e-05 5.18797e-05 0.00022769 0.00011572 0.000116056 0.00012195 
-4.19536e-05 -1.66214e-05 0.000105493 -2.11774e-06 -4.7277e-06 0.000184536 -8.29137e-05 3.82169e-05 0.000130048 -8.72679e-05 -5.12972e-05 6.2017e-05 0.000207891 0.000108873 0.000122875 0.000116172 
-3.61215e-05 -1.43909e-05 0.000110232 1.69914e-07 -6.53906e-06 0.000193486 -7.82504e-05 4.12315e-05 0.00013844 -9.49662e-05 -4.8139e-05 6.54202e-05 0.000215622 0.000115281 0.000131206 0.000122616 
-7.79224e-05 -3.02422e-05 0.000104912 -1.14327e-05 5.10402e-06 0.000164069 -0.000137547 2.4603e-05 0.000103471 -5.22987e-05 -6.65656e-05 4.36138e-05 0.000198105 9.59771e-05 9.41688e-05 0.00010206 
-3.61207e-05 -1.43904e-05 0.000110237 1.71023e-07 -6.53978e-06 0.000193493 -7.82519e-05 4.12331e-05 0.000138446 -9.49705e-05 -4.81386e-05 6.54226e-05 0.00021563 0.000115286 0.000131212 0.000122621 
-4.65305e-05 -1.87625e-05 9.26302e-05 -5.29419e-06 -1.55687e-06 0.000159391 -8.49676e-05 3.11951e-05 0.000109227 -6.9813e-05 -5.10446e-05 5.18111e-05 0.000182452 9.29733e-05 0.000102379 9.93908e-05 
-3.85544e-05 -1.45036e-05 7.65655e-05 -2.50202e-06 -1.26856e-06 0.000126717 -7.53569e-05 2.33958e-05 8.64298e-05 -5.29859e-05 -3.86551e-05 3.85419e-05 0.000146456 7.55673e-05 8.07001e-05 8.01799e-05 
-0.000199089 -0.000106217 2.52366e-05 -9.91154e-05 6.11963e-05 2.73622e-05 -0.000221312 -1.46095e-05 -4.09636e-05 8.19763e-05 -0.000167969 -1.57563e-05 7.30402e-05 -2.11667e-05 -5.58171e-05 -1.37542e-05 
-0.000238988 -0.000126907 2.86956e-05 -0.000118364 7.31508e-05 3.00648e-05 -0.000265109 -1.83844e-05 -5.11806e-05 9.98071e-05 -0.000200828 -1.95229e-05 8.49447e-05 -2.69691e-05 -6.88223e-05 -1.81835e-05 
-0.000103711 -5.02736e-05 5.88921e-05 -3.89545e-05 2.32389e-05 8.75474e-05 -0.000140139 7.01044e-06 3.57503e-05 2.59501e-06 -8.81131e-05 1.50236e-05 0.000118951 3.88759e-05 2.6209e-05 4.41585e-05 
-3.68119e-05 -1.46506e-05 9.21025e-05 -1.94235e-06 -3.95741e-06 0.000160444 -7.33051e-05 3.29809e-05 0.00011282 -7.53112e-05 -4.44345e-05 5.34842e-05 0.000180843 9.47718e-05 0.000106498 0.000101061 
-7.46357e-05 -2.65264e-05 0.000122569 -4.77088e-06 9.3203e-07 0.000191444 -0.000144556 3.04514e-05 0.000125947 -6.86615e-05 -6.38407e-05 5.18799e-05 0.000227692 0.000115721 0.000116057 0.000121951 
-0.00019909 -0.000106218 2.52364e-05 -9.91162e-05 6.11969e-05 2.73619e-05 -0.000221313 -1.46096e-05 -4.09642e-05 8.19771e-05 -0.000167971 -1.57566e-05 7.30402e-05 -2.11672e-05 -5.58178e-05 -1.37547e-05 
-0.000121396 -5.42907e-05 0.000122914 -3.28313e-05 1.65043e-05 0.00019651 -0.000185929 2.62376e-05 0.000113386 -4.86568e-05 -0.000105673 5.33563e-05 0.000241372 0.000105924 0.00010068 0.000115594 
-0.00019909 -0.000106217 2.52365e-05 -9.91156e-05 6.11965e-05 2.7362e-05 -0.000221312 -1.46096e-05 -4.09639e-05 8.19766e-05 -0.00016797 -1.57565e-05 7.30401e-05 -2.11669e-05 -5.58174e-05 -1.37545e-05 
-0.000119502 -5.1971e-05 0.000113656 -3.1317e-05 1.59922e-05 0.000180867 -0.000180976 2.29853e-05 0.000102584 -4.17831e-05 -0.000102126 4.83887e-05 0.00022502 9.68473e-05 9.06965e-05 0.000105996 
-0.000199089 -0.000106217 2.52361e-05 -9.91156e-05 6.11965e-05 2.73613e-05 -0.000221312 -1.46097e-05 -4.09643e-05 8.19769e-05 -0.000167969 -1.57566e-05 7.30393e-05 -2.11673e-05 -5.58178e-05 -1.37548e-05 
-0.000199089 -0.000106217 2.52369e-05 -9.91154e-05 6.11964e-05 2.73626e-05 -0.000221312 -1.46094e-05 -4.09633e-05 8.19761e-05 -0.00016797 -1.57562e-05 7.30408e-05 -2.11664e-05 -5.58168e-05 -1.3754e-05 
-0.000168408 -8.72716e-05 3.84582e-05 -7.82946e-05 4.76954e-05 5.19256e-05 -0.000195602 -6.78381e-06 -1.22178e-05 5.30585e-05 -0.000142106 -2.97869e-06 9.36829e-05 1.38154e-06 -2.52263e-05 8.45402e-06 
-7.46353e-05 -2.6526e-05 0.000122566 -4.77087e-06 9.3201e-07 0.00019144 -0.000144554 3.04505e-05 0.000125944 -6.86597e-05 -6.384e-05 5.18792e-05 0.000227688 0.000115718 0.000116055 0.000121949 
-7.4634e-05 -2.65254e-05 0.000122566 -4.77026e-06 9.31652e-07 0.00019144 -0.000144553 3.04508e-05 0.000125945 -6.86605e-05 -6.3839e-05 5.18794e-05 0.000227687 0.000115719 0.000116055 0.000121949 
-0.000171767 -9.06387e-05 2.99086e-05 -8.31727e-05 5.10766e-05 3.71682e-05 -0.000194848 -9.86717e-06 -2.47775e-05 6.30891e-05 -0.000145166 -8.86709e-06 7.79378e-05 -9.18509e-06 -3.78607e-05 -2.47277e-06 
-0.00023899 -0.000126907 2.86978e-05 -0.000118364 7.31507e-05 3.00674e-05 -0.000265113 -1.83842e-05 -5.11789e-05 9.98065e-05 -0.000200828 -1.95225e-05 8.49485e-05 -2.69672e-05 -6.88206e-05 -1.81815e-05 
-0.000221179 -0.000118576 2.70171e-05 -0.00011101 6.85754e-05 2.87428e-05 -0.00024531 -1.63989e-05 -4.68814e-05 9.20992e-05 -0.000186998 -1.83196e-05 7.91543e-05 -2.47853e-05 -6.34261e-05 -1.65562e-05 
-5.96742e-05 -2.44021e-05 8.25045e-05 -1.10331e-05 3.25859e-06 0.000137717 -9.82609e-05 2.35226e-05 8.85255e-05 -5.00302e-05 -5.68871e-05 4.17946e-05 0.000163213 7.81294e-05 8.14881e-05 8.40798e-05 
-7.46339e-05 -2.65252e-05 0.000122568 -4.76987e-06 9.31341e-07 0.000191443 -0.000144553 3.04514e-05 0.000125947 -6.86621e-05 -6.38391e-05 5.18803e-05 0.00022769 0.000115721 0.000116057 0.000121951 
-3.61215e-05 -1.43906e-05 0.000110233 1.70487e-07 -6.53938e-06 0.000193487 -7.82512e-05 4.12318e-05 0.000138441 -9.49673e-05 -4.81388e-05 6.54209e-05 0.000215624 0.000115282 0.000131208 0.000122617 
-7.46345e-05 -2.65257e-05 0.000122567 -4.77044e-06 9.31755e-07 0.000191441 -0.000144553 3.04508e-05 0.000125945 -6.86606e-05 -6.38395e-05 5.18795e-05 0.000227688 0.000115719 0.000116056 0.00012195 
-0.000122403 -5.70089e-05 9.24695e-05 -4.01089e-05 2.21672e-05 0.000145153 -0.000173271 1.59469e-05 7.38096e-05 -2.02126e-05 -0.000104908 3.51873e-05 0.000185825 7.22054e-05 6.2178e-05 8.03839e-05 
-8.76415e-05 -4.47231e-05 4.60093e-05 -3.70308e-05 2.08101e-05 7.4124e-05 -0.000110321 7.83315e-06 3.01045e-05 -1.07505e-07 -7.9302e-05 1.56374e-05 9.90531e-05 3.01051e-05 2.21601e-05 3.53623e-05 
-0.000120379 -5.92058e-05 5.72239e-05 -4.7925e-05 2.81955e-05 8.64852e-05 -0.000154463 4.68866e-06 2.93384e-05 1.0881e-05 -0.000102104 1.4962e-05 0.000121248 3.38399e-05 1.90803e-05 4.03071e-05 
-3.61196e-05 -1.43891e-05 0.000110235 1.72008e-07 -6.54054e-06 0.00019349 -7.82495e-05 4.12329e-05 0.000138444 -9.49703e-05 -4.81376e-05 6.54221e-05 0.000215627 0.000115284 0.00013121 0.000122619 
-3.50456e-05 -1.39782e-05 8.83651e-05 -1.83822e-06 -3.85442e-06 0.000154198 -6.98009e-05 3.18507e-05 0.000108573 -7.26783e-05 -4.26754e-05 5.1516e-05 0.000173696 9.10527e-05 0.000102526 9.71189e-05 
-3.61222e-05 -1.43915e-05 0.000110236 1.69629e-07 -6.53906e-06 0.000193492 -7.82523e-05 4.12329e-05 0.000138444 -9.49692e-05 -4.81403e-05 6.54222e-05 0.000215628 0.000115285 0.00013121 0.000122619 
-0.000221182 -0.000118577 2.70164e-05 -0.000111011 6.85763e-05 2.87409e-05 -0.000245314 -1.63999e-05 -4.68837e-05 9.21019e-05 -0.000187 -1.83208e-05 7.91535e-05 -2.47868e-05 -6.34284e-05 -1.65577e-05 
-0.000229578 -0.000113338 9.39242e-05 -9.37301e-05 5.60999e-05 0.000138109 -0.000288825 3.04451e-06 3.55008e-05 3.57979e-05 -0.000192619 1.88829e-05 0.000202556 4.76552e-05 1.66222e-05 5.9075e-05 
-7.46348e-05 -2.65258e-05 0.000122568 -4.77038e-06 9.31673e-07 0.000191443 -0.000144554 3.04511e-05 0.000125946 -6.86613e-05 -6.38397e-05 5.18801e-05 0.00022769 0.00011572 0.000116057 0.000121951 
-3.89386e-05 -1.51971e-05 7.96052e-05 -3.48545e-06 -1.89218e-06 0.000136519 -7.26268e-05 2.66077e-05 9.38667e-05 -6.01108e-05 -4.23674e-05 4.42678e-05 0.000156292 8.01148e-05 8.80884e-05 8.55109e-05 
-8.61787e-05 -3.11496e-05 0.000107133 -1.14537e-05 3.61684e-06 0.000173212 -0.000142295 2.60613e-05 0.000108911 -5.71306e-05 -7.42239e-05 5.07515e-05 0.00021053 9.96315e-05 9.99097e-05 0.000106655 
-3.61279e-05 -1.43947e-05 0.000110234 1.66311e-07 -6.53679e-06 0.000193488 -7.82581e-05 4.12314e-05 0.000138439 -9.49641e-05 -4.81447e-05 6.54197e-05 0.000215625 0.000115281 0.000131205 0.000122616 
-4.19528e-05 -1.66208e-05 0.000105495 -2.11706e-06 -4.72828e-06 0.000184539 -8.29131e-05 3.82178e-05 0.000130051 -8.72704e-05 -5.12972e-05 6.20183e-05 0.000207894 0.000108875 0.000122878 0.000116174 
-8.20132e-05 -4.12853e-05 5.08747e-05 -3.30339e-05 1.79993e-05 8.32356e-05 -0.000106157 1.0464e-05 3.89202e-05 -8.1884e-06 -7.52666e-05 1.97282e-05 0.000107647 3.70283e-05 3.11746e-05 4.23554e-05 
-0.000121095 -5.39007e-05 0.000119581 -3.28173e-05 1.66256e-05 0.000190944 -0.000184402 2.51494e-05 0.000109389 -4.60213e-05 -0.000104985 5.14781e-05 0.000235517 0.000102512 9.69038e-05 0.000112016 
-3.97839e-05 -1.57937e-05 9.01525e-05 -3.06436e-06 -3.08981e-06 0.000156704 -7.58527e-05 3.16357e-05 0.000109167 -7.18475e-05 -4.61303e-05 5.20327e-05 0.000177769 9.20161e-05 0.000102849 9.83132e-05 
-0.000125009 -6.24978e-05 5.1001e-05 -5.21872e-05 3.10354e-05 7.58473e-05 -0.000156176 2.14527e-06 1.9643e-05 1.90323e-05 -0.00010592 1.0725e-05 0.000110507 2.57934e-05 9.25643e-06 3.21332e-05 
-3.61231e-05 -1.43913e-05 0.000110231 1.69576e-07 -6.53875e-06 0.000193484 -7.82519e-05 4.12307e-05 0.000138438 -9.49645e-05 -4.81397e-05 6.54196e-05 0.00021562 0.00011528 0.000131204 0.000122614 
-4.19414e-05 -1.66151e-05 0.000105496 -2.11139e-06 -4.73172e-06 0.000184542 -8.29024e-05 3.822e-05 0.000130057 -8.72776e-05 -5.12883e-05 6.202e-05 0.000207895 0.000108879 0.000122884 0.000116178 
-3.47046e-05 -1.37989e-05 9.32719e-05 -1.15708e-06 -4.62076e-06 0.000163166 -7.09618e-05 3.41303e-05 0.000115601 -7.8131e-05 -4.35769e-05 5.47775e-05 0.000183116 9.66616e-05 0.000109321 0.000103 
-0.000159293 -7.22598e-05 0.000100041 -5.22348e-05 2.97852e-05 0.000154357 -0.000218291 1.32454e-05 7.05988e-05 -8.69059e-06 -0.000132847 3.42728e-05 0.000206104 7.27513e-05 5.68268e-05 8.23572e-05 
-0.000221175 -0.000118573 2.70192e-05 -0.000111007 6.85734e-05 2.87461e-05 -0.000245307 -1.6398e-05 -4.68774e-05 9.20953e-05 -0.000186994 -1.8318e-05 7.91574e-05 -2.47819e-05 -6.34218e-05 -1.6553e-05 
-4.19474e-05 -1.66186e-05 0.000105502 -2.11423e-06 -4.73051e-06 0.000184553 -8.29102e-05 3.82218e-05 0.000130063 -8.72807e-05 -5.12945e-05 6.20236e-05 0.000207908 0.000108885 0.00012289 0.000116184 
-0.000199089 -0.000106217 2.52366e-05 -9.91154e-05 6.11964e-05 2.73622e-05 -0.000221312 -1.46095e-05 -4.09636e-05 8.19764e-05 -0.000167969 -1.57564e-05 7.30403e-05 -2.11667e-05 -5.58171e-05 -1.37542e-05 
-3.61217e-05 -1.43908e-05 0.00011024 1.70915e-07 -6.53991e-06 0.000193498 -7.82541e-05 4.12344e-05 0.000138449 -9.49732e-05 -4.81402e-05 6.5424e-05 0.000215635 0.000115289 0.000131215 0.000122624 
-0.000133491 -6.71797e-05 4.51611e-05 -5.75161e-05 3.46075e-05 6.52982e-05 -0.000162655 -7.66639e-07 9.09267e-06 2.869e-05 -0.000112572 5.93523e-06 0.000101054 1.74076e-05 -1.63119e-06 2.36599e-05 
-0.000121397 -5.4292e-05 0.000122916 -3.28324e-05 1.65049e-05 0.000196514 -0.000185931 2.62385e-05 0.000113389 -4.86583e-05 -0.000105675 5.33572e-05 0.000241376 0.000105926 0.000100682 0.000115596 
-0.000184968 -9.71253e-05 3.69599e-05 -8.82668e-05 5.41372e-05 4.76148e-05 -0.000212574 -9.29778e-06 -2.08848e-05 6.40087e-05 -0.000156155 -7.12505e-06 9.23625e-05 -4.75986e-06 -3.5119e-05 2.72437e-06 
-8.35078e-05 -3.45598e-05 9.45929e-05 -1.73614e-05 9.1348e-06 0.000146457 -0.000138308 2.04801e-05 8.80097e-05 -3.96676e-05 -7.09539e-05 3.68492e-05 0.000179903 8.31018e-05 7.86602e-05 8.89217e-05 
-8.00026e-05 -3.7151e-05 5.6622e-05 -2.65287e-05 1.51444e-05 8.72021e-05 -0.000112838 9.14048e-06 4.27702e-05 -9.19823e-06 -6.81483e-05 1.92901e-05 0.000113465 4.28232e-05 3.52215e-05 4.76478e-05 
-4.19409e-05 -1.66144e-05 0.000105498 -2.11044e-06 -4.73255e-06 0.000184545 -8.29019e-05 3.82205e-05 0.00013006 -8.72797e-05 -5.12877e-05 6.20218e-05 0.000207898 0.000108881 0.000122887 0.00011618 
-6.39209e-05 -2.75733e-05 7.49482e-05 -1.50964e-05 6.40265e-06 0.000123172 -0.000100708 1.92469e-05 7.55222e-05 -3.85539e-05 -5.85657e-05 3.56075e-05 0.000148396 6.80635e-05 6.84518e-05 7.37884e-05 
-0.00017165 -9.00192e-05 3.44986e-05 -8.17832e-05 5.00421e-05 4.49571e-05 -0.000197009 -8.41233e-06 -1.87584e-05 5.87615e-05 -0.000145062 -6.05643e-06 8.65284e-05 -4.03396e-06 -3.19454e-05 2.97793e-06 
-0.000238988 -0.000126905 2.8695e-05 -0.000118363 7.31498e-05 3.00631e-05 -0.000265109 -1.83852e-05 -5.11815e-05 9.98077e-05 -0.000200826 -1.95232e-05 8.49437e-05 -2.69694e-05 -6.88228e-05 -1.81839e-05 
-3.90393e-05 -1.52589e-05 7.92044e-05 -3.58953e-06 -1.7973e-06 0.000135771 -7.26144e-05 2.64149e-05 9.32576e-05 -5.96184e-05 -4.23602e-05 4.39757e-05 0.000155519 7.96341e-05 8.74906e-05 8.50069e-05 
-0.000100359 -5.2198e-05 4.65691e-05 -4.4448e-05 2.53711e-05 7.42547e-05 -0.000123692 6.8021e-06 2.60973e-05 6.12018e-06 -9.05662e-05 1.38611e-05 0.000101634 2.74421e-05 1.71189e-05 3.31184e-05 
-0.00012139 -5.42875e-05 0.000122919 -3.28276e-05 1.65016e-05 0.00019652 -0.000185924 2.62406e-05 0.000113396 -4.86656e-05 -0.000105669 5.33608e-05 0.000241381 0.000105931 0.000100689 0.000115602 
-5.22557e-05 -2.00094e-05 8.34704e-05 -6.57448e-06 3.7456e-07 0.000140107 -9.06387e-05 2.48437e-05 9.28049e-05 -5.52681e-05 -5.07811e-05 4.37867e-05 0.000164252 8.12131e-05 8.62855e-05 8.69167e-05 
-0.000199091 -0.000106218 2.52359e-05 -9.91161e-05 6.11968e-05 2.73609e-05 -0.000221313 -1.46099e-05 -4.0965e-05 8.19776e-05 -0.00016797 -1.57569e-05 7.30392e-05 -2.11677e-05 -5.58185e-05 -1.37553e-05 
-0.000199089 -0.000106217 2.52367e-05 -9.91151e-05 6.11962e-05 2.73624e-05 -0.000221312 -1.46094e-05 -4.09633e-05 8.1976e-05 -0.000167969 -1.57562e-05 7.30404e-05 -2.11664e-05 -5.58168e-05 -1.3754e-05 
-0.000147371 -7.32334e-05 5.50728e-05 -6.16297e-05 3.6813e-05 8.10494e-05 -0.000182169 8.70175e-07 1.7042e-05 2.65116e-05 -0.000124209 9.86973e-06 0.000121569 2.51938e-05 5.10618e-06 3.24077e-05 
-0.000221177 -0.000118574 2.70165e-05 -0.000111008 6.85745e-05 2.87416e-05 -0.000245308 -1.63992e-05 -4.68816e-05 9.20989e-05 -0.000186996 -1.83197e-05 7.9153e-05 -2.47854e-05 -6.34261e-05 -1.65565e-05 
-0.00019909 -0.000106217 2.52362e-05 -9.91158e-05 6.11966e-05 2.73615e-05 -0.000221312 -1.46097e-05 -4.09643e-05 8.19769e-05 -0.00016797 -1.57566e-05 7.30395e-05 -2.11673e-05 -5.58178e-05 -1.37548e-05 
-8.81383e-05 -4.16814e-05 5.55826e-05 -3.10873e-05 1.82112e-05 8.41069e-05 -0.00012148 7.94471e-06 3.80533e-05 -3.60002e-06 -7.50417e-05 1.65265e-05 0.000111897 3.94997e-05 2.98609e-05 4.42793e-05 
-4.31627e-05 -1.71511e-05 9.68942e-05 -3.47005e-06 -3.22111e-06 0.000168467 -8.18535e-05 3.4055e-05 0.000117301 -7.71767e-05 -5.00341e-05 5.59125e-05 0.00019121 9.88582e-05 0.000110488 0.00010562 
-7.73101e-05 -2.77999e-05 0.000122799 -5.91697e-06 1.62523e-06 0.000191681 -0.000147428 3.01693e-05 0.000125315 -6.75376e-05 -6.59572e-05 5.17625e-05 0.000228579 0.000115392 0.000115266 0.000121709 
-0.000199088 -0.000106217 2.52365e-05 -9.9115e-05 6.11961e-05 2.7362e-05 -0.000221311 -1.46094e-05 -4.09635e-05 8.1976e-05 -0.000167969 -1.57563e-05 7.30399e-05 -2.11666e-05 -5.58169e-05 -1.37542e-05 
-7.46353e-05 -2.65261e-05 0.000122568 -4.77068e-06 9.3188e-07 0.000191443 -0.000144555 3.04512e-05 0.000125946 -6.86613e-05 -6.38403e-05 5.18799e-05 0.000227691 0.00011572 0.000116057 0.000121951 
-0.000121395 -5.42905e-05 0.000122914 -3.28312e-05 1.65043e-05 0.000196511 -0.000185927 2.6238e-05 0.000113387 -4.86577e-05 -0.000105672 5.33565e-05 0.000241372 0.000105924 0.00010068 0.000115594 
-3.61187e-05 -1.43884e-05 0.000110232 1.72601e-07 -6.54063e-06 0.000193485 -7.82474e-05 4.12313e-05 0.00013844 -9.49675e-05 -4.81356e-05 6.54209e-05 0.000215621 0.000115282 0.000131207 0.000122616 
-0.000221178 -0.000118575 2.70177e-05 -0.000111009 6.85749e-05 2.87437e-05 -0.00024531 -1.63987e-05 -4.68804e-05 9.20983e-05 -0.000186997 -1.83191e-05 7.91553e-05 -2.47844e-05 -6.3425e-05 -1.65554e-05 
-0.00019909 -0.000106217 2.52371e-05 -9.91157e-05 6.11965e-05 2.7363e-05 -0.000221313 -1.46093e-05 -4.09632e-05 8.19761e-05 -0.00016797 -1.57562e-05 7.30412e-05 -2.11663e-05 -5.58167e-05 -1.37538e-05 
-0.000221179 -0.000118576 2.70177e-05 -0.000111009 6.85752e-05 2.87434e-05 -0.000245311 -1.6399e-05 -4.6881e-05 9.20991e-05 -0.000186998 -1.83195e-05 7.91554e-05 -2.47847e-05 -6.34257e-05 -1.65557e-05 
-7.46349e-05 -2.65258e-05 0.000122569 -4.77035e-06 9.31674e-07 0.000191444 -0.000144555 3.04515e-05 0.000125947 -6.86621e-05 -6.384e-05 5.18803e-05 0.000227692 0.000115721 0.000116058 0.000121952 
-0.00010465 -5.14227e-05 5.21093e-05 -4.11833e-05 2.46836e-05 7.68592e-05 -0.000137283 4.68638e-06 2.71025e-05 8.87417e-06 -8.87001e-05 1.17793e-05 0.000107393 3.13418e-05 1.78198e-05 3.65263e-05 
-0.000133998 -6.13474e-05 8.95205e-05 -4.41113e-05 2.47766e-05 0.000139395 -0.000184925 1.36028e-05 6.65757e-05 -1.26516e-05 -0.000113346 3.21508e-05 0.000183051 6.69587e-05 5.45419e-05 7.51852e-05 
-7.20923e-05 -2.87436e-05 8.68996e-05 -1.30444e-05 6.0952e-06 0.000136986 -0.000120729 1.9894e-05 8.42424e-05 -4.09045e-05 -6.17576e-05 3.667e-05 0.000166987 7.82819e-05 7.62196e-05 8.39035e-05 
-3.40929e-05 -1.36062e-05 9.57985e-05 -7.71289e-07 -5.07752e-06 0.000167975 -7.09089e-05 3.54466e-05 0.000119472 -8.12741e-05 -4.38606e-05 5.66268e-05 0.000187996 9.96555e-05 0.000113085 0.000106147 
-7.46352e-05 -2.6526e-05 0.000122567 -4.77067e-06 9.31906e-07 0.000191442 -0.000144555 3.0451e-05 0.000125946 -6.86607e-05 -6.38401e-05 5.18796e-05 0.00022769 0.00011572 0.000116056 0.00012195 
-7.46362e-05 -2.65265e-05 0.000122569 -4.77097e-06 9.31997e-07 0.000191444 -0.000144556 3.04514e-05 0.000125947 -6.86615e-05 -6.3841e-05 5.18803e-05 0.000227692 0.000115721 0.000116057 0.000121951 
-4.65468e-05 -1.71354e-05 8.62962e-05 -3.01381e-06 -7.49192e-07 0.000140275 -9.04552e-05 2.47832e-05 9.4613e-05 -5.60546e-05 -4.41652e-05 4.12744e-05 0.000163635 8.39767e-05 8.79953e-05 8.89241e-05 
-3.61209e-05 -1.43906e-05 0.000110234 1.70283e-07 -6.53942e-06 0.000193489 -7.825e-05 4.12323e-05 0.000138442 -9.49683e-05 -4.81388e-05 6.54215e-05 0.000215625 0.000115283 0.000131208 0.000122618 
-0.00022118 -0.000118576 2.70174e-05 -0.00011101 6.85758e-05 2.8743e-05 -0.000245312 -1.6399e-05 -4.68817e-05 9.20998e-05 -0.000186999 -1.83198e-05 7.9155e-05 -2.47853e-05 -6.34265e-05 -1.65563e-05 
-0.0002285 -0.000120665 3.26695e-05 -0.000111608 6.88382e-05 3.73216e-05 -0.000256194 -1.59025e-05 -4.22601e-05 9.06724e-05 -0.000192043 -1.5771e-05 9.0709e-05 -1.99884e-05 -5.92946e-05 -1.13809e-05 
-0.000199089 -0.000106217 2.52368e-05 -9.91153e-05 6.11963e-05 2.73626e-05 -0.000221312 -1.46094e-05 -4.09633e-05 8.19761e-05 -0.000167969 -1.57562e-05 7.30406e-05 -2.11664e-05 -5.58168e-05 -1.3754e-05 
-0.000127873 -6.52345e-05 3.72211e-05 -5.7114e-05 3.45173e-05 5.2773e-05 -0.000152258 -2.28824e-06 1.24126e-06 3.25733e-05 -0.000108364 2.33646e-06 8.58255e-05 1.00562e-05 -8.90924e-06 1.56537e-05 
-5.5952e-05 -2.40423e-05 7.88063e-05 -1.16619e-05 3.72215e-06 0.000131863 -9.22433e-05 2.25867e-05 8.45698e-05 -4.77184e-05 -5.40606e-05 4.00437e-05 0.000155402 7.44195e-05 7.77481e-05 8.02686e-05 
-0.000238998 -0.00012691 2.86921e-05 -0.000118367 7.3153e-05 3.00571e-05 -0.000265119 -1.83877e-05 -5.11889e-05 9.98156e-05 -0.000200833 -1.95267e-05 8.49399e-05 -2.69749e-05 -6.88306e-05 -1.81891e-05 
-0.000221182 -0.000118578 2.70183e-05 -0.000111011 6.85764e-05 2.87443e-05 -0.000245314 -1.63989e-05 -4.68812e-05 9.21e-05 -0.000187001 -1.83198e-05 7.91568e-05 -2.47849e-05 -6.34263e-05 -1.65557e-05 
-7.73106e-05 -2.78001e-05 0.000122799 -5.91723e-06 1.6254e-06 0.00019168 -0.000147428 3.01692e-05 0.000125315 -6.75372e-05 -6.59576e-05 5.17624e-05 0.000228579 0.000115392 0.000115266 0.000121709 
-7.4635e-05 -2.65259e-05 0.000122567 -4.77063e-06 9.31895e-07 0.000191441 -0.000144554 3.04509e-05 0.000125945 -6.86606e-05 -6.38398e-05 5.18796e-05 0.000227689 0.000115719 0.000116056 0.00012195 
-0.000167635 -7.04635e-05 0.000139669 -4.33848e-05 2.27258e-05 0.0002209 -0.000246334 2.53802e-05 0.000119992 -4.26801e-05 -0.000139913 5.74476e-05 0.00028177 0.000115652 0.000104669 0.000127436 
-7.1408e-05 -2.61827e-05 0.000109832 -6.6592e-06 2.17082e-06 0.000171891 -0.000133716 2.69773e-05 0.000111719 -5.97724e-05 -6.12587e-05 4.64715e-05 0.000205341 0.000102812 0.000102599 0.000108655 
-4.71722e-05 -1.88517e-05 9.12534e-05 -5.44131e-06 -1.43442e-06 0.000157128 -8.51694e-05 3.04195e-05 0.000107276 -6.8239e-05 -5.10231e-05 5.11996e-05 0.000180327 9.14202e-05 0.000100543 9.78893e-05 
-0.00019909 -0.000106218 2.52367e-05 -9.91159e-05 6.11966e-05 2.73624e-05 -0.000221313 -1.46095e-05 -4.09637e-05 8.19766e-05 -0.00016797 -1.57564e-05 7.30406e-05 -2.11668e-05 -5.58173e-05 -1.37543e-05 
-5.52638e-05 -2.38917e-05 8.24949e-05 -1.1136e-05 3.22648e-06 0.00013824 -9.28727e-05 2.40591e-05 8.95421e-05 -5.14096e-05 -5.41269e-05 4.22778e-05 0.000161933 7.85161e-05 8.25507e-05 8.45428e-05 
-3.40925e-05 -1.3606e-05 9.57992e-05 -7.71014e-07 -5.07774e-06 0.000167977 -7.09087e-05 3.5447e-05 0.000119474 -8.1275e-05 -4.38604e-05 5.66273e-05 0.000187997 9.96564e-05 0.000113086 0.000106148 
-0.000239005 -0.000126915 2.86896e-05 -0.000118373 7.31565e-05 3.00524e-05 -0.000265126 -1.83893e-05 -5.1195e-05 9.98222e-05 -0.00020084 -1.95295e-05 8.49363e-05 -2.69797e-05 -6.88372e-05 -1.81937e-05 
-8.31058e-05 -4.26065e-05 4.86428e-05 -3.48682e-05 1.92058e-05 7.9501e-05 -0.000106073 9.79867e-06 3.56061e-05 -5.4991e-06 -7.65963e-05 1.80806e-05 0.000103582 3.41491e-05 2.77743e-05 3.94358e-05 
-7.46354e-05 -2.65262e-05 0.000122567 -4.77092e-06 9.32085e-07 0.000191441 -0.000144555 3.04506e-05 0.000125945 -6.86599e-05 -6.38402e-05 5.18792e-05 0.000227688 0.000115719 0.000116055 0.000121949 
-7.14082e-05 -2.61828e-05 0.000109832 -6.65929e-06 2.17082e-06 0.000171892 -0.000133716 2.69772e-05 0.000111719 -5.97723e-05 -6.12589e-05 4.64716e-05 0.000205341 0.000102812 0.000102599 0.000108655 
-0.000221178 -0.000118575 2.70209e-05 -0.000111008 6.85744e-05 2.87491e-05 -0.000245311 -1.63975e-05 -4.68762e-05 9.20952e-05 -0.000186998 -1.83174e-05 7.91612e-05 -2.47809e-05 -6.3421e-05 -1.65517e-05 
-0.0001214 -5.42926e-05 0.000122911 -3.28334e-05 1.65057e-05 0.000196505 -0.000185932 2.6236e-05 0.000113381 -4.86522e-05 -0.000105675 5.33543e-05 0.000241367 0.00010592 0.000100674 0.00011559 
-3.4705e-05 -1.37992e-05 9.32718e-05 -1.1574e-06 -4.62054e-06 0.000163165 -7.09622e-05 3.41302e-05 0.0001156 -7.81305e-05 -4.35773e-05 5.47773e-05 0.000183116 9.66613e-05 0.00010932 0.000103 
-3.89386e-05 -1.5197e-05 7.96052e-05 -3.48544e-06 -1.89219e-06 0.000136519 -7.26268e-05 2.66077e-05 9.38667e-05 -6.01109e-05 -4.23674e-05 4.42678e-05 0.000156292 8.01148e-05 8.80884e-05 8.5511e-05 
-3.40935e-05 -1.36063e-05 9.5798e-05 -7.71453e-07 -5.07743e-06 0.000167974 -7.09094e-05 3.54464e-05 0.000119472 -8.12734e-05 -4.38609e-05 5.66266e-05 0.000187995 9.9655e-05 0.000113084 0.000106147 
-3.97828e-05 -1.57927e-05 9.01528e-05 -3.06326e-06 -3.09054e-06 0.000156705 -7.58516e-05 3.16359e-05 0.000109168 -7.18487e-05 -4.61292e-05 5.20333e-05 0.00017777 9.20169e-05 0.00010285 9.8314e-05 
-4.1948e-05 -1.66192e-05 0.000105501 -2.11508e-06 -4.72989e-06 0.00018455 -8.291e-05 3.82212e-05 0.000130061 -8.72787e-05 -5.1295e-05 6.20224e-05 0.000207904 0.000108883 0.000122887 0.000116182 
-0.000199089 -0.000106217 2.52378e-05 -9.9115e-05 6.11961e-05 2.73642e-05 -0.000221312 -1.46089e-05 -4.09619e-05 8.19749e-05 -0.000167969 -1.57557e-05 7.30423e-05 -2.11653e-05 -5.58154e-05 -1.37528e-05 
-7.46362e-05 -2.65265e-05 0.000122567 -4.77127e-06 9.32291e-07 0.00019144 -0.000144555 3.04505e-05 0.000125944 -6.86595e-05 -6.38407e-05 5.18791e-05 0.000227688 0.000115719 0.000116055 0.000121949 
-3.97831e-05 -1.5793e-05 9.01528e-05 -3.06352e-06 -3.09037e-06 0.000156705 -7.58519e-05 3.16359e-05 0.000109168 -7.18485e-05 -4.61295e-05 5.20331e-05 0.00017777 9.20168e-05 0.00010285 9.83139e-05 
-3.89387e-05 -1.51971e-05 7.96052e-05 -3.48551e-06 -1.89215e-06 0.000136519 -7.2627e-05 2.66078e-05 9.38667e-05 -6.01109e-05 -4.23675e-05 4.42678e-05 0.000156292 8.01149e-05 8.80884e-05 8.5511e-05 
-3.68117e-05 -1.46506e-05 9.2102e-05 -1.94239e-06 -3.95735e-06 0.000160443 -7.33048e-05 3.29806e-05 0.00011282 -7.53107e-05 -4.44343e-05 5.34839e-05 0.000180842 9.47712e-05 0.000106498 0.000101061 
-3.96863e-05 -1.57121e-05 8.82921e-05 -3.16649e-06 -2.87914e-06 0.000153234 -7.52548e-05 3.07765e-05 0.000106528 -6.98421e-05 -4.55554e-05 5.07465e-05 0.000174088 8.99341e-05 0.000100311 9.60944e-05 
-0.000121404 -5.42954e-05 0.000122915 -3.28358e-05 1.65071e-05 0.000196511 -0.000185937 2.62372e-05 0.000113384 -4.86536e-05 -0.00010568 5.33555e-05 0.000241374 0.000105923 0.000100677 0.000115593 
-8.98208e-05 -3.3063e-05 0.000112171 -1.2479e-05 4.49457e-06 0.000179652 -0.000149937 2.68061e-05 0.000112648 -5.81138e-05 -7.69956e-05 5.13251e-05 0.000218384 0.000103614 0.000103026 0.000110726 
-0.000221177 -0.000118574 2.70167e-05 -0.000111008 6.85742e-05 2.87419e-05 -0.000245308 -1.63991e-05 -4.68812e-05 9.20985e-05 -0.000186996 -1.83195e-05 7.91534e-05 -2.4785e-05 -6.34256e-05 -1.65562e-05 
-4.1822e-05 -1.6379e-05 9.93598e-05 -2.44807e-06 -4.03792e-06 0.000173104 -8.11785e-05 3.53256e-05 0.000121306 -8.05777e-05 -4.94775e-05 5.7802e-05 0.000195853 0.000101988 0.000114473 0.000108866 
-0.000119498 -5.19682e-05 0.000113659 -3.13138e-05 1.59901e-05 0.000180871 -0.000180972 2.29866e-05 0.000102588 -4.17875e-05 -0.000102122 4.83906e-05 0.000225024 9.6851e-05 9.07014e-05 0.000106 
-4.34805e-05 -1.66175e-05 8.60232e-05 -3.6835e-06 -1.9156e-06 0.000146589 -8.08526e-05 2.80883e-05 0.000100346 -6.35599e-05 -4.60264e-05 4.70975e-05 0.000168497 8.61741e-05 9.40617e-05 9.18837e-05 
-0.000101315 -4.82793e-05 6.13412e-05 -3.64482e-05 2.15901e-05 9.18512e-05 -0.000138892 7.90551e-06 3.98785e-05 -1.0183e-06 -8.57375e-05 1.7084e-05 0.00012335 4.23215e-05 3.05206e-05 4.76726e-05 
-4.19513e-05 -1.66202e-05 0.000105495 -2.1164e-06 -4.72866e-06 0.00018454 -8.29121e-05 3.82183e-05 0.000130052 -8.72715e-05 -5.12961e-05 6.20185e-05 0.000207895 0.000108876 0.000122879 0.000116175 
-0.000199089 -0.000106217 2.52365e-05 -9.91155e-05 6.11964e-05 2.73621e-05 -0.000221312 -1.46095e-05 -4.09637e-05 8.19764e-05 -0.000167969 -1.57563e-05 7.30401e-05 -2.11668e-05 -5.58172e-05 -1.37544e-05 
-6.36672e-05 -2.55108e-05 8.15757e-05 -1.10517e-05 4.88348e-06 0.000129145 -0.000108381 1.91539e-05 8.04344e-05 -4.02855e-05 -5.50168e-05 3.53219e-05 0.000156054 7.4283e-05 7.31043e-05 7.94775e-05 
-0.000101053 -4.89144e-05 5.71856e-05 -3.78893e-05 2.25615e-05 8.51859e-05 -0.000136314 6.7255e-06 3.47154e-05 2.5741e-06 -8.57582e-05 1.48146e-05 0.000115804 3.77444e-05 2.54751e-05 4.2952e-05 
-0.000130354 -6.66031e-05 4.72225e-05 -5.70773e-05 3.41644e-05 6.92602e-05 -0.000159441 4.75203e-07 1.26702e-05 2.55303e-05 -0.000110938 7.65044e-06 0.000104002 2.00502e-05 1.89513e-06 2.63777e-05 
-0.000199088 -0.000106216 2.52365e-05 -9.91146e-05 6.11959e-05 2.73621e-05 -0.000221311 -1.46094e-05 -4.09633e-05 8.19758e-05 -0.000167968 -1.57562e-05 7.30399e-05 -2.11664e-05 -5.58167e-05 -1.37541e-05 
-0.000239014 -0.00012692 2.86909e-05 -0.000118377 7.31595e-05 3.00541e-05 -0.000265138 -1.83893e-05 -5.11961e-05 9.98251e-05 -0.000200848 -1.95312e-05 8.49407e-05 -2.69804e-05 -6.88389e-05 -1.81936e-05 
-0.000199089 -0.000106217 2.52365e-05 -9.91155e-05 6.11964e-05 2.73621e-05 -0.000221312 -1.46095e-05 -4.09637e-05 8.19764e-05 -0.00016797 -1.57564e-05 7.30402e-05 -2.11668e-05 -5.58172e-05 -1.37543e-05 
-7.31677e-05 -3.42621e-05 5.23833e-05 -2.46783e-05 1.38552e-05 8.17312e-05 -0.000102519 9.11916e-06 4.06304e-05 -9.88555e-06 -6.32279e-05 1.8695e-05 0.000105655 4.00241e-05 3.36743e-05 4.45934e-05 
-4.19473e-05 -1.66176e-05 0.00010549 -2.1142e-06 -4.72973e-06 0.000184532 -8.29061e-05 3.82166e-05 0.000130047 -8.7269e-05 -5.12914e-05 6.20165e-05 0.000207885 0.000108872 0.000122875 0.000116171 
-0.00019909 -0.000106217 2.52363e-05 -9.91154e-05 6.11964e-05 2.73617e-05 -0.000221312 -1.46096e-05 -4.0964e-05 8.19766e-05 -0.00016797 -1.57565e-05 7.30399e-05 -2.1167e-05 -5.58175e-05 -1.37545e-05 
-7.37794e-05 -3.51493e-05 5.27916e-05 -2.57196e-05 1.45549e-05 8.21137e-05 -0.000103318 9.60508e-06 4.08054e-05 -9.86775e-06 -6.45806e-05 1.81561e-05 0.000105941 4.00954e-05 3.36029e-05 4.45529e-05 
-0.000194554 -0.000101451 3.79229e-05 -9.2001e-05 5.64613e-05 4.84106e-05 -0.000223292 -1.04241e-05 -2.31149e-05 6.80973e-05 -0.000163435 -7.65517e-06 9.56358e-05 -5.82608e-06 -3.79098e-05 1.95846e-06 
-4.38121e-05 -1.70708e-05 8.16869e-05 -4.62773e-06 -9.41984e-07 0.000138327 -8.00684e-05 2.60044e-05 9.38016e-05 -5.83074e-05 -4.53066e-05 4.38006e-05 0.000159731 8.09986e-05 8.76516e-05 8.64357e-05 
-3.50458e-05 -1.39783e-05 8.83652e-05 -1.8384e-06 -3.85431e-06 0.000154198 -6.98011e-05 3.18507e-05 0.000108573 -7.26782e-05 -4.26757e-05 5.1516e-05 0.000173696 9.10527e-05 0.000102526 9.71189e-05 
-4.68529e-05 -1.8487e-05 9.41177e-05 -4.68934e-06 -2.06003e-06 0.000162192 -8.59316e-05 3.15684e-05 0.000111287 -7.13032e-05 -5.11095e-05 5.30899e-05 0.000185722 9.472e-05 0.000104465 0.000101336 
-4.80304e-05 -1.9008e-05 9.67306e-05 -4.85796e-06 -2.12084e-06 0.000166811 -8.80567e-05 3.24917e-05 0.000114475 -7.33997e-05 -5.25053e-05 5.468e-05 0.000190925 9.73798e-05 0.000107465 0.000104198 
-7.05257e-05 -3.47954e-05 4.9191e-05 -2.67771e-05 1.43458e-05 8.04376e-05 -9.41537e-05 1.07769e-05 4.04002e-05 -1.19927e-05 -6.47987e-05 1.98887e-05 0.000102389 3.78721e-05 3.35593e-05 4.26385e-05 
-3.61185e-05 -1.43886e-05 0.000110231 1.72319e-07 -6.54031e-06 0.000193484 -7.82475e-05 4.12312e-05 0.00013844 -9.49668e-05 -4.81355e-05 6.542e-05 0.00021562 0.000115281 0.000131206 0.000122615 
-0.000106312 -5.47749e-05 3.80677e-05 -4.75173e-05 2.80381e-05 5.76823e-05 -0.000127967 1.74794e-06 1.15676e-05 1.88575e-05 -9.25878e-05 7.17212e-06 8.56972e-05 1.64265e-05 2.71573e-06 2.16877e-05 
-0.00019909 -0.000106217 2.52364e-05 -9.91156e-05 6.11965e-05 2.73618e-05 -0.000221312 -1.46096e-05 -4.0964e-05 8.19767e-05 -0.00016797 -1.57565e-05 7.30399e-05 -2.1167e-05 -5.58175e-05 -1.37546e-05 
-0.000221175 -0.000118573 2.70193e-05 -0.000111007 6.85734e-05 2.87467e-05 -0.000245307 -1.63979e-05 -4.68771e-05 9.20951e-05 -0.000186995 -1.83176e-05 7.9158e-05 -2.47817e-05 -6.34216e-05 -1.65528e-05 
-0.000199088 -0.000106217 2.52372e-05 -9.91147e-05 6.11959e-05 2.73631e-05 -0.000221311 -1.46092e-05 -4.09626e-05 8.19753e-05 -0.000167969 -1.57559e-05 7.30411e-05 -2.11658e-05 -5.5816e-05 -1.37534e-05 
-7.46355e-05 -2.65262e-05 0.000122567 -4.77093e-06 9.32052e-07 0.000191441 -0.000144555 3.04508e-05 0.000125945 -6.86603e-05 -6.38403e-05 5.18795e-05 0.000227689 0.000115719 0.000116055 0.00012195 
-3.50456e-05 -1.39783e-05 8.83651e-05 -1.83842e-06 -3.85431e-06 0.000154197 -6.98007e-05 3.18507e-05 0.000108573 -7.26782e-05 -4.26755e-05 5.1516e-05 0.000173696 9.10526e-05 0.000102526 9.71188e-05 
-7.46359e-05 -2.65264e-05 0.000122568 -4.77093e-06 9.32053e-07 0.000191443 -0.000144556 3.04512e-05 0.000125946 -6.86611e-05 -6.38407e-05 5.18799e-05 0.000227691 0.00011572 0.000116057 0.000121951 
-0.000121097 -5.39019e-05 0.000119581 -3.28185e-05 1.66264e-05 0.000190945 -0.000184404 2.51493e-05 0.000109389 -4.60204e-05 -0.000104987 5.14779e-05 0.000235518 0.000102511 9.69032e-05 0.000112016 
-0.000177091 -7.38991e-05 0.000147545 -4.50201e-05 2.37337e-05 0.000232748 -0.000261198 2.63828e-05 0.000126428 -4.46223e-05 -0.000147026 6.02264e-05 0.000297537 0.000122185 0.000110402 0.000134699 
-7.46343e-05 -2.65255e-05 0.000122567 -4.77019e-06 9.31565e-07 0.000191442 -0.000144553 3.0451e-05 0.000125946 -6.86612e-05 -6.38394e-05 5.18799e-05 0.000227689 0.00011572 0.000116056 0.00012195 
-0.000221179 -0.000118575 2.70189e-05 -0.000111009 6.8575e-05 2.87456e-05 -0.000245311 -1.63983e-05 -4.68791e-05 9.20976e-05 -0.000186998 -1.83187e-05 7.91575e-05 -2.47832e-05 -6.34239e-05 -1.65542e-05 
-5.52638e-05 -2.38917e-05 8.24949e-05 -1.1136e-05 3.22647e-06 0.00013824 -9.28726e-05 2.40591e-05 8.95421e-05 -5.14096e-05 -5.41269e-05 4.22778e-05 0.000161933 7.85161e-05 8.25507e-05 8.45427e-05 
-3.61129e-05 -1.45074e-05 8.63951e-05 -2.52996e-06 -3.25878e-06 0.000150412 -7.04268e-05 3.07778e-05 0.00010533 -6.99087e-05 -4.30036e-05 4.99724e-05 0.000169946 8.85571e-05 9.93123e-05 9.45177e-05 
-7.46356e-05 -2.65262e-05 0.000122568 -4.7708e-06 9.31964e-07 0.000191443 -0.000144556 3.04511e-05 0.000125946 -6.86611e-05 -6.38405e-05 5.18799e-05 0.000227691 0.00011572 0.000116057 0.000121951 
-3.50458e-05 -1.39783e-05 8.83654e-05 -1.83836e-06 -3.85434e-06 0.000154198 -6.98012e-05 3.18507e-05 0.000108574 -7.26783e-05 -4.26757e-05 5.15161e-05 0.000173696 9.10529e-05 0.000102526 9.71191e-05 
-3.53681e-05 -1.40982e-05 8.7461e-05 -2.02091e-06 -3.65577e-06 0.000152433 -6.99561e-05 3.13515e-05 0.000107121 -7.14653e-05 -4.26373e-05 5.0811e-05 0.000171929 8.99472e-05 0.000101103 9.59535e-05 
-0.000238996 -0.000126909 2.86955e-05 -0.000118367 7.31525e-05 3.00629e-05 -0.00026512 -1.8386e-05 -5.1184e-05 9.98118e-05 -0.000200833 -1.9525e-05 8.49458e-05 -2.6971e-05 -6.88259e-05 -1.81851e-05 
-0.00010819 -5.3423e-05 5.23544e-05 -4.31162e-05 2.5931e-05 7.67938e-05 -0.000141248 4.39439e-06 2.59739e-05 1.06598e-05 -9.17661e-05 1.10998e-05 0.000108053 3.0656e-05 1.63847e-05 3.58923e-05 
-8.61846e-05 -3.1151e-05 0.000107123 -1.14555e-05 3.61906e-06 0.000173195 -0.0001423 2.60572e-05 0.000108898 -5.71198e-05 -7.42271e-05 5.07442e-05 0.000210516 9.96201e-05 9.98972e-05 0.000106644 
-7.4635e-05 -2.6526e-05 0.000122568 -4.77057e-06 9.31823e-07 0.000191443 -0.000144555 3.04512e-05 0.000125946 -6.86613e-05 -6.384e-05 5.18799e-05 0.00022769 0.00011572 0.000116057 0.000121951 
-4.19532e-05 -1.66204e-05 0.000105494 -2.11652e-06 -4.7285e-06 0.000184537 -8.29137e-05 3.82172e-05 0.00013005 -8.72694e-05 -5.12967e-05 6.20177e-05 0.000207893 0.000108874 0.000122876 0.000116173 
-3.59924e-05 -1.45019e-05 8.70796e-05 -2.48355e-06 -3.35753e-06 0.000151763 -7.04126e-05 3.1158e-05 0.0001064 -7.07821e-05 -4.3166e-05 5.05013e-05 0.000171317 8.93653e-05 0.000100349 9.5379e-05 
-0.000188274 -9.91782e-05 3.51611e-05 -9.05799e-05 5.56251e-05 4.44289e-05 -0.000215097 -1.02517e-05 -2.43999e-05 6.73922e-05 -0.000158933 -8.61868e-06 8.95445e-05 -7.57034e-06 -3.88105e-05 -5.30102e-08 
-4.80242e-05 -1.90039e-05 9.67337e-05 -4.85332e-06 -2.12386e-06 0.000166816 -8.80514e-05 3.24931e-05 0.000114481 -7.34057e-05 -5.24997e-05 5.46831e-05 0.000190929 9.73848e-05 0.000107471 0.000104203 
-4.37603e-05 -1.76558e-05 0.000101585 -3.54903e-06 -3.55126e-06 0.000177212 -8.36514e-05 3.62396e-05 0.000123825 -8.20557e-05 -5.19051e-05 5.90764e-05 0.000200498 0.000103997 0.000116709 0.000111101 
-4.19499e-05 -1.66202e-05 0.000105496 -2.11656e-06 -4.72859e-06 0.000184542 -8.29108e-05 3.82191e-05 0.000130054 -8.72731e-05 -5.12958e-05 6.20189e-05 0.000207896 0.000108877 0.000122881 0.000116176 
-6.15603e-05 -2.52658e-05 7.80264e-05 -1.22506e-05 4.34457e-06 0.000129324 -9.92008e-05 2.10417e-05 8.13987e-05 -4.40277e-05 -5.69897e-05 3.85455e-05 0.000154846 7.26116e-05 7.45022e-05 7.84249e-05 
