2.79646e-05 5.79518e-05 2.56683e-05 2.63005e-05 -3.49328e-05 -2.10389e-05 -3.85804e-06 2.42322e-05 -4.93999e-05 2.18783e-05 1.80262e-05 4.02981e-06 -2.9416e-05 2.48728e-05 3.09414e-05 -5.09674e-05 
2.91196e-05 5.16397e-05 1.90293e-05 2.50179e-05 -3.36064e-05 -1.81254e-05 -2.65039e-06 2.56956e-05 -4.43824e-05 1.93158e-05 2.29582e-05 1.68913e-06 -2.77171e-05 2.0181e-05 2.49885e-05 -4.52406e-05 
3.88264e-05 2.90433e-05 3.3557e-05 1.4716e-05 -1.34324e-05 -1.6497e-05 6.95295e-06 2.55566e-05 -2.97297e-05 1.1387e-05 1.65396e-05 5.55787e-06 -2.65291e-05 1.87359e-05 1.32605e-05 -4.24366e-05 
5.3203e-05 6.5306e-05 2.11586e-05 3.7861e-05 -3.69248e-05 -2.94104e-05 5.51168e-06 4.91358e-05 -4.19579e-05 2.34993e-05 4.03361e-05 3.44707e-06 -4.55067e-05 3.13984e-05 2.49478e-05 -7.25108e-05 
3.42316e-05 3.4086e-05 1.92833e-05 1.94826e-05 -1.76696e-05 -1.71705e-05 5.19616e-06 2.82615e-05 -2.43272e-05 1.24793e-05 2.12696e-05 3.37834e-06 -2.67824e-05 1.86352e-05 1.32461e-05 -4.27258e-05 
6.26656e-05 4.21296e-05 4.23613e-05 2.53022e-05 -1.6846e-05 -2.68626e-05 1.41237e-05 4.56453e-05 -3.33236e-05 1.58537e-05 3.08166e-05 7.94615e-06 -4.32058e-05 2.9478e-05 1.50645e-05 -6.80386e-05 
2.02099e-05 4.6843e-05 6.37931e-06 2.38294e-05 -2.81666e-05 -1.77266e-05 -2.00354e-06 2.37147e-05 -2.84989e-05 1.64435e-05 1.88012e-05 1.93402e-06 -2.40636e-05 1.9507e-05 2.1538e-05 -4.09388e-05 
5.78834e-05 6.78927e-05 2.16685e-05 4.02796e-05 -3.7537e-05 -3.16077e-05 7.10255e-06 5.363e-05 -4.14994e-05 2.43156e-05 4.36348e-05 3.79656e-06 -4.88813e-05 3.36083e-05 2.496e-05 -7.77464e-05 
4.31374e-05 3.10697e-05 4.05059e-05 1.49324e-05 -1.42173e-05 -1.76894e-05 7.50672e-06 2.66576e-05 -3.52529e-05 1.24835e-05 1.67057e-05 6.52879e-06 -2.87563e-05 2.03933e-05 1.51274e-05 -4.59699e-05 
3.90406e-05 9.3402e-05 -8.19693e-06 5.31532e-05 -4.92955e-05 -4.10815e-05 1.63564e-06 5.76976e-05 -2.86866e-05 3.03413e-05 4.13108e-05 4.93532e-06 -5.2174e-05 4.38822e-05 3.68566e-05 -8.97687e-05 
2.61474e-05 2.98937e-05 2.34287e-05 1.41666e-05 -1.61276e-05 -1.36303e-05 2.14735e-06 1.86661e-05 -2.82014e-05 1.15015e-05 1.26932e-05 3.77968e-06 -2.07039e-05 1.57616e-05 1.50036e-05 -3.41895e-05 
4.49048e-05 3.39124e-05 3.76828e-05 1.74297e-05 -1.58415e-05 -1.9289e-05 8.17483e-06 3.01955e-05 -3.3458e-05 1.31846e-05 1.96722e-05 6.30601e-06 -3.0826e-05 2.18301e-05 1.51597e-05 -4.94558e-05 
3.23769e-05 2.58544e-05 3.10053e-05 1.20729e-05 -1.26553e-05 -1.38376e-05 4.9674e-06 2.02901e-05 -2.87887e-05 1.02752e-05 1.28751e-05 4.88062e-06 -2.21984e-05 1.59528e-05 1.28668e-05 -3.57409e-05 
2.59686e-05 3.59229e-05 2.07074e-05 1.73001e-05 -2.11954e-05 -1.50608e-05 9.84142e-07 2.09033e-05 -3.05984e-05 1.34539e-05 1.52612e-05 3.1766e-06 -2.22607e-05 1.72153e-05 1.75203e-05 -3.73992e-05 
1.08944e-05 7.21455e-05 -9.15124e-06 3.55788e-05 -4.1824e-05 -2.62076e-05 -7.15802e-06 2.84388e-05 -2.96514e-05 2.3767e-05 1.94776e-05 2.9401e-06 -2.97046e-05 2.88915e-05 3.44441e-05 -5.45201e-05 
4.70923e-05 6.18303e-05 2.0621e-05 3.4595e-05 -3.60833e-05 -2.65456e-05 3.44119e-06 4.31812e-05 -4.2572e-05 2.24398e-05 3.59144e-05 3.00249e-06 -4.09793e-05 2.85565e-05 2.4963e-05 -6.55854e-05 
3.36541e-05 2.57055e-05 3.96864e-05 9.88533e-06 -1.28963e-05 -1.32533e-05 4.28863e-06 1.74423e-05 -3.62199e-05 1.08244e-05 9.90199e-06 5.82927e-06 -2.17931e-05 1.59572e-05 1.5122e-05 -3.52351e-05 
1.52371e-05 6.80498e-05 -7.74458e-06 3.49186e-05 -3.86168e-05 -2.60785e-05 -4.62295e-06 3.08997e-05 -2.62708e-05 2.23599e-05 2.15476e-05 2.97704e-06 -3.0666e-05 2.85103e-05 3.10122e-05 -5.51721e-05 
2.87756e-05 4.37437e-05 1.59678e-05 2.26111e-05 -2.70885e-05 -1.71726e-05 1.15737e-07 2.59932e-05 -3.37462e-05 1.61096e-05 2.1839e-05 1.93371e-06 -2.60309e-05 1.88495e-05 1.96024e-05 -4.25267e-05 
3.20377e-05 2.79192e-05 3.25914e-05 1.22988e-05 -1.46504e-05 -1.40057e-05 4.08773e-06 1.96974e-05 -3.19967e-05 1.11329e-05 1.23828e-05 4.95303e-06 -2.22169e-05 1.63375e-05 1.46436e-05 -3.62589e-05 
2.67833e-05 3.4064e-05 2.09404e-05 1.68573e-05 -1.87556e-05 -1.51528e-05 1.87353e-06 2.11338e-05 -2.84517e-05 1.28044e-05 1.49077e-05 3.55844e-06 -2.25203e-05 1.72855e-05 1.63461e-05 -3.74519e-05 
9.5844e-07 7.18472e-05 -1.18206e-05 3.29473e-05 -4.41814e-05 -2.31891e-05 -1.12573e-05 2.06842e-05 -3.24314e-05 2.37838e-05 1.37925e-05 2.17943e-06 -2.39767e-05 2.61822e-05 3.69934e-05 -4.67658e-05 
7.78671e-06 5.82936e-05 -5.54678e-06 2.79401e-05 -3.47542e-05 -2.03409e-05 -6.7542e-06 2.1136e-05 -2.68609e-05 1.9473e-05 1.46418e-05 2.21188e-06 -2.29149e-05 2.27011e-05 2.87507e-05 -4.25578e-05 
1.96446e-06 6.0529e-05 -8.99192e-06 2.78664e-05 -3.68278e-05 -1.98431e-05 -9.11781e-06 1.79927e-05 -2.75789e-05 2.0073e-05 1.19515e-05 2.01543e-06 -2.08298e-05 2.23391e-05 3.10585e-05 -4.01732e-05 
1.53622e-05 5.22688e-05 1.10106e-06 2.61819e-05 -3.0664e-05 -1.96273e-05 -3.53235e-06 2.35929e-05 -2.63538e-05 1.78288e-05 1.70631e-05 2.36141e-06 -2.42467e-05 2.17936e-05 2.4614e-05 -4.32142e-05 
7.10179e-06 6.34358e-05 -8.53677e-06 3.0598e-05 -3.75348e-05 -2.225e-05 -7.378e-06 2.29851e-05 -2.70635e-05 2.09646e-05 1.56479e-05 2.39136e-06 -2.46187e-05 2.47357e-05 3.10522e-05 -4.59814e-05 
1.93356e-05 4.27809e-05 4.70929e-06 2.24114e-05 -2.34789e-05 -1.80218e-05 -1.08326e-07 2.37995e-05 -2.09617e-05 1.457e-05 1.66491e-05 2.8528e-06 -2.34152e-05 1.98178e-05 1.90013e-05 -4.04695e-05 
3.15727e-05 2.53982e-05 3.0913e-05 1.1649e-05 -1.25567e-05 -1.34557e-05 4.69663e-06 1.9508e-05 -2.88609e-05 1.01418e-05 1.22837e-05 4.82545e-06 -2.15905e-05 1.5585e-05 1.28778e-05 -3.48381e-05 
1.75517e-05 5.24489e-05 2.18651e-05 2.16561e-05 -3.39002e-05 -1.65464e-05 -6.96526e-06 1.55684e-05 -4.79758e-05 1.99371e-05 1.18132e-05 2.96864e-06 -2.21181e-05 2.01888e-05 3.02438e-05 -3.98753e-05 
2.57256e-05 3.35239e-05 1.85321e-05 1.69452e-05 -1.82728e-05 -1.5054e-05 1.95225e-06 2.12162e-05 -2.61673e-05 1.24253e-05 1.50035e-05 3.37456e-06 -2.21347e-05 1.70224e-05 1.5664e-05 -3.6817e-05 
5.31689e-05 3.91928e-05 3.25531e-05 2.38697e-05 -1.67337e-05 -2.3988e-05 1.17201e-05 4.09978e-05 -2.74859e-05 1.44108e-05 2.83478e-05 6.32243e-06 -3.79524e-05 2.61002e-05 1.35792e-05 -6.01602e-05 
1.77482e-05 4.06485e-05 1.85322e-05 1.75435e-05 -2.59486e-05 -1.37609e-05 -3.85814e-06 1.51095e-05 -3.68357e-05 1.54226e-05 1.16679e-05 2.42718e-06 -1.91471e-05 1.63753e-05 2.24022e-05 -3.35943e-05 
1.2199e-06 6.66445e-05 -1.00822e-05 3.04266e-05 -4.05351e-05 -2.16534e-05 -1.0434e-05 1.90141e-05 -3.0594e-05 2.211e-05 1.2443e-05 2.24459e-06 -2.24903e-05 2.44065e-05 3.44979e-05 -4.35774e-05 
1.22898e-05 7.29069e-05 -9.00872e-06 3.62935e-05 -4.20159e-05 -2.68572e-05 -6.68275e-06 2.97692e-05 -2.95072e-05 2.40181e-05 2.04371e-05 3.04714e-06 -3.06785e-05 2.95572e-05 3.44613e-05 -5.60765e-05 
3.64156e-05 5.13523e-05 2.07388e-05 2.69221e-05 -3.12727e-05 -2.15907e-05 1.89763e-06 3.3125e-05 -3.72246e-05 1.87288e-05 2.60523e-05 2.99275e-06 -3.18815e-05 2.38387e-05 2.24369e-05 -5.33486e-05 
5.22669e-05 6.47786e-05 2.11145e-05 3.73569e-05 -3.67745e-05 -2.89814e-05 5.193e-06 4.82279e-05 -4.20659e-05 2.33264e-05 3.96844e-05 3.37369e-06 -4.48423e-05 3.09521e-05 2.49324e-05 -7.14438e-05 
-1.20968e-06 7.06249e-05 -1.19787e-05 3.17892e-05 -4.38559e-05 -2.21848e-05 -1.20021e-05 1.85804e-05 -3.26729e-05 2.33864e-05 1.22706e-05 2.00872e-06 -2.24296e-05 2.51439e-05 3.69647e-05 -4.4293e-05 
2.414e-05 4.17709e-05 1.55412e-05 2.04207e-05 -2.69017e-05 -1.51641e-05 -1.59995e-06 2.16188e-05 -3.46713e-05 1.55259e-05 1.86441e-05 1.58978e-06 -2.28138e-05 1.68692e-05 1.99577e-05 -3.76382e-05 
3.31619e-05 2.63028e-05 3.1034e-05 1.25031e-05 -1.27858e-05 -1.41965e-05 5.23742e-06 2.10573e-05 -2.86936e-05 1.04228e-05 1.34249e-05 4.94388e-06 -2.27574e-05 1.63297e-05 1.28818e-05 -3.66466e-05 
5.78409e-05 6.79656e-05 2.18375e-05 4.03023e-05 -3.74086e-05 -3.16561e-05 7.07645e-06 5.36731e-05 -4.15978e-05 2.42278e-05 4.38596e-05 3.74835e-06 -4.91595e-05 3.34876e-05 2.48114e-05 -7.77143e-05 
0.000236198 0.000199526 1.09985e-05 0.000155295 -7.28634e-05 -0.000131719 6.92542e-05 0.000247314 -6.91091e-06 6.30276e-05 0.000181323 1.94955e-05 -0.000195368 0.000134151 3.43605e-05 -0.00030932 
3.01293e-05 2.91707e-05 3.10186e-05 1.27573e-05 -1.59092e-05 -1.38206e-05 3.10807e-06 1.8902e-05 -3.25685e-05 1.15648e-05 1.2124e-05 4.62547e-06 -2.1653e-05 1.62181e-05 1.54934e-05 -3.56453e-05 
2.33564e-05 7.26247e-05 -7.05248e-06 3.92282e-05 -3.97607e-05 -2.98673e-05 -1.86439e-06 3.8775e-05 -2.543e-05 2.3793e-05 2.73329e-05 3.58356e-06 -3.65759e-05 3.23251e-05 3.1039e-05 -6.43588e-05 
1.56894e-05 5.07329e-05 2.06227e-05 2.07266e-05 -3.32872e-05 -1.55433e-05 -7.39757e-06 1.41377e-05 -4.6794e-05 1.93157e-05 1.09863e-05 2.59656e-06 -2.06377e-05 1.89711e-05 2.94495e-05 -3.74506e-05 
3.36141e-05 2.56733e-05 3.96896e-05 9.85606e-06 -1.28907e-05 -1.3232e-05 4.27655e-06 1.73962e-05 -3.62208e-05 1.0821e-05 9.85912e-06 5.82815e-06 -2.17435e-05 1.5943e-05 1.5128e-05 -3.51841e-05 
5.23295e-05 3.78024e-05 3.38762e-05 2.26832e-05 -1.58727e-05 -2.32431e-05 1.14199e-05 3.93559e-05 -2.82538e-05 1.40266e-05 2.70249e-05 6.40659e-06 -3.70431e-05 2.53724e-05 1.34646e-05 -5.8475e-05 
2.0451e-05 3.70401e-05 9.90609e-06 1.8895e-05 -2.00441e-05 -1.60944e-05 7.23831e-07 2.13246e-05 -2.16671e-05 1.29193e-05 1.44899e-05 3.16627e-06 -2.16422e-05 1.78824e-05 1.69554e-05 -3.69912e-05 
5.02804e-05 3.75801e-05 3.23278e-05 2.23441e-05 -1.63135e-05 -2.26474e-05 1.07362e-05 3.82086e-05 -2.77955e-05 1.38916e-05 2.63223e-05 6.10162e-06 -3.58836e-05 2.47295e-05 1.35526e-05 -5.68964e-05 
2.39507e-05 3.31859e-05 2.51401e-05 1.44361e-05 -1.89889e-05 -1.35362e-05 4.84625e-08 1.6428e-05 -3.35051e-05 1.29395e-05 1.1083e-05 3.80918e-06 -2.01369e-05 1.60914e-05 1.82006e-05 -3.39241e-05 
3.20943e-05 4.89137e-05 2.04194e-05 2.46145e-05 -3.06404e-05 -1.95856e-05 4.29096e-07 2.89314e-05 -3.76812e-05 1.79582e-05 2.29867e-05 2.66535e-06 -2.87455e-05 2.18026e-05 2.24093e-05 -4.84459e-05 
-7.96578e-06 6.1445e-05 -1.08496e-05 2.55295e-05 -3.92428e-05 -1.73612e-05 -1.35524e-05 1.00846e-05 -3.15388e-05 2.0498e-05 5.85849e-06 1.56401e-06 -1.57513e-05 2.01049e-05 3.44855e-05 -3.3169e-05 
4.40705e-05 6.19911e-05 8.02279e-06 3.73054e-05 -3.25414e-05 -2.93786e-05 5.80451e-06 4.73591e-05 -2.6839e-05 2.11828e-05 3.62924e-05 3.71015e-06 -4.20827e-05 3.12282e-05 2.24045e-05 -6.89426e-05 
4.79772e-05 6.23254e-05 2.08099e-05 3.50377e-05 -3.61466e-05 -2.69847e-05 3.7389e-06 4.40355e-05 -4.25213e-05 2.2568e-05 3.65916e-05 3.05753e-06 -4.16878e-05 2.89538e-05 2.49247e-05 -6.65564e-05 
4.4811e-06 6.19836e-05 -8.71849e-06 2.92186e-05 -3.71364e-05 -2.10427e-05 -8.27345e-06 2.04642e-05 -2.73579e-05 2.0482e-05 1.38447e-05 2.18266e-06 -2.2784e-05 2.34747e-05 3.10062e-05 -4.30173e-05 
-3.53212e-07 6.57666e-05 -1.01996e-05 2.95961e-05 -4.03047e-05 -2.09245e-05 -1.09651e-05 1.7496e-05 -3.07608e-05 2.18289e-05 1.1339e-05 2.1265e-06 -2.13635e-05 2.36659e-05 3.44854e-05 -4.1806e-05 
2.95631e-05 4.41813e-05 1.60136e-05 2.30293e-05 -2.72145e-05 -1.75326e-05 3.86812e-07 2.67526e-05 -3.36519e-05 1.6259e-05 2.23764e-05 1.99824e-06 -2.65733e-05 1.92317e-05 1.96214e-05 -4.34237e-05 
1.4582e-05 5.03832e-05 2.44427e-05 1.91945e-05 -3.3107e-05 -1.47634e-05 -8.39435e-06 1.12294e-05 -5.07384e-05 1.95569e-05 8.39233e-06 3.05147e-06 -1.95502e-05 1.8631e-05 3.09623e-05 -3.58409e-05 
5.96743e-05 5.25082e-05 2.23908e-05 3.43552e-05 -2.4663e-05 -2.95777e-05 1.24366e-05 5.3006e-05 -2.65986e-05 1.85377e-05 4.02679e-05 5.02853e-06 -4.61971e-05 3.12097e-05 1.58763e-05 -7.28611e-05 
1.45634e-05 6.76456e-05 -7.84693e-06 3.45504e-05 -3.85538e-05 -2.57467e-05 -4.84785e-06 3.02257e-05 -2.63152e-05 2.22628e-05 2.10023e-05 2.93872e-06 -3.00965e-05 2.82207e-05 3.10482e-05 -5.44078e-05 
4.06497e-05 3.21146e-05 3.1428e-05 1.7218e-05 -1.50109e-05 -1.81242e-05 7.47312e-06 2.88354e-05 -2.87493e-05 1.22289e-05 1.93533e-05 5.40271e-06 -2.87471e-05 2.02514e-05 1.35844e-05 -4.60012e-05 
1.31862e-05 6.58261e-05 2.03328e-05 2.6232e-05 -4.56233e-05 -1.83636e-05 -1.19218e-05 1.50466e-05 -5.87736e-05 2.46713e-05 1.24998e-05 2.10311e-06 -2.31055e-05 2.24648e-05 3.84901e-05 -4.35856e-05 
1.41494e-05 5.01329e-05 2.44323e-05 1.8954e-05 -3.30344e-05 -1.45642e-05 -8.54479e-06 1.08035e-05 -5.07924e-05 1.9476e-05 8.08577e-06 3.01619e-06 -1.92348e-05 1.84212e-05 3.09549e-05 -3.5337e-05 
4.45301e-05 6.13969e-05 7.41532e-06 3.74239e-05 -3.14842e-05 -2.96829e-05 6.39697e-06 4.80917e-05 -2.50479e-05 2.08009e-05 3.6659e-05 3.82327e-06 -4.25669e-05 3.13596e-05 2.15936e-05 -6.93819e-05 
3.17401e-05 5.311e-05 1.92343e-05 2.64065e-05 -3.39857e-05 -1.93431e-05 -1.76192e-06 2.82317e-05 -4.41055e-05 1.97824e-05 2.48093e-05 1.88659e-06 -2.96063e-05 2.14158e-05 2.50056e-05 -4.82016e-05 
1.49984e-05 5.06213e-05 2.45063e-05 1.94116e-05 -3.31488e-05 -1.49653e-05 -8.2578e-06 1.16353e-05 -5.07088e-05 1.96203e-05 8.71055e-06 3.0759e-06 -1.98775e-05 1.88125e-05 3.09474e-05 -3.6301e-05 
5.69622e-06 5.98446e-05 -4.92303e-06 2.77666e-05 -3.63559e-05 -1.99748e-05 -8.22606e-06 1.92084e-05 -2.97759e-05 2.01583e-05 1.32269e-05 2.15553e-06 -2.2069e-05 2.25156e-05 3.05526e-05 -4.15887e-05 
1.75783e-05 7.60734e-05 -8.19856e-06 3.91749e-05 -4.25054e-05 -2.94587e-05 -4.94074e-06 3.50561e-05 -2.9168e-05 2.47704e-05 2.47294e-05 3.33326e-06 -3.51412e-05 3.17937e-05 3.41611e-05 -6.20374e-05 
2.33931e-05 3.90854e-05 1.42897e-05 1.97081e-05 -2.36712e-05 -1.52374e-05 -5.26594e-07 2.14603e-05 -2.98015e-05 1.44171e-05 1.7259e-05 2.09158e-06 -2.23238e-05 1.70735e-05 1.83169e-05 -3.72425e-05 
2.19236e-05 3.70407e-05 2.0644e-05 1.67019e-05 -2.20567e-05 -1.42995e-05 -1.1073e-06 1.73709e-05 -3.31802e-05 1.40484e-05 1.23921e-05 3.19642e-06 -2.05369e-05 1.67728e-05 1.96239e-05 -3.51218e-05 
2.03079e-06 6.05723e-05 -8.97408e-06 2.79044e-05 -3.68296e-05 -1.98784e-05 -9.09447e-06 1.80625e-05 -2.75767e-05 2.00806e-05 1.20134e-05 2.01875e-06 -2.08956e-05 2.23668e-05 3.10509e-05 -4.02517e-05 
5.04975e-05 5.60729e-05 1.78925e-05 3.41985e-05 -3.00823e-05 -2.73508e-05 7.48328e-06 4.71389e-05 -3.15539e-05 1.98874e-05 3.75125e-05 3.52232e-06 -4.20706e-05 2.89734e-05 1.95698e-05 -6.71343e-05 
3.07231e-05 3.48039e-05 1.68989e-05 1.94851e-05 -1.84833e-05 -1.66611e-05 3.85443e-06 2.6368e-05 -2.40721e-05 1.27091e-05 1.98357e-05 3.09585e-06 -2.53384e-05 1.82516e-05 1.41538e-05 -4.10364e-05 
3.8106e-05 3.4039e-05 2.67953e-05 1.85607e-05 -1.70274e-05 -1.8006e-05 6.28833e-06 2.88107e-05 -2.79276e-05 1.27567e-05 2.0308e-05 4.57129e-06 -2.81987e-05 1.99461e-05 1.4127e-05 -4.53411e-05 
3.89179e-05 2.8574e-05 3.48974e-05 1.41513e-05 -1.31353e-05 -1.62927e-05 6.91749e-06 2.49634e-05 -3.05565e-05 1.1295e-05 1.59408e-05 5.70639e-06 -2.63152e-05 1.8587e-05 1.33699e-05 -4.20386e-05 
2.38641e-05 4.87424e-05 1.66911e-05 2.32645e-05 -3.10966e-05 -1.77321e-05 -2.62267e-06 2.31415e-05 -3.77106e-05 1.79201e-05 1.8397e-05 2.24378e-06 -2.48268e-05 2.01554e-05 2.40596e-05 -4.30036e-05 
2.99504e-05 2.94089e-05 2.59937e-05 1.42281e-05 -1.59506e-05 -1.41635e-05 3.53033e-06 2.08727e-05 -2.87139e-05 1.13655e-05 1.43774e-05 3.9877e-06 -2.21127e-05 1.617e-05 1.41785e-05 -3.61313e-05 
4.96156e-05 6.32215e-05 2.09404e-05 3.58862e-05 -3.63882e-05 -2.77411e-05 4.29676e-06 4.56006e-05 -4.23425e-05 2.28675e-05 3.77104e-05 3.18582e-06 -4.28258e-05 2.97397e-05 2.49521e-05 -6.83924e-05 
3.17207e-05 2.4603e-05 3.94866e-05 8.85622e-06 -1.26477e-05 -1.23386e-05 3.63461e-06 1.55559e-05 -3.64025e-05 1.04987e-05 8.4835e-06 5.69259e-06 -2.03358e-05 1.50658e-05 1.51413e-05 -3.30499e-05 
3.02374e-05 3.32414e-05 1.79529e-05 1.83528e-05 -1.75618e-05 -1.59655e-05 3.79437e-06 2.5109e-05 -2.43489e-05 1.22519e-05 1.87803e-05 3.1762e-06 -2.44892e-05 1.75806e-05 1.38067e-05 -3.95353e-05 
5.62843e-05 7.39495e-05 2.82742e-05 4.13205e-05 -3.88042e-05 -3.43121e-05 5.74255e-06 5.17301e-05 -4.6562e-05 2.68038e-05 3.83731e-05 6.10628e-06 -5.02367e-05 3.80964e-05 3.09195e-05 -8.29666e-05 
3.95517e-05 3.44664e-05 3.18352e-05 1.7743e-05 -1.72316e-05 -1.82195e-05 6.30961e-06 2.80288e-05 -3.15955e-05 1.32274e-05 1.88219e-05 5.3309e-06 -2.84979e-05 2.06523e-05 1.55286e-05 -4.62931e-05 
7.71478e-05 8.57197e-05 3.01703e-05 5.23787e-05 -4.16708e-05 -4.4082e-05 1.28199e-05 7.19763e-05 -4.4458e-05 3.04417e-05 5.3328e-05 7.64382e-06 -6.55389e-05 4.78556e-05 3.09223e-05 -0.000106541 
1.88898e-05 7.01146e-05 -7.43154e-06 3.68626e-05 -3.91292e-05 -2.77848e-05 -3.38244e-06 3.44487e-05 -2.58942e-05 2.30021e-05 2.41623e-05 3.24826e-06 -3.33368e-05 3.02219e-05 3.10188e-05 -5.93092e-05 
1.71611e-05 6.68615e-05 -4.4831e-06 3.42162e-05 -3.81185e-05 -2.5649e-05 -4.29436e-06 3.07558e-05 -2.8251e-05 2.22666e-05 2.1717e-05 3.01967e-06 -3.07843e-05 2.81525e-05 3.06646e-05 -5.50428e-05 
2.91813e-05 5.16654e-05 1.90323e-05 2.5042e-05 -3.3615e-05 -1.81532e-05 -2.63382e-06 2.57468e-05 -4.43789e-05 1.93249e-05 2.29922e-05 1.69286e-06 -2.77561e-05 2.02095e-05 2.49895e-05 -4.52967e-05 
5.36915e-05 3.78861e-05 3.87928e-05 2.16793e-05 -1.60673e-05 -2.31449e-05 1.12759e-05 3.83129e-05 -3.22704e-05 1.44096e-05 2.57141e-05 6.98519e-06 -3.71223e-05 2.56206e-05 1.46835e-05 -5.87721e-05 
4.32312e-05 5.96231e-05 2.03196e-05 3.25128e-05 -3.55303e-05 -2.47439e-05 2.12972e-06 3.94082e-05 -4.29759e-05 2.17602e-05 3.31234e-05 2.71883e-06 -3.81334e-05 2.67592e-05 2.49617e-05 -6.11881e-05 
3.45748e-05 2.70981e-05 3.1154e-05 1.32523e-05 -1.29848e-05 -1.48559e-05 5.7171e-06 2.2427e-05 -2.85475e-05 1.06718e-05 1.44309e-05 5.0493e-06 -2.37855e-05 1.69934e-05 1.28865e-05 -3.8244e-05 
3.18188e-05 2.55391e-05 3.09222e-05 1.17842e-05 -1.25971e-05 -1.35685e-05 4.78196e-06 1.97488e-05 -2.8831e-05 1.01882e-05 1.24568e-05 4.84526e-06 -2.17671e-05 1.57034e-05 1.28822e-05 -3.51228e-05 
-1.28019e-06 5.86959e-05 -9.2866e-06 2.61435e-05 -3.63812e-05 -1.83237e-05 -1.02208e-05 1.48413e-05 -2.79082e-05 1.95054e-05 9.62414e-06 1.77552e-06 -1.84496e-05 2.08195e-05 3.1057e-05 -3.65013e-05 
4.46834e-05 4.29009e-05 2.2083e-05 2.56683e-05 -2.16558e-05 -2.22297e-05 7.4943e-06 3.78214e-05 -2.81385e-05 1.5541e-05 2.89046e-05 4.05891e-06 -3.49226e-05 2.38446e-05 1.54784e-05 -5.51966e-05 
-6.3633e-06 6.77051e-05 -1.24608e-05 2.90517e-05 -4.31607e-05 -1.97642e-05 -1.37441e-05 1.357e-05 -3.31788e-05 2.24995e-05 8.54464e-06 1.63668e-06 -1.86102e-05 2.27517e-05 3.69838e-05 -3.84736e-05 
3.51183e-05 2.7393e-05 3.11853e-05 1.35355e-05 -1.30745e-05 -1.5102e-05 5.90545e-06 2.29451e-05 -2.84792e-05 1.07789e-05 1.47877e-05 5.09638e-06 -2.41433e-05 1.72638e-05 1.29068e-05 -3.88602e-05 
5.22461e-05 6.47479e-05 2.10722e-05 3.73387e-05 -3.67979e-05 -2.89578e-05 5.18906e-06 4.81917e-05 -4.20486e-05 2.33392e-05 3.96183e-05 3.38165e-06 -4.47692e-05 3.09642e-05 2.49622e-05 -7.14192e-05 
4.31647e-05 3.29408e-05 3.75906e-05 1.64996e-05 -1.55612e-05 -1.84936e-05 7.57397e-06 2.85145e-05 -3.36659e-05 1.28548e-05 1.84801e-05 6.16358e-06 -2.96159e-05 2.09857e-05 1.51188e-05 -4.74679e-05 
3.51382e-05 2.64278e-05 3.45203e-05 1.21443e-05 -1.26383e-05 -1.45106e-05 5.6384e-06 2.12845e-05 -3.092e-05 1.06504e-05 1.31914e-05 5.43546e-06 -2.34938e-05 1.68357e-05 1.33939e-05 -3.77695e-05 
2.08079e-05 3.38853e-05 9.95263e-06 1.77046e-05 -1.81529e-05 -1.51523e-05 1.40856e-06 2.09616e-05 -1.98199e-05 1.18405e-05 1.45194e-05 2.94693e-06 -2.0819e-05 1.67383e-05 1.5027e-05 -3.51841e-05 
3.61382e-05 2.89523e-05 3.68799e-05 1.27718e-05 -1.46439e-05 -1.51791e-05 5.20083e-06 2.16756e-05 -3.43366e-05 1.16618e-05 1.33614e-05 5.66358e-06 -2.4365e-05 1.77388e-05 1.51712e-05 -3.95409e-05 
1.45464e-05 4.95103e-05 -6.66672e-07 2.51234e-05 -2.8783e-05 -1.89403e-05 -2.9139e-06 2.32226e-05 -2.30405e-05 1.66577e-05 1.66664e-05 2.26002e-06 -2.32372e-05 2.08468e-05 2.28217e-05 -4.13672e-05 
2.29629e-06 6.07243e-05 -8.9499e-06 2.80463e-05 -3.68643e-05 -2.00036e-05 -9.0068e-06 1.83217e-05 -2.75529e-05 2.0124e-05 1.221e-05 2.03632e-06 -2.10981e-05 2.24858e-05 3.10466e-05 -4.05494e-05 
3.0684e-05 2.94723e-05 3.10643e-05 1.30431e-05 -1.59918e-05 -1.40757e-05 3.29757e-06 1.94309e-05 -3.25058e-05 1.16679e-05 1.24992e-05 4.66963e-06 -2.20306e-05 1.64856e-05 1.5505e-05 -3.62669e-05 
8.14412e-07 6.64219e-05 -1.01345e-05 3.0222e-05 -4.0489e-05 -2.14603e-05 -1.05646e-05 1.86277e-05 -3.06245e-05 2.20461e-05 1.21495e-05 2.21964e-06 -2.2187e-05 2.42267e-05 3.45059e-05 -4.31383e-05 
2.45405e-05 3.91266e-05 1.50998e-05 1.98407e-05 -2.35142e-05 -1.54476e-05 -1.89228e-07 2.2077e-05 -3.02125e-05 1.44506e-05 1.78321e-05 2.1695e-06 -2.29135e-05 1.72519e-05 1.81788e-05 -3.78912e-05 
3.24742e-05 2.50339e-05 3.95706e-05 9.25836e-06 -1.27423e-05 -1.26956e-05 3.89265e-06 1.6293e-05 -3.63305e-05 1.06261e-05 9.03866e-06 5.74702e-06 -2.09051e-05 1.54153e-05 1.51335e-05 -3.39063e-05 
1.18378e-05 6.6112e-05 -8.08009e-06 3.31062e-05 -3.81702e-05 -2.44751e-05 -5.77185e-06 2.75842e-05 -2.65966e-05 2.17824e-05 1.90621e-05 2.73594e-06 -2.8116e-05 2.69422e-05 3.10394e-05 -5.13287e-05 
2.48467e-06 6.08281e-05 -8.94056e-06 2.81461e-05 -3.68954e-05 -2.00893e-05 -8.94128e-06 1.85027e-05 -2.75293e-05 2.01605e-05 1.23362e-05 2.05235e-06 -2.12259e-05 2.25789e-05 3.10525e-05 -4.07645e-05 
3.5805e-05 5.32155e-05 1.80457e-05 2.81579e-05 -3.23065e-05 -2.13237e-05 7.22058e-07 3.28224e-05 -3.94518e-05 1.94756e-05 2.75925e-05 2.36047e-06 -3.24508e-05 2.32608e-05 2.32132e-05 -5.25907e-05 
3.49972e-07 5.9619e-05 -9.14664e-06 2.70126e-05 -3.66091e-05 -1.9086e-05 -9.66641e-06 1.64267e-05 -2.77406e-05 1.97914e-05 1.07939e-05 1.89646e-06 -1.96463e-05 2.15833e-05 3.10587e-05 -3.83497e-05 
-2.67823e-06 6.98036e-05 -1.20831e-05 3.10117e-05 -4.36412e-05 -2.15036e-05 -1.24963e-05 1.7161e-05 -3.28279e-05 2.31269e-05 1.12341e-05 1.90035e-06 -2.13691e-05 2.44566e-05 3.69573e-05 -4.26406e-05 
6.37685e-06 6.30515e-05 -8.53875e-06 3.02204e-05 -3.73952e-05 -2.19307e-05 -7.63003e-06 2.23023e-05 -2.71663e-05 2.08134e-05 1.52007e-05 2.32348e-06 -2.41669e-05 2.4363e-05 3.10082e-05 -4.51587e-05 
3.2492e-05 2.50408e-05 3.96131e-05 9.25604e-06 -1.27233e-05 -1.27117e-05 3.89311e-06 1.63065e-05 -3.63452e-05 1.06186e-05 9.06664e-06 5.74208e-06 -2.09349e-05 1.54103e-05 1.5118e-05 -3.3908e-05 
2.14006e-06 6.06638e-05 -8.88313e-06 2.79684e-05 -3.67889e-05 -1.9957e-05 -9.07094e-06 1.81928e-05 -2.76118e-05 2.00614e-05 1.21913e-05 2.00309e-06 -2.10943e-05 2.23656e-05 3.0986e-05 -4.0358e-05 
1.05488e-05 6.52169e-05 -5.45247e-06 3.16714e-05 -3.89063e-05 -2.30579e-05 -6.93163e-06 2.49344e-05 -3.00977e-05 2.18379e-05 1.75715e-05 2.44489e-06 -2.64412e-05 2.56991e-05 3.17303e-05 -4.87659e-05 
3.15299e-05 2.59901e-05 3.18951e-05 1.16136e-05 -1.30882e-05 -1.34603e-05 4.37728e-06 1.91056e-05 -3.0291e-05 1.04544e-05 1.19309e-05 4.9085e-06 -2.15702e-05 1.57233e-05 1.3565e-05 -3.49567e-05 
2.88492e-05 4.44423e-05 1.59588e-05 2.2931e-05 -2.75497e-05 -1.73714e-05 -3.06771e-09 2.62014e-05 -3.41976e-05 1.63438e-05 2.20412e-05 1.93407e-06 -2.62935e-05 1.90644e-05 1.99499e-05 -4.29708e-05 
2.61073e-05 4.82175e-05 1.95528e-05 2.25968e-05 -3.17692e-05 -1.72666e-05 -2.37281e-06 2.3443e-05 -4.06681e-05 1.79336e-05 1.93794e-05 2.10644e-06 -2.505e-05 1.95817e-05 2.3957e-05 -4.27923e-05 
3.64836e-05 8.65573e-05 -6.8414e-06 4.91272e-05 -4.53644e-05 -3.81758e-05 1.5346e-06 5.32502e-05 -2.70436e-05 2.82557e-05 3.7752e-05 4.84022e-06 -4.83804e-05 4.08951e-05 3.44906e-05 -8.34387e-05 
1.36344e-05 4.91693e-05 1.69776e-05 2.03008e-05 -3.1538e-05 -1.53393e-05 -7.1033e-06 1.37083e-05 -4.26141e-05 1.84336e-05 1.02089e-05 2.64714e-06 -1.97636e-05 1.86044e-05 2.83197e-05 -3.60352e-05 
1.09171e-05 6.45373e-05 2.01391e-05 2.50203e-05 -4.53076e-05 -1.73005e-05 -1.26899e-05 1.28378e-05 -5.90024e-05 2.42766e-05 1.08628e-05 1.93789e-06 -2.14284e-05 2.14078e-05 3.84931e-05 -4.1016e-05 
6.79517e-06 6.98025e-05 -9.5886e-06 3.33948e-05 -4.13035e-05 -2.42655e-05 -8.54247e-06 2.44353e-05 -3.00323e-05 2.30794e-05 1.64561e-05 2.65396e-06 -2.66028e-05 2.70104e-05 3.44928e-05 -4.98883e-05 
3.87686e-05 3.27727e-05 2.6555e-05 1.8301e-05 -1.57661e-05 -1.80346e-05 7.00661e-06 2.93203e-05 -2.61891e-05 1.22359e-05 2.04831e-05 4.68904e-06 -2.83397e-05 1.98898e-05 1.31204e-05 -4.53673e-05 
4.59311e-05 3.41505e-05 3.31794e-05 1.92818e-05 -1.50695e-05 -2.02088e-05 9.26222e-06 3.31119e-05 -2.88406e-05 1.29586e-05 2.2305e-05 5.96377e-06 -3.21937e-05 2.24428e-05 1.35478e-05 -5.12586e-05 
2.3356e-06 6.92416e-05 1.50168e-05 2.54506e-05 -4.79458e-05 -1.74034e-05 -1.63404e-05 8.31586e-06 -6.0449e-05 2.56318e-05 6.42151e-06 2.18383e-06 -1.92011e-05 2.17787e-05 4.28995e-05 -3.86848e-05 
9.32578e-06 7.1218e-05 -9.32812e-06 3.47203e-05 -4.16408e-05 -2.5453e-05 -7.68204e-06 2.68807e-05 -2.97805e-05 2.35213e-05 1.8259e-05 2.84144e-06 -2.84424e-05 2.81986e-05 3.44952e-05 -5.27364e-05 
4.4707e-05 3.74057e-05 3.23529e-05 2.04902e-05 -1.79055e-05 -2.06528e-05 8.05313e-06 3.30569e-05 -3.11034e-05 1.41027e-05 2.25931e-05 5.69669e-06 -3.23674e-05 2.30309e-05 1.54863e-05 -5.21226e-05 
2.99568e-05 2.6223e-05 2.95852e-05 1.18476e-05 -1.36439e-05 -1.32253e-05 3.9236e-06 1.88324e-05 -2.91702e-05 1.03968e-05 1.20186e-05 4.533e-06 -2.09546e-05 1.53545e-05 1.3463e-05 -3.41259e-05 
2.94643e-05 5.33728e-05 4.5968e-06 3.00386e-05 -2.92463e-05 -2.32069e-05 1.63662e-06 3.43558e-05 -2.48458e-05 1.8186e-05 2.6184e-05 2.82616e-06 -3.19514e-05 2.49053e-05 2.14526e-05 -5.32998e-05 
3.32397e-05 4.47018e-05 2.15341e-05 2.29167e-05 -2.66764e-05 -1.91447e-05 2.01145e-06 2.87535e-05 -3.43386e-05 1.64169e-05 2.20335e-05 3.20033e-06 -2.84463e-05 2.12566e-05 2.00325e-05 -4.73678e-05 
3.82626e-05 5.68149e-05 1.98554e-05 2.98781e-05 -3.48574e-05 -2.24123e-05 4.47065e-07 3.45824e-05 -4.34689e-05 2.09009e-05 2.95442e-05 2.35706e-06 -3.44671e-05 2.44445e-05 2.4973e-05 -5.55777e-05 
4.38616e-05 6.00052e-05 2.0352e-05 3.28749e-05 -3.56268e-05 -2.50377e-05 2.34329e-06 4.00437e-05 -4.29062e-05 2.18705e-05 3.3606e-05 2.76218e-06 -3.86185e-05 2.70411e-05 2.49547e-05 -6.1926e-05 
3.73894e-05 5.63418e-05 1.97885e-05 2.94291e-05 -3.47278e-05 -2.2009e-05 1.47323e-07 3.37521e-05 -4.35643e-05 2.07399e-05 2.89571e-05 2.28533e-06 -3.38604e-05 2.40153e-05 2.49539e-05 -5.45985e-05 
4.76049e-05 6.21343e-05 2.06942e-05 3.48729e-05 -3.6134e-05 -2.67964e-05 3.61184e-06 4.36911e-05 -4.25358e-05 2.25152e-05 3.63223e-05 3.03231e-06 -4.1404e-05 2.87783e-05 2.49387e-05 -6.61644e-05 
-1.06639e-06 5.88171e-05 -9.26331e-06 2.62568e-05 -3.64092e-05 -1.84244e-05 -1.01478e-05 1.50496e-05 -2.78868e-05 1.95426e-05 9.77892e-06 1.79131e-06 -1.86068e-05 2.09195e-05 3.10565e-05 -3.67438e-05 
2.90061e-05 2.49114e-05 3.63098e-05 8.96301e-06 -1.36272e-05 -1.18484e-05 2.77743e-06 1.47402e-05 -3.5079e-05 1.04045e-05 8.25774e-06 5.13195e-06 -1.91401e-05 1.43895e-05 1.51519e-05 -3.14495e-05 
1.10426e-05 4.50754e-05 4.07987e-06 2.1094e-05 -2.73285e-05 -1.57077e-05 -4.72376e-06 1.68371e-05 -2.72686e-05 1.57639e-05 1.21334e-05 2.05869e-06 -1.91797e-05 1.79086e-05 2.29594e-05 -3.47696e-05 
2.19754e-05 3.54224e-05 1.21994e-05 1.82648e-05 -1.94318e-05 -1.53834e-05 1.00781e-06 2.11266e-05 -2.29492e-05 1.26683e-05 1.49738e-05 2.94353e-06 -2.14888e-05 1.72017e-05 1.61648e-05 -3.63267e-05 
4.04876e-05 3.04535e-05 3.17242e-05 1.63956e-05 -1.37732e-05 -1.76379e-05 7.71967e-06 2.81813e-05 -2.79701e-05 1.16867e-05 1.87201e-05 5.47536e-06 -2.81836e-05 1.97377e-05 1.28577e-05 -4.4927e-05 
1.39613e-05 4.63178e-05 4.86339e-06 2.2339e-05 -2.76136e-05 -1.68336e-05 -3.7816e-06 1.93291e-05 -2.73418e-05 1.6187e-05 1.40293e-05 2.25054e-06 -2.10973e-05 1.90407e-05 2.28829e-05 -3.76585e-05 
2.34971e-05 7.36982e-05 1.86165e-05 3.32675e-05 -4.80187e-05 -2.41409e-05 -8.50065e-06 2.66292e-05 -5.64713e-05 2.6996e-05 2.11788e-05 2.71682e-06 -3.1635e-05 2.80185e-05 3.88271e-05 -5.68857e-05 
5.34844e-06 6.24774e-05 -8.64511e-06 2.96823e-05 -3.7256e-05 -2.14491e-05 -7.9825e-06 2.13092e-05 -2.72724e-05 2.06304e-05 1.44746e-05 2.2439e-06 -2.34291e-05 2.38735e-05 3.10017e-05 -4.39964e-05 
1.89138e-05 3.93153e-05 9.54127e-06 1.94003e-05 -2.14347e-05 -1.65097e-05 -2.46948e-07 2.05905e-05 -2.32712e-05 1.36642e-05 1.36457e-05 3.33327e-06 -2.16682e-05 1.84446e-05 1.8698e-05 -3.73897e-05 
2.67532e-05 7.45488e-05 -6.67369e-06 4.1019e-05 -4.01853e-05 -3.14769e-05 -7.205e-07 4.20764e-05 -2.51198e-05 2.4361e-05 2.98196e-05 3.8196e-06 -3.91293e-05 3.38842e-05 3.10004e-05 -6.81745e-05 
2.37859e-05 5.53831e-05 1.68921e-05 2.61527e-05 -3.30573e-05 -2.04169e-05 -3.54682e-06 2.41503e-05 -4.08009e-05 2.02583e-05 1.79147e-05 3.37259e-06 -2.75585e-05 2.36018e-05 2.826e-05 -4.80416e-05 
1.85496e-05 8.18312e-05 -1.01402e-05 4.23029e-05 -4.65303e-05 -3.14643e-05 -5.30288e-06 3.78067e-05 -3.07136e-05 2.67991e-05 2.65586e-05 3.44499e-06 -3.70712e-05 3.43401e-05 3.69026e-05 -6.66464e-05 
2.66925e-05 2.76417e-05 2.64928e-05 1.23489e-05 -1.49107e-05 -1.29255e-05 2.53151e-06 1.74505e-05 -2.90743e-05 1.08229e-05 1.12561e-05 4.13983e-06 -1.99255e-05 1.50765e-05 1.44971e-05 -3.2855e-05 
1.60658e-05 4.7912e-05 4.53117e-06 2.37595e-05 -2.802e-05 -1.806e-05 -3.02021e-06 2.17139e-05 -2.6762e-05 1.66393e-05 1.57372e-05 2.42834e-06 -2.2869e-05 2.02569e-05 2.2959e-05 -4.04475e-05 
2.96777e-05 5.19641e-05 1.9088e-05 2.53194e-05 -3.36751e-05 -1.83915e-05 -2.46411e-06 2.62452e-05 -4.43337e-05 1.94057e-05 2.33809e-05 1.72579e-06 -2.81535e-05 2.04313e-05 2.49756e-05 -4.5872e-05 
2.53717e-05 3.47207e-05 1.22877e-05 1.90125e-05 -1.87967e-05 -1.58014e-05 2.36369e-06 2.37559e-05 -2.18349e-05 1.24165e-05 1.76855e-05 2.72472e-06 -2.30021e-05 1.73419e-05 1.45893e-05 -3.79287e-05 
2.52659e-05 8.02763e-05 -7.9146e-06 4.3229e-05 -4.38255e-05 -3.29307e-05 -2.28412e-06 4.24051e-05 -2.81892e-05 2.62775e-05 2.97923e-05 3.99937e-06 -4.0268e-05 3.56125e-05 3.4449e-05 -7.07858e-05 
2.726e-05 4.61716e-05 1.99221e-05 2.20515e-05 -3.00105e-05 -1.73055e-05 -1.20957e-06 2.42273e-05 -3.81458e-05 1.71338e-05 1.9471e-05 2.31809e-06 -2.51409e-05 1.95612e-05 2.24406e-05 -4.29862e-05 
5.86456e-07 5.97476e-05 -9.11619e-06 2.71317e-05 -3.66379e-05 -1.91976e-05 -9.58646e-06 1.66515e-05 -2.77191e-05 1.98318e-05 1.0959e-05 1.91385e-06 -1.98155e-05 2.16948e-05 3.10591e-05 -3.86107e-05 
2.50883e-05 3.28966e-05 2.65772e-05 1.40921e-05 -1.92414e-05 -1.36121e-05 4.92948e-07 1.69376e-05 -3.39466e-05 1.28091e-05 1.12773e-05 3.91276e-06 -2.03419e-05 1.61089e-05 1.79941e-05 -3.43494e-05 
7.47531e-06 7.02136e-05 -9.51746e-06 3.37759e-05 -4.13848e-05 -2.45931e-05 -8.31514e-06 2.5119e-05 -2.99749e-05 2.31856e-05 1.69961e-05 2.69552e-06 -2.71593e-05 2.73067e-05 3.44674e-05 -5.067e-05 
8.06274e-05 5.22611e-05 4.39532e-05 3.48301e-05 -1.93395e-05 -3.52624e-05 2.02229e-05 6.3074e-05 -3.14925e-05 1.90012e-05 4.36619e-05 9.27805e-06 -5.63412e-05 3.78965e-05 1.50911e-05 -8.83503e-05 
5.95559e-05 4.02445e-05 3.68107e-05 2.51053e-05 -1.59435e-05 -2.59725e-05 1.39147e-05 4.5014e-05 -2.84963e-05 1.48758e-05 3.07992e-05 7.21462e-06 -4.15258e-05 2.82122e-05 1.33367e-05 -6.53636e-05 
4.14028e-05 3.16017e-05 3.28169e-05 1.68748e-05 -1.44183e-05 -1.81019e-05 7.71958e-06 2.87217e-05 -2.93202e-05 1.21513e-05 1.90955e-05 5.62101e-06 -2.89159e-05 2.0305e-05 1.352e-05 -4.6127e-05 
4.13583e-05 3.00739e-05 4.03949e-05 1.39869e-05 -1.39443e-05 -1.68694e-05 6.90576e-06 2.49396e-05 -3.54467e-05 1.21606e-05 1.54655e-05 6.39242e-06 -2.74906e-05 1.95509e-05 1.51046e-05 -4.39588e-05 
3.10607e-05 2.96992e-05 3.1099e-05 1.32543e-05 -1.60384e-05 -1.42565e-05 3.42403e-06 1.98089e-05 -3.24732e-05 1.17268e-05 1.27956e-05 4.69378e-06 -2.2339e-05 1.66518e-05 1.54922e-05 -3.67008e-05 
3.67135e-06 6.80354e-05 -9.85476e-06 3.17312e-05 -4.08676e-05 -2.28051e-05 -9.60218e-06 2.13993e-05 -3.03506e-05 2.25338e-05 1.42145e-05 2.4234e-06 -2.43064e-05 2.55497e-05 3.44917e-05 -4.63519e-05 
3.91705e-05 5.46963e-05 1.84456e-05 2.9852e-05 -3.20468e-05 -2.30331e-05 2.11013e-06 3.60982e-05 -3.82655e-05 1.98995e-05 2.96621e-05 2.78186e-06 -3.49662e-05 2.50305e-05 2.29781e-05 -5.65648e-05 
2.65997e-05 2.8993e-05 2.4299e-05 1.34345e-05 -1.66337e-05 -1.30807e-05 2.25747e-06 1.86015e-05 -2.88051e-05 1.11707e-05 1.3e-05 3.51445e-06 -2.01867e-05 1.49994e-05 1.44892e-05 -3.32996e-05 
3.35432e-05 5.41524e-05 1.94279e-05 2.73778e-05 -3.4212e-05 -2.02002e-05 -1.15053e-06 3.00035e-05 -4.39389e-05 2.00828e-05 2.61567e-05 2.01131e-06 -3.09912e-05 2.22397e-05 2.49776e-05 -5.02512e-05 
3.2013e-05 2.56437e-05 3.09411e-05 1.18822e-05 -1.26239e-05 -1.36589e-05 4.84734e-06 1.99325e-05 -2.88119e-05 1.02224e-05 1.25887e-05 4.86015e-06 -2.1903e-05 1.57964e-05 1.28847e-05 -3.53373e-05 
1.48313e-05 5.06164e-05 2.15644e-05 2.01057e-05 -3.29993e-05 -1.53018e-05 -7.79837e-06 1.28642e-05 -4.78634e-05 1.93529e-05 9.69544e-06 2.86798e-06 -2.01446e-05 1.8921e-05 3.00985e-05 -3.6728e-05 
3.13647e-05 2.59024e-05 3.18807e-05 1.15302e-05 -1.30641e-05 -1.33845e-05 4.32048e-06 1.89497e-05 -3.03097e-05 1.04235e-05 1.18216e-05 4.89521e-06 -2.14593e-05 1.56426e-05 1.35609e-05 -3.47733e-05 
1.41523e-05 5.01568e-05 1.98572e-05 2.01736e-05 -3.33141e-05 -1.4975e-05 -7.82577e-06 1.30237e-05 -4.65234e-05 1.90712e-05 1.01925e-05 2.43795e-06 -1.96613e-05 1.83922e-05 2.94136e-05 -3.60028e-05 
1.06311e-05 6.54244e-05 -8.18428e-06 3.24599e-05 -3.80034e-05 -2.3909e-05 -6.18246e-06 2.64074e-05 -2.67184e-05 2.15731e-05 1.81887e-05 2.64729e-06 -2.72191e-05 2.63786e-05 3.10418e-05 -4.99579e-05 
3.11645e-05 2.4168e-05 3.41979e-05 1.00155e-05 -1.20776e-05 -1.26528e-05 4.28965e-06 1.74126e-05 -3.13284e-05 9.95578e-06 1.03287e-05 5.14247e-06 -2.05611e-05 1.49794e-05 1.33938e-05 -3.3258e-05 
2.9786e-05 5.19987e-05 1.90899e-05 2.53559e-05 -3.37e-05 -1.84341e-05 -2.42747e-06 2.63272e-05 -4.43144e-05 1.94342e-05 2.34119e-05 1.73937e-06 -2.818e-05 2.04969e-05 2.49963e-05 -4.59759e-05 
3.45485e-05 2.80659e-05 3.67593e-05 1.19352e-05 -1.44089e-05 -1.44398e-05 4.65869e-06 2.01441e-05 -3.4508e-05 1.13732e-05 1.22565e-05 5.53919e-06 -2.32335e-05 1.69755e-05 1.51494e-05 -3.77436e-05 
8.20778e-06 6.0535e-05 -3.11828e-06 2.83762e-05 -3.64193e-05 -2.07207e-05 -7.49816e-06 2.07882e-05 -3.06234e-05 2.04606e-05 1.43544e-05 2.4107e-06 -2.35e-05 2.33221e-05 3.05948e-05 -4.3679e-05 
5.94774e-08 5.94536e-05 -9.16144e-06 2.68551e-05 -3.6563e-05 -1.89525e-05 -9.76507e-06 1.61435e-05 -2.77741e-05 1.97383e-05 1.0589e-05 1.87397e-06 -1.94387e-05 2.1446e-05 3.10549e-05 -3.80175e-05 
7.2525e-05 5.01529e-05 3.43738e-05 3.41478e-05 -1.93475e-05 -3.30774e-05 1.82762e-05 5.9815e-05 -2.55717e-05 1.77518e-05 4.23252e-05 7.72823e-06 -5.22691e-05 3.5107e-05 1.35215e-05 -8.20319e-05 
2.81833e-05 5.10914e-05 1.89515e-05 2.45023e-05 -3.34766e-05 -1.76844e-05 -2.97146e-06 2.47692e-05 -4.44779e-05 1.91537e-05 2.22614e-05 1.62106e-06 -2.7003e-05 1.97473e-05 2.49953e-05 -4.41609e-05 
3.49934e-05 3.19178e-05 3.14538e-05 1.53405e-05 -1.65825e-05 -1.60973e-05 4.76428e-06 2.36258e-05 -3.20703e-05 1.24186e-05 1.56067e-05 4.98776e-06 -2.52147e-05 1.85019e-05 1.55005e-05 -4.11544e-05 
1.93736e-05 5.30898e-05 2.48542e-05 2.17415e-05 -3.37762e-05 -1.70033e-05 -6.77009e-06 1.58822e-05 -5.0249e-05 2.03958e-05 1.18244e-05 3.40482e-06 -2.30607e-05 2.0872e-05 3.09669e-05 -4.12601e-05 
2.52605e-05 5.64212e-05 2.53905e-05 2.48703e-05 -3.45832e-05 -1.97626e-05 -4.77278e-06 2.1604e-05 -4.96568e-05 2.14204e-05 1.60599e-05 3.83682e-06 -2.73944e-05 2.36213e-05 3.09618e-05 -4.79199e-05 
4.92125e-05 6.3017e-05 2.07971e-05 3.57147e-05 -3.63869e-05 -2.75317e-05 4.16201e-06 4.52311e-05 -4.23473e-05 2.28184e-05 3.74088e-05 3.16348e-06 -4.25019e-05 2.95588e-05 2.49784e-05 -6.79806e-05 
1.30006e-05 4.94829e-05 2.43428e-05 1.8341e-05 -3.28678e-05 -1.40287e-05 -8.93556e-06 9.68807e-06 -5.09127e-05 1.92712e-05 7.26913e-06 2.9293e-06 -1.8399e-05 1.78787e-05 3.09477e-05 -3.40329e-05 
2.6337e-05 4.82894e-05 1.659e-05 2.3579e-05 -3.06811e-05 -1.74214e-05 -2.2332e-06 2.41402e-05 -3.92418e-05 1.79041e-05 2.06842e-05 1.892e-06 -2.58793e-05 1.94814e-05 2.32924e-05 -4.28242e-05 
5.01644e-05 3.50741e-05 4.12171e-05 1.86744e-05 -1.5132e-05 -2.10068e-05 9.88206e-06 3.35111e-05 -3.45836e-05 1.36734e-05 2.1849e-05 7.02693e-06 -3.40328e-05 2.36334e-05 1.50659e-05 -5.39122e-05 
1.17115e-05 6.3237e-05 -4.32961e-06 3.09431e-05 -3.71561e-05 -2.28024e-05 -6.1907e-06 2.50434e-05 -2.91886e-05 2.11934e-05 1.75616e-05 2.59095e-06 -2.65083e-05 2.53138e-05 3.0533e-05 -4.83665e-05 
1.53844e-05 6.58605e-05 -4.66834e-06 3.3281e-05 -3.78879e-05 -2.48114e-05 -4.8955e-06 2.90336e-05 -2.84202e-05 2.19637e-05 2.04333e-05 2.89218e-06 -2.94671e-05 2.73279e-05 3.06742e-05 -5.30445e-05 
3.03373e-05 2.74609e-05 3.2166e-05 1.17331e-05 -1.45466e-05 -1.33164e-05 3.36544e-06 1.80806e-05 -3.25691e-05 1.10687e-05 1.13275e-05 4.82562e-06 -2.11788e-05 1.5715e-05 1.49509e-05 -3.45876e-05 
3.35348e-05 2.70614e-05 3.00415e-05 1.32258e-05 -1.31449e-05 -1.46216e-05 5.39247e-06 2.19734e-05 -2.80875e-05 1.06184e-05 1.42098e-05 4.87669e-06 -2.32988e-05 1.67195e-05 1.28853e-05 -3.75464e-05 
1.49315e-05 7.97383e-05 -1.04957e-05 4.03466e-05 -4.60692e-05 -2.97473e-05 -6.52606e-06 3.4247e-05 -3.10517e-05 2.62015e-05 2.38488e-05 3.19754e-06 -3.42766e-05 3.26938e-05 3.69655e-05 -6.25357e-05 
1.67325e-05 6.891e-05 -7.58157e-06 3.57202e-05 -3.88027e-05 -2.67899e-05 -4.11671e-06 3.23658e-05 -2.61345e-05 2.26086e-05 2.26625e-05 3.07981e-06 -3.18148e-05 2.91934e-05 3.09878e-05 -5.68664e-05 
6.67296e-05 4.63259e-05 3.98889e-05 2.90328e-05 -1.86918e-05 -2.95868e-05 1.55534e-05 5.14607e-05 -3.13696e-05 1.68937e-05 3.56031e-05 7.8565e-06 -4.71601e-05 3.19081e-05 1.49897e-05 -7.4107e-05 
6.34913e-05 7.11158e-05 2.21606e-05 4.33054e-05 -3.82994e-05 -3.42476e-05 9.00362e-06 5.91247e-05 -4.09465e-05 2.52754e-05 4.77514e-05 4.19804e-06 -5.31129e-05 3.62006e-05 2.49191e-05 -8.41272e-05 
6.5412e-06 6.31199e-05 -8.55856e-06 3.02947e-05 -3.74419e-05 -2.19942e-05 -7.56989e-06 2.24407e-05 -2.71311e-05 2.0859e-05 1.52608e-05 2.34561e-06 -2.42243e-05 2.44645e-05 3.104e-05 -4.53389e-05 
4.93699e-05 3.54495e-05 3.83184e-05 1.94087e-05 -1.55192e-05 -2.11027e-05 9.82079e-06 3.41225e-05 -3.26714e-05 1.36806e-05 2.25746e-05 6.68105e-06 -3.39038e-05 2.36286e-05 1.472e-05 -5.39234e-05 
2.89278e-05 4.44891e-05 1.5981e-05 2.2972e-05 -2.75527e-05 -1.74119e-05 2.45433e-08 2.62799e-05 -3.41942e-05 1.63545e-05 2.21067e-05 1.93872e-06 -2.6362e-05 1.90992e-05 1.99443e-05 -4.306e-05 
2.43094e-05 4.36507e-05 6.43688e-06 2.38231e-05 -2.29911e-05 -1.96903e-05 1.81288e-06 2.76827e-05 -2.03613e-05 1.48294e-05 1.93306e-05 3.33338e-06 -2.63267e-05 2.14655e-05 1.83243e-05 -4.47429e-05 
4.81562e-05 3.3926e-05 4.10585e-05 1.75915e-05 -1.48472e-05 -2.0068e-05 9.19849e-06 3.15485e-05 -3.47914e-05 1.33218e-05 2.0395e-05 6.87874e-06 -3.25426e-05 2.26958e-05 1.50673e-05 -5.1624e-05 
2.47101e-05 3.26297e-05 2.12237e-05 1.55102e-05 -1.82118e-05 -1.40774e-05 1.16469e-06 1.88261e-05 -2.89485e-05 1.23892e-05 1.31488e-05 3.48518e-06 -2.0898e-05 1.62607e-05 1.63796e-05 -3.48884e-05 
2.57731e-05 5.0463e-05 1.85801e-05 2.35754e-05 -3.36266e-05 -1.67964e-05 -3.88746e-06 2.2683e-05 -4.49775e-05 1.89706e-05 2.07076e-05 1.45346e-06 -2.54675e-05 1.88987e-05 2.53502e-05 -4.194e-05 
2.16057e-05 7.81828e-05 -8.12778e-06 4.12394e-05 -4.32668e-05 -3.12351e-05 -3.53131e-06 3.88266e-05 -2.85937e-05 2.5619e-05 2.71759e-05 3.72026e-06 -3.75889e-05 3.38845e-05 3.44234e-05 -6.65963e-05 
4.71775e-06 5.92797e-05 -5.00225e-06 2.72347e-05 -3.62192e-05 -1.95155e-05 -8.55937e-06 1.82474e-05 -2.98754e-05 1.99887e-05 1.25092e-05 2.08441e-06 -2.13321e-05 2.20615e-05 3.05574e-05 -4.04699e-05 
5.04186e-05 6.3728e-05 2.09575e-05 3.63682e-05 -3.65162e-05 -2.81163e-05 4.56471e-06 4.64275e-05 -4.22549e-05 2.30029e-05 3.83529e-05 3.23705e-06 -4.34787e-05 3.00874e-05 2.49322e-05 -6.93454e-05 
3.50653e-05 2.73816e-05 3.12099e-05 1.35151e-05 -1.30426e-05 -1.50909e-05 5.88147e-06 2.29085e-05 -2.85068e-05 1.07499e-05 1.48022e-05 5.08109e-06 -2.41718e-05 1.72137e-05 1.2874e-05 -3.87968e-05 
2.98625e-05 2.75828e-05 2.47986e-05 1.379e-05 -1.43063e-05 -1.39536e-05 4.18817e-06 2.10469e-05 -2.60178e-05 1.05884e-05 1.43491e-05 3.99233e-06 -2.18401e-05 1.58083e-05 1.27995e-05 -3.54432e-05 
2.3028e-05 7.64666e-05 -6.0806e-06 4.04985e-05 -4.2292e-05 -3.07413e-05 -3.01196e-06 3.87882e-05 -2.90605e-05 2.51917e-05 2.73838e-05 3.70253e-06 -3.75431e-05 3.33604e-05 3.35169e-05 -6.61333e-05 
3.11361e-05 5.27814e-05 1.92029e-05 2.60912e-05 -3.38855e-05 -1.90694e-05 -1.97011e-06 2.76558e-05 -4.41802e-05 1.96649e-05 2.4411e-05 1.83506e-06 -2.92049e-05 2.11174e-05 2.49844e-05 -4.75179e-05 
1.44743e-05 4.52185e-05 1.60103e-05 1.89998e-05 -3.08443e-05 -1.38699e-05 -6.11965e-06 1.42818e-05 -3.98692e-05 1.69221e-05 1.17209e-05 1.69352e-06 -1.84829e-05 1.65049e-05 2.5172e-05 -3.35369e-05 
5.7212e-06 6.26807e-05 -8.60454e-06 2.98736e-05 -3.73093e-05 -2.16218e-05 -7.85155e-06 2.16655e-05 -2.72291e-05 2.07017e-05 1.47255e-05 2.27656e-06 -2.36789e-05 2.40593e-05 3.10121e-05 -4.44201e-05 
2.20365e-05 3.24034e-05 1.19387e-05 1.70694e-05 -1.80134e-05 -1.4141e-05 1.33437e-06 2.04601e-05 -2.18157e-05 1.16732e-05 1.52412e-05 2.47558e-06 -2.04454e-05 1.56471e-05 1.43257e-05 -3.39181e-05 
-1.21227e-06 6.53049e-05 -1.02164e-05 2.91458e-05 -4.01443e-05 -2.0543e-05 -1.1267e-05 1.66812e-05 -3.08823e-05 2.16497e-05 1.08e-05 2.04473e-06 -2.08241e-05 2.32234e-05 3.44352e-05 -4.08221e-05 
-3.53138e-06 6.93196e-05 -1.21632e-05 3.05579e-05 -4.35257e-05 -2.11029e-05 -1.27856e-05 1.6331e-05 -3.29125e-05 2.29792e-05 1.06177e-05 1.83816e-06 -2.07378e-05 2.40592e-05 3.69595e-05 -4.16752e-05 
3.30153e-05 2.64565e-05 3.05194e-05 1.267e-05 -1.29074e-05 -1.42342e-05 5.20028e-06 2.11789e-05 -2.84264e-05 1.04502e-05 1.35849e-05 4.87587e-06 -2.27687e-05 1.63427e-05 1.28602e-05 -3.66823e-05 
2.57928e-05 3.19544e-05 2.00467e-05 1.58669e-05 -1.75586e-05 -1.43386e-05 1.98552e-06 2.02231e-05 -2.68352e-05 1.20195e-05 1.43091e-05 3.38599e-06 -2.14171e-05 1.63341e-05 1.5246e-05 -3.55146e-05 
-1.73684e-06 6.24248e-05 -8.40241e-06 2.73294e-05 -3.89476e-05 -1.91091e-05 -1.14025e-05 1.46963e-05 -3.15096e-05 2.09177e-05 9.4746e-06 1.90585e-06 -1.91967e-05 2.18427e-05 3.35986e-05 -3.81307e-05 
2.99108e-05 5.20782e-05 1.90845e-05 2.54336e-05 -3.37254e-05 -1.84903e-05 -2.38301e-06 2.64566e-05 -4.4296e-05 1.94589e-05 2.3506e-05 1.7502e-06 -2.82746e-05 2.0557e-05 2.4999e-05 -4.61309e-05 
4.39094e-05 3.13941e-05 3.53727e-05 1.67952e-05 -1.38065e-05 -1.86369e-05 8.60657e-06 2.98105e-05 -3.0065e-05 1.21557e-05 1.95402e-05 6.06814e-06 -3.00022e-05 2.09087e-05 1.33547e-05 -4.76703e-05 
-4.57121e-06 5.66676e-05 -6.82165e-06 2.36412e-05 -3.68319e-05 -1.59724e-05 -1.20593e-05 1.02466e-05 -3.16167e-05 1.92076e-05 6.70287e-06 1.33563e-06 -1.53135e-05 1.86382e-05 3.17415e-05 -3.16702e-05 
2.55536e-05 4.01132e-05 1.1681e-05 2.12868e-05 -2.10694e-05 -1.83384e-05 2.19588e-06 2.57225e-05 -2.26615e-05 1.39548e-05 1.7745e-05 3.61776e-06 -2.52798e-05 2.02014e-05 1.74447e-05 -4.25529e-05 
2.74527e-05 2.81845e-05 2.64013e-05 1.28476e-05 -1.50777e-05 -1.33279e-05 2.78882e-06 1.82837e-05 -2.89248e-05 1.09811e-05 1.18915e-05 4.18152e-06 -2.05431e-05 1.54684e-05 1.45066e-05 -3.38069e-05 
2.48158e-05 4.82568e-05 1.36225e-05 2.3894e-05 -3.0259e-05 -1.75934e-05 -2.22607e-06 2.42672e-05 -3.6518e-05 1.76245e-05 2.05488e-05 1.82149e-06 -2.55871e-05 1.95217e-05 2.28808e-05 -4.25143e-05 
7.60995e-06 6.14772e-05 -5.36365e-06 2.91597e-05 -3.68117e-05 -2.11746e-05 -7.53511e-06 2.14916e-05 -2.92109e-05 2.06017e-05 1.48729e-05 2.3168e-06 -2.37812e-05 2.36854e-05 3.06643e-05 -4.42566e-05 
2.61162e-05 4.22471e-05 1.57555e-05 2.11984e-05 -2.6707e-05 -1.59344e-05 -7.8821e-07 2.34156e-05 -3.40254e-05 1.56373e-05 1.99525e-05 1.7334e-06 -2.41018e-05 1.7596e-05 1.95882e-05 -3.95164e-05 
2.07647e-05 4.17853e-05 9.12275e-06 2.13782e-05 -2.45395e-05 -1.63887e-05 -9.86991e-07 2.21707e-05 -2.67757e-05 1.48856e-05 1.71854e-05 2.18279e-06 -2.27032e-05 1.82299e-05 1.92608e-05 -3.84574e-05 
3.91367e-05 5.73054e-05 1.99566e-05 3.03339e-05 -3.49644e-05 -2.2827e-05 7.4056e-07 3.54277e-05 -4.33911e-05 2.10458e-05 3.01798e-05 2.41786e-06 -3.51228e-05 2.48468e-05 2.49631e-05 -5.65537e-05 
2.72628e-05 3.10442e-05 2.24711e-05 1.50885e-05 -1.76759e-05 -1.40301e-05 2.39061e-06 2.03981e-05 -2.81393e-05 1.17651e-05 1.45984e-05 3.37956e-06 -2.14146e-05 1.59258e-05 1.48368e-05 -3.53356e-05 
1.62478e-05 7.15419e-05 2.08524e-05 2.95382e-05 -4.90806e-05 -2.06708e-05 -1.20261e-05 1.86466e-05 -6.16672e-05 2.66964e-05 1.55126e-05 2.15737e-06 -2.6356e-05 2.47995e-05 4.06783e-05 -4.90402e-05 
2.95131e-05 5.25896e-05 1.89067e-05 2.55741e-05 -3.4142e-05 -1.85495e-05 -2.62179e-06 2.63268e-05 -4.46025e-05 1.96181e-05 2.34144e-05 1.72444e-06 -2.82395e-05 2.06353e-05 2.53395e-05 -4.61758e-05 
6.51583e-06 6.31266e-05 -8.61307e-06 3.0311e-05 -3.74627e-05 -2.19747e-05 -7.57578e-06 2.24361e-05 -2.71171e-05 2.08629e-05 1.52523e-05 2.34646e-06 -2.42109e-05 2.44539e-05 3.10467e-05 -4.53418e-05 
2.29246e-05 3.59273e-05 9.69527e-06 1.93336e-05 -2.01111e-05 -1.55878e-05 1.33642e-06 2.29004e-05 -2.17629e-05 1.26936e-05 1.73088e-05 2.38118e-06 -2.22093e-05 1.70295e-05 1.53535e-05 -3.69031e-05 
1.50439e-05 4.99801e-05 1.7105e-05 2.10607e-05 -3.17269e-05 -1.60037e-05 -6.62718e-06 1.50895e-05 -4.24775e-05 1.86726e-05 1.12479e-05 2.74618e-06 -2.08305e-05 1.92512e-05 2.8306e-05 -3.76358e-05 
3.06737e-05 2.64498e-05 3.04698e-05 1.19109e-05 -1.36772e-05 -1.34313e-05 4.09347e-06 1.91233e-05 -2.97269e-05 1.05146e-05 1.21159e-05 4.68258e-06 -2.13309e-05 1.562e-05 1.36307e-05 -3.47194e-05 
-5.06587e-06 6.84381e-05 -1.23254e-05 2.97342e-05 -4.33291e-05 -2.03771e-05 -1.33091e-05 1.4827e-05 -3.30594e-05 2.27193e-05 9.48414e-06 1.72793e-06 -1.95756e-05 2.33502e-05 3.69755e-05 -3.99286e-05 
3.61015e-05 3.25237e-05 3.15838e-05 1.59046e-05 -1.67259e-05 -1.66172e-05 5.13615e-06 2.46831e-05 -3.19643e-05 1.26119e-05 1.63811e-05 5.06834e-06 -2.5999e-05 1.90212e-05 1.55044e-05 -4.2381e-05 
2.87089e-05 5.13915e-05 1.90206e-05 2.47809e-05 -3.35404e-05 -1.79351e-05 -2.78668e-06 2.52826e-05 -4.44271e-05 1.92456e-05 2.2645e-05 1.66177e-06 -2.73962e-05 1.99988e-05 2.49939e-05 -4.47635e-05 
2.99718e-05 3.25707e-05 2.26838e-05 1.65307e-05 -1.80676e-05 -1.52909e-05 3.3157e-06 2.30257e-05 -2.7851e-05 1.22494e-05 1.65176e-05 3.5863e-06 -2.33773e-05 1.72088e-05 1.48555e-05 -3.84108e-05 
2.64109e-05 5.01012e-05 1.88109e-05 2.35674e-05 -3.32216e-05 -1.6861e-05 -3.56972e-06 2.30579e-05 -4.46631e-05 1.88395e-05 2.1012e-05 1.48911e-06 -2.57281e-05 1.89154e-05 2.4985e-05 -4.21662e-05 
3.84125e-05 5.69001e-05 1.99149e-05 2.99491e-05 -3.48548e-05 -2.2492e-05 4.977e-07 3.47286e-05 -4.34671e-05 2.09177e-05 2.96719e-05 2.36345e-06 -3.45972e-05 2.45052e-05 2.49573e-05 -5.57384e-05 
1.66727e-05 4.61474e-05 3.53523e-06 2.32291e-05 -2.74351e-05 -1.72381e-05 -2.70945e-06 2.19335e-05 -2.61735e-05 1.59301e-05 1.70505e-05 1.87151e-06 -2.26156e-05 1.89001e-05 2.14148e-05 -3.88083e-05 
4.79965e-05 6.23516e-05 2.07122e-05 3.50813e-05 -3.6199e-05 -2.69742e-05 3.74561e-06 4.40681e-05 -4.24884e-05 2.259e-05 3.65875e-05 3.06452e-06 -4.16717e-05 2.89682e-05 2.49494e-05 -6.66098e-05 
1.39072e-05 9.00801e-05 3.19971e-05 3.32978e-05 -6.37174e-05 -2.33975e-05 -1.86049e-05 1.50246e-05 -8.65716e-05 3.41069e-05 1.24343e-05 3.21974e-06 -2.87704e-05 2.97356e-05 5.55219e-05 -5.5765e-05 
-3.31071e-06 6.94277e-05 -1.21788e-05 3.06681e-05 -4.35764e-05 -2.11946e-05 -1.2713e-05 1.65315e-05 -3.28768e-05 2.30278e-05 1.0738e-05 1.85879e-06 -2.08561e-05 2.41721e-05 3.69789e-05 -4.19158e-05 
2.28487e-05 3.62034e-05 1.89286e-05 1.7098e-05 -2.13033e-05 -1.44967e-05 -2.69389e-07 1.88273e-05 -3.06217e-05 1.35863e-05 1.37221e-05 3.00581e-06 -2.09922e-05 1.67247e-05 1.8271e-05 -3.5562e-05 
6.54814e-05 7.22589e-05 2.22455e-05 4.43977e-05 -3.86221e-05 -3.51589e-05 9.67704e-06 6.10747e-05 -4.07129e-05 2.56411e-05 4.91671e-05 4.34906e-06 -5.45388e-05 3.71311e-05 2.49424e-05 -8.64102e-05 
3.2273e-05 6.03655e-05 2.60134e-05 2.85798e-05 -3.55555e-05 -2.30412e-05 -2.39315e-06 2.83984e-05 -4.89438e-05 2.26488e-05 2.10614e-05 4.3577e-06 -3.2514e-05 2.69115e-05 3.0975e-05 -5.58381e-05 
-3.22574e-06 5.75965e-05 -9.44784e-06 2.51077e-05 -3.61061e-05 -1.74154e-05 -1.08815e-05 1.29519e-05 -2.81093e-05 1.91627e-05 8.23393e-06 1.63065e-06 -1.70274e-05 1.99066e-05 3.1052e-05 -3.42976e-05 
3.19294e-05 2.6563e-05 3.65454e-05 1.05196e-05 -1.4045e-05 -1.32127e-05 3.77128e-06 1.75782e-05 -3.47736e-05 1.09221e-05 1.03402e-05 5.35131e-06 -2.12708e-05 1.57664e-05 1.51645e-05 -3.4763e-05 
8.97479e-06 4.45874e-05 5.88305e-06 1.97768e-05 -2.78356e-05 -1.45647e-05 -6.00907e-06 1.40008e-05 -3.00997e-05 1.58413e-05 1.01235e-05 1.95021e-06 -1.75414e-05 1.69122e-05 2.39206e-05 -3.23067e-05 
3.62716e-05 5.56867e-05 1.96302e-05 2.88288e-05 -3.4612e-05 -2.14662e-05 -2.25799e-07 3.2647e-05 -4.36479e-05 2.05699e-05 2.8085e-05 2.21707e-06 -3.29583e-05 2.35247e-05 2.49968e-05 -5.33385e-05 
2.45616e-05 3.02032e-05 1.87521e-05 1.48689e-05 -1.77352e-05 -1.28108e-05 1.35917e-06 1.88441e-05 -2.72662e-05 1.14499e-05 1.45807e-05 2.58307e-06 -1.99171e-05 1.43888e-05 1.43191e-05 -3.23032e-05 
4.65283e-05 6.14834e-05 2.05788e-05 3.42694e-05 -3.60057e-05 -2.62784e-05 3.25092e-06 4.26083e-05 -4.26276e-05 2.23464e-05 3.54667e-05 2.96724e-06 -4.05265e-05 2.83119e-05 2.49792e-05 -6.49262e-05 
2.15664e-05 4.72047e-05 1.83456e-05 2.09313e-05 -3.24482e-05 -1.45698e-05 -5.16255e-06 1.834e-05 -4.49751e-05 1.79463e-05 1.74832e-05 1.14094e-06 -2.20989e-05 1.66391e-05 2.49076e-05 -3.6627e-05 
2.7768e-05 3.13215e-05 2.24874e-05 1.53565e-05 -1.77629e-05 -1.42582e-05 2.5647e-06 2.08821e-05 -2.80754e-05 1.18636e-05 1.49335e-05 3.42238e-06 -2.17549e-05 1.61748e-05 1.48543e-05 -3.59103e-05 
-3.90329e-07 5.56511e-05 -3.8741e-06 2.37858e-05 -3.5234e-05 -1.66907e-05 -1.04143e-05 1.24152e-05 -3.14898e-05 1.89672e-05 8.1439e-06 1.78275e-06 -1.71391e-05 1.93167e-05 3.06112e-05 -3.3936e-05 
1.37753e-05 4.7843e-05 3.51069e-06 2.32382e-05 -2.80742e-05 -1.76087e-05 -3.77589e-06 2.01207e-05 -2.66871e-05 1.65692e-05 1.43227e-05 2.42721e-06 -2.17721e-05 1.98695e-05 2.34764e-05 -3.89522e-05 
2.58651e-05 3.31912e-05 1.98007e-05 1.65055e-05 -1.84993e-05 -1.46583e-05 1.75691e-06 2.06451e-05 -2.74875e-05 1.24458e-05 1.47688e-05 3.307e-06 -2.18084e-05 1.66861e-05 1.58037e-05 -3.6268e-05 
4.07228e-05 8.2486e-05 -5.37572e-06 4.84645e-05 -4.20727e-05 -3.80418e-05 4.01772e-06 5.56813e-05 -2.3738e-05 2.67695e-05 3.99435e-05 4.83315e-06 -4.95113e-05 4.03812e-05 3.09474e-05 -8.39908e-05 
4.37667e-05 5.99061e-05 2.03508e-05 3.27839e-05 -3.56172e-05 -2.49866e-05 2.31284e-06 3.99109e-05 -4.29118e-05 2.18634e-05 3.3467e-05 2.76464e-06 -3.84829e-05 2.70258e-05 2.49822e-05 -6.17843e-05 
1.45661e-05 5.03782e-05 2.44715e-05 1.91825e-05 -3.30864e-05 -1.47639e-05 -8.40432e-06 1.12171e-05 -5.07536e-05 1.95431e-05 8.40518e-06 3.04337e-06 -1.9565e-05 1.86083e-05 3.09442e-05 -3.58125e-05 
1.46563e-05 6.78633e-05 -4.88661e-06 3.38249e-05 -3.96418e-05 -2.49692e-05 -5.7322e-06 2.87098e-05 -3.04799e-05 2.26899e-05 2.04059e-05 2.80841e-06 -2.95328e-05 2.75617e-05 3.20733e-05 -5.33393e-05 
3.13259e-05 2.68224e-05 3.05469e-05 1.22572e-05 -1.37565e-05 -1.37418e-05 4.31511e-06 1.97605e-05 -2.96674e-05 1.06233e-05 1.25987e-05 4.72805e-06 -2.18268e-05 1.59199e-05 1.36215e-05 -3.54566e-05 
3.22883e-05 2.87692e-05 2.54587e-05 1.48789e-05 -1.45565e-05 -1.49855e-05 4.98271e-06 2.31815e-05 -2.6067e-05 1.09689e-05 1.59106e-05 4.19775e-06 -2.353e-05 1.6844e-05 1.28093e-05 -3.79974e-05 
2.6731e-05 3.5191e-05 1.68724e-05 1.82394e-05 -2.05418e-05 -1.50261e-05 1.58486e-06 2.26519e-05 -2.76488e-05 1.30098e-05 1.77448e-05 2.51751e-06 -2.28352e-05 1.66344e-05 1.57315e-05 -3.72566e-05 
3.74838e-05 3.07428e-05 3.03479e-05 1.59279e-05 -1.48134e-05 -1.68412e-05 6.42993e-06 2.61643e-05 -2.86157e-05 1.17961e-05 1.73947e-05 5.12604e-06 -2.65863e-05 1.89823e-05 1.36361e-05 -4.28127e-05 
1.83539e-05 7.63464e-05 -8.48518e-06 3.95287e-05 -4.2856e-05 -2.96972e-05 -4.62564e-06 3.56707e-05 -2.88937e-05 2.50727e-05 2.48069e-05 3.49239e-06 -3.51586e-05 3.23883e-05 3.44545e-05 -6.29465e-05 
3.35308e-06 6.13269e-05 -8.87996e-06 2.86168e-05 -3.7021e-05 -2.04942e-05 -8.6509e-06 1.93526e-05 -2.74409e-05 2.03107e-05 1.29694e-05 2.11322e-06 -2.18727e-05 2.2976e-05 3.10489e-05 -4.17493e-05 
2.66182e-05 3.89056e-05 2.26366e-05 1.82753e-05 -2.26542e-05 -1.61222e-05 4.64095e-07 2.12445e-05 -3.35007e-05 1.45987e-05 1.50578e-05 3.61878e-06 -2.34824e-05 1.85096e-05 1.95424e-05 -3.96432e-05 
1.40889e-05 4.99496e-05 2.03096e-05 1.99652e-05 -3.31251e-05 -1.48575e-05 -7.93088e-06 1.26896e-05 -4.68572e-05 1.90567e-05 9.9197e-06 2.47165e-06 -1.9529e-05 1.82672e-05 2.94579e-05 -3.5741e-05 
2.4817e-05 4.67464e-05 4.90098e-06 2.57281e-05 -2.45678e-05 -2.10118e-05 1.72903e-06 2.95093e-05 -2.03986e-05 1.57331e-05 2.07248e-05 3.35732e-06 -2.78661e-05 2.27907e-05 1.93637e-05 -4.73708e-05 
5.29819e-05 6.51558e-05 2.11826e-05 3.77118e-05 -3.68712e-05 -2.93146e-05 5.43428e-06 4.88979e-05 -4.19971e-05 2.34517e-05 4.01609e-05 3.43074e-06 -4.53451e-05 3.13025e-05 2.49432e-05 -7.22279e-05 
1.27996e-05 4.93661e-05 1.91369e-05 1.96082e-05 -3.28892e-05 -1.44712e-05 -8.18742e-06 1.19726e-05 -4.59752e-05 1.8772e-05 9.40665e-06 2.32857e-06 -1.87951e-05 1.7798e-05 2.92063e-05 -3.45904e-05 
2.72451e-05 3.0578e-05 2.32101e-05 1.48626e-05 -1.63093e-05 -1.41928e-05 2.55814e-06 1.9878e-05 -2.78374e-05 1.17009e-05 1.35906e-05 3.84413e-06 -2.15492e-05 1.63215e-05 1.49635e-05 -3.55335e-05 
3.58381e-05 5.61368e-05 1.94693e-05 2.89119e-05 -3.50253e-05 -2.1502e-05 -4.72752e-07 3.24464e-05 -4.39513e-05 2.07345e-05 2.79019e-05 2.19858e-06 -3.28222e-05 2.36135e-05 2.53654e-05 -5.33154e-05 
2.45475e-05 4.80996e-05 1.35835e-05 2.37487e-05 -3.02284e-05 -1.74636e-05 -2.32266e-06 2.40012e-05 -3.65435e-05 1.75781e-05 2.03471e-05 1.79991e-06 -2.53783e-05 1.93914e-05 2.28833e-05 -4.22004e-05 
3.99037e-05 3.16855e-05 3.13147e-05 1.68255e-05 -1.49336e-05 -1.77635e-05 7.22326e-06 2.81052e-05 -2.8807e-05 1.21117e-05 1.87851e-05 5.35522e-06 -2.81647e-05 1.99191e-05 1.36065e-05 -4.51657e-05 
4.97153e-05 6.32931e-05 2.09295e-05 3.59563e-05 -3.64083e-05 -2.77879e-05 4.33114e-06 4.57115e-05 -4.233e-05 2.28843e-05 3.77994e-05 3.1926e-06 -4.29212e-05 2.97833e-05 2.49477e-05 -6.85216e-05 
5.37837e-05 3.89698e-05 3.85992e-05 2.21477e-05 -1.69853e-05 -2.34881e-05 1.11655e-05 3.88495e-05 -3.26279e-05 1.46781e-05 2.61812e-05 6.92788e-06 -3.75098e-05 2.5911e-05 1.50696e-05 -5.94687e-05 
2.28513e-05 5.42122e-05 8.93579e-08 2.95384e-05 -2.99178e-05 -2.28344e-05 -9.93726e-08 3.12957e-05 -2.221e-05 1.80979e-05 2.26509e-05 2.86607e-06 -2.93654e-05 2.4717e-05 2.2807e-05 -5.07578e-05 
3.93787e-05 5.80116e-05 1.88711e-05 3.10443e-05 -3.49214e-05 -2.34599e-05 1.06705e-06 3.64135e-05 -4.20884e-05 2.11513e-05 3.06335e-05 2.54453e-06 -3.5755e-05 2.54747e-05 2.49319e-05 -5.77365e-05 
3.25599e-05 5.35756e-05 1.94032e-05 2.68236e-05 -3.4045e-05 -1.97501e-05 -1.48835e-06 2.90288e-05 -4.40592e-05 1.98989e-05 2.54489e-05 1.93374e-06 -3.02724e-05 2.17739e-05 2.49644e-05 -4.91026e-05 
3.53953e-05 2.81833e-05 3.22199e-05 1.36776e-05 -1.36287e-05 -1.52689e-05 5.68741e-06 2.28672e-05 -2.98977e-05 1.11284e-05 1.47132e-05 5.19257e-06 -2.44208e-05 1.75275e-05 1.35634e-05 -3.93368e-05 
3.15112e-05 4.53007e-05 1.61979e-05 2.40777e-05 -2.74737e-05 -1.84515e-05 1.04776e-06 2.86608e-05 -3.34622e-05 1.65911e-05 2.38095e-05 2.13697e-06 -2.80435e-05 2.01305e-05 1.9605e-05 -4.56385e-05 
3.53323e-05 8.23044e-05 2.26336e-05 3.96377e-05 -5.16744e-05 -2.9623e-05 -5.55395e-06 3.71627e-05 -5.97548e-05 3.00123e-05 2.92077e-05 3.55799e-06 -4.03765e-05 3.37216e-05 4.0664e-05 -7.05858e-05 
2.01785e-05 4.3087e-05 4.92603e-06 2.2726e-05 -2.49479e-05 -1.72943e-05 -6.65012e-07 2.39188e-05 -2.34939e-05 1.49095e-05 1.83955e-05 2.04971e-06 -2.3399e-05 1.8845e-05 1.89203e-05 -3.96765e-05 
2.0955e-05 3.42771e-05 2.19255e-05 1.48894e-05 -2.0418e-05 -1.31231e-05 -1.1658e-06 1.53866e-05 -3.3023e-05 1.32146e-05 1.07542e-05 3.25303e-06 -1.90262e-05 1.56286e-05 1.88276e-05 -3.25644e-05 
3.25745e-05 5.51252e-05 4.86958e-06 3.16879e-05 -2.9681e-05 -2.46598e-05 2.69416e-06 3.73725e-05 -2.45253e-05 1.87343e-05 2.84019e-05 3.05858e-06 -3.42173e-05 2.63673e-05 2.14617e-05 -5.68187e-05 
-2.12933e-06 7.28501e-05 3.2633e-06 2.8581e-05 -4.93852e-05 -1.90314e-05 -1.67742e-05 1.05513e-05 -5.27349e-05 2.59393e-05 7.83368e-06 1.7035e-06 -1.95214e-05 2.301e-05 4.30379e-05 -4.00358e-05 
1.89383e-05 8.20404e-05 -1.01165e-05 4.25042e-05 -4.65941e-05 -3.16395e-05 -5.16844e-06 3.81763e-05 -3.06633e-05 2.68762e-05 2.68123e-05 3.47844e-06 -3.73224e-05 3.45327e-05 3.69176e-05 -6.70855e-05 
2.25826e-05 3.46203e-05 1.76808e-05 1.66519e-05 -1.99468e-05 -1.42738e-05 2.58285e-07 1.88928e-05 -2.82435e-05 1.28982e-05 1.36203e-05 3.00983e-06 -2.06247e-05 1.63706e-05 1.71273e-05 -3.48174e-05 
4.70193e-05 3.51352e-05 3.79332e-05 1.85612e-05 -1.60895e-05 -2.03023e-05 8.88134e-06 3.22734e-05 -3.32783e-05 1.35222e-05 2.12749e-05 6.44342e-06 -3.24772e-05 2.27777e-05 1.51063e-05 -5.18386e-05 
-7.83284e-07 5.79443e-05 -8.47264e-06 2.57785e-05 -3.59894e-05 -1.80767e-05 -1.0044e-05 1.47317e-05 -2.81337e-05 1.93182e-05 9.64196e-06 1.7606e-06 -1.83484e-05 2.0559e-05 3.06996e-05 -3.61877e-05 
2.65658e-05 3.42097e-05 2.14333e-05 1.67351e-05 -1.89712e-05 -1.50397e-05 1.63556e-06 2.07324e-05 -2.91945e-05 1.29169e-05 1.46331e-05 3.55941e-06 -2.23632e-05 1.72293e-05 1.66493e-05 -3.72479e-05 
2.40711e-06 6.07869e-05 -8.93508e-06 2.8104e-05 -3.68764e-05 -2.00572e-05 -8.96878e-06 1.84291e-05 -2.75441e-05 2.01416e-05 1.2292e-05 2.04405e-06 -2.11851e-05 2.25375e-05 3.10444e-05 -4.06737e-05 
9.60662e-05 8.95636e-05 2.5121e-05 6.06297e-05 -4.27516e-05 -4.95241e-05 2.00497e-05 9.07967e-05 -3.76873e-05 3.09267e-05 7.12302e-05 6.57799e-06 -7.71645e-05 5.13893e-05 2.48613e-05 -0.000120975 
4.54877e-05 6.08665e-05 2.04655e-05 3.36983e-05 -3.58861e-05 -2.57759e-05 2.90395e-06 4.15737e-05 -4.27095e-05 2.21873e-05 3.46523e-05 2.90328e-06 -3.96732e-05 2.7854e-05 2.50179e-05 -6.3744e-05 
1.35889e-05 4.83639e-05 1.56146e-05 2.03245e-05 -3.14993e-05 -1.50652e-05 -6.83412e-06 1.41842e-05 -4.10802e-05 1.80399e-05 1.09265e-05 2.27081e-06 -1.95038e-05 1.81043e-05 2.73363e-05 -3.553e-05 
5.42768e-05 5.85817e-05 2.09633e-05 3.55377e-05 -3.10679e-05 -2.87767e-05 8.10943e-06 4.94695e-05 -3.45609e-05 2.08788e-05 3.93699e-05 3.94178e-06 -4.46695e-05 3.04996e-05 2.06067e-05 -7.07724e-05 
-5.83987e-07 5.90915e-05 -9.22998e-06 2.65164e-05 -3.64792e-05 -1.86492e-05 -9.98431e-06 1.55196e-05 -2.78367e-05 1.9627e-05 1.01256e-05 1.82693e-06 -1.89641e-05 2.11451e-05 3.1057e-05 -3.72917e-05 
3.58016e-06 6.43362e-05 1.98003e-05 2.27601e-05 -4.72998e-05 -1.47379e-05 -1.63226e-05 6.3049e-06 -6.29649e-05 2.44798e-05 6.38235e-06 1.22765e-06 -1.70123e-05 1.88793e-05 4.06779e-05 -3.46682e-05 
4.689e-05 6.17118e-05 2.06245e-05 3.44794e-05 -3.60435e-05 -2.64558e-05 3.37225e-06 4.29811e-05 -4.26002e-05 2.23991e-05 3.57736e-05 2.98604e-06 -4.08405e-05 2.84604e-05 2.49562e-05 -6.53481e-05 
4.03371e-06 5.61736e-05 -5.90546e-06 2.59521e-05 -3.42485e-05 -1.85789e-05 -8.02651e-06 1.74919e-05 -2.72327e-05 1.88232e-05 1.19391e-05 1.93827e-06 -2.01482e-05 2.09516e-05 2.87588e-05 -3.83201e-05 
3.03004e-05 4.5255e-05 1.60746e-05 2.36996e-05 -2.77616e-05 -1.80447e-05 4.93546e-07 2.76052e-05 -3.40397e-05 1.66068e-05 2.30592e-05 2.0467e-06 -2.73293e-05 1.97558e-05 1.99655e-05 -4.46166e-05 
3.3044e-05 2.57989e-05 3.3511e-05 1.15027e-05 -1.26273e-05 -1.37871e-05 4.94064e-06 1.97375e-05 -3.07035e-05 1.04135e-05 1.21347e-05 5.21302e-06 -2.22406e-05 1.60728e-05 1.34366e-05 -3.58664e-05 
2.37356e-05 4.76356e-05 1.35073e-05 2.3314e-05 -3.01196e-05 -1.70815e-05 -2.59737e-06 2.32082e-05 -3.66231e-05 1.74393e-05 1.97538e-05 1.74188e-06 -2.47707e-05 1.90164e-05 2.28886e-05 -4.12801e-05 
3.06206e-05 2.78869e-05 2.51081e-05 1.40721e-05 -1.43681e-05 -1.42353e-05 4.42887e-06 2.16484e-05 -2.61052e-05 1.06957e-05 1.47808e-05 4.06179e-06 -2.23235e-05 1.60985e-05 1.28033e-05 -3.61783e-05 
3.10886e-05 2.51248e-05 3.08725e-05 1.13916e-05 -1.24889e-05 -1.32294e-05 4.53305e-06 1.9038e-05 -2.89098e-05 1.00576e-05 1.19368e-05 4.78989e-06 -2.12344e-05 1.53589e-05 1.28778e-05 -3.42912e-05 
3.09661e-05 2.40682e-05 3.41551e-05 9.92539e-06 -1.20599e-05 -1.25584e-05 4.22412e-06 1.72306e-05 -3.1343e-05 9.92289e-06 1.01956e-05 5.12873e-06 -2.04281e-05 1.4887e-05 1.33942e-05 -3.305e-05 
1.71385e-05 4.48405e-05 1.80385e-05 1.86131e-05 -3.1917e-05 -1.25257e-05 -6.722e-06 1.40338e-05 -4.56169e-05 1.72129e-05 1.43516e-05 8.00835e-07 -1.8907e-05 1.45708e-05 2.49751e-05 -3.16433e-05 
2.49516e-05 3.04275e-05 1.88018e-05 1.50761e-05 -1.778e-05 -1.2998e-05 1.49131e-06 1.9226e-05 -2.72332e-05 1.15128e-05 1.48738e-05 2.60945e-06 -2.02202e-05 1.45664e-05 1.43107e-05 -3.27436e-05 
1.15717e-05 6.59425e-05 -8.09574e-06 3.29463e-05 -3.81331e-05 -2.43475e-05 -5.86626e-06 2.73086e-05 -2.66242e-05 2.17381e-05 1.88456e-05 2.71748e-06 -2.78901e-05 2.68216e-05 3.10473e-05 -5.10067e-05 
2.96687e-06 6.11043e-05 -8.88545e-06 2.84026e-05 -3.69544e-05 -2.0319e-05 -8.77858e-06 1.89738e-05 -2.74865e-05 2.02402e-05 1.26942e-05 2.08551e-06 -2.15949e-05 2.27994e-05 3.1045e-05 -4.13087e-05 
2.04568e-05 3.83569e-05 1.93632e-05 1.71922e-05 -2.33827e-05 -1.42333e-05 -1.94743e-06 1.68821e-05 -3.38171e-05 1.44923e-05 1.23289e-05 2.90284e-06 -2.01595e-05 1.67353e-05 2.04341e-05 -3.48058e-05 
4.43224e-05 6.02713e-05 2.03794e-05 3.31277e-05 -3.56966e-05 -2.52516e-05 2.50059e-06 4.04964e-05 -4.28556e-05 2.19531e-05 3.39397e-05 2.79645e-06 -3.89593e-05 2.72562e-05 2.49562e-05 -6.24554e-05 
1.67143e-05 5.15855e-05 2.46145e-05 2.03284e-05 -3.34118e-05 -1.57571e-05 -7.67009e-06 1.32978e-05 -5.05159e-05 1.99343e-05 9.90891e-06 3.21153e-06 -2.11013e-05 1.96344e-05 3.09718e-05 -3.82555e-05 
0.000130909 0.000145365 1.92935e-07 0.000101944 -6.18566e-05 -8.41529e-05 3.27988e-05 0.000146956 -1.9482e-05 4.62977e-05 0.000107401 1.16686e-05 -0.000119861 8.6774e-05 3.67552e-05 -0.000193647 
3.26737e-05 2.76603e-05 2.784e-05 1.38401e-05 -1.36649e-05 -1.46787e-05 5.13562e-06 2.22558e-05 -2.70789e-05 1.0723e-05 1.47435e-05 4.57341e-06 -2.32039e-05 1.6684e-05 1.28469e-05 -3.74577e-05 
1.91451e-05 4.78673e-05 1.64137e-05 2.14918e-05 -3.14928e-05 -1.60568e-05 -4.5327e-06 1.88269e-05 -3.93939e-05 1.77372e-05 1.50828e-05 2.03797e-06 -2.19276e-05 1.8689e-05 2.51703e-05 -3.88319e-05 
3.00091e-05 2.76156e-05 2.61003e-05 1.34602e-05 -1.45105e-05 -1.38127e-05 4.01552e-06 2.05992e-05 -2.72958e-05 1.06838e-05 1.39899e-05 4.0701e-06 -2.17413e-05 1.57167e-05 1.31472e-05 -3.5273e-05 
3.90333e-05 6.38617e-05 3.1996e-06 3.78629e-05 -3.32188e-05 -3.01018e-05 4.86656e-06 4.63486e-05 -2.29766e-05 2.12583e-05 3.40532e-05 3.94191e-06 -4.09756e-05 3.20703e-05 2.35339e-05 -6.87181e-05 
1.45672e-05 5.00452e-05 9.9491e-07 2.48795e-05 -2.98532e-05 -1.86433e-05 -3.43358e-06 2.25945e-05 -2.54436e-05 1.69933e-05 1.64978e-05 2.14173e-06 -2.30026e-05 2.06309e-05 2.35374e-05 -4.10614e-05 
3.29202e-05 5.37949e-05 1.93602e-05 2.70447e-05 -3.41343e-05 -1.99044e-05 -1.36072e-06 2.93936e-05 -4.39959e-05 1.99794e-05 2.56935e-05 1.96866e-06 -3.05153e-05 2.1956e-05 2.49874e-05 -4.95469e-05 
4.15354e-05 5.8692e-05 2.01537e-05 3.16384e-05 -3.53e-05 -2.39512e-05 1.55339e-06 3.77854e-05 -4.31458e-05 2.14613e-05 3.19441e-05 2.58888e-06 -3.69191e-05 2.59492e-05 2.49491e-05 -5.92927e-05 
2.96751e-05 5.19428e-05 1.91662e-05 2.52842e-05 -3.36368e-05 -1.84034e-05 -2.46947e-06 2.62249e-05 -4.4358e-05 1.93905e-05 2.33842e-05 1.71926e-06 -2.81592e-05 2.04208e-05 2.49577e-05 -4.58316e-05 
2.58228e-05 2.95876e-05 2.02868e-05 1.45716e-05 -1.69784e-05 -1.29574e-05 1.90023e-06 1.9193e-05 -2.74505e-05 1.12818e-05 1.4596e-05 2.85514e-06 -2.03514e-05 1.45632e-05 1.40132e-05 -3.2808e-05 
3.12328e-05 2.52032e-05 3.08502e-05 1.14732e-05 -1.25284e-05 -1.32882e-05 4.584e-06 1.91758e-05 -2.88815e-05 1.00928e-05 1.20185e-05 4.80562e-06 -2.13149e-05 1.54367e-05 1.28938e-05 -3.44622e-05 
3.63955e-05 2.91103e-05 3.69249e-05 1.29136e-05 -1.46635e-05 -1.53081e-05 5.28418e-06 2.19358e-05 -3.43243e-05 1.16948e-05 1.35799e-05 5.67588e-06 -2.45937e-05 1.78432e-05 1.5151e-05 -3.98309e-05 
7.65037e-05 7.84864e-05 2.32165e-05 5.02564e-05 -4.0155e-05 -4.03149e-05 1.3425e-05 7.17804e-05 -3.95857e-05 2.75762e-05 5.70603e-05 5.16795e-06 -6.26126e-05 4.2301e-05 2.49579e-05 -9.88915e-05 
1.28204e-05 6.26438e-05 2.01489e-05 2.4838e-05 -4.31475e-05 -1.75439e-05 -1.13279e-05 1.41653e-05 -5.64622e-05 2.35254e-05 1.16435e-05 2.17001e-06 -2.21492e-05 2.14919e-05 3.6807e-05 -4.16265e-05 
5.48331e-06 5.70101e-05 -5.74232e-06 2.67295e-05 -3.4425e-05 -1.92702e-05 -7.53794e-06 1.89147e-05 -2.71042e-05 1.90609e-05 1.30271e-05 2.03571e-06 -2.12691e-05 2.16084e-05 2.87305e-05 -3.996e-05 
1.64574e-05 4.99617e-05 1.5808e-05 2.18717e-05 -3.17734e-05 -1.6432e-05 -5.86395e-06 1.69797e-05 -4.06809e-05 1.85364e-05 1.29716e-05 2.49842e-06 -2.16426e-05 1.94447e-05 2.73069e-05 -3.87938e-05 
3.00632e-05 5.79621e-05 6.84221e-06 3.18098e-05 -3.10333e-05 -2.52213e-05 1.20243e-06 3.52469e-05 -2.75342e-05 1.98757e-05 2.55003e-05 3.75254e-06 -3.38372e-05 2.76039e-05 2.45101e-05 -5.7526e-05 
2.83195e-05 3.0852e-05 1.84681e-05 1.64655e-05 -1.69096e-05 -1.44708e-05 3.22133e-06 2.26545e-05 -2.47013e-05 1.14867e-05 1.70881e-05 2.94395e-06 -2.24627e-05 1.59653e-05 1.32638e-05 -3.61859e-05 
2.49099e-05 4.92514e-05 1.86533e-05 2.27734e-05 -3.30266e-05 -1.61527e-05 -4.07988e-06 2.15985e-05 -4.48079e-05 1.85824e-05 1.99235e-05 1.38002e-06 -2.46117e-05 1.82158e-05 2.49928e-05 -4.04703e-05 
5.78378e-05 4.13797e-05 3.92058e-05 2.43484e-05 -1.73719e-05 -2.54743e-05 1.25092e-05 4.28886e-05 -3.23555e-05 1.52677e-05 2.94354e-05 7.15242e-06 -4.08942e-05 2.76427e-05 1.48587e-05 -6.40361e-05 
4.6701e-05 3.30979e-05 4.08947e-05 1.6821e-05 -1.46646e-05 -1.9379e-05 8.70832e-06 3.01303e-05 -3.49262e-05 1.30775e-05 1.93259e-05 6.77745e-06 -3.14507e-05 2.20294e-05 1.50838e-05 -4.99849e-05 
3.12429e-05 5.09532e-05 1.69931e-05 2.6151e-05 -3.12838e-05 -1.96959e-05 -5.31842e-07 2.89056e-05 -3.8619e-05 1.87214e-05 2.41884e-05 2.25613e-06 -2.94487e-05 2.17548e-05 2.32263e-05 -4.83343e-05 
5.13332e-05 3.57306e-05 4.13687e-05 1.92793e-05 -1.52671e-05 -2.15651e-05 1.02688e-05 3.46405e-05 -3.44889e-05 1.38615e-05 2.27079e-05 7.10454e-06 -3.49179e-05 2.41631e-05 1.50449e-05 -5.52075e-05 
3.02749e-05 2.90268e-05 2.95009e-05 1.30908e-05 -1.56754e-05 -1.39659e-05 3.40407e-06 1.96276e-05 -3.11309e-05 1.13863e-05 1.2828e-05 4.49894e-06 -2.18589e-05 1.61992e-05 1.49347e-05 -3.5806e-05 
2.59447e-05 2.88688e-05 1.97991e-05 1.44751e-05 -1.62694e-05 -1.29782e-05 2.28106e-06 1.94771e-05 -2.61105e-05 1.09582e-05 1.46691e-05 2.88539e-06 -2.03512e-05 1.45289e-05 1.33877e-05 -3.27735e-05 
2.28025e-06 6.07196e-05 -8.9481e-06 2.80405e-05 -3.68583e-05 -1.99985e-05 -9.01324e-06 1.83096e-05 -2.75583e-05 2.01178e-05 1.22089e-05 2.03286e-06 -2.11e-05 2.24733e-05 3.10404e-05 -4.05315e-05 
4.60804e-05 9.74097e-05 -7.47748e-06 5.68981e-05 -5.02145e-05 -4.44025e-05 4.01498e-06 6.45594e-05 -2.80119e-05 3.15402e-05 4.64517e-05 5.43621e-06 -5.74358e-05 4.71323e-05 3.68037e-05 -9.7724e-05 
3.20536e-05 5.43321e-05 6.31324e-06 3.0782e-05 -2.97592e-05 -2.38415e-05 2.16558e-06 3.59609e-05 -2.63115e-05 1.86256e-05 2.76853e-05 2.90741e-06 -3.33865e-05 2.55357e-05 2.15999e-05 -5.52603e-05 
3.96757e-05 3.0606e-05 3.26246e-05 1.59508e-05 -1.42084e-05 -1.7278e-05 7.14213e-06 2.70282e-05 -2.94701e-05 1.1872e-05 1.77979e-05 5.50666e-06 -2.75783e-05 1.95271e-05 1.35566e-05 -4.41804e-05 
6.76656e-05 7.34871e-05 2.24193e-05 4.55573e-05 -3.89363e-05 -3.61756e-05 1.04202e-05 6.31908e-05 -4.0483e-05 2.60298e-05 5.07137e-05 4.51438e-06 -5.61211e-05 3.81629e-05 2.49557e-05 -8.88831e-05 
8.68276e-06 6.43328e-05 -8.33244e-06 3.14274e-05 -3.7721e-05 -2.30038e-05 -6.84443e-06 2.4523e-05 -2.69243e-05 2.12261e-05 1.68144e-05 2.49997e-06 -2.58111e-05 2.54584e-05 3.10287e-05 -4.77561e-05 
1.95558e-05 5.31986e-05 2.48839e-05 2.18401e-05 -3.37912e-05 -1.70939e-05 -6.71016e-06 1.60643e-05 -5.02382e-05 2.04204e-05 1.19738e-05 3.41423e-06 -2.32174e-05 2.09483e-05 3.09548e-05 -4.14643e-05 
7.68371e-06 6.3772e-05 -8.46858e-06 3.09097e-05 -3.76052e-05 -2.25277e-05 -7.18157e-06 2.35564e-05 -2.70119e-05 2.10601e-05 1.60849e-05 2.43054e-06 -2.50668e-05 2.49992e-05 3.10412e-05 -4.66401e-05 
1.44323e-05 5.00289e-05 2.05454e-05 2.00566e-05 -3.30931e-05 -1.49641e-05 -7.82796e-06 1.29218e-05 -4.69366e-05 1.90847e-05 1.01127e-05 2.49694e-06 -1.97467e-05 1.83682e-05 2.94297e-05 -3.60207e-05 
2.02623e-05 7.09016e-05 -7.23612e-06 3.75844e-05 -3.92746e-05 -2.84477e-05 -2.92589e-06 3.57903e-05 -2.57893e-05 2.32154e-05 2.52061e-05 3.33463e-06 -3.44142e-05 3.0832e-05 3.09766e-05 -6.08413e-05 
9.24118e-06 6.47157e-05 -8.23572e-06 3.17691e-05 -3.77494e-05 -2.3295e-05 -6.6703e-06 2.51233e-05 -2.69131e-05 2.12791e-05 1.73669e-05 2.51122e-06 -2.63987e-05 2.56484e-05 3.09452e-05 -4.8402e-05 
1.09324e-05 5.74648e-05 -2.65458e-06 2.78607e-05 -3.41412e-05 -2.05372e-05 -5.69993e-06 2.24648e-05 -2.77457e-05 1.93559e-05 1.57663e-05 2.38094e-06 -2.39798e-05 2.29515e-05 2.80238e-05 -4.38933e-05 
2.79817e-05 5.0989e-05 1.89718e-05 2.43985e-05 -3.34287e-05 -1.76007e-05 -3.03391e-06 2.4584e-05 -4.45082e-05 1.91116e-05 2.21457e-05 1.60448e-06 -2.68889e-05 1.96503e-05 2.49807e-05 -4.3943e-05 
3.93818e-05 5.74839e-05 2.00987e-05 3.04721e-05 -3.49229e-05 -2.29796e-05 8.14863e-07 3.57003e-05 -4.34211e-05 2.10435e-05 3.04838e-05 2.41043e-06 -3.54497e-05 2.49042e-05 2.4883e-05 -5.68225e-05 
7.84125e-06 5.61937e-05 -5.20608e-06 2.69653e-05 -3.33739e-05 -1.97384e-05 -6.33978e-06 2.06861e-05 -2.57847e-05 1.86845e-05 1.43922e-05 2.15537e-06 -2.23948e-05 2.19072e-05 2.75375e-05 -4.1243e-05 
6.33151e-05 0.000107109 -6.22537e-06 6.60828e-05 -5.27647e-05 -5.23932e-05 9.88834e-06 8.12683e-05 -2.61412e-05 3.46456e-05 5.86024e-05 6.75829e-06 -6.98307e-05 5.5302e-05 3.69619e-05 -0.000117287 
1.83692e-05 7.63214e-05 -8.49213e-06 3.951e-05 -4.28706e-05 -2.96935e-05 -4.62208e-06 3.56566e-05 -2.88813e-05 2.50873e-05 2.47592e-05 3.50087e-06 -3.50999e-05 3.24134e-05 3.44805e-05 -6.29398e-05 
2.38981e-05 3.20803e-05 2.13489e-05 1.4782e-05 -1.89137e-05 -1.34171e-05 7.86256e-07 1.80177e-05 -2.95492e-05 1.21766e-05 1.27874e-05 3.20354e-06 -1.99364e-05 1.54598e-05 1.63094e-05 -3.34879e-05 
5.10418e-05 6.40193e-05 2.1006e-05 3.66508e-05 -3.66241e-05 -2.83901e-05 4.78486e-06 4.69801e-05 -4.21683e-05 2.31389e-05 3.86852e-05 3.3028e-06 -4.38073e-05 3.04296e-05 2.49883e-05 -7.00212e-05 
5.20426e-05 3.61112e-05 4.13778e-05 1.96539e-05 -1.54029e-05 -2.1878e-05 1.05243e-05 3.53141e-05 -3.43815e-05 1.40148e-05 2.31478e-05 7.17354e-06 -3.5356e-05 2.45339e-05 1.50915e-05 -5.60271e-05 
4.35877e-05 5.98179e-05 2.03661e-05 3.2694e-05 -3.55743e-05 -2.49119e-05 2.25233e-06 3.97488e-05 -4.29414e-05 2.18224e-05 3.33733e-05 2.74549e-06 -3.83868e-05 2.69275e-05 2.49626e-05 -6.15855e-05 
2.48256e-05 5.52686e-05 1.63521e-05 2.65725e-05 -3.27382e-05 -2.07768e-05 -2.93982e-06 2.53368e-05 -3.96311e-05 2.01186e-05 1.88629e-05 3.35771e-06 -2.82075e-05 2.38437e-05 2.76304e-05 -4.8889e-05 
1.96841e-05 3.61343e-05 1.00202e-05 1.82238e-05 -1.95736e-05 -1.56279e-05 5.69901e-07 2.04454e-05 -2.15128e-05 1.25981e-05 1.37913e-05 3.14163e-06 -2.09702e-05 1.73765e-05 1.67144e-05 -3.58492e-05 
1.37585e-05 4.64667e-05 6.10558e-06 2.20232e-05 -2.79922e-05 -1.65683e-05 -4.19448e-06 1.85647e-05 -2.89426e-05 1.63794e-05 1.35266e-05 2.25654e-06 -2.08086e-05 1.88683e-05 2.34092e-05 -3.72434e-05 
7.89627e-05 5.13551e-05 4.38508e-05 3.39653e-05 -1.9076e-05 -3.45019e-05 1.96514e-05 6.14878e-05 -3.16868e-05 1.86868e-05 4.25505e-05 9.14034e-06 -5.52106e-05 3.70822e-05 1.5045e-05 -8.64749e-05 
3.71845e-05 2.8571e-05 3.13982e-05 1.46348e-05 -1.33397e-05 -1.60802e-05 6.60413e-06 2.496e-05 -2.82863e-05 1.11261e-05 1.63042e-05 5.24214e-06 -2.57055e-05 1.82163e-05 1.28853e-05 -4.11945e-05 
4.06972e-05 2.97022e-05 4.03418e-05 1.36339e-05 -1.38495e-05 -1.65613e-05 6.67443e-06 2.42967e-05 -3.55227e-05 1.20397e-05 1.49982e-05 6.34048e-06 -2.70137e-05 1.92323e-05 1.50985e-05 -4.32024e-05 
3.83853e-05 8.765e-05 -6.6905e-06 5.01549e-05 -4.56257e-05 -3.90702e-05 2.17223e-06 5.51131e-05 -2.68585e-05 2.85774e-05 3.91524e-05 4.97235e-06 -4.98247e-05 4.17654e-05 3.44711e-05 -8.55935e-05 
-1.84135e-06 7.30059e-05 3.29879e-06 2.87305e-05 -4.94115e-05 -1.91667e-05 -1.66742e-05 1.08324e-05 -5.27039e-05 2.59813e-05 8.05101e-06 1.72247e-06 -1.97455e-05 2.3137e-05 4.30245e-05 -4.03555e-05 
1.94287e-05 4.61425e-05 1.81815e-05 1.98485e-05 -3.22632e-05 -1.35873e-05 -5.94196e-06 1.62648e-05 -4.5367e-05 1.76244e-05 1.59803e-05 9.75433e-07 -2.05747e-05 1.56525e-05 2.49925e-05 -3.42556e-05 
3.12096e-05 2.81517e-05 2.53459e-05 1.43026e-05 -1.44179e-05 -1.44747e-05 4.61648e-06 2.2127e-05 -2.61691e-05 1.07865e-05 1.51168e-05 4.12094e-06 -2.27145e-05 1.63456e-05 1.282e-05 -3.67742e-05 
3.15859e-05 4.8644e-05 2.03133e-05 2.43733e-05 -3.05952e-05 -1.93367e-05 2.56742e-07 2.84543e-05 -3.77197e-05 1.78746e-05 2.26306e-05 2.62904e-06 -2.83811e-05 2.15594e-05 2.24135e-05 -4.78957e-05 
4.86324e-05 3.4169e-05 4.10342e-05 1.78379e-05 -1.49596e-05 -2.02685e-05 9.37131e-06 3.19882e-05 -3.47071e-05 1.3438e-05 2.06507e-05 6.93275e-06 -3.2794e-05 2.29633e-05 1.5123e-05 -5.21742e-05 
4.62529e-05 3.46888e-05 3.78268e-05 1.81519e-05 -1.60109e-05 -1.99301e-05 8.62943e-06 3.15166e-05 -3.33354e-05 1.34081e-05 2.06757e-05 6.39845e-06 -3.18588e-05 2.24453e-05 1.51391e-05 -5.09817e-05 
2.72677e-05 3.85741e-05 1.28875e-05 2.08693e-05 -1.97449e-05 -1.8338e-05 3.14871e-06 2.64525e-05 -2.17616e-05 1.34542e-05 1.81585e-05 3.78412e-06 -2.56609e-05 2.01572e-05 1.63427e-05 -4.28841e-05 
1.55405e-05 5.0852e-05 2.32809e-05 1.99979e-05 -3.31871e-05 -1.53321e-05 -7.85384e-06 1.27469e-05 -4.9387e-05 1.95755e-05 9.61494e-06 2.98327e-06 -2.03836e-05 1.90505e-05 3.04905e-05 -3.70699e-05 
4.9656e-05 3.72e-05 3.22814e-05 2.19854e-05 -1.62249e-05 -2.23528e-05 1.05183e-05 3.75778e-05 -2.78629e-05 1.37818e-05 2.58411e-05 6.05645e-06 -3.53938e-05 2.44428e-05 1.35599e-05 -5.61586e-05 
1.09072e-05 4.57175e-05 4.05277e-06 2.13299e-05 -2.77321e-05 -1.58747e-05 -4.89797e-06 1.68608e-05 -2.76758e-05 1.59873e-05 1.211e-05 2.08756e-06 -1.93136e-05 1.81147e-05 2.33619e-05 -3.50817e-05 
4.61426e-05 3.27635e-05 4.08085e-05 1.65181e-05 -1.46161e-05 -1.91025e-05 8.52722e-06 2.95728e-05 -3.49568e-05 1.30027e-05 1.88678e-05 6.74901e-06 -3.09687e-05 2.17978e-05 1.51208e-05 -4.93606e-05 
5.74734e-05 4.10714e-05 3.90053e-05 2.41049e-05 -1.7445e-05 -2.52369e-05 1.24061e-05 4.24484e-05 -3.2292e-05 1.52896e-05 2.89042e-05 7.18227e-06 -4.0306e-05 2.75952e-05 1.50171e-05 -6.36225e-05 
3.34465e-05 2.59834e-05 3.30912e-05 1.1838e-05 -1.26869e-05 -1.39764e-05 5.12531e-06 2.03134e-05 -3.02759e-05 1.04499e-05 1.26527e-05 5.16323e-06 -2.25485e-05 1.62261e-05 1.32682e-05 -3.63312e-05 
1.10055e-05 6.00668e-05 1.10458e-05 2.55557e-05 -4.00057e-05 -1.79501e-05 -9.79431e-06 1.63253e-05 -4.58718e-05 2.18238e-05 1.29452e-05 1.84303e-06 -2.18753e-05 2.11713e-05 3.32978e-05 -4.0924e-05 
1.13155e-05 7.23557e-05 -9.19613e-06 3.5797e-05 -4.19318e-05 -2.63796e-05 -7.00997e-06 2.88251e-05 -2.95724e-05 2.3869e-05 1.96963e-05 2.98738e-06 -2.99197e-05 2.91248e-05 3.44949e-05 -5.50002e-05 
3.13988e-05 2.62767e-05 3.65011e-05 1.02479e-05 -1.39676e-05 -1.29684e-05 3.59032e-06 1.70738e-05 -3.48327e-05 1.08246e-05 9.98212e-06 5.30943e-06 -2.09074e-05 1.55105e-05 1.51547e-05 -3.41715e-05 
2.35539e-05 7.27341e-05 -7.0311e-06 3.933e-05 -3.97855e-05 -2.9961e-05 -1.79742e-06 3.89645e-05 -2.54123e-05 2.38261e-05 2.74736e-05 3.59801e-06 -3.6723e-05 3.24183e-05 3.10382e-05 -6.45791e-05 
3.06359e-05 2.39909e-05 3.944e-05 8.27038e-06 -1.24727e-05 -1.18412e-05 3.26338e-06 1.45026e-05 -3.65296e-05 1.02982e-05 7.72796e-06 5.60634e-06 -1.95627e-05 1.4546e-05 1.5123e-05 -3.18097e-05 
1.21052e-05 4.87358e-05 1.36882e-06 2.36086e-05 -2.92432e-05 -1.74853e-05 -4.44295e-06 1.9804e-05 -2.62816e-05 1.67393e-05 1.43344e-05 2.06742e-06 -2.12363e-05 1.96061e-05 2.38342e-05 -3.83435e-05 
3.06255e-05 5.94318e-05 2.5877e-05 2.76996e-05 -3.53229e-05 -2.2272e-05 -2.95383e-06 2.6795e-05 -4.91154e-05 2.23589e-05 1.98796e-05 4.23506e-06 -3.13061e-05 2.61392e-05 3.09723e-05 -5.39679e-05 
3.25326e-06 5.82046e-05 -5.17325e-06 2.63481e-05 -3.58964e-05 -1.87444e-05 -9.0094e-06 1.6775e-05 -2.98786e-05 1.96536e-05 1.14257e-05 1.96537e-06 -2.01524e-05 2.12875e-05 3.04311e-05 -3.86483e-05 
2.98339e-05 5.10743e-05 1.40278e-05 2.65532e-05 -3.09796e-05 -1.99274e-05 -5.23243e-07 2.91257e-05 -3.59896e-05 1.85171e-05 2.41e-05 2.19873e-06 -2.92083e-05 2.18842e-05 2.29104e-05 -4.81857e-05 
2.0261e-05 3.93348e-05 8.13502e-06 2.04786e-05 -2.28502e-05 -1.57875e-05 -4.80119e-07 2.17993e-05 -2.41486e-05 1.39325e-05 1.67891e-05 2.08464e-06 -2.18615e-05 1.74277e-05 1.77068e-05 -3.69654e-05 
3.02181e-05 2.5597e-05 3.63944e-05 9.61117e-06 -1.38058e-05 -1.24129e-05 3.18994e-06 1.5918e-05 -3.4948e-05 1.06206e-05 9.11831e-06 5.22391e-06 -2.00216e-05 1.49632e-05 1.51598e-05 -3.28265e-05 
2.72145e-05 3.62179e-05 1.86444e-05 1.85442e-05 -2.00335e-05 -1.60643e-05 1.9199e-06 2.29381e-05 -2.76586e-05 1.34033e-05 1.65807e-05 3.34378e-06 -2.36245e-05 1.81241e-05 1.67079e-05 -3.93355e-05 
1.67812e-05 6.14969e-05 -3.10617e-06 3.15286e-05 -3.49577e-05 -2.37768e-05 -3.62776e-06 2.87773e-05 -2.63826e-05 2.05003e-05 2.03329e-05 2.87619e-06 -2.87981e-05 2.60983e-05 2.81048e-05 -5.12591e-05 
-7.25302e-07 7.08853e-05 -1.19514e-05 3.20391e-05 -4.39351e-05 -2.24038e-05 -1.18366e-05 1.90396e-05 -3.26142e-05 2.34799e-05 1.25881e-05 2.04919e-06 -2.2749e-05 2.53815e-05 3.69811e-05 -4.48363e-05 
3.15956e-05 2.84309e-05 2.51946e-05 1.45845e-05 -1.45056e-05 -1.46896e-05 4.76124e-06 2.25894e-05 -2.60034e-05 1.08696e-05 1.54664e-05 4.13639e-06 -2.30234e-05 1.65614e-05 1.28107e-05 -3.72787e-05 
2.31394e-05 4.17304e-05 9.99977e-06 2.16489e-05 -2.19645e-05 -1.85141e-05 1.17501e-06 2.47165e-05 -2.28862e-05 1.43662e-05 1.677e-05 3.62314e-06 -2.48781e-05 2.03729e-05 1.86387e-05 -4.21534e-05 
1.43128e-05 5.02281e-05 2.44565e-05 1.90414e-05 -3.30498e-05 -1.4644e-05 -8.49017e-06 1.09656e-05 -5.07794e-05 1.95e-05 8.21483e-06 3.02569e-06 -1.93678e-05 1.8492e-05 3.09469e-05 -3.55203e-05 
2.55433e-05 3.06331e-05 2.23115e-05 1.44092e-05 -1.79221e-05 -1.3328e-05 1.66349e-06 1.88159e-05 -2.87751e-05 1.16872e-05 1.34682e-05 3.23353e-06 -2.02482e-05 1.52768e-05 1.51773e-05 -3.36763e-05 
2.50764e-06 6.08429e-05 -8.94382e-06 2.81598e-05 -3.68992e-05 -2.01003e-05 -8.93691e-06 1.85258e-05 -2.75293e-05 2.01621e-05 1.2357e-05 2.05178e-06 -2.12492e-05 2.25844e-05 3.10492e-05 -4.07871e-05 
7.13913e-07 5.98211e-05 -9.11638e-06 2.72033e-05 -3.66608e-05 -1.92555e-05 -9.54269e-06 1.6777e-05 -2.7703e-05 1.98561e-05 1.10484e-05 1.92458e-06 -1.99086e-05 2.17572e-05 3.10618e-05 -3.87595e-05 
9.74977e-06 5.20565e-05 2.58101e-06 2.39411e-05 -3.22542e-05 -1.74437e-05 -6.47256e-06 1.7772e-05 -3.1033e-05 1.80853e-05 1.28478e-05 2.03496e-06 -2.06636e-05 1.99012e-05 2.68598e-05 -3.81011e-05 
8.31802e-05 0.000112939 -2.47724e-06 7.38845e-05 -5.1696e-05 -6.00847e-05 1.73681e-05 9.85953e-05 -2.2397e-05 3.63488e-05 7.13606e-05 8.24898e-06 -8.28037e-05 6.26728e-05 3.44063e-05 -0.000136183 
1.832e-05 6.9791e-05 -7.4595e-06 3.65527e-05 -3.90362e-05 -2.75244e-05 -3.57972e-06 3.38929e-05 -2.59643e-05 2.28937e-05 2.37657e-05 3.20165e-06 -3.29373e-05 2.99465e-05 3.10064e-05 -5.8652e-05 
1.97823e-05 4.1911e-05 6.20226e-06 2.17491e-05 -2.46954e-05 -1.64836e-05 -9.80114e-07 2.26573e-05 -2.46416e-05 1.4655e-05 1.7688e-05 1.92771e-06 -2.25292e-05 1.80251e-05 1.877e-05 -3.81271e-05 
3.81355e-05 3.13892e-05 3.31382e-05 1.55568e-05 -1.54838e-05 -1.68679e-05 6.15458e-06 2.56404e-05 -3.1388e-05 1.21869e-05 1.68024e-05 5.39561e-06 -2.67455e-05 1.91719e-05 1.46235e-05 -4.31692e-05 
2.65404e-05 5.09067e-05 1.86499e-05 2.39908e-05 -3.37287e-05 -1.71585e-05 -3.62963e-06 2.34368e-05 -4.49044e-05 1.90993e-05 2.1278e-05 1.50607e-06 -2.60524e-05 1.92473e-05 2.53401e-05 -4.2811e-05 
2.22873e-05 7.20191e-05 -7.13339e-06 3.86549e-05 -3.96039e-05 -2.93708e-05 -2.22906e-06 3.77345e-05 -2.5546e-05 2.36e-05 2.65724e-05 3.50216e-06 -3.58023e-05 3.18204e-05 3.10316e-05 -6.31414e-05 
5.19295e-05 6.45897e-05 2.1062e-05 3.7184e-05 -3.67388e-05 -2.88186e-05 5.07837e-06 4.79021e-05 -4.20931e-05 2.32714e-05 3.94368e-05 3.35003e-06 -4.45866e-05 3.07955e-05 2.49379e-05 -7.10677e-05 
4.5116e-05 6.76578e-05 2.72206e-05 3.54181e-05 -3.72848e-05 -2.90775e-05 1.9601e-06 4.09022e-05 -4.76765e-05 2.48614e-05 3.03686e-05 5.2873e-06 -4.20533e-05 3.28798e-05 3.09234e-05 -7.03692e-05 
4.72521e-05 3.34172e-05 4.08775e-05 1.71368e-05 -1.47763e-05 -1.96224e-05 8.90388e-06 3.0675e-05 -3.48419e-05 1.31924e-05 1.97004e-05 6.82677e-06 -3.18256e-05 2.23037e-05 1.51082e-05 -5.06401e-05 
1.36087e-05 7.36719e-05 -8.90634e-06 3.70136e-05 -4.21979e-05 -2.74776e-05 -6.23682e-06 3.10687e-05 -2.93763e-05 2.4241e-05 2.14159e-05 3.14078e-06 -3.16882e-05 3.01632e-05 3.44471e-05 -5.75834e-05 
2.52382e-05 7.37284e-05 -6.82648e-06 4.02483e-05 -3.99798e-05 -3.07709e-05 -1.23448e-06 4.0637e-05 -2.52715e-05 2.40922e-05 2.878e-05 3.70469e-06 -3.80629e-05 3.31622e-05 3.09856e-05 -6.64939e-05 
8.74031e-06 7.08978e-05 -9.34009e-06 3.4409e-05 -4.15329e-05 -2.51916e-05 -7.88715e-06 2.63202e-05 -2.9861e-05 2.34016e-05 1.78817e-05 2.78714e-06 -2.80623e-05 2.79002e-05 3.44657e-05 -5.20625e-05 
4.41308e-05 6.01681e-05 2.03795e-05 3.30267e-05 -3.56592e-05 -2.51674e-05 2.43491e-06 4.03148e-05 -4.28829e-05 2.19133e-05 3.38194e-05 2.77925e-06 -3.88403e-05 2.71602e-05 2.49453e-05 -6.22377e-05 
1.49723e-05 4.39612e-05 3.74233e-06 2.17465e-05 -2.64916e-05 -1.60507e-05 -3.09436e-06 1.98558e-05 -2.58389e-05 1.53004e-05 1.53818e-05 1.76747e-06 -2.08388e-05 1.77816e-05 2.09208e-05 -3.61843e-05 
1.34693e-05 5.23705e-05 1.20181e-05 2.27355e-05 -3.39967e-05 -1.66617e-05 -6.97313e-06 1.65975e-05 -4.01584e-05 1.9045e-05 1.27548e-05 2.16735e-06 -2.1057e-05 1.96081e-05 2.85517e-05 -3.84475e-05 
2.19964e-05 4.10618e-05 1.44805e-05 1.9917e-05 -2.58345e-05 -1.50173e-05 -1.84702e-06 2.03253e-05 -3.28477e-05 1.51872e-05 1.68457e-05 1.84329e-06 -2.18984e-05 1.68789e-05 1.99647e-05 -3.66807e-05 
5.18185e-05 3.59067e-05 3.60759e-05 2.1033e-05 -1.48885e-05 -2.23493e-05 1.12851e-05 3.753e-05 -2.92756e-05 1.35208e-05 2.52909e-05 6.63896e-06 -3.58906e-05 2.45751e-05 1.33215e-05 -5.66408e-05 
3.96563e-05 5.76195e-05 1.99802e-05 3.0633e-05 -3.50465e-05 -2.3068e-05 9.18914e-07 3.59514e-05 -4.33302e-05 2.11394e-05 3.05733e-05 2.45519e-06 -3.55168e-05 2.50829e-05 2.49607e-05 -5.71652e-05 
3.29886e-05 5.38287e-05 1.93553e-05 2.70787e-05 -3.41503e-05 -1.99325e-05 -1.3402e-06 2.94556e-05 -4.3986e-05 1.99937e-05 2.57319e-05 1.97419e-06 -3.05513e-05 2.19881e-05 2.49925e-05 -4.96193e-05 
3.60265e-05 3.91834e-05 2.02674e-05 2.18286e-05 -2.13941e-05 -1.85146e-05 4.41015e-06 3.00718e-05 -2.90002e-05 1.43984e-05 2.33614e-05 3.27789e-06 -2.89053e-05 2.01283e-05 1.58468e-05 -4.61416e-05 
4.94974e-05 3.46991e-05 4.11827e-05 1.83171e-05 -1.50285e-05 -2.06993e-05 9.65636e-06 3.28649e-05 -3.46569e-05 1.35536e-05 2.13812e-05 6.97576e-06 -3.3551e-05 2.33173e-05 1.50589e-05 -5.31559e-05 
1.98287e-06 6.70806e-05 -9.99085e-06 3.08317e-05 -4.06281e-05 -2.20173e-05 -1.01708e-05 1.97593e-05 -3.05231e-05 2.22387e-05 1.30045e-05 2.3004e-06 -2.30696e-05 2.47639e-05 3.44905e-05 -4.44451e-05 
4.74889e-07 6.89021e-05 -1.02045e-05 3.11515e-05 -4.2786e-05 -2.18278e-05 -1.13029e-05 1.88689e-05 -3.27409e-05 2.29397e-05 1.26686e-05 2.02295e-06 -2.25197e-05 2.47497e-05 3.59463e-05 -4.40786e-05 
8.42544e-06 6.42168e-05 -8.33378e-06 3.1309e-05 -3.76596e-05 -2.28984e-05 -6.94243e-06 2.42976e-05 -2.69769e-05 2.11558e-05 1.67034e-05 2.46432e-06 -2.57147e-05 2.53e-05 3.09846e-05 -4.7463e-05 
9.47922e-06 4.46386e-05 -2.29568e-07 2.1357e-05 -2.69816e-05 -1.58089e-05 -4.44098e-06 1.74579e-05 -2.33054e-05 1.51698e-05 1.2489e-05 1.82768e-06 -1.87419e-05 1.76736e-05 2.19608e-05 -3.41637e-05 
2.50891e-05 3.14155e-05 2.19613e-05 1.48934e-05 -1.74141e-05 -1.38114e-05 1.53125e-06 1.86516e-05 -2.85213e-05 1.19814e-05 1.28819e-05 3.56707e-06 -2.06624e-05 1.59753e-05 1.57789e-05 -3.44146e-05 
-2.61195e-06 6.9827e-05 -1.21069e-05 3.10399e-05 -4.36678e-05 -2.1526e-05 -1.24775e-05 1.72128e-05 -3.28106e-05 2.31471e-05 1.12499e-05 1.90729e-06 -2.13796e-05 2.44941e-05 3.69734e-05 -4.27044e-05 
1.61801e-05 7.51057e-05 -8.68799e-06 3.83655e-05 -4.25651e-05 -2.86737e-05 -5.36297e-06 3.35485e-05 -2.91067e-05 2.4701e-05 2.32203e-05 3.33636e-06 -3.35291e-05 3.13814e-05 3.44685e-05 -6.04821e-05 
2.64363e-05 5.08513e-05 1.8625e-05 2.39416e-05 -3.37217e-05 -1.7107e-05 -3.6653e-06 2.33388e-05 -4.49105e-05 1.90836e-05 2.12027e-05 1.49883e-06 -2.59737e-05 1.91984e-05 2.53429e-05 -4.26987e-05 
3.42285e-05 5.45018e-05 1.94986e-05 2.77066e-05 -3.43078e-05 -2.05155e-05 -9.20033e-07 3.06351e-05 -4.38686e-05 2.02079e-05 2.65933e-05 2.06718e-06 -3.14391e-05 2.25773e-05 2.4997e-05 -5.09922e-05 
2.7311e-05 7.38297e-05 2.17018e-05 3.37296e-05 -4.75026e-05 -2.50074e-05 -7.14148e-06 2.87848e-05 -5.73939e-05 2.70923e-05 2.27368e-05 3.12015e-06 -3.35975e-05 2.90162e-05 3.84197e-05 -5.95352e-05 
4.54712e-05 5.80516e-05 1.90364e-05 3.30157e-05 -3.31558e-05 -2.56665e-05 4.10943e-06 4.20532e-05 -3.81719e-05 2.09155e-05 3.44672e-05 3.05412e-06 -3.94439e-05 2.75091e-05 2.28262e-05 -6.31176e-05 
2.95667e-05 2.88039e-05 2.90476e-05 1.29792e-05 -1.56023e-05 -1.37782e-05 3.22296e-06 1.92035e-05 -3.07561e-05 1.13125e-05 1.24827e-05 4.4245e-06 -2.14678e-05 1.60312e-05 1.48835e-05 -3.53183e-05 
8.4482e-07 5.991e-05 -9.06871e-06 2.72777e-05 -3.66571e-05 -1.93279e-05 -9.50038e-06 1.69167e-05 -2.77052e-05 1.98661e-05 1.11826e-05 1.92689e-06 -2.0048e-05 2.18013e-05 3.10386e-05 -3.89085e-05 
2.4588e-05 3.08906e-05 2.34265e-05 1.41221e-05 -1.72093e-05 -1.33473e-05 1.15182e-06 1.7397e-05 -2.98662e-05 1.19482e-05 1.18331e-05 3.6751e-06 -2.00451e-05 1.56235e-05 1.61375e-05 -3.34517e-05 
3.35961e-05 2.55533e-05 3.43962e-05 1.132e-05 -1.24195e-05 -1.37908e-05 5.11597e-06 1.97839e-05 -3.10793e-05 1.03801e-05 1.20843e-05 5.32189e-06 -2.23619e-05 1.61157e-05 1.33924e-05 -3.60217e-05 
1.74079e-05 8.11626e-05 -1.02287e-05 4.16715e-05 -4.6375e-05 -3.09261e-05 -5.69352e-06 3.66735e-05 -3.0827e-05 2.66076e-05 2.56991e-05 3.36295e-06 -3.61786e-05 3.38146e-05 3.69201e-05 -6.53299e-05 
2.02785e-05 3.47405e-05 1.1903e-05 1.72833e-05 -1.85793e-05 -1.52538e-05 8.6032e-07 1.98472e-05 -2.20179e-05 1.22259e-05 1.3141e-05 3.35077e-06 -2.0693e-05 1.70406e-05 1.63237e-05 -3.52132e-05 
2.92671e-05 5.17245e-05 1.90446e-05 2.50959e-05 -3.36222e-05 -1.81967e-05 -2.6045e-06 2.58398e-05 -4.43733e-05 1.93357e-05 2.30737e-05 1.69623e-06 -2.78394e-05 2.02416e-05 2.49803e-05 -4.54007e-05 
2.83011e-05 4.82936e-05 1.74707e-05 2.38566e-05 -3.08188e-05 -1.76067e-05 -1.70831e-06 2.53291e-05 -3.98811e-05 1.79488e-05 2.20313e-05 1.80936e-06 -2.67082e-05 1.95306e-05 2.28836e-05 -4.36766e-05 
1.87493e-05 7.65932e-05 -8.4282e-06 3.97543e-05 -4.28966e-05 -2.989e-05 -4.49524e-06 3.60756e-05 -2.88638e-05 2.51314e-05 2.51378e-05 3.51416e-06 -3.54912e-05 3.25521e-05 3.4432e-05 -6.34042e-05 
2.39097e-05 5.56689e-05 2.52864e-05 2.41595e-05 -3.43859e-05 -1.91375e-05 -5.22598e-06 2.03022e-05 -4.9798e-05 2.11802e-05 1.51123e-05 3.73669e-06 -2.64309e-05 2.29892e-05 3.09519e-05 -4.64042e-05 
6.12479e-05 4.17172e-05 3.56655e-05 2.66045e-05 -1.64676e-05 -2.70193e-05 1.45502e-05 4.73342e-05 -2.75041e-05 1.52683e-05 3.26893e-05 7.19243e-06 -4.30639e-05 2.9185e-05 1.3214e-05 -6.77605e-05 
3.26294e-05 2.89513e-05 2.54769e-05 1.50542e-05 -1.46137e-05 -1.51394e-05 5.1012e-06 2.35039e-05 -2.60238e-05 1.10366e-05 1.61297e-05 4.22782e-06 -2.37508e-05 1.70155e-05 1.28239e-05 -3.8382e-05 
4.03336e-05 2.93702e-05 3.50059e-05 1.4906e-05 -1.33438e-05 -1.69494e-05 7.40517e-06 2.63365e-05 -3.03997e-05 1.15537e-05 1.69363e-05 5.81726e-06 -2.73296e-05 1.92643e-05 1.33861e-05 -4.36519e-05 
3.12982e-05 2.68101e-05 3.0543e-05 1.22457e-05 -1.37526e-05 -1.37291e-05 4.30536e-06 1.97367e-05 -2.96705e-05 1.06177e-05 1.25841e-05 4.7253e-06 -2.1812e-05 1.59048e-05 1.36194e-05 -3.54276e-05 
3.23291e-05 2.68062e-05 3.65897e-05 1.07435e-05 -1.4091e-05 -1.34069e-05 3.90426e-06 1.79805e-05 -3.47429e-05 1.09826e-05 1.06607e-05 5.37561e-06 -2.16042e-05 1.59401e-05 1.51478e-05 -3.52225e-05 
4.11195e-05 8.3212e-05 -4.19439e-06 4.88357e-05 -4.13346e-05 -3.86288e-05 3.97507e-06 5.64858e-05 -2.43415e-05 2.62929e-05 4.17475e-05 4.52528e-06 -5.15808e-05 3.98126e-05 2.99969e-05 -8.42881e-05 
4.85621e-05 6.26707e-05 2.07905e-05 3.53756e-05 -3.6262e-05 -2.72457e-05 3.93662e-06 4.46172e-05 -4.24405e-05 2.26819e-05 3.70059e-05 3.10312e-06 -4.21026e-05 2.92274e-05 2.49388e-05 -6.72421e-05 
2.90432e-05 2.55163e-05 3.03461e-05 1.1031e-05 -1.34451e-05 -1.26686e-05 3.54125e-06 1.75296e-05 -2.98938e-05 1.02313e-05 1.09329e-05 4.56344e-06 -2.01163e-05 1.4862e-05 1.36338e-05 -3.28639e-05 
2.9739e-05 2.73119e-05 2.52036e-05 1.35169e-05 -1.42246e-05 -1.37808e-05 4.1203e-06 2.06914e-05 -2.63092e-05 1.05379e-05 1.40383e-05 4.01756e-06 -2.16063e-05 1.56694e-05 1.28338e-05 -3.51116e-05 
4.97934e-05 3.63139e-05 3.35571e-05 2.13103e-05 -1.55912e-05 -2.20191e-05 1.05727e-05 3.68461e-05 -2.84551e-05 1.36324e-05 2.50571e-05 6.24965e-06 -3.50067e-05 2.42548e-05 1.35519e-05 -5.56069e-05 
3.01879e-05 2.63576e-05 2.95869e-05 1.19768e-05 -1.36832e-05 -1.33318e-05 4.00215e-06 1.906e-05 -2.91434e-05 1.04381e-05 1.21844e-05 4.55104e-06 -2.11283e-05 1.54641e-05 1.34651e-05 -3.43936e-05 
2.28417e-05 5.50724e-05 2.51853e-05 2.35968e-05 -3.42371e-05 -1.8639e-05 -5.59701e-06 1.92686e-05 -4.99148e-05 2.09867e-05 1.43619e-05 3.65166e-06 -2.56667e-05 2.24739e-05 3.09412e-05 -4.51887e-05 
2.65625e-05 4.84987e-05 1.95951e-05 2.28597e-05 -3.18263e-05 -1.74846e-05 -2.21673e-06 2.39071e-05 -4.06257e-05 1.80067e-05 1.97456e-05 2.136e-06 -2.54262e-05 1.97819e-05 2.39409e-05 -4.33275e-05 
1.75747e-05 7.59466e-05 -8.50587e-06 3.91402e-05 -4.27122e-05 -2.93541e-05 -4.89064e-06 3.49511e-05 -2.89981e-05 2.49129e-05 2.43406e-05 3.42097e-06 -3.46937e-05 3.19911e-05 3.44052e-05 -6.20844e-05 
4.55883e-05 3.499e-05 3.49672e-05 1.89226e-05 -1.62067e-05 -2.00631e-05 8.63498e-06 3.22554e-05 -3.13194e-05 1.33417e-05 2.16088e-05 6.02683e-06 -3.19141e-05 2.23897e-05 1.46113e-05 -5.10287e-05 
1.27777e-05 4.9077e-05 2.04017e-05 1.91635e-05 -3.28686e-05 -1.41846e-05 -8.38803e-06 1.13007e-05 -4.70988e-05 1.88026e-05 8.89644e-06 2.37939e-06 -1.84953e-05 1.76051e-05 2.94429e-05 -3.41392e-05 
2.83045e-05 2.84688e-05 2.58791e-05 1.33382e-05 -1.5708e-05 -1.33979e-05 2.96939e-06 1.92646e-05 -2.88912e-05 1.10723e-05 1.31955e-05 3.86398e-06 -2.09052e-05 1.53972e-05 1.4172e-05 -3.42518e-05 
2.12807e-05 4.7656e-05 6.01705e-06 2.46622e-05 -2.81898e-05 -1.84569e-05 -1.53558e-06 2.50577e-05 -2.77943e-05 1.66561e-05 1.96688e-05 2.06429e-06 -2.50613e-05 2.02399e-05 2.15018e-05 -4.25477e-05 
4.6386e-05 3.47485e-05 3.78445e-05 1.8209e-05 -1.60314e-05 -1.9989e-05 8.67662e-06 3.16324e-05 -3.33178e-05 1.34372e-05 2.0745e-05 6.41218e-06 -3.1925e-05 2.25179e-05 1.5151e-05 -5.1123e-05 
1.25143e-05 6.64767e-05 -8.00959e-06 3.3448e-05 -3.82628e-05 -2.47891e-05 -5.54599e-06 2.82256e-05 -2.65283e-05 2.19029e-05 1.9524e-05 2.78698e-06 -2.85822e-05 2.72621e-05 3.10471e-05 -5.20747e-05 
2.72823e-05 4.06677e-05 1.53059e-05 2.12986e-05 -2.39159e-05 -1.67205e-05 7.45362e-07 2.47331e-05 -2.99176e-05 1.49428e-05 1.97656e-05 2.37965e-06 -2.48886e-05 1.85518e-05 1.82021e-05 -4.10006e-05 
1.78828e-05 4.52095e-05 5.14363e-06 2.28048e-05 -2.70025e-05 -1.69613e-05 -2.3789e-06 2.19895e-05 -2.68814e-05 1.57833e-05 1.72359e-05 1.88424e-06 -2.26391e-05 1.86645e-05 2.1004e-05 -3.87072e-05 
8.61153e-06 4.54517e-05 3.01198e-06 2.0723e-05 -2.761e-05 -1.53956e-05 -5.59306e-06 1.52387e-05 -2.74105e-05 1.58399e-05 1.06368e-05 2.10562e-06 -1.81745e-05 1.76948e-05 2.37724e-05 -3.34984e-05 
4.38418e-06 6.19117e-05 -8.79478e-06 2.91682e-05 -3.71665e-05 -2.09761e-05 -8.29827e-06 2.03565e-05 -2.7333e-05 2.04924e-05 1.37082e-05 2.19134e-06 -2.26305e-05 2.34629e-05 3.10517e-05 -4.29227e-05 
5.87462e-05 0.000104572 -6.36638e-06 6.36308e-05 -5.19763e-05 -5.03325e-05 8.31625e-06 7.68611e-05 -2.67243e-05 3.37595e-05 5.55287e-05 6.37317e-06 -6.67289e-05 5.3069e-05 3.6818e-05 -0.000112061 
4.18713e-06 6.18039e-05 -8.77024e-06 2.90576e-05 -3.71163e-05 -2.08946e-05 -8.36598e-06 2.01677e-05 -2.73689e-05 2.04473e-05 1.35912e-05 2.17168e-06 -2.25162e-05 2.3361e-05 3.10338e-05 -4.26924e-05 
2.32094e-05 3.78437e-05 8.95767e-06 2.05612e-05 -2.09612e-05 -1.64267e-05 1.26601e-06 2.39215e-05 -2.18083e-05 1.33223e-05 1.79788e-05 2.45101e-06 -2.31393e-05 1.79892e-05 1.60966e-05 -3.86597e-05 
6.62941e-05 4.60142e-05 3.96713e-05 2.87868e-05 -1.87467e-05 -2.93243e-05 1.54253e-05 5.09831e-05 -3.13243e-05 1.68915e-05 3.50873e-05 7.86615e-06 -4.66037e-05 3.17984e-05 1.51166e-05 -7.36316e-05 
5.72985e-06 6.26641e-05 -8.66449e-06 2.98741e-05 -3.73492e-05 -2.16069e-05 -7.8401e-06 2.16561e-05 -2.71981e-05 2.07286e-05 1.4663e-05 2.29233e-06 -2.36095e-05 2.40985e-05 3.10556e-05 -4.44388e-05 
2.02079e-05 3.64353e-05 8.50717e-06 1.89797e-05 -2.07894e-05 -1.50593e-05 1.72941e-07 2.10439e-05 -2.24459e-05 1.28454e-05 1.59403e-05 2.23027e-06 -2.10271e-05 1.65324e-05 1.62498e-05 -3.52233e-05 
8.09154e-06 6.38288e-05 -5.68544e-06 3.03701e-05 -3.85755e-05 -2.19038e-05 -7.76309e-06 2.25495e-05 -3.03388e-05 2.1414e-05 1.58009e-05 2.26683e-06 -2.46258e-05 2.45558e-05 3.1737e-05 -4.59942e-05 
2.81613e-05 2.90612e-05 2.38936e-05 1.41219e-05 -1.59228e-05 -1.37009e-05 3.04834e-06 2.00802e-05 -2.76198e-05 1.11543e-05 1.40479e-05 3.67485e-06 -2.1272e-05 1.5601e-05 1.39543e-05 -3.47583e-05 
3.28691e-05 2.61289e-05 3.1007e-05 1.23406e-05 -1.27476e-05 -1.40576e-05 5.13888e-06 2.07655e-05 -2.87212e-05 1.03744e-05 1.32001e-05 4.92456e-06 -2.25276e-05 1.61991e-05 1.28883e-05 -3.63104e-05 
3.46536e-05 3.15462e-05 3.05155e-05 1.53506e-05 -1.6325e-05 -1.5986e-05 4.81284e-06 2.36754e-05 -3.11462e-05 1.22183e-05 1.5763e-05 4.85971e-06 -2.50582e-05 1.82835e-05 1.50877e-05 -4.07973e-05 
4.91659e-05 3.99495e-05 3.27374e-05 2.28823e-05 -1.85205e-05 -2.27435e-05 9.56568e-06 3.74097e-05 -3.06539e-05 1.48747e-05 2.58303e-05 6.02078e-06 -3.5685e-05 2.51028e-05 1.54714e-05 -5.71853e-05 
2.33419e-05 3.36217e-05 1.20946e-05 1.78036e-05 -1.76839e-05 -1.55683e-05 2.2564e-06 2.21964e-05 -2.04321e-05 1.18533e-05 1.53736e-05 3.19803e-06 -2.18747e-05 1.71864e-05 1.46588e-05 -3.66209e-05 
5.21323e-05 3.61786e-05 4.14368e-05 1.97022e-05 -1.53786e-05 -2.19381e-05 1.05417e-05 3.54151e-05 -3.44038e-05 1.40024e-05 2.32767e-05 7.16383e-06 -3.54979e-05 2.45385e-05 1.50467e-05 -5.61105e-05 
1.9098e-05 4.22691e-05 4.73581e-06 2.20902e-05 -2.31912e-05 -1.78123e-05 -9.66279e-08 2.34885e-05 -2.07635e-05 1.43769e-05 1.63953e-05 2.84862e-06 -2.31449e-05 1.95775e-05 1.87955e-05 -3.99752e-05 
2.18602e-06 6.06598e-05 -8.97745e-06 2.79889e-05 -3.68573e-05 -1.99484e-05 -9.04588e-06 1.82124e-05 -2.75603e-05 2.01071e-05 1.21224e-05 2.02879e-06 -2.10095e-05 2.24355e-05 3.10514e-05 -4.04234e-05 
-9.05375e-06 6.08336e-05 -1.09835e-05 2.49632e-05 -3.91118e-05 -1.68444e-05 -1.39165e-05 9.03233e-06 -3.16337e-05 2.03178e-05 5.06533e-06 1.48953e-06 -1.49377e-05 1.96073e-05 3.44988e-05 -3.19561e-05 
1.00198e-05 6.51165e-05 -8.24163e-06 3.21675e-05 -3.79116e-05 -2.36314e-05 -6.39152e-06 2.58469e-05 -2.67883e-05 2.14549e-05 1.78129e-05 2.59394e-06 -2.68392e-05 2.60698e-05 3.10147e-05 -4.92926e-05 
5.16458e-05 6.43516e-05 2.10068e-05 3.6976e-05 -3.67405e-05 -2.86578e-05 4.99575e-06 4.75599e-05 -4.20819e-05 2.32641e-05 3.90742e-05 3.35793e-06 -4.4196e-05 3.07346e-05 2.502e-05 -7.07179e-05 
6.92518e-05 4.67436e-05 3.45633e-05 3.1644e-05 -1.75826e-05 -3.11762e-05 1.74515e-05 5.61447e-05 -2.51783e-05 1.66153e-05 3.95655e-05 7.54156e-06 -4.95443e-05 3.30761e-05 1.27116e-05 -7.73854e-05 
4.83133e-05 6.2539e-05 2.07494e-05 3.5255e-05 -3.62364e-05 -2.71265e-05 3.85268e-06 4.43833e-05 -4.24608e-05 2.2641e-05 3.68326e-05 3.08519e-06 -4.19237e-05 2.911e-05 2.49405e-05 -6.69722e-05 
2.18417e-05 5.44063e-05 2.38518e-05 2.33378e-05 -3.40559e-05 -1.82817e-05 -5.71474e-06 1.88609e-05 -4.87485e-05 2.06778e-05 1.41261e-05 3.44931e-06 -2.49966e-05 2.20018e-05 3.04961e-05 -4.41927e-05 
1.53955e-05 7.10604e-05 2.07887e-05 2.90828e-05 -4.89543e-05 -2.02801e-05 -1.2308e-05 1.78231e-05 -6.17452e-05 2.65475e-05 1.49047e-05 2.09623e-06 -2.57345e-05 2.4412e-05 4.06762e-05 -4.8082e-05 
3.48732e-05 5.48771e-05 1.95847e-05 2.80528e-05 -3.43795e-05 -2.0826e-05 -7.01939e-07 3.12711e-05 -4.38147e-05 2.03109e-05 2.70867e-05 2.10943e-06 -3.19465e-05 2.28668e-05 2.49792e-05 -5.17231e-05 
1.01041e-05 7.16979e-05 -9.22594e-06 3.5159e-05 -4.17169e-05 -2.58369e-05 -7.42536e-06 2.76704e-05 -2.97301e-05 2.36299e-05 1.89074e-05 2.8827e-06 -2.91222e-05 2.85239e-05 3.44459e-05 -5.36271e-05 
2.5745e-05 3.15577e-05 2.3521e-05 1.47495e-05 -1.737e-05 -1.38907e-05 1.54418e-06 1.85324e-05 -2.97498e-05 1.21473e-05 1.26822e-05 3.75853e-06 -2.09167e-05 1.61586e-05 1.61307e-05 -3.47716e-05 
3.11274e-05 2.57008e-05 2.98381e-05 1.19442e-05 -1.28063e-05 -1.34971e-05 4.57418e-06 1.96348e-05 -2.83359e-05 1.01949e-05 1.24879e-05 4.69754e-06 -2.15376e-05 1.55901e-05 1.28801e-05 -3.48191e-05 
4.77467e-05 6.2192e-05 2.06835e-05 3.49353e-05 -3.61749e-05 -2.68499e-05 3.66406e-06 4.38101e-05 -4.25026e-05 2.25575e-05 3.637e-05 3.05288e-06 -4.14405e-05 2.88678e-05 2.49697e-05 -6.63208e-05 
3.16413e-05 2.54305e-05 3.09124e-05 1.16813e-05 -1.25718e-05 -1.34846e-05 4.72129e-06 1.95688e-05 -2.88493e-05 1.01583e-05 1.23176e-05 4.83332e-06 -2.16233e-05 1.56239e-05 1.28863e-05 -3.49142e-05 
3.52524e-05 2.77159e-05 3.07109e-05 1.38558e-05 -1.32212e-05 -1.52793e-05 5.96058e-06 2.33474e-05 -2.81967e-05 1.08438e-05 1.51783e-05 5.04335e-06 -2.44013e-05 1.73955e-05 1.2867e-05 -3.92124e-05 
-4.49821e-06 6.8762e-05 -1.22651e-05 3.00378e-05 -4.34056e-05 -2.06442e-05 -1.31113e-05 1.53815e-05 -3.30004e-05 2.2821e-05 9.89334e-06 1.77238e-06 -1.99923e-05 2.36217e-05 3.69777e-05 -4.05802e-05 
1.4978e-05 4.51502e-05 3.30752e-06 2.23129e-05 -2.7255e-05 -1.64166e-05 -3.27391e-06 2.02542e-05 -2.63019e-05 1.56717e-05 1.57243e-05 1.76951e-06 -2.12434e-05 1.81596e-05 2.1481e-05 -3.68953e-05 
3.75652e-05 5.20249e-05 2.09352e-05 2.75309e-05 -3.1373e-05 -2.21584e-05 2.27972e-06 3.42629e-05 -3.71446e-05 1.88951e-05 2.69658e-05 3.05744e-06 -3.28225e-05 2.43341e-05 2.2378e-05 -5.46334e-05 
3.59016e-05 5.54745e-05 1.96085e-05 2.86274e-05 -3.45557e-05 -2.12948e-05 -3.50661e-07 3.22849e-05 -4.3688e-05 2.05038e-05 2.78186e-05 2.18993e-06 -3.26868e-05 2.33528e-05 2.49955e-05 -5.29164e-05 
5.28824e-05 3.84428e-05 3.84397e-05 2.16752e-05 -1.69118e-05 -2.30415e-05 1.08772e-05 3.7962e-05 -3.26752e-05 1.45563e-05 2.54578e-05 6.88188e-06 -3.67578e-05 2.55353e-05 1.51242e-05 -5.84781e-05 
3.13023e-05 2.56283e-05 3.02478e-05 1.18473e-05 -1.27305e-05 -1.35031e-05 4.62524e-06 1.95956e-05 -2.85414e-05 1.01959e-05 1.23828e-05 4.76472e-06 -2.15621e-05 1.56296e-05 1.29209e-05 -3.48771e-05 
3.55588e-06 5.91761e-05 -5.7394e-06 2.7002e-05 -3.62658e-05 -1.92694e-05 -8.90423e-06 1.75457e-05 -2.96075e-05 1.99073e-05 1.19326e-05 2.02557e-06 -2.07639e-05 2.18069e-05 3.06845e-05 -3.9677e-05 
2.86506e-05 2.83192e-05 3.08918e-05 1.19586e-05 -1.57072e-05 -1.3124e-05 2.60757e-06 1.74533e-05 -3.27128e-05 1.13123e-05 1.10382e-05 4.51955e-06 -2.05339e-05 1.55342e-05 1.55038e-05 -3.39624e-05 
5.38956e-05 3.99007e-05 3.67648e-05 2.3105e-05 -1.74483e-05 -2.39678e-05 1.13076e-05 3.99174e-05 -3.14765e-05 1.49119e-05 2.70805e-05 6.80952e-06 -3.80163e-05 2.63737e-05 1.506e-05 -6.04517e-05 
8.05671e-05 5.40602e-05 4.10407e-05 3.63295e-05 -2.06673e-05 -3.60267e-05 2.0266e-05 6.48239e-05 -2.99189e-05 1.93603e-05 4.53446e-05 8.90874e-06 -5.7123e-05 3.84616e-05 1.5091e-05 -8.97325e-05 
2.53792e-05 3.40728e-05 1.94822e-05 1.67341e-05 -1.95883e-05 -1.46735e-05 1.35835e-06 2.05708e-05 -2.81974e-05 1.27235e-05 1.48596e-05 3.15119e-06 -2.16857e-05 1.66806e-05 1.63214e-05 -3.62793e-05 
3.15238e-05 2.43778e-05 3.42284e-05 1.02121e-05 -1.21256e-05 -1.2823e-05 4.41157e-06 1.77673e-05 -3.1294e-05 1.0016e-05 1.05978e-05 5.16765e-06 -2.08399e-05 1.51443e-05 1.33888e-05 -3.36693e-05 
3.43413e-05 5.46047e-05 1.94813e-05 2.78054e-05 -3.4329e-05 -2.05709e-05 -8.84058e-07 3.07793e-05 -4.38569e-05 2.02217e-05 2.6729e-05 2.06839e-06 -3.15771e-05 2.26078e-05 2.49777e-05 -5.11514e-05 
5.69412e-05 3.89109e-05 4.19068e-05 2.22586e-05 -1.60165e-05 -2.42027e-05 1.21661e-05 4.00968e-05 -3.39399e-05 1.48237e-05 2.6773e-05 7.50847e-06 -3.90828e-05 2.67645e-05 1.50183e-05 -6.15425e-05 
3.03049e-05 2.90754e-05 3.0115e-05 1.30319e-05 -1.57339e-05 -1.39431e-05 3.33455e-06 1.94403e-05 -3.15807e-05 1.14645e-05 1.26174e-05 4.54126e-06 -2.18335e-05 1.62539e-05 1.50984e-05 -3.58675e-05 
