-3.4971e-05 -1.46809e-05 8.87831e-05 -2.76934e-06 -3.22824e-06 0.000154077 -7.12104e-05 3.19897e-05 0.000108178 -7.20929e-05 -4.27686e-05 5.01582e-05 0.000173243 9.09684e-05 0.000101815 9.69145e-05 
-4.64709e-05 -1.91425e-05 9.88936e-05 -5.19737e-06 -1.95703e-06 0.00016997 -8.88827e-05 3.3949e-05 0.000117166 -7.56391e-05 -5.22621e-05 5.4113e-05 0.000193662 9.95742e-05 0.000109781 0.000106372 
-3.29783e-05 -1.38954e-05 9.1777e-05 -1.81574e-06 -4.10806e-06 0.000159965 -6.961e-05 3.37104e-05 0.00011325 -7.64881e-05 -4.21406e-05 5.26594e-05 0.000178863 9.47991e-05 0.000106834 0.000100904 
-3.98009e-05 -1.64322e-05 0.000106121 -2.18774e-06 -4.55108e-06 0.000184407 -8.28891e-05 3.84146e-05 0.00013012 -8.72621e-05 -4.94072e-05 6.0446e-05 0.000206952 0.00010924 0.000122698 0.000116362 
-3.49713e-05 -1.4681e-05 8.87831e-05 -2.76948e-06 -3.22814e-06 0.000154077 -7.12107e-05 3.19897e-05 0.000108178 -7.20927e-05 -4.27688e-05 5.01581e-05 0.000173243 9.09683e-05 0.000101815 9.69144e-05 
-4.64737e-05 -1.91457e-05 9.88991e-05 -5.2005e-06 -1.95562e-06 0.00016998 -8.88865e-05 3.39515e-05 0.000117172 -7.5643e-05 -5.22669e-05 5.41159e-05 0.000193672 9.95791e-05 0.000109786 0.000106378 
-3.97827e-05 -1.6486e-05 0.000102095 -2.69788e-06 -3.96197e-06 0.000177116 -8.15329e-05 3.66808e-05 0.000124519 -8.30308e-05 -4.85818e-05 5.77975e-05 0.00019919 0.000104722 0.000117291 0.000111591 
-3.87924e-05 -1.61226e-05 8.98943e-05 -3.73902e-06 -2.52514e-06 0.000155274 -7.63906e-05 3.15989e-05 0.000108045 -7.08775e-05 -4.53632e-05 5.00391e-05 0.000175767 9.13097e-05 0.000101488 9.74503e-05 
-4.32251e-05 -1.82514e-05 0.000101683 -4.40356e-06 -2.85677e-06 0.000176125 -8.51025e-05 3.60336e-05 0.000122699 -8.07833e-05 -5.1241e-05 5.70609e-05 0.000198962 0.000103442 0.000115286 0.000110437 
-4.71606e-05 -1.86366e-05 7.07895e-05 -7.31626e-06 1.35752e-06 0.000118622 -8.0994e-05 2.08656e-05 7.75633e-05 -4.53463e-05 -4.54432e-05 3.59577e-05 0.000139818 6.80935e-05 7.17639e-05 7.31874e-05 
-3.29789e-05 -1.38958e-05 9.17776e-05 -1.81609e-06 -4.10788e-06 0.000159966 -6.96109e-05 3.37106e-05 0.000113251 -7.64884e-05 -4.21413e-05 5.26597e-05 0.000178864 9.47996e-05 0.000106835 0.000100905 
-4.64696e-05 -1.91429e-05 9.89017e-05 -5.19725e-06 -1.95761e-06 0.000169984 -8.8884e-05 3.39528e-05 0.000117177 -7.56477e-05 -5.22634e-05 5.41179e-05 0.000193676 9.95832e-05 0.000109792 0.000106382 
-4.54439e-05 -1.86113e-05 7.64206e-05 -7.03076e-06 8.04424e-07 0.000128929 -8.07003e-05 2.39123e-05 8.58883e-05 -5.20122e-05 -4.61589e-05 3.94292e-05 0.00014996 7.45294e-05 7.97346e-05 7.98765e-05 
-0.00022829 -0.000122116 2.65238e-05 -0.000114156 7.08694e-05 2.83147e-05 -0.000253555 -1.74057e-05 -4.89408e-05 9.54566e-05 -0.00019299 -1.93336e-05 8.16087e-05 -2.68874e-05 -6.54433e-05 -1.71089e-05 
-3.87934e-05 -1.61232e-05 8.98946e-05 -3.73954e-06 -2.52483e-06 0.000155275 -7.63918e-05 3.15989e-05 0.000108045 -7.08772e-05 -4.53641e-05 5.00391e-05 0.000175768 9.13098e-05 0.000101488 9.74505e-05 
-0.00022829 -0.000122116 2.65227e-05 -0.000114156 7.08693e-05 2.83125e-05 -0.000253555 -1.74062e-05 -4.89423e-05 9.54577e-05 -0.000192989 -1.93344e-05 8.16066e-05 -2.68886e-05 -6.54446e-05 -1.71101e-05 
-0.000204868 -0.000109005 2.54555e-05 -0.000101484 6.29441e-05 2.81217e-05 -0.000228561 -1.51329e-05 -4.17167e-05 8.39978e-05 -0.000172942 -1.63525e-05 7.63826e-05 -2.21594e-05 -5.65313e-05 -1.33554e-05 
-0.000204867 -0.000109005 2.54553e-05 -0.000101483 6.29439e-05 2.81214e-05 -0.000228561 -1.51329e-05 -4.17167e-05 8.39977e-05 -0.000172942 -1.63526e-05 7.63823e-05 -2.21594e-05 -5.65313e-05 -1.33554e-05 
-0.00022829 -0.000122115 2.65235e-05 -0.000114156 7.08691e-05 2.83139e-05 -0.000253555 -1.74059e-05 -4.89412e-05 9.54569e-05 -0.000192989 -1.93339e-05 8.16081e-05 -2.68877e-05 -6.54436e-05 -1.71092e-05 
-0.000185656 -9.72791e-05 3.11454e-05 -8.89739e-05 5.49406e-05 3.88038e-05 -0.000211512 -1.11695e-05 -2.73371e-05 6.85232e-05 -0.000156453 -1.019e-05 8.41501e-05 -1.09352e-05 -4.09494e-05 -2.65478e-06 
-4.39943e-05 -1.72678e-05 7.89809e-05 -4.83459e-06 2.7501e-07 0.0001291 -8.38902e-05 2.32276e-05 8.63883e-05 -5.11736e-05 -4.26705e-05 3.74856e-05 0.000150297 7.65613e-05 8.00424e-05 8.11392e-05 
-3.8792e-05 -1.61224e-05 8.98943e-05 -3.73876e-06 -2.52532e-06 0.000155274 -7.63901e-05 3.1599e-05 0.000108045 -7.08778e-05 -4.53628e-05 5.00393e-05 0.000175767 9.13098e-05 0.000101488 9.74505e-05 
-0.000139811 -7.1864e-05 3.6278e-05 -6.36345e-05 3.88321e-05 5.06277e-05 -0.000165522 -3.78786e-06 -3.86617e-06 3.93753e-05 -0.000118636 -5.4176e-07 8.68282e-05 6.0716e-06 -1.46211e-05 1.27332e-05 
-3.49714e-05 -1.46811e-05 8.8783e-05 -2.76957e-06 -3.2281e-06 0.000154077 -7.12108e-05 3.19896e-05 0.000108178 -7.20925e-05 -4.27689e-05 5.01581e-05 0.000173243 9.09682e-05 0.000101815 9.69143e-05 
-0.000204868 -0.000109005 2.54554e-05 -0.000101484 6.29443e-05 2.81215e-05 -0.000228562 -1.51329e-05 -4.1717e-05 8.39981e-05 -0.000172942 -1.63526e-05 7.63825e-05 -2.21596e-05 -5.65316e-05 -1.33556e-05 
-0.000126426 -5.25077e-05 9.53688e-05 -3.33984e-05 1.76714e-05 0.000151275 -0.000181843 1.64929e-05 7.93638e-05 -2.52961e-05 -0.00010508 3.82e-05 0.000196762 7.72141e-05 6.85014e-05 8.60631e-05 
-0.000228287 -0.000122114 2.65251e-05 -0.000114155 7.08681e-05 2.83171e-05 -0.000253553 -1.74049e-05 -4.89381e-05 9.54539e-05 -0.000192988 -1.93324e-05 8.16108e-05 -2.68853e-05 -6.54404e-05 -1.71069e-05 
-3.51918e-05 -1.50069e-05 8.97221e-05 -3.06811e-06 -3.16551e-06 0.000156033 -7.13781e-05 3.24854e-05 0.000109557 -7.31205e-05 -4.34184e-05 5.09788e-05 0.000175243 9.19664e-05 0.000103117 9.80357e-05 
-8.60488e-05 -4.05907e-05 5.26978e-05 -3.08035e-05 1.71943e-05 8.38208e-05 -0.000115363 8.7319e-06 3.85797e-05 -6.16942e-06 -7.49276e-05 1.8755e-05 0.00011117 3.81877e-05 3.10141e-05 4.38891e-05 
-3.98058e-05 -1.64351e-05 0.000106122 -2.19056e-06 -4.54935e-06 0.000184408 -8.28949e-05 3.84145e-05 0.00013012 -8.72604e-05 -4.94116e-05 6.04457e-05 0.000206955 0.00010924 0.000122697 0.000116362 
-3.37309e-05 -1.42049e-05 0.000102412 -9.59953e-07 -5.37941e-06 0.000179083 -7.38986e-05 3.82527e-05 0.000127685 -8.7236e-05 -4.49727e-05 5.94363e-05 0.000199249 0.000106536 0.000120653 0.000113218 
-3.98033e-05 -1.64337e-05 0.000106122 -2.1892e-06 -4.55014e-06 0.000184408 -8.28921e-05 3.84147e-05 0.00013012 -8.72613e-05 -4.94094e-05 6.04456e-05 0.000206953 0.000109241 0.000122698 0.000116362 
-0.000228288 -0.000122115 2.65232e-05 -0.000114156 7.08689e-05 2.83138e-05 -0.000253553 -1.74056e-05 -4.89409e-05 9.54561e-05 -0.000192988 -1.93336e-05 8.16072e-05 -2.68876e-05 -6.54432e-05 -1.71093e-05 
-0.000235067 -0.000124299 3.01997e-05 -0.000115301 7.14912e-05 3.38271e-05 -0.000263042 -1.7204e-05 -4.64988e-05 9.53045e-05 -0.000197914 -1.80549e-05 8.96453e-05 -2.41179e-05 -6.34305e-05 -1.40268e-05 
-0.000228287 -0.000122114 2.65234e-05 -0.000114154 7.08682e-05 2.8314e-05 -0.000253552 -1.74056e-05 -4.89403e-05 9.54554e-05 -0.000192987 -1.93334e-05 8.16073e-05 -2.6887e-05 -6.54425e-05 -1.71088e-05 
-3.29784e-05 -1.38955e-05 9.17777e-05 -1.81571e-06 -4.10812e-06 0.000159966 -6.96104e-05 3.37107e-05 0.000113251 -7.64888e-05 -4.21408e-05 5.26599e-05 0.000178864 9.47999e-05 0.000106835 0.000100905 
-9.5408e-05 -4.65947e-05 4.70494e-05 -3.75737e-05 2.18287e-05 7.29082e-05 -0.000123066 5.56989e-06 2.7188e-05 4.82539e-06 -8.25045e-05 1.32035e-05 0.000101247 2.92828e-05 1.90876e-05 3.49393e-05 
-0.000189464 -9.97231e-05 2.96096e-05 -9.16626e-05 5.66729e-05 3.59927e-05 -0.000214663 -1.20733e-05 -3.07399e-05 7.20012e-05 -0.00015977 -1.16813e-05 8.18115e-05 -1.36413e-05 -4.4592e-05 -5.28126e-06 
-0.000287155 -0.000138922 0.000108584 -0.00011482 6.91383e-05 0.00015914 -0.000360453 1.61378e-06 3.57531e-05 4.94171e-05 -0.000239648 1.84245e-05 0.000241488 5.14825e-05 1.33241e-05 6.64254e-05 
-3.8309e-05 -1.62163e-05 7.71173e-05 -5.33596e-06 -6.85326e-07 0.00013217 -7.1476e-05 2.61496e-05 9.03635e-05 -5.75951e-05 -4.24758e-05 4.1723e-05 0.000150963 7.70188e-05 8.44201e-05 8.23175e-05 
-0.000176825 -9.16571e-05 3.70338e-05 -8.2522e-05 5.06621e-05 4.9442e-05 -0.000205041 -8.14337e-06 -1.63217e-05 5.81799e-05 -0.000149183 -5.28028e-06 9.39459e-05 -2.11289e-06 -2.94933e-05 6.14534e-06 
-0.000204868 -0.000109005 2.54551e-05 -0.000101484 6.29443e-05 2.81211e-05 -0.000228562 -1.51331e-05 -4.17173e-05 8.39984e-05 -0.000172943 -1.63528e-05 7.63822e-05 -2.21599e-05 -5.6532e-05 -1.33559e-05 
-0.000176529 -7.12455e-05 0.000147023 -4.19667e-05 2.20429e-05 0.000231831 -0.000264511 2.70135e-05 0.000127137 -4.62978e-05 -0.000145871 5.81068e-05 0.00029845 0.000122668 0.000111493 0.000135525 
-3.87922e-05 -1.61225e-05 8.98949e-05 -3.7389e-06 -2.52525e-06 0.000155275 -7.63906e-05 3.15992e-05 0.000108046 -7.08781e-05 -4.53632e-05 5.00394e-05 0.000175768 9.13104e-05 0.000101489 9.74511e-05 
-0.00021322 -0.000112967 3.01476e-05 -0.000104516 6.47159e-05 3.53428e-05 -0.000239752 -1.45811e-05 -3.87013e-05 8.4048e-05 -0.000180004 -1.49151e-05 8.62351e-05 -1.89891e-05 -5.42196e-05 -9.64301e-06 
-8.51978e-05 -3.25895e-05 0.000114386 -1.21713e-05 5.2885e-06 0.000178542 -0.000151608 2.70024e-05 0.00011247 -5.7051e-05 -7.24545e-05 4.64791e-05 0.000215883 0.000104878 0.000102284 0.000111196 
-8.07774e-05 -3.0035e-05 0.000125475 -8.18066e-06 2.78821e-06 0.000195505 -0.000153309 3.11342e-05 0.000126815 -6.78875e-05 -6.94681e-05 5.12925e-05 0.000233076 0.00011743 0.000116158 0.000123517 
-3.37314e-05 -1.42047e-05 0.000102409 -9.59954e-07 -5.37922e-06 0.000179078 -7.38983e-05 3.82513e-05 0.000127681 -8.72328e-05 -4.49723e-05 5.94345e-05 0.000199243 0.000106533 0.000120649 0.000113215 
-8.07768e-05 -3.00346e-05 0.000125476 -8.18016e-06 2.78792e-06 0.000195507 -0.000153309 3.11347e-05 0.000126817 -6.78888e-05 -6.94677e-05 5.1293e-05 0.000233079 0.000117431 0.00011616 0.000123519 
-0.000293045 -0.00012155 0.00022172 -7.67425e-05 4.17402e-05 0.000347813 -0.000427782 3.74723e-05 0.000182153 -5.58852e-05 -0.000242014 8.36612e-05 0.000454486 0.000178554 0.000156879 0.000199149 
-6.80604e-05 -3.0798e-05 7.90505e-05 -1.85237e-05 7.80773e-06 0.000132314 -0.000105385 2.24981e-05 8.15158e-05 -4.31426e-05 -6.57068e-05 3.79205e-05 0.000158593 7.20134e-05 7.37283e-05 7.84318e-05 
-3.9807e-05 -1.64358e-05 0.000106122 -2.19126e-06 -4.54881e-06 0.000184407 -8.28964e-05 3.84142e-05 0.000130118 -8.7259e-05 -4.94125e-05 6.04445e-05 0.000206953 0.000109239 0.000122695 0.000116361 
-0.000228294 -0.000122118 2.65215e-05 -0.000114158 7.08709e-05 2.83102e-05 -0.00025356 -1.74071e-05 -4.89453e-05 9.5461e-05 -0.000192993 -1.93359e-05 8.16053e-05 -2.68909e-05 -6.54478e-05 -1.71122e-05 
-6.90717e-05 -2.60442e-05 9.96084e-05 -8.60928e-06 3.21977e-06 0.000156446 -0.000125944 2.47426e-05 0.000100342 -5.30914e-05 -5.98339e-05 4.14285e-05 0.000187655 9.26741e-05 9.17346e-05 9.80162e-05 
-7.42997e-05 -2.79197e-05 9.37671e-05 -1.08468e-05 4.46942e-06 0.000147886 -0.000127974 2.18094e-05 9.22124e-05 -4.63856e-05 -6.27903e-05 3.96494e-05 0.000180031 8.58074e-05 8.39134e-05 9.15525e-05 
-0.000122284 -4.6532e-05 0.000114815 -2.39595e-05 1.09442e-05 0.000184718 -0.000187075 2.33761e-05 0.000106894 -4.6733e-05 -0.000101273 5.11168e-05 0.000233182 0.000100585 9.59403e-05 0.0001102 
-3.37315e-05 -1.42051e-05 0.000102409 -9.60358e-07 -5.37901e-06 0.000179079 -7.38984e-05 3.82516e-05 0.000127682 -8.72332e-05 -4.49728e-05 5.94347e-05 0.000199244 0.000106533 0.00012065 0.000113215 
-8.07771e-05 -3.00348e-05 0.000125474 -8.18057e-06 2.78821e-06 0.000195504 -0.000153309 3.1134e-05 0.000126815 -6.78872e-05 -6.94678e-05 5.12923e-05 0.000233076 0.00011743 0.000116158 0.000123517 
-8.07771e-05 -3.00348e-05 0.000125475 -8.1805e-06 2.7881e-06 0.000195505 -0.000153309 3.11342e-05 0.000126815 -6.78877e-05 -6.94679e-05 5.12926e-05 0.000233076 0.00011743 0.000116158 0.000123517 
-3.97933e-05 -1.64281e-05 0.00010613 -2.18283e-06 -4.55477e-06 0.000184424 -8.28838e-05 3.84192e-05 0.000130136 -8.72753e-05 -4.94024e-05 6.04533e-05 0.000206968 0.000109252 0.000122713 0.000116374 
-0.000158874 -7.94969e-05 4.86229e-05 -6.84557e-05 4.1551e-05 6.96877e-05 -0.000192763 -2.47218e-06 5.20946e-06 3.78642e-05 -0.000133519 3.90642e-06 0.000112793 1.54634e-05 -6.97887e-06 2.34938e-05 
-0.00020487 -0.000109006 2.54548e-05 -0.000101485 6.29449e-05 2.81203e-05 -0.000228564 -1.51334e-05 -4.17184e-05 8.39997e-05 -0.000172944 -1.63534e-05 7.63817e-05 -2.21607e-05 -5.65331e-05 -1.33566e-05 
-8.07777e-05 -3.00351e-05 0.000125474 -8.18099e-06 2.78842e-06 0.000195503 -0.000153308 3.11336e-05 0.000126813 -6.78861e-05 -6.94682e-05 5.1292e-05 0.000233074 0.000117429 0.000116156 0.000123516 
-3.37323e-05 -1.4206e-05 0.00010241 -9.61485e-07 -5.37841e-06 0.00017908 -7.38991e-05 3.8252e-05 0.000127682 -8.72333e-05 -4.4974e-05 5.94348e-05 0.000199245 0.000106534 0.00012065 0.000113216 
-0.000182203 -7.2025e-05 0.000160305 -4.02726e-05 2.05916e-05 0.000253457 -0.000277589 3.06771e-05 0.000142371 -5.59231e-05 -0.00015044 6.48565e-05 0.00032389 0.000136304 0.00012601 0.000149892 
-0.00016866 -6.84538e-05 0.000137691 -4.09416e-05 2.16221e-05 0.000217069 -0.000250941 2.48417e-05 0.000117963 -4.17105e-05 -0.00013931 5.42956e-05 0.000280169 0.00011413 0.000103124 0.000126322 
-4.3311e-05 -1.74681e-05 7.90899e-05 -5.65198e-06 -1.92281e-07 0.000133711 -7.94566e-05 2.53979e-05 9.02889e-05 -5.58791e-05 -4.50474e-05 4.12076e-05 0.000154557 7.80013e-05 8.41075e-05 8.33476e-05 
-0.000247974 -9.91963e-05 0.000233593 -5.44702e-05 2.68007e-05 0.000372789 -0.000381309 4.78443e-05 0.000214464 -9.1052e-05 -0.000208082 9.90635e-05 0.000469616 0.000202217 0.000191368 0.000221745 
-3.29783e-05 -1.38954e-05 9.17774e-05 -1.81564e-06 -4.10813e-06 0.000159966 -6.96103e-05 3.37106e-05 0.000113251 -7.64886e-05 -4.21407e-05 5.26596e-05 0.000178864 9.47996e-05 0.000106835 0.000100905 
-3.87915e-05 -1.61221e-05 8.98949e-05 -3.73839e-06 -2.52558e-06 0.000155275 -7.63899e-05 3.15993e-05 0.000108046 -7.08786e-05 -4.53625e-05 5.00397e-05 0.000175768 9.13106e-05 0.000101489 9.74513e-05 
-6.5271e-05 -2.71192e-05 9.90389e-05 -1.18433e-05 2.69588e-06 0.000167082 -0.000111408 3.01499e-05 0.000109396 -6.44759e-05 -6.47978e-05 5.06776e-05 0.000196048 9.52633e-05 0.000101139 0.000102663 
-4.6472e-05 -1.91433e-05 9.88978e-05 -5.19777e-06 -1.95698e-06 0.000169977 -8.88859e-05 3.39506e-05 0.000117171 -7.56425e-05 -5.22639e-05 5.41149e-05 0.000193669 9.95784e-05 0.000109786 0.000106377 
-8.07771e-05 -3.00348e-05 0.000125474 -8.18054e-06 2.78811e-06 0.000195504 -0.000153308 3.11341e-05 0.000126815 -6.78874e-05 -6.94679e-05 5.12925e-05 0.000233076 0.00011743 0.000116158 0.000123517 
-3.46045e-05 -1.45904e-05 8.44014e-05 -3.18518e-06 -2.68074e-06 0.00014626 -6.92758e-05 3.0153e-05 0.000102274 -6.77183e-05 -4.16288e-05 4.74272e-05 0.000164848 8.61394e-05 9.61603e-05 9.18494e-05 
-4.55537e-05 -1.88792e-05 9.56306e-05 -5.38955e-06 -1.6615e-06 0.000164305 -8.65666e-05 3.27471e-05 0.000113052 -7.27856e-05 -5.10635e-05 5.22374e-05 0.000187326 9.61213e-05 0.000105864 0.000102713 
-8.07773e-05 -3.00349e-05 0.000125475 -8.18057e-06 2.78814e-06 0.000195504 -0.000153308 3.1134e-05 0.000126815 -6.78873e-05 -6.94679e-05 5.12925e-05 0.000233076 0.00011743 0.000116158 0.000123517 
-8.07785e-05 -3.00355e-05 0.000125477 -8.18092e-06 2.78836e-06 0.000195508 -0.000153311 3.11347e-05 0.000126817 -6.78885e-05 -6.94691e-05 5.12932e-05 0.00023308 0.000117432 0.00011616 0.000123519 
-3.3731e-05 -1.42049e-05 0.000102409 -9.60218e-07 -5.37913e-06 0.000179079 -7.38978e-05 3.82517e-05 0.000127682 -8.72334e-05 -4.49724e-05 5.94348e-05 0.000199244 0.000106533 0.00012065 0.000113215 
-0.000204868 -0.000109005 2.54554e-05 -0.000101484 6.29443e-05 2.81215e-05 -0.000228562 -1.5133e-05 -4.17169e-05 8.39981e-05 -0.000172942 -1.63527e-05 7.63826e-05 -2.21595e-05 -5.65316e-05 -1.33555e-05 
-0.000235064 -0.000124298 3.01992e-05 -0.0001153 7.14904e-05 3.38269e-05 -0.000263039 -1.72037e-05 -4.64983e-05 9.53034e-05 -0.000197912 -1.80544e-05 8.96444e-05 -2.41177e-05 -6.34299e-05 -1.40268e-05 
-0.000228285 -0.000122113 2.65228e-05 -0.000114153 7.08675e-05 2.8313e-05 -0.00025355 -1.74057e-05 -4.89404e-05 9.5455e-05 -0.000192985 -1.93336e-05 8.16061e-05 -2.68872e-05 -6.54424e-05 -1.7109e-05 
-0.000128292 -6.22857e-05 4.84808e-05 -5.16619e-05 3.08579e-05 7.21276e-05 -0.000160075 1.02881e-06 1.66628e-05 2.12884e-05 -0.000107579 9.21552e-06 0.000108797 2.3171e-05 6.67129e-06 3.00922e-05 
-8.07773e-05 -3.00349e-05 0.000125475 -8.18047e-06 2.78805e-06 0.000195506 -0.000153309 3.11344e-05 0.000126816 -6.78881e-05 -6.94681e-05 5.12929e-05 0.000233077 0.000117431 0.000116159 0.000123518 
-3.98037e-05 -1.64335e-05 0.000106118 -2.18926e-06 -4.54988e-06 0.000184401 -8.28913e-05 3.84131e-05 0.000130115 -8.72577e-05 -4.94088e-05 6.04434e-05 0.000206947 0.000109237 0.000122693 0.000116358 
-8.07775e-05 -3.0035e-05 0.000125475 -8.18071e-06 2.78827e-06 0.000195505 -0.000153309 3.11343e-05 0.000126816 -6.78876e-05 -6.94683e-05 5.12924e-05 0.000233077 0.00011743 0.000116158 0.000123517 
-0.000235064 -0.000124298 3.01995e-05 -0.000115299 7.14903e-05 3.38268e-05 -0.00026304 -1.72037e-05 -4.64981e-05 9.53033e-05 -0.000197911 -1.80547e-05 8.96447e-05 -2.41174e-05 -6.34296e-05 -1.40264e-05 
-3.29785e-05 -1.38954e-05 9.17777e-05 -1.81566e-06 -4.10815e-06 0.000159966 -6.96107e-05 3.37107e-05 0.000113251 -7.64888e-05 -4.21409e-05 5.26598e-05 0.000178865 9.47999e-05 0.000106835 0.000100905 
-9.21443e-05 -4.22755e-05 5.92664e-05 -3.07218e-05 1.77447e-05 9.07456e-05 -0.000128323 8.61572e-06 4.21492e-05 -5.89526e-06 -7.7704e-05 1.86611e-05 0.000120875 4.3227e-05 3.38958e-05 4.87334e-05 
-3.98099e-05 -1.64376e-05 0.000106121 -2.19313e-06 -4.54764e-06 0.000184406 -8.28993e-05 3.84139e-05 0.000130117 -8.72573e-05 -4.94152e-05 6.04439e-05 0.000206953 0.000109238 0.000122694 0.00011636 
-3.29786e-05 -1.38955e-05 9.1777e-05 -1.81574e-06 -4.10805e-06 0.000159965 -6.96104e-05 3.37104e-05 0.00011325 -7.6488e-05 -4.21408e-05 5.26594e-05 0.000178863 9.47991e-05 0.000106834 0.000100904 
-0.000235068 -0.000124299 3.0196e-05 -0.000115301 7.14917e-05 3.38209e-05 -0.000263042 -1.72056e-05 -4.65038e-05 9.53083e-05 -0.000197914 -1.80567e-05 8.96391e-05 -2.41219e-05 -6.34353e-05 -1.40311e-05 
-0.000128942 -5.41195e-05 9.41631e-05 -3.51344e-05 1.89711e-05 0.000148513 -0.000184643 1.56511e-05 7.64551e-05 -2.2297e-05 -0.00010699 3.63889e-05 0.000194427 7.50433e-05 6.54326e-05 8.39293e-05 
-0.000128931 -5.0553e-05 0.000113049 -2.8128e-05 1.3868e-05 0.000180451 -0.000194257 2.18114e-05 0.000101535 -4.07632e-05 -0.000106598 4.80049e-05 0.000230143 9.66608e-05 9.01327e-05 0.000106424 
-0.000235065 -0.000124298 3.01979e-05 -0.0001153 7.14906e-05 3.38245e-05 -0.00026304 -1.72044e-05 -4.65003e-05 9.5305e-05 -0.000197912 -1.80552e-05 8.96423e-05 -2.41193e-05 -6.34318e-05 -1.40284e-05 
-8.07776e-05 -3.0035e-05 0.000125474 -8.18077e-06 2.7883e-06 0.000195504 -0.000153309 3.1134e-05 0.000126815 -6.7887e-05 -6.94682e-05 5.12923e-05 0.000233076 0.000117429 0.000116157 0.000123517 
-5.17044e-05 -2.11934e-05 8.41987e-05 -8.36766e-06 1.16449e-06 0.000142458 -9.04654e-05 2.62038e-05 9.44427e-05 -5.69023e-05 -5.21692e-05 4.37226e-05 0.000166122 8.19062e-05 8.76329e-05 8.80312e-05 
-8.07768e-05 -3.00346e-05 0.000125475 -8.18036e-06 2.78803e-06 0.000195505 -0.000153308 3.11342e-05 0.000126815 -6.78877e-05 -6.94676e-05 5.12925e-05 0.000233076 0.00011743 0.000116158 0.000123517 
-0.000164487 -8.60731e-05 3.19747e-05 -7.8176e-05 4.80791e-05 4.18211e-05 -0.000189206 -8.14581e-06 -1.8476e-05 5.64926e-05 -0.000139295 -6.5845e-06 8.2498e-05 -4.87981e-06 -3.07782e-05 2.5939e-06 
-8.45236e-05 -3.24946e-05 0.000104567 -1.34943e-05 6.09976e-06 0.000163946 -0.000145299 2.40204e-05 0.000101522 -4.99741e-05 -7.14788e-05 4.28086e-05 0.000200081 9.48802e-05 9.2042e-05 0.000101279 
-3.29792e-05 -1.38958e-05 9.17769e-05 -1.81614e-06 -4.10781e-06 0.000159965 -6.9611e-05 3.37103e-05 0.00011325 -7.64876e-05 -4.21413e-05 5.26593e-05 0.000178863 9.47988e-05 0.000106834 0.000100904 
-0.000164487 -8.60731e-05 3.19746e-05 -7.8176e-05 4.80791e-05 4.1821e-05 -0.000189206 -8.14587e-06 -1.84761e-05 5.64927e-05 -0.000139295 -6.58455e-06 8.24979e-05 -4.87988e-06 -3.07783e-05 2.59382e-06 
-7.47511e-05 -2.87705e-05 0.000105764 -1.02719e-05 4.25524e-06 0.000165343 -0.000135526 2.58428e-05 0.000105347 -5.47832e-05 -6.45464e-05 4.31732e-05 0.000198563 9.77151e-05 9.60074e-05 0.0001033 
-0.000122286 -4.65336e-05 0.000114812 -2.39616e-05 1.09457e-05 0.000184711 -0.000187076 2.33744e-05 0.000106889 -4.6728e-05 -0.000101274 5.11144e-05 0.000233176 0.000100581 9.59344e-05 0.000110195 
-8.07771e-05 -3.00348e-05 0.000125473 -8.18069e-06 2.78826e-06 0.000195502 -0.000153308 3.11336e-05 0.000126813 -6.78863e-05 -6.94677e-05 5.12919e-05 0.000233074 0.000117428 0.000116156 0.000123515 
-0.000204868 -0.000109005 2.54557e-05 -0.000101484 6.29444e-05 2.8122e-05 -0.000228562 -1.51329e-05 -4.17167e-05 8.39981e-05 -0.000172943 -1.63526e-05 7.63831e-05 -2.21593e-05 -5.65314e-05 -1.33553e-05 
-4.68408e-05 -1.88768e-05 7.37711e-05 -7.08501e-06 1.75091e-06 0.000120778 -8.41947e-05 2.11153e-05 7.91424e-05 -4.5423e-05 -4.45952e-05 3.47939e-05 0.000142039 7.03965e-05 7.29441e-05 7.50481e-05 
-0.000292033 -0.000120978 0.000221887 -7.61583e-05 4.13662e-05 0.000348174 -0.000426761 3.76438e-05 0.000182746 -5.6581e-05 -0.000241172 8.39386e-05 0.000454654 0.000178994 0.000157539 0.000199557 
-0.000119686 -4.61778e-05 0.000109486 -2.45468e-05 1.18076e-05 0.000174844 -0.000182949 2.16826e-05 0.000100014 -4.19659e-05 -9.88464e-05 4.69262e-05 0.000221856 9.48006e-05 8.92968e-05 0.00010401 
-9.30816e-05 -4.33616e-05 5.80548e-05 -3.2121e-05 1.86753e-05 8.85128e-05 -0.000128517 8.16837e-06 4.00242e-05 -4.01428e-06 -7.87684e-05 1.76081e-05 0.000118382 4.1462e-05 3.16473e-05 4.68743e-05 
-3.87918e-05 -1.61224e-05 8.98947e-05 -3.73874e-06 -2.52536e-06 0.000155275 -7.63901e-05 3.15992e-05 0.000108046 -7.08782e-05 -4.53629e-05 5.00395e-05 0.000175768 9.13103e-05 0.000101489 9.7451e-05 
-0.000138606 -7.07877e-05 4.05595e-05 -6.19221e-05 3.76252e-05 5.78446e-05 -0.00016634 -2.1292e-06 2.12479e-06 3.47163e-05 -0.000117895 2.00825e-06 9.4468e-05 1.11186e-05 -8.71411e-06 1.78981e-05 
-0.000228299 -0.00012212 2.65203e-05 -0.000114161 7.08724e-05 2.8308e-05 -0.000253563 -1.74082e-05 -4.89487e-05 9.54646e-05 -0.000192996 -1.93368e-05 8.16036e-05 -2.68933e-05 -6.54515e-05 -1.71147e-05 
-0.000182208 -7.20277e-05 0.000160286 -4.02776e-05 2.05948e-05 0.000253426 -0.000277583 3.06691e-05 0.000142345 -5.59037e-05 -0.000150443 6.48485e-05 0.000323857 0.000136282 0.000125985 0.00014987 
-0.000204867 -0.000109004 2.54557e-05 -0.000101483 6.29438e-05 2.81221e-05 -0.000228561 -1.51327e-05 -4.17162e-05 8.39973e-05 -0.000172941 -1.63523e-05 7.63829e-05 -2.21589e-05 -5.65308e-05 -1.3355e-05 
-0.000228287 -0.000122114 2.65237e-05 -0.000114154 7.08681e-05 2.83146e-05 -0.000253553 -1.74055e-05 -4.89399e-05 9.54551e-05 -0.000192987 -1.93334e-05 8.16083e-05 -2.68866e-05 -6.5442e-05 -1.71083e-05 
-0.000122306 -4.65443e-05 0.000114807 -2.39724e-05 1.09526e-05 0.000184702 -0.000187094 2.33701e-05 0.000106875 -4.67133e-05 -0.00010129 5.11092e-05 0.00023317 0.000100571 9.59201e-05 0.000110186 
-0.000204868 -0.000109005 2.54552e-05 -0.000101484 6.29443e-05 2.81211e-05 -0.000228562 -1.51331e-05 -4.17174e-05 8.39985e-05 -0.000172943 -1.63528e-05 7.63822e-05 -2.21598e-05 -5.6532e-05 -1.33558e-05 
-8.07771e-05 -3.00348e-05 0.000125474 -8.18063e-06 2.78821e-06 0.000195503 -0.000153308 3.11338e-05 0.000126814 -6.78868e-05 -6.94677e-05 5.12922e-05 0.000233075 0.000117429 0.000116157 0.000123516 
-3.42194e-05 -1.44099e-05 8.50492e-05 -2.95678e-06 -2.88051e-06 0.000147512 -6.90283e-05 3.05117e-05 0.00010335 -6.86442e-05 -4.14991e-05 4.794e-05 0.000166072 8.69644e-05 9.72256e-05 9.27077e-05 
-5.06478e-05 -2.02042e-05 8.22036e-05 -7.40076e-06 1.02763e-06 0.000137476 -8.99077e-05 2.50608e-05 9.11403e-05 -5.43783e-05 -5.01536e-05 4.13e-05 0.000160861 7.97127e-05 8.44663e-05 8.52898e-05 
-8.07772e-05 -3.00348e-05 0.000125476 -8.18031e-06 2.78797e-06 0.000195507 -0.000153309 3.11346e-05 0.000126817 -6.78886e-05 -6.9468e-05 5.12932e-05 0.000233079 0.000117431 0.00011616 0.000123519 
-3.98081e-05 -1.64357e-05 0.00010612 -2.19111e-06 -4.54875e-06 0.000184404 -8.28975e-05 3.84134e-05 0.000130116 -8.72572e-05 -4.94127e-05 6.04434e-05 0.000206951 0.000109238 0.000122693 0.00011636 
-3.46046e-05 -1.45904e-05 8.44012e-05 -3.18521e-06 -2.6807e-06 0.00014626 -6.92759e-05 3.01529e-05 0.000102274 -6.77181e-05 -4.16288e-05 4.74271e-05 0.000164848 8.61391e-05 9.616e-05 9.18492e-05 
-5.57298e-05 -2.27388e-05 8.33126e-05 -9.6447e-06 2.30466e-06 0.000139358 -9.5616e-05 2.48063e-05 9.09603e-05 -5.29827e-05 -5.43346e-05 4.16325e-05 0.000164073 7.98148e-05 8.3961e-05 8.57551e-05 
-7.87811e-05 -3.06823e-05 9.27939e-05 -1.37644e-05 6.4165e-06 0.000145835 -0.000132609 2.11779e-05 8.93259e-05 -4.31301e-05 -6.68712e-05 3.79053e-05 0.00017886 8.35453e-05 8.07231e-05 8.94809e-05 
-0.000122287 -4.65312e-05 0.000114811 -2.39583e-05 1.09439e-05 0.00018471 -0.000187078 2.33739e-05 0.000106889 -4.67285e-05 -0.000101273 5.11141e-05 0.000233176 0.000100581 9.5935e-05 0.000110196 
-3.37314e-05 -1.42049e-05 0.00010241 -9.60074e-07 -5.37922e-06 0.00017908 -7.38984e-05 3.82518e-05 0.000127683 -8.72338e-05 -4.49726e-05 5.94352e-05 0.000199245 0.000106534 0.00012065 0.000113216 
-0.00029188 -0.000120933 0.000221991 -7.61162e-05 4.13328e-05 0.000348369 -0.000426612 3.77091e-05 0.000182931 -5.67488e-05 -0.00024109 8.40217e-05 0.000454807 0.000179132 0.000157722 0.000199695 
-0.000228291 -0.000122116 2.65239e-05 -0.000114157 7.08696e-05 2.83146e-05 -0.000253557 -1.74058e-05 -4.89411e-05 9.54571e-05 -0.00019299 -1.9334e-05 8.16091e-05 -2.68875e-05 -6.54435e-05 -1.7109e-05 
-0.000204868 -0.000109005 2.54552e-05 -0.000101484 6.29441e-05 2.81212e-05 -0.000228561 -1.5133e-05 -4.1717e-05 8.3998e-05 -0.000172942 -1.63527e-05 7.63821e-05 -2.21596e-05 -5.65316e-05 -1.33557e-05 
-7.5856e-05 -3.08554e-05 8.84425e-05 -1.50712e-05 7.48212e-06 0.000138114 -0.000127076 2.02556e-05 8.39948e-05 -3.9714e-05 -6.5193e-05 3.4895e-05 0.000169063 7.8829e-05 7.54281e-05 8.41962e-05 
-0.000102999 -4.02265e-05 0.000103664 -2.06313e-05 9.83968e-06 0.000165024 -0.000162588 2.2567e-05 9.74017e-05 -4.40359e-05 -8.70294e-05 4.35243e-05 0.000206376 9.13555e-05 8.74105e-05 9.92714e-05 
-4.90742e-05 -2.05721e-05 8.4456e-05 -8.10638e-06 8.18598e-07 0.000143776 -8.68638e-05 2.7195e-05 9.61645e-05 -5.90468e-05 -5.11557e-05 4.45499e-05 0.000166499 8.27798e-05 8.93861e-05 8.89016e-05 
-4.11648e-05 -1.61276e-05 7.89226e-05 -3.94098e-06 -4.18156e-07 0.0001297 -8.02736e-05 2.38706e-05 8.76588e-05 -5.29984e-05 -4.09106e-05 3.81785e-05 0.000150056 7.7216e-05 8.14446e-05 8.1737e-05 
-3.58263e-05 -1.52149e-05 8.3884e-05 -3.82865e-06 -2.24292e-06 0.000145251 -7.04124e-05 2.97642e-05 0.000101124 -6.6544e-05 -4.24953e-05 4.69388e-05 0.000164072 8.52747e-05 9.49652e-05 9.10108e-05 
-6.64201e-05 -2.50266e-05 0.000107805 -6.79808e-06 1.71063e-06 0.000170518 -0.000126307 2.82811e-05 0.00011176 -6.19428e-05 -5.91319e-05 4.6288e-05 0.000201755 0.000102044 0.000102768 0.000107576 
-0.000128134 -4.98031e-05 0.000114739 -2.71055e-05 1.3045e-05 0.000183771 -0.00019364 2.24924e-05 0.000104324 -4.31271e-05 -0.000105987 4.97678e-05 0.000233527 9.89e-05 9.29661e-05 0.000108734 
-8.07781e-05 -3.00352e-05 0.000125473 -8.18104e-06 2.7885e-06 0.000195502 -0.000153309 3.11335e-05 0.000126813 -6.78858e-05 -6.94684e-05 5.12918e-05 0.000233074 0.000117428 0.000116156 0.000123515 
-0.000122292 -4.65364e-05 0.00011482 -2.39632e-05 1.09466e-05 0.000184724 -0.000187086 2.33766e-05 0.000106897 -4.67321e-05 -0.00010128 5.11172e-05 0.00023319 0.000100588 9.59415e-05 0.000110203 
-0.000100219 -3.8994e-05 0.000100536 -2.01404e-05 8.75557e-06 0.00016343 -0.000154741 2.24811e-05 9.67378e-05 -4.52939e-05 -8.54635e-05 4.60443e-05 0.00020343 8.94842e-05 8.72706e-05 9.77824e-05 
-0.000204868 -0.000109005 2.54558e-05 -0.000101484 6.2944e-05 2.81223e-05 -0.000228562 -1.51327e-05 -4.17162e-05 8.39974e-05 -0.000172942 -1.63524e-05 7.63833e-05 -2.21589e-05 -5.65309e-05 -1.33549e-05 
-0.000228285 -0.000122113 2.65238e-05 -0.000114153 7.08675e-05 2.83149e-05 -0.000253551 -1.74052e-05 -4.8939e-05 9.5454e-05 -0.000192985 -1.93329e-05 8.16082e-05 -2.68861e-05 -6.5441e-05 -1.71078e-05 
-0.000195231 -0.00010221 3.42898e-05 -9.32467e-05 5.75389e-05 4.3353e-05 -0.000223166 -1.12335e-05 -2.67941e-05 7.06867e-05 -0.000164616 -9.87175e-06 9.1271e-05 -9.82771e-06 -4.11673e-05 -1.03701e-06 
-0.000107137 -5.54578e-05 3.95389e-05 -4.80865e-05 2.83579e-05 6.08146e-05 -0.000129916 2.62294e-06 1.38636e-05 1.72437e-05 -9.41361e-05 7.76576e-06 8.96289e-05 1.78711e-05 4.98129e-06 2.38359e-05 
-8.07779e-05 -3.00352e-05 0.000125475 -8.18087e-06 2.78832e-06 0.000195505 -0.000153309 3.11341e-05 0.000126815 -6.78873e-05 -6.94685e-05 5.12925e-05 0.000233077 0.00011743 0.000116158 0.000123517 
-3.37323e-05 -1.4205e-05 0.000102407 -9.60302e-07 -5.37889e-06 0.000179075 -7.38987e-05 3.82506e-05 0.000127679 -8.7231e-05 -4.49726e-05 5.94336e-05 0.000199241 0.000106531 0.000120647 0.000113213 
-0.00021322 -0.000112967 3.01473e-05 -0.000104515 6.47156e-05 3.53423e-05 -0.000239752 -1.45812e-05 -3.87015e-05 8.40479e-05 -0.000180004 -1.49152e-05 8.62345e-05 -1.89892e-05 -5.42197e-05 -9.64317e-06 
-0.000235067 -0.0001243 3.01976e-05 -0.000115302 7.14917e-05 3.38236e-05 -0.000263042 -1.72048e-05 -4.65017e-05 9.53067e-05 -0.000197914 -1.80559e-05 8.96417e-05 -2.41203e-05 -6.34333e-05 -1.40293e-05 
-8.85821e-05 -3.39535e-05 0.000105596 -1.50346e-05 6.17942e-06 0.000169347 -0.00014695 2.60636e-05 0.000105148 -5.36223e-05 -7.74288e-05 4.60601e-05 0.000206854 9.66265e-05 9.56162e-05 0.000103704 
-0.000228289 -0.000122115 2.65225e-05 -0.000114156 7.08691e-05 2.83123e-05 -0.000253555 -1.74062e-05 -4.89424e-05 9.54576e-05 -0.000192989 -1.93343e-05 8.16063e-05 -2.68886e-05 -6.54447e-05 -1.71103e-05 
-3.35565e-05 -1.41538e-05 9.06162e-05 -2.16099e-06 -3.79043e-06 0.000157735 -6.99424e-05 3.30835e-05 0.00011137 -7.48957e-05 -4.22802e-05 5.17574e-05 0.000176665 9.3351e-05 0.000104982 9.93961e-05 
-8.07772e-05 -3.00348e-05 0.000125476 -8.18038e-06 2.78799e-06 0.000195506 -0.000153309 3.11345e-05 0.000126816 -6.78884e-05 -6.9468e-05 5.1293e-05 0.000233078 0.000117431 0.000116159 0.000123518 
-0.000204868 -0.000109005 2.54555e-05 -0.000101484 6.29441e-05 2.81218e-05 -0.000228562 -1.51329e-05 -4.17166e-05 8.39978e-05 -0.000172942 -1.63525e-05 7.63828e-05 -2.21593e-05 -5.65313e-05 -1.33553e-05 
-0.000204868 -0.000109005 2.54552e-05 -0.000101484 6.29444e-05 2.81212e-05 -0.000228562 -1.51331e-05 -4.17173e-05 8.39984e-05 -0.000172943 -1.63527e-05 7.63822e-05 -2.21598e-05 -5.6532e-05 -1.33558e-05 
-0.000164487 -8.60731e-05 3.19748e-05 -7.81761e-05 4.80791e-05 4.18213e-05 -0.000189206 -8.14577e-06 -1.84758e-05 5.64925e-05 -0.000139296 -6.58445e-06 8.24983e-05 -4.87968e-06 -3.07781e-05 2.59403e-06 
-0.000112764 -5.51275e-05 6.0817e-05 -4.34391e-05 2.60167e-05 9.02361e-05 -0.000151255 6.76309e-06 3.50066e-05 5.45279e-06 -9.59647e-05 1.43133e-05 0.000124131 3.88154e-05 2.48331e-05 4.47246e-05 
-0.000110528 -5.38107e-05 5.95375e-05 -4.23017e-05 2.52982e-05 8.84922e-05 -0.000148208 6.58906e-06 3.4396e-05 5.19926e-06 -9.39257e-05 1.4217e-05 0.000121827 3.80894e-05 2.44852e-05 4.3927e-05 
-3.72647e-05 -1.59101e-05 9.5214e-05 -3.26638e-06 -3.37427e-06 0.000165594 -7.56026e-05 3.45077e-05 0.000116276 -7.7645e-05 -4.6042e-05 5.41139e-05 0.000185904 9.76152e-05 0.000109426 0.000104011 
-8.41281e-05 -3.97971e-05 4.91002e-05 -3.05083e-05 1.72911e-05 7.723e-05 -0.000112187 7.43904e-06 3.4089e-05 -3.19242e-06 -7.27365e-05 1.63957e-05 0.000103639 3.45042e-05 2.67667e-05 3.98336e-05 
-7.47513e-05 -2.87706e-05 0.000105764 -1.02721e-05 4.2553e-06 0.000165343 -0.000135526 2.58427e-05 0.000105347 -5.47829e-05 -6.45466e-05 4.31731e-05 0.000198562 9.77148e-05 9.60071e-05 0.000103299 
-0.000228299 -0.00012212 2.65203e-05 -0.000114161 7.08725e-05 2.8308e-05 -0.000253563 -1.74082e-05 -4.89487e-05 9.54646e-05 -0.000192996 -1.93368e-05 8.16036e-05 -2.68934e-05 -6.54515e-05 -1.71147e-05 
-5.01377e-05 -2.01486e-05 7.80917e-05 -7.89775e-06 1.43367e-06 0.000130855 -8.73812e-05 2.34808e-05 8.60847e-05 -5.08141e-05 -4.9145e-05 3.94361e-05 0.000153604 7.53499e-05 7.96879e-05 8.08886e-05 
-3.3731e-05 -1.42048e-05 0.00010241 -9.60091e-07 -5.37931e-06 0.000179081 -7.38981e-05 3.82523e-05 0.000127684 -8.72349e-05 -4.49727e-05 5.94356e-05 0.000199247 0.000106535 0.000120651 0.000113217 
-0.000108585 -5.35738e-05 5.29078e-05 -4.32393e-05 2.59465e-05 7.82611e-05 -0.000142293 4.83036e-06 2.7054e-05 9.74938e-06 -9.2446e-05 1.13494e-05 0.000110059 3.13693e-05 1.75385e-05 3.70007e-05 
-0.000126494 -5.04144e-05 0.000106233 -2.93053e-05 1.46623e-05 0.00016978 -0.000187331 2.00249e-05 9.38734e-05 -3.60069e-05 -0.000104879 4.50688e-05 0.000217482 8.96952e-05 8.28132e-05 9.90758e-05 
-0.000204868 -0.000109005 2.54554e-05 -0.000101484 6.29441e-05 2.81216e-05 -0.000228561 -1.51329e-05 -4.17167e-05 8.39978e-05 -0.000172942 -1.63525e-05 7.63826e-05 -2.21594e-05 -5.65314e-05 -1.33554e-05 
-4.64722e-05 -1.91439e-05 9.88946e-05 -5.19892e-06 -1.95626e-06 0.000169972 -8.88837e-05 3.39495e-05 0.000117167 -7.56395e-05 -5.2264e-05 5.41136e-05 0.000193664 9.95748e-05 0.000109782 0.000106373 
-9.7297e-05 -4.63605e-05 5.42925e-05 -3.57492e-05 2.11023e-05 8.19285e-05 -0.000131163 6.58082e-06 3.3621e-05 1.71491e-06 -8.25272e-05 1.45675e-05 0.000112031 3.61588e-05 2.50413e-05 4.16004e-05 
-8.0777e-05 -3.00348e-05 0.000125476 -8.1803e-06 2.78794e-06 0.000195507 -0.000153309 3.11346e-05 0.000126817 -6.78887e-05 -6.94679e-05 5.12932e-05 0.000233078 0.000117431 0.00011616 0.000123518 
-8.07773e-05 -3.00349e-05 0.000125474 -8.18066e-06 2.78822e-06 0.000195504 -0.000153308 3.11339e-05 0.000126814 -6.7887e-05 -6.94679e-05 5.12922e-05 0.000233075 0.000117429 0.000116157 0.000123516 
-6.31069e-05 -2.56993e-05 9.81875e-05 -1.04345e-05 1.95833e-06 0.000165289 -0.000109211 2.97771e-05 0.000108711 -6.43779e-05 -6.23647e-05 5.0223e-05 0.000193793 9.48077e-05 0.000100673 0.000101989 
-8.07484e-05 -2.99915e-05 0.000124599 -8.24733e-06 2.83409e-06 0.000194177 -0.000152795 3.08563e-05 0.000125828 -6.72492e-05 -6.93746e-05 5.09589e-05 0.000231667 0.000116546 0.000115239 0.000122627 
-0.000235064 -0.000124297 3.0196e-05 -0.000115299 7.14903e-05 3.38212e-05 -0.000263037 -1.72051e-05 -4.65023e-05 9.53061e-05 -0.00019791 -1.80561e-05 8.96386e-05 -2.4121e-05 -6.34335e-05 -1.40302e-05 
-0.000235069 -0.0001243 3.02e-05 -0.000115302 7.14916e-05 3.38273e-05 -0.000263045 -1.72043e-05 -4.64993e-05 9.53055e-05 -0.000197915 -1.80551e-05 8.96462e-05 -2.4118e-05 -6.34312e-05 -1.40269e-05 
-3.42198e-05 -1.441e-05 8.50492e-05 -2.95691e-06 -2.88042e-06 0.000147512 -6.90287e-05 3.05117e-05 0.00010335 -6.8644e-05 -4.14993e-05 4.79399e-05 0.000166072 8.69643e-05 9.72254e-05 9.27076e-05 
-0.000235065 -0.000124298 3.01961e-05 -0.0001153 7.14907e-05 3.38217e-05 -0.000263038 -1.72049e-05 -4.65023e-05 9.53062e-05 -0.000197911 -1.80559e-05 8.96391e-05 -2.4121e-05 -6.34336e-05 -1.40302e-05 
-9.72622e-05 -4.67341e-05 5.74862e-05 -3.58266e-05 2.11659e-05 8.66316e-05 -0.000132756 7.74452e-06 3.71511e-05 -5.75343e-07 -8.30854e-05 1.55557e-05 0.000116834 3.93043e-05 2.8258e-05 4.4669e-05 
-0.000204869 -0.000109006 2.54548e-05 -0.000101484 6.29445e-05 2.81205e-05 -0.000228562 -1.51332e-05 -4.17179e-05 8.39989e-05 -0.000172943 -1.6353e-05 7.63815e-05 -2.21603e-05 -5.65326e-05 -1.33563e-05 
-3.42199e-05 -1.44101e-05 8.5049e-05 -2.95705e-06 -2.88033e-06 0.000147511 -6.90287e-05 3.05116e-05 0.00010335 -6.86438e-05 -4.14994e-05 4.79397e-05 0.000166072 8.6964e-05 9.72251e-05 9.27073e-05 
-0.000204868 -0.000109005 2.54553e-05 -0.000101484 6.29441e-05 2.81213e-05 -0.000228562 -1.5133e-05 -4.1717e-05 8.3998e-05 -0.000172942 -1.63526e-05 7.63824e-05 -2.21595e-05 -5.65316e-05 -1.33556e-05 
-9.2486e-05 -4.74176e-05 4.98486e-05 -3.92101e-05 2.20252e-05 8.06423e-05 -0.000117614 8.91524e-06 3.36373e-05 -1.46955e-06 -8.41421e-05 1.68449e-05 0.00010735 3.30833e-05 2.52058e-05 3.9065e-05 
-3.3732e-05 -1.42053e-05 0.000102409 -9.60645e-07 -5.37882e-06 0.000179078 -7.38989e-05 3.82515e-05 0.000127681 -8.72328e-05 -4.49732e-05 5.94345e-05 0.000199244 0.000106533 0.000120649 0.000113215 
-0.000204868 -0.000109005 2.54558e-05 -0.000101484 6.29444e-05 2.81222e-05 -0.000228562 -1.51329e-05 -4.17166e-05 8.3998e-05 -0.000172943 -1.63525e-05 7.63833e-05 -2.21592e-05 -5.65313e-05 -1.33552e-05 
-0.00012229 -4.65365e-05 0.000114815 -2.39642e-05 1.09472e-05 0.000184716 -0.000187081 2.33751e-05 0.000106891 -4.67284e-05 -0.000101279 5.11155e-05 0.000233181 0.000100583 9.59361e-05 0.000110198 
-3.37307e-05 -1.42045e-05 0.00010241 -9.59698e-07 -5.37954e-06 0.000179081 -7.38979e-05 3.82522e-05 0.000127684 -8.72348e-05 -4.49722e-05 5.94357e-05 0.000199246 0.000106535 0.000120651 0.000113217 
-7.45926e-05 -3.72461e-05 4.87809e-05 -2.92453e-05 1.6042e-05 7.91866e-05 -9.92578e-05 1.01289e-05 3.81691e-05 -9.15118e-06 -6.81865e-05 1.82474e-05 0.000102177 3.6206e-05 3.10588e-05 4.13427e-05 
-0.000137045 -6.62123e-05 5.20286e-05 -5.47667e-05 3.25892e-05 7.7803e-05 -0.00017075 1.21007e-06 1.84319e-05 2.21019e-05 -0.000114837 1.05213e-05 0.000117069 2.52267e-05 7.80996e-06 3.26334e-05 
-6.19243e-05 -2.43506e-05 8.06478e-05 -1.07826e-05 3.2317e-06 0.000134029 -0.000102101 2.20239e-05 8.51262e-05 -4.7012e-05 -5.6943e-05 3.97846e-05 0.000160642 7.58087e-05 7.82257e-05 8.19483e-05 
-0.000122864 -4.7369e-05 0.000115155 -2.48492e-05 1.16313e-05 0.000184775 -0.000188163 2.33861e-05 0.000106649 -4.61127e-05 -0.000102 5.05359e-05 0.000233257 0.000100486 9.55456e-05 0.00011013 
-3.98024e-05 -1.6433e-05 0.000106121 -2.18849e-06 -4.55042e-06 0.000184406 -8.28914e-05 3.84143e-05 0.000130119 -8.72606e-05 -4.94082e-05 6.04449e-05 0.000206951 0.00010924 0.000122697 0.000116361 
-0.000235066 -0.000124298 3.01977e-05 -0.0001153 7.14906e-05 3.38238e-05 -0.000263041 -1.72048e-05 -4.65009e-05 9.53057e-05 -0.000197912 -1.80557e-05 8.9642e-05 -2.41196e-05 -6.34323e-05 -1.40286e-05 
-0.000228292 -0.000122117 2.65227e-05 -0.000114158 7.08704e-05 2.83128e-05 -0.000253557 -1.74062e-05 -4.8943e-05 9.54587e-05 -0.000192992 -1.93346e-05 8.16071e-05 -2.68892e-05 -6.54456e-05 -1.71107e-05 
-0.000124454 -5.14972e-05 9.72931e-05 -3.21651e-05 1.69172e-05 0.000154361 -0.000180922 1.73356e-05 8.23134e-05 -2.77767e-05 -0.000103582 3.92136e-05 0.000199678 7.96605e-05 7.14733e-05 8.8526e-05 
-8.07772e-05 -3.00349e-05 0.000125476 -8.18051e-06 2.7881e-06 0.000195506 -0.000153309 3.11345e-05 0.000126816 -6.78882e-05 -6.94681e-05 5.12928e-05 0.000233078 0.000117431 0.000116159 0.000123518 
-3.46046e-05 -1.45904e-05 8.44015e-05 -3.18519e-06 -2.68073e-06 0.00014626 -6.9276e-05 3.0153e-05 0.000102274 -6.77183e-05 -4.16289e-05 4.74272e-05 0.000164848 8.61394e-05 9.61603e-05 9.18494e-05 
-0.000204868 -0.000109005 2.54552e-05 -0.000101484 6.29442e-05 2.81213e-05 -0.000228562 -1.5133e-05 -4.17171e-05 8.39982e-05 -0.000172942 -1.63527e-05 7.63823e-05 -2.21597e-05 -5.65318e-05 -1.33557e-05 
-3.49708e-05 -1.46807e-05 8.87828e-05 -2.76914e-06 -3.22834e-06 0.000154077 -7.12101e-05 3.19896e-05 0.000108178 -7.20927e-05 -4.27683e-05 5.0158e-05 0.000173242 9.09682e-05 0.000101815 9.69142e-05 
-0.000122859 -4.73661e-05 0.000115157 -2.48461e-05 1.16292e-05 0.000184778 -0.000188159 2.33873e-05 0.000106654 -4.61172e-05 -0.000101996 5.0538e-05 0.00023326 0.000100489 9.55503e-05 0.000110134 
-9.30598e-05 -4.24573e-05 6.0645e-05 -3.06145e-05 1.76288e-05 9.30333e-05 -0.000130037 8.93914e-06 4.36737e-05 -6.78508e-06 -7.83893e-05 1.93995e-05 0.000123683 4.46009e-05 3.53486e-05 5.02306e-05 
-9.6385e-05 -5.01577e-05 4.7066e-05 -4.24012e-05 2.41473e-05 7.56462e-05 -0.000120322 7.51683e-06 2.84687e-05 3.39792e-06 -8.74717e-05 1.45227e-05 0.000102624 2.8892e-05 1.98289e-05 3.49279e-05 
-8.07765e-05 -3.00345e-05 0.000125475 -8.1802e-06 2.78791e-06 0.000195505 -0.000153308 3.11343e-05 0.000126816 -6.78879e-05 -6.94674e-05 5.12927e-05 0.000233076 0.00011743 0.000116158 0.000123517 
-0.000228284 -0.000122112 2.6525e-05 -0.000114153 7.0867e-05 2.8317e-05 -0.00025355 -1.74046e-05 -4.89371e-05 9.54523e-05 -0.000192985 -1.93321e-05 8.16102e-05 -2.68846e-05 -6.54392e-05 -1.71063e-05 
-6.90718e-05 -2.60443e-05 9.96083e-05 -8.60937e-06 3.21983e-06 0.000156445 -0.000125944 2.47425e-05 0.000100342 -5.30912e-05 -5.9834e-05 4.14284e-05 0.000187655 9.26739e-05 9.17344e-05 9.8016e-05 
-3.29791e-05 -1.38958e-05 9.17772e-05 -1.81612e-06 -4.10783e-06 0.000159965 -6.96111e-05 3.37104e-05 0.00011325 -7.64879e-05 -4.21413e-05 5.26594e-05 0.000178864 9.47992e-05 0.000106834 0.000100904 
-8.07772e-05 -3.00348e-05 0.000125475 -8.18042e-06 2.78809e-06 0.000195505 -0.000153309 3.11343e-05 0.000126816 -6.78879e-05 -6.9468e-05 5.12926e-05 0.000233077 0.00011743 0.000116159 0.000123518 
-0.000228285 -0.000122113 2.6524e-05 -0.000114154 7.08677e-05 2.83149e-05 -0.000253551 -1.74053e-05 -4.89392e-05 9.54544e-05 -0.000192986 -1.9333e-05 8.16081e-05 -2.68862e-05 -6.54413e-05 -1.71079e-05 
-3.49707e-05 -1.46806e-05 8.87829e-05 -2.76904e-06 -3.2284e-06 0.000154077 -7.12101e-05 3.19896e-05 0.000108178 -7.20928e-05 -4.27682e-05 5.01581e-05 0.000173242 9.09683e-05 0.000101815 9.69143e-05 
-3.37345e-05 -1.42067e-05 0.00010241 -9.61785e-07 -5.37818e-06 0.000179081 -7.39021e-05 3.82518e-05 0.000127682 -8.72329e-05 -4.49754e-05 5.94351e-05 0.000199247 0.000106534 0.00012065 0.000113216 
-8.07769e-05 -3.00347e-05 0.000125475 -8.18036e-06 2.78802e-06 0.000195505 -0.000153308 3.11342e-05 0.000126815 -6.78877e-05 -6.94677e-05 5.12926e-05 0.000233076 0.00011743 0.000116158 0.000123517 
-3.37286e-05 -1.42035e-05 0.00010241 -9.58734e-07 -5.38021e-06 0.000179082 -7.38956e-05 3.82528e-05 0.000127685 -8.72366e-05 -4.49709e-05 5.94362e-05 0.000199247 0.000106536 0.000120653 0.000113218 
-9.67188e-05 -4.63408e-05 5.72943e-05 -3.54368e-05 2.09157e-05 8.64118e-05 -0.000132098 7.71736e-06 3.71686e-05 -7.60442e-07 -8.25319e-05 1.56322e-05 0.000116527 3.92798e-05 2.83482e-05 4.46379e-05 
-3.29788e-05 -1.38957e-05 9.17778e-05 -1.81593e-06 -4.10798e-06 0.000159966 -6.96109e-05 3.37107e-05 0.000113251 -7.64886e-05 -4.21412e-05 5.26598e-05 0.000178865 9.47998e-05 0.000106835 0.000100905 
-0.000130186 -5.23929e-05 0.000106789 -3.10943e-05 1.586e-05 0.000170145 -0.000191837 1.96412e-05 9.29995e-05 -3.42486e-05 -0.000107827 4.45238e-05 0.000218781 8.92927e-05 8.16687e-05 9.88413e-05 
-0.000235064 -0.000124297 3.01948e-05 -0.0001153 7.14905e-05 3.38193e-05 -0.000263037 -1.72055e-05 -4.6504e-05 9.53073e-05 -0.00019791 -1.80566e-05 8.96362e-05 -2.41223e-05 -6.34352e-05 -1.40318e-05 
-3.53147e-05 -1.48464e-05 8.71363e-05 -3.09159e-06 -2.90332e-06 0.000151035 -7.10723e-05 3.12001e-05 0.000105739 -7.0147e-05 -4.26557e-05 4.90182e-05 0.000170113 8.90364e-05 9.9444e-05 9.48954e-05 
-3.37313e-05 -1.42046e-05 0.000102408 -9.59864e-07 -5.37918e-06 0.000179076 -7.3898e-05 3.8251e-05 0.00012768 -8.72321e-05 -4.4972e-05 5.9434e-05 0.000199242 0.000106532 0.000120648 0.000113214 
-8.62764e-05 -3.27938e-05 0.000108429 -1.34808e-05 5.34891e-06 0.00017308 -0.000146623 2.68832e-05 0.000108584 -5.61692e-05 -7.52661e-05 4.6925e-05 0.000210309 9.98398e-05 9.8961e-05 0.000106719 
-0.000204868 -0.000109005 2.54549e-05 -0.000101484 6.29444e-05 2.81207e-05 -0.000228562 -1.51331e-05 -4.17176e-05 8.39986e-05 -0.000172942 -1.63529e-05 7.63817e-05 -2.21601e-05 -5.65323e-05 -1.33561e-05 
-0.000122286 -4.65315e-05 0.000114812 -2.39586e-05 1.09441e-05 0.000184712 -0.000187078 2.33741e-05 0.00010689 -4.6729e-05 -0.000101273 5.11145e-05 0.000233177 0.000100582 9.59358e-05 0.000110197 
-0.000127306 -6.08268e-05 5.39008e-05 -4.92546e-05 2.91654e-05 8.12881e-05 -0.000161821 2.90479e-06 2.41394e-05 1.5577e-05 -0.000106688 1.25963e-05 0.000118794 2.95602e-05 1.40886e-05 3.66915e-05 
-0.000189463 -9.9723e-05 2.96097e-05 -9.16624e-05 5.66728e-05 3.59927e-05 -0.000214663 -1.20733e-05 -3.07398e-05 7.20011e-05 -0.00015977 -1.16813e-05 8.18114e-05 -1.36412e-05 -4.45919e-05 -5.28119e-06 
-0.000150091 -6.381e-05 0.000108893 -4.19525e-05 2.30807e-05 0.000170571 -0.000215579 1.78581e-05 8.71239e-05 -2.40883e-05 -0.000124697 4.04202e-05 0.000223748 8.59845e-05 7.41542e-05 9.62205e-05 
-8.0777e-05 -3.00347e-05 0.000125474 -8.18053e-06 2.78813e-06 0.000195504 -0.000153308 3.1134e-05 0.000126815 -6.78871e-05 -6.94677e-05 5.12923e-05 0.000233075 0.000117429 0.000116157 0.000123517 
-3.37338e-05 -1.42063e-05 0.000102409 -9.61564e-07 -5.37819e-06 0.000179078 -7.39007e-05 3.8251e-05 0.00012768 -8.72314e-05 -4.49744e-05 5.94341e-05 0.000199244 0.000106532 0.000120648 0.000113214 
-0.000204868 -0.000109005 2.54554e-05 -0.000101484 6.29441e-05 2.81215e-05 -0.000228561 -1.51329e-05 -4.17168e-05 8.39979e-05 -0.000172942 -1.63526e-05 7.63824e-05 -2.21595e-05 -5.65315e-05 -1.33555e-05 
-8.07772e-05 -3.00349e-05 0.000125475 -8.18056e-06 2.78815e-06 0.000195505 -0.000153309 3.11341e-05 0.000126815 -6.78874e-05 -6.94679e-05 5.12925e-05 0.000233076 0.00011743 0.000116158 0.000123517 
-0.000122281 -4.65307e-05 0.000114817 -2.39581e-05 1.09433e-05 0.000184721 -0.000187072 2.3377e-05 0.000106897 -4.67358e-05 -0.000101271 5.11183e-05 0.000233184 0.000100588 9.59433e-05 0.000110203 
-6.9072e-05 -2.60444e-05 9.96082e-05 -8.60946e-06 3.2199e-06 0.000156445 -0.000125944 2.47425e-05 0.000100342 -5.3091e-05 -5.98342e-05 4.14283e-05 0.000187654 9.26738e-05 9.17342e-05 9.80159e-05 
-8.248e-05 -3.29378e-05 9.03761e-05 -1.67128e-05 7.64767e-06 0.00014466 -0.000132465 2.15829e-05 8.76114e-05 -4.24144e-05 -7.20567e-05 3.86093e-05 0.000178048 8.10157e-05 7.89707e-05 8.73582e-05 
-0.00017339 -9.1651e-05 3.10244e-05 -8.40245e-05 5.15859e-05 4.04636e-05 -0.000197213 -9.02664e-06 -2.24095e-05 6.14486e-05 -0.000147649 -7.91533e-06 8.26232e-05 -8.09315e-06 -3.53471e-05 -1.47662e-07 
-8.85821e-05 -3.39535e-05 0.000105596 -1.50346e-05 6.17942e-06 0.000169347 -0.00014695 2.60636e-05 0.000105148 -5.36223e-05 -7.74288e-05 4.60601e-05 0.000206854 9.66265e-05 9.56162e-05 0.000103704 
-0.000128135 -4.98038e-05 0.000114738 -2.71064e-05 1.30456e-05 0.000183769 -0.000193641 2.24919e-05 0.000104322 -4.31256e-05 -0.000105987 4.97674e-05 0.000233526 9.88987e-05 9.29645e-05 0.000108733 
-0.000101078 -5.26734e-05 4.18119e-05 -4.53892e-05 2.63711e-05 6.58376e-05 -0.000123562 4.67146e-06 1.94941e-05 1.13403e-05 -9.02478e-05 1.04397e-05 9.32848e-05 2.1882e-05 1.0816e-05 2.77856e-05 
-0.000228286 -0.000122114 2.65246e-05 -0.000114154 7.0868e-05 2.83162e-05 -0.000253552 -1.7405e-05 -4.89385e-05 9.54539e-05 -0.000192987 -1.93327e-05 8.16097e-05 -2.68856e-05 -6.54406e-05 -1.71072e-05 
-0.000122291 -4.65365e-05 0.000114813 -2.39642e-05 1.09473e-05 0.000184713 -0.000187081 2.33743e-05 0.000106888 -4.67264e-05 -0.000101279 5.11141e-05 0.000233178 0.000100581 9.59336e-05 0.000110196 
-8.08364e-05 -3.20317e-05 9.30651e-05 -1.54297e-05 6.90928e-06 0.000148514 -0.000132531 2.24518e-05 9.10047e-05 -4.49566e-05 -7.06065e-05 3.96401e-05 0.000181826 8.40795e-05 8.22778e-05 9.03219e-05 
-0.000122284 -4.65315e-05 0.000114811 -2.39592e-05 1.09443e-05 0.00018471 -0.000187073 2.3374e-05 0.000106888 -4.67285e-05 -0.000101272 5.11143e-05 0.000233174 0.00010058 9.59344e-05 0.000110195 
-3.98086e-05 -1.64369e-05 0.000106119 -2.19277e-06 -4.54769e-06 0.000184401 -8.28967e-05 3.84129e-05 0.000130114 -8.72552e-05 -4.94136e-05 6.04425e-05 0.000206948 0.000109235 0.000122691 0.000116357 
-8.07778e-05 -3.00351e-05 0.000125474 -8.18086e-06 2.78836e-06 0.000195503 -0.000153309 3.11337e-05 0.000126814 -6.78864e-05 -6.94682e-05 5.12921e-05 0.000233075 0.000117429 0.000116157 0.000123516 
-3.51917e-05 -1.50068e-05 8.97223e-05 -3.06795e-06 -3.16561e-06 0.000156034 -7.13781e-05 3.24855e-05 0.000109557 -7.31207e-05 -4.34183e-05 5.09789e-05 0.000175244 9.19667e-05 0.000103117 9.8036e-05 
-8.07494e-05 -2.9992e-05 0.000124599 -8.24774e-06 2.83437e-06 0.000194178 -0.000152796 3.08563e-05 0.000125829 -6.72491e-05 -6.93754e-05 5.09589e-05 0.000231668 0.000116546 0.000115239 0.000122627 
-3.97235e-05 -1.62092e-05 7.70976e-05 -4.97571e-06 -6.75613e-07 0.000131054 -7.41086e-05 2.54269e-05 8.92231e-05 -5.61566e-05 -4.25596e-05 4.08437e-05 0.000150526 7.66347e-05 8.32743e-05 8.17977e-05 
-6.77061e-05 -2.69993e-05 8.18484e-05 -1.29636e-05 4.6849e-06 0.000135175 -0.000109389 2.14365e-05 8.4278e-05 -4.47197e-05 -6.12385e-05 3.9319e-05 0.000163449 7.57004e-05 7.70052e-05 8.20756e-05 
-8.2791e-05 -4.24087e-05 4.42925e-05 -3.50582e-05 1.97694e-05 7.14321e-05 -0.000105402 7.75511e-06 2.95459e-05 -8.18295e-07 -7.51311e-05 1.47029e-05 9.53758e-05 2.92055e-05 2.20301e-05 3.45576e-05 
-0.000110953 -5.3311e-05 6.50426e-05 -4.08559e-05 2.43151e-05 9.71171e-05 -0.00015179 8.25803e-06 4.09958e-05 6.7295e-07 -9.4217e-05 1.68171e-05 0.000131451 4.40051e-05 3.0825e-05 4.99243e-05 
-6.12982e-05 -2.88766e-05 5.5222e-05 -1.97539e-05 1.03477e-05 8.86875e-05 -9.03305e-05 1.29033e-05 4.96671e-05 -2.01711e-05 -5.58109e-05 2.21111e-05 0.00011001 4.6122e-05 4.3167e-05 5.05897e-05 
-8.66493e-05 -3.93471e-05 5.84405e-05 -2.80403e-05 1.60361e-05 9.00133e-05 -0.000121936 9.1108e-06 4.33258e-05 -8.31416e-06 -7.32299e-05 1.92192e-05 0.000118853 4.3756e-05 3.54934e-05 4.90696e-05 
-0.000110045 -4.38142e-05 0.000103409 -2.40153e-05 1.19924e-05 0.000164078 -0.000170139 2.14499e-05 9.44858e-05 -4.00241e-05 -9.25139e-05 4.24335e-05 0.00020708 8.9393e-05 8.40998e-05 9.76367e-05 
-0.00022829 -0.000122116 2.65208e-05 -0.000114157 7.087e-05 2.83095e-05 -0.000253553 -1.74069e-05 -4.89449e-05 9.54597e-05 -0.000192989 -1.93352e-05 8.16027e-05 -2.68908e-05 -6.54473e-05 -1.71126e-05 
-6.90719e-05 -2.60444e-05 9.96084e-05 -8.60937e-06 3.21983e-06 0.000156446 -0.000125944 2.47426e-05 0.000100342 -5.30913e-05 -5.98341e-05 4.14284e-05 0.000187655 9.26741e-05 9.17346e-05 9.80161e-05 
-7.13393e-05 -3.54783e-05 5.09635e-05 -2.73326e-05 1.46195e-05 8.36532e-05 -9.6297e-05 1.15836e-05 4.26134e-05 -1.34354e-05 -6.60825e-05 2.04083e-05 0.000106156 3.95305e-05 3.5616e-05 4.47165e-05 
-3.42194e-05 -1.44099e-05 8.50491e-05 -2.95677e-06 -2.88051e-06 0.000147512 -6.90282e-05 3.05117e-05 0.00010335 -6.86442e-05 -4.1499e-05 4.79399e-05 0.000166072 8.69644e-05 9.72255e-05 9.27076e-05 
-6.89768e-05 -2.60223e-05 9.97564e-05 -8.57914e-06 3.19962e-06 0.000156677 -0.000125917 2.48105e-05 0.000100541 -5.32466e-05 -5.97897e-05 4.14884e-05 0.000187867 9.28397e-05 9.19237e-05 9.81787e-05 
-8.88909e-05 -3.64239e-05 0.000104163 -1.78028e-05 9.13066e-06 0.000161294 -0.000150093 2.33233e-05 9.78029e-05 -4.54318e-05 -7.58104e-05 3.9943e-05 0.00019742 9.23936e-05 8.76026e-05 9.84223e-05 
-0.000124282 -4.9098e-05 0.000107998 -2.76694e-05 1.38925e-05 0.000171779 -0.000187262 2.05975e-05 9.61595e-05 -3.78183e-05 -0.00010271 4.50367e-05 0.00021947 9.18448e-05 8.51373e-05 0.000101164 
-8.07768e-05 -3.00347e-05 0.000125475 -8.18041e-06 2.78805e-06 0.000195504 -0.000153308 3.11342e-05 0.000126815 -6.78875e-05 -6.94677e-05 5.12924e-05 0.000233076 0.00011743 0.000116158 0.000123517 
-8.07766e-05 -3.00345e-05 0.000125475 -8.18024e-06 2.78789e-06 0.000195505 -0.000153308 3.11343e-05 0.000126816 -6.7888e-05 -6.94675e-05 5.12928e-05 0.000233076 0.00011743 0.000116158 0.000123517 
-6.89767e-05 -2.60222e-05 9.97563e-05 -8.57908e-06 3.19958e-06 0.000156677 -0.000125917 2.48105e-05 0.000100541 -5.32466e-05 -5.97896e-05 4.14884e-05 0.000187867 9.28396e-05 9.19236e-05 9.81786e-05 
-8.07768e-05 -3.00346e-05 0.000125475 -8.18031e-06 2.78797e-06 0.000195504 -0.000153308 3.11342e-05 0.000126815 -6.78876e-05 -6.94676e-05 5.12926e-05 0.000233076 0.00011743 0.000116158 0.000123517 
-3.87924e-05 -1.61224e-05 8.98939e-05 -3.73882e-06 -2.52523e-06 0.000155273 -7.63906e-05 3.15987e-05 0.000108045 -7.08771e-05 -4.5363e-05 5.00388e-05 0.000175766 9.13093e-05 0.000101487 9.745e-05 
-0.000122864 -4.73688e-05 0.000115155 -2.4849e-05 1.16311e-05 0.000184775 -0.000188163 2.3386e-05 0.000106649 -4.61128e-05 -0.000102 5.0536e-05 0.000233257 0.000100486 9.55457e-05 0.00011013 
-3.42195e-05 -1.44099e-05 8.50494e-05 -2.95679e-06 -2.8805e-06 0.000147512 -6.90285e-05 3.05118e-05 0.000103351 -6.86444e-05 -4.14991e-05 4.794e-05 0.000166072 8.69646e-05 9.72258e-05 9.27079e-05 
-0.000235062 -0.000124296 3.01983e-05 -0.000115298 7.14893e-05 3.38253e-05 -0.000263037 -1.7204e-05 -4.64986e-05 9.53029e-05 -0.000197909 -1.80544e-05 8.96426e-05 -2.41179e-05 -6.34298e-05 -1.40272e-05 
-0.000112764 -5.51275e-05 6.08171e-05 -4.34391e-05 2.60167e-05 9.02362e-05 -0.000151255 6.76311e-06 3.50066e-05 5.45275e-06 -9.59647e-05 1.43133e-05 0.000124131 3.88154e-05 2.48331e-05 4.47246e-05 
-0.000204867 -0.000109005 2.54556e-05 -0.000101483 6.29439e-05 2.81219e-05 -0.000228561 -1.51328e-05 -4.17164e-05 8.39975e-05 -0.000172942 -1.63524e-05 7.63827e-05 -2.21591e-05 -5.6531e-05 -1.33552e-05 
-3.51924e-05 -1.50073e-05 8.97222e-05 -3.06847e-06 -3.16528e-06 0.000156033 -7.13789e-05 3.24854e-05 0.000109557 -7.31202e-05 -4.34189e-05 5.09787e-05 0.000175244 9.19664e-05 0.000103117 9.80357e-05 
-8.07763e-05 -3.00342e-05 0.000125476 -8.17977e-06 2.78753e-06 0.000195507 -0.000153308 3.11348e-05 0.000126817 -6.78894e-05 -6.94673e-05 5.12936e-05 0.000233079 0.000117432 0.00011616 0.000123519 
-3.87923e-05 -1.61227e-05 8.98954e-05 -3.73897e-06 -2.52524e-06 0.000155276 -7.63909e-05 3.15994e-05 0.000108047 -7.08786e-05 -4.53634e-05 5.00398e-05 0.000175769 9.13109e-05 0.000101489 9.74516e-05 
-0.000122314 -4.65487e-05 0.000114804 -2.39769e-05 1.09556e-05 0.000184697 -0.000187102 2.33683e-05 0.000106869 -4.67067e-05 -0.000101296 5.11064e-05 0.000233167 0.000100566 9.59134e-05 0.000110181 
-0.000206709 -0.000107613 3.61769e-05 -9.79563e-05 6.04577e-05 4.55594e-05 -0.000236533 -1.20815e-05 -2.84797e-05 7.48286e-05 -0.000173787 -1.04515e-05 9.65175e-05 -1.0361e-05 -4.36128e-05 -1.13963e-06 
-8.07769e-05 -3.00346e-05 0.000125475 -8.18038e-06 2.78796e-06 0.000195505 -0.000153308 3.11342e-05 0.000126815 -6.78877e-05 -6.94677e-05 5.12927e-05 0.000233076 0.00011743 0.000116158 0.000123517 
-7.32969e-05 -3.32648e-05 5.51351e-05 -2.30929e-05 1.27726e-05 8.65235e-05 -0.000104966 1.02386e-05 4.46297e-05 -1.30997e-05 -6.32157e-05 2.00117e-05 0.000111537 4.3418e-05 3.77129e-05 4.82624e-05 
-7.47509e-05 -2.87704e-05 0.000105765 -1.02718e-05 4.25513e-06 0.000165344 -0.000135526 2.5843e-05 0.000105348 -5.47837e-05 -6.45463e-05 4.31735e-05 0.000198563 9.77156e-05 9.60081e-05 0.0001033 
-3.98051e-05 -1.64351e-05 0.000106122 -2.19077e-06 -4.54928e-06 0.000184408 -8.28937e-05 3.84148e-05 0.00013012 -8.72607e-05 -4.94115e-05 6.04454e-05 0.000206954 0.00010924 0.000122697 0.000116362 
-8.07756e-05 -3.0034e-05 0.000125476 -8.17958e-06 2.78744e-06 0.000195507 -0.000153307 3.11347e-05 0.000126817 -6.78894e-05 -6.94668e-05 5.12936e-05 0.000233078 0.000117431 0.00011616 0.000123519 
-3.37297e-05 -1.42039e-05 0.00010241 -9.5917e-07 -5.37977e-06 0.00017908 -7.38967e-05 3.8252e-05 0.000127683 -8.72346e-05 -4.49712e-05 5.94353e-05 0.000199245 0.000106534 0.000120651 0.000113216 
-5.0565e-05 -1.95522e-05 8.13683e-05 -6.17325e-06 1.37827e-06 0.000131228 -9.36257e-05 2.25048e-05 8.62204e-05 -4.89599e-05 -4.67612e-05 3.68925e-05 0.000154748 7.75471e-05 7.94618e-05 8.22233e-05 
-0.000235059 -0.000124295 3.01994e-05 -0.000115297 7.14885e-05 3.38273e-05 -0.000263034 -1.72032e-05 -4.64963e-05 9.53007e-05 -0.000197907 -1.80536e-05 8.96441e-05 -2.41162e-05 -6.34274e-05 -1.40255e-05 
-8.88906e-05 -3.64238e-05 0.000104162 -1.78027e-05 9.13062e-06 0.000161294 -0.000150093 2.33232e-05 9.78026e-05 -4.54317e-05 -7.58101e-05 3.9943e-05 0.00019742 9.23934e-05 8.76024e-05 9.8422e-05 
-6.8977e-05 -2.60224e-05 9.97561e-05 -8.57928e-06 3.19972e-06 0.000156677 -0.000125917 2.48103e-05 0.00010054 -5.32462e-05 -5.97899e-05 4.14883e-05 0.000187867 9.28393e-05 9.19232e-05 9.81783e-05 
-0.000204868 -0.000109005 2.54553e-05 -0.000101484 6.29441e-05 2.81213e-05 -0.000228561 -1.5133e-05 -4.1717e-05 8.3998e-05 -0.000172942 -1.63527e-05 7.63823e-05 -2.21596e-05 -5.65316e-05 -1.33556e-05 
-0.000204868 -0.000109005 2.54554e-05 -0.000101484 6.29443e-05 2.81216e-05 -0.000228562 -1.51329e-05 -4.17169e-05 8.39981e-05 -0.000172942 -1.63527e-05 7.63826e-05 -2.21595e-05 -5.65316e-05 -1.33555e-05 
-8.07767e-05 -3.00345e-05 0.000125474 -8.18036e-06 2.78801e-06 0.000195503 -0.000153307 3.11339e-05 0.000126814 -6.78871e-05 -6.94674e-05 5.12923e-05 0.000233075 0.000117429 0.000116157 0.000123516 
-0.00012893 -5.05531e-05 0.000113051 -2.81281e-05 1.3868e-05 0.000180454 -0.000194256 2.18121e-05 0.000101537 -4.07648e-05 -0.000106598 4.8006e-05 0.000230145 9.66622e-05 9.01346e-05 0.000106426 
-5.30898e-05 -2.1642e-05 7.70406e-05 -9.37699e-06 2.61548e-06 0.000127945 -9.07256e-05 2.25045e-05 8.30242e-05 -4.75954e-05 -5.11267e-05 3.75732e-05 0.000151238 7.32903e-05 7.64341e-05 7.86434e-05 
-0.000235068 -0.000124299 3.01974e-05 -0.000115301 7.14915e-05 3.38234e-05 -0.000263042 -1.72049e-05 -4.65019e-05 9.53068e-05 -0.000197914 -1.80559e-05 8.96416e-05 -2.41204e-05 -6.34335e-05 -1.40295e-05 
-0.000206709 -0.000107613 3.61764e-05 -9.79562e-05 6.04577e-05 4.55585e-05 -0.000236533 -1.20818e-05 -2.84804e-05 7.48291e-05 -0.000173787 -1.04519e-05 9.65167e-05 -1.03615e-05 -4.36135e-05 -1.14015e-06 
-8.07773e-05 -3.00349e-05 0.000125476 -8.1805e-06 2.78811e-06 0.000195506 -0.000153309 3.11344e-05 0.000126816 -6.78881e-05 -6.94681e-05 5.12927e-05 0.000233078 0.000117431 0.000116159 0.000123518 
-0.000228287 -0.000122114 2.65232e-05 -0.000114155 7.08686e-05 2.83138e-05 -0.000253552 -1.74057e-05 -4.89408e-05 9.54559e-05 -0.000192987 -1.93336e-05 8.16072e-05 -2.68874e-05 -6.5443e-05 -1.71091e-05 
-0.000228286 -0.000122113 2.65228e-05 -0.000114154 7.0868e-05 2.8313e-05 -0.000253551 -1.74057e-05 -4.89408e-05 9.54555e-05 -0.000192986 -1.93337e-05 8.16061e-05 -2.68875e-05 -6.54428e-05 -1.71092e-05 
-8.07773e-05 -3.00349e-05 0.000125474 -8.18068e-06 2.78822e-06 0.000195503 -0.000153308 3.11338e-05 0.000126814 -6.78867e-05 -6.94679e-05 5.12922e-05 0.000233075 0.000117429 0.000116157 0.000123516 
-3.37308e-05 -1.42042e-05 0.000102409 -9.59416e-07 -5.37964e-06 0.000179079 -7.38979e-05 3.82518e-05 0.000127682 -8.72341e-05 -4.49719e-05 5.94352e-05 0.000199245 0.000106534 0.00012065 0.000113216 
-5.06478e-05 -2.02042e-05 8.22028e-05 -7.4008e-06 1.02771e-06 0.000137475 -8.99075e-05 2.50605e-05 9.11393e-05 -5.43776e-05 -5.01535e-05 4.12995e-05 0.00016086 7.97119e-05 8.44653e-05 8.5289e-05 
-8.0777e-05 -3.00348e-05 0.000125474 -8.18049e-06 2.78811e-06 0.000195504 -0.000153308 3.11341e-05 0.000126815 -6.78873e-05 -6.94678e-05 5.12924e-05 0.000233076 0.00011743 0.000116158 0.000123517 
-8.44109e-05 -3.77795e-05 6.0131e-05 -2.62017e-05 1.48176e-05 9.30152e-05 -0.000120445 9.94386e-06 4.63959e-05 -1.11727e-05 -7.13286e-05 2.05755e-05 0.000121713 4.62545e-05 3.86773e-05 5.154e-05 
-3.37355e-05 -1.42081e-05 0.000102409 -9.63673e-07 -5.37714e-06 0.000179079 -7.39019e-05 3.82517e-05 0.000127681 -8.72315e-05 -4.4977e-05 5.94344e-05 0.000199245 0.000106532 0.000120648 0.000113215 
-3.49714e-05 -1.46811e-05 8.87828e-05 -2.76955e-06 -3.2281e-06 0.000154077 -7.12107e-05 3.19895e-05 0.000108177 -7.20924e-05 -4.27688e-05 5.01579e-05 0.000173242 9.0968e-05 0.000101815 9.69141e-05 
-3.49707e-05 -1.46807e-05 8.87828e-05 -2.76921e-06 -3.22831e-06 0.000154077 -7.121e-05 3.19896e-05 0.000108178 -7.20927e-05 -4.27683e-05 5.01581e-05 0.000173242 9.09681e-05 0.000101815 9.69142e-05 
-0.000139811 -7.18639e-05 3.62782e-05 -6.36344e-05 3.8832e-05 5.06279e-05 -0.000165522 -3.78779e-06 -3.86594e-06 3.93751e-05 -0.000118636 -5.41657e-07 8.68284e-05 6.07179e-06 -1.46209e-05 1.27333e-05 
-0.000189464 -9.9723e-05 2.96094e-05 -9.16625e-05 5.66728e-05 3.59924e-05 -0.000214663 -1.20734e-05 -3.07401e-05 7.20013e-05 -0.00015977 -1.16814e-05 8.18111e-05 -1.36415e-05 -4.45922e-05 -5.28146e-06 
-3.37343e-05 -1.42068e-05 0.000102408 -9.62358e-07 -5.37773e-06 0.000179076 -7.39006e-05 3.82508e-05 0.000127679 -8.72304e-05 -4.49751e-05 5.94335e-05 0.000199242 0.000106531 0.000120646 0.000113213 
-5.51183e-05 -2.26272e-05 6.66437e-05 -1.12496e-05 4.70303e-06 0.00010802 -9.03839e-05 1.69837e-05 6.69178e-05 -3.43948e-05 -4.95641e-05 2.98897e-05 0.000130699 6.08374e-05 6.07365e-05 6.5576e-05 
-8.85272e-05 -3.39277e-05 0.000105606 -1.50097e-05 6.1629e-06 0.000169369 -0.00014689 2.60736e-05 0.00010518 -5.36585e-05 -7.73865e-05 4.60762e-05 0.000206862 9.66494e-05 9.56505e-05 0.000103725 
-6.67751e-05 -3.21977e-05 5.04079e-05 -2.36568e-05 1.30026e-05 8.01323e-05 -9.39666e-05 1.04803e-05 4.13624e-05 -1.26795e-05 -5.99452e-05 1.85091e-05 0.000101974 3.94407e-05 3.47089e-05 4.39279e-05 
-0.000204867 -0.000109005 2.54554e-05 -0.000101484 6.2944e-05 2.81215e-05 -0.000228561 -1.51329e-05 -4.17168e-05 8.39978e-05 -0.000172942 -1.63525e-05 7.63824e-05 -2.21594e-05 -5.65314e-05 -1.33554e-05 
-0.000204868 -0.000109005 2.54553e-05 -0.000101484 6.29441e-05 2.81213e-05 -0.000228562 -1.5133e-05 -4.1717e-05 8.39981e-05 -0.000172942 -1.63527e-05 7.63823e-05 -2.21596e-05 -5.65316e-05 -1.33556e-05 
-8.0777e-05 -3.00347e-05 0.000125473 -8.18066e-06 2.78826e-06 0.000195502 -0.000153308 3.11337e-05 0.000126813 -6.78863e-05 -6.94676e-05 5.12918e-05 0.000233074 0.000117428 0.000116156 0.000123515 
-0.000122287 -4.65338e-05 0.000114813 -2.39615e-05 1.09457e-05 0.000184713 -0.000187077 2.33749e-05 0.00010689 -4.67291e-05 -0.000101275 5.1115e-05 0.000233178 0.000100582 9.5936e-05 0.000110197 
-0.000235065 -0.000124298 3.01955e-05 -0.0001153 7.14909e-05 3.38202e-05 -0.000263039 -1.72054e-05 -4.65036e-05 9.53074e-05 -0.000197912 -1.80567e-05 8.96378e-05 -2.41219e-05 -6.34348e-05 -1.40311e-05 
-3.42195e-05 -1.441e-05 8.505e-05 -2.95687e-06 -2.88051e-06 0.000147513 -6.90286e-05 3.05121e-05 0.000103351 -6.8645e-05 -4.14994e-05 4.79404e-05 0.000166073 8.69652e-05 9.72265e-05 9.27085e-05 
-0.000204867 -0.000109005 2.5455e-05 -0.000101483 6.2944e-05 2.81208e-05 -0.000228561 -1.51331e-05 -4.17172e-05 8.39981e-05 -0.000172942 -1.63527e-05 7.63817e-05 -2.21598e-05 -5.65318e-05 -1.33559e-05 
-3.37328e-05 -1.42057e-05 0.000102408 -9.61016e-07 -5.37854e-06 0.000179077 -7.38995e-05 3.82511e-05 0.00012768 -8.72316e-05 -4.49736e-05 5.9434e-05 0.000199243 0.000106532 0.000120648 0.000113214 
-3.29789e-05 -1.38958e-05 9.17777e-05 -1.8161e-06 -4.10788e-06 0.000159966 -6.96109e-05 3.37107e-05 0.000113251 -7.64885e-05 -4.21413e-05 5.26597e-05 0.000178865 9.47997e-05 0.000106835 0.000100905 
-0.000185883 -9.76313e-05 3.05539e-05 -8.9473e-05 5.52645e-05 3.7822e-05 -0.000211356 -1.13381e-05 -2.82017e-05 6.92166e-05 -0.00015678 -1.05931e-05 8.30354e-05 -1.1696e-05 -4.18401e-05 -3.43715e-06 
-3.42195e-05 -1.44099e-05 8.50491e-05 -2.95683e-06 -2.88047e-06 0.000147512 -6.90284e-05 3.05117e-05 0.00010335 -6.86441e-05 -4.14991e-05 4.79399e-05 0.000166072 8.69643e-05 9.72254e-05 9.27076e-05 
-7.47513e-05 -2.87706e-05 0.000105764 -1.0272e-05 4.25528e-06 0.000165343 -0.000135526 2.58428e-05 0.000105347 -5.47831e-05 -6.45465e-05 4.31732e-05 0.000198562 9.77149e-05 9.60073e-05 0.000103299 
-0.000228288 -0.000122115 2.65227e-05 -0.000114156 7.08689e-05 2.83128e-05 -0.000253553 -1.7406e-05 -4.89418e-05 9.54569e-05 -0.000192988 -1.93341e-05 8.16064e-05 -2.68882e-05 -6.5444e-05 -1.71099e-05 
-0.000204867 -0.000109005 2.54556e-05 -0.000101483 6.2944e-05 2.81219e-05 -0.000228561 -1.51328e-05 -4.17164e-05 8.39975e-05 -0.000172942 -1.63524e-05 7.63828e-05 -2.21591e-05 -5.65311e-05 -1.33552e-05 
-4.59643e-05 -1.87818e-05 7.76982e-05 -7.02484e-06 7.07159e-07 0.000131213 -8.16596e-05 2.43951e-05 8.75064e-05 -5.31349e-05 -4.67978e-05 4.02432e-05 0.000152524 7.58754e-05 8.12656e-05 8.12988e-05 
-8.07778e-05 -3.00352e-05 0.000125476 -8.18071e-06 2.78827e-06 0.000195506 -0.00015331 3.11343e-05 0.000126816 -6.78878e-05 -6.94684e-05 5.12927e-05 0.000233078 0.000117431 0.000116159 0.000123518 
-3.37309e-05 -1.42043e-05 0.000102407 -9.59721e-07 -5.37928e-06 0.000179074 -7.38968e-05 3.82505e-05 0.000127679 -8.72312e-05 -4.49715e-05 5.94336e-05 0.00019924 0.000106531 0.000120647 0.000113213 
-4.75926e-05 -1.89227e-05 7.02783e-05 -7.66848e-06 1.60662e-06 0.000117694 -8.12398e-05 2.06161e-05 7.6707e-05 -4.45938e-05 -4.57515e-05 3.55672e-05 0.000138904 6.74062e-05 7.08969e-05 7.24906e-05 
-8.0776e-05 -3.00342e-05 0.000125474 -8.18002e-06 2.78777e-06 0.000195504 -0.000153307 3.11342e-05 0.000126815 -6.78879e-05 -6.9467e-05 5.12927e-05 0.000233076 0.00011743 0.000116158 0.000123517 
-9.63851e-05 -5.01578e-05 4.70659e-05 -4.24013e-05 2.41473e-05 7.5646e-05 -0.000120322 7.51677e-06 2.84685e-05 3.39809e-06 -8.74718e-05 1.45227e-05 0.000102624 2.88918e-05 1.98287e-05 3.49277e-05 
-0.000185656 -9.72791e-05 3.11453e-05 -8.8974e-05 5.49407e-05 3.88037e-05 -0.000211512 -1.11696e-05 -2.73372e-05 6.85234e-05 -0.000156453 -1.019e-05 8.41499e-05 -1.09353e-05 -4.09496e-05 -2.6549e-06 
-4.14812e-05 -1.72946e-05 7.23819e-05 -6.5732e-06 6.28634e-07 0.000122489 -7.42851e-05 2.31866e-05 8.20663e-05 -5.02959e-05 -4.31216e-05 3.75914e-05 0.000141784 7.09018e-05 7.6234e-05 7.58847e-05 
-0.000235066 -0.000124299 3.01994e-05 -0.0001153 7.1491e-05 3.38267e-05 -0.000263041 -1.72039e-05 -4.64988e-05 9.53042e-05 -0.000197913 -1.8055e-05 8.96448e-05 -2.41179e-05 -6.34304e-05 -1.40269e-05 
-8.38929e-05 -3.24666e-05 0.000118563 -1.16914e-05 5.07141e-06 0.000184446 -0.000152669 2.8602e-05 0.000117266 -6.03936e-05 -7.20528e-05 4.75714e-05 0.000221603 0.00010918 0.000106709 0.000115274 
-4.64719e-05 -1.91438e-05 9.8898e-05 -5.19843e-06 -1.95664e-06 0.000169977 -8.88852e-05 3.39508e-05 0.000117171 -7.56427e-05 -5.22643e-05 5.41153e-05 0.00019367 9.95786e-05 0.000109786 0.000106377 
-7.6424e-05 -2.89893e-05 9.33817e-05 -1.19049e-05 5.10524e-06 0.000147358 -0.000129937 2.14443e-05 9.11647e-05 -4.51484e-05 -6.45146e-05 3.93959e-05 0.000180006 8.49675e-05 8.27958e-05 9.08803e-05 
-8.07777e-05 -3.00351e-05 0.000125475 -8.18078e-06 2.78832e-06 0.000195504 -0.000153309 3.1134e-05 0.000126815 -6.78871e-05 -6.94683e-05 5.12923e-05 0.000233076 0.00011743 0.000116158 0.000123517 
-9.3749e-05 -4.79658e-05 4.28283e-05 -4.03878e-05 2.33558e-05 6.73827e-05 -0.000117125 5.4349e-06 2.30709e-05 7.01059e-06 -8.32811e-05 1.17393e-05 9.37043e-05 2.4821e-05 1.49335e-05 3.03753e-05 
-0.000102333 -4.76153e-05 6.52787e-05 -3.50049e-05 2.04903e-05 9.89096e-05 -0.00014279 9.30828e-06 4.5267e-05 -5.05426e-06 -8.64625e-05 1.92393e-05 0.000131983 4.69345e-05 3.59295e-05 5.27969e-05 
-8.07778e-05 -3.00351e-05 0.000125474 -8.18084e-06 2.78836e-06 0.000195504 -0.000153309 3.11338e-05 0.000126814 -6.78867e-05 -6.94683e-05 5.12922e-05 0.000233075 0.000117429 0.000116157 0.000123516 
-0.000204868 -0.000109005 2.54554e-05 -0.000101484 6.29443e-05 2.81216e-05 -0.000228562 -1.5133e-05 -4.17169e-05 8.39981e-05 -0.000172942 -1.63526e-05 7.63827e-05 -2.21595e-05 -5.65316e-05 -1.33555e-05 
-3.97817e-05 -1.64853e-05 0.000102091 -2.69762e-06 -3.96196e-06 0.00017711 -8.15302e-05 3.66794e-05 0.000124515 -8.30277e-05 -4.85803e-05 5.77957e-05 0.000199183 0.000104718 0.000117286 0.000111586 
-0.000204867 -0.000109005 2.54556e-05 -0.000101483 6.29439e-05 2.8122e-05 -0.000228561 -1.51328e-05 -4.17163e-05 8.39974e-05 -0.000172942 -1.63523e-05 7.63828e-05 -2.21591e-05 -5.6531e-05 -1.33551e-05 
-6.89769e-05 -2.60224e-05 9.97562e-05 -8.57921e-06 3.19969e-06 0.000156677 -0.000125918 2.48104e-05 0.000100541 -5.32464e-05 -5.97898e-05 4.14883e-05 0.000187867 9.28395e-05 9.19234e-05 9.81785e-05 
-0.000122282 -4.65307e-05 0.000114815 -2.3958e-05 1.09433e-05 0.000184718 -0.000187073 2.3376e-05 0.000106895 -4.67337e-05 -0.000101271 5.11173e-05 0.000233182 0.000100586 9.59409e-05 0.000110201 
-8.07768e-05 -3.00346e-05 0.000125475 -8.18033e-06 2.788e-06 0.000195505 -0.000153308 3.11342e-05 0.000126815 -6.78876e-05 -6.94676e-05 5.12926e-05 0.000233076 0.00011743 0.000116158 0.000123517 
-0.000204867 -0.000109005 2.54549e-05 -0.000101483 6.29439e-05 2.81208e-05 -0.00022856 -1.5133e-05 -4.17172e-05 8.3998e-05 -0.000172942 -1.63527e-05 7.63816e-05 -2.21598e-05 -5.65317e-05 -1.33559e-05 
-8.07773e-05 -3.00349e-05 0.000125475 -8.18054e-06 2.78809e-06 0.000195505 -0.000153309 3.11343e-05 0.000126816 -6.78878e-05 -6.94681e-05 5.12927e-05 0.000233077 0.00011743 0.000116158 0.000123517 
-0.000216516 -0.000115322 2.85847e-05 -0.000107198 6.64253e-05 3.25835e-05 -0.000242196 -1.53496e-05 -4.19412e-05 8.7268e-05 -0.000183093 -1.63495e-05 8.3733e-05 -2.16419e-05 -5.76991e-05 -1.22394e-05 
-0.000176523 -7.12425e-05 0.000147016 -4.19649e-05 2.20419e-05 0.00023182 -0.0002645 2.7012e-05 0.000127131 -4.62952e-05 -0.000145866 5.81045e-05 0.000298436 0.000122662 0.000111488 0.000135519 
-8.07776e-05 -3.00351e-05 0.000125475 -8.18077e-06 2.7883e-06 0.000195505 -0.000153309 3.11341e-05 0.000126815 -6.78873e-05 -6.94683e-05 5.12924e-05 0.000233076 0.00011743 0.000116158 0.000123517 
-0.000204866 -0.000109004 2.54547e-05 -0.000101483 6.29436e-05 2.81204e-05 -0.00022856 -1.51331e-05 -4.17172e-05 8.39978e-05 -0.000172941 -1.63527e-05 7.63811e-05 -2.21598e-05 -5.65316e-05 -1.33559e-05 
-3.60173e-05 -1.52827e-05 8.34415e-05 -3.92312e-06 -2.13997e-06 0.00014438 -7.05293e-05 2.95148e-05 0.000100401 -6.59336e-05 -4.24991e-05 4.65859e-05 0.000163212 8.47281e-05 9.42571e-05 9.04349e-05 
-0.000204868 -0.000109005 2.54555e-05 -0.000101484 6.29442e-05 2.81216e-05 -0.000228562 -1.5133e-05 -4.17168e-05 8.39981e-05 -0.000172942 -1.63527e-05 7.63827e-05 -2.21594e-05 -5.65315e-05 -1.33554e-05 
-0.000116167 -5.76516e-05 5.40868e-05 -4.69863e-05 2.83462e-05 7.9305e-05 -0.000151147 4.20321e-06 2.54753e-05 1.30507e-05 -9.86971e-05 1.05198e-05 0.000112883 3.06683e-05 1.53668e-05 3.65584e-05 
-3.42196e-05 -1.44099e-05 8.50493e-05 -2.95682e-06 -2.88049e-06 0.000147512 -6.90285e-05 3.05118e-05 0.00010335 -6.86443e-05 -4.14992e-05 4.794e-05 0.000166072 8.69645e-05 9.72256e-05 9.27078e-05 
-8.85099e-05 -3.39196e-05 0.000105619 -1.50007e-05 6.15635e-06 0.000169393 -0.000146875 2.60809e-05 0.000105204 -5.36799e-05 -7.73748e-05 4.6087e-05 0.000206883 9.66681e-05 9.5674e-05 0.000103743 
-3.46045e-05 -1.45904e-05 8.44014e-05 -3.18513e-06 -2.68076e-06 0.00014626 -6.92759e-05 3.01529e-05 0.000102274 -6.77183e-05 -4.16288e-05 4.74271e-05 0.000164848 8.61393e-05 9.61602e-05 9.18493e-05 
-3.45957e-05 -1.45653e-05 9.85549e-05 -1.66167e-06 -4.63426e-06 0.000171902 -7.37387e-05 3.63675e-05 0.000121931 -8.26213e-05 -4.46897e-05 5.67099e-05 0.00019192 0.000102001 0.000115063 0.000108483 
-0.000228291 -0.000122116 2.65241e-05 -0.000114156 7.08694e-05 2.83148e-05 -0.000253557 -1.74057e-05 -4.89409e-05 9.54568e-05 -0.00019299 -1.93339e-05 8.16092e-05 -2.68873e-05 -6.54433e-05 -1.71087e-05 
-4.95532e-05 -1.92401e-05 8.01327e-05 -6.12772e-06 1.3339e-06 0.00012948 -9.17048e-05 2.23134e-05 8.51582e-05 -4.85312e-05 -4.60628e-05 3.65352e-05 0.000152533 7.64578e-05 7.85087e-05 8.10934e-05 
-0.000112764 -5.51276e-05 6.0817e-05 -4.34392e-05 2.60167e-05 9.0236e-05 -0.000151255 6.76306e-06 3.50064e-05 5.45291e-06 -9.59648e-05 1.43133e-05 0.000124131 3.88153e-05 2.4833e-05 4.47245e-05 
-0.000235065 -0.000124296 3.01965e-05 -0.000115298 7.14896e-05 3.3822e-05 -0.000263039 -1.72052e-05 -4.65017e-05 9.53057e-05 -0.00019791 -1.80556e-05 8.96402e-05 -2.41203e-05 -6.34328e-05 -1.40294e-05 
-0.000228288 -0.000122115 2.65238e-05 -0.000114155 7.08688e-05 2.83147e-05 -0.000253554 -1.74055e-05 -4.89402e-05 9.54557e-05 -0.000192988 -1.93336e-05 8.16084e-05 -2.6887e-05 -6.54425e-05 -1.71085e-05 
-0.000235066 -0.000124299 3.01977e-05 -0.000115301 7.14912e-05 3.38242e-05 -0.000263041 -1.72045e-05 -4.65009e-05 9.53057e-05 -0.000197913 -1.80556e-05 8.96421e-05 -2.41198e-05 -6.34324e-05 -1.40288e-05 
-0.000204867 -0.000109004 2.54552e-05 -0.000101483 6.29437e-05 2.81213e-05 -0.00022856 -1.51329e-05 -4.17167e-05 8.39975e-05 -0.000172941 -1.63525e-05 7.6382e-05 -2.21594e-05 -5.65312e-05 -1.33554e-05 
-8.07775e-05 -3.00349e-05 0.000125474 -8.18077e-06 2.78832e-06 0.000195503 -0.000153308 3.11337e-05 0.000126814 -6.78863e-05 -6.9468e-05 5.12919e-05 0.000233074 0.000117429 0.000116157 0.000123516 
-4.73512e-05 -1.88283e-05 7.46914e-05 -7.15846e-06 8.54068e-07 0.000126272 -8.19535e-05 2.27459e-05 8.33409e-05 -4.98333e-05 -4.67414e-05 3.90128e-05 0.000147883 7.25446e-05 7.73482e-05 7.80115e-05 
-0.000125256 -6.33279e-05 4.19657e-05 -5.44703e-05 3.2881e-05 6.11693e-05 -0.000152896 -6.83951e-08 8.85342e-06 2.63123e-05 -0.000106771 4.86102e-06 9.51383e-05 1.59942e-05 -1.13176e-06 2.23132e-05 
-0.000228283 -0.000122111 2.65257e-05 -0.000114152 7.08662e-05 2.83185e-05 -0.000253549 -1.74043e-05 -4.89356e-05 9.54508e-05 -0.000192984 -1.93311e-05 8.16116e-05 -2.68833e-05 -6.54375e-05 -1.7105e-05 
-8.85358e-05 -3.39313e-05 0.000105614 -1.50117e-05 6.16432e-06 0.000169381 -0.000146905 2.60755e-05 0.000105187 -5.36612e-05 -7.73939e-05 4.60777e-05 0.000206878 9.66565e-05 9.56568e-05 0.000103733 
-3.42196e-05 -1.441e-05 8.50492e-05 -2.95689e-06 -2.88045e-06 0.000147512 -6.90285e-05 3.05118e-05 0.00010335 -6.86442e-05 -4.14992e-05 4.79399e-05 0.000166072 8.69644e-05 9.72255e-05 9.27076e-05 
-4.64739e-05 -1.91443e-05 9.88955e-05 -5.19895e-06 -1.95614e-06 0.000169973 -8.88868e-05 3.39495e-05 0.000117167 -7.56394e-05 -5.22651e-05 5.41134e-05 0.000193666 9.95755e-05 0.000109782 0.000106374 
-0.000167392 -6.64882e-05 0.000149801 -3.71091e-05 1.87959e-05 0.000237505 -0.000255397 2.92069e-05 0.000134213 -5.38371e-05 -0.000138866 6.14625e-05 0.000302292 0.00012794 0.000119032 0.000140604 
-5.00368e-05 -1.92689e-05 8.64333e-05 -5.27556e-06 6.46066e-07 0.000139611 -9.53465e-05 2.44096e-05 9.27474e-05 -5.37052e-05 -4.6933e-05 3.95883e-05 0.000163524 8.30839e-05 8.57139e-05 8.78849e-05 
-8.98484e-05 -4.22959e-05 5.23081e-05 -3.20928e-05 1.8742e-05 7.96513e-05 -0.000121894 6.83376e-06 3.41801e-05 -8.41871e-07 -7.61879e-05 1.52059e-05 0.000107888 3.60037e-05 2.62481e-05 4.1164e-05 
-0.000204868 -0.000109005 2.5455e-05 -0.000101484 6.29443e-05 2.81208e-05 -0.000228562 -1.51332e-05 -4.17175e-05 8.39985e-05 -0.000172942 -1.63529e-05 7.63818e-05 -2.216e-05 -5.65322e-05 -1.3356e-05 
-3.53144e-05 -1.48462e-05 8.7136e-05 -3.09148e-06 -2.90339e-06 0.000151035 -7.10719e-05 3.12001e-05 0.000105739 -7.0147e-05 -4.26555e-05 4.90182e-05 0.000170113 8.90362e-05 9.94439e-05 9.48953e-05 
-3.42194e-05 -1.44099e-05 8.50493e-05 -2.95676e-06 -2.88052e-06 0.000147512 -6.90283e-05 3.05118e-05 0.000103351 -6.86443e-05 -4.14991e-05 4.794e-05 0.000166072 8.69645e-05 9.72257e-05 9.27078e-05 
-3.29789e-05 -1.38958e-05 9.17776e-05 -1.81605e-06 -4.10789e-06 0.000159966 -6.9611e-05 3.37106e-05 0.000113251 -7.64883e-05 -4.21412e-05 5.26596e-05 0.000178864 9.47996e-05 0.000106835 0.000100905 
-3.49713e-05 -1.4681e-05 8.87827e-05 -2.76954e-06 -3.22809e-06 0.000154076 -7.12106e-05 3.19895e-05 0.000108177 -7.20923e-05 -4.27688e-05 5.01579e-05 0.000173242 9.09679e-05 0.000101815 9.69139e-05 
-3.37318e-05 -1.4205e-05 0.000102408 -9.6028e-07 -5.37902e-06 0.000179077 -7.38985e-05 3.82512e-05 0.000127681 -8.72324e-05 -4.49727e-05 5.94344e-05 0.000199243 0.000106533 0.000120649 0.000113215 
-0.000201741 -0.000104805 3.7204e-05 -9.5077e-05 5.86097e-05 4.76365e-05 -0.000231773 -1.1142e-05 -2.53317e-05 7.12431e-05 -0.000169679 -9.11087e-06 9.76803e-05 -7.9957e-06 -4.01681e-05 1.07808e-06 
-8.85125e-05 -3.39204e-05 0.000105617 -1.50016e-05 6.1571e-06 0.000169389 -0.000146877 2.60794e-05 0.000105199 -5.36762e-05 -7.73762e-05 4.60854e-05 0.000206879 9.66645e-05 9.567e-05 0.00010374 
-8.07776e-05 -3.0035e-05 0.000125475 -8.18074e-06 2.78825e-06 0.000195504 -0.000153309 3.1134e-05 0.000126815 -6.78871e-05 -6.94682e-05 5.12924e-05 0.000233076 0.00011743 0.000116158 0.000123517 
-0.000128137 -4.98053e-05 0.000114739 -2.71079e-05 1.30465e-05 0.000183771 -0.000193643 2.24922e-05 0.000104322 -4.31254e-05 -0.000105989 4.97674e-05 0.000233527 9.8899e-05 9.29646e-05 0.000108733 
-3.29783e-05 -1.38953e-05 9.17774e-05 -1.81558e-06 -4.10817e-06 0.000159966 -6.96102e-05 3.37106e-05 0.000113251 -7.64886e-05 -4.21406e-05 5.26597e-05 0.000178864 9.47996e-05 0.000106835 0.000100905 
-8.07773e-05 -3.00349e-05 0.000125475 -8.18058e-06 2.78816e-06 0.000195505 -0.000153309 3.11341e-05 0.000126815 -6.78874e-05 -6.9468e-05 5.12925e-05 0.000233076 0.00011743 0.000116158 0.000123517 
-4.07185e-05 -1.68933e-05 7.28331e-05 -6.14138e-06 3.30921e-07 0.000123337 -7.36334e-05 2.34769e-05 8.29537e-05 -5.11536e-05 -4.25917e-05 3.79711e-05 0.000142506 7.15848e-05 7.71439e-05 7.65564e-05 
-4.45089e-05 -1.72675e-05 7.94054e-05 -4.68679e-06 1.9871e-07 0.000129614 -8.48455e-05 2.32454e-05 8.66923e-05 -5.12711e-05 -4.29093e-05 3.75547e-05 0.000151081 7.69576e-05 8.0319e-05 8.15056e-05 
-9.44164e-05 -4.89768e-05 4.74349e-05 -4.11715e-05 2.33676e-05 7.63894e-05 -0.000118473 7.84732e-06 2.96704e-05 2.00955e-06 -8.577e-05 1.50388e-05 0.000103041 2.98054e-05 2.11644e-05 3.57857e-05 
-8.07488e-05 -2.99917e-05 0.000124599 -8.24751e-06 2.8342e-06 0.000194177 -0.000152795 3.08563e-05 0.000125828 -6.72492e-05 -6.9375e-05 5.0959e-05 0.000231667 0.000116546 0.000115239 0.000122627 
-0.000105209 -5.4699e-05 4.56798e-05 -4.6802e-05 2.71022e-05 7.22266e-05 -0.000129576 5.65391e-06 2.31587e-05 9.73113e-06 -9.41627e-05 1.21371e-05 0.000101144 2.51605e-05 1.40517e-05 3.14551e-05 
-0.000116167 -5.76516e-05 5.40868e-05 -4.69863e-05 2.83463e-05 7.9305e-05 -0.000151147 4.20322e-06 2.54753e-05 1.30507e-05 -9.86971e-05 1.05198e-05 0.000112883 3.06683e-05 1.53667e-05 3.65584e-05 
-3.9464e-05 -1.62644e-05 7.56434e-05 -5.26922e-06 -4.4804e-07 0.000128697 -7.30738e-05 2.49497e-05 8.74561e-05 -5.49341e-05 -4.22967e-05 4.01157e-05 0.000147876 7.50743e-05 8.15846e-05 8.02047e-05 
-0.00023507 -0.000124301 3.0196e-05 -0.000115303 7.14929e-05 3.38209e-05 -0.000263044 -1.72058e-05 -4.65047e-05 9.53097e-05 -0.000197916 -1.80571e-05 8.96394e-05 -2.41227e-05 -6.34365e-05 -1.40316e-05 
-3.8792e-05 -1.61223e-05 8.98946e-05 -3.73869e-06 -2.52537e-06 0.000155275 -7.63903e-05 3.15991e-05 0.000108046 -7.08781e-05 -4.53629e-05 5.00394e-05 0.000175768 9.13102e-05 0.000101488 9.74509e-05 
-8.07766e-05 -3.00345e-05 0.000125475 -8.18015e-06 2.78782e-06 0.000195506 -0.000153308 3.11345e-05 0.000126816 -6.78886e-05 -6.94676e-05 5.1293e-05 0.000233077 0.000117431 0.000116159 0.000123518 
-0.00022829 -0.000122116 2.6524e-05 -0.000114157 7.08694e-05 2.8315e-05 -0.000253556 -1.74055e-05 -4.89406e-05 9.54563e-05 -0.00019299 -1.93336e-05 8.16091e-05 -2.68872e-05 -6.5443e-05 -1.71087e-05 
-4.73856e-05 -1.88688e-05 7.43404e-05 -7.24281e-06 9.32089e-07 0.000125627 -8.18697e-05 2.25941e-05 8.28321e-05 -4.94362e-05 -4.67126e-05 3.8765e-05 0.000147197 7.21347e-05 7.68505e-05 7.75791e-05 
-6.90717e-05 -2.60443e-05 9.96084e-05 -8.60932e-06 3.21979e-06 0.000156446 -0.000125944 2.47426e-05 0.000100342 -5.30913e-05 -5.9834e-05 4.14284e-05 0.000187655 9.26741e-05 9.17346e-05 9.80161e-05 
-3.9801e-05 -1.6432e-05 0.000106122 -2.18729e-06 -4.55112e-06 0.000184408 -8.2891e-05 3.84149e-05 0.000130122 -8.72626e-05 -4.9407e-05 6.04455e-05 0.000206954 0.000109242 0.000122699 0.000116363 
-3.60173e-05 -1.52827e-05 8.34415e-05 -3.92313e-06 -2.13996e-06 0.00014438 -7.05293e-05 2.95147e-05 0.000100401 -6.59336e-05 -4.24992e-05 4.65859e-05 0.000163212 8.4728e-05 9.42571e-05 9.04349e-05 
-0.000122284 -4.6532e-05 0.000114813 -2.39597e-05 1.09445e-05 0.000184714 -0.000187074 2.33752e-05 0.000106892 -4.67309e-05 -0.000101272 5.11156e-05 0.000233178 0.000100583 9.59375e-05 0.000110198 
-4.64738e-05 -1.91447e-05 9.88959e-05 -5.19947e-06 -1.95582e-06 0.000169973 -8.88867e-05 3.39497e-05 0.000117167 -7.56396e-05 -5.22654e-05 5.41135e-05 0.000193666 9.95758e-05 0.000109782 0.000106374 
-8.0777e-05 -3.00348e-05 0.000125474 -8.18056e-06 2.78816e-06 0.000195503 -0.000153308 3.11339e-05 0.000126814 -6.7887e-05 -6.94677e-05 5.12922e-05 0.000233075 0.000117429 0.000116157 0.000123516 
-0.000204867 -0.000109005 2.54555e-05 -0.000101484 6.29441e-05 2.81218e-05 -0.000228561 -1.51328e-05 -4.17166e-05 8.39977e-05 -0.000172942 -1.63524e-05 7.63827e-05 -2.21593e-05 -5.65312e-05 -1.33553e-05 
-8.41253e-05 -3.21148e-05 0.000107489 -1.26762e-05 5.6212e-06 0.00016821 -0.000146757 2.49549e-05 0.000104939 -5.23415e-05 -7.11812e-05 4.38358e-05 0.00020463 9.80001e-05 9.52905e-05 0.000104332 
-8.07773e-05 -3.00349e-05 0.000125475 -8.18057e-06 2.78813e-06 0.000195505 -0.000153309 3.11341e-05 0.000126815 -6.78874e-05 -6.9468e-05 5.12926e-05 0.000233076 0.00011743 0.000116158 0.000123517 
-8.07768e-05 -3.00346e-05 0.000125474 -8.18043e-06 2.78804e-06 0.000195504 -0.000153308 3.1134e-05 0.000126815 -6.78872e-05 -6.94676e-05 5.12924e-05 0.000233075 0.000117429 0.000116157 0.000123516 
-7.0615e-05 -3.44864e-05 5.04346e-05 -2.59247e-05 1.44495e-05 7.9755e-05 -9.80467e-05 1.00145e-05 3.98121e-05 -1.04549e-05 -6.32261e-05 1.7771e-05 0.000102313 3.84074e-05 3.28478e-05 4.30016e-05 
-3.60173e-05 -1.52827e-05 8.34414e-05 -3.92314e-06 -2.13996e-06 0.00014438 -7.05293e-05 2.95147e-05 0.000100401 -6.59336e-05 -4.24991e-05 4.65859e-05 0.000163212 8.4728e-05 9.4257e-05 9.04348e-05 
-3.98063e-05 -1.64351e-05 0.000106118 -2.19095e-06 -4.54882e-06 0.0001844 -8.2894e-05 3.84127e-05 0.000130114 -8.7256e-05 -4.94111e-05 6.04428e-05 0.000206946 0.000109236 0.000122691 0.000116357 
-9.55896e-05 -4.39475e-05 5.48043e-05 -3.30036e-05 1.88836e-05 8.51073e-05 -0.000128423 7.30965e-06 3.69342e-05 -2.11086e-06 -8.08839e-05 1.76584e-05 0.000115626 3.82742e-05 2.88637e-05 4.41383e-05 
-3.42194e-05 -1.44099e-05 8.50492e-05 -2.95678e-06 -2.88051e-06 0.000147512 -6.90283e-05 3.05118e-05 0.00010335 -6.86442e-05 -4.14991e-05 4.79399e-05 0.000166072 8.69644e-05 9.72256e-05 9.27077e-05 
-0.000122283 -4.65313e-05 0.000114816 -2.39588e-05 1.09436e-05 0.000184719 -0.000187073 2.33766e-05 0.000106896 -4.67345e-05 -0.000101272 5.11178e-05 0.000233183 0.000100586 9.59417e-05 0.000110201 
-0.000168664 -6.84559e-05 0.000137692 -4.09435e-05 2.16233e-05 0.000217071 -0.000250945 2.48419e-05 0.000117963 -4.17097e-05 -0.000139313 5.42954e-05 0.000280172 0.00011413 0.000103124 0.000126323 
-0.000228288 -0.000122115 2.65238e-05 -0.000114156 7.08691e-05 2.83147e-05 -0.000253554 -1.74055e-05 -4.89405e-05 9.5456e-05 -0.000192989 -1.93335e-05 8.16081e-05 -2.68872e-05 -6.54429e-05 -1.71088e-05 
-3.90194e-05 -1.62725e-05 8.88773e-05 -4.00172e-06 -2.29042e-06 0.000153404 -7.62874e-05 3.11278e-05 0.000106532 -6.96687e-05 -4.53473e-05 4.93296e-05 0.00017382 9.01041e-05 0.000100005 9.61857e-05 
-0.000124454 -5.14969e-05 9.72928e-05 -3.21649e-05 1.6917e-05 0.000154361 -0.000180921 1.73356e-05 8.23133e-05 -2.77769e-05 -0.000103582 3.92136e-05 0.000199677 7.96604e-05 7.14733e-05 8.85259e-05 
-8.0777e-05 -3.00347e-05 0.000125474 -8.18056e-06 2.78815e-06 0.000195503 -0.000153308 3.11338e-05 0.000126814 -6.78868e-05 -6.94676e-05 5.12922e-05 0.000233075 0.000117429 0.000116157 0.000123516 
-0.000228288 -0.000122115 2.65266e-05 -0.000114155 7.08686e-05 2.83197e-05 -0.000253554 -1.74043e-05 -4.89365e-05 9.54529e-05 -0.000192989 -1.93317e-05 8.16134e-05 -2.6884e-05 -6.5439e-05 -1.71054e-05 
-3.29788e-05 -1.38957e-05 9.17772e-05 -1.81596e-06 -4.10793e-06 0.000159965 -6.96106e-05 3.37105e-05 0.00011325 -7.64881e-05 -4.2141e-05 5.26595e-05 0.000178864 9.47992e-05 0.000106834 0.000100905 
-3.49714e-05 -1.46811e-05 8.87833e-05 -2.7695e-06 -3.22814e-06 0.000154077 -7.1211e-05 3.19897e-05 0.000108178 -7.20928e-05 -4.27689e-05 5.01582e-05 0.000173243 9.09686e-05 0.000101815 9.69146e-05 
-0.000163485 -6.59097e-05 0.000139765 -3.83338e-05 1.98853e-05 0.000221021 -0.000246168 2.63559e-05 0.000122537 -4.63618e-05 -0.000135568 5.61856e-05 0.000283109 0.000117584 0.000107891 0.000129681 
-0.00023506 -0.000124296 3.02041e-05 -0.000115297 7.14886e-05 3.38353e-05 -0.000263036 -1.72015e-05 -4.64907e-05 9.52969e-05 -0.000197909 -1.8051e-05 8.96522e-05 -2.41115e-05 -6.34222e-05 -1.40206e-05 
-8.07772e-05 -3.00348e-05 0.000125476 -8.18035e-06 2.78798e-06 0.000195507 -0.000153309 3.11346e-05 0.000126817 -6.78886e-05 -6.9468e-05 5.12931e-05 0.000233078 0.000117431 0.000116159 0.000123518 
-3.90201e-05 -1.62729e-05 8.8877e-05 -4.00215e-06 -2.29014e-06 0.000153404 -7.6288e-05 3.11276e-05 0.000106531 -6.96681e-05 -4.53479e-05 4.93294e-05 0.00017382 9.01036e-05 0.000100005 9.61852e-05 
-0.000228288 -0.000122115 2.65226e-05 -0.000114155 7.08687e-05 2.83125e-05 -0.000253554 -1.7406e-05 -4.89418e-05 9.54568e-05 -0.000192988 -1.93343e-05 8.16063e-05 -2.68882e-05 -6.54439e-05 -1.71098e-05 
-0.000182198 -7.2019e-05 0.000160285 -4.0268e-05 2.05894e-05 0.000253423 -0.000277576 3.06688e-05 0.000142348 -5.59077e-05 -0.000150431 6.48482e-05 0.000323854 0.000136284 0.000125988 0.000149871 
-0.000228285 -0.000122113 2.65246e-05 -0.000114153 7.08673e-05 2.8316e-05 -0.000253551 -1.7405e-05 -4.89382e-05 9.54534e-05 -0.000192985 -1.93327e-05 8.16093e-05 -2.68853e-05 -6.54402e-05 -1.7107e-05 
-3.97509e-05 -1.61632e-05 7.78707e-05 -4.82285e-06 -8.10011e-07 0.000132392 -7.44674e-05 2.57275e-05 9.02538e-05 -5.69189e-05 -4.26738e-05 4.13039e-05 0.000151981 7.7497e-05 8.42702e-05 8.26949e-05 
-0.000206849 -8.43153e-05 0.000173573 -5.01211e-05 2.62114e-05 0.000274565 -0.000309245 3.2407e-05 0.000150947 -5.56844e-05 -0.000171938 6.94996e-05 0.000352344 0.000145041 0.000132481 0.000160326 
-8.07785e-05 -3.00355e-05 0.000125477 -8.18092e-06 2.78836e-06 0.000195508 -0.000153311 3.11347e-05 0.000126817 -6.78885e-05 -6.94691e-05 5.12932e-05 0.00023308 0.000117432 0.00011616 0.000123519 
-0.000204868 -0.000109005 2.5456e-05 -0.000101483 6.29438e-05 2.81225e-05 -0.000228562 -1.51327e-05 -4.17159e-05 8.39973e-05 -0.000172942 -1.63523e-05 7.63837e-05 -2.21587e-05 -5.65306e-05 -1.33546e-05 
-7.81137e-05 -2.97005e-05 9.16668e-05 -1.27431e-05 5.66685e-06 0.000144551 -0.000131054 2.06243e-05 8.85617e-05 -4.29371e-05 -6.56038e-05 3.83821e-05 0.000177528 8.28268e-05 8.02323e-05 8.88153e-05 
-3.29779e-05 -1.38951e-05 9.17773e-05 -1.81534e-06 -4.10833e-06 0.000159966 -6.96098e-05 3.37106e-05 0.000113251 -7.64888e-05 -4.21403e-05 5.26598e-05 0.000178864 9.47997e-05 0.000106835 0.000100905 
-5.47012e-05 -2.23853e-05 7.62135e-05 -1.01471e-05 3.02331e-06 0.000126968 -9.18969e-05 2.19457e-05 8.17143e-05 -4.63051e-05 -5.2204e-05 3.74659e-05 0.00015065 7.21473e-05 7.51557e-05 7.77586e-05 
-6.00484e-05 -2.33657e-05 8.37348e-05 -9.53695e-06 2.14792e-06 0.000140153 -0.000100615 2.37278e-05 9.04108e-05 -5.16036e-05 -5.6265e-05 4.25344e-05 0.000166641 7.98272e-05 8.34963e-05 8.61364e-05 
-8.07771e-05 -3.00348e-05 0.000125474 -8.18058e-06 2.78812e-06 0.000195504 -0.000153308 3.1134e-05 0.000126815 -6.78872e-05 -6.94678e-05 5.12924e-05 0.000233075 0.000117429 0.000116158 0.000123517 
-0.000228288 -0.000122115 2.65232e-05 -0.000114156 7.0869e-05 2.83136e-05 -0.000253553 -1.74057e-05 -4.89411e-05 9.54563e-05 -0.000192988 -1.93338e-05 8.16071e-05 -2.68877e-05 -6.54433e-05 -1.71093e-05 
-0.000228291 -0.000122117 2.65219e-05 -0.000114158 7.08701e-05 2.83113e-05 -0.000253556 -1.74067e-05 -4.89439e-05 9.54593e-05 -0.000192991 -1.93348e-05 8.16053e-05 -2.68899e-05 -6.54464e-05 -1.71115e-05 
-5.41074e-05 -2.07252e-05 7.65113e-05 -7.62794e-06 2.33729e-06 0.000123428 -9.50576e-05 1.99889e-05 7.92076e-05 -4.3178e-05 -4.83481e-05 3.47733e-05 0.00014754 7.18195e-05 7.27009e-05 7.66397e-05 
-8.0777e-05 -3.00348e-05 0.000125474 -8.18056e-06 2.78816e-06 0.000195503 -0.000153308 3.11339e-05 0.000126814 -6.7887e-05 -6.94677e-05 5.12922e-05 0.000233075 0.000117429 0.000116157 0.000123516 
-0.000228289 -0.000122116 2.65257e-05 -0.000114156 7.08692e-05 2.83179e-05 -0.000253555 -1.74047e-05 -4.89382e-05 9.54545e-05 -0.00019299 -1.93327e-05 8.16118e-05 -2.68853e-05 -6.54407e-05 -1.71067e-05 
-3.53143e-05 -1.48463e-05 8.71365e-05 -3.0915e-06 -2.90341e-06 0.000151035 -7.10719e-05 3.12002e-05 0.00010574 -7.01474e-05 -4.26555e-05 4.90184e-05 0.000170114 8.90367e-05 9.94445e-05 9.48958e-05 
-3.8793e-05 -1.61229e-05 8.9894e-05 -3.73929e-06 -2.52495e-06 0.000155274 -7.63912e-05 3.15987e-05 0.000108044 -7.08769e-05 -4.53636e-05 5.00389e-05 0.000175767 9.13093e-05 0.000101487 9.745e-05 
-3.42193e-05 -1.44098e-05 8.50493e-05 -2.95663e-06 -2.8806e-06 0.000147512 -6.90283e-05 3.05118e-05 0.000103351 -6.86444e-05 -4.14989e-05 4.794e-05 0.000166072 8.69646e-05 9.72257e-05 9.27078e-05 
-0.000122289 -4.65346e-05 0.000114816 -2.39619e-05 1.09457e-05 0.000184718 -0.00018708 2.33755e-05 0.000106893 -4.67306e-05 -0.000101277 5.11165e-05 0.000233183 0.000100584 9.59386e-05 0.0001102 
-4.20932e-05 -1.68174e-05 7.2301e-05 -5.48448e-06 7.63004e-07 0.000118745 -7.81589e-05 2.13752e-05 7.89965e-05 -4.65983e-05 -4.10126e-05 3.46095e-05 0.000138542 6.98513e-05 7.30947e-05 7.42286e-05 
-0.000124257 -5.77865e-05 6.09937e-05 -4.49366e-05 2.62736e-05 9.3146e-05 -0.000162542 5.47252e-06 3.44229e-05 7.32213e-06 -0.000103832 1.70737e-05 0.000131442 3.83466e-05 2.44201e-05 4.56206e-05 
-0.000168656 -6.84511e-05 0.000137689 -4.09389e-05 2.16204e-05 0.000217067 -0.000250935 2.48415e-05 0.000117963 -4.17116e-05 -0.000139306 5.42958e-05 0.000280166 0.000114129 0.000103124 0.000126322 
-3.37315e-05 -1.42048e-05 0.000102408 -9.60048e-07 -5.37912e-06 0.000179077 -7.38982e-05 3.82512e-05 0.000127681 -8.72324e-05 -4.49723e-05 5.94343e-05 0.000199243 0.000106532 0.000120649 0.000113214 
-3.49714e-05 -1.46811e-05 8.87828e-05 -2.76961e-06 -3.22805e-06 0.000154076 -7.12108e-05 3.19895e-05 0.000108177 -7.20923e-05 -4.27689e-05 5.01579e-05 0.000173242 9.09679e-05 0.000101815 9.6914e-05 
-0.000228294 -0.000122118 2.65237e-05 -0.000114159 7.08709e-05 2.83139e-05 -0.00025356 -1.74062e-05 -4.89427e-05 9.54592e-05 -0.000192993 -1.93349e-05 8.1609e-05 -2.68887e-05 -6.54454e-05 -1.711e-05 
-6.74311e-05 -2.60377e-05 9.20117e-05 -9.90941e-06 4.10989e-06 0.000144687 -0.000119822 2.26024e-05 9.17142e-05 -4.75489e-05 -5.85349e-05 3.8101e-05 0.000174304 8.48408e-05 8.35426e-05 8.99966e-05 
-5.73644e-05 -2.32081e-05 9.06935e-05 -9.15512e-06 1.43653e-06 0.000152906 -9.98029e-05 2.76905e-05 0.000100863 -6.01259e-05 -5.68816e-05 4.66536e-05 0.000178996 8.78635e-05 9.34899e-05 9.4449e-05 
-3.37302e-05 -1.42041e-05 0.00010241 -9.59215e-07 -5.37975e-06 0.000179081 -7.38976e-05 3.82521e-05 0.000127684 -8.7235e-05 -4.49716e-05 5.94357e-05 0.000199246 0.000106535 0.000120652 0.000113217 
-3.83819e-05 -1.56937e-05 7.65282e-05 -4.63147e-06 -9.09286e-07 0.000130374 -7.22094e-05 2.54808e-05 8.9081e-05 -5.64386e-05 -4.16125e-05 4.08392e-05 0.000149404 7.63266e-05 8.3231e-05 8.14632e-05 
-3.42194e-05 -1.44099e-05 8.50494e-05 -2.95678e-06 -2.88052e-06 0.000147512 -6.90284e-05 3.05118e-05 0.000103351 -6.86444e-05 -4.14991e-05 4.79401e-05 0.000166072 8.69646e-05 9.72258e-05 9.27079e-05 
-0.000228291 -0.000122116 2.6522e-05 -0.000114157 7.08699e-05 2.83115e-05 -0.000253556 -1.74066e-05 -4.89437e-05 9.54591e-05 -0.00019299 -1.93348e-05 8.16057e-05 -2.68897e-05 -6.54461e-05 -1.71112e-05 
-3.42195e-05 -1.44099e-05 8.50492e-05 -2.9568e-06 -2.8805e-06 0.000147512 -6.90283e-05 3.05118e-05 0.00010335 -6.86443e-05 -4.14991e-05 4.794e-05 0.000166072 8.69644e-05 9.72256e-05 9.27077e-05 
-0.000228289 -0.000122115 2.65236e-05 -0.000114156 7.08691e-05 2.83142e-05 -0.000253554 -1.74057e-05 -4.89409e-05 9.54564e-05 -0.000192989 -1.93338e-05 8.16079e-05 -2.68874e-05 -6.54432e-05 -1.7109e-05 
-3.42198e-05 -1.44101e-05 8.50494e-05 -2.95701e-06 -2.88037e-06 0.000147512 -6.90288e-05 3.05118e-05 0.000103351 -6.86442e-05 -4.14995e-05 4.794e-05 0.000166072 8.69645e-05 9.72256e-05 9.27078e-05 
-3.49707e-05 -1.46808e-05 8.87832e-05 -2.76924e-06 -3.22833e-06 0.000154077 -7.121e-05 3.19898e-05 0.000108178 -7.20932e-05 -4.27684e-05 5.01584e-05 0.000173243 9.09686e-05 0.000101816 9.69147e-05 
-3.37323e-05 -1.42058e-05 0.000102412 -9.60887e-07 -5.37887e-06 0.000179084 -7.39002e-05 3.82527e-05 0.000127685 -8.72355e-05 -4.49741e-05 5.94363e-05 0.00019925 0.000106536 0.000120653 0.000113218 
-8.07768e-05 -3.00346e-05 0.000125475 -8.18027e-06 2.78799e-06 0.000195505 -0.000153308 3.11343e-05 0.000126816 -6.78879e-05 -6.94676e-05 5.12926e-05 0.000233077 0.00011743 0.000116158 0.000123517 
-3.49709e-05 -1.46808e-05 8.87831e-05 -2.76927e-06 -3.22828e-06 0.000154077 -7.12104e-05 3.19897e-05 0.000108178 -7.20928e-05 -4.27685e-05 5.01581e-05 0.000173243 9.09684e-05 0.000101815 9.69144e-05 
-8.0749e-05 -2.99919e-05 0.000124599 -8.24769e-06 2.83435e-06 0.000194176 -0.000152795 3.08561e-05 0.000125828 -6.72486e-05 -6.93751e-05 5.09586e-05 0.000231666 0.000116546 0.000115238 0.000122626 
-3.4219e-05 -1.44096e-05 8.50492e-05 -2.95652e-06 -2.88067e-06 0.000147512 -6.90279e-05 3.05118e-05 0.000103351 -6.86444e-05 -4.14987e-05 4.794e-05 0.000166072 8.69645e-05 9.72258e-05 9.27078e-05 
-0.000196841 -0.000104046 2.7911e-05 -9.61675e-05 5.95385e-05 3.27344e-05 -0.000221489 -1.3464e-05 -3.55838e-05 7.74325e-05 -0.000166013 -1.3696e-05 7.98178e-05 -1.73616e-05 -4.98868e-05 -8.76442e-06 
-3.94424e-05 -1.67775e-05 7.62925e-05 -5.94089e-06 -2.38389e-07 0.000130557 -7.24651e-05 2.5613e-05 8.87794e-05 -5.60988e-05 -4.31644e-05 4.1006e-05 0.000149537 7.58219e-05 8.28132e-05 8.11135e-05 
-3.42193e-05 -1.44098e-05 8.50493e-05 -2.95668e-06 -2.88056e-06 0.000147512 -6.90282e-05 3.05118e-05 0.000103351 -6.86443e-05 -4.1499e-05 4.794e-05 0.000166072 8.69645e-05 9.72257e-05 9.27078e-05 
-0.000235065 -0.000124297 3.01944e-05 -0.000115299 7.14906e-05 3.38182e-05 -0.000263039 -1.72059e-05 -4.65047e-05 9.53081e-05 -0.000197911 -1.80573e-05 8.96361e-05 -2.41228e-05 -6.34357e-05 -1.4032e-05 
-0.000228288 -0.000122115 2.65242e-05 -0.000114156 7.0869e-05 2.83156e-05 -0.000253554 -1.74052e-05 -4.89397e-05 9.54554e-05 -0.000192989 -1.93333e-05 8.16091e-05 -2.68867e-05 -6.54421e-05 -1.71082e-05 
-3.85592e-05 -1.58041e-05 7.62305e-05 -4.77495e-06 -7.99538e-07 0.000129823 -7.22911e-05 2.53325e-05 8.85994e-05 -5.60279e-05 -4.17073e-05 4.06166e-05 0.000148852 7.59452e-05 8.27504e-05 8.10702e-05 
-3.42196e-05 -1.44099e-05 8.50494e-05 -2.95679e-06 -2.8805e-06 0.000147512 -6.90286e-05 3.05118e-05 0.000103351 -6.86443e-05 -4.14992e-05 4.794e-05 0.000166072 8.69645e-05 9.72257e-05 9.27078e-05 
-0.000153829 -7.6507e-05 5.05122e-05 -6.52897e-05 3.94561e-05 7.33059e-05 -0.000188172 -1.06173e-06 9.65348e-06 3.31829e-05 -0.000129571 5.80584e-06 0.00011558 1.88806e-05 -2.28756e-06 2.67219e-05 
-8.85161e-05 -3.39224e-05 0.000105613 -1.50038e-05 6.15895e-06 0.000169382 -0.00014688 2.60776e-05 0.000105193 -5.36707e-05 -7.73787e-05 4.60822e-05 0.000206873 9.66599e-05 9.5664e-05 0.000103735 
-0.000126425 -5.25069e-05 9.53678e-05 -3.33977e-05 1.7671e-05 0.000151273 -0.000181841 1.64926e-05 7.93628e-05 -2.52957e-05 -0.000105078 3.81994e-05 0.00019676 7.72133e-05 6.85006e-05 8.60622e-05 
-3.35566e-05 -1.41539e-05 9.06157e-05 -2.16115e-06 -3.79031e-06 0.000157734 -6.99423e-05 3.30833e-05 0.000111369 -7.48951e-05 -4.22802e-05 5.17571e-05 0.000176664 9.33504e-05 0.000104981 9.93955e-05 
-6.74111e-05 -2.60269e-05 9.19234e-05 -9.91022e-06 4.11138e-06 0.00014455 -0.000119754 2.25732e-05 9.16156e-05 -4.74864e-05 -5.85083e-05 3.80671e-05 0.000174154 8.47531e-05 8.34513e-05 8.99074e-05 
-0.000122287 -4.65327e-05 0.00011481 -2.39606e-05 1.09452e-05 0.000184708 -0.000187076 2.33735e-05 0.000106886 -4.67264e-05 -0.000101274 5.11133e-05 0.000233173 0.000100579 9.59323e-05 0.000110193 
-6.00486e-05 -2.33659e-05 8.37347e-05 -9.5371e-06 2.14801e-06 0.000140153 -0.000100615 2.37278e-05 9.04107e-05 -5.16035e-05 -5.62652e-05 4.25343e-05 0.000166641 7.98271e-05 8.34962e-05 8.61364e-05 
-8.07499e-05 -2.99923e-05 0.000124599 -8.24809e-06 2.8346e-06 0.000194176 -0.000152796 3.0856e-05 0.000125827 -6.72481e-05 -6.93757e-05 5.09585e-05 0.000231667 0.000116545 0.000115238 0.000122626 
-3.46046e-05 -1.45904e-05 8.44014e-05 -3.18513e-06 -2.68076e-06 0.00014626 -6.9276e-05 3.01529e-05 0.000102274 -6.77183e-05 -4.16288e-05 4.74271e-05 0.000164848 8.61394e-05 9.61603e-05 9.18494e-05 
-0.00022829 -0.000122116 2.65248e-05 -0.000114156 7.0869e-05 2.83163e-05 -0.000253556 -1.74052e-05 -4.89394e-05 9.54554e-05 -0.00019299 -1.93332e-05 8.16105e-05 -2.68862e-05 -6.54418e-05 -1.71077e-05 
-0.000228285 -0.000122112 2.65226e-05 -0.000114153 7.08673e-05 2.83128e-05 -0.00025355 -1.74057e-05 -4.89404e-05 9.54549e-05 -0.000192985 -1.93334e-05 8.1606e-05 -2.68873e-05 -6.54423e-05 -1.7109e-05 
-9.83876e-05 -4.06522e-05 8.29313e-05 -2.46195e-05 1.27676e-05 0.000131462 -0.000146049 1.59356e-05 7.23458e-05 -2.70642e-05 -8.26373e-05 3.35712e-05 0.000167874 6.9334e-05 6.33505e-05 7.63085e-05 
-4.95297e-05 -1.95033e-05 7.02564e-05 -7.78641e-06 2.35115e-06 0.00011463 -8.59177e-05 1.90888e-05 7.3737e-05 -4.08604e-05 -4.54582e-05 3.28248e-05 0.000136507 6.61901e-05 6.77369e-05 7.08523e-05 
-6.79884e-05 -2.70975e-05 8.35223e-05 -1.27672e-05 4.79591e-06 0.000136825 -0.000111478 2.18339e-05 8.55751e-05 -4.5267e-05 -6.14178e-05 3.89343e-05 0.000165446 7.7164e-05 7.8125e-05 8.33884e-05 
-0.000122294 -4.65377e-05 0.000114814 -2.39653e-05 1.0948e-05 0.000184714 -0.000187085 2.33744e-05 0.000106889 -4.67259e-05 -0.000101281 5.11139e-05 0.00023318 0.000100581 9.59336e-05 0.000110196 
-8.07768e-05 -3.00346e-05 0.000125475 -8.18031e-06 2.78797e-06 0.000195504 -0.000153308 3.11342e-05 0.000126815 -6.78876e-05 -6.94676e-05 5.12926e-05 0.000233076 0.00011743 0.000116158 0.000123517 
-6.96297e-05 -3.11366e-05 5.71209e-05 -2.07692e-05 1.11908e-05 9.03228e-05 -0.000101826 1.14822e-05 4.87118e-05 -1.71056e-05 -6.04399e-05 2.18575e-05 0.000114814 4.65714e-05 4.19606e-05 5.1382e-05 
-7.3687e-05 -2.96222e-05 9.26335e-05 -1.4003e-05 4.95812e-06 0.000153008 -0.000120781 2.48927e-05 9.62857e-05 -5.19491e-05 -6.7533e-05 4.43117e-05 0.000184165 8.61406e-05 8.81204e-05 9.32455e-05 
-7.8691e-05 -3.59643e-05 5.47675e-05 -2.58195e-05 1.41164e-05 8.7257e-05 -0.000109182 1.00581e-05 4.36312e-05 -1.16511e-05 -6.83367e-05 2.06529e-05 0.000113523 4.22916e-05 3.6519e-05 4.76624e-05 
-4.40462e-05 -1.70193e-05 8.49105e-05 -3.78303e-06 -5.82735e-07 0.000138846 -8.67132e-05 2.53599e-05 9.38521e-05 -5.65027e-05 -4.32636e-05 4.0586e-05 0.00016076 8.29903e-05 8.71782e-05 8.76943e-05 
-8.78525e-05 -4.07588e-05 5.37623e-05 -3.02719e-05 1.75361e-05 8.23396e-05 -0.000120613 7.52217e-06 3.69507e-05 -3.44259e-06 -7.43684e-05 1.65025e-05 0.000110555 3.82416e-05 2.91706e-05 4.34432e-05 
-3.49713e-05 -1.46811e-05 8.87829e-05 -2.76958e-06 -3.22808e-06 0.000154077 -7.12107e-05 3.19896e-05 0.000108177 -7.20924e-05 -4.27688e-05 5.0158e-05 0.000173242 9.0968e-05 0.000101815 9.69141e-05 
-9.69296e-05 -4.60256e-05 5.35946e-05 -3.54645e-05 2.08758e-05 8.10085e-05 -0.000130196 6.27794e-06 3.29897e-05 2.02399e-06 -8.19639e-05 1.46671e-05 0.000110953 3.55876e-05 2.45148e-05 4.10149e-05 
-0.000121466 -5.01101e-05 9.37693e-05 -3.13161e-05 1.66232e-05 0.000148225 -0.000176725 1.63691e-05 7.85584e-05 -2.57374e-05 -0.000100686 3.70918e-05 0.000192468 7.63987e-05 6.80424e-05 8.49577e-05 
-0.000167396 -6.64954e-05 0.0001498 -3.71178e-05 1.8801e-05 0.000237505 -0.000255397 2.92072e-05 0.00013421 -5.38331e-05 -0.000138873 6.14615e-05 0.00030229 0.000127937 0.000119028 0.000140601 
-7.27197e-05 -3.36017e-05 5.36116e-05 -2.40416e-05 1.29125e-05 8.62417e-05 -0.000101602 1.07845e-05 4.45507e-05 -1.39816e-05 -6.4204e-05 2.10488e-05 0.000110666 4.23668e-05 3.77626e-05 4.75427e-05 
-8.88908e-05 -3.64239e-05 0.000104163 -1.78028e-05 9.13066e-06 0.000161294 -0.000150093 2.33232e-05 9.78027e-05 -4.54317e-05 -7.58103e-05 3.99429e-05 0.00019742 9.23935e-05 8.76025e-05 9.84222e-05 
-7.59044e-05 -3.08526e-05 8.84666e-05 -1.50556e-05 7.47095e-06 0.000138156 -0.000127143 2.0253e-05 8.40188e-05 -3.97244e-05 -6.52156e-05 3.49169e-05 0.000169132 7.88548e-05 7.54536e-05 8.42258e-05 
-7.42996e-05 -2.79196e-05 9.37672e-05 -1.08468e-05 4.46939e-06 0.000147887 -0.000127974 2.18094e-05 9.22126e-05 -4.63857e-05 -6.27902e-05 3.96495e-05 0.000180031 8.58075e-05 8.39136e-05 9.15526e-05 
-4.33112e-05 -1.74682e-05 7.90898e-05 -5.65214e-06 -1.92188e-07 0.000133711 -7.94567e-05 2.53979e-05 9.02888e-05 -5.58789e-05 -4.50476e-05 4.12075e-05 0.000154557 7.80012e-05 8.41074e-05 8.33475e-05 
-8.07773e-05 -3.00349e-05 0.000125474 -8.18063e-06 2.78819e-06 0.000195504 -0.000153308 3.1134e-05 0.000126815 -6.78871e-05 -6.9468e-05 5.12924e-05 0.000233076 0.000117429 0.000116158 0.000123517 
-8.07774e-05 -3.00349e-05 0.000125475 -8.18051e-06 2.78813e-06 0.000195505 -0.000153309 3.11341e-05 0.000126815 -6.78875e-05 -6.9468e-05 5.12926e-05 0.000233076 0.00011743 0.000116158 0.000123517 
