3.21194e-05 2.70256e-05 3.10259e-05 1.26232e-05 -1.29486e-05 -1.40958e-05 4.57757e-06 2.00019e-05 -3.00077e-05 1.07982e-05 1.26808e-05 5.01118e-06 -2.26242e-05 1.63493e-05 1.37327e-05 -3.62733e-05 
3.91982e-05 3.54039e-05 3.26053e-05 1.79447e-05 -1.73321e-05 -1.8302e-05 5.73468e-06 2.72102e-05 -3.35159e-05 1.37029e-05 1.82157e-05 5.50879e-06 -2.88163e-05 2.07505e-05 1.64637e-05 -4.63818e-05 
4.34713e-05 3.23334e-05 3.38755e-05 1.76674e-05 -1.38069e-05 -1.89562e-05 8.43958e-06 3.00234e-05 -2.97343e-05 1.24943e-05 1.986e-05 6.04708e-06 -3.04786e-05 2.12854e-05 1.36618e-05 -4.82344e-05 
2.93107e-05 2.64645e-05 3.65178e-05 9.91496e-06 -1.37947e-05 -1.23727e-05 2.49328e-06 1.48814e-05 -3.65162e-05 1.1074e-05 8.52195e-06 5.28925e-06 -2.01635e-05 1.50171e-05 1.60257e-05 -3.26119e-05 
3.87612e-05 3.07902e-05 3.16119e-05 1.6162e-05 -1.3867e-05 -1.72062e-05 6.83121e-06 2.64627e-05 -2.93345e-05 1.19562e-05 1.74618e-05 5.49954e-06 -2.75154e-05 1.94505e-05 1.37289e-05 -4.3796e-05 
4.73915e-05 4.00834e-05 3.34586e-05 2.23111e-05 -1.83879e-05 -2.21754e-05 8.50194e-06 3.5208e-05 -3.27448e-05 1.50857e-05 2.42333e-05 6.08581e-06 -3.4985e-05 2.4518e-05 1.63823e-05 -5.56438e-05 
3.23676e-05 2.84199e-05 3.51185e-05 1.21078e-05 -1.42819e-05 -1.40306e-05 3.72333e-06 1.86278e-05 -3.48145e-05 1.15856e-05 1.14233e-05 5.36413e-06 -2.26337e-05 1.65903e-05 1.56709e-05 -3.64807e-05 
3.91312e-05 3.26035e-05 3.10212e-05 1.72201e-05 -1.50881e-05 -1.78206e-05 6.64089e-06 2.74093e-05 -2.98913e-05 1.2552e-05 1.83591e-05 5.40146e-06 -2.82903e-05 2.00378e-05 1.43836e-05 -4.51384e-05 
4.89578e-05 3.8863e-05 3.61078e-05 2.15157e-05 -1.7215e-05 -2.21719e-05 9.22737e-06 3.51825e-05 -3.32913e-05 1.4826e-05 2.36392e-05 6.58826e-06 -3.51856e-05 2.47581e-05 1.61308e-05 -5.6011e-05 
2.88467e-05 3.18195e-05 1.95872e-05 1.69839e-05 -1.6797e-05 -1.52911e-05 3.48862e-06 2.31622e-05 -2.47062e-05 1.18464e-05 1.66329e-05 3.41553e-06 -2.32626e-05 1.69991e-05 1.38435e-05 -3.79558e-05 
3.35313e-05 2.67074e-05 3.29686e-05 1.23838e-05 -1.24464e-05 -1.42966e-05 5.06729e-06 2.0361e-05 -3.07335e-05 1.07658e-05 1.27045e-05 5.31821e-06 -2.31565e-05 1.66458e-05 1.36732e-05 -3.69891e-05 
2.69446e-05 2.8494e-05 3.16228e-05 1.14238e-05 -1.55775e-05 -1.25933e-05 1.56712e-06 1.53189e-05 -3.48058e-05 1.15293e-05 9.49991e-06 4.58751e-06 -1.99122e-05 1.49812e-05 1.64068e-05 -3.24965e-05 
3.1025e-05 3.20844e-05 2.25321e-05 1.68781e-05 -1.64837e-05 -1.57828e-05 4.0073e-06 2.37616e-05 -2.64988e-05 1.20813e-05 1.6729e-05 3.91356e-06 -2.42832e-05 1.76098e-05 1.42321e-05 -3.93623e-05 
-4.6762e-06 6.56662e-05 -1.1454e-05 2.87084e-05 -4.10212e-05 -1.97961e-05 -1.29758e-05 1.42396e-05 -3.1311e-05 2.18692e-05 8.86199e-06 1.66687e-06 -1.91686e-05 2.20924e-05 3.51147e-05 -3.85073e-05 
4.57416e-05 3.63238e-05 3.15981e-05 2.0722e-05 -1.60139e-05 -2.09072e-05 8.88659e-06 3.38167e-05 -2.92103e-05 1.37173e-05 2.3067e-05 5.89486e-06 -3.30988e-05 2.31436e-05 1.44045e-05 -5.26114e-05 
3.82246e-05 8.98874e-05 -7.67758e-06 5.1492e-05 -4.69874e-05 -3.98561e-05 1.59037e-06 5.58905e-05 -2.69261e-05 2.93907e-05 3.9569e-05 4.84487e-06 -5.05545e-05 4.21882e-05 3.51726e-05 -8.70427e-05 
2.66295e-05 7.66048e-05 -7.2763e-06 4.21991e-05 -4.13569e-05 -3.21853e-05 -1.30696e-06 4.27095e-05 -2.54619e-05 2.50812e-05 3.02402e-05 3.68895e-06 -3.99075e-05 3.41781e-05 3.16218e-05 -6.94317e-05 
3.04659e-06 6.32515e-05 -9.48829e-06 2.96723e-05 -3.81608e-05 -2.11174e-05 -9.30109e-06 1.97818e-05 -2.78095e-05 2.09966e-05 1.32269e-05 1.97019e-06 -2.25011e-05 2.31941e-05 3.16758e-05 -4.27696e-05 
1.00413e-06 6.88776e-05 -1.09497e-05 3.17277e-05 -4.18076e-05 -2.24544e-05 -1.10479e-05 1.97582e-05 -3.07333e-05 2.28622e-05 1.29379e-05 2.0858e-06 -2.33356e-05 2.47489e-05 3.51169e-05 -4.49348e-05 
9.03343e-07 5.70658e-05 -7.18443e-06 2.58355e-05 -3.54075e-05 -1.80697e-05 -9.65939e-06 1.55006e-05 -2.79001e-05 1.91566e-05 1.0464e-05 1.55597e-06 -1.89142e-05 2.00441e-05 2.95764e-05 -3.65382e-05 
3.25474e-05 3.58731e-05 1.98643e-05 1.96528e-05 -1.90404e-05 -1.69865e-05 3.76864e-06 2.65829e-05 -2.74136e-05 1.33356e-05 2.01405e-05 3.35957e-06 -2.63091e-05 1.86138e-05 1.51083e-05 -4.21997e-05 
3.00054e-05 2.74359e-05 3.01883e-05 1.23672e-05 -1.3839e-05 -1.35424e-05 3.54465e-06 1.85365e-05 -3.08087e-05 1.09649e-05 1.17868e-05 4.73252e-06 -2.1566e-05 1.57791e-05 1.43945e-05 -3.48119e-05 
1.2021e-05 5.0215e-05 -1.37434e-06 2.49376e-05 -2.95449e-05 -1.84936e-05 -4.3201e-06 2.13537e-05 -2.40222e-05 1.69746e-05 1.52756e-05 2.0202e-06 -2.22441e-05 2.01067e-05 2.36417e-05 -3.98218e-05 
3.14145e-05 2.66299e-05 3.09603e-05 1.22516e-05 -1.28522e-05 -1.37659e-05 4.33889e-06 1.93195e-05 -3.00785e-05 1.06753e-05 1.21777e-05 4.95938e-06 -2.21101e-05 1.60197e-05 1.37322e-05 -3.54794e-05 
3.93619e-05 8.37888e-05 -6.12957e-06 4.89522e-05 -4.31156e-05 -3.81438e-05 3.01847e-06 5.50669e-05 -2.41675e-05 2.73104e-05 3.93557e-05 4.63179e-06 -4.92281e-05 4.01438e-05 3.16346e-05 -8.38306e-05 
1.81021e-05 5.38863e-05 1.34014e-05 2.47994e-05 -3.49502e-05 -1.81265e-05 -5.62138e-06 2.06595e-05 -3.99867e-05 1.9628e-05 1.61854e-05 1.98113e-06 -2.38429e-05 2.07004e-05 2.77024e-05 -4.26736e-05 
-9.23448e-06 6.30942e-05 -1.18409e-05 2.62863e-05 -4.03799e-05 -1.76676e-05 -1.45238e-05 9.81585e-06 -3.17814e-05 2.10665e-05 5.6079e-06 1.32755e-06 -1.58424e-05 1.99536e-05 3.51027e-05 -3.33485e-05 
3.11292e-05 2.61869e-05 3.16459e-05 1.17791e-05 -1.25919e-05 -1.35309e-05 4.24476e-06 1.86944e-05 -3.04582e-05 1.05652e-05 1.15603e-05 5.05368e-06 -2.17654e-05 1.58468e-05 1.38012e-05 -3.49611e-05 
1.98994e-05 3.86394e-05 9.30466e-06 1.98642e-05 -2.18725e-05 -1.59705e-05 -2.40703e-07 2.12487e-05 -2.32965e-05 1.36522e-05 1.52962e-05 2.55199e-06 -2.16751e-05 1.76042e-05 1.7598e-05 -3.70504e-05 
3.0945e-05 2.739e-05 3.66755e-05 1.07815e-05 -1.40146e-05 -1.3141e-05 3.04639e-06 1.64691e-05 -3.63565e-05 1.13565e-05 9.70134e-06 5.40786e-06 -2.13717e-05 1.5778e-05 1.60215e-05 -3.44574e-05 
3.46097e-05 2.69397e-05 3.7343e-05 1.15604e-05 -1.25997e-05 -1.42539e-05 4.90944e-06 1.94139e-05 -3.43985e-05 1.11069e-05 1.16062e-05 5.82918e-06 -2.33663e-05 1.68973e-05 1.47917e-05 -3.72928e-05 
3.10475e-05 2.74442e-05 3.66592e-05 1.08386e-05 -1.40432e-05 -1.31823e-05 3.08411e-06 1.65661e-05 -3.63348e-05 1.13823e-05 9.75642e-06 5.42025e-06 -2.14257e-05 1.5836e-05 1.60346e-05 -3.45802e-05 
3.14707e-05 8.61459e-05 -8.04423e-06 4.79144e-05 -4.59026e-05 -3.67697e-05 -7.2662e-07 4.93925e-05 -2.7727e-05 2.8116e-05 3.49753e-05 4.29405e-06 -4.58947e-05 3.89116e-05 3.50095e-05 -7.93719e-05 
1.56896e-05 7.96874e-05 -9.91524e-06 4.06577e-05 -4.58254e-05 -2.99344e-05 -6.59767e-06 3.46821e-05 -3.08256e-05 2.62786e-05 2.42176e-05 3.0345e-06 -3.47984e-05 3.22732e-05 3.63583e-05 -6.29048e-05 
-1.52305e-06 6.74419e-05 -1.11938e-05 3.03834e-05 -4.14693e-05 -2.12657e-05 -1.19036e-05 1.72979e-05 -3.09811e-05 2.24274e-05 1.11049e-05 1.9034e-06 -2.14602e-05 2.35761e-05 3.51277e-05 -4.20769e-05 
3.41767e-05 2.7078e-05 3.30123e-05 1.27346e-05 -1.25412e-05 -1.45969e-05 5.28549e-06 2.09934e-05 -3.0665e-05 1.08793e-05 1.31726e-05 5.36511e-06 -2.36341e-05 1.69447e-05 1.36729e-05 -3.77251e-05 
1.53234e-05 3.90094e-05 6.13591e-06 1.93595e-05 -2.27101e-05 -1.50846e-05 -1.93772e-06 1.86038e-05 -2.29485e-05 1.36449e-05 1.34044e-05 2.16301e-06 -1.9623e-05 1.66073e-05 1.84504e-05 -3.41244e-05 
-1.58308e-06 5.66085e-05 -7.94842e-06 2.50415e-05 -3.54778e-05 -1.73285e-05 -1.05497e-05 1.35467e-05 -2.80735e-05 1.89845e-05 8.94032e-06 1.42774e-06 -1.75086e-05 1.93065e-05 2.99442e-05 -3.44733e-05 
-1.08292e-05 8.76751e-05 -1.27151e-06 3.32993e-05 -6.17192e-05 -2.07758e-05 -2.36437e-05 7.77438e-06 -6.29629e-05 3.10559e-05 6.32433e-06 6.91884e-07 -1.93793e-05 2.45415e-05 5.23654e-05 -4.19908e-05 
3.32879e-05 2.98111e-05 2.54804e-05 1.57597e-05 -1.42484e-05 -1.57704e-05 5.2987e-06 2.40916e-05 -2.6108e-05 1.13584e-05 1.6373e-05 4.50297e-06 -2.47311e-05 1.7681e-05 1.31387e-05 -3.96623e-05 
3.44452e-07 5.4472e-05 -4.96612e-06 2.40118e-05 -3.43134e-05 -1.67263e-05 -9.87646e-06 1.34318e-05 -2.8989e-05 1.84889e-05 9.056e-06 1.47436e-06 -1.74302e-05 1.87396e-05 2.89565e-05 -3.39602e-05 
9.25969e-06 6.67754e-05 -8.87774e-06 3.29714e-05 -3.89869e-05 -2.40412e-05 -7.19658e-06 2.58271e-05 -2.72025e-05 2.20641e-05 1.77314e-05 2.41866e-06 -2.7113e-05 2.60788e-05 3.1647e-05 -4.97906e-05 
1.82133e-05 7.52298e-05 1.88247e-05 3.24384e-05 -5.11295e-05 -2.23848e-05 -1.20152e-05 2.18855e-05 -6.15768e-05 2.78306e-05 1.85471e-05 1.75062e-06 -2.89708e-05 2.57422e-05 4.10098e-05 -5.26208e-05 
3.98806e-05 3.30291e-05 3.10629e-05 1.76247e-05 -1.52042e-05 -1.81661e-05 6.89437e-06 2.81389e-05 -2.9808e-05 1.2687e-05 1.88899e-05 5.45837e-06 -2.88304e-05 2.03898e-05 1.43905e-05 -4.59916e-05 
-4.39974e-06 6.18395e-05 -9.66063e-06 2.67604e-05 -3.90393e-05 -1.83412e-05 -1.25243e-05 1.28677e-05 -3.08938e-05 2.07189e-05 8.1414e-06 1.48549e-06 -1.7805e-05 2.05478e-05 3.3363e-05 -3.58568e-05 
2.48245e-05 5.1574e-05 1.75424e-05 2.44078e-05 -3.33212e-05 -1.76203e-05 -4.11003e-06 2.28695e-05 -4.35337e-05 1.9334e-05 1.99887e-05 1.74711e-06 -2.57997e-05 1.9729e-05 2.58923e-05 -4.31928e-05 
3.32557e-05 5.69219e-05 2.01917e-05 2.84739e-05 -3.55247e-05 -2.10147e-05 -2.1013e-06 2.98804e-05 -4.6343e-05 2.12819e-05 2.57625e-05 2.25007e-06 -3.16518e-05 2.31804e-05 2.69654e-05 -5.18844e-05 
4.81243e-05 3.45738e-05 3.85426e-05 1.87389e-05 -1.44717e-05 -2.05781e-05 9.49988e-06 3.25383e-05 -3.30217e-05 1.34723e-05 2.12915e-05 6.8293e-06 -3.32722e-05 2.32271e-05 1.48029e-05 -5.25853e-05 
5.39089e-05 6.86458e-05 2.20746e-05 3.94799e-05 -3.8342e-05 -3.07037e-05 4.89586e-06 4.99854e-05 -4.42805e-05 2.48574e-05 4.06949e-05 3.75059e-06 -4.69323e-05 3.27838e-05 2.69094e-05 -7.52598e-05 
3.38146e-05 0.000125275 2.66293e-05 5.6431e-05 -8.27931e-05 -3.9534e-05 -1.71781e-05 4.19574e-05 -9.48018e-05 4.56786e-05 3.45003e-05 3.22989e-06 -5.13893e-05 4.46911e-05 6.56036e-05 -9.20611e-05 
2.09577e-05 3.27749e-05 2.10806e-05 1.43085e-05 -1.88785e-05 -1.31756e-05 -4.60231e-07 1.56029e-05 -3.06048e-05 1.24225e-05 1.04065e-05 3.45844e-06 -1.90573e-05 1.52232e-05 1.75943e-05 -3.21011e-05 
4.37567e-05 3.46238e-05 3.77358e-05 1.75997e-05 -1.58326e-05 -1.91175e-05 7.402e-06 2.89079e-05 -3.50222e-05 1.36203e-05 1.88387e-05 6.36719e-06 -3.07081e-05 2.17996e-05 1.60667e-05 -4.89744e-05 
0.000104815 0.000127625 -1.34021e-06 8.68695e-05 -5.59542e-05 -7.11387e-05 2.41573e-05 0.000120657 -2.03394e-05 4.08887e-05 8.77061e-05 9.68057e-06 -9.98181e-05 7.31641e-05 3.49615e-05 -0.000162324 
2.40781e-05 4.42717e-05 1.6429e-05 2.13764e-05 -2.80908e-05 -1.58595e-05 -2.44955e-06 2.15165e-05 -3.71745e-05 1.65819e-05 1.84544e-05 1.77165e-06 -2.35721e-05 1.75866e-05 2.16777e-05 -3.90216e-05 
1.74742e-05 4.07802e-05 1.49185e-05 1.84405e-05 -2.69865e-05 -1.32812e-05 -4.22645e-06 1.59687e-05 -3.59363e-05 1.5365e-05 1.39549e-05 1.3633e-06 -1.91096e-05 1.51419e-05 2.13526e-05 -3.26004e-05 
2.11226e-05 5.54349e-05 1.87685e-05 2.50669e-05 -3.66205e-05 -1.84477e-05 -5.65559e-06 2.12482e-05 -4.52108e-05 2.05796e-05 1.69965e-05 2.12114e-06 -2.50828e-05 2.13246e-05 2.89901e-05 -4.46251e-05 
6.60079e-05 4.46883e-05 4.0145e-05 2.82447e-05 -1.69368e-05 -2.89525e-05 1.55668e-05 4.99156e-05 -3.12133e-05 1.65913e-05 3.41403e-05 8.14423e-06 -4.64155e-05 3.15817e-05 1.47978e-05 -7.28168e-05 
4.63742e-05 6.43271e-05 2.14055e-05 3.54275e-05 -3.73191e-05 -2.71613e-05 2.35101e-06 4.26153e-05 -4.50214e-05 2.35692e-05 3.51754e-05 3.21629e-06 -4.12756e-05 2.93152e-05 2.69635e-05 -6.67112e-05 
4.44993e-05 6.32924e-05 2.12218e-05 3.44549e-05 -3.70601e-05 -2.62869e-05 1.70995e-06 4.08155e-05 -4.52163e-05 2.32332e-05 3.38707e-05 3.07073e-06 -3.99452e-05 2.84182e-05 2.69448e-05 -6.46039e-05 
2.87196e-05 2.61312e-05 3.64931e-05 9.59655e-06 -1.3698e-05 -1.21006e-05 2.29027e-06 1.43077e-05 -3.65883e-05 1.09627e-05 8.11328e-06 5.24167e-06 -1.97478e-05 1.47303e-05 1.60129e-05 -3.19354e-05 
2.14363e-06 5.16494e-05 -1.39067e-06 2.25277e-05 -3.32184e-05 -1.55539e-05 -9.43629e-06 1.27068e-05 -3.06814e-05 1.78561e-05 9.12581e-06 1.27824e-06 -1.68579e-05 1.75253e-05 2.77402e-05 -3.24586e-05 
6.72741e-05 9.95476e-05 -3.63007e-06 6.37652e-05 -4.69736e-05 -5.12056e-05 1.24913e-05 8.21638e-05 -2.13324e-05 3.21912e-05 5.9355e-05 6.69367e-06 -6.96742e-05 5.32065e-05 3.16547e-05 -0.000115394 
2.71986e-05 5.34909e-05 1.97589e-05 2.52268e-05 -3.46327e-05 -1.82014e-05 -4.16085e-06 2.39892e-05 -4.69928e-05 2.02005e-05 2.14522e-05 1.79257e-06 -2.72488e-05 2.03284e-05 2.69293e-05 -4.49988e-05 
5.64547e-05 3.93203e-05 3.93591e-05 2.31796e-05 -1.55732e-05 -2.45033e-05 1.23152e-05 4.06617e-05 -3.22166e-05 1.48928e-05 2.73712e-05 7.42313e-06 -3.94993e-05 2.70736e-05 1.47444e-05 -6.20063e-05 
2.69638e-05 8.30537e-05 2.17831e-05 3.772e-05 -5.50645e-05 -2.66843e-05 -1.02562e-05 2.98284e-05 -6.53576e-05 3.06429e-05 2.47005e-05 2.33893e-06 -3.56977e-05 3.02798e-05 4.32849e-05 -6.34162e-05 
4.58209e-06 6.41112e-05 1.63628e-05 2.40865e-05 -4.66326e-05 -1.53673e-05 -1.55438e-05 8.6076e-06 -5.9128e-05 2.4135e-05 8.46165e-06 7.84422e-07 -1.81607e-05 1.86405e-05 3.88168e-05 -3.57323e-05 
2.69466e-05 2.91178e-05 2.31636e-05 1.40955e-05 -1.56754e-05 -1.35184e-05 2.56116e-06 1.91806e-05 -2.761e-05 1.12108e-05 1.33378e-05 3.65371e-06 -2.09209e-05 1.53452e-05 1.41819e-05 -3.4056e-05 
1.00237e-05 9.60209e-05 3.45814e-05 3.43148e-05 -7.0168e-05 -2.26526e-05 -2.35559e-05 1.10673e-05 -9.68338e-05 3.69405e-05 1.08264e-05 2.08455e-06 -2.75534e-05 2.82667e-05 6.02408e-05 -5.41479e-05 
4.32913e-05 3.22151e-05 3.38285e-05 1.75655e-05 -1.38046e-05 -1.88599e-05 8.384e-06 2.98348e-05 -2.97339e-05 1.24795e-05 1.96846e-05 6.0432e-06 -3.02919e-05 2.1223e-05 1.36899e-05 -4.80331e-05 
2.98952e-05 2.73865e-05 3.02317e-05 1.23079e-05 -1.37921e-05 -1.35054e-05 3.50087e-06 1.84403e-05 -3.08435e-05 1.09268e-05 1.17565e-05 4.71298e-06 -2.15381e-05 1.5702e-05 1.43623e-05 -3.46769e-05 
2.88903e-05 3.69636e-05 2.78648e-05 1.67691e-05 -2.08355e-05 -1.57879e-05 1.10988e-06 2.03536e-05 -3.60169e-05 1.42846e-05 1.38106e-05 4.3059e-06 -2.37812e-05 1.82715e-05 1.93176e-05 -3.95236e-05 
3.78153e-05 3.46454e-05 3.25048e-05 1.72241e-05 -1.71247e-05 -1.76649e-05 5.26308e-06 2.58856e-05 -3.36709e-05 1.3449e-05 1.72704e-05 5.39962e-06 -2.78543e-05 2.00856e-05 1.64399e-05 -4.48271e-05 
4.29804e-05 6.24392e-05 2.10912e-05 3.3651e-05 -3.68457e-05 -2.55788e-05 1.19425e-06 3.93445e-05 -4.5374e-05 2.29641e-05 3.27926e-05 2.95707e-06 -3.88456e-05 2.77039e-05 2.69381e-05 -6.28878e-05 
2.97573e-05 2.57531e-05 2.91529e-05 1.18753e-05 -1.25412e-05 -1.31932e-05 4.00979e-06 1.84773e-05 -2.86936e-05 1.02903e-05 1.16969e-05 4.67759e-06 -2.11053e-05 1.53313e-05 1.32464e-05 -3.39258e-05 
5.43868e-05 4.37343e-05 3.30179e-05 2.61906e-05 -1.90963e-05 -2.5486e-05 1.11128e-05 4.23925e-05 -3.08186e-05 1.61614e-05 2.95336e-05 6.53833e-06 -4.00834e-05 2.78111e-05 1.59704e-05 -6.36055e-05 
4.52312e-05 6.36892e-05 2.1307e-05 3.48256e-05 -3.71565e-05 -2.66295e-05 1.9612e-06 4.15117e-05 -4.51422e-05 2.33641e-05 3.43721e-05 3.12904e-06 -4.04566e-05 2.87729e-05 2.69542e-05 -6.54204e-05 
9.19146e-05 9.00084e-05 2.516e-05 5.96445e-05 -4.38027e-05 -4.83878e-05 1.78343e-05 8.6807e-05 -4.02583e-05 3.16377e-05 6.75908e-05 6.63401e-06 -7.43751e-05 5.07392e-05 2.71575e-05 -0.000118297 
9.94943e-05 6.37517e-05 4.35011e-05 4.60736e-05 -2.13347e-05 -4.47413e-05 2.69008e-05 8.25599e-05 -2.79822e-05 2.2304e-05 5.85752e-05 1.05332e-05 -7.14453e-05 4.70616e-05 1.45607e-05 -0.000110683 
1.26952e-05 6.87053e-05 -8.59923e-06 3.47926e-05 -3.94779e-05 -2.56408e-05 -6.02946e-06 2.91537e-05 -2.6843e-05 2.26736e-05 2.01656e-05 2.67705e-06 -2.96021e-05 2.76977e-05 3.16653e-05 -5.36748e-05 
8.7913e-06 7.57961e-05 -1.05284e-05 3.69985e-05 -4.4868e-05 -2.6708e-05 -8.93971e-06 2.79883e-05 -3.15283e-05 2.50691e-05 1.92835e-05 2.52373e-06 -2.9754e-05 2.90408e-05 3.63485e-05 -5.51049e-05 
7.63507e-05 0.000111437 -4.25737e-06 7.17461e-05 -5.22459e-05 -5.77051e-05 1.45264e-05 9.29269e-05 -2.30639e-05 3.60461e-05 6.69385e-05 7.65183e-06 -7.85413e-05 6.00079e-05 3.51727e-05 -0.000130167 
1.23108e-05 4.80572e-05 2.14295e-06 2.33916e-05 -2.91734e-05 -1.71492e-05 -4.56575e-06 1.95877e-05 -2.64475e-05 1.66077e-05 1.43953e-05 1.79695e-06 -2.10595e-05 1.89278e-05 2.32379e-05 -3.78242e-05 
3.82682e-05 5.97617e-05 2.06515e-05 3.11401e-05 -3.621e-05 -2.33647e-05 -4.01376e-07 3.47552e-05 -4.58397e-05 2.21528e-05 2.93752e-05 2.61695e-06 -3.53457e-05 2.55175e-05 2.6958e-05 -5.75563e-05 
4.6743e-05 3.63308e-05 3.80629e-05 1.91899e-05 -1.62049e-05 -2.05348e-05 8.41005e-06 3.18262e-05 -3.47475e-05 1.4117e-05 2.10488e-05 6.57306e-06 -3.29787e-05 2.31652e-05 1.6024e-05 -5.23453e-05 
5.23018e-05 6.77284e-05 2.18963e-05 3.86261e-05 -3.81412e-05 -2.99414e-05 4.35404e-06 4.8417e-05 -4.44274e-05 2.45894e-05 3.95087e-05 3.63945e-06 -4.57152e-05 3.20487e-05 2.69307e-05 -7.34475e-05 
2.36517e-05 8.41674e-05 -9.26992e-06 4.48865e-05 -4.69669e-05 -3.36407e-05 -3.88727e-06 4.24005e-05 -2.99849e-05 2.7696e-05 2.98632e-05 3.63617e-06 -4.05615e-05 3.60292e-05 3.64041e-05 -7.1923e-05 
3.23873e-05 2.60603e-05 3.28872e-05 1.17715e-05 -1.22781e-05 -1.3765e-05 4.6772e-06 1.92496e-05 -3.08562e-05 1.05615e-05 1.18923e-05 5.2309e-06 -2.23251e-05 1.61051e-05 1.36654e-05 -3.56881e-05 
1.63827e-05 4.17435e-05 6.74224e-06 2.07362e-05 -2.53446e-05 -1.53704e-05 -2.71001e-06 1.94263e-05 -2.65104e-05 1.48285e-05 1.51832e-05 1.68673e-06 -2.05239e-05 1.6938e-05 1.98101e-05 -3.54307e-05 
4.05829e-05 3.28402e-05 3.74793e-05 1.59158e-05 -1.53765e-05 -1.76415e-05 6.3224e-06 2.5833e-05 -3.53585e-05 1.30548e-05 1.65918e-05 6.12718e-06 -2.84175e-05 2.03028e-05 1.60471e-05 -4.5382e-05 
4.65868e-05 3.40861e-05 3.41133e-05 1.93249e-05 -1.42617e-05 -2.04028e-05 9.5001e-06 3.30431e-05 -2.94002e-05 1.30527e-05 2.20618e-05 6.28382e-06 -3.2724e-05 2.27574e-05 1.36854e-05 -5.17657e-05 
3.47352e-06 7.27771e-05 -1.10411e-05 3.41702e-05 -4.41564e-05 -2.42078e-05 -1.07407e-05 2.28115e-05 -3.20502e-05 2.41546e-05 1.54277e-05 2.13904e-06 -2.58068e-05 2.65721e-05 3.63717e-05 -4.9091e-05 
1.85038e-05 5.53957e-05 1.24512e-05 2.58272e-05 -3.56778e-05 -1.87744e-05 -5.68036e-06 2.16626e-05 -3.99536e-05 2.00887e-05 1.70463e-05 1.94022e-06 -2.4672e-05 2.1259e-05 2.81185e-05 -4.39584e-05 
7.57631e-05 8.9117e-05 2.21926e-05 5.57091e-05 -4.55187e-05 -4.50525e-05 1.24594e-05 7.5564e-05 -4.00662e-05 3.08828e-05 5.74588e-05 6.02498e-06 -6.65153e-05 4.76194e-05 2.98777e-05 -0.000108197 
-5.56535e-06 6.76712e-05 -1.18555e-05 2.93718e-05 -4.2911e-05 -1.9976e-05 -1.3807e-05 1.40341e-05 -3.29652e-05 2.25765e-05 8.94206e-06 1.4744e-06 -1.91761e-05 2.23481e-05 3.63711e-05 -3.88718e-05 
3.0612e-05 5.54194e-05 1.99616e-05 2.70612e-05 -3.51588e-05 -1.97765e-05 -2.99703e-06 2.73052e-05 -4.66101e-05 2.08222e-05 2.38525e-05 2.05739e-06 -2.96979e-05 2.19505e-05 2.69702e-05 -4.88886e-05 
3.34845e-05 3.51959e-05 2.50332e-05 1.83135e-05 -1.81276e-05 -1.71837e-05 4.16424e-06 2.54758e-05 -2.941e-05 1.32968e-05 1.77308e-05 4.35217e-06 -2.63287e-05 1.92899e-05 1.58924e-05 -4.28705e-05 
4.36221e-05 6.28095e-05 2.11506e-05 3.39976e-05 -3.693e-05 -2.5882e-05 1.40994e-06 3.99742e-05 -4.53139e-05 2.30713e-05 3.32698e-05 3.0007e-06 -3.93367e-05 2.79953e-05 2.69289e-05 -6.3615e-05 
2.58016e-06 5.16469e-05 -4.88531e-06 2.34593e-05 -3.18564e-05 -1.66539e-05 -8.22522e-06 1.48429e-05 -2.60404e-05 1.74072e-05 1.00955e-05 1.58594e-06 -1.79014e-05 1.84593e-05 2.66581e-05 -3.40737e-05 
2.56479e-05 5.02107e-05 1.63836e-05 2.45518e-05 -3.16874e-05 -1.80518e-05 -2.9157e-06 2.42095e-05 -3.98416e-05 1.86547e-05 2.04227e-05 1.91333e-06 -2.62387e-05 2.00644e-05 2.43618e-05 -4.39966e-05 
4.10908e-05 3.0977e-05 3.36306e-05 1.64016e-05 -1.35002e-05 -1.78312e-05 7.63881e-06 2.77021e-05 -2.9957e-05 1.20947e-05 1.81127e-05 5.8813e-06 -2.86868e-05 2.01947e-05 1.36876e-05 -4.55508e-05 
4.78874e-06 5.28806e-05 -4.71183e-06 2.46261e-05 -3.21788e-05 -1.76783e-05 -7.4718e-06 1.6976e-05 -2.5802e-05 1.78059e-05 1.16423e-05 1.75636e-06 -1.94779e-05 1.95097e-05 2.66811e-05 -3.65724e-05 
2.81048e-05 4.9239e-05 1.72699e-05 2.44822e-05 -3.06063e-05 -1.8258e-05 -1.87133e-06 2.55567e-05 -3.95389e-05 1.83285e-05 2.1691e-05 2.06492e-06 -2.71716e-05 2.01508e-05 2.34161e-05 -4.4774e-05 
2.56562e-05 5.79958e-05 1.91837e-05 2.74722e-05 -3.72419e-05 -2.05719e-05 -4.11679e-06 2.56509e-05 -4.47526e-05 2.13702e-05 2.02511e-05 2.45472e-06 -2.84102e-05 2.34442e-05 2.89892e-05 -4.97508e-05 
5.51695e-05 6.92911e-05 2.21994e-05 4.00937e-05 -3.85325e-05 -3.12772e-05 5.33782e-06 5.11533e-05 -4.41273e-05 2.51081e-05 4.14771e-05 3.86553e-06 -4.77152e-05 3.34307e-05 2.69693e-05 -7.66566e-05 
4.26292e-05 8.56205e-05 -5.87779e-06 5.06837e-05 -4.35916e-05 -3.96607e-05 4.12898e-06 5.82275e-05 -2.38187e-05 2.78954e-05 4.16562e-05 4.88092e-06 -5.15763e-05 4.16902e-05 3.16618e-05 -8.75268e-05 
2.82341e-05 3.36407e-05 1.82265e-05 1.78438e-05 -1.82948e-05 -1.53564e-05 2.61684e-06 2.31449e-05 -2.62353e-05 1.25272e-05 1.73788e-05 3.06246e-06 -2.34364e-05 1.69606e-05 1.48066e-05 -3.79951e-05 
-7.56187e-06 0.000101486 2.28627e-05 3.42518e-05 -7.70399e-05 -1.99825e-05 -3.1161e-05 1.57365e-06 -9.88353e-05 3.84383e-05 4.48109e-06 2.20122e-07 -2.06164e-05 2.53335e-05 6.56052e-05 -4.50402e-05 
1.22166e-05 5.04074e-05 1.59698e-05 2.08766e-05 -3.50477e-05 -1.44851e-05 -8.5142e-06 1.33361e-05 -4.44579e-05 1.89033e-05 1.13771e-05 1.28913e-06 -1.88483e-05 1.70945e-05 2.84082e-05 -3.47173e-05 
2.55445e-05 4.70571e-05 7.28156e-06 2.56936e-05 -2.65604e-05 -1.97715e-05 4.54864e-07 2.84632e-05 -2.53798e-05 1.64378e-05 2.18146e-05 2.41248e-06 -2.73595e-05 2.13393e-05 1.98463e-05 -4.59483e-05 
2.95244e-05 2.71779e-05 3.01844e-05 1.21145e-05 -1.37479e-05 -1.33293e-05 3.37607e-06 1.80808e-05 -3.08766e-05 1.08649e-05 1.14854e-05 4.68759e-06 -2.12614e-05 1.55323e-05 1.4367e-05 -3.42625e-05 
4.00144e-05 6.59468e-05 2.12751e-06 3.94723e-05 -3.37018e-05 -3.13065e-05 4.93185e-06 4.79569e-05 -2.24095e-05 2.19924e-05 3.49233e-05 4.10568e-06 -4.24418e-05 3.30248e-05 2.40135e-05 -7.11129e-05 
1.67893e-05 7.78137e-05 -9.4613e-06 4.01089e-05 -4.39433e-05 -2.98643e-05 -5.69898e-06 3.51023e-05 -2.91646e-05 2.55955e-05 2.43268e-05 3.23366e-06 -3.4985e-05 3.20966e-05 3.50786e-05 -6.27742e-05 
3.23242e-06 6.96357e-05 1.96702e-05 2.51069e-05 -5.17787e-05 -1.55785e-05 -1.83089e-05 6.77593e-06 -6.77621e-05 2.64934e-05 7.67401e-06 5.88177e-07 -1.82855e-05 1.91813e-05 4.32736e-05 -3.6564e-05 
6.33159e-06 6.51011e-05 -9.16642e-06 3.14056e-05 -3.8602e-05 -2.26594e-05 -8.18669e-06 2.29662e-05 -2.7484e-05 2.15666e-05 1.55838e-05 2.21111e-06 -2.49118e-05 2.47293e-05 3.16722e-05 -4.64743e-05 
1.23511e-05 7.52918e-05 -9.93664e-06 3.77581e-05 -4.33757e-05 -2.77655e-05 -7.19507e-06 3.0782e-05 -2.95804e-05 2.48457e-05 2.10805e-05 2.92314e-06 -3.16626e-05 3.00571e-05 3.51204e-05 -5.77752e-05 
3.45901e-05 6.3053e-05 1.99614e-05 3.22273e-05 -3.84865e-05 -2.47526e-05 -1.08598e-06 3.43332e-05 -4.38423e-05 2.29347e-05 2.6662e-05 3.11333e-06 -3.4965e-05 2.76222e-05 2.8996e-05 -5.98648e-05 
1.13635e-06 6.2171e-05 -9.63322e-06 2.86509e-05 -3.78837e-05 -2.02287e-05 -9.95173e-06 1.7925e-05 -2.80126e-05 2.06568e-05 1.18668e-05 1.82585e-06 -2.11106e-05 2.22938e-05 3.16658e-05 -4.05995e-05 
3.05308e-05 5.53877e-05 2.00546e-05 2.70081e-05 -3.50899e-05 -1.97648e-05 -3.0318e-06 2.72376e-05 -4.66594e-05 2.07767e-05 2.38664e-05 2.03526e-06 -2.97227e-05 2.18786e-05 2.69194e-05 -4.87764e-05 
3.23872e-05 2.70484e-05 2.97246e-05 1.30964e-05 -1.27986e-05 -1.43348e-05 4.89643e-06 2.08388e-05 -2.86143e-05 1.07087e-05 1.33933e-05 4.90942e-06 -2.29366e-05 1.64955e-05 1.32533e-05 -3.67444e-05 
2.37462e-05 3.05637e-05 2.18945e-05 1.40447e-05 -1.76101e-05 -1.28669e-05 7.86256e-07 1.71251e-05 -2.95184e-05 1.17283e-05 1.22746e-05 3.18103e-06 -1.95905e-05 1.46442e-05 1.55972e-05 -3.22086e-05 
9.34938e-05 9.101e-05 2.57988e-05 6.04647e-05 -4.3719e-05 -4.92682e-05 1.83206e-05 8.84289e-05 -4.0322e-05 3.17357e-05 6.91645e-05 6.64924e-06 -7.60387e-05 5.12557e-05 2.68606e-05 -0.000119986 
5.43169e-05 4.05923e-05 3.8648e-05 2.32172e-05 -1.73085e-05 -2.40533e-05 1.09868e-05 3.91667e-05 -3.39385e-05 1.54739e-05 2.6402e-05 7.14898e-06 -3.84379e-05 2.67446e-05 1.60815e-05 -6.0929e-05 
3.2152e-05 2.71031e-05 2.93395e-05 1.31506e-05 -1.28878e-05 -1.43073e-05 4.8256e-06 2.08006e-05 -2.84389e-05 1.07175e-05 1.33952e-05 4.85947e-06 -2.284e-05 1.64626e-05 1.32616e-05 -3.66425e-05 
2.45211e-05 3.23441e-05 2.21984e-05 1.50122e-05 -1.8493e-05 -1.36572e-05 8.12913e-07 1.80569e-05 -3.02931e-05 1.23716e-05 1.27579e-05 3.37393e-06 -2.05537e-05 1.56181e-05 1.64645e-05 -3.40461e-05 
2.15489e-05 4.46239e-05 1.44315e-05 2.1444e-05 -2.84117e-05 -1.57483e-05 -3.08644e-06 2.05416e-05 -3.57168e-05 1.65621e-05 1.72874e-05 1.67052e-06 -2.26659e-05 1.75268e-05 2.19882e-05 -3.82291e-05 
4.43593e-05 6.85797e-05 2.07715e-05 3.74369e-05 -3.98667e-05 -2.93116e-05 2.23077e-06 4.38313e-05 -4.28295e-05 2.46529e-05 3.36586e-05 3.83867e-06 -4.21141e-05 3.21978e-05 2.90135e-05 -7.09364e-05 
3.49125e-05 2.71044e-05 3.73039e-05 1.17301e-05 -1.26777e-05 -1.43799e-05 5.01708e-06 1.97032e-05 -3.43417e-05 1.11783e-05 1.17824e-05 5.86141e-06 -2.35418e-05 1.70596e-05 1.48218e-05 -3.76506e-05 
5.95403e-06 0.000109065 2.41732e-05 4.13805e-05 -7.88493e-05 -2.62919e-05 -2.65718e-05 1.4655e-05 -9.75035e-05 4.07782e-05 1.41464e-05 1.22373e-06 -3.0524e-05 3.16319e-05 6.55917e-05 -6.02797e-05 
5.01675e-05 9.67019e-05 -6.37024e-06 5.78382e-05 -4.84922e-05 -4.5517e-05 5.62318e-06 6.75442e-05 -2.58216e-05 3.1392e-05 4.83634e-05 5.67872e-06 -5.95754e-05 4.767e-05 3.50313e-05 -0.000100523 
-5.45901e-07 6.12153e-05 -9.79224e-06 2.77552e-05 -3.76576e-05 -1.94381e-05 -1.052e-05 1.62869e-05 -2.81778e-05 2.03676e-05 1.06456e-05 1.70542e-06 -1.98614e-05 2.15156e-05 3.16741e-05 -3.86984e-05 
3.26848e-05 4.9837e-05 1.46303e-05 2.69945e-05 -2.89081e-05 -2.08159e-05 1.08219e-06 3.14445e-05 -3.32162e-05 1.80159e-05 2.53633e-05 2.52585e-06 -3.07109e-05 2.24512e-05 2.12203e-05 -5.02605e-05 
2.58423e-05 5.34174e-05 1.66554e-05 2.59994e-05 -3.36372e-05 -1.95243e-05 -3.05807e-06 2.55916e-05 -4.02306e-05 1.95728e-05 2.06368e-05 2.19231e-06 -2.75218e-05 2.15883e-05 2.57614e-05 -4.69179e-05 
2.84309e-05 3.08947e-05 2.57714e-05 1.46421e-05 -1.63586e-05 -1.43924e-05 2.65676e-06 1.97654e-05 -2.99111e-05 1.1956e-05 1.32275e-05 4.1835e-06 -2.21317e-05 1.6527e-05 1.54793e-05 -3.62227e-05 
3.00779e-05 3.31729e-05 2.04305e-05 1.75568e-05 -1.7816e-05 -1.54366e-05 3.14283e-06 2.35761e-05 -2.74329e-05 1.25085e-05 1.77007e-05 3.30597e-06 -2.40112e-05 1.71227e-05 1.46803e-05 -3.86156e-05 
4.44123e-05 3.44244e-05 3.01352e-05 1.99194e-05 -1.47992e-05 -2.02026e-05 8.9599e-06 3.2934e-05 -2.71281e-05 1.29718e-05 2.23719e-05 5.74833e-06 -3.19992e-05 2.23482e-05 1.33832e-05 -5.08128e-05 
3.20829e-05 4.81189e-05 2.02556e-05 2.44465e-05 -2.89098e-05 -1.89886e-05 -1.25047e-07 2.76148e-05 -3.92039e-05 1.79947e-05 2.28357e-05 2.63571e-06 -2.88878e-05 2.09367e-05 2.234e-05 -4.70061e-05 
1.47781e-05 5.39209e-05 1.73547e-05 2.27943e-05 -3.69901e-05 -1.61508e-05 -8.14739e-06 1.58026e-05 -4.64456e-05 2.01649e-05 1.29919e-05 1.65181e-06 -2.11248e-05 1.90691e-05 2.9945e-05 -3.87953e-05 
3.54304e-05 5.81378e-05 2.0454e-05 2.96041e-05 -3.57932e-05 -2.20442e-05 -1.3639e-06 3.19807e-05 -4.61409e-05 2.16512e-05 2.73293e-05 2.40651e-06 -3.3255e-05 2.41927e-05 2.69523e-05 -5.432e-05 
5.30164e-05 7.34638e-05 2.15605e-05 4.20255e-05 -4.106e-05 -3.33636e-05 5.17056e-06 5.22298e-05 -4.19551e-05 2.61684e-05 3.98544e-05 4.47973e-06 -4.84501e-05 3.6253e-05 2.90234e-05 -8.07237e-05 
1.67889e-05 4.43005e-05 1.85792e-05 1.89165e-05 -2.94084e-05 -1.43839e-05 -5.05762e-06 1.52369e-05 -3.95046e-05 1.66974e-05 1.18047e-05 2.14786e-06 -1.95916e-05 1.69533e-05 2.43876e-05 -3.5042e-05 
8.5946e-06 6.64015e-05 -8.9532e-06 3.2623e-05 -3.89033e-05 -2.37262e-05 -7.4229e-06 2.51829e-05 -2.72647e-05 2.1951e-05 1.72506e-05 2.3705e-06 -2.66179e-05 2.5768e-05 3.16511e-05 -4.90424e-05 
-6.61459e-07 6.7935e-05 -1.11078e-05 3.08443e-05 -4.1582e-05 -2.16723e-05 -1.16119e-05 1.81401e-05 -3.08983e-05 2.25733e-05 1.17377e-05 1.96463e-06 -2.21083e-05 2.39731e-05 3.512e-05 -4.30534e-05 
3.39364e-06 6.14879e-05 -6.92347e-06 2.83984e-05 -3.76955e-05 -2.01014e-05 -9.44687e-06 1.84842e-05 -2.96081e-05 2.06535e-05 1.26235e-05 1.83054e-06 -2.16394e-05 2.22032e-05 3.12874e-05 -4.11337e-05 
1.57799e-05 4.0868e-05 5.20776e-06 2.04223e-05 -2.281e-05 -1.64146e-05 -1.517e-06 1.99685e-05 -2.18857e-05 1.40631e-05 1.35881e-05 2.70784e-06 -2.09135e-05 1.80433e-05 1.91606e-05 -3.64565e-05 
3.46241e-05 5.76919e-05 2.03077e-05 2.91995e-05 -3.57184e-05 -2.16528e-05 -1.63603e-06 3.12067e-05 -4.62004e-05 2.15243e-05 2.67348e-05 2.35287e-06 -3.26445e-05 2.38248e-05 2.69716e-05 -5.34327e-05 
3.90029e-05 2.94099e-05 3.76525e-05 1.39018e-05 -1.3254e-05 -1.62898e-05 6.41003e-06 2.36715e-05 -3.39163e-05 1.19014e-05 1.46958e-05 6.16911e-06 -2.65203e-05 1.89873e-05 1.48373e-05 -4.22839e-05 
2.06923e-06 6.54868e-05 -9.11167e-06 3.01962e-05 -3.99508e-05 -2.13604e-05 -1.03262e-05 1.91442e-05 -3.0224e-05 2.18599e-05 1.27541e-05 1.96837e-06 -2.25182e-05 2.35863e-05 3.33831e-05 -4.31782e-05 
4.97521e-05 9.89359e-05 -6.87486e-06 5.87534e-05 -5.0535e-05 -4.58767e-05 4.96713e-06 6.77673e-05 -2.73638e-05 3.22342e-05 4.86479e-05 5.54976e-06 -5.9779e-05 4.82113e-05 3.63748e-05 -0.000101444 
6.18201e-05 6.89619e-05 2.20638e-05 4.2232e-05 -3.57314e-05 -3.46724e-05 9.72449e-06 5.8579e-05 -3.60585e-05 2.42062e-05 4.51391e-05 4.88217e-06 -5.22975e-05 3.63842e-05 2.37006e-05 -8.39805e-05 
2.24397e-07 6.84279e-05 -1.10287e-05 3.13088e-05 -4.17088e-05 -2.20848e-05 -1.13069e-05 1.89936e-05 -3.08028e-05 2.27348e-05 1.2354e-05 2.0348e-06 -2.27365e-05 2.44001e-05 3.51319e-05 -4.40567e-05 
3.23965e-05 2.63831e-05 3.22602e-05 1.20892e-05 -1.24669e-05 -1.39134e-05 4.69585e-06 1.95985e-05 -3.04987e-05 1.06336e-05 1.22265e-05 5.16544e-06 -2.24902e-05 1.62196e-05 1.3648e-05 -3.59711e-05 
5.03548e-05 6.66086e-05 2.17174e-05 3.75772e-05 -3.78816e-05 -2.90233e-05 3.69752e-06 4.65093e-05 -4.4615e-05 2.426e-05 3.80722e-05 3.50345e-06 -4.4241e-05 3.11569e-05 2.69508e-05 -7.12387e-05 
2.13315e-06 6.2726e-05 -9.56893e-06 2.91791e-05 -3.80375e-05 -2.06873e-05 -9.61045e-06 1.88865e-05 -2.78991e-05 2.08411e-05 1.25547e-05 1.9053e-06 -2.18104e-05 2.27732e-05 3.16835e-05 -4.17307e-05 
2.255e-05 7.42709e-05 -7.68639e-06 4.00184e-05 -4.08269e-05 -3.02578e-05 -2.6829e-06 3.87228e-05 -2.58482e-05 2.43929e-05 2.72376e-05 3.40373e-06 -3.68288e-05 3.2307e-05 3.16653e-05 -6.48178e-05 
7.09559e-06 5.42019e-05 -4.47979e-06 2.58599e-05 -3.2478e-05 -1.8769e-05 -6.6934e-06 1.92313e-05 -2.55844e-05 1.8194e-05 1.33419e-05 1.91793e-06 -2.12227e-05 2.05684e-05 2.66558e-05 -3.91829e-05 
2.55227e-05 5.38578e-05 5.68947e-06 2.88107e-05 -3.06374e-05 -2.18473e-05 -8.0437e-07 3.02654e-05 -2.8683e-05 1.86988e-05 2.32823e-05 2.53759e-06 -2.96198e-05 2.35308e-05 2.33321e-05 -4.99689e-05 
2.23228e-05 5.11746e-05 5.33684e-06 2.67805e-05 -2.96533e-05 -2.01308e-05 -1.67262e-06 2.70426e-05 -2.82735e-05 1.78446e-05 2.08335e-05 2.28711e-06 -2.69786e-05 2.18134e-05 2.28345e-05 -4.59189e-05 
3.28378e-05 2.76297e-05 3.3601e-05 1.23612e-05 -1.33025e-05 -1.42481e-05 4.45435e-06 1.96178e-05 -3.23544e-05 1.11634e-05 1.20898e-05 5.36398e-06 -2.29316e-05 1.67269e-05 1.46483e-05 -3.68568e-05 
1.97093e-05 3.82746e-05 7.8754e-06 2.00296e-05 -2.16089e-05 -1.59244e-05 -8.31639e-08 2.16193e-05 -2.19592e-05 1.34255e-05 1.57838e-05 2.36692e-06 -2.16148e-05 1.74107e-05 1.70192e-05 -3.68169e-05 
2.37241e-05 4.67585e-05 1.68769e-05 2.21514e-05 -3.0003e-05 -1.62058e-05 -3.35842e-06 2.12976e-05 -3.99817e-05 1.75648e-05 1.85401e-05 1.74242e-06 -2.39473e-05 1.81034e-05 2.34181e-05 -3.98145e-05 
1.5862e-05 7.72868e-05 -9.54616e-06 3.96144e-05 -4.38171e-05 -2.9429e-05 -6.01312e-06 3.41991e-05 -2.92569e-05 2.54353e-05 2.36554e-05 3.16637e-06 -3.42977e-05 3.16657e-05 3.50816e-05 -6.17243e-05 
2.64633e-05 3.16291e-05 2.13486e-05 1.56024e-05 -1.7412e-05 -1.42125e-05 2.03616e-06 2.0074e-05 -2.78267e-05 1.20011e-05 1.42731e-05 3.41359e-06 -2.15904e-05 1.60425e-05 1.51304e-05 -3.54335e-05 
4.62353e-05 3.3523e-05 3.83636e-05 1.77507e-05 -1.42111e-05 -1.96957e-05 8.85493e-06 3.07176e-05 -3.32166e-05 1.31367e-05 1.99625e-05 6.68586e-06 -3.19142e-05 2.23304e-05 1.4791e-05 -5.04576e-05 
2.27045e-05 4.984e-05 4.5028e-06 2.658e-05 -2.83147e-05 -2.01994e-05 -8.85528e-07 2.76452e-05 -2.58233e-05 1.72362e-05 2.09851e-05 2.39341e-06 -2.70441e-05 2.17967e-05 2.16844e-05 -4.59407e-05 
1.14177e-05 5.07474e-05 1.54474e-05 2.08672e-05 -3.51544e-05 -1.46368e-05 -8.58958e-06 1.31048e-05 -4.39793e-05 1.89296e-05 1.08097e-05 1.44987e-06 -1.86538e-05 1.73951e-05 2.87527e-05 -3.47803e-05 
6.52052e-07 6.18896e-05 -9.68094e-06 2.83885e-05 -3.78217e-05 -1.99988e-05 -1.01139e-05 1.74481e-05 -2.8057e-05 2.05769e-05 1.15024e-05 1.7936e-06 -2.07365e-05 2.20758e-05 3.16748e-05 -4.00502e-05 
3.61004e-05 3.36618e-05 3.23563e-05 1.63005e-05 -1.68886e-05 -1.686e-05 4.68417e-06 2.4208e-05 -3.38407e-05 1.31539e-05 1.60164e-05 5.27757e-06 -2.65712e-05 1.92953e-05 1.64496e-05 -4.288e-05 
1.83481e-05 4.40294e-05 5.38351e-06 2.2611e-05 -2.59238e-05 -1.69648e-05 -1.94699e-06 2.22538e-05 -2.53618e-05 1.54195e-05 1.71086e-05 1.92069e-06 -2.26198e-05 1.84573e-05 2.00657e-05 -3.87518e-05 
6.63661e-05 7.5592e-05 2.30379e-05 4.60552e-05 -4.01775e-05 -3.64728e-05 9.15042e-06 6.20082e-05 -4.29203e-05 2.71202e-05 4.9381e-05 4.72148e-06 -5.57756e-05 3.87312e-05 2.70635e-05 -8.93577e-05 
3.08017e-05 5.5528e-05 1.99852e-05 2.7162e-05 -3.51812e-05 -1.98672e-05 -2.93169e-06 2.74906e-05 -4.6593e-05 2.08538e-05 2.39931e-05 2.07123e-06 -2.98436e-05 2.20393e-05 2.69677e-05 -4.91042e-05 
2.39789e-05 3.39071e-05 2.6866e-05 1.42179e-05 -2.00519e-05 -1.33966e-05 -4.83386e-07 1.57761e-05 -3.59688e-05 1.32982e-05 1.0654e-05 3.78721e-06 -2.01261e-05 1.57922e-05 1.89443e-05 -3.3774e-05 
3.05642e-05 5.52546e-05 1.98175e-05 2.70272e-05 -3.50166e-05 -1.97685e-05 -2.93396e-06 2.73479e-05 -4.62801e-05 2.07294e-05 2.38788e-05 2.04114e-06 -2.96826e-05 2.19016e-05 2.68021e-05 -4.88222e-05 
1.20263e-06 7.14921e-05 -1.12611e-05 3.2966e-05 -4.38504e-05 -2.31414e-05 -1.15107e-05 2.06051e-05 -3.22754e-05 2.37606e-05 1.37904e-05 1.97377e-06 -2.41346e-05 2.55145e-05 3.63761e-05 -4.65252e-05 
6.40039e-06 7.44315e-05 -1.07682e-05 3.57226e-05 -4.45565e-05 -2.55795e-05 -9.74887e-06 2.56536e-05 -3.17577e-05 2.46644e-05 1.75309e-05 2.35356e-06 -2.79557e-05 2.79378e-05 3.63701e-05 -5.23986e-05 
3.22033e-05 2.69351e-05 2.97011e-05 1.29927e-05 -1.27802e-05 -1.42445e-05 4.83622e-06 2.06522e-05 -2.86265e-05 1.0683e-05 1.32402e-05 4.89987e-06 -2.2777e-05 1.64193e-05 1.3265e-05 -3.65344e-05 
5.40608e-05 0.000101431 -6.29487e-06 6.10481e-05 -5.10006e-05 -4.79559e-05 6.40131e-06 7.20013e-05 -2.70276e-05 3.29028e-05 5.19541e-05 5.81777e-06 -6.31926e-05 5.01154e-05 3.62342e-05 -0.000106278 
4.1311e-05 5.74919e-05 7.99164e-06 3.47868e-05 -2.9495e-05 -2.76673e-05 5.54619e-06 4.42795e-05 -2.43072e-05 1.96379e-05 3.35591e-05 3.6196e-06 -3.95483e-05 2.91313e-05 2.05398e-05 -6.46481e-05 
4.06122e-05 8.45041e-05 -6.02451e-06 4.96235e-05 -4.32866e-05 -3.87315e-05 3.43878e-06 5.62879e-05 -2.40455e-05 2.75226e-05 4.02691e-05 4.72066e-06 -5.01682e-05 4.07199e-05 3.1626e-05 -8.5246e-05 
4.31897e-05 3.3166e-05 3.07199e-05 1.88391e-05 -1.42716e-05 -1.94014e-05 8.55996e-06 3.13422e-05 -2.75328e-05 1.25838e-05 2.11797e-05 5.69926e-06 -3.09035e-05 2.15321e-05 1.3235e-05 -4.89641e-05 
1.41464e-05 6.95083e-05 -8.49272e-06 3.5555e-05 -3.96986e-05 -2.63086e-05 -5.53163e-06 3.05494e-05 -2.66774e-05 2.29433e-05 2.11606e-05 2.7936e-06 -3.06081e-05 2.83978e-05 3.16937e-05 -5.53177e-05 
2.16767e-05 3.91312e-05 1.12163e-05 1.98793e-05 -2.08758e-05 -1.70404e-05 6.67644e-07 2.21897e-05 -2.34042e-05 1.37417e-05 1.48798e-05 3.47979e-06 -2.29934e-05 1.88689e-05 1.80448e-05 -3.91232e-05 
3.18224e-05 2.53485e-05 3.70306e-05 1.00802e-05 -1.22527e-05 -1.29318e-05 3.97133e-06 1.66935e-05 -3.46519e-05 1.0643e-05 9.54722e-06 5.63747e-06 -2.12556e-05 1.5625e-05 1.483e-05 -3.41521e-05 
4.67872e-06 6.41802e-05 -9.29964e-06 3.05351e-05 -3.83626e-05 -2.1892e-05 -8.75145e-06 2.13718e-05 -2.76612e-05 2.1269e-05 1.44283e-05 2.08311e-06 -2.37308e-05 2.39409e-05 3.1655e-05 -4.4606e-05 
1.94487e-05 5.44825e-05 1.85544e-05 2.41854e-05 -3.64249e-05 -1.76491e-05 -6.2201e-06 1.96161e-05 -4.53574e-05 2.03055e-05 1.5754e-05 2.00706e-06 -2.38092e-05 2.05615e-05 2.90196e-05 -4.27444e-05 
6.29039e-05 4.2956e-05 3.99371e-05 2.65988e-05 -1.64651e-05 -2.75201e-05 1.45056e-05 4.69188e-05 -3.15603e-05 1.60227e-05 3.19848e-05 7.90017e-06 -4.42176e-05 3.00954e-05 1.47517e-05 -6.92965e-05 
2.34783e-05 3.56776e-05 1.14547e-05 1.89947e-05 -1.86492e-05 -1.63143e-05 1.92765e-06 2.29103e-05 -2.10549e-05 1.25763e-05 1.5915e-05 3.22212e-06 -2.27919e-05 1.7864e-05 1.55119e-05 -3.80915e-05 
7.96775e-06 4.80896e-05 2.14301e-06 2.20222e-05 -3.02908e-05 -1.58029e-05 -6.54649e-06 1.58037e-05 -2.87227e-05 1.66921e-05 1.15999e-05 1.53828e-06 -1.86151e-05 1.7701e-05 2.46506e-05 -3.43595e-05 
2.84566e-05 3.69211e-05 2.03874e-05 1.88789e-05 -2.06187e-05 -1.637e-05 2.01624e-06 2.34659e-05 -2.91714e-05 1.37507e-05 1.70458e-05 3.37598e-06 -2.43711e-05 1.83593e-05 1.69792e-05 -4.03858e-05 
1.41226e-05 5.20208e-05 1.79868e-05 2.16065e-05 -3.59032e-05 -1.53155e-05 -8.2099e-06 1.45086e-05 -4.62814e-05 1.9573e-05 1.20436e-05 1.61685e-06 -2.01198e-05 1.81752e-05 2.93034e-05 -3.69606e-05 
4.76432e-05 3.68406e-05 3.80589e-05 1.96866e-05 -1.63739e-05 -2.09371e-05 8.71808e-06 3.27017e-05 -3.46274e-05 1.42941e-05 2.16582e-05 6.64867e-06 -3.35946e-05 2.36023e-05 1.60549e-05 -5.33854e-05 
-1.3145e-06 7.00707e-05 -1.14927e-05 3.16311e-05 -4.35078e-05 -2.19615e-05 -1.23643e-05 1.81607e-05 -3.25279e-05 2.3324e-05 1.19803e-05 1.78968e-06 -2.22814e-05 2.43404e-05 3.638e-05 -4.36817e-05 
1.97772e-05 7.95339e-05 -9.15466e-06 4.17134e-05 -4.43252e-05 -3.12807e-05 -4.68878e-06 3.80316e-05 -2.88866e-05 2.60936e-05 2.6544e-05 3.44331e-06 -3.72678e-05 3.34675e-05 3.50388e-05 -6.61646e-05 
3.22e-05 6.16322e-05 1.52045e-05 3.20602e-05 -3.68025e-05 -2.45391e-05 -9.73834e-07 3.39948e-05 -3.9114e-05 2.20791e-05 2.61204e-05 3.00382e-06 -3.40457e-05 2.70813e-05 2.77398e-05 -5.82692e-05 
4.83021e-05 6.54634e-05 2.15558e-05 3.64939e-05 -3.7581e-05 -2.80719e-05 2.99674e-06 4.45278e-05 -4.4838e-05 2.38883e-05 3.66383e-05 3.34407e-06 -4.27813e-05 3.01784e-05 2.69272e-05 -6.89163e-05 
3.20567e-05 2.70535e-05 2.93464e-05 1.31003e-05 -1.28657e-05 -1.42667e-05 4.79141e-06 2.07117e-05 -2.84551e-05 1.06956e-05 1.33412e-05 4.84916e-06 -2.27847e-05 1.64104e-05 1.32525e-05 -3.65323e-05 
3.61315e-06 6.35656e-05 -9.40621e-06 2.99616e-05 -3.82248e-05 -2.13876e-05 -9.11001e-06 2.03264e-05 -2.77608e-05 2.1091e-05 1.36363e-05 2.00966e-06 -2.29188e-05 2.34555e-05 3.16696e-05 -4.33981e-05 
3.89918e-05 3.09163e-05 3.1633e-05 1.62815e-05 -1.38995e-05 -1.73131e-05 6.91039e-06 2.66834e-05 -2.93097e-05 1.19984e-05 1.76206e-05 5.51733e-06 -2.76778e-05 1.95611e-05 1.37318e-05 -4.40548e-05 
9.81646e-06 4.95968e-05 1.76684e-05 1.93133e-05 -3.527e-05 -1.33164e-05 -9.67693e-06 1.03344e-05 -4.67453e-05 1.87997e-05 9.00385e-06 1.28754e-06 -1.70161e-05 1.61356e-05 2.9267e-05 -3.2075e-05 
1.76836e-05 4.28644e-05 7.09449e-06 2.15426e-05 -2.5846e-05 -1.60355e-05 -2.40634e-06 2.06624e-05 -2.68817e-05 1.5213e-05 1.61224e-05 1.77668e-06 -2.15563e-05 1.7625e-05 2.00753e-05 -3.7067e-05 
1.58095e-05 3.67981e-05 9.86286e-06 1.74042e-05 -2.03558e-05 -1.48032e-05 -1.32381e-06 1.71125e-05 -2.35803e-05 1.29474e-05 1.1068e-05 3.09096e-06 -1.9232e-05 1.65782e-05 1.82979e-05 -3.33351e-05 
3.64321e-05 5.87283e-05 2.05116e-05 3.01629e-05 -3.59402e-05 -2.2513e-05 -1.02638e-06 3.29751e-05 -4.60382e-05 2.18223e-05 2.80792e-05 2.47665e-06 -3.40283e-05 2.46494e-05 2.69421e-05 -5.54736e-05 
-6.33216e-06 6.47313e-05 -1.16069e-05 2.78311e-05 -4.07942e-05 -1.90195e-05 -1.3538e-05 1.26329e-05 -3.14773e-05 2.15798e-05 7.67554e-06 1.54428e-06 -1.7954e-05 2.1316e-05 3.51135e-05 -3.66352e-05 
2.50864e-05 4.4838e-05 1.65077e-05 2.19117e-05 -2.82372e-05 -1.63282e-05 -2.10572e-06 2.2493e-05 -3.70668e-05 1.67625e-05 1.9166e-05 1.84872e-06 -2.4299e-05 1.80644e-05 2.16857e-05 -4.01643e-05 
3.52123e-05 2.76506e-05 3.30875e-05 1.3278e-05 -1.26971e-05 -1.50749e-05 5.64099e-06 2.19882e-05 -3.05491e-05 1.10703e-05 1.38835e-05 5.4483e-06 -2.43594e-05 1.74454e-05 1.36917e-05 -3.88967e-05 
5.55257e-05 6.95609e-05 2.22295e-05 4.03376e-05 -3.85591e-05 -3.14634e-05 5.44394e-06 5.1557e-05 -4.41206e-05 2.51364e-05 4.18626e-05 3.86815e-06 -4.81276e-05 3.35365e-05 2.69044e-05 -7.70866e-05 
4.46587e-05 9.35578e-05 -7.02118e-06 5.49216e-05 -4.78214e-05 -4.28957e-05 3.76502e-06 6.217e-05 -2.63156e-05 3.04796e-05 4.42889e-05 5.29869e-06 -5.53971e-05 4.51507e-05 3.51108e-05 -9.43168e-05 
3.80072e-05 3.03524e-05 3.15163e-05 1.57586e-05 -1.37816e-05 -1.68438e-05 6.58005e-06 2.5721e-05 -2.93957e-05 1.18375e-05 1.68856e-05 5.45167e-06 -2.69225e-05 1.91159e-05 1.37508e-05 -4.29473e-05 
3.37652e-05 2.64532e-05 3.72179e-05 1.11144e-05 -1.25126e-05 -1.38455e-05 4.62738e-06 1.85855e-05 -3.44628e-05 1.09763e-05 1.0959e-05 5.77637e-06 -2.26995e-05 1.65233e-05 1.48199e-05 -3.63473e-05 
4.92676e-05 6.59853e-05 2.17027e-05 3.69749e-05 -3.76912e-05 -2.85302e-05 3.32657e-06 4.54451e-05 -4.47503e-05 2.40545e-05 3.73121e-05 3.4172e-06 -4.34669e-05 3.0639e-05 2.69285e-05 -6.99837e-05 
7.85882e-05 5.18409e-05 4.13647e-05 3.49425e-05 -1.8612e-05 -3.48731e-05 1.98258e-05 6.21715e-05 -2.99847e-05 1.87477e-05 4.32872e-05 9.04882e-06 -5.57824e-05 3.74107e-05 1.47291e-05 -8.70457e-05 
1.75032e-05 4.38164e-05 5.87954e-06 2.20448e-05 -2.60983e-05 -1.64657e-05 -2.48367e-06 2.11053e-05 -2.65651e-05 1.54235e-05 1.64083e-05 1.8615e-06 -2.19643e-05 1.79655e-05 2.04389e-05 -3.7605e-05 
3.55806e-05 2.78649e-05 3.31308e-05 1.34766e-05 -1.27411e-05 -1.52507e-05 5.76393e-06 2.23513e-05 -3.05174e-05 1.11296e-05 1.41638e-05 5.47192e-06 -2.46461e-05 1.76091e-05 1.36825e-05 -3.93128e-05 
9.15968e-06 5.08675e-05 1.48172e-05 2.03737e-05 -3.57193e-05 -1.39991e-05 -9.62272e-06 1.13217e-05 -4.47806e-05 1.90208e-05 9.5249e-06 1.27612e-06 -1.74381e-05 1.67921e-05 2.94376e-05 -3.30858e-05 
-5.62857e-08 7.07754e-05 -1.13605e-05 3.22916e-05 -4.36739e-05 -2.25527e-05 -1.1932e-05 1.93785e-05 -3.24002e-05 2.35447e-05 1.2877e-05 1.88533e-06 -2.31983e-05 2.49368e-05 3.63823e-05 -4.51046e-05 
3.10919e-05 2.66633e-05 3.0155e-05 1.23874e-05 -1.29374e-05 -1.37436e-05 4.29054e-06 1.93785e-05 -2.955e-05 1.06593e-05 1.2273e-05 4.86721e-06 -2.19841e-05 1.59785e-05 1.36462e-05 -3.53667e-05 
4.57372e-05 3.32266e-05 3.83106e-05 1.74758e-05 -1.41509e-05 -1.94572e-05 8.68851e-06 3.02215e-05 -3.32584e-05 1.3058e-05 1.9575e-05 6.65411e-06 -3.15144e-05 2.21111e-05 1.48063e-05 -4.98885e-05 
2.50487e-05 4.83748e-05 1.87517e-05 2.27302e-05 -3.11191e-05 -1.72436e-05 -2.99434e-06 2.25518e-05 -4.06509e-05 1.80626e-05 1.86196e-05 2.13434e-06 -2.49834e-05 1.92065e-05 2.41563e-05 -4.22146e-05 
5.69843e-06 6.47477e-05 -9.21892e-06 3.1072e-05 -3.85117e-05 -2.23651e-05 -8.40096e-06 2.23549e-05 -2.75498e-05 2.14543e-05 1.51372e-05 2.16409e-06 -2.44559e-05 2.44319e-05 3.16688e-05 -4.57617e-05 
2.34573e-05 5.67341e-05 1.8857e-05 2.63166e-05 -3.70144e-05 -1.9509e-05 -4.85072e-06 2.35003e-05 -4.49205e-05 2.10288e-05 1.85763e-05 2.31609e-06 -2.66853e-05 2.24673e-05 2.90579e-05 -4.7294e-05 
9.26226e-06 4.64456e-05 3.17623e-06 2.14888e-05 -2.91955e-05 -1.5459e-05 -5.93893e-06 1.60166e-05 -2.83488e-05 1.62581e-05 1.18691e-05 1.5446e-06 -1.85843e-05 1.73226e-05 2.36776e-05 -3.40475e-05 
3.26628e-06 5.9351e-05 -7.53532e-06 2.76235e-05 -3.61577e-05 -1.95946e-05 -8.90309e-06 1.82588e-05 -2.7575e-05 1.98357e-05 1.2414e-05 1.78737e-06 -2.10605e-05 2.15778e-05 2.99515e-05 -3.99658e-05 
7.83605e-06 5.76648e-05 1.23749e-05 2.33914e-05 -4.00504e-05 -1.57259e-05 -1.15096e-05 1.22872e-05 -4.80251e-05 2.12922e-05 1.05034e-05 1.1569e-06 -1.90638e-05 1.84682e-05 3.30181e-05 -3.61054e-05 
3.12007e-05 5.57574e-05 2.00425e-05 2.73723e-05 -3.52236e-05 -2.00596e-05 -2.79889e-06 2.78813e-05 -4.65618e-05 2.0916e-05 2.4297e-05 2.09624e-06 -3.01556e-05 2.2216e-05 2.69555e-05 -4.95502e-05 
7.2868e-05 4.85503e-05 4.06874e-05 3.18919e-05 -1.79293e-05 -3.21418e-05 1.79002e-05 5.65668e-05 -3.04831e-05 1.78165e-05 3.89988e-05 8.6637e-06 -5.13667e-05 3.48178e-05 1.48434e-05 -8.05897e-05 
3.60817e-05 8.19537e-05 -6.44169e-06 4.72284e-05 -4.26651e-05 -3.66096e-05 1.89971e-06 5.18969e-05 -2.45029e-05 2.67311e-05 3.7032e-05 4.38387e-06 -4.6855e-05 3.85934e-05 3.16204e-05 -8.01291e-05 
5.14459e-05 6.71952e-05 2.18686e-05 3.81212e-05 -3.80143e-05 -2.95375e-05 4.07119e-06 4.75431e-05 -4.45106e-05 2.44523e-05 3.88219e-05 3.58832e-06 -4.50037e-05 3.16823e-05 2.69597e-05 -7.24464e-05 
1.12265e-05 4.98394e-05 1.78788e-05 1.98089e-05 -3.52559e-05 -1.38135e-05 -9.01446e-06 1.1634e-05 -4.62134e-05 1.88516e-05 9.89144e-06 1.39182e-06 -1.78174e-05 1.66972e-05 2.89892e-05 -3.34284e-05 
2.68688e-05 4.58413e-05 1.6656e-05 2.28579e-05 -2.84913e-05 -1.71585e-05 -1.49909e-06 2.42211e-05 -3.68794e-05 1.70795e-05 2.04312e-05 1.98317e-06 -2.55894e-05 1.89045e-05 2.16951e-05 -4.21828e-05 
3.32381e-05 4.95391e-05 1.67703e-05 2.64301e-05 -2.88906e-05 -2.10201e-05 1.44113e-06 3.14171e-05 -3.34646e-05 1.7918e-05 2.44657e-05 2.90967e-06 -3.06818e-05 2.27712e-05 2.13437e-05 -5.08387e-05 
8.56136e-06 5.68332e-05 -4.28712e-06 2.73475e-05 -3.34568e-05 -2.02153e-05 -6.36952e-06 2.10609e-05 -2.60878e-05 1.90373e-05 1.42291e-05 2.33185e-06 -2.297e-05 2.21739e-05 2.77442e-05 -4.2265e-05 
6.16696e-05 6.88784e-05 2.20613e-05 4.2151e-05 -3.57044e-05 -3.46048e-05 9.67266e-06 5.84341e-05 -3.60782e-05 2.41766e-05 4.50388e-05 4.8694e-06 -5.21962e-05 3.63104e-05 2.36952e-05 -8.38082e-05 
9.39772e-06 5.088e-05 1.68792e-05 1.99347e-05 -3.62436e-05 -1.3634e-05 -9.97293e-06 1.05762e-05 -4.69934e-05 1.92236e-05 9.13374e-06 1.25483e-06 -1.71816e-05 1.65529e-05 2.99416e-05 -3.2708e-05 
1.83938e-05 3.9928e-05 7.51028e-06 2.02009e-05 -2.16367e-05 -1.67774e-05 -3.8354e-07 2.11063e-05 -2.19177e-05 1.38147e-05 1.41536e-05 3.11176e-06 -2.18913e-05 1.84904e-05 1.84857e-05 -3.7728e-05 
-9.06748e-06 6.31842e-05 -1.18234e-05 2.63709e-05 -4.04022e-05 -1.77453e-05 -1.44675e-05 9.97442e-06 -3.17646e-05 2.10959e-05 5.72259e-06 1.33991e-06 -1.59595e-05 2.00326e-05 3.51039e-05 -3.35329e-05 
2.36498e-05 5.68562e-05 1.89191e-05 2.64192e-05 -3.70121e-05 -1.96131e-05 -4.79164e-06 2.36968e-05 -4.49251e-05 2.10439e-05 1.87599e-05 2.31981e-06 -2.68823e-05 2.25336e-05 2.90278e-05 -4.75028e-05 
2.64456e-05 4.592e-05 1.65028e-05 2.28154e-05 -2.82242e-05 -1.77118e-05 -1.09695e-06 2.45667e-05 -3.50639e-05 1.68811e-05 1.9624e-05 2.35053e-06 -2.5662e-05 1.9489e-05 2.1614e-05 -4.29825e-05 
2.12705e-05 5.55073e-05 1.87135e-05 2.51516e-05 -3.66801e-05 -1.84999e-05 -5.59593e-06 2.13839e-05 -4.51644e-05 2.06286e-05 1.70497e-05 2.14598e-06 -2.51328e-05 2.14252e-05 2.90277e-05 -4.48114e-05 
5.43519e-05 4.06251e-05 3.87712e-05 2.32206e-05 -1.72442e-05 -2.41012e-05 1.09922e-05 3.92103e-05 -3.39837e-05 1.54434e-05 2.65067e-05 7.13354e-06 -3.85609e-05 2.67243e-05 1.60235e-05 -6.09431e-05 
4.74184e-05 6.49331e-05 2.15327e-05 3.59875e-05 -3.74396e-05 -2.76625e-05 2.70159e-06 4.36425e-05 -4.49343e-05 2.37352e-05 3.59701e-05 3.28401e-06 -4.20962e-05 2.97826e-05 2.69358e-05 -6.78904e-05 
3.26757e-05 2.70554e-05 3.17713e-05 1.2599e-05 -1.28142e-05 -1.42503e-05 4.77139e-06 2.01919e-05 -3.02945e-05 1.08412e-05 1.26535e-05 5.17115e-06 -2.28814e-05 1.65779e-05 1.38117e-05 -3.67118e-05 
3.39486e-05 5.71678e-05 2.01049e-05 2.88291e-05 -3.54934e-05 -2.1349e-05 -1.78303e-06 3.06357e-05 -4.59298e-05 2.13263e-05 2.62982e-05 2.2938e-06 -3.21545e-05 2.34908e-05 2.68112e-05 -5.26581e-05 
3.72531e-05 3.33808e-05 2.45672e-05 1.87956e-05 -1.58224e-05 -1.79834e-05 6.41723e-06 2.87581e-05 -2.57273e-05 1.24227e-05 2.02845e-05 4.51085e-06 -2.81512e-05 1.97389e-05 1.33859e-05 -4.48668e-05 
2.33062e-05 3.62334e-05 1.91967e-05 1.72939e-05 -2.14118e-05 -1.45992e-05 -1.47534e-07 1.91819e-05 -3.05855e-05 1.36073e-05 1.40135e-05 2.92646e-06 -2.12885e-05 1.6634e-05 1.80089e-05 -3.59142e-05 
2.28811e-05 3.71927e-05 1.00512e-05 1.9822e-05 -1.92849e-05 -1.69501e-05 1.74198e-06 2.34012e-05 -2.0492e-05 1.29605e-05 1.60115e-05 3.31571e-06 -2.3234e-05 1.85346e-05 1.61484e-05 -3.9074e-05 
3.1884e-05 5.74742e-05 6.97879e-06 3.19956e-05 -3.19313e-05 -2.45545e-05 1.10402e-06 3.60397e-05 -2.91677e-05 1.99268e-05 2.77543e-05 2.91224e-06 -3.40462e-05 2.62849e-05 2.3584e-05 -5.6804e-05 
2.634e-05 3.55605e-05 1.23743e-05 1.96351e-05 -1.86977e-05 -1.65026e-05 2.67265e-06 2.46968e-05 -2.17364e-05 1.26851e-05 1.81246e-05 2.97809e-06 -2.39634e-05 1.7954e-05 1.47848e-05 -3.93414e-05 
1.79768e-05 4.07997e-05 7.26158e-06 2.07088e-05 -2.44343e-05 -1.55469e-05 -1.84783e-06 2.04606e-05 -2.54923e-05 1.44891e-05 1.59156e-05 1.78199e-06 -2.10777e-05 1.705e-05 1.88805e-05 -3.60866e-05 
1.64262e-05 5.02686e-05 1.50347e-05 2.21566e-05 -3.36552e-05 -1.58504e-05 -6.54618e-06 1.72042e-05 -4.17318e-05 1.86647e-05 1.43464e-05 1.54209e-06 -2.13314e-05 1.80519e-05 2.68025e-05 -3.78111e-05 
9.21118e-05 0.000120448 -2.64833e-06 8.01584e-05 -5.42765e-05 -6.51627e-05 1.98498e-05 0.000108321 -2.15865e-05 3.86951e-05 7.85378e-05 8.75724e-06 -9.0467e-05 6.72519e-05 3.49999e-05 -0.000147989 
2.88671e-05 4.69809e-05 1.68363e-05 2.39271e-05 -2.87622e-05 -1.80974e-05 -8.2396e-07 2.61707e-05 -3.66827e-05 1.74221e-05 2.18866e-05 2.12604e-06 -2.70813e-05 1.9828e-05 2.16839e-05 -4.44455e-05 
2.09741e-05 3.2968e-05 1.26497e-05 1.67292e-05 -1.7539e-05 -1.464e-05 1.1623e-06 1.96108e-05 -2.17514e-05 1.17741e-05 1.33423e-05 3.1492e-06 -2.04256e-05 1.62412e-05 1.52058e-05 -3.42948e-05 
3.27079e-05 2.72222e-05 2.97414e-05 1.32634e-05 -1.28519e-05 -1.44802e-05 5.00786e-06 2.11442e-05 -2.85742e-05 1.07715e-05 1.36035e-05 4.93742e-06 -2.31491e-05 1.66557e-05 1.32654e-05 -3.71082e-05 
3.77501e-05 5.19972e-05 1.76511e-05 2.86366e-05 -2.99986e-05 -2.22385e-05 2.18195e-06 3.47712e-05 -3.58294e-05 1.89832e-05 2.82308e-05 2.78832e-06 -3.3579e-05 2.39789e-05 2.17105e-05 -5.44836e-05 
2.39726e-05 5.12865e-05 1.50442e-05 2.46489e-05 -3.2564e-05 -1.7875e-05 -3.82004e-06 2.32751e-05 -4.08021e-05 1.89783e-05 1.99961e-05 1.78749e-06 -2.57602e-05 1.98504e-05 2.53012e-05 -4.31455e-05 
1.82821e-05 5.52811e-05 1.56009e-05 2.49356e-05 -3.66447e-05 -1.78715e-05 -6.60423e-06 1.98636e-05 -4.38783e-05 2.04191e-05 1.61335e-05 1.77409e-06 -2.38415e-05 2.051e-05 2.90204e-05 -4.26381e-05 
4.52387e-05 6.37037e-05 2.13448e-05 3.48303e-05 -3.71344e-05 -2.6644e-05 1.95977e-06 4.15277e-05 -4.51587e-05 2.3352e-05 3.44142e-05 3.1214e-06 -4.05048e-05 2.87588e-05 2.69303e-05 -6.54232e-05 
2.219e-05 5.06753e-05 1.92918e-05 2.25823e-05 -3.39464e-05 -1.58566e-05 -5.86294e-06 1.91375e-05 -4.75003e-05 1.93229e-05 1.78778e-05 1.42059e-06 -2.35962e-05 1.79778e-05 2.69213e-05 -3.93444e-05 
3.16956e-05 4.85729e-05 1.71403e-05 2.54115e-05 -2.91464e-05 -1.9411e-05 1.26488e-07 2.88876e-05 -3.64541e-05 1.79186e-05 2.38963e-05 2.33921e-06 -2.91502e-05 2.11432e-05 2.16993e-05 -4.76253e-05 
3.64658e-05 5.87553e-05 2.05772e-05 3.01737e-05 -3.59107e-05 -2.2544e-05 -1.01938e-06 3.30141e-05 -4.60581e-05 2.18104e-05 2.81446e-05 2.47009e-06 -3.40967e-05 2.46451e-05 2.69134e-05 -5.54995e-05 
4.74213e-05 3.7298e-05 3.16948e-05 2.16457e-05 -1.62655e-05 -2.16883e-05 9.45314e-06 3.54705e-05 -2.90307e-05 1.40112e-05 2.42964e-05 6.01574e-06 -3.43558e-05 2.39169e-05 1.44004e-05 -5.4535e-05 
1.15642e-05 5.0576e-05 1.77811e-05 2.02434e-05 -3.55373e-05 -1.41233e-05 -9.07974e-06 1.20242e-05 -4.65495e-05 1.912e-05 1.02207e-05 1.42473e-06 -1.82568e-05 1.69717e-05 2.92927e-05 -3.40601e-05 
4.33121e-05 3.32234e-05 3.07062e-05 1.88998e-05 -1.43053e-05 -1.94499e-05 8.60463e-06 3.14512e-05 -2.75075e-05 1.26164e-05 2.12344e-05 5.71496e-06 -3.09557e-05 2.16048e-05 1.3255e-05 -4.91037e-05 
-4.00479e-06 6.85507e-05 -1.17211e-05 3.02004e-05 -4.313e-05 -2.07042e-05 -1.32762e-05 1.55485e-05 -3.28033e-05 2.28516e-05 1.00553e-05 1.59102e-06 -2.03127e-05 2.30811e-05 3.63755e-05 -4.06383e-05 
2.00346e-05 5.07593e-05 5.20279e-06 2.5897e-05 -2.98766e-05 -1.92801e-05 -2.66664e-06 2.49373e-05 -2.92417e-05 1.77383e-05 1.93511e-05 2.1322e-06 -2.56012e-05 2.09627e-05 2.33273e-05 -4.37624e-05 
1.58952e-05 7.05373e-05 -8.3437e-06 3.65186e-05 -3.99304e-05 -2.71367e-05 -4.94587e-06 3.22832e-05 -2.65135e-05 2.32313e-05 2.24897e-05 2.90941e-06 -3.1975e-05 2.91807e-05 3.16583e-05 -5.73152e-05 
5.61719e-05 4.03486e-05 3.39171e-05 2.50833e-05 -1.6032e-05 -2.52624e-05 1.27417e-05 4.30264e-05 -2.79314e-05 1.49297e-05 2.95578e-05 6.89424e-06 -4.01733e-05 2.75453e-05 1.37894e-05 -6.32875e-05 
4.29182e-05 6.24294e-05 2.12177e-05 3.36103e-05 -3.67599e-05 -2.55856e-05 1.16243e-06 3.93045e-05 -4.54367e-05 2.29098e-05 3.28544e-05 2.92938e-06 -3.89222e-05 2.76247e-05 2.68663e-05 -6.2794e-05 
2.91819e-05 2.69787e-05 3.01677e-05 1.19251e-05 -1.36955e-05 -1.31702e-05 3.25964e-06 1.77432e-05 -3.09142e-05 1.08047e-05 1.12353e-05 4.66205e-06 -2.10044e-05 1.53729e-05 1.4367e-05 -3.38681e-05 
3.77355e-05 6.48398e-05 2.02543e-05 3.39025e-05 -3.89124e-05 -2.62306e-05 -2.19992e-08 3.73954e-05 -4.35313e-05 2.3478e-05 2.89407e-05 3.33985e-06 -3.72967e-05 2.90816e-05 2.89845e-05 -6.34216e-05 
3.29225e-07 6.34207e-05 -8.10645e-06 2.85259e-05 -3.97589e-05 -1.97737e-05 -1.10923e-05 1.66608e-05 -3.14652e-05 2.13245e-05 1.13537e-05 1.58224e-06 -2.0539e-05 2.19815e-05 3.30587e-05 -3.99544e-05 
2.55497e-05 5.25713e-05 1.95968e-05 2.43641e-05 -3.44099e-05 -1.74299e-05 -4.71863e-06 2.23983e-05 -4.71578e-05 1.99122e-05 2.02815e-05 1.67188e-06 -2.60559e-05 1.95576e-05 2.69268e-05 -4.31487e-05 
2.27017e-05 3.83655e-05 9.18338e-06 2.06524e-05 -2.15994e-05 -1.63084e-05 7.21906e-07 2.34417e-05 -2.27659e-05 1.35961e-05 1.77436e-05 2.302e-06 -2.29439e-05 1.77314e-05 1.6502e-05 -3.84033e-05 
4.55704e-05 5.91272e-05 1.88523e-05 3.37704e-05 -3.30033e-05 -2.64414e-05 4.04853e-06 4.2537e-05 -3.77805e-05 2.1367e-05 3.42656e-05 3.34283e-06 -4.00283e-05 2.82939e-05 2.33962e-05 -6.45304e-05 
4.78558e-05 3.69709e-05 3.81682e-05 1.97884e-05 -1.63539e-05 -2.10589e-05 8.78485e-06 3.29156e-05 -3.46409e-05 1.43062e-05 2.18672e-05 6.65207e-06 -3.38157e-05 2.36757e-05 1.60149e-05 -5.36083e-05 
1.95687e-05 4.91853e-05 1.90733e-05 2.11795e-05 -3.35789e-05 -1.46306e-05 -6.75175e-06 1.65838e-05 -4.77686e-05 1.88652e-05 1.59879e-05 1.22853e-06 -2.16628e-05 1.6756e-05 2.69227e-05 -3.63713e-05 
3.2061e-05 2.54956e-05 3.7103e-05 1.02063e-05 -1.22544e-05 -1.30577e-05 4.04637e-06 1.69358e-05 -3.46509e-05 1.06658e-05 9.76639e-06 5.64385e-06 -2.14843e-05 1.57117e-05 1.4798e-05 -3.44118e-05 
3.00276e-05 3.77768e-05 1.7982e-05 2.01609e-05 -2.12339e-05 -1.66547e-05 2.2404e-06 2.5395e-05 -2.88955e-05 1.40291e-05 1.97785e-05 2.85944e-06 -2.54122e-05 1.82647e-05 1.64847e-05 -4.11908e-05 
9.13044e-06 7.59791e-05 -1.05917e-05 3.7192e-05 -4.49653e-05 -2.68437e-05 -8.81945e-06 2.8312e-05 -3.14584e-05 2.51531e-05 1.9472e-05 2.56103e-06 -2.99394e-05 2.92243e-05 3.63882e-05 -5.55078e-05 
2.56902e-05 5.22462e-05 1.52059e-05 2.55507e-05 -3.27998e-05 -1.86782e-05 -3.23599e-06 2.4934e-05 -4.06275e-05 1.92807e-05 2.12129e-05 1.91644e-06 -2.70045e-05 2.06606e-05 2.53074e-05 -4.50806e-05 
3.3536e-05 4.96149e-05 1.73019e-05 2.63917e-05 -2.94022e-05 -2.02721e-05 7.52001e-07 3.0677e-05 -3.62658e-05 1.82413e-05 2.52176e-05 2.47546e-06 -3.05007e-05 2.20048e-05 2.17006e-05 -4.97108e-05 
2.64054e-06 6.30228e-05 -9.49849e-06 2.94515e-05 -3.80918e-05 -2.0933e-05 -9.43979e-06 1.93877e-05 -2.7859e-05 2.09201e-05 1.29468e-05 1.93792e-06 -2.22147e-05 2.29994e-05 3.16671e-05 -4.23049e-05 
6.63335e-06 6.52657e-05 -9.13969e-06 3.15614e-05 -3.86469e-05 -2.27984e-05 -8.08237e-06 2.32543e-05 -2.74494e-05 2.16237e-05 1.5787e-05 2.23607e-06 -2.51159e-05 2.48769e-05 3.16798e-05 -4.68147e-05 
3.57581e-05 5.83619e-05 2.04963e-05 2.98069e-05 -3.58191e-05 -2.22111e-05 -1.26014e-06 3.23326e-05 -4.6127e-05 2.16871e-05 2.76429e-05 2.41701e-06 -3.35853e-05 2.4311e-05 2.69121e-05 -5.47056e-05 
1.10807e-05 5.24756e-05 1.61776e-05 2.13264e-05 -3.67302e-05 -1.47027e-05 -9.46463e-06 1.26625e-05 -4.65186e-05 1.9674e-05 1.07861e-05 1.31053e-06 -1.8769e-05 1.74968e-05 3.00226e-05 -3.50489e-05 
2.50338e-05 3.22638e-05 1.97045e-05 1.57843e-05 -1.82718e-05 -1.39967e-05 1.37865e-06 1.95822e-05 -2.78335e-05 1.21556e-05 1.42191e-05 3.11335e-06 -2.10448e-05 1.57148e-05 1.54954e-05 -3.46634e-05 
-2.44725e-06 6.94271e-05 -1.15911e-05 3.10258e-05 -4.33507e-05 -2.1431e-05 -1.2749e-05 1.70572e-05 -3.26432e-05 2.31265e-05 1.11629e-05 1.70642e-06 -2.14453e-05 2.38116e-05 3.63811e-05 -4.23968e-05 
9.19665e-07 6.37542e-05 -8.06021e-06 2.88408e-05 -3.98441e-05 -2.00489e-05 -1.08904e-05 1.72342e-05 -3.14023e-05 2.14299e-05 1.17729e-05 1.62754e-06 -2.09684e-05 2.22619e-05 3.30626e-05 -4.06258e-05 
4.91324e-05 6.59311e-05 2.16222e-05 3.69355e-05 -3.77008e-05 -2.84581e-05 3.27944e-06 4.53331e-05 -4.47495e-05 2.40366e-05 3.72268e-05 3.40708e-06 -4.33808e-05 3.05703e-05 2.69326e-05 -6.98576e-05 
1.9678e-05 7.94337e-05 -9.29936e-06 4.16543e-05 -4.43943e-05 -3.11929e-05 -4.70972e-06 3.78994e-05 -2.88349e-05 2.61263e-05 2.63345e-05 3.46413e-06 -3.70404e-05 3.3485e-05 3.51247e-05 -6.60655e-05 
2.43379e-05 8.20755e-05 -8.88443e-06 4.41371e-05 -4.50357e-05 -3.3376e-05 -3.13034e-06 4.24333e-05 -2.83647e-05 2.69365e-05 2.96943e-05 3.80451e-06 -4.04772e-05 3.56561e-05 3.51178e-05 -7.13401e-05 
4.44589e-05 6.32606e-05 2.12563e-05 3.44181e-05 -3.70374e-05 -2.62741e-05 1.69619e-06 4.07686e-05 -4.52299e-05 2.32213e-05 3.3842e-05 3.06671e-06 -3.99167e-05 2.83997e-05 2.69391e-05 -6.45447e-05 
3.03771e-05 2.45323e-05 3.69119e-05 9.31064e-06 -1.20466e-05 -1.22576e-05 3.4782e-06 1.52903e-05 -3.48037e-05 1.03863e-05 8.51888e-06 5.52767e-06 -2.0204e-05 1.4942e-05 1.48225e-05 -3.25113e-05 
3.03268e-05 3.42749e-05 2.2434e-05 1.75443e-05 -1.85466e-05 -1.5935e-05 3.02446e-06 2.35105e-05 -2.88307e-05 1.2893e-05 1.69594e-05 3.6753e-06 -2.43787e-05 1.77411e-05 1.56245e-05 -3.96638e-05 
2.48819e-05 5.21825e-05 1.94775e-05 2.40124e-05 -3.43516e-05 -1.71013e-05 -4.94256e-06 2.17403e-05 -4.72022e-05 1.98134e-05 1.97568e-05 1.63141e-06 -2.55135e-05 1.92641e-05 2.69566e-05 -4.24003e-05 
1.89717e-05 4.08262e-05 7.8697e-06 2.08725e-05 -2.44027e-05 -1.57312e-05 -1.52643e-06 2.10712e-05 -2.56813e-05 1.45294e-05 1.64316e-05 1.82104e-06 -2.15298e-05 1.7239e-05 1.87305e-05 -3.67188e-05 
8.72581e-05 5.676e-05 4.21989e-05 3.95504e-05 -1.9774e-05 -3.8949e-05 2.27609e-05 7.06072e-05 -2.91322e-05 2.02409e-05 4.95664e-05 9.67533e-06 -6.22061e-05 4.14355e-05 1.46952e-05 -9.68452e-05 
3.59511e-05 2.91958e-05 3.1349e-05 1.46667e-05 -1.34868e-05 -1.58868e-05 5.87996e-06 2.37279e-05 -2.96131e-05 1.14709e-05 1.54284e-05 5.29609e-06 -2.54353e-05 1.81453e-05 1.37384e-05 -4.06182e-05 
4.03796e-05 3.17034e-05 3.17712e-05 1.70177e-05 -1.40832e-05 -1.79666e-05 7.38026e-06 2.80335e-05 -2.91748e-05 1.2236e-05 1.86272e-05 5.61759e-06 -2.8708e-05 2.02053e-05 1.37249e-05 -4.56225e-05 
1.52937e-05 5.20645e-05 -1.06809e-06 2.66733e-05 -2.999e-05 -2.00283e-05 -3.2099e-06 2.45324e-05 -2.36947e-05 1.75435e-05 1.76294e-05 2.2601e-06 -2.46517e-05 2.16347e-05 2.36379e-05 -4.35207e-05 
1.86797e-06 5.85523e-05 -7.66989e-06 2.68759e-05 -3.59723e-05 -1.89357e-05 -9.37517e-06 1.68934e-05 -2.77101e-05 1.95977e-05 1.13902e-05 1.68841e-06 -2.00115e-05 2.09339e-05 2.99627e-05 -3.83833e-05 
6.63087e-05 4.48553e-05 4.01809e-05 2.83995e-05 -1.69738e-05 -2.90953e-05 1.56689e-05 5.02042e-05 -3.11857e-05 1.66423e-05 3.43544e-05 8.16645e-06 -4.66365e-05 3.17235e-05 1.47972e-05 -7.31525e-05 
2.77215e-05 3.58167e-05 1.49097e-05 1.96074e-05 -1.9591e-05 -1.62833e-05 2.5386e-06 2.47723e-05 -2.43478e-05 1.30414e-05 1.86904e-05 2.79866e-06 -2.42161e-05 1.78051e-05 1.50946e-05 -3.96745e-05 
2.0966e-05 4.57559e-05 1.82188e-05 2.04814e-05 -3.02141e-05 -1.54702e-05 -4.11202e-06 1.88051e-05 -4.00933e-05 1.71556e-05 1.55459e-05 1.92491e-06 -2.20024e-05 1.73977e-05 2.38462e-05 -3.77597e-05 
2.45546e-05 3.59796e-05 1.0411e-05 1.97852e-05 -1.90594e-05 -1.64052e-05 2.14322e-06 2.41305e-05 -2.08172e-05 1.27024e-05 1.7663e-05 2.81591e-06 -2.3381e-05 1.77923e-05 1.50134e-05 -3.86419e-05 
-6.61175e-08 6.14859e-05 -9.75329e-06 2.80104e-05 -3.77261e-05 -1.96617e-05 -1.03567e-05 1.67525e-05 -2.81276e-05 2.04526e-05 1.09868e-05 1.74166e-06 -2.02106e-05 2.17419e-05 3.16763e-05 -3.92423e-05 
6.29498e-06 6.50723e-05 -9.20101e-06 3.13862e-05 -3.86164e-05 -2.2633e-05 -8.19605e-06 2.29239e-05 -2.7473e-05 2.15719e-05 1.55272e-05 2.21515e-06 -2.48494e-05 2.4727e-05 3.16923e-05 -4.64381e-05 
4.20163e-05 6.18698e-05 2.10304e-05 3.31133e-05 -3.67046e-05 -2.51283e-05 8.70117e-07 3.83866e-05 -4.54745e-05 2.27985e-05 3.20691e-05 2.89068e-06 -3.81107e-05 2.72694e-05 2.69481e-05 -6.17781e-05 
3.01076e-05 6.05031e-05 1.95017e-05 2.98468e-05 -3.79011e-05 -2.26362e-05 -2.60033e-06 2.99677e-05 -4.4271e-05 2.21706e-05 2.33931e-05 2.79547e-06 -3.16199e-05 2.55524e-05 2.90278e-05 -5.48043e-05 
1.64605e-05 8.01067e-05 -9.90869e-06 4.10674e-05 -4.5967e-05 -3.02783e-05 -6.3303e-06 3.54181e-05 -3.07198e-05 2.64333e-05 2.47163e-05 3.10282e-06 -3.53041e-05 3.26597e-05 3.63931e-05 -6.37846e-05 
2.99651e-05 2.56936e-05 2.95821e-05 1.18053e-05 -1.24211e-05 -1.32208e-05 4.06755e-06 1.84976e-05 -2.88916e-05 1.02614e-05 1.1715e-05 4.71722e-06 -2.12265e-05 1.53332e-05 1.32123e-05 -3.399e-05 
1.95729e-06 6.26312e-05 -9.56387e-06 2.90857e-05 -3.80016e-05 -2.06108e-05 -9.66863e-06 1.87198e-05 -2.79236e-05 2.08054e-05 1.24437e-05 1.89065e-06 -2.17e-05 2.2688e-05 3.16745e-05 -4.15333e-05 
5.29679e-05 3.73097e-05 3.89462e-05 2.13168e-05 -1.51571e-05 -2.2838e-05 1.11442e-05 3.72418e-05 -3.25192e-05 1.43263e-05 2.47504e-05 7.18982e-06 -3.68047e-05 2.54983e-05 1.48167e-05 -5.80702e-05 
3.34272e-05 2.66511e-05 3.29691e-05 1.23285e-05 -1.24261e-05 -1.42507e-05 5.03099e-06 2.0262e-05 -3.07484e-05 1.07441e-05 1.26388e-05 5.30859e-06 -2.30903e-05 1.65928e-05 1.36673e-05 -3.68699e-05 
3.6654e-06 5.85921e-05 -7.01184e-06 2.72952e-05 -3.57049e-05 -1.93894e-05 -8.68157e-06 1.82078e-05 -2.74838e-05 1.96175e-05 1.24171e-05 1.78893e-06 -2.09518e-05 2.13669e-05 2.95552e-05 -3.96861e-05 
3.36379e-05 2.7749e-05 2.98217e-05 1.37588e-05 -1.2981e-05 -1.49155e-05 5.32297e-06 2.20484e-05 -2.848e-05 1.09335e-05 1.42723e-05 5.00562e-06 -2.38341e-05 1.70896e-05 1.3265e-05 -3.81608e-05 
3.01822e-05 5.04188e-05 1.74675e-05 2.55876e-05 -3.08844e-05 -1.92343e-05 -1.17127e-06 2.75793e-05 -3.93361e-05 1.8684e-05 2.32008e-05 2.2123e-06 -2.87147e-05 2.11083e-05 2.34038e-05 -4.71183e-05 
4.10197e-06 7.06188e-05 -1.06748e-05 3.33663e-05 -4.22389e-05 -2.39018e-05 -9.99384e-06 2.27594e-05 -3.04149e-05 2.34077e-05 1.51422e-05 2.31793e-06 -2.55903e-05 2.62074e-05 3.51268e-05 -4.84364e-05 
-2.92814e-06 5.98706e-05 -1.00095e-05 2.64918e-05 -3.73304e-05 -1.83221e-05 -1.13294e-05 1.39744e-05 -2.84187e-05 1.99515e-05 8.93777e-06 1.52922e-06 -1.81137e-05 2.03996e-05 3.16732e-05 -3.60043e-05 
2.57931e-05 2.91887e-05 2.2525e-05 1.3987e-05 -1.58464e-05 -1.33056e-05 2.16285e-06 1.85095e-05 -2.74884e-05 1.12044e-05 1.28295e-05 3.5634e-06 -2.04232e-05 1.51563e-05 1.4382e-05 -3.33977e-05 
5.03517e-05 6.65518e-05 2.16866e-05 3.75383e-05 -3.7918e-05 -2.89989e-05 3.7101e-06 4.64601e-05 -4.45797e-05 2.42962e-05 3.79481e-05 3.52744e-06 -4.40971e-05 3.12152e-05 2.70178e-05 -7.12238e-05 
7.30898e-05 4.86795e-05 4.07451e-05 3.20061e-05 -1.79378e-05 -3.22559e-05 1.7977e-05 5.67865e-05 -3.04736e-05 1.78451e-05 3.91829e-05 8.67575e-06 -5.15617e-05 3.4914e-05 1.48258e-05 -8.08371e-05 
2.80056e-05 3.14677e-05 1.93159e-05 1.66412e-05 -1.67311e-05 -1.49645e-05 3.21355e-06 2.24578e-05 -2.46676e-05 1.17286e-05 1.61104e-05 3.34863e-06 -2.27068e-05 1.66689e-05 1.38585e-05 -3.71216e-05 
2.1514e-05 5.02876e-05 1.92215e-05 2.22207e-05 -3.38597e-05 -1.55368e-05 -6.09019e-06 1.84761e-05 -4.75632e-05 1.92096e-05 1.73778e-05 1.37418e-06 -2.30845e-05 1.76697e-05 2.69299e-05 -3.85806e-05 
2.14652e-05 3.9987e-05 1.02963e-05 2.04181e-05 -2.11778e-05 -1.74327e-05 6.02378e-07 2.26001e-05 -2.29771e-05 1.39573e-05 1.50776e-05 3.52043e-06 -2.33269e-05 1.9249e-05 1.83351e-05 -3.97522e-05 
3.44746e-06 5.85018e-05 -6.95522e-06 2.71852e-05 -3.57584e-05 -1.92607e-05 -8.79557e-06 1.79702e-05 -2.76421e-05 1.96014e-05 1.22868e-05 1.74409e-06 -2.07788e-05 2.12356e-05 2.95781e-05 -3.94151e-05 
2.92893e-05 2.95367e-05 2.18573e-05 1.53969e-05 -1.50385e-05 -1.46644e-05 3.88842e-06 2.20119e-05 -2.50517e-05 1.11656e-05 1.53528e-05 3.7971e-06 -2.26468e-05 1.6399e-05 1.32344e-05 -3.66357e-05 
1.65731e-05 8.02147e-05 -9.75733e-06 4.11329e-05 -4.58966e-05 -3.03734e-05 -6.30645e-06 3.55637e-05 -3.07745e-05 2.64007e-05 2.49397e-05 3.08138e-06 -3.55489e-05 3.26456e-05 3.63033e-05 -6.38959e-05 
2.70461e-05 5.33388e-05 1.83417e-05 2.55179e-05 -3.41161e-05 -1.85362e-05 -3.75078e-06 2.46077e-05 -4.49461e-05 1.99929e-05 2.1545e-05 1.89299e-06 -2.74161e-05 2.06491e-05 2.64828e-05 -4.54666e-05 
2.69743e-05 2.84972e-05 3.15574e-05 1.14428e-05 -1.56218e-05 -1.25893e-05 1.58511e-06 1.53368e-05 -3.47718e-05 1.15581e-05 9.46352e-06 4.60361e-06 -1.98688e-05 1.50262e-05 1.64464e-05 -3.25453e-05 
2.41249e-05 4.50017e-05 1.5378e-05 2.22294e-05 -2.8154e-05 -1.6587e-05 -2.00963e-06 2.26081e-05 -3.52695e-05 1.66833e-05 1.87506e-05 1.89352e-06 -2.41519e-05 1.84816e-05 2.15773e-05 -4.05326e-05 
4.25901e-05 6.22153e-05 2.10407e-05 3.34442e-05 -3.68009e-05 -2.53917e-05 1.06264e-06 3.89624e-05 -4.54074e-05 2.2901e-05 3.24997e-05 2.93051e-06 -3.85442e-05 2.75264e-05 2.69464e-05 -6.24477e-05 
2.12626e-05 4.00839e-05 7.76272e-06 2.11505e-05 -2.14326e-05 -1.74864e-05 7.1763e-07 2.35342e-05 -2.1143e-05 1.38586e-05 1.63121e-05 3.07275e-06 -2.34184e-05 1.90926e-05 1.76289e-05 -3.98187e-05 
1.93048e-05 4.75833e-05 6.86268e-06 2.3993e-05 -2.86164e-05 -1.77543e-05 -2.75225e-06 2.29487e-05 -2.94156e-05 1.68316e-05 1.80864e-05 1.88398e-06 -2.38573e-05 1.94089e-05 2.21792e-05 -4.08368e-05 
4.87435e-05 6.56712e-05 2.16142e-05 3.66913e-05 -3.76464e-05 -2.82712e-05 3.15589e-06 4.49212e-05 -4.47812e-05 2.39824e-05 3.68828e-05 3.3902e-06 -4.30237e-05 3.04214e-05 2.69614e-05 -6.93965e-05 
6.70947e-06 6.53325e-05 -9.11036e-06 3.1616e-05 -3.86373e-05 -2.28457e-05 -8.0633e-06 2.33483e-05 -2.74597e-05 2.16195e-05 1.58977e-05 2.23055e-06 -2.52352e-05 2.48852e-05 3.16483e-05 -4.69034e-05 
4.55921e-05 3.5911e-05 3.63156e-05 1.91443e-05 -1.60941e-05 -2.02298e-05 8.20913e-06 3.14888e-05 -3.34836e-05 1.3884e-05 2.0952e-05 6.33242e-06 -3.23843e-05 2.27588e-05 1.56523e-05 -5.14465e-05 
8.18822e-07 6.19985e-05 -9.65763e-06 2.84871e-05 -3.78357e-05 -2.00827e-05 -1.00604e-05 1.76227e-05 -2.80485e-05 2.05973e-05 1.16531e-05 1.80038e-06 -2.08939e-05 2.21397e-05 3.16585e-05 -4.02435e-05 
3.62127e-05 5.11401e-05 1.75554e-05 2.78203e-05 -2.97597e-05 -2.15319e-05 1.65571e-06 3.32874e-05 -3.60058e-05 1.86982e-05 2.71699e-05 2.66561e-06 -3.25012e-05 2.32396e-05 2.16824e-05 -5.27375e-05 
1.09234e-05 4.96616e-05 1.78217e-05 1.9649e-05 -3.52323e-05 -1.36636e-05 -9.11327e-06 1.13343e-05 -4.62298e-05 1.88098e-05 9.64697e-06 1.37609e-06 -1.75641e-05 1.65705e-05 2.90077e-05 -3.30928e-05 
3.02799e-05 5.52373e-05 1.99852e-05 2.68781e-05 -3.50823e-05 -1.96351e-05 -3.11194e-06 2.69867e-05 -4.66654e-05 2.07484e-05 2.36487e-05 2.02563e-06 -2.94986e-05 2.17812e-05 2.6945e-05 -4.85026e-05 
1.86336e-06 6.25848e-05 -9.56154e-06 2.90382e-05 -3.79788e-05 -2.05717e-05 -9.70583e-06 1.86339e-05 -2.79431e-05 2.07799e-05 1.23983e-05 1.87752e-06 -2.16572e-05 2.26295e-05 3.16595e-05 -4.14212e-05 
2.83859e-05 5.41785e-05 1.98072e-05 2.58832e-05 -3.48228e-05 -1.87489e-05 -3.75643e-06 2.51571e-05 -4.68576e-05 2.04154e-05 2.23063e-05 1.88337e-06 -2.81236e-05 2.08869e-05 2.69385e-05 -4.63681e-05 
-7.08162e-06 6.10184e-05 -1.03089e-05 2.57031e-05 -3.89144e-05 -1.74261e-05 -1.34391e-05 1.05903e-05 -3.10539e-05 2.0446e-05 6.31201e-06 1.38349e-06 -1.61407e-05 1.96669e-05 3.36775e-05 -3.34187e-05 
6.64971e-06 6.86817e-05 1.77026e-05 2.63047e-05 -4.9579e-05 -1.69502e-05 -1.59307e-05 1.06457e-05 -6.2712e-05 2.5835e-05 1.0191e-05 9.13017e-07 -2.04214e-05 2.03659e-05 4.10475e-05 -3.956e-05 
4.32257e-05 6.25819e-05 2.10984e-05 3.37877e-05 -3.68856e-05 -2.56917e-05 1.27669e-06 3.95862e-05 -4.53466e-05 2.30082e-05 3.29707e-05 2.97457e-06 -3.90282e-05 2.78167e-05 2.69388e-05 -6.31694e-05 
2.35715e-05 7.48655e-05 -7.6023e-06 4.05774e-05 -4.0965e-05 -3.07398e-05 -2.33871e-06 3.97309e-05 -2.57489e-05 2.45649e-05 2.80023e-05 3.47385e-06 -3.76162e-05 3.27714e-05 3.16504e-05 -6.59836e-05 
3.5468e-05 2.94939e-05 2.90665e-05 1.52943e-05 -1.36523e-05 -1.60686e-05 5.93091e-06 2.43818e-05 -2.78883e-05 1.14429e-05 1.60825e-05 5.06082e-06 -2.54836e-05 1.82139e-05 1.33801e-05 -4.08021e-05 
2.50773e-05 7.5741e-05 -7.43025e-06 4.13884e-05 -4.11455e-05 -3.14597e-05 -1.83529e-06 4.12132e-05 -2.56199e-05 2.4807e-05 2.91453e-05 3.57197e-06 -3.87918e-05 3.34448e-05 3.16142e-05 -6.76857e-05 
1.99713e-05 5.08754e-05 3.70518e-06 2.63472e-05 -2.95216e-05 -1.97131e-05 -2.27299e-06 2.57223e-05 -2.72984e-05 1.76097e-05 1.96373e-05 2.20906e-06 -2.59145e-05 2.1363e-05 2.29573e-05 -4.44243e-05 
3.45746e-05 2.8276e-05 2.9912e-05 1.42533e-05 -1.31082e-05 -1.53548e-05 5.64232e-06 2.29562e-05 -2.83856e-05 1.10976e-05 1.49416e-05 5.07569e-06 -2.4519e-05 1.75307e-05 1.32663e-05 -3.92197e-05 
1.93671e-05 4.48626e-05 1.80953e-05 1.96379e-05 -2.99785e-05 -1.47257e-05 -4.65911e-06 1.72614e-05 -4.02696e-05 1.68641e-05 1.44312e-05 1.80007e-06 -2.08654e-05 1.66293e-05 2.3825e-05 -3.59485e-05 
3.29511e-05 2.75565e-05 2.9412e-05 1.35763e-05 -1.29969e-05 -1.46818e-05 5.09548e-06 2.15784e-05 -2.83593e-05 1.08556e-05 1.39731e-05 4.91698e-06 -2.34304e-05 1.68327e-05 1.32591e-05 -3.75456e-05 
3.98496e-05 3.05129e-05 3.59113e-05 1.5141e-05 -1.36891e-05 -1.70379e-05 6.81014e-06 2.54417e-05 -3.25597e-05 1.2136e-05 1.62295e-05 6.03062e-06 -2.75407e-05 1.96024e-05 1.45925e-05 -4.38678e-05 
1.03748e-05 7.41841e-05 -1.00981e-05 3.67115e-05 -4.30923e-05 -2.68465e-05 -7.86934e-06 2.8869e-05 -2.97908e-05 2.44923e-05 1.96852e-05 2.77263e-06 -3.02384e-05 2.91215e-05 3.51067e-05 -5.55381e-05 
2.59431e-05 3.48993e-05 1.7681e-05 1.77443e-05 -2.01798e-05 -1.46465e-05 1.0176e-06 2.13451e-05 -2.88291e-05 1.30822e-05 1.67239e-05 2.59003e-06 -2.23246e-05 1.62166e-05 1.61386e-05 -3.63106e-05 
2.20477e-05 5.18761e-05 5.36088e-06 2.69541e-05 -3.01728e-05 -2.02119e-05 -1.97963e-06 2.68751e-05 -2.90222e-05 1.81047e-05 2.07472e-05 2.28955e-06 -2.70226e-05 2.19256e-05 2.33545e-05 -4.6035e-05 
-7.46409e-07 7.03903e-05 -1.14548e-05 3.19346e-05 -4.35932e-05 -2.22239e-05 -1.21716e-05 1.87122e-05 -3.24646e-05 2.34263e-05 1.23814e-05 1.83259e-06 -2.26884e-05 2.46078e-05 3.63847e-05 -4.43258e-05 
1.13425e-05 7.47249e-05 -1.0014e-05 3.72212e-05 -4.32273e-05 -2.72981e-05 -7.53996e-06 2.9804e-05 -2.96912e-05 2.46628e-05 2.03695e-05 2.84586e-06 -3.09412e-05 2.95794e-05 3.5111e-05 -5.66298e-05 
3.09907e-05 8.83539e-05 -8.46596e-06 4.87842e-05 -4.78879e-05 -3.71212e-05 -1.41264e-06 4.95604e-05 -2.93112e-05 2.89211e-05 3.52712e-05 4.14645e-06 -4.61163e-05 3.93944e-05 3.6312e-05 -8.01995e-05 
5.10914e-06 6.4408e-05 -9.29641e-06 3.07589e-05 -3.84444e-05 -2.20822e-05 -8.6e-06 2.17773e-05 -2.75999e-05 2.1359e-05 1.46934e-05 2.12431e-06 -2.40006e-05 2.41648e-05 3.16814e-05 -4.50963e-05 
5.08436e-05 6.68695e-05 2.18155e-05 3.78126e-05 -3.79254e-05 -2.92602e-05 3.86436e-06 4.69705e-05 -4.45779e-05 2.43393e-05 3.84178e-05 3.53905e-06 -4.45953e-05 3.13885e-05 2.69455e-05 -7.17713e-05 
2.64635e-05 2.9842e-05 2.15687e-05 1.48545e-05 -1.60489e-05 -1.38675e-05 2.58308e-06 1.9802e-05 -2.63224e-05 1.13381e-05 1.37953e-05 3.51967e-06 -2.1151e-05 1.57404e-05 1.41508e-05 -3.47071e-05 
2.18912e-05 5.18844e-05 2.11086e-06 2.78484e-05 -2.89073e-05 -2.14811e-05 -7.62528e-07 2.89331e-05 -2.34913e-05 1.75584e-05 2.11288e-05 2.63583e-06 -2.79019e-05 2.30012e-05 2.21684e-05 -4.78768e-05 
-1.03656e-05 6.24571e-05 -1.19012e-05 2.5679e-05 -4.02005e-05 -1.71473e-05 -1.49116e-05 8.71961e-06 -3.1912e-05 2.08566e-05 4.82229e-06 1.2368e-06 -1.5041e-05 1.94093e-05 3.50821e-05 -3.20564e-05 
3.46904e-05 5.3539e-05 1.9435e-05 2.77944e-05 -3.21119e-05 -2.18982e-05 5.38583e-07 3.21556e-05 -3.87096e-05 1.95471e-05 2.54318e-05 2.92882e-06 -3.21115e-05 2.37953e-05 2.38349e-05 -5.32968e-05 
3.19428e-05 2.67996e-05 2.97088e-05 1.28571e-05 -1.2724e-05 -1.41329e-05 4.74449e-06 2.04089e-05 -2.86686e-05 1.06244e-05 1.30892e-05 4.87344e-06 -2.26281e-05 1.62812e-05 1.32426e-05 -3.6237e-05 
3.34735e-05 3.21758e-05 3.21207e-05 1.49036e-05 -1.65272e-05 -1.563e-05 3.79246e-06 2.16547e-05 -3.41071e-05 1.26961e-05 1.41279e-05 5.0843e-06 -2.46397e-05 1.80686e-05 1.64511e-05 -3.99072e-05 
1.3707e-05 6.95769e-05 2.03568e-05 2.81995e-05 -4.87772e-05 -1.90974e-05 -1.32337e-05 1.59675e-05 -6.20044e-05 2.61683e-05 1.40104e-05 1.51806e-06 -2.43521e-05 2.25682e-05 3.99775e-05 -4.53492e-05 
3.42489e-05 4.03289e-05 1.98833e-05 2.20429e-05 -2.2041e-05 -1.84228e-05 3.33543e-06 2.87668e-05 -3.02926e-05 1.49353e-05 2.23323e-05 3.25875e-06 -2.84102e-05 2.01113e-05 1.70387e-05 -4.56494e-05 
1.81159e-05 4.11648e-05 5.84494e-06 2.12465e-05 -2.41586e-05 -1.60678e-05 -1.46394e-06 2.13632e-05 -2.38873e-05 1.44441e-05 1.63627e-05 1.8908e-06 -2.1581e-05 1.75218e-05 1.86491e-05 -3.6918e-05 
4.20823e-06 6.39094e-05 -9.34641e-06 3.02823e-05 -3.8301e-05 -2.16699e-05 -8.90945e-06 2.09108e-05 -2.77056e-05 2.11898e-05 1.40803e-05 2.05053e-06 -2.33753e-05 2.37265e-05 3.16604e-05 -4.40733e-05 
3.72452e-05 3.01537e-05 3.07208e-05 1.56635e-05 -1.3775e-05 -1.66311e-05 6.37645e-06 2.53665e-05 -2.89359e-05 1.17248e-05 1.6719e-05 5.31536e-06 -2.6535e-05 1.88428e-05 1.36305e-05 -4.23303e-05 
2.87732e-05 2.50016e-05 2.94256e-05 1.11678e-05 -1.22878e-05 -1.26475e-05 3.6689e-06 1.73245e-05 -2.89885e-05 1.0073e-05 1.0804e-05 4.64094e-06 -2.02899e-05 1.48025e-05 1.32464e-05 -3.26467e-05 
4.45499e-05 3.29309e-05 3.394e-05 1.82376e-05 -1.3977e-05 -1.94503e-05 8.80927e-06 3.10609e-05 -2.96088e-05 1.26966e-05 2.05964e-05 6.13415e-06 -3.1226e-05 2.18068e-05 1.36856e-05 -4.94576e-05 
3.73889e-05 3.00073e-05 3.15026e-05 1.54243e-05 -1.36725e-05 -1.6565e-05 6.36654e-06 2.51234e-05 -2.94758e-05 1.17164e-05 1.64698e-05 5.39909e-06 -2.65013e-05 1.88122e-05 1.373e-05 -4.22369e-05 
4.49489e-05 3.27735e-05 3.82029e-05 1.70591e-05 -1.40641e-05 -1.9078e-05 8.42579e-06 2.94494e-05 -3.3322e-05 1.29335e-05 1.89774e-05 6.60362e-06 -3.09011e-05 2.17593e-05 1.4828e-05 -4.90054e-05 
-2.6676e-06 6.03263e-05 -7.71266e-06 2.61746e-05 -3.85764e-05 -1.78365e-05 -1.19698e-05 1.31491e-05 -3.16285e-05 2.03803e-05 8.80552e-06 1.33202e-06 -1.7797e-05 2.00303e-05 3.24767e-05 -3.55481e-05 
1.81922e-05 4.41898e-05 1.79947e-05 1.90054e-05 -2.98158e-05 -1.41752e-05 -5.05763e-06 1.61129e-05 -4.03873e-05 1.66608e-05 1.35756e-05 1.71473e-06 -1.99897e-05 1.60849e-05 2.38293e-05 -3.46123e-05 
3.96368e-05 6.05501e-05 2.08105e-05 3.18713e-05 -3.63736e-05 -2.40183e-05 5.85335e-08 3.60969e-05 -4.57207e-05 2.23749e-05 3.04035e-05 2.70791e-06 -3.64055e-05 2.61355e-05 2.69292e-05 -5.91003e-05 
1.40453e-05 5.35105e-05 1.73183e-05 2.24015e-05 -3.68724e-05 -1.58155e-05 -8.39819e-06 1.50932e-05 -4.65323e-05 2.00283e-05 1.24854e-05 1.59334e-06 -2.06108e-05 1.87173e-05 2.9931e-05 -3.79601e-05 
4.34689e-05 3.23225e-05 3.38595e-05 1.76621e-05 -1.38182e-05 -1.89487e-05 8.44167e-06 3.00131e-05 -2.97249e-05 1.25027e-05 1.9833e-05 6.05191e-06 -3.04476e-05 2.12962e-05 1.36769e-05 -4.82322e-05 
3.71422e-05 5.91116e-05 2.05306e-05 3.05352e-05 -3.6069e-05 -2.28296e-05 -7.79841e-07 3.365e-05 -4.59416e-05 2.19671e-05 2.85331e-05 2.54053e-06 -3.44814e-05 2.50069e-05 2.69773e-05 -5.62817e-05 
2.98248e-05 2.95982e-05 2.21231e-05 1.5514e-05 -1.49895e-05 -1.48107e-05 4.07941e-06 2.23748e-05 -2.50791e-05 1.11962e-05 1.56081e-05 3.84869e-06 -2.29271e-05 1.65545e-05 1.31779e-05 -3.70486e-05 
3.71216e-05 3.87731e-05 2.00206e-05 2.22682e-05 -2.00135e-05 -1.91792e-05 5.25198e-06 3.11668e-05 -2.70517e-05 1.4258e-05 2.35796e-05 3.6462e-06 -2.96908e-05 2.08198e-05 1.52514e-05 -4.75364e-05 
1.82512e-05 3.7648e-05 1.02686e-05 1.84331e-05 -2.04303e-05 -1.57383e-05 -4.40721e-07 1.92765e-05 -2.32392e-05 1.32208e-05 1.26874e-05 3.24822e-06 -2.08015e-05 1.75126e-05 1.80709e-05 -3.57181e-05 
2.56845e-05 5.24926e-05 1.9387e-05 2.443e-05 -3.43407e-05 -1.74848e-05 -4.58978e-06 2.26041e-05 -4.67763e-05 1.98771e-05 2.03724e-05 1.68211e-06 -2.60975e-05 1.96221e-05 2.68023e-05 -4.32982e-05 
1.53349e-05 3.94813e-05 8.16141e-06 1.88528e-05 -2.20933e-05 -1.56112e-05 -1.84811e-06 1.79902e-05 -2.39257e-05 1.377e-05 1.1835e-05 2.97036e-06 -1.99736e-05 1.73732e-05 1.9419e-05 -3.48214e-05 
1.37319e-05 4.73491e-05 3.17696e-06 2.30261e-05 -2.86433e-05 -1.67993e-05 -4.39338e-06 1.96614e-05 -2.79433e-05 1.65113e-05 1.5176e-05 1.74404e-06 -2.13549e-05 1.84354e-05 2.29425e-05 -3.73553e-05 
2.92238e-05 2.85879e-05 2.34993e-05 1.45075e-05 -1.45337e-05 -1.42082e-05 3.81982e-06 2.1023e-05 -2.59986e-05 1.09541e-05 1.44414e-05 3.94719e-06 -2.21325e-05 1.60281e-05 1.32453e-05 -3.57705e-05 
0.000111017 0.000133662 -8.70986e-07 9.1266e-05 -5.86695e-05 -7.47065e-05 2.56962e-05 0.000127354 -2.13998e-05 4.27403e-05 9.30671e-05 9.95368e-06 -0.00010528 7.66187e-05 3.60683e-05 -0.000170615 
2.91181e-05 2.69359e-05 3.01095e-05 1.18969e-05 -1.37161e-05 -1.31275e-05 3.24344e-06 1.76758e-05 -3.08991e-05 1.08095e-05 1.11525e-05 4.66692e-06 -2.0917e-05 1.53634e-05 1.43935e-05 -3.38093e-05 
3.78755e-05 5.95623e-05 2.06655e-05 3.0939e-05 -3.61216e-05 -2.31984e-05 -5.41492e-07 3.43924e-05 -4.59066e-05 2.20606e-05 2.91593e-05 2.57425e-06 -3.51345e-05 2.53023e-05 2.69173e-05 -5.71078e-05 
1.09266e-05 7.452e-05 -9.99143e-06 3.70119e-05 -4.31305e-05 -2.71239e-05 -7.68924e-06 2.94253e-05 -2.9764e-05 2.45636e-05 2.01522e-05 2.79901e-06 -3.0724e-05 2.93461e-05 3.50632e-05 -5.6158e-05 
2.85965e-05 3.10703e-05 2.1594e-05 1.6038e-05 -1.63651e-05 -1.48835e-05 3.32345e-06 2.19368e-05 -2.5983e-05 1.17195e-05 1.53668e-05 3.66924e-06 -2.27154e-05 1.67633e-05 1.41398e-05 -3.71614e-05 
2.5408e-05 4.50265e-05 1.65419e-05 2.20869e-05 -2.82768e-05 -1.64816e-05 -1.99815e-06 2.28112e-05 -3.70384e-05 1.68145e-05 1.94116e-05 1.86967e-06 -2.45512e-05 1.82078e-05 2.16777e-05 -4.05298e-05 
5.05719e-05 3.85011e-05 3.83205e-05 2.12468e-05 -1.67771e-05 -2.2309e-05 9.71031e-06 3.55511e-05 -3.43326e-05 1.48033e-05 2.37698e-05 6.86243e-06 -3.57538e-05 2.49661e-05 1.60507e-05 -5.67001e-05 
3.13592e-05 2.71729e-05 2.87063e-05 1.31105e-05 -1.308e-05 -1.41474e-05 4.53439e-06 2.03915e-05 -2.83095e-05 1.07214e-05 1.31413e-05 4.7556e-06 -2.24768e-05 1.62872e-05 1.33736e-05 -3.61501e-05 
2.25802e-05 5.62553e-05 1.88756e-05 2.58435e-05 -3.68341e-05 -1.91248e-05 -5.15823e-06 2.26617e-05 -4.50535e-05 2.08408e-05 1.80266e-05 2.23262e-06 -2.61363e-05 2.20154e-05 2.90014e-05 -4.62795e-05 
3.48242e-05 3.29354e-05 3.22348e-05 1.56191e-05 -1.67173e-05 -1.626e-05 4.24933e-06 2.29632e-05 -3.39687e-05 1.29335e-05 1.50899e-05 5.18389e-06 -2.5623e-05 1.87002e-05 1.64544e-05 -4.14312e-05 
2.80837e-05 5.40035e-05 1.97792e-05 2.57193e-05 -3.47818e-05 -1.86066e-05 -3.85909e-06 2.48601e-05 -4.68873e-05 2.03634e-05 2.20831e-05 1.86166e-06 -2.78955e-05 2.07476e-05 2.69407e-05 -4.60228e-05 
5.0279e-06 6.43895e-05 -9.24666e-06 3.07257e-05 -3.83955e-05 -2.20637e-05 -8.63549e-06 2.17213e-05 -2.76376e-05 2.13192e-05 1.47108e-05 2.10306e-06 -2.40243e-05 2.40906e-05 3.16363e-05 -4.50018e-05 
2.16147e-05 4.84691e-05 1.63116e-05 2.25209e-05 -3.16498e-05 -1.61412e-05 -4.56805e-06 2.0162e-05 -4.13017e-05 1.81804e-05 1.7676e-05 1.54267e-06 -2.33554e-05 1.8139e-05 2.47553e-05 -3.94289e-05 
4.35742e-05 6.27514e-05 2.11752e-05 3.39411e-05 -3.69189e-05 -2.58572e-05 1.39837e-06 3.99009e-05 -4.53161e-05 2.30712e-05 3.31892e-05 3.00463e-06 -3.92485e-05 2.79942e-05 2.69479e-05 -6.35403e-05 
2.68289e-05 5.3279e-05 1.96768e-05 2.50386e-05 -3.4609e-05 -1.8017e-05 -4.28063e-06 2.36281e-05 -4.70106e-05 2.01504e-05 2.11562e-05 1.77462e-06 -2.69453e-05 2.01753e-05 2.6953e-05 -4.45971e-05 
2.11499e-05 3.52649e-05 9.85874e-06 1.85485e-05 -1.92193e-05 -1.52277e-05 8.03817e-07 2.11882e-05 -2.16523e-05 1.24775e-05 1.55077e-05 2.60155e-06 -2.13695e-05 1.66234e-05 1.55832e-05 -3.55667e-05 
3.39886e-05 2.86638e-05 2.89338e-05 1.45128e-05 -1.34455e-05 -1.53777e-05 5.42578e-06 2.29497e-05 -2.8042e-05 1.11801e-05 1.50339e-05 4.94842e-06 -2.44121e-05 1.75135e-05 1.33723e-05 -3.9128e-05 
3.86999e-05 3.17599e-05 3.72561e-05 1.49145e-05 -1.51484e-05 -1.67438e-05 5.6877e-06 2.3992e-05 -3.55238e-05 1.27444e-05 1.51905e-05 5.99831e-06 -2.69767e-05 1.94441e-05 1.60778e-05 -4.32571e-05 
1.59443e-05 4.08021e-05 6.67889e-06 2.02624e-05 -2.45737e-05 -1.53283e-05 -2.3783e-06 1.92339e-05 -2.49987e-05 1.43841e-05 1.44887e-05 1.84476e-06 -2.01732e-05 1.68949e-05 1.92744e-05 -3.51346e-05 
3.13493e-05 2.64613e-05 2.9648e-05 1.25412e-05 -1.26469e-05 -1.38527e-05 4.54431e-06 1.98301e-05 -2.8725e-05 1.05239e-05 1.26545e-05 4.83172e-06 -2.21832e-05 1.60085e-05 1.3248e-05 -3.55669e-05 
1.21484e-05 5.03655e-05 1.79706e-05 2.03006e-05 -3.53767e-05 -1.42486e-05 -8.70306e-06 1.25336e-05 -4.61252e-05 1.90079e-05 1.05665e-05 1.45693e-06 -1.85093e-05 1.71218e-05 2.89813e-05 -3.44707e-05 
1.01514e-05 6.72596e-05 1.68565e-05 2.70463e-05 -4.74047e-05 -1.79736e-05 -1.36541e-05 1.40171e-05 -5.85623e-05 2.51096e-05 1.24555e-05 1.19543e-06 -2.22445e-05 2.12458e-05 3.88205e-05 -4.20337e-05 
6.16031e-05 0.000103156 -5.3553e-06 6.39086e-05 -5.00749e-05 -5.0868e-05 9.50828e-06 7.8645e-05 -2.46592e-05 3.33934e-05 5.65537e-05 6.52478e-06 -6.796e-05 5.30274e-05 3.50404e-05 -0.000113458 
3.5802e-05 3.08394e-05 3.02634e-05 1.56252e-05 -1.46954e-05 -1.63364e-05 5.5517e-06 2.43875e-05 -2.98923e-05 1.19935e-05 1.61435e-05 5.12412e-06 -2.59035e-05 1.85522e-05 1.4339e-05 -4.15208e-05 
1.33656e-05 5.09819e-05 1.34993e-05 2.20544e-05 -3.42141e-05 -1.57167e-05 -7.36301e-06 1.56955e-05 -4.10146e-05 1.87966e-05 1.25855e-05 1.62001e-06 -2.02031e-05 1.82844e-05 2.77485e-05 -3.6967e-05 
4.18812e-05 6.18035e-05 2.1041e-05 3.30454e-05 -3.66734e-05 -2.50708e-05 8.21166e-07 3.82644e-05 -4.54966e-05 2.27676e-05 3.19986e-05 2.87515e-06 -3.80334e-05 2.71917e-05 2.69332e-05 -6.16251e-05 
5.63701e-05 0.000100218 -5.85455e-06 6.11514e-05 -4.93679e-05 -4.84125e-05 7.72794e-06 7.35797e-05 -2.51803e-05 3.24826e-05 5.28152e-05 6.13732e-06 -6.41216e-05 5.05689e-05 3.5039e-05 -0.000107556 
3.98615e-05 3.02875e-05 3.35192e-05 1.57521e-05 -1.33284e-05 -1.72571e-05 7.21711e-06 2.65122e-05 -3.00858e-05 1.1875e-05 1.72431e-05 5.78696e-06 -2.77975e-05 1.96097e-05 1.36795e-05 -4.41574e-05 
6.98035e-05 4.83309e-05 3.44563e-05 3.26365e-05 -1.81211e-05 -3.17499e-05 1.73636e-05 5.66125e-05 -2.62068e-05 1.73658e-05 3.9759e-05 7.78118e-06 -5.0316e-05 3.39543e-05 1.37158e-05 -7.88931e-05 
6.84664e-06 6.38244e-05 1.78369e-05 2.42759e-05 -4.60017e-05 -1.58129e-05 -1.46953e-05 9.8905e-06 -5.91984e-05 2.40834e-05 9.38343e-06 1.00475e-06 -1.92062e-05 1.90724e-05 3.83278e-05 -3.70795e-05 
-1.23307e-05 6.38505e-05 -1.23841e-05 2.57643e-05 -4.19356e-05 -1.6825e-05 -1.61103e-05 7.46443e-06 -3.36818e-05 2.13737e-05 4.12982e-06 9.63463e-07 -1.42581e-05 1.91583e-05 3.63359e-05 -3.1195e-05 
4.25319e-05 6.21803e-05 2.10459e-05 3.34093e-05 -3.67888e-05 -2.53658e-05 1.04214e-06 3.8904e-05 -4.54161e-05 2.28896e-05 3.24582e-05 2.92597e-06 -3.85008e-05 2.74987e-05 2.6945e-05 -6.23782e-05 
3.39993e-05 2.98218e-05 3.01034e-05 1.46683e-05 -1.44457e-05 -1.54931e-05 4.93987e-06 2.26376e-05 -3.00755e-05 1.16782e-05 1.48522e-05 4.991e-06 -2.45828e-05 1.77085e-05 1.43376e-05 -3.94824e-05 
4.94242e-05 9.62604e-05 -6.53342e-06 5.74463e-05 -4.84412e-05 -4.51447e-05 5.37688e-06 6.68047e-05 -2.58616e-05 3.1289e-05 4.77569e-05 5.6379e-06 -5.89553e-05 4.73542e-05 3.50766e-05 -9.96909e-05 
1.21379e-05 7.46652e-05 2.04372e-05 2.98422e-05 -5.30252e-05 -1.97402e-05 -1.52815e-05 1.54251e-05 -6.68442e-05 2.80588e-05 1.40452e-05 1.25044e-06 -2.47977e-05 2.33596e-05 4.32903e-05 -4.66487e-05 
9.85244e-06 7.38764e-05 -1.02455e-05 3.64462e-05 -4.30767e-05 -2.65754e-05 -8.03986e-06 2.83533e-05 -2.98025e-05 2.44308e-05 1.92439e-05 2.74928e-06 -2.97757e-05 2.8908e-05 3.51538e-05 -5.49684e-05 
3.53157e-05 3.228e-05 2.45749e-05 1.76971e-05 -1.56399e-05 -1.70269e-05 5.71805e-06 2.67475e-05 -2.61559e-05 1.21342e-05 1.87385e-05 4.39554e-06 -2.66181e-05 1.88485e-05 1.35116e-05 -4.26328e-05 
2.11102e-06 7.6374e-05 2.17639e-05 2.7002e-05 -5.65576e-05 -1.69378e-05 -2.0517e-05 6.1571e-06 -7.45448e-05 2.90586e-05 6.89111e-06 9.28001e-07 -1.93866e-05 2.10946e-05 4.81089e-05 -3.9392e-05 
9.19146e-05 9.00084e-05 2.516e-05 5.96445e-05 -4.38027e-05 -4.83878e-05 1.78343e-05 8.6807e-05 -4.02583e-05 3.16377e-05 6.75908e-05 6.63401e-06 -7.43751e-05 5.07392e-05 2.71575e-05 -0.000118297 
2.55338e-05 7.59674e-05 -7.44753e-06 4.16172e-05 -4.12489e-05 -3.16514e-05 -1.67531e-06 4.16299e-05 -2.55427e-05 2.49135e-05 2.939e-05 3.62061e-06 -3.90295e-05 3.36927e-05 3.16625e-05 -6.81987e-05 
1.81831e-05 4.20736e-05 1.43008e-05 1.94424e-05 -2.74929e-05 -1.40623e-05 -3.98795e-06 1.72539e-05 -3.54147e-05 1.57177e-05 1.48029e-05 1.41596e-06 -2.007e-05 1.58906e-05 2.15567e-05 -3.42451e-05 
3.79958e-05 2.92285e-05 3.33533e-05 1.4758e-05 -1.30724e-05 -1.63826e-05 6.58791e-06 2.46965e-05 -3.02715e-05 1.15532e-05 1.58939e-05 5.65264e-06 -2.64182e-05 1.87459e-05 1.36855e-05 -4.20494e-05 
2.68874e-05 3.35349e-05 2.00137e-05 1.69346e-05 -1.84633e-05 -1.50322e-05 2.03641e-06 2.14331e-05 -2.75439e-05 1.25663e-05 1.53898e-05 3.34625e-06 -2.2563e-05 1.68425e-05 1.56321e-05 -3.71407e-05 
2.25368e-05 3.24041e-05 2.15889e-05 1.47343e-05 -1.91832e-05 -1.31041e-05 4.73767e-08 1.67465e-05 -3.0544e-05 1.24179e-05 1.18482e-05 3.11418e-06 -1.94605e-05 1.52069e-05 1.68686e-05 -3.27818e-05 
4.1917e-05 6.18469e-05 2.10261e-05 3.3087e-05 -3.66799e-05 -2.50904e-05 8.30653e-07 3.8319e-05 -4.54961e-05 2.2767e-05 3.20601e-05 2.87229e-06 -3.81014e-05 2.71927e-05 2.69182e-05 -6.1681e-05 
4.02211e-05 9.10638e-05 -7.36098e-06 5.2562e-05 -4.7173e-05 -4.0836e-05 2.2549e-06 5.78693e-05 -2.67928e-05 2.9682e-05 4.11554e-05 4.9607e-06 -5.22033e-05 4.3052e-05 3.50759e-05 -8.92874e-05 
3.8642e-05 9.01549e-05 -7.51348e-06 5.17122e-05 -4.6969e-05 -4.0089e-05 1.7246e-06 5.63215e-05 -2.69392e-05 2.94198e-05 3.99807e-05 4.85371e-06 -5.09946e-05 4.23363e-05 3.51003e-05 -8.75014e-05 
4.34334e-05 4.59076e-05 1.77825e-05 2.80556e-05 -2.32202e-05 -2.34031e-05 7.07679e-06 3.9412e-05 -2.59314e-05 1.6396e-05 3.00721e-05 3.77112e-06 -3.57344e-05 2.49883e-05 1.62016e-05 -5.73088e-05 
2.71166e-05 5.34516e-05 1.96815e-05 2.52037e-05 -3.46563e-05 -1.81498e-05 -4.18492e-06 2.39162e-05 -4.69786e-05 2.02004e-05 2.13729e-05 1.79414e-06 -2.71673e-05 2.0304e-05 2.69507e-05 -4.49308e-05 
0.000138349 0.00014624 1.16823e-06 0.000104525 -6.09624e-05 -8.66281e-05 3.5643e-05 0.00015295 -1.66176e-05 4.70411e-05 0.000110901 1.23274e-05 -0.000123422 8.92592e-05 3.54783e-05 -0.000200268 
3.01763e-05 2.61675e-05 3.01399e-05 1.19044e-05 -1.27691e-05 -1.33354e-05 3.97177e-06 1.85073e-05 -2.96748e-05 1.0473e-05 1.16873e-05 4.78419e-06 -2.13922e-05 1.55152e-05 1.36007e-05 -3.43216e-05 
3.57924e-05 3.07133e-05 3.07013e-05 1.54478e-05 -1.46387e-05 -1.62525e-05 5.50839e-06 2.41633e-05 -3.02224e-05 1.19743e-05 1.59488e-05 5.15829e-06 -2.58241e-05 1.84826e-05 1.43925e-05 -4.13641e-05 
3.63688e-05 2.93029e-05 3.00656e-05 1.52183e-05 -1.33553e-05 -1.61965e-05 6.24835e-06 2.47102e-05 -2.82063e-05 1.14064e-05 1.62508e-05 5.20393e-06 -2.58589e-05 1.83586e-05 1.32568e-05 -4.12558e-05 
1.23035e-05 5.04489e-05 1.79689e-05 2.03821e-05 -3.54088e-05 -1.4317e-05 -8.64912e-06 1.26795e-05 -4.61026e-05 1.9042e-05 1.06605e-05 1.4718e-06 -1.86031e-05 1.72028e-05 2.8993e-05 -3.46482e-05 
3.45129e-05 3.55285e-05 1.90046e-05 2.03912e-05 -1.80343e-05 -1.78242e-05 5.07581e-06 2.88303e-05 -2.47179e-05 1.30312e-05 2.15544e-05 3.53313e-06 -2.75599e-05 1.93379e-05 1.39382e-05 -4.40747e-05 
1.06976e-05 4.71262e-05 4.83373e-06 2.18084e-05 -2.98838e-05 -1.56625e-05 -5.85961e-06 1.66142e-05 -3.01034e-05 1.66407e-05 1.25932e-05 1.52933e-06 -1.92411e-05 1.75829e-05 2.40291e-05 -3.50008e-05 
2.65275e-06 6.30248e-05 1.62053e-05 2.30623e-05 -4.63557e-05 -1.44686e-05 -1.61999e-05 6.73813e-06 -5.93298e-05 2.37915e-05 7.09447e-06 6.3843e-07 -1.6764e-05 1.77297e-05 3.88047e-05 -3.35473e-05 
4.22928e-05 3.12745e-05 3.79668e-05 1.56495e-05 -1.36957e-05 -1.78357e-05 7.52396e-06 2.68714e-05 -3.35929e-05 1.2468e-05 1.70764e-05 6.40689e-06 -2.89581e-05 2.05152e-05 1.48246e-05 -4.60013e-05 
4.28202e-05 3.30684e-05 3.19639e-05 1.83081e-05 -1.44379e-05 -1.90997e-05 8.21226e-06 3.03919e-05 -2.89135e-05 1.26748e-05 2.03407e-05 5.80475e-06 -3.04567e-05 2.13639e-05 1.37476e-05 -4.83831e-05 
7.57445e-05 0.000111132 -4.23332e-06 7.14381e-05 -5.21148e-05 -5.74461e-05 1.43139e-05 9.23679e-05 -2.31604e-05 3.59117e-05 6.65977e-05 7.5885e-06 -7.81945e-05 5.96806e-05 3.51198e-05 -0.000129484 
2.56844e-05 4.35769e-05 1.55322e-05 2.18644e-05 -2.68277e-05 -1.65475e-05 -1.17858e-06 2.3395e-05 -3.42868e-05 1.61614e-05 1.94824e-05 1.98439e-06 -2.45438e-05 1.8201e-05 2.04566e-05 -4.05038e-05 
2.44883e-05 3.2304e-05 2.5306e-05 1.41784e-05 -1.85747e-05 -1.33726e-05 4.09828e-07 1.66792e-05 -3.29674e-05 1.25749e-05 1.13688e-05 3.70236e-06 -2.02309e-05 1.55954e-05 1.73721e-05 -3.36493e-05 
3.32122e-05 2.61386e-05 3.71395e-05 1.08255e-05 -1.24505e-05 -1.358e-05 4.44095e-06 1.80477e-05 -3.45086e-05 1.08859e-05 1.05489e-05 5.73854e-06 -2.22789e-05 1.62701e-05 1.48293e-05 -3.57274e-05 
2.71195e-05 2.70281e-05 2.37687e-05 1.31031e-05 -1.40353e-05 -1.30633e-05 3.10897e-06 1.87005e-05 -2.64215e-05 1.04848e-05 1.27065e-05 3.81945e-06 -2.0432e-05 1.48889e-05 1.31692e-05 -3.30801e-05 
3.6088e-05 2.91412e-05 3.0057e-05 1.50632e-05 -1.33089e-05 -1.60679e-05 6.15303e-06 2.44346e-05 -2.82393e-05 1.1355e-05 1.60507e-05 5.18253e-06 -2.5655e-05 1.82268e-05 1.32537e-05 -4.09328e-05 
2.74658e-05 8.38112e-05 -8.60328e-06 4.5772e-05 -4.54801e-05 -3.48304e-05 -2.06204e-06 4.5443e-05 -2.80329e-05 2.75001e-05 3.18739e-05 4.04669e-06 -4.26932e-05 3.71476e-05 3.51522e-05 -7.48654e-05 
3.27937e-05 2.72756e-05 2.9758e-05 1.33108e-05 -1.28569e-05 -1.45241e-05 5.03534e-06 2.12314e-05 -2.85714e-05 1.07814e-05 1.36789e-05 4.94091e-06 -2.32293e-05 1.66893e-05 1.32569e-05 -3.72045e-05 
2.74701e-05 8.38613e-05 -8.52519e-06 4.57967e-05 -4.54243e-05 -3.48623e-05 -2.07328e-06 4.54877e-05 -2.80784e-05 2.746e-05 3.20029e-05 4.02148e-06 -4.2839e-05 3.70893e-05 3.50782e-05 -7.48703e-05 
3.07419e-05 2.61137e-05 2.96166e-05 1.22103e-05 -1.2553e-05 -1.35717e-05 4.3373e-06 1.92363e-05 -2.87927e-05 1.04148e-05 1.22206e-05 4.7852e-06 -2.17379e-05 1.57218e-05 1.32435e-05 -3.4871e-05 
3.14448e-05 2.66603e-05 3.10144e-05 1.22674e-05 -1.28249e-05 -1.37949e-05 4.3433e-06 1.93601e-05 -3.0099e-05 1.06614e-05 1.22483e-05 4.95071e-06 -2.21874e-05 1.60094e-05 1.37e-05 -3.55045e-05 
3.38528e-05 2.65127e-05 3.72611e-05 1.11617e-05 -1.25028e-05 -1.38967e-05 4.65365e-06 1.8679e-05 -3.44704e-05 1.09783e-05 1.10567e-05 5.77558e-06 -2.28039e-05 1.65475e-05 1.47974e-05 -3.64418e-05 
5.05174e-05 6.67146e-05 2.17802e-05 3.76646e-05 -3.78735e-05 -2.91142e-05 3.74783e-06 4.66788e-05 -4.46212e-05 2.42696e-05 3.82379e-05 3.50494e-06 -4.4417e-05 3.12094e-05 2.69191e-05 -7.14155e-05 
3.20731e-05 2.69997e-05 3.10048e-05 1.26024e-05 -1.29511e-05 -1.40705e-05 4.56312e-06 1.99573e-05 -3.00061e-05 1.07944e-05 1.26397e-05 5.01024e-06 -2.25815e-05 1.63324e-05 1.37394e-05 -3.62265e-05 
2.53299e-05 5.22865e-05 1.93419e-05 2.424e-05 -3.43007e-05 -1.73142e-05 -4.70823e-06 2.2255e-05 -4.68049e-05 1.98213e-05 2.01011e-05 1.6594e-06 -2.58175e-05 1.94641e-05 2.68126e-05 -4.28984e-05 
3.09944e-05 2.62609e-05 2.96225e-05 1.23516e-05 -1.25945e-05 -1.36877e-05 4.42254e-06 1.94857e-05 -2.87635e-05 1.046e-05 1.24039e-05 4.80393e-06 -2.19261e-05 1.5839e-05 1.32445e-05 -3.51624e-05 
1.32349e-06 6.01948e-05 -8.58449e-06 2.76254e-05 -3.69123e-05 -1.94517e-05 -9.73257e-06 1.71802e-05 -2.79397e-05 2.00911e-05 1.14634e-05 1.73545e-06 -2.03739e-05 2.14994e-05 3.0809e-05 -3.92294e-05 
3.11325e-05 2.901e-05 2.47753e-05 1.49338e-05 -1.42154e-05 -1.49252e-05 4.55329e-06 2.22958e-05 -2.6126e-05 1.11076e-05 1.50662e-05 4.3107e-06 -2.32998e-05 1.6843e-05 1.32417e-05 -3.75621e-05 
3.73001e-05 2.98259e-05 3.01752e-05 1.57048e-05 -1.34711e-05 -1.66374e-05 6.56378e-06 2.56117e-05 -2.812e-05 1.15642e-05 1.69248e-05 5.27045e-06 -2.65496e-05 1.8791e-05 1.325e-05 -4.23006e-05 
4.04134e-05 9.36732e-05 -7.62534e-06 5.37857e-05 -4.91912e-05 -4.15296e-05 1.78478e-06 5.87086e-05 -2.83512e-05 3.05694e-05 4.2024e-05 4.84079e-06 -5.30147e-05 4.38e-05 3.63174e-05 -9.08529e-05 
1.84112e-05 7.87331e-05 -9.32845e-06 4.09762e-05 -4.41731e-05 -3.06209e-05 -5.14543e-06 3.66814e-05 -2.89956e-05 2.58808e-05 2.54883e-05 3.35702e-06 -3.61764e-05 3.28617e-05 3.50829e-05 -6.46196e-05 
3.07177e-05 2.91284e-05 2.39589e-05 1.50797e-05 -1.45625e-05 -1.47819e-05 4.33689e-06 2.22677e-05 -2.59737e-05 1.11264e-05 1.53506e-05 4.07593e-06 -2.311e-05 1.65997e-05 1.31674e-05 -3.72137e-05 
3.23609e-05 2.70285e-05 2.9704e-05 1.30823e-05 -1.28067e-05 -1.43169e-05 4.88943e-06 2.08092e-05 -2.86081e-05 1.07113e-05 1.33562e-05 4.91146e-06 -2.28955e-05 1.64919e-05 1.32654e-05 -3.67178e-05 
7.95495e-06 5.34262e-05 -5.566e-08 2.47088e-05 -3.334e-05 -1.76436e-05 -7.32939e-06 1.76494e-05 -3.01485e-05 1.84176e-05 1.28348e-05 1.67459e-06 -2.04642e-05 1.96059e-05 2.71764e-05 -3.7854e-05 
2.76549e-05 4.95487e-05 1.88053e-05 2.40483e-05 -3.11383e-05 -1.86006e-05 -1.84571e-06 2.53138e-05 -3.94182e-05 1.83183e-05 2.03687e-05 2.41336e-06 -2.69359e-05 2.05105e-05 2.38361e-05 -4.53321e-05 
2.27384e-05 5.65049e-05 1.38067e-05 2.72633e-05 -3.55964e-05 -2.02938e-05 -4.04677e-06 2.51621e-05 -3.95111e-05 2.04414e-05 1.95042e-05 2.32494e-06 -2.7234e-05 2.28727e-05 2.77092e-05 -4.79209e-05 
3.56333e-05 2.82009e-05 3.24927e-05 1.38114e-05 -1.29475e-05 -1.54135e-05 5.8017e-06 2.27328e-05 -3.01451e-05 1.12187e-05 1.45e-05 5.41641e-06 -2.48119e-05 1.77603e-05 1.36824e-05 -3.96464e-05 
2.55371e-05 4.3482e-05 1.55113e-05 2.1787e-05 -2.67868e-05 -1.64814e-05 -1.22157e-06 2.32627e-05 -3.42724e-05 1.61236e-05 1.93922e-05 1.9705e-06 -2.44494e-05 1.81244e-05 2.04334e-05 -4.03352e-05 
3.99109e-05 6.6065e-05 2.04234e-05 3.50627e-05 -3.92243e-05 -2.72409e-05 7.19949e-07 3.95091e-05 -4.32993e-05 2.38621e-05 3.04894e-05 3.50499e-06 -3.8881e-05 3.01067e-05 2.89925e-05 -6.58906e-05 
2.53726e-05 3.40075e-05 2.18496e-05 1.62401e-05 -1.95717e-05 -1.44332e-05 1.01124e-06 1.95016e-05 -3.02576e-05 1.29126e-05 1.38853e-05 3.32382e-06 -2.15444e-05 1.65344e-05 1.68683e-05 -3.59914e-05 
2.71756e-05 5.33334e-05 1.95172e-05 2.52215e-05 -3.45494e-05 -1.81814e-05 -4.08261e-06 2.40508e-05 -4.66223e-05 2.01402e-05 2.14364e-05 1.7932e-06 -2.71839e-05 2.03223e-05 2.68065e-05 -4.49858e-05 
3.63188e-05 2.94685e-05 2.9708e-05 1.53737e-05 -1.34624e-05 -1.62595e-05 6.23815e-06 2.48571e-05 -2.80184e-05 1.1442e-05 1.64022e-05 5.16395e-06 -2.59164e-05 1.84036e-05 1.32552e-05 -4.13624e-05 
9.52136e-06 7.37292e-05 -1.01149e-05 3.62676e-05 -4.29343e-05 -2.64676e-05 -8.1669e-06 2.80631e-05 -2.99089e-05 2.43161e-05 1.91511e-05 2.69415e-06 -2.97016e-05 2.8686e-05 3.50591e-05 -5.45693e-05 
1.90829e-05 7.91015e-05 -9.28146e-06 4.13274e-05 -4.42752e-05 -3.09297e-05 -4.91415e-06 3.73255e-05 -2.8918e-05 2.60055e-05 2.59459e-05 3.41113e-06 -3.66419e-05 3.31878e-05 3.50962e-05 -6.5378e-05 
2.16574e-05 4.72143e-05 1.27854e-05 2.31653e-05 -2.93529e-05 -1.74595e-05 -2.53017e-06 2.26268e-05 -3.34408e-05 1.71359e-05 1.77145e-05 2.09845e-06 -2.40316e-05 1.95302e-05 2.27221e-05 -4.15531e-05 
2.68348e-05 3.3697e-05 1.64608e-05 1.79928e-05 -1.86407e-05 -1.51445e-05 2.25976e-06 2.28172e-05 -2.5155e-05 1.24492e-05 1.72678e-05 2.77308e-06 -2.28531e-05 1.66849e-05 1.46811e-05 -3.73032e-05 
2.11507e-05 3.60899e-05 1.82916e-05 1.67077e-05 -2.20322e-05 -1.37646e-05 -1.22746e-06 1.74504e-05 -3.14538e-05 1.35925e-05 1.31246e-05 2.56509e-06 -1.99864e-05 1.56393e-05 1.84082e-05 -3.3785e-05 
2.88425e-05 5.98124e-05 1.94395e-05 2.91826e-05 -3.7694e-05 -2.20622e-05 -3.03588e-06 2.87577e-05 -4.44264e-05 2.19285e-05 2.25488e-05 2.68992e-06 -3.07647e-05 2.49331e-05 2.89906e-05 -5.33721e-05 
3.64658e-05 5.87553e-05 2.05772e-05 3.01737e-05 -3.59107e-05 -2.2544e-05 -1.01938e-06 3.30141e-05 -4.60581e-05 2.18104e-05 2.81446e-05 2.47009e-06 -3.40967e-05 2.46451e-05 2.69134e-05 -5.54995e-05 
2.5014e-05 3.85313e-05 1.03791e-05 2.11278e-05 -2.13327e-05 -1.69114e-05 1.56319e-06 2.50032e-05 -2.28243e-05 1.36848e-05 1.88787e-05 2.49786e-06 -2.41444e-05 1.83543e-05 1.61683e-05 -4.01261e-05 
3.13467e-05 4.31039e-05 2.2351e-05 2.18032e-05 -2.44274e-05 -1.85974e-05 1.55285e-06 2.6199e-05 -3.4013e-05 1.60534e-05 1.91671e-05 3.69392e-06 -2.74839e-05 2.08081e-05 2.00968e-05 -4.56821e-05 
2.01996e-05 3.72472e-05 9.74145e-06 1.92575e-05 -2.12957e-05 -1.53998e-05 -5.4387e-08 2.09656e-05 -2.31522e-05 1.32358e-05 1.54137e-05 2.36934e-06 -2.12317e-05 1.69396e-05 1.6828e-05 -3.60781e-05 
3.68558e-05 3.87124e-05 2.17576e-05 2.16603e-05 -2.01688e-05 -1.88121e-05 4.81475e-06 3.00634e-05 -2.90504e-05 1.4374e-05 2.27814e-05 3.7447e-06 -2.93305e-05 2.05582e-05 1.58458e-05 -4.68489e-05 
2.12766e-05 4.24809e-05 6.5916e-06 2.26316e-05 -2.44465e-05 -1.73069e-05 -4.10016e-07 2.41238e-05 -2.37762e-05 1.48917e-05 1.84326e-05 2.09078e-06 -2.36512e-05 1.87717e-05 1.85133e-05 -4.0096e-05 
3.71183e-05 2.98599e-05 3.14619e-05 1.52884e-05 -1.36421e-05 -1.6436e-05 6.27415e-06 2.48653e-05 -2.94995e-05 1.16706e-05 1.62784e-05 5.37924e-06 -2.6305e-05 1.86842e-05 1.3731e-05 -4.19373e-05 
1.55257e-05 4.20554e-05 5.20808e-06 2.09659e-05 -2.52606e-05 -1.55725e-05 -2.76274e-06 1.94744e-05 -2.53088e-05 1.47858e-05 1.50018e-05 1.73235e-06 -2.04523e-05 1.7117e-05 1.98567e-05 -3.5442e-05 
1.11553e-05 4.91915e-05 1.22146e-05 2.09689e-05 -3.33925e-05 -1.46554e-05 -7.8794e-06 1.39329e-05 -3.99073e-05 1.81073e-05 1.14889e-05 1.29903e-06 -1.86449e-05 1.70036e-05 2.70215e-05 -3.42428e-05 
1.45978e-05 7.00903e-05 2.04772e-05 2.86723e-05 -4.88747e-05 -1.95262e-05 -1.29337e-05 1.68398e-05 -6.19332e-05 2.63097e-05 1.46839e-05 1.5774e-06 -2.50508e-05 2.29696e-05 3.99549e-05 -4.63528e-05 
2.53058e-05 3.78098e-05 1.11382e-05 2.07174e-05 -2.03413e-05 -1.7123e-05 2.08307e-06 2.504e-05 -2.18557e-05 1.33726e-05 1.81811e-05 2.89273e-06 -2.42329e-05 1.86585e-05 1.58676e-05 -4.04484e-05 
2.57943e-05 5.23072e-05 1.5172e-05 2.5617e-05 -3.2837e-05 -1.87175e-05 -3.19859e-06 2.50374e-05 -4.06015e-05 1.93091e-05 2.12705e-05 1.92905e-06 -2.70597e-05 2.07182e-05 2.53231e-05 -4.52119e-05 
2.53496e-05 4.56949e-05 1.39138e-05 2.31088e-05 -2.79428e-05 -1.73708e-05 -1.40557e-06 2.43194e-05 -3.39397e-05 1.6756e-05 2.00661e-05 1.99091e-06 -2.52816e-05 1.90433e-05 2.12508e-05 -4.198e-05 
2.00325e-05 4.2227e-05 1.51338e-05 1.98032e-05 -2.73468e-05 -1.44758e-05 -3.35854e-06 1.84546e-05 -3.56725e-05 1.58146e-05 1.57865e-05 1.55286e-06 -2.09807e-05 1.63394e-05 2.13572e-05 -3.54976e-05 
3.2932e-05 3.25068e-05 2.36993e-05 1.72799e-05 -1.6499e-05 -1.63224e-05 4.59045e-06 2.49995e-05 -2.70067e-05 1.22523e-05 1.76458e-05 4.09225e-06 -2.5329e-05 1.81373e-05 1.41761e-05 -4.0828e-05 
2.67732e-05 5.32523e-05 1.96489e-05 2.50175e-05 -3.46118e-05 -1.79872e-05 -4.30048e-06 2.35782e-05 -4.70108e-05 2.01433e-05 2.11157e-05 1.77086e-06 -2.6903e-05 2.01485e-05 2.69564e-05 -4.45406e-05 
8.4809e-05 8.60766e-05 2.4864e-05 5.58634e-05 -4.26071e-05 -4.51647e-05 1.53876e-05 7.99723e-05 -4.11419e-05 3.02649e-05 6.28163e-05 6.03747e-06 -6.95482e-05 4.72583e-05 2.69384e-05 -0.000110195 
1.01051e-05 4.92096e-05 1.7801e-05 1.92118e-05 -3.5088e-05 -1.32943e-05 -9.39714e-06 1.05481e-05 -4.63365e-05 1.86483e-05 9.105e-06 1.30482e-06 -1.70145e-05 1.61633e-05 2.89763e-05 -3.21552e-05 
8.71396e-06 4.78806e-05 2.67638e-06 2.20333e-05 -3.02402e-05 -1.57819e-05 -6.35507e-06 1.60912e-05 -2.89976e-05 1.67088e-05 1.19141e-05 1.52568e-06 -1.87729e-05 1.77064e-05 2.44986e-05 -3.45889e-05 
2.13024e-05 3.58553e-05 1.65338e-05 1.72224e-05 -2.1631e-05 -1.40338e-05 -7.21646e-07 1.84475e-05 -2.92193e-05 1.33633e-05 1.38734e-05 2.45806e-06 -2.02576e-05 1.58636e-05 1.76557e-05 -3.42999e-05 
1.97808e-05 4.07171e-05 7.64085e-06 2.09406e-05 -2.1823e-05 -1.74295e-05 8.55486e-08 2.2458e-05 -2.17816e-05 1.40526e-05 1.51621e-05 3.21115e-06 -2.29237e-05 1.91321e-05 1.84783e-05 -3.92969e-05 
