5.27149e-06 -5.44281e-06 -3.48257e-06 -1.88879e-05 3.41175e-05 1.13997e-05 -1.81702e-06 -1.0681e-06 -1.71869e-06 -1.03936e-05 -4.75346e-05 -7.95505e-06 -3.02167e-05 5.014e-05 -1.09684e-06 -2.35905e-05 
-4.85954e-06 -3.98408e-06 1.57948e-05 1.18584e-05 2.54631e-05 -1.32247e-05 1.92053e-06 -4.65696e-06 2.33621e-06 -3.54003e-07 -3.8209e-05 8.30384e-06 -1.29947e-05 5.49681e-05 3.82235e-06 -1.30153e-05 
2.04364e-06 -4.47824e-06 1.42842e-06 -8.87223e-06 2.82473e-05 3.55218e-06 -8.7344e-07 -1.89284e-06 -7.76532e-07 -6.2717e-06 -4.00123e-05 -2.70144e-06 -2.23654e-05 4.62903e-05 3.86034e-07 -1.82751e-05 
-7.49784e-06 -6.76348e-06 2.43941e-05 1.78822e-05 4.26162e-05 -2.08286e-05 2.60677e-06 -7.33934e-06 3.0389e-06 -5.87019e-07 -6.36423e-05 1.31482e-05 -2.23051e-05 9.09129e-05 6.28545e-06 -2.19803e-05 
-2.09833e-06 -4.10472e-06 9.48098e-06 3.25291e-06 2.64579e-05 -6.44471e-06 5.70324e-07 -3.66171e-06 9.68683e-07 -2.49413e-06 -3.88808e-05 3.6893e-06 -1.66193e-05 5.15504e-05 2.29104e-06 -1.5128e-05 
5.77804e-07 -6.94091e-06 7.09096e-06 -6.86796e-06 4.49113e-05 -6.94315e-07 -6.6807e-07 -4.45575e-06 -1.60987e-07 -7.59224e-06 -6.46566e-05 -4.61565e-07 -3.26705e-05 7.93001e-05 1.62609e-06 -2.78473e-05 
-4.84071e-06 -3.78312e-06 1.56394e-05 1.1896e-05 2.36284e-05 -1.29958e-05 2.05315e-06 -4.38326e-06 2.41961e-06 -3.27787e-07 -3.57279e-05 8.12441e-06 -1.19547e-05 5.15959e-05 3.71698e-06 -1.1964e-05 
-8.34287e-06 -7.0522e-06 2.62728e-05 1.93888e-05 4.55924e-05 -2.27297e-05 2.73918e-06 -8.24948e-06 3.47351e-06 -4.70649e-07 -6.84096e-05 1.40355e-05 -2.36691e-05 9.81782e-05 6.41029e-06 -2.35182e-05 
3.12792e-06 -4.91558e-06 -2.05522e-07 -1.23833e-05 3.10418e-05 6.1107e-06 -1.25282e-06 -1.67534e-06 -1.20274e-06 -7.71776e-06 -4.36643e-05 -4.39904e-06 -2.55859e-05 4.90495e-05 -7.22167e-08 -2.05221e-05 
-1.24176e-05 -8.96102e-06 3.85435e-05 3.05883e-05 5.56905e-05 -3.2988e-05 4.99755e-06 -1.08568e-05 6.09291e-06 1.28722e-07 -8.4887e-05 2.03594e-05 -2.72136e-05 0.000123958 9.11395e-06 -2.78641e-05 
2.32611e-06 -3.55574e-06 -2.29635e-07 -9.32473e-06 2.27932e-05 4.70011e-06 -9.11928e-07 -1.34709e-06 -7.28214e-07 -5.78441e-06 -3.21906e-05 -3.50855e-06 -1.88581e-05 3.6046e-05 -2.21585e-07 -1.51896e-05 
2.04456e-06 -5.11939e-06 2.16348e-06 -9.53283e-06 3.26393e-05 3.44687e-06 -9.45768e-07 -2.40982e-06 -7.28645e-07 -7.02345e-06 -4.63994e-05 -2.79476e-06 -2.5537e-05 5.42071e-05 4.53755e-07 -2.10099e-05 
2.08898e-06 -3.70836e-06 3.20838e-07 -8.8383e-06 2.40426e-05 4.07572e-06 -8.89527e-07 -1.66318e-06 -6.15496e-07 -5.7016e-06 -3.40948e-05 -3.1818e-06 -1.94395e-05 3.88357e-05 -1.01623e-07 -1.58762e-05 
5.65331e-07 -3.84972e-06 3.95208e-06 -4.09529e-06 2.4073e-05 2.01588e-07 -2.38776e-07 -2.0901e-06 -7.93473e-08 -4.55545e-06 -3.45674e-05 -4.93372e-07 -1.79013e-05 4.17912e-05 9.26274e-07 -1.49844e-05 
-8.32264e-06 -5.48542e-06 2.61125e-05 2.13005e-05 3.32473e-05 -2.17933e-05 3.90731e-06 -6.76404e-06 4.5842e-06 1.17044e-07 -5.10912e-05 1.35851e-05 -1.55868e-05 7.5397e-05 6.00812e-06 -1.6243e-05 
-6.90161e-06 -6.09174e-06 2.23845e-05 1.6492e-05 3.85601e-05 -1.90694e-05 2.44804e-06 -6.74063e-06 2.89919e-06 -5.20491e-07 -5.76519e-05 1.20042e-05 -2.00818e-05 8.24859e-05 5.68025e-06 -1.98629e-05 
4.13115e-06 -3.77119e-06 -3.62841e-06 -1.46704e-05 2.419e-05 9.05907e-06 -1.51747e-06 -7.24679e-07 -1.38126e-06 -7.53801e-06 -3.35758e-05 -6.3466e-06 -2.17588e-05 3.48605e-05 -1.08324e-06 -1.69811e-05 
-8.11759e-06 -5.53051e-06 2.54405e-05 2.05428e-05 3.37637e-05 -2.13659e-05 3.65272e-06 -6.74905e-06 4.31958e-06 7.93624e-08 -5.1735e-05 1.32887e-05 -1.60883e-05 7.60386e-05 5.91107e-06 -1.66347e-05 
-3.90293e-06 -3.85496e-06 1.33459e-05 8.8751e-06 2.46732e-05 -1.07846e-05 1.41955e-06 -4.16281e-06 1.79431e-06 -9.4902e-07 -3.68467e-05 6.64262e-06 -1.35232e-05 5.17935e-05 3.20378e-06 -1.30432e-05 
2.52856e-06 -3.76746e-06 -3.60362e-07 -1.00159e-05 2.40997e-05 5.11579e-06 -9.8137e-07 -1.38058e-06 -8.04145e-07 -6.16271e-06 -3.39885e-05 -3.7783e-06 -1.99981e-05 3.79545e-05 -2.44538e-07 -1.60826e-05 
1.73077e-06 -3.92236e-06 1.5151e-06 -7.6437e-06 2.46852e-05 3.0532e-06 -6.86182e-07 -1.66988e-06 -5.78955e-07 -5.58727e-06 -3.5039e-05 -2.3602e-06 -1.95741e-05 4.05421e-05 3.17051e-07 -1.59635e-05 
-7.53251e-06 -4.75326e-06 2.40198e-05 1.98342e-05 2.79068e-05 -1.96337e-05 3.9068e-06 -5.68985e-06 4.3343e-06 4.2193e-08 -4.30484e-05 1.24434e-05 -1.27607e-05 6.39823e-05 5.51508e-06 -1.32999e-05 
-5.70745e-06 -4.19536e-06 1.87052e-05 1.42905e-05 2.54749e-05 -1.50046e-05 2.7872e-06 -4.86501e-06 3.24952e-06 -5.81249e-07 -3.89436e-05 9.3122e-06 -1.27597e-05 5.63939e-05 4.21763e-06 -1.27765e-05 
-6.38644e-06 -4.0184e-06 2.02696e-05 1.66814e-05 2.38566e-05 -1.66145e-05 3.26512e-06 -4.90836e-06 3.68393e-06 3.14857e-08 -3.68322e-05 1.04629e-05 -1.0964e-05 5.46733e-05 4.60759e-06 -1.14308e-05 
-3.71788e-06 -4.24651e-06 1.40768e-05 8.24823e-06 2.61982e-05 -1.02378e-05 1.74326e-06 -4.12669e-06 2.12664e-06 -1.94334e-06 -3.92421e-05 6.19941e-06 -1.5198e-05 5.39165e-05 3.20091e-06 -1.41914e-05 
-6.90518e-06 -4.44481e-06 2.17792e-05 1.78303e-05 2.67365e-05 -1.8033e-05 3.37453e-06 -5.47635e-06 3.88941e-06 7.6879e-08 -4.12055e-05 1.12813e-05 -1.24372e-05 6.09463e-05 4.98119e-06 -1.29481e-05 
-3.51305e-06 -4.08071e-06 1.31689e-05 7.73332e-06 2.52618e-05 -9.77406e-06 1.5401e-06 -3.94833e-06 1.87392e-06 -1.74085e-06 -3.77494e-05 5.94281e-06 -1.46351e-05 5.19009e-05 3.08399e-06 -1.36868e-05 
2.25052e-06 -3.59743e-06 -1.10306e-07 -9.20092e-06 2.32496e-05 4.49494e-06 -9.22249e-07 -1.47481e-06 -7.0169e-07 -5.73441e-06 -3.28807e-05 -3.40853e-06 -1.90732e-05 3.70574e-05 -1.95016e-07 -1.54502e-05 
5.10406e-06 -4.411e-06 -4.24332e-06 -1.74639e-05 2.7095e-05 1.12688e-05 -1.63169e-06 -3.152e-07 -1.6819e-06 -9.19317e-06 -3.74127e-05 -7.65213e-06 -2.50522e-05 3.78229e-05 -1.21655e-06 -1.91516e-05 
1.03025e-06 -3.78794e-06 2.8175e-06 -5.55492e-06 2.39488e-05 1.39473e-06 -4.132e-07 -1.93973e-06 -2.46357e-07 -4.90379e-06 -3.42541e-05 -1.31033e-06 -1.8316e-05 4.06557e-05 6.08754e-07 -1.51853e-05 
-4.76815e-07 -6.14879e-06 8.34484e-06 -3.14817e-06 3.95673e-05 -3.08611e-06 -2.37112e-07 -4.26209e-06 1.53965e-07 -5.86858e-06 -5.72747e-05 1.26599e-06 -2.77838e-05 7.18164e-05 2.01768e-06 -2.39681e-05 
2.70923e-06 -3.41005e-06 -8.43107e-07 -1.03124e-05 2.17932e-05 5.79245e-06 -8.84661e-07 -1.07855e-06 -6.82712e-07 -6.21608e-06 -3.07177e-05 -4.23653e-06 -1.86909e-05 3.34185e-05 -5.13744e-07 -1.48142e-05 
-6.98554e-06 -4.35123e-06 2.21857e-05 1.82831e-05 2.57335e-05 -1.81437e-05 3.60838e-06 -5.29885e-06 4.03556e-06 2.57292e-08 -3.97622e-05 1.14465e-05 -1.1783e-05 5.91078e-05 5.02679e-06 -1.22658e-05 
-8.36607e-06 -5.47838e-06 2.62033e-05 2.12274e-05 3.33612e-05 -2.18448e-05 3.92243e-06 -6.75236e-06 4.53646e-06 3.08462e-08 -5.12786e-05 1.3621e-05 -1.57694e-05 7.56614e-05 5.96467e-06 -1.62587e-05 
-2.75096e-06 -5.07959e-06 1.24823e-05 4.74736e-06 3.18375e-05 -8.33334e-06 9.11318e-07 -4.27954e-06 1.27263e-06 -3.10173e-06 -4.69378e-05 4.90471e-06 -1.99747e-05 6.23782e-05 3.02858e-06 -1.80124e-05 
-7.49866e-06 -6.67619e-06 2.42654e-05 1.78306e-05 4.22336e-05 -2.07457e-05 2.59392e-06 -7.34695e-06 3.07556e-06 -5.60033e-07 -6.31133e-05 1.30483e-05 -2.20436e-05 9.02599e-05 6.18434e-06 -2.17782e-05 
-7.35062e-06 -4.5282e-06 2.338e-05 1.94181e-05 2.65687e-05 -1.90936e-05 3.84319e-06 -5.5105e-06 4.30134e-06 8.5594e-08 -4.10946e-05 1.20695e-05 -1.20034e-05 6.12515e-05 5.31331e-06 -1.2598e-05 
-3.42394e-06 -3.37179e-06 1.18539e-05 7.88787e-06 2.15602e-05 -9.44741e-06 1.328e-06 -3.66197e-06 1.68538e-06 -8.89715e-07 -3.22118e-05 5.82171e-06 -1.17983e-05 4.52376e-05 2.81778e-06 -1.14106e-05 
2.1269e-06 -3.84892e-06 4.78894e-07 -8.85509e-06 2.45224e-05 4.047e-06 -8.76997e-07 -1.55872e-06 -7.34761e-07 -5.8122e-06 -3.46769e-05 -3.04547e-06 -1.98333e-05 3.95106e-05 4.14471e-08 -1.60986e-05 
-8.30064e-06 -6.9528e-06 2.60314e-05 1.95275e-05 4.53891e-05 -2.28283e-05 2.66672e-06 -8.46156e-06 3.65147e-06 -1.45525e-07 -6.84466e-05 1.38993e-05 -2.34129e-05 9.80237e-05 6.45529e-06 -2.35543e-05 
-3.60972e-05 -3.06929e-05 0.000110587 8.19605e-05 0.000197169 -9.81538e-05 1.0724e-05 -3.56317e-05 1.36564e-05 -9.01274e-07 -0.000296514 6.00957e-05 -0.000102667 0.000425783 2.75192e-05 -0.000102042 
2.5241e-06 -3.66571e-06 -4.53831e-07 -9.94371e-06 2.34352e-05 5.13926e-06 -9.71267e-07 -1.30627e-06 -8.03373e-07 -6.07326e-06 -3.30591e-05 -3.78913e-06 -1.95491e-05 3.67825e-05 -2.73991e-07 -1.56723e-05 
-8.93581e-06 -6.3249e-06 2.80201e-05 2.22733e-05 3.88344e-05 -2.36361e-05 3.86967e-06 -7.55124e-06 4.51635e-06 -3.96754e-08 -5.92731e-05 1.47223e-05 -1.88966e-05 8.67292e-05 6.57987e-06 -1.92595e-05 
5.18454e-06 -4.20701e-06 -4.69029e-06 -1.75615e-05 2.58319e-05 1.15269e-05 -1.65805e-06 -1.66788e-07 -1.71536e-06 -9.03465e-06 -3.55608e-05 -7.80033e-06 -2.42167e-05 3.54108e-05 -1.32045e-06 -1.84277e-05 
4.16505e-06 -3.62981e-06 -3.889e-06 -1.48781e-05 2.36064e-05 9.24762e-06 -1.5286e-06 -7.00853e-07 -1.37076e-06 -7.52949e-06 -3.27852e-05 -6.51959e-06 -2.14592e-05 3.37859e-05 -1.23333e-06 -1.66721e-05 
-2.8227e-08 -5.96539e-06 7.16186e-06 -4.23235e-06 3.8553e-05 -1.94412e-06 -3.92658e-07 -4.11403e-06 1.34012e-07 -5.96304e-06 -5.57402e-05 4.47015e-07 -2.73807e-05 6.92016e-05 1.72728e-06 -2.36783e-05 
-2.06911e-06 -3.75052e-06 9.63151e-06 3.73168e-06 2.32235e-05 -6.15933e-06 9.65777e-07 -3.11566e-06 1.19976e-06 -2.51069e-06 -3.42739e-05 3.65745e-06 -1.46569e-05 4.53782e-05 2.25293e-06 -1.3156e-05 
-1.55236e-07 -5.76863e-06 7.2253e-06 -3.85019e-06 3.724e-05 -2.11767e-06 -3.32406e-07 -3.9524e-06 1.174e-07 -5.79198e-06 -5.38257e-05 6.21208e-07 -2.64204e-05 6.70355e-05 1.67291e-06 -2.27613e-05 
3.66813e-06 -3.49988e-06 -2.91159e-06 -1.32269e-05 2.24744e-05 8.06644e-06 -1.30753e-06 -7.333e-07 -1.17571e-06 -6.9933e-06 -3.1324e-05 -5.7019e-06 -2.01507e-05 3.27238e-05 -9.67611e-07 -1.56975e-05 
-2.4464e-06 -4.57146e-06 1.12067e-05 3.94837e-06 2.90715e-05 -7.29187e-06 8.05837e-07 -4.00573e-06 1.27849e-06 -2.99746e-06 -4.29473e-05 4.13053e-06 -1.8363e-05 5.69072e-05 2.54048e-06 -1.65758e-05 
-6.0113e-06 -3.0745e-06 1.86191e-05 1.59351e-05 1.8475e-05 -1.51619e-05 3.33464e-06 -4.41863e-06 3.92795e-06 2.6812e-07 -2.92023e-05 9.37829e-06 -7.69333e-06 4.43393e-05 3.87789e-06 -8.52147e-06 
-7.81699e-06 -6.43047e-06 2.47857e-05 1.86527e-05 4.0432e-05 -2.12304e-05 2.88048e-06 -7.26574e-06 3.34325e-06 -3.69097e-07 -6.08482e-05 1.32853e-05 -2.07825e-05 8.76337e-05 6.1349e-06 -2.06083e-05 
-7.15404e-06 -5.85973e-06 2.24581e-05 1.68613e-05 3.81775e-05 -1.94341e-05 2.42967e-06 -7.14455e-06 3.23438e-06 -2.46575e-07 -5.74602e-05 1.19133e-05 -1.95503e-05 8.26149e-05 5.4203e-06 -1.97154e-05 
-6.74749e-06 -4.36758e-06 2.13868e-05 1.76049e-05 2.60336e-05 -1.76702e-05 3.33348e-06 -5.32664e-06 3.85016e-06 9.91318e-08 -4.01073e-05 1.1082e-05 -1.2021e-05 5.9354e-05 4.93696e-06 -1.25983e-05 
-6.87147e-06 -4.21471e-06 2.1775e-05 1.80832e-05 2.49097e-05 -1.78149e-05 3.5758e-06 -5.2225e-06 4.05827e-06 9.55695e-08 -3.85579e-05 1.12157e-05 -1.12543e-05 5.74435e-05 4.9181e-06 -1.18643e-05 
-3.94446e-06 -3.91233e-06 1.3504e-05 8.94197e-06 2.50111e-05 -1.09016e-05 1.43939e-06 -4.18923e-06 1.78259e-06 -9.86765e-07 -3.73286e-05 6.73488e-06 -1.37455e-05 5.24557e-05 3.24795e-06 -1.3211e-05 
6.85024e-06 -4.04297e-06 -8.23907e-06 -2.23611e-05 2.49916e-05 1.57278e-05 -2.17949e-06 5.74851e-07 -2.25337e-06 -1.0378e-05 -3.38384e-05 -1.05583e-05 -2.54252e-05 3.05338e-05 -2.29121e-06 -1.88192e-05 
-5.57894e-06 -6.66755e-06 1.95896e-05 1.11646e-05 4.3408e-05 -1.57803e-05 1.54784e-06 -6.8823e-06 2.15974e-06 -2.25689e-06 -6.44796e-05 9.43413e-06 -2.5138e-05 8.89405e-05 4.75131e-06 -2.36469e-05 
-7.86179e-06 -5.29366e-06 2.46688e-05 1.99095e-05 3.22827e-05 -2.06539e-05 3.59634e-06 -6.46051e-06 4.19846e-06 5.11053e-08 -4.95284e-05 1.28649e-05 -1.53776e-05 7.28509e-05 5.70262e-06 -1.58397e-05 
1.04994e-06 -4.66885e-06 3.55408e-06 -6.50704e-06 3.01195e-05 1.19894e-06 -6.28044e-07 -2.69472e-06 -2.88792e-07 -5.75309e-06 -4.31796e-05 -1.4016e-06 -2.26627e-05 5.18195e-05 7.3521e-07 -1.9028e-05 
4.50716e-06 -4.90948e-06 -2.07947e-06 -1.57678e-05 2.96247e-05 9.64241e-06 -1.34136e-06 -7.18313e-07 -1.3621e-06 -9.25604e-06 -4.13035e-05 -6.59362e-06 -2.62747e-05 4.34939e-05 -6.67183e-07 -2.03687e-05 
6.88289e-06 -3.82738e-06 -8.61515e-06 -2.25826e-05 2.40974e-05 1.59696e-05 -2.20423e-06 5.67701e-07 -2.19198e-06 -1.03131e-05 -3.26408e-05 -1.08193e-05 -2.48853e-05 2.89539e-05 -2.51439e-06 -1.83598e-05 
-7.9221e-06 -6.68979e-06 2.53062e-05 1.90576e-05 4.16963e-05 -2.16928e-05 2.89714e-06 -7.39123e-06 3.34903e-06 -3.6013e-07 -6.26707e-05 1.36175e-05 -2.14616e-05 9.00929e-05 6.40456e-06 -2.12973e-05 
-5.16359e-06 -4.2841e-06 1.67567e-05 1.2506e-05 2.73509e-05 -1.40633e-05 2.00344e-06 -4.95189e-06 2.40781e-06 -4.01006e-07 -4.10031e-05 8.83806e-06 -1.40331e-05 5.89376e-05 4.07359e-06 -1.3991e-05 
6.7377e-06 -4.06671e-06 -8.01462e-06 -2.21743e-05 2.53561e-05 1.54837e-05 -2.15857e-06 4.39655e-07 -2.18332e-06 -1.03561e-05 -3.44399e-05 -1.04577e-05 -2.55863e-05 3.14522e-05 -2.2888e-06 -1.90154e-05 
-5.09754e-06 -4.20469e-06 1.76069e-05 1.28319e-05 2.50321e-05 -1.36064e-05 2.64453e-06 -4.45389e-06 2.99717e-06 -1.01317e-06 -3.80475e-05 8.51851e-06 -1.30561e-05 5.42745e-05 4.06029e-06 -1.2761e-05 
-9.62523e-06 -6.5154e-06 2.98014e-05 2.4451e-05 4.00023e-05 -2.5309e-05 4.13924e-06 -8.23674e-06 5.25936e-06 3.52866e-07 -6.12751e-05 1.55555e-05 -1.8659e-05 9.03252e-05 6.88774e-06 -1.9853e-05 
-8.60435e-07 -3.61212e-06 6.65885e-06 1.52706e-07 2.28892e-05 -3.21241e-06 3.17261e-07 -2.62933e-06 5.286e-07 -3.20281e-06 -3.32924e-05 1.74909e-06 -1.5532e-05 4.24996e-05 1.55727e-06 -1.35252e-05 
2.70507e-06 -3.69092e-06 -6.05891e-07 -1.03014e-05 2.31701e-05 5.56957e-06 -9.46914e-07 -1.09748e-06 -8.62482e-07 -6.29189e-06 -3.25794e-05 -3.99028e-06 -1.95969e-05 3.58379e-05 -2.84371e-07 -1.55597e-05 
-6.41706e-06 -4.01522e-06 2.03153e-05 1.67455e-05 2.39211e-05 -1.66859e-05 3.26537e-06 -4.95781e-06 3.71635e-06 5.99541e-08 -3.69645e-05 1.04799e-05 -1.0972e-05 5.48807e-05 4.60587e-06 -1.14727e-05 
-6.29747e-06 -6.38711e-06 2.1158e-05 1.43412e-05 4.03035e-05 -1.76855e-05 2.05547e-06 -6.60609e-06 2.43719e-06 -1.17192e-06 -6.00084e-05 1.10495e-05 -2.20141e-05 8.45165e-05 5.44668e-06 -2.12234e-05 
-1.05086e-06 -4.05791e-06 7.31536e-06 2.88857e-07 2.58907e-05 -3.86594e-06 2.34007e-07 -3.05943e-06 4.95138e-07 -3.33667e-06 -3.76917e-05 2.08603e-06 -1.74007e-05 4.83614e-05 1.78278e-06 -1.52739e-05 
-2.20549e-07 -4.66239e-06 6.26919e-06 -2.58786e-06 2.98025e-05 -1.9865e-06 -1.3814e-07 -3.16818e-06 2.24799e-07 -4.61892e-06 -4.31248e-05 7.17635e-07 -2.10359e-05 5.37806e-05 1.48588e-06 -1.81569e-05 
2.17538e-06 -4.43482e-06 1.03573e-06 -9.43774e-06 2.83545e-05 3.99519e-06 -9.5809e-07 -1.96791e-06 -7.34966e-07 -6.42869e-06 -4.01865e-05 -3.1101e-06 -2.25755e-05 4.63022e-05 1.61258e-07 -1.84906e-05 
1.38495e-07 -4.2568e-06 5.52651e-06 -3.25655e-06 2.674e-05 -8.54487e-07 -5.50254e-08 -2.5602e-06 2.06144e-07 -4.83205e-06 -3.86608e-05 6.95286e-08 -1.94835e-05 4.74327e-05 1.16571e-06 -1.64329e-05 
9.71599e-07 -3.65715e-06 2.7752e-06 -5.28415e-06 2.31384e-05 1.26653e-06 -3.98352e-07 -1.86168e-06 -2.66818e-07 -4.70805e-06 -3.30652e-05 -1.18195e-06 -1.76694e-05 3.93107e-05 6.15613e-07 -1.46293e-05 
-7.4022e-06 -6.10132e-06 2.32556e-05 1.73408e-05 3.96863e-05 -2.01058e-05 2.49131e-06 -7.34352e-06 3.2505e-06 -3.22883e-07 -5.96881e-05 1.2353e-05 -2.04334e-05 8.5781e-05 5.61133e-06 -2.04647e-05 
4.44567e-06 -3.5291e-06 -4.50786e-06 -1.54067e-05 2.25451e-05 9.90331e-06 -1.58085e-06 -3.5942e-07 -1.54327e-06 -7.59925e-06 -3.10737e-05 -6.81842e-06 -2.09855e-05 3.12223e-05 -1.29555e-06 -1.60967e-05 
-8.4216e-07 -3.91301e-06 6.7084e-06 -2.28376e-07 2.50279e-05 -3.29384e-06 1.78138e-07 -2.90127e-06 4.36276e-07 -3.37796e-06 -3.63661e-05 1.72706e-06 -1.69924e-05 4.63893e-05 1.618e-06 -1.48647e-05 
1.82673e-06 -8.25651e-06 6.55328e-06 -1.16942e-05 5.33074e-05 2.17807e-06 -1.00506e-06 -4.67792e-06 -5.28212e-07 -1.04674e-05 -7.65141e-05 -2.52295e-06 -4.04008e-05 9.16814e-05 1.22868e-06 -3.36159e-05 
1.53023e-06 -4.50873e-06 2.50344e-06 -7.859e-06 2.90373e-05 2.45959e-06 -7.46556e-07 -2.30329e-06 -5.0572e-07 -6.1158e-06 -4.14953e-05 -2.18108e-06 -2.25553e-05 4.8867e-05 4.28225e-07 -1.85685e-05 
-6.9194e-07 -1.03342e-05 1.39165e-05 -6.38228e-06 6.73633e-05 -4.57731e-06 -4.17535e-07 -7.31375e-06 3.44372e-07 -1.05072e-05 -9.77219e-05 1.46456e-06 -4.78272e-05 0.000122096 2.95325e-06 -4.0959e-05 
-8.55246e-06 -5.93036e-06 2.67625e-05 2.14985e-05 3.63656e-05 -2.25608e-05 3.76783e-06 -7.21319e-06 4.47167e-06 6.36042e-08 -5.56214e-05 1.40184e-05 -1.7463e-05 8.1581e-05 6.25282e-06 -1.80069e-05 
-6.87989e-06 -5.3897e-06 2.25489e-05 1.68231e-05 3.3124e-05 -1.82712e-05 3.10479e-06 -6.14425e-06 3.68621e-06 -7.97001e-07 -5.03953e-05 1.12781e-05 -1.6986e-05 7.24746e-05 5.17519e-06 -1.68442e-05 
-4.84314e-06 -3.90581e-06 1.56565e-05 1.17731e-05 2.51043e-05 -1.31297e-05 1.90326e-06 -4.64154e-06 2.34601e-06 -3.31842e-07 -3.77207e-05 8.20773e-06 -1.27827e-05 5.43231e-05 3.74202e-06 -1.28202e-05 
1.01563e-06 -5.84309e-06 4.9255e-06 -7.52262e-06 3.817e-05 7.91988e-07 -7.31563e-07 -3.64249e-06 -2.51955e-07 -6.9676e-06 -5.48962e-05 -1.38266e-06 -2.84148e-05 6.63964e-05 9.95705e-07 -2.39917e-05 
-6.51333e-06 -5.37936e-06 2.06664e-05 1.54581e-05 3.48158e-05 -1.77289e-05 2.29794e-06 -6.42764e-06 2.94611e-06 -3.14649e-07 -5.23316e-05 1.09573e-05 -1.78742e-05 7.51991e-05 5.01624e-06 -1.79305e-05 
1.98777e-06 -3.982e-06 9.13494e-07 -8.55399e-06 2.53681e-05 3.66158e-06 -8.42297e-07 -1.69696e-06 -6.97663e-07 -5.82451e-06 -3.59363e-05 -2.80509e-06 -2.0292e-05 4.13025e-05 1.54977e-07 -1.65368e-05 
2.26222e-06 -3.68574e-06 2.17085e-09 -9.16553e-06 2.35684e-05 4.45046e-06 -9.12317e-07 -1.43748e-06 -7.5079e-07 -5.77907e-06 -3.32806e-05 -3.31775e-06 -1.92934e-05 3.75511e-05 -1.0176e-07 -1.56097e-05 
-6.01336e-06 -3.67152e-06 1.91198e-05 1.58753e-05 2.15983e-05 -1.55784e-05 3.1703e-06 -4.5223e-06 3.5711e-06 5.67806e-08 -3.34508e-05 9.82596e-06 -9.7394e-06 4.98696e-05 4.30989e-06 -1.02491e-05 
-3.48452e-06 -5.08648e-06 1.35244e-05 6.53693e-06 3.30535e-05 -1.01879e-05 9.92121e-07 -4.99786e-06 1.54969e-06 -2.33091e-06 -4.88856e-05 5.96675e-06 -1.98245e-05 6.61865e-05 3.28218e-06 -1.84647e-05 
-6.69782e-06 -3.94542e-06 2.14076e-05 1.79796e-05 2.27929e-05 -1.73051e-05 3.69459e-06 -4.83697e-06 4.08399e-06 9.7545e-08 -3.54385e-05 1.09916e-05 -1.0024e-05 5.31487e-05 4.81887e-06 -1.0628e-05 
1.96795e-06 -3.94659e-06 8.95951e-07 -8.58629e-06 2.53181e-05 3.65579e-06 -8.32642e-07 -1.72656e-06 -6.81113e-07 -5.8253e-06 -3.59024e-05 -2.82667e-06 -2.02803e-05 4.12706e-05 1.11152e-07 -1.65116e-05 
-7.41892e-06 -6.59061e-06 2.40016e-05 1.76482e-05 4.17288e-05 -2.05225e-05 2.57504e-06 -7.27501e-06 3.05721e-06 -5.40341e-07 -6.23807e-05 1.29024e-05 -2.1773e-05 8.92096e-05 6.11663e-06 -2.1519e-05 
2.07604e-06 -4.88226e-06 1.73645e-06 -9.66097e-06 3.16072e-05 3.68796e-06 -9.82199e-07 -2.4647e-06 -6.0059e-07 -6.87423e-06 -4.50193e-05 -3.09121e-06 -2.48022e-05 5.24246e-05 2.27328e-07 -2.05094e-05 
2.74005e-06 -3.96649e-06 -6.11213e-07 -1.07049e-05 2.5268e-05 5.51546e-06 -1.07688e-06 -1.36634e-06 -9.61273e-07 -6.46003e-06 -3.55393e-05 -3.99961e-06 -2.10251e-05 3.9584e-05 -2.33261e-07 -1.68679e-05 
-2.15457e-06 -3.52773e-06 9.37428e-06 4.00781e-06 2.21207e-05 -6.29387e-06 9.18856e-07 -3.13083e-06 1.22109e-06 -2.15635e-06 -3.27417e-05 3.69435e-06 -1.37135e-05 4.36866e-05 2.17413e-06 -1.24764e-05 
3.1026e-06 -4.19953e-06 -9.87897e-07 -1.18719e-05 2.65832e-05 6.3363e-06 -1.19224e-06 -1.28287e-06 -1.1187e-06 -7.04009e-06 -3.72951e-05 -4.51828e-06 -2.23935e-05 4.11541e-05 -3.33387e-07 -1.78245e-05 
-5.04269e-06 -4.15168e-06 1.68292e-05 1.24536e-05 2.51251e-05 -1.35516e-05 2.30964e-06 -4.47288e-06 2.61899e-06 -6.78147e-07 -3.80435e-05 8.49498e-06 -1.30053e-05 5.45278e-05 4.0039e-06 -1.27852e-05 
-6.47237e-06 -4.07442e-06 2.04933e-05 1.68887e-05 2.42629e-05 -1.68415e-05 3.27922e-06 -5.0163e-06 3.73986e-06 6.26498e-08 -3.74618e-05 1.05797e-05 -1.11345e-05 5.56017e-05 4.65781e-06 -1.16542e-05 
2.45038e-06 -3.67219e-06 -3.20108e-07 -9.83546e-06 2.36308e-05 4.99467e-06 -9.56063e-07 -1.39063e-06 -7.58896e-07 -6.06051e-06 -3.33902e-05 -3.73252e-06 -1.96323e-05 3.7306e-05 -2.83694e-07 -1.57751e-05 
-6.92107e-06 -4.34942e-06 2.20599e-05 1.82364e-05 2.55864e-05 -1.80293e-05 3.60129e-06 -5.25881e-06 4.03089e-06 5.34801e-08 -3.95159e-05 1.13988e-05 -1.1678e-05 5.87131e-05 5.05348e-06 -1.22147e-05 
-1.14232e-06 -3.61117e-06 7.21519e-06 9.00799e-07 2.31344e-05 -3.89216e-06 4.13906e-07 -2.84893e-06 6.9431e-07 -2.98564e-06 -3.37775e-05 2.13593e-06 -1.53881e-05 4.35443e-05 1.66298e-06 -1.35692e-05 
4.31317e-06 -3.64337e-06 -4.11849e-06 -1.50971e-05 2.32942e-05 9.54203e-06 -1.54911e-06 -5.09223e-07 -1.48122e-06 -7.58728e-06 -3.21978e-05 -6.60433e-06 -2.13546e-05 3.28455e-05 -1.19652e-06 -1.64991e-05 
-7.59799e-06 -5.05497e-06 2.38659e-05 1.9353e-05 3.06926e-05 -1.99241e-05 3.52603e-06 -6.18169e-06 4.11676e-06 6.08812e-08 -4.71351e-05 1.24186e-05 -1.45106e-05 6.94581e-05 5.494e-06 -1.50065e-05 
-6.4619e-06 -4.06254e-06 2.04594e-05 1.68612e-05 2.42054e-05 -1.68177e-05 3.27547e-06 -5.00831e-06 3.73526e-06 6.6661e-08 -3.73868e-05 1.05611e-05 -1.11111e-05 5.54835e-05 4.65061e-06 -1.16242e-05 
-5.25288e-06 -4.653e-06 1.72295e-05 1.23924e-05 2.98592e-05 -1.44099e-05 1.92147e-06 -5.31619e-06 2.43141e-06 -6.19637e-07 -4.47691e-05 8.92033e-06 -1.5716e-05 6.37584e-05 4.19231e-06 -1.55321e-05 
-6.18928e-06 -3.87168e-06 1.97174e-05 1.62811e-05 2.28091e-05 -1.61e-05 3.21745e-06 -4.69693e-06 3.60808e-06 3.1934e-08 -3.52403e-05 1.01668e-05 -1.04127e-05 5.238e-05 4.48991e-06 -1.08802e-05 
-7.23226e-06 -4.35167e-06 2.29069e-05 1.91503e-05 2.55925e-05 -1.87135e-05 3.81088e-06 -5.42477e-06 4.32192e-06 1.43085e-07 -3.9681e-05 1.17939e-05 -1.14097e-05 5.93083e-05 5.15491e-06 -1.21108e-05 
-7.06561e-06 -4.55164e-06 2.21956e-05 1.82032e-05 2.74822e-05 -1.84295e-05 3.41041e-06 -5.66587e-06 3.99129e-06 1.04409e-07 -4.23244e-05 1.14969e-05 -1.27479e-05 6.26256e-05 5.06e-06 -1.33566e-05 
4.22981e-06 -3.48664e-06 -4.2173e-06 -1.50734e-05 2.29029e-05 9.49682e-06 -1.54947e-06 -6.61949e-07 -1.34643e-06 -7.48955e-06 -3.17926e-05 -6.7241e-06 -2.10379e-05 3.24359e-05 -1.37219e-06 -1.63167e-05 
-6.56798e-06 -4.12276e-06 2.07204e-05 1.71811e-05 2.45792e-05 -1.70978e-05 3.27106e-06 -5.13889e-06 3.82627e-06 1.35232e-07 -3.7963e-05 1.06871e-05 -1.11747e-05 5.64124e-05 4.70212e-06 -1.18311e-05 
-6.1088e-06 -4.86625e-06 2.04943e-05 1.51403e-05 2.94591e-05 -1.62199e-05 2.96437e-06 -5.37434e-06 3.43019e-06 -9.48008e-07 -4.48004e-05 1.00857e-05 -1.51999e-05 6.4253e-05 4.68872e-06 -1.49787e-05 
2.58789e-06 -3.54576e-06 -8.22144e-07 -1.01882e-05 2.29479e-05 5.35644e-06 -1.02329e-06 -1.28567e-06 -8.30407e-07 -6.02117e-06 -3.23511e-05 -3.96713e-06 -1.92713e-05 3.58252e-05 -4.02173e-07 -1.54321e-05 
-3.96045e-06 -3.96563e-06 1.36477e-05 9.1404e-06 2.51376e-05 -1.10154e-05 1.46565e-06 -4.19427e-06 1.81422e-06 -9.48709e-07 -3.74925e-05 6.83807e-06 -1.3745e-05 5.26925e-05 3.3467e-06 -1.32747e-05 
-2.42875e-06 -4.11013e-06 1.0884e-05 4.56468e-06 2.56765e-05 -7.18112e-06 9.79825e-07 -3.52209e-06 1.29305e-06 -2.56117e-06 -3.79007e-05 4.28294e-06 -1.59465e-05 5.0577e-05 2.54432e-06 -1.442e-05 
-1.13292e-05 -7.89059e-06 3.47886e-05 2.75364e-05 4.97342e-05 -2.97484e-05 4.62532e-06 -9.90584e-06 5.64815e-06 4.50108e-08 -7.59723e-05 1.82674e-05 -2.42892e-05 0.000111174 7.96355e-06 -2.4857e-05 
3.64112e-06 -3.88049e-06 -1.75942e-06 -1.29303e-05 2.40011e-05 7.90138e-06 -9.96693e-07 -7.27347e-07 -9.38495e-07 -7.57371e-06 -3.35309e-05 -5.49346e-06 -2.13427e-05 3.52348e-05 -6.91838e-07 -1.65845e-05 
4.77478e-06 -4.56757e-06 -3.04051e-06 -1.64329e-05 2.76516e-05 1.04681e-05 -1.41619e-06 -4.54284e-07 -1.41374e-06 -9.21803e-06 -3.84137e-05 -7.1525e-06 -2.51874e-05 3.94523e-05 -9.8427e-07 -1.93365e-05 
-7.57786e-06 -4.8963e-06 2.39858e-05 1.96706e-05 2.92692e-05 -1.98223e-05 3.74534e-06 -5.9648e-06 4.27613e-06 8.49816e-08 -4.50924e-05 1.24462e-05 -1.35899e-05 6.67049e-05 5.52636e-06 -1.41485e-05 
-2.45829e-07 -4.63321e-06 6.22508e-06 -2.5535e-06 2.97011e-05 -2.03821e-06 -1.57604e-07 -3.18123e-06 2.09394e-07 -4.55591e-06 -4.29916e-05 7.3849e-07 -2.09371e-05 5.36713e-05 1.47193e-06 -1.80828e-05 
9.12566e-07 -5.28443e-06 4.59109e-06 -6.32166e-06 3.36596e-05 5.60313e-07 -5.97124e-07 -2.99915e-06 -3.46313e-07 -6.13057e-06 -4.82315e-05 -9.25753e-07 -2.5004e-05 5.83469e-05 1.13425e-06 -2.10408e-05 
2.90056e-06 -4.24393e-06 1.10889e-06 -1.04686e-05 2.51812e-05 6.06803e-06 -3.35787e-07 -9.73789e-07 -2.754e-07 -7.70685e-06 -3.55434e-05 -4.23355e-06 -2.1613e-05 3.85244e-05 -8.75626e-08 -1.69205e-05 
-7.97768e-06 -5.07379e-06 2.49321e-05 2.04e-05 3.08853e-05 -2.07637e-05 3.81908e-06 -6.40219e-06 4.46771e-06 1.26891e-07 -4.76451e-05 1.29112e-05 -1.43818e-05 7.05002e-05 5.63427e-06 -1.49917e-05 
8.00808e-07 -5.14608e-06 4.67434e-06 -6.23757e-06 3.32356e-05 4.66883e-07 -5.72246e-07 -3.09122e-06 -2.25832e-07 -6.10672e-06 -4.77983e-05 -9.94362e-07 -2.47255e-05 5.79008e-05 9.71308e-07 -2.07865e-05 
2.10631e-06 -3.44086e-06 1.61647e-08 -8.81246e-06 2.24458e-05 4.23837e-06 -8.56928e-07 -1.48212e-06 -6.20885e-07 -5.54842e-06 -3.18268e-05 -3.26983e-06 -1.84216e-05 3.59347e-05 -2.29981e-07 -1.49043e-05 
-6.45409e-06 -5.1449e-06 2.05721e-05 1.58039e-05 3.19457e-05 -1.74805e-05 2.54245e-06 -5.84307e-06 2.96674e-06 -2.13672e-07 -4.82228e-05 1.09563e-05 -1.61367e-05 6.96968e-05 5.07453e-06 -1.61755e-05 
-1.92299e-06 -4.68687e-06 1.01461e-05 2.40324e-06 2.9729e-05 -6.09638e-06 5.73464e-07 -3.83319e-06 1.0062e-06 -3.43521e-06 -4.3658e-05 3.3772e-06 -1.93138e-05 5.70236e-05 2.34878e-06 -1.7229e-05 
-5.87137e-06 -4.85883e-06 1.88056e-05 1.41003e-05 3.12595e-05 -1.60085e-05 2.14788e-06 -5.74498e-06 2.71137e-06 -3.16521e-07 -4.69548e-05 9.94988e-06 -1.60075e-05 6.74828e-05 4.58226e-06 -1.60652e-05 
-6.46786e-06 -5.57326e-06 2.08777e-05 1.54681e-05 3.55142e-05 -1.77783e-05 2.32901e-06 -6.32445e-06 2.81837e-06 -4.42576e-07 -5.31893e-05 1.11422e-05 -1.83965e-05 7.62147e-05 5.21777e-06 -1.82806e-05 
-5.84332e-06 -4.9352e-06 1.88664e-05 1.40651e-05 3.14968e-05 -1.59788e-05 2.16956e-06 -5.68012e-06 2.64871e-06 -4.01162e-07 -4.7195e-05 1.00103e-05 -1.62011e-05 6.7758e-05 4.64707e-06 -1.6179e-05 
-6.98999e-06 -6.18994e-06 2.26794e-05 1.67426e-05 3.91041e-05 -1.93371e-05 2.4574e-06 -6.83077e-06 2.93301e-06 -5.03643e-07 -5.84547e-05 1.21678e-05 -2.03345e-05 8.3645e-05 5.77284e-06 -2.01466e-05 
-6.0546e-06 -3.68081e-06 1.92002e-05 1.59452e-05 2.17436e-05 -1.56683e-05 3.18116e-06 -4.57787e-06 3.60116e-06 6.75038e-08 -3.36899e-05 9.86324e-06 -9.80369e-06 5.0228e-05 4.31303e-06 -1.03319e-05 
3.82204e-06 -3.14847e-06 -3.78167e-06 -1.37217e-05 2.08529e-05 8.62849e-06 -1.3982e-06 -6.57541e-07 -1.16321e-06 -6.84228e-06 -2.90266e-05 -6.1649e-06 -1.9169e-05 2.96304e-05 -1.30162e-06 -1.48717e-05 
-1.32809e-06 -3.55223e-06 8.17493e-06 1.78477e-06 2.18409e-05 -4.18442e-06 8.66613e-07 -2.67022e-06 1.1208e-06 -3.13988e-06 -3.21186e-05 2.3576e-06 -1.45524e-05 4.1342e-05 1.77184e-06 -1.27454e-05 
-5.32335e-07 -3.67697e-06 6.10355e-06 -8.56302e-07 2.3043e-05 -2.3779e-06 2.64107e-07 -2.47681e-06 4.54128e-07 -3.60189e-06 -3.34833e-05 1.17617e-06 -1.60937e-05 4.20846e-05 1.39661e-06 -1.38261e-05 
1.22749e-06 -4.65298e-06 3.18881e-06 -6.84348e-06 2.97681e-05 1.56565e-06 -6.64608e-07 -2.52094e-06 -4.06292e-07 -5.79565e-06 -4.25545e-05 -1.5552e-06 -2.25622e-05 5.07786e-05 7.39565e-07 -1.88616e-05 
-1.48382e-06 -3.84845e-06 8.79829e-06 2.05973e-06 2.36497e-05 -4.69512e-06 8.69856e-07 -2.88836e-06 1.11032e-06 -3.24203e-06 -3.47452e-05 2.68895e-06 -1.56533e-05 4.48964e-05 1.97571e-06 -1.37407e-05 
2.30793e-06 -5.99535e-06 3.72263e-06 -1.03483e-05 3.68918e-05 3.94499e-06 -6.43084e-07 -2.4586e-06 -4.84084e-07 -8.59385e-06 -5.2575e-05 -3.08926e-06 -2.91844e-05 6.09677e-05 7.09379e-07 -2.37078e-05 
-6.85508e-06 -4.50619e-06 2.17751e-05 1.78686e-05 2.67917e-05 -1.7985e-05 3.3636e-06 -5.4157e-06 3.86388e-06 6.99095e-08 -4.11902e-05 1.13051e-05 -1.24293e-05 6.08977e-05 5.0556e-06 -1.29845e-05 
-2.33516e-06 -3.72654e-06 1.03205e-05 4.50475e-06 2.3252e-05 -6.75683e-06 1.15662e-06 -3.32738e-06 1.50922e-06 -2.40006e-06 -3.45272e-05 3.95042e-06 -1.4442e-05 4.59723e-05 2.3262e-06 -1.31212e-05 
-9.40926e-06 -6.52826e-06 2.91222e-05 2.32069e-05 4.07626e-05 -2.47999e-05 3.9461e-06 -8.12465e-06 4.79047e-06 9.18294e-08 -6.2377e-05 1.52673e-05 -1.97855e-05 9.1313e-05 6.73504e-06 -2.02968e-05 
1.96992e-06 -5.09922e-06 3.06177e-06 -8.88587e-06 3.16405e-05 3.35768e-06 -5.38705e-07 -2.17453e-06 -3.92592e-07 -7.30146e-06 -4.50577e-05 -2.64403e-06 -2.49769e-05 5.22834e-05 5.82468e-07 -2.03527e-05 
-9.88151e-06 -6.80252e-06 3.10279e-05 2.5139e-05 4.13581e-05 -2.61243e-05 4.4159e-06 -8.22662e-06 5.23189e-06 1.63599e-07 -6.33248e-05 1.62705e-05 -1.9672e-05 9.30319e-05 7.30219e-06 -2.03878e-05 
2.11505e-06 -3.28412e-06 -8.33316e-08 -8.5855e-06 2.11276e-05 4.28752e-06 -8.11078e-07 -1.26322e-06 -6.41305e-07 -5.39687e-06 -2.98834e-05 -3.22324e-06 -1.75065e-05 3.34892e-05 -2.21534e-07 -1.40588e-05 
-1.8966e-06 -4.07199e-06 9.91672e-06 3.02676e-06 2.52024e-05 -5.75706e-06 9.99051e-07 -3.25096e-06 1.29454e-06 -3.16153e-06 -3.7157e-05 3.3164e-06 -1.63491e-05 4.85283e-05 2.21789e-06 -1.44956e-05 
-4.93733e-06 -4.0529e-06 1.60245e-05 1.20467e-05 2.59022e-05 -1.34382e-05 1.93821e-06 -4.74519e-06 2.37411e-06 -3.43959e-07 -3.88641e-05 8.42955e-06 -1.32029e-05 5.5918e-05 3.88255e-06 -1.32506e-05 
-1.56647e-06 -3.7257e-06 8.14391e-06 2.05058e-06 2.36401e-05 -4.97642e-06 5.36371e-07 -3.03612e-06 7.98433e-07 -2.69315e-06 -3.4658e-05 2.83803e-06 -1.53304e-05 4.53084e-05 1.93492e-06 -1.3653e-05 
-9.61554e-06 -6.84646e-06 3.03346e-05 2.42475e-05 4.17497e-05 -2.55724e-05 4.24084e-06 -8.1065e-06 4.92854e-06 4.08447e-08 -6.37709e-05 1.59765e-05 -2.02427e-05 9.32381e-05 7.24626e-06 -2.06977e-05 
-1.80105e-06 -4.19877e-06 9.5751e-06 2.60385e-06 2.61237e-05 -5.67081e-06 6.78359e-07 -3.25173e-06 9.31732e-07 -3.12029e-06 -3.83612e-05 3.29111e-06 -1.6975e-05 5.01678e-05 2.24693e-06 -1.49949e-05 
-6.2382e-06 -3.85592e-06 1.9775e-05 1.63559e-05 2.28383e-05 -1.61799e-05 3.22124e-06 -4.75733e-06 3.65169e-06 5.70945e-08 -3.53202e-05 1.01801e-05 -1.03856e-05 5.25593e-05 4.46289e-06 -1.0897e-05 
2.64619e-06 -3.49747e-06 -8.16385e-07 -1.02312e-05 2.23614e-05 5.55303e-06 -9.70698e-07 -1.14293e-06 -8.00997e-07 -6.1092e-06 -3.15101e-05 -4.06602e-06 -1.89806e-05 3.46067e-05 -4.31115e-07 -1.50929e-05 
-7.67361e-06 -5.11184e-06 2.44653e-05 1.99653e-05 3.03374e-05 -2.01822e-05 3.78654e-06 -6.03752e-06 4.25657e-06 2.17235e-08 -4.65848e-05 1.2745e-05 -1.42128e-05 6.87392e-05 5.73009e-06 -1.4703e-05 
-1.50908e-06 -8.80906e-06 1.34091e-05 -2.3541e-06 5.71412e-05 -6.41421e-06 -1.62499e-07 -6.61755e-06 5.13272e-07 -7.67505e-06 -8.29928e-05 3.00778e-06 -3.91884e-05 0.000105481 3.21167e-06 -3.42384e-05 
-3.63769e-07 -6.62605e-06 8.59869e-06 -3.97033e-06 4.29283e-05 -2.91911e-06 -3.55045e-07 -4.63499e-06 1.36934e-07 -6.47131e-06 -6.21176e-05 1.02394e-06 -3.02893e-05 7.76718e-05 2.01689e-06 -2.61252e-05 
1.26954e-06 -4.86887e-06 3.36051e-06 -7.10866e-06 3.11541e-05 1.60858e-06 -7.03769e-07 -2.66401e-06 -3.98272e-07 -6.04637e-06 -4.45502e-05 -1.63243e-06 -2.35739e-05 5.319e-05 7.68369e-07 -1.97462e-05 
3.21517e-06 -4.72281e-06 -6.61056e-07 -1.25605e-05 3.00742e-05 6.42138e-06 -1.28625e-06 -1.66195e-06 -1.12267e-06 -7.59793e-06 -4.23153e-05 -4.67538e-06 -2.49286e-05 4.72338e-05 -2.36576e-07 -2.00619e-05 
2.36224e-06 -3.85944e-06 1.00074e-07 -9.52449e-06 2.45377e-05 4.66235e-06 -9.27746e-07 -1.47215e-06 -7.52135e-07 -6.07999e-06 -3.46644e-05 -3.47219e-06 -2.01138e-05 3.90665e-05 -9.8392e-08 -1.62547e-05 
-7.224e-06 -4.54808e-06 2.28741e-05 1.88366e-05 2.70573e-05 -1.87984e-05 3.66144e-06 -5.57431e-06 4.14841e-06 6.28173e-08 -4.17703e-05 1.18226e-05 -1.24334e-05 6.19986e-05 5.20375e-06 -1.29759e-05 
-4.81996e-06 -5.06569e-06 1.66415e-05 1.04845e-05 3.28639e-05 -1.3367e-05 1.62108e-06 -5.49754e-06 2.20903e-06 -1.47302e-06 -4.90277e-05 8.07404e-06 -1.83909e-05 6.83852e-05 3.92613e-06 -1.7632e-05 
7.39428e-07 -3.23364e-06 2.68885e-06 -4.61274e-06 2.10494e-05 9.47468e-07 -3.32434e-07 -1.93469e-06 -2.39146e-08 -4.21874e-06 -3.02955e-05 -1.12336e-06 -1.59619e-05 3.61952e-05 4.2531e-07 -1.33566e-05 
-5.36711e-06 -4.52822e-06 1.74645e-05 1.30181e-05 2.88006e-05 -1.46934e-05 2.05396e-06 -5.16739e-06 2.46416e-06 -4.09156e-07 -4.31479e-05 9.2467e-06 -1.48158e-05 6.19418e-05 4.30367e-06 -1.47572e-05 
2.23414e-06 -3.67049e-06 2.97819e-08 -9.12379e-06 2.3559e-05 4.40187e-06 -9.16259e-07 -1.47129e-06 -7.27004e-07 -5.7579e-06 -3.33012e-05 -3.31564e-06 -1.92645e-05 3.76172e-05 -1.2099e-07 -1.56026e-05 
5.3945e-06 -4.04475e-06 -5.24312e-06 -1.80759e-05 2.48682e-05 1.21223e-05 -1.68197e-06 -6.06645e-09 -1.7245e-06 -9.11544e-06 -3.41359e-05 -8.19903e-06 -2.37789e-05 3.32529e-05 -1.50413e-06 -1.79712e-05 
2.57425e-06 -3.6126e-06 -7.04914e-07 -1.01151e-05 2.32236e-05 5.28817e-06 -1.01022e-06 -1.28858e-06 -8.41738e-07 -6.04584e-06 -3.2708e-05 -3.88824e-06 -1.94268e-05 3.63104e-05 -3.39442e-07 -1.5577e-05 
4.90197e-06 -4.05112e-06 -4.28498e-06 -1.66319e-05 2.48488e-05 1.08862e-05 -1.55079e-06 -2.0052e-07 -1.58686e-06 -8.6464e-06 -3.42594e-05 -7.3843e-06 -2.32162e-05 3.42409e-05 -1.22849e-06 -1.76918e-05 
-7.43766e-06 -4.8424e-06 2.32745e-05 1.89428e-05 2.9524e-05 -1.94298e-05 3.48905e-06 -6.04203e-06 4.09653e-06 9.24667e-08 -4.54434e-05 1.20779e-05 -1.38742e-05 6.7073e-05 5.30252e-06 -1.44074e-05 
3.16581e-06 -3.32773e-06 -2.27688e-06 -1.18409e-05 2.17865e-05 6.89528e-06 -1.20571e-06 -9.67673e-07 -1.01058e-06 -6.36607e-06 -3.05132e-05 -4.98859e-06 -1.90936e-05 3.25936e-05 -8.33929e-07 -1.50508e-05 
-4.96143e-06 -3.99523e-06 1.59957e-05 1.19929e-05 2.57199e-05 -1.34278e-05 1.93025e-06 -4.74788e-06 2.37278e-06 -3.52887e-07 -3.86445e-05 8.38686e-06 -1.31249e-05 5.56609e-05 3.80563e-06 -1.31293e-05 
3.29315e-06 -3.97282e-06 -1.65829e-06 -1.23267e-05 2.5325e-05 6.88886e-06 -1.23252e-06 -1.13259e-06 -1.13668e-06 -6.99674e-06 -3.54703e-05 -4.89759e-06 -2.1704e-05 3.85519e-05 -5.27658e-07 -1.71928e-05 
-4.8201e-06 -4.43607e-06 1.72449e-05 1.18434e-05 2.65368e-05 -1.30183e-05 2.49716e-06 -4.48604e-06 2.84211e-06 -1.4334e-06 -4.01182e-05 8.11565e-06 -1.44097e-05 5.64295e-05 3.99399e-06 -1.38148e-05 
-6.13409e-06 -3.77387e-06 1.94795e-05 1.61408e-05 2.23182e-05 -1.59297e-05 3.19288e-06 -4.66308e-06 3.61575e-06 7.15015e-08 -3.45655e-05 1.00224e-05 -1.01306e-05 5.14306e-05 4.40715e-06 -1.06316e-05 
-2.97638e-06 -8.13706e-06 1.55063e-05 2.27902e-06 5.31142e-05 -9.76249e-06 3.16414e-07 -6.96976e-06 1.16421e-06 -5.73723e-06 -7.77734e-05 5.11996e-06 -3.46792e-05 0.000101377 3.68341e-06 -3.11034e-05 
-4.78767e-06 -3.81122e-06 1.54294e-05 1.15843e-05 2.45898e-05 -1.29231e-05 1.88579e-06 -4.56647e-06 2.32064e-06 -3.47281e-07 -3.69671e-05 8.0665e-06 -1.25223e-05 5.32872e-05 3.639e-06 -1.25353e-05 
1.93952e-06 -4.29893e-06 1.4872e-06 -8.61479e-06 2.7273e-05 3.45438e-06 -8.19717e-07 -1.87007e-06 -6.75118e-07 -6.15618e-06 -3.87245e-05 -2.69118e-06 -2.16608e-05 4.47924e-05 2.80542e-07 -1.76623e-05 
6.36023e-06 -4.5746e-06 -6.60625e-06 -2.12736e-05 2.82157e-05 1.43184e-05 -2.05452e-06 1.15931e-07 -2.16431e-06 -1.04644e-05 -3.85946e-05 -9.6393e-06 -2.72221e-05 3.72482e-05 -1.83105e-06 -2.04771e-05 
5.72354e-06 -5.09759e-06 -4.75412e-06 -1.99113e-05 3.17734e-05 1.26044e-05 -1.90297e-06 -5.69741e-07 -1.92342e-06 -1.04523e-05 -4.39698e-05 -8.6326e-06 -2.90784e-05 4.49589e-05 -1.38943e-06 -2.23495e-05 
-7.05181e-06 -6.19867e-06 2.28061e-05 1.67611e-05 3.93316e-05 -1.94488e-05 2.48227e-06 -6.8802e-06 2.93408e-06 -5.3884e-07 -5.88235e-05 1.22267e-05 -2.0515e-05 8.41744e-05 5.75921e-06 -2.02498e-05 
6.99972e-06 -3.66023e-06 -9.06332e-06 -2.28831e-05 2.31789e-05 1.63407e-05 -2.23749e-06 6.71926e-07 -2.20238e-06 -1.02851e-05 -3.13116e-05 -1.10834e-05 -2.43712e-05 2.71e-05 -2.66936e-06 -1.7885e-05 
-3.40899e-06 -3.85668e-06 1.25021e-05 7.51288e-06 2.46424e-05 -9.55046e-06 1.32959e-06 -3.94519e-06 1.69759e-06 -1.45653e-06 -3.66395e-05 5.85196e-06 -1.40499e-05 5.06772e-05 2.95167e-06 -1.32857e-05 
2.04514e-06 -5.75205e-06 2.83521e-06 -9.97264e-06 3.68025e-05 3.23455e-06 -1.00923e-06 -2.90271e-06 -6.94351e-07 -7.59759e-06 -5.2398e-05 -2.76685e-06 -2.84156e-05 6.1695e-05 6.35274e-07 -2.3598e-05 
-5.94597e-06 -4.81716e-06 1.99542e-05 1.45796e-05 2.93802e-05 -1.57968e-05 2.83284e-06 -5.35416e-06 3.33631e-06 -9.92576e-07 -4.4654e-05 9.76366e-06 -1.52823e-05 6.38636e-05 4.54271e-06 -1.50375e-05 
-6.61895e-06 -5.18296e-06 2.17958e-05 1.62574e-05 3.17334e-05 -1.7573e-05 3.0546e-06 -5.87419e-06 3.59056e-06 -8.09135e-07 -4.82888e-05 1.08746e-05 -1.62753e-05 6.9429e-05 5.00301e-06 -1.61219e-05 
2.63086e-06 -3.58794e-06 -6.80211e-07 -1.01018e-05 2.28094e-05 5.40307e-06 -9.48652e-07 -1.14861e-06 -8.4572e-07 -6.10094e-06 -3.20547e-05 -3.88876e-06 -1.92203e-05 3.53613e-05 -3.07056e-07 -1.53114e-05 
1.81932e-06 -3.96057e-06 1.25319e-06 -7.97737e-06 2.51281e-05 3.23403e-06 -7.74006e-07 -1.73051e-06 -6.31964e-07 -5.6321e-06 -3.56354e-05 -2.50629e-06 -1.99202e-05 4.12039e-05 2.66331e-07 -1.62963e-05 
-9.22741e-06 -6.00106e-06 2.87548e-05 2.33565e-05 3.67635e-05 -2.409e-05 4.26901e-06 -7.51079e-06 5.00199e-06 1.20454e-07 -5.65593e-05 1.49647e-05 -1.73343e-05 8.34846e-05 6.53508e-06 -1.7941e-05 
-8.19887e-06 -5.61559e-06 2.57069e-05 2.07534e-05 3.4417e-05 -2.16733e-05 3.66358e-06 -6.88809e-06 4.36273e-06 1.23749e-07 -5.27964e-05 1.34429e-05 -1.64678e-05 7.74331e-05 6.0206e-06 -1.70055e-05 
-9.30469e-07 -7.2458e-06 1.03142e-05 -3.12691e-06 4.79024e-05 -4.38538e-06 -3.22435e-07 -5.77222e-06 6.4746e-07 -6.66324e-06 -6.97663e-05 1.53135e-06 -3.31066e-05 8.8055e-05 2.2329e-06 -2.91221e-05 
-8.93052e-06 -7.82994e-06 2.84077e-05 2.09947e-05 5.01105e-05 -2.46579e-05 2.88555e-06 -8.92253e-06 3.65596e-06 -4.32023e-07 -7.51086e-05 1.52881e-05 -2.6078e-05 0.000107472 7.18944e-06 -2.59374e-05 
-6.99087e-06 -4.51898e-06 2.20311e-05 1.80357e-05 2.71929e-05 -1.82581e-05 3.39273e-06 -5.5647e-06 3.92786e-06 8.01666e-08 -4.18774e-05 1.1417e-05 -1.26493e-05 6.19377e-05 5.0403e-06 -1.31888e-05 
1.685e-06 -5.56461e-06 3.39025e-06 -8.78708e-06 3.54942e-05 2.37767e-06 -8.62284e-07 -2.84936e-06 -6.30742e-07 -7.11171e-06 -5.0628e-05 -2.13855e-06 -2.7173e-05 6.00513e-05 8.07132e-07 -2.25578e-05 
-3.98517e-06 -3.94022e-06 1.36478e-05 9.18475e-06 2.51056e-05 -1.10566e-05 1.4653e-06 -4.24691e-06 1.85809e-06 -9.09285e-07 -3.7492e-05 6.82689e-06 -1.3688e-05 5.27253e-05 3.324e-06 -1.3272e-05 
-3.89859e-06 -4.3864e-06 1.42467e-05 8.51345e-06 2.74357e-05 -1.07922e-05 1.61064e-06 -4.38376e-06 2.01904e-06 -1.73599e-06 -4.10297e-05 6.51831e-06 -1.57687e-05 5.66175e-05 3.31566e-06 -1.48385e-05 
2.24334e-06 -5.37943e-06 1.93879e-06 -1.05181e-05 3.48761e-05 3.9322e-06 -1.07792e-06 -2.75176e-06 -6.65252e-07 -7.49291e-06 -4.96654e-05 -3.3134e-06 -2.72846e-05 5.79467e-05 2.87094e-07 -2.26095e-05 
2.03844e-06 -3.64596e-06 5.96065e-07 -8.35326e-06 2.29878e-05 3.91127e-06 -7.55027e-07 -1.38824e-06 -6.47784e-07 -5.60814e-06 -3.25123e-05 -2.90774e-06 -1.87025e-05 3.68833e-05 5.66691e-08 -1.51021e-05 
-4.60661e-06 -3.62419e-06 1.48781e-05 1.12789e-05 2.3357e-05 -1.24291e-05 1.86504e-06 -4.39839e-06 2.32794e-06 -2.92916e-07 -3.51574e-05 7.75239e-06 -1.17941e-05 5.07285e-05 3.50824e-06 -1.191e-05 
-9.61663e-06 -6.45275e-06 2.97476e-05 2.40006e-05 4.00859e-05 -2.52131e-05 4.18893e-06 -8.15907e-06 5.09191e-06 1.76777e-07 -6.1518e-05 1.55291e-05 -1.91298e-05 9.0423e-05 6.8075e-06 -1.9832e-05 
-5.03566e-06 -4.06694e-06 1.73016e-05 1.26057e-05 2.43218e-05 -1.33429e-05 2.62523e-06 -4.37924e-06 2.98962e-06 -1.01535e-06 -3.70164e-05 8.32491e-06 -1.26636e-05 5.28879e-05 3.9102e-06 -1.23772e-05 
-7.30049e-06 -6.3867e-06 2.34882e-05 1.7372e-05 4.06292e-05 -2.01269e-05 2.53086e-06 -7.19268e-06 3.0865e-06 -4.65277e-07 -6.08073e-05 1.25916e-05 -2.10929e-05 8.70597e-05 5.93086e-06 -2.09631e-05 
1.89395e-06 -4.11977e-06 1.27585e-06 -8.26305e-06 2.60894e-05 3.34644e-06 -8.26136e-07 -1.79076e-06 -6.72186e-07 -5.81835e-06 -3.69828e-05 -2.59196e-06 -2.06536e-05 4.27787e-05 2.90596e-07 -1.69164e-05 
7.65323e-07 -3.63129e-06 3.05033e-06 -4.73945e-06 2.31436e-05 7.77957e-07 -3.83368e-07 -2.01654e-06 -1.79436e-07 -4.46297e-06 -3.31678e-05 -9.19487e-07 -1.7401e-05 3.98109e-05 6.73516e-07 -1.45634e-05 
-8.79619e-06 -6.67041e-06 2.82237e-05 2.17096e-05 4.09572e-05 -2.34095e-05 3.83288e-06 -7.72057e-06 4.52767e-06 -5.07993e-07 -6.23221e-05 1.45261e-05 -2.05437e-05 9.02489e-05 6.62976e-06 -2.06516e-05 
-5.09421e-06 -4.24135e-06 1.65789e-05 1.23883e-05 2.70052e-05 -1.39e-05 1.97934e-06 -4.87606e-06 2.3806e-06 -3.93417e-07 -4.04771e-05 8.7444e-06 -1.38438e-05 5.8177e-05 4.04474e-06 -1.38078e-05 
1.49723e-06 -3.41995e-06 1.85787e-06 -6.54362e-06 2.12815e-05 2.76768e-06 -4.01661e-07 -1.40568e-06 -2.48234e-07 -5.19794e-06 -3.03483e-05 -2.17048e-06 -1.70732e-05 3.48678e-05 2.27288e-07 -1.38038e-05 
-6.95755e-06 -4.44536e-06 2.18526e-05 1.79672e-05 2.68217e-05 -1.81303e-05 3.3841e-06 -5.56275e-06 3.96495e-06 1.18769e-07 -4.13466e-05 1.1307e-05 -1.23893e-05 6.12308e-05 4.97122e-06 -1.30162e-05 
-1.25466e-06 -3.29897e-06 7.0039e-06 1.37947e-06 2.10471e-05 -4.03636e-06 4.62488e-07 -2.67737e-06 7.28757e-07 -2.58163e-06 -3.08443e-05 2.23643e-06 -1.38301e-05 4.00531e-05 1.59885e-06 -1.22576e-05 
-6.8802e-06 -4.21539e-06 2.1779e-05 1.81866e-05 2.48656e-05 -1.78471e-05 3.56263e-06 -5.25487e-06 4.10469e-06 1.48621e-07 -3.84918e-05 1.12119e-05 -1.11321e-05 5.74067e-05 4.92579e-06 -1.18577e-05 
-7.12464e-06 -4.25075e-06 2.25748e-05 1.89109e-05 2.49476e-05 -1.8415e-05 3.78456e-06 -5.31377e-06 4.28733e-06 1.47664e-07 -3.87188e-05 1.16103e-05 -1.10681e-05 5.79348e-05 5.06829e-06 -1.17733e-05 
2.02365e-06 -3.82611e-06 6.57392e-07 -8.55004e-06 2.44132e-05 3.80496e-06 -8.41897e-07 -1.60793e-06 -6.82255e-07 -5.70118e-06 -3.45669e-05 -2.90006e-06 -1.96397e-05 3.95364e-05 8.11308e-08 -1.59884e-05 
1.28298e-06 -3.64665e-06 2.09878e-06 -6.19529e-06 2.30519e-05 2.04771e-06 -5.21835e-07 -1.7272e-06 -3.83184e-07 -4.95184e-06 -3.2858e-05 -1.70827e-06 -1.79366e-05 3.85498e-05 4.39437e-07 -1.47494e-05 
-5.69598e-06 -3.8586e-06 1.87973e-05 1.4867e-05 2.26668e-05 -1.48394e-05 3.09292e-06 -4.46669e-06 3.48257e-06 -4.5454e-07 -3.48981e-05 9.3364e-06 -1.0879e-05 5.11027e-05 4.20818e-06 -1.10613e-05 
-4.95994e-06 -4.03786e-06 1.60421e-05 1.20558e-05 2.58782e-05 -1.34586e-05 1.94085e-06 -4.76172e-06 2.38353e-06 -3.43228e-07 -3.88446e-05 8.42737e-06 -1.31833e-05 5.59271e-05 3.85738e-06 -1.32295e-05 
1.51928e-06 -4.95854e-06 2.92021e-06 -8.01788e-06 3.19485e-05 2.22881e-06 -8.12268e-07 -2.68523e-06 -4.72714e-07 -6.39091e-06 -4.56415e-05 -2.0931e-06 -2.44241e-05 5.41394e-05 6.06885e-07 -2.03867e-05 
-4.32152e-06 -3.16976e-06 1.49404e-05 1.11682e-05 1.8658e-05 -1.1239e-05 2.53116e-06 -3.54538e-06 2.88357e-06 -8.58782e-07 -2.86823e-05 7.0102e-06 -9.43879e-06 4.12844e-05 3.22596e-06 -9.33924e-06 
-2.56244e-06 -4.27462e-06 1.12341e-05 4.71359e-06 2.68407e-05 -7.51478e-06 1.08711e-06 -3.7928e-06 1.46534e-06 -2.63439e-06 -3.97134e-05 4.3956e-06 -1.66765e-05 5.29183e-05 2.608e-06 -1.51742e-05 
1.9597e-06 -3.48658e-06 4.91403e-07 -8.13779e-06 2.21831e-05 3.79796e-06 -7.59174e-07 -1.3872e-06 -6.16153e-07 -5.40085e-06 -3.14001e-05 -2.86601e-06 -1.80493e-05 3.56513e-05 -1.21181e-08 -1.45929e-05 
-4.19176e-06 -3.86111e-06 1.41728e-05 9.77427e-06 2.47076e-05 -1.14482e-05 1.6408e-06 -4.32455e-06 2.08604e-06 -8.59366e-07 -3.70488e-05 7.04053e-06 -1.32872e-05 5.23844e-05 3.32932e-06 -1.29663e-05 
-5.67839e-06 -4.28906e-06 1.88571e-05 1.42371e-05 2.60179e-05 -1.49646e-05 2.82148e-06 -4.94367e-06 3.34416e-06 -7.09834e-07 -3.97667e-05 9.24781e-06 -1.31518e-05 5.73104e-05 4.24607e-06 -1.31604e-05 
-3.68871e-06 -3.57471e-06 1.25483e-05 8.39624e-06 2.30525e-05 -1.01202e-05 1.36332e-06 -3.98651e-06 1.79821e-06 -8.77527e-07 -3.44723e-05 6.17969e-06 -1.256e-05 4.85011e-05 2.95149e-06 -1.22231e-05 
-2.09141e-06 -3.76121e-06 9.63182e-06 3.81507e-06 2.34929e-05 -6.27632e-06 9.10669e-07 -3.17301e-06 1.14783e-06 -2.42019e-06 -3.46003e-05 3.75973e-06 -1.47238e-05 4.59331e-05 2.29514e-06 -1.32729e-05 
-6.01025e-06 -4.88561e-06 1.90834e-05 1.43407e-05 3.16829e-05 -1.63163e-05 2.16551e-06 -5.90727e-06 2.7955e-06 -2.79262e-07 -4.76673e-05 1.00739e-05 -1.61863e-05 6.85794e-05 4.58695e-06 -1.62885e-05 
2.01461e-07 -3.49158e-06 4.10038e-06 -3.14989e-06 2.25374e-05 -4.78375e-07 -1.65024e-07 -2.28881e-06 1.59834e-07 -3.97625e-06 -3.25927e-05 -1.98158e-07 -1.64184e-05 3.99318e-05 8.1887e-07 -1.3973e-05 
4.71503e-06 -5.56264e-06 -1.64844e-06 -1.66316e-05 3.33949e-05 9.87406e-06 -1.41338e-06 -8.98343e-07 -1.51847e-06 -1.00209e-05 -4.65975e-05 -6.70187e-06 -2.91804e-05 4.97263e-05 -4.6005e-07 -2.27083e-05 
-4.96202e-06 -4.04883e-06 1.61115e-05 1.21179e-05 2.58908e-05 -1.35033e-05 1.96263e-06 -4.75557e-06 2.39985e-06 -3.42432e-07 -3.8893e-05 8.45954e-06 -1.32027e-05 5.59486e-05 3.89635e-06 -1.32333e-05 
-6.7907e-06 -4.57133e-06 2.17724e-05 1.77064e-05 2.70066e-05 -1.78976e-05 3.38435e-06 -5.31037e-06 3.75095e-06 -3.44448e-08 -4.14311e-05 1.1345e-05 -1.27153e-05 6.1066e-05 5.12826e-06 -1.30809e-05 
-2.9429e-06 -3.54178e-06 1.09407e-05 6.27813e-06 2.23651e-05 -8.287e-06 1.13431e-06 -3.48266e-06 1.4293e-06 -1.44309e-06 -3.3275e-05 5.0316e-06 -1.29895e-05 4.57203e-05 2.61032e-06 -1.2166e-05 
3.48735e-06 -4.12845e-06 -1.13314e-06 -1.2506e-05 2.53239e-05 7.3898e-06 -9.487e-07 -8.68349e-07 -9.26166e-07 -7.61619e-06 -3.54281e-05 -5.11924e-06 -2.20793e-05 3.7865e-05 -4.58648e-07 -1.72747e-05 
2.28008e-06 -3.63819e-06 -5.47118e-08 -9.20689e-06 2.32353e-05 4.53389e-06 -9.05269e-07 -1.37671e-06 -7.58198e-07 -5.79288e-06 -3.27955e-05 -3.36313e-06 -1.9112e-05 3.6901e-05 -1.41113e-07 -1.54068e-05 
-6.89704e-06 -4.07063e-06 2.19279e-05 1.83981e-05 2.37258e-05 -1.78083e-05 3.73327e-06 -5.05861e-06 4.1803e-06 1.2656e-07 -3.68751e-05 1.12607e-05 -1.04692e-05 5.52595e-05 4.91733e-06 -1.11207e-05 
1.88861e-06 -4.03496e-06 1.19551e-06 -8.80064e-06 2.63631e-05 3.58706e-06 -8.41656e-07 -1.94421e-06 -5.82745e-07 -6.09439e-06 -3.75781e-05 -2.94817e-06 -2.11123e-05 4.33829e-05 -2.55883e-08 -1.71646e-05 
-4.91556e-06 -3.8888e-06 1.57542e-05 1.18757e-05 2.52053e-05 -1.32582e-05 1.91366e-06 -4.73346e-06 2.4062e-06 -3.06943e-07 -3.79299e-05 8.23987e-06 -1.28005e-05 5.46932e-05 3.70865e-06 -1.28806e-05 
-3.81397e-08 -3.87308e-06 5.08408e-06 -2.53729e-06 2.45758e-05 -1.26192e-06 -9.2141e-08 -2.4769e-06 1.4613e-07 -4.07473e-06 -3.55146e-05 3.88487e-07 -1.7603e-05 4.39794e-05 1.16835e-06 -1.50141e-05 
-4.61776e-06 -3.62165e-06 1.48419e-05 1.12661e-05 2.34565e-05 -1.24489e-05 1.84192e-06 -4.44815e-06 2.33542e-06 -2.64898e-07 -3.53141e-05 7.73974e-06 -1.18291e-05 5.0965e-05 3.49053e-06 -1.19824e-05 
-6.04128e-06 -4.902e-06 1.91552e-05 1.44059e-05 3.1806e-05 -1.63791e-05 2.17604e-06 -5.94398e-06 2.8187e-06 -2.80293e-07 -4.78463e-05 1.01091e-05 -1.62328e-05 6.88609e-05 4.59263e-06 -1.63588e-05 
-5.15014e-06 -3.75882e-06 1.62958e-05 1.28932e-05 2.33639e-05 -1.37253e-05 2.18883e-06 -4.53718e-06 2.65914e-06 -5.36323e-08 -3.55007e-05 8.54131e-06 -1.13955e-05 5.17697e-05 3.85e-06 -1.17044e-05 
-6.98821e-06 -6.19443e-06 2.26826e-05 1.6717e-05 3.91562e-05 -1.93346e-05 2.46695e-06 -6.83136e-06 2.92562e-06 -5.18342e-07 -5.85307e-05 1.21743e-05 -2.03909e-05 8.37267e-05 5.77683e-06 -2.01763e-05 
7.45583e-06 -6.4836e-06 -5.62778e-06 -2.50545e-05 3.88982e-05 1.65013e-05 -2.20137e-06 -2.92163e-07 -2.2172e-06 -1.35926e-05 -5.37452e-05 -1.11698e-05 -3.6136e-05 5.39575e-05 -1.6738e-06 -2.75853e-05 
-7.06703e-06 -4.2075e-06 2.2417e-05 1.87466e-05 2.46617e-05 -1.82526e-05 3.77673e-06 -5.23647e-06 4.24092e-06 1.1761e-07 -3.828e-05 1.15238e-05 -1.09623e-05 5.7282e-05 5.02569e-06 -1.16103e-05 
1.70836e-06 -3.69915e-06 1.40299e-06 -7.42033e-06 2.32881e-05 3.10346e-06 -6.2464e-07 -1.55952e-06 -4.86295e-07 -5.42563e-06 -3.30812e-05 -2.40285e-06 -1.85875e-05 3.80896e-05 2.32988e-07 -1.51241e-05 
-8.84557e-06 -8.13389e-06 2.87127e-05 2.08956e-05 5.11908e-05 -2.46553e-05 2.96099e-06 -8.71035e-06 3.40823e-06 -7.08382e-07 -7.63741e-05 1.55687e-05 -2.69582e-05 0.000108944 7.48361e-06 -2.64585e-05 
4.85733e-06 -5.8362e-06 -2.17686e-06 -1.80378e-05 3.66734e-05 1.02392e-05 -1.71493e-06 -1.4659e-06 -1.63722e-06 -1.04466e-05 -5.13694e-05 -7.22816e-06 -3.16672e-05 5.55531e-05 -7.56892e-07 -2.49013e-05 
-5.83543e-06 -3.42477e-06 1.84446e-05 1.54533e-05 2.02159e-05 -1.50268e-05 3.1176e-06 -4.37282e-06 3.56689e-06 1.18104e-07 -3.14496e-05 9.43097e-06 -8.93957e-06 4.70831e-05 4.08894e-06 -9.5421e-06 
3.49058e-06 -3.55765e-06 -2.6099e-06 -1.29153e-05 2.32058e-05 7.63287e-06 -1.3084e-06 -9.69606e-07 -1.10337e-06 -6.89822e-06 -3.2462e-05 -5.48957e-06 -2.04602e-05 3.44652e-05 -9.32592e-07 -1.60922e-05 
-2.92425e-07 -3.2439e-06 5.63267e-06 -1.21109e-06 2.01734e-05 -1.47295e-06 4.90366e-07 -2.10988e-06 7.36393e-07 -3.78916e-06 -2.94262e-05 5.59395e-07 -1.45225e-05 3.63245e-05 1.04605e-06 -1.2292e-05 
-5.61398e-06 -4.82141e-06 1.8321e-05 1.35613e-05 3.05381e-05 -1.5411e-05 2.1294e-06 -5.39174e-06 2.49397e-06 -4.77366e-07 -4.56848e-05 9.73598e-06 -1.58058e-05 6.55006e-05 4.55721e-06 -1.56501e-05 
-1.1609e-06 -2.99258e-06 6.39748e-06 1.27456e-06 1.94216e-05 -3.73303e-06 4.04825e-07 -2.52325e-06 6.78305e-07 -2.33339e-06 -2.84231e-05 2.07112e-06 -1.27033e-05 3.69791e-05 1.43906e-06 -1.13008e-05 
-6.80016e-06 -5.75214e-06 2.17101e-05 1.61286e-05 3.69572e-05 -1.85975e-05 2.38566e-06 -6.68682e-06 2.97498e-06 -3.9315e-07 -5.54448e-05 1.15639e-05 -1.90924e-05 7.95486e-05 5.34987e-06 -1.90347e-05 
-4.03533e-06 -2.98474e-06 1.2913e-05 9.82831e-06 1.96185e-05 -1.07287e-05 1.68425e-06 -3.83293e-06 2.14597e-06 -2.63509e-07 -2.96335e-05 6.63449e-06 -9.81505e-06 4.2927e-05 2.89577e-06 -9.95614e-06 
2.39165e-07 -3.51231e-06 4.07431e-06 -3.21624e-06 2.25397e-05 -4.21161e-07 -1.6921e-07 -2.22606e-06 1.07976e-07 -4.00857e-06 -3.25589e-05 -1.96444e-07 -1.64704e-05 3.98281e-05 8.46553e-07 -1.39607e-05 
-3.91534e-06 -3.32499e-06 1.40575e-05 9.65662e-06 2.00225e-05 -1.02656e-05 2.25171e-06 -3.59231e-06 2.66457e-06 -1.302e-06 -3.05464e-05 6.27883e-06 -1.08051e-05 4.30342e-05 2.97677e-06 -1.04139e-05 
-2.06053e-06 -3.94609e-06 1.02518e-05 3.68654e-06 2.42206e-05 -6.1114e-06 1.15963e-06 -3.17826e-06 1.41286e-06 -2.96812e-06 -3.57772e-05 3.60627e-06 -1.55209e-05 4.7007e-05 2.29607e-06 -1.38002e-05 
1.40631e-06 -3.73709e-06 1.96201e-06 -6.58459e-06 2.35656e-05 2.31141e-06 -5.64106e-07 -1.71137e-06 -4.411e-07 -5.13159e-06 -3.35486e-05 -1.87202e-06 -1.84303e-05 3.92094e-05 4.22778e-07 -1.51183e-05 
-1.11765e-05 -8.35672e-06 3.48442e-05 2.73453e-05 5.19217e-05 -2.98823e-05 4.34894e-06 -9.89924e-06 5.2904e-06 1.82722e-09 -7.89276e-05 1.84663e-05 -2.57095e-05 0.00011484 8.35065e-06 -2.61101e-05 
-6.57882e-06 -5.34927e-06 2.07372e-05 1.5517e-05 3.48359e-05 -1.7825e-05 2.3035e-06 -6.49597e-06 2.98614e-06 -2.97435e-07 -5.24214e-05 1.09689e-05 -1.78629e-05 7.5402e-05 4.96741e-06 -1.79314e-05 
6.80601e-06 -3.99317e-06 -8.24185e-06 -2.23195e-05 2.48963e-05 1.56806e-05 -2.17869e-06 5.05164e-07 -2.19511e-06 -1.03409e-05 -3.3759e-05 -1.05872e-05 -2.53223e-05 3.04971e-05 -2.35275e-06 -1.87772e-05 
-7.44209e-06 -5.25008e-06 2.3853e-05 1.90689e-05 3.1497e-05 -1.97355e-05 3.53466e-06 -6.04512e-06 3.92773e-06 -1.35139e-07 -4.80688e-05 1.24925e-05 -1.51972e-05 7.04149e-05 5.67572e-06 -1.54593e-05 
2.19142e-06 -3.64713e-06 1.0463e-07 -9.02853e-06 2.34808e-05 4.33095e-06 -8.96012e-07 -1.50299e-06 -6.80525e-07 -5.73746e-06 -3.3232e-05 -3.29386e-06 -1.91817e-05 3.75792e-05 -1.36302e-07 -1.55508e-05 
5.8226e-07 -3.90486e-06 3.73402e-06 -4.38087e-06 2.48556e-05 2.219e-07 -3.50191e-07 -2.25685e-06 -1.35667e-07 -4.55499e-06 -3.56842e-05 -5.75763e-07 -1.84151e-05 4.32461e-05 8.6581e-07 -1.55047e-05 
-1.68478e-06 -3.52387e-06 8.14681e-06 2.55583e-06 2.2568e-05 -5.23979e-06 5.59333e-07 -3.02394e-06 8.54639e-07 -2.36089e-06 -3.31366e-05 3.02213e-06 -1.43709e-05 4.36624e-05 1.9389e-06 -1.29319e-05 
1.29151e-06 -4.32934e-06 2.71903e-06 -6.90207e-06 2.78124e-05 1.88439e-06 -6.58443e-07 -2.31394e-06 -3.88301e-07 -5.62388e-06 -3.97634e-05 -1.77336e-06 -2.1301e-05 4.71623e-05 5.45081e-07 -1.77177e-05 
-9.11995e-06 -6.25744e-06 2.86308e-05 2.30643e-05 3.8113e-05 -2.40414e-05 4.08805e-06 -7.54925e-06 4.78966e-06 6.469e-08 -5.83584e-05 1.49831e-05 -1.82242e-05 8.57284e-05 6.68037e-06 -1.87581e-05 
-6.50367e-06 -4.22125e-06 2.07688e-05 1.69949e-05 2.4946e-05 -1.7018e-05 3.30685e-06 -5.01355e-06 3.6803e-06 -1.35773e-08 -3.83959e-05 1.07647e-05 -1.15961e-05 5.68147e-05 4.80058e-06 -1.19969e-05 
1.78272e-06 -3.89925e-06 1.43203e-06 -8.12416e-06 2.51152e-05 3.34572e-06 -7.12982e-07 -1.84475e-06 -4.29907e-07 -5.84446e-06 -3.58335e-05 -2.75073e-06 -2.00554e-05 4.13337e-05 6.98729e-08 -1.63667e-05 
5.17004e-06 -3.94493e-06 -4.99481e-06 -1.74544e-05 2.4401e-05 1.16226e-05 -1.65026e-06 -1.02022e-07 -1.64522e-06 -8.81299e-06 -3.35673e-05 -7.91199e-06 -2.31932e-05 3.2939e-05 -1.46475e-06 -1.75959e-05 
-4.64193e-06 -4.68821e-06 1.61384e-05 1.03745e-05 2.95883e-05 -1.2651e-05 1.8579e-06 -5.03203e-06 2.43597e-06 -1.46828e-06 -4.4472e-05 7.58267e-06 -1.64948e-05 6.20393e-05 3.71024e-06 -1.58569e-05 
-7.49131e-06 -6.39483e-06 2.38372e-05 1.76997e-05 4.11129e-05 -2.05556e-05 2.53939e-06 -7.4281e-06 3.2141e-06 -3.7488e-07 -6.1698e-05 1.27396e-05 -2.12789e-05 8.84399e-05 5.92325e-06 -2.12205e-05 
4.76448e-06 -3.64401e-06 -4.54885e-06 -1.63216e-05 2.29242e-05 1.08069e-05 -1.50691e-06 -2.27967e-07 -1.4127e-06 -8.29631e-06 -3.1679e-05 -7.47066e-06 -2.17798e-05 3.11947e-05 -1.47566e-06 -1.65491e-05 
2.17982e-06 -3.73618e-06 3.2626e-07 -8.86699e-06 2.36329e-05 4.22047e-06 -8.4991e-07 -1.40449e-06 -7.41666e-07 -5.77575e-06 -3.33802e-05 -3.12264e-06 -1.9288e-05 3.77749e-05 3.39919e-09 -1.55676e-05 
-5.70804e-06 -4.56851e-06 1.81568e-05 1.3605e-05 2.96503e-05 -1.54104e-05 2.12726e-06 -5.53243e-06 2.68077e-06 -3.33531e-07 -4.46242e-05 9.54026e-06 -1.51564e-05 6.42697e-05 4.29947e-06 -1.51865e-05 
-4.11803e-06 -3.8295e-06 1.40053e-05 9.5919e-06 2.44106e-05 -1.12538e-05 1.63194e-06 -4.21713e-06 2.02173e-06 -9.09442e-07 -3.65591e-05 6.95416e-06 -1.3182e-05 5.1655e-05 3.29485e-06 -1.27924e-05 
1.16439e-06 -4.71342e-06 3.42641e-06 -6.64806e-06 3.0028e-05 1.38802e-06 -6.4204e-07 -2.54782e-06 -3.85922e-07 -5.80151e-06 -4.29384e-05 -1.43052e-06 -2.26785e-05 5.13524e-05 8.05502e-07 -1.89743e-05 
-7.40902e-06 -6.16758e-06 2.33575e-05 1.74464e-05 3.99376e-05 -2.01834e-05 2.49141e-06 -7.35694e-06 3.25605e-06 -3.1806e-07 -6.00165e-05 1.24217e-05 -2.05385e-05 8.62242e-05 5.68321e-06 -2.06054e-05 
5.91541e-07 -6.24551e-06 6.25936e-06 -6.31889e-06 4.03901e-05 -4.23238e-07 -6.26331e-07 -4.03972e-06 -7.30871e-08 -6.87653e-06 -5.81612e-05 -5.98949e-07 -2.93825e-05 7.12085e-05 1.40702e-06 -2.51315e-05 
-6.0474e-06 -5.08702e-06 1.9915e-05 1.47017e-05 3.11574e-05 -1.63554e-05 2.55386e-06 -5.53579e-06 2.95843e-06 -6.8891e-07 -4.70792e-05 1.02027e-05 -1.61919e-05 6.74003e-05 4.8212e-06 -1.59558e-05 
-6.05157e-06 -5.26327e-06 1.96841e-05 1.44599e-05 3.35089e-05 -1.66178e-05 2.21883e-06 -5.95803e-06 2.711e-06 -5.28551e-07 -5.01981e-05 1.03874e-05 -1.74342e-05 7.17946e-05 4.87709e-06 -1.72988e-05 
-5.38328e-06 -4.26815e-06 1.7108e-05 1.28893e-05 2.77626e-05 -1.45114e-05 2.0156e-06 -5.23115e-06 2.58468e-06 -2.93481e-07 -4.17922e-05 8.96817e-06 -1.41141e-05 6.02564e-05 4.02458e-06 -1.42214e-05 
2.14854e-06 -4.14272e-06 8.09142e-07 -9.07453e-06 2.6282e-05 3.99049e-06 -9.00122e-07 -1.69454e-06 -7.6784e-07 -6.10854e-06 -3.71896e-05 -3.01569e-06 -2.11124e-05 4.2596e-05 1.45816e-07 -1.71633e-05 
-4.17283e-06 -4.20472e-06 1.43194e-05 9.53083e-06 2.66978e-05 -1.16112e-05 1.50361e-06 -4.42814e-06 1.84251e-06 -1.004e-06 -3.97993e-05 7.21012e-06 -1.46516e-05 5.59166e-05 3.52292e-06 -1.41034e-05 
2.32694e-06 -7.2896e-06 4.96743e-06 -1.1674e-05 4.57296e-05 3.63218e-06 -8.98897e-07 -3.47569e-06 -5.54072e-07 -9.88726e-06 -6.54305e-05 -3.18466e-06 -3.55099e-05 7.69575e-05 9.47783e-07 -2.91807e-05 
-4.60467e-06 -3.76657e-06 1.49732e-05 1.11637e-05 2.3513e-05 -1.2424e-05 1.88875e-06 -4.28534e-06 2.26496e-06 -4.16774e-07 -3.55214e-05 7.71711e-06 -1.21017e-05 5.10012e-05 3.58155e-06 -1.20308e-05 
3.37723e-06 -3.42015e-06 -2.35004e-06 -1.21974e-05 2.16743e-05 7.34805e-06 -1.17428e-06 -7.00011e-07 -1.10309e-06 -6.64052e-06 -3.02246e-05 -5.15598e-06 -1.92756e-05 3.18223e-05 -7.74286e-07 -1.50151e-05 
-6.78445e-06 -5.43863e-06 2.15703e-05 1.64898e-05 3.3896e-05 -1.83752e-05 2.63075e-06 -6.1815e-06 3.06639e-06 -2.44924e-07 -5.11424e-05 1.15061e-05 -1.72005e-05 7.3857e-05 5.31839e-06 -1.71936e-05 
-1.21917e-06 -4.16596e-06 9.9194e-06 1.73116e-06 2.43996e-05 -3.97702e-06 1.35582e-06 -2.63606e-06 1.56613e-06 -4.40238e-06 -3.58644e-05 2.2963e-06 -1.68062e-05 4.52887e-05 2.04169e-06 -1.43553e-05 
-9.73139e-06 -6.6354e-06 3.05311e-05 2.46858e-05 4.04818e-05 -2.56782e-05 4.40476e-06 -8.07665e-06 5.16401e-06 1.27763e-07 -6.20528e-05 1.59989e-05 -1.93078e-05 9.1155e-05 7.14923e-06 -1.99312e-05 
1.10445e-06 -3.5839e-06 2.5083e-06 -5.67365e-06 2.27237e-05 1.69371e-06 -3.96564e-07 -1.80548e-06 -2.04073e-07 -4.86149e-06 -3.24999e-05 -1.51966e-06 -1.75657e-05 3.83132e-05 4.58498e-07 -1.44989e-05 
1.56863e-06 -5.48931e-06 3.4947e-06 -8.44865e-06 3.52054e-05 2.16663e-06 -8.36998e-07 -2.97453e-06 -4.86608e-07 -6.94751e-06 -5.03044e-05 -2.07876e-06 -2.67826e-05 5.98389e-05 7.77678e-07 -2.23961e-05 
-5.79655e-06 -3.62401e-06 1.85437e-05 1.52234e-05 2.14215e-05 -1.50258e-05 3.06025e-06 -4.44446e-06 3.47446e-06 -5.23554e-08 -3.3129e-05 9.44939e-06 -9.8172e-06 4.91569e-05 4.16232e-06 -1.02661e-05 
2.03212e-06 -3.93256e-06 9.10634e-07 -8.54865e-06 2.47978e-05 3.8016e-06 -7.97708e-07 -1.56667e-06 -6.7891e-07 -5.86707e-06 -3.51157e-05 -2.86653e-06 -1.99784e-05 4.01485e-05 1.45035e-07 -1.61986e-05 
-6.5005e-06 -4.1043e-06 2.05869e-05 1.69859e-05 2.44205e-05 -1.69369e-05 3.27462e-06 -5.04791e-06 3.75434e-06 8.44717e-08 -3.77062e-05 1.0631e-05 -1.11945e-05 5.59565e-05 4.69227e-06 -1.17365e-05 
-1.29402e-05 -1.16907e-05 4.09482e-05 3.00184e-05 7.46024e-05 -3.59526e-05 3.83615e-06 -1.30606e-05 4.8922e-06 -5.83519e-07 -0.00011168 2.22441e-05 -3.91246e-05 0.000159496 1.05597e-05 -3.87421e-05 
-6.60122e-06 -5.47447e-06 2.09728e-05 1.55252e-05 3.54216e-05 -1.79301e-05 2.34335e-06 -6.45584e-06 2.89973e-06 -4.23529e-07 -5.31878e-05 1.1131e-05 -1.83213e-05 7.63922e-05 5.06885e-06 -1.82069e-05 
3.07292e-06 -3.81594e-06 -7.80168e-07 -1.12568e-05 2.35404e-05 6.50566e-06 -8.72215e-07 -8.99901e-07 -8.16188e-07 -6.95528e-06 -3.30323e-05 -4.57109e-06 -2.0384e-05 3.56017e-05 -4.1003e-07 -1.59822e-05 
-6.79747e-06 -6.35473e-06 2.19405e-05 1.50584e-05 4.17476e-05 -1.86365e-05 2.10084e-06 -7.43698e-06 2.97166e-06 -1.00454e-06 -6.25785e-05 1.12087e-05 -2.2519e-05 8.84691e-05 5.23931e-06 -2.21377e-05 
-6.08478e-06 -3.74694e-06 1.93496e-05 1.60574e-05 2.20643e-05 -1.57926e-05 3.18698e-06 -4.60597e-06 3.60092e-06 6.7444e-08 -3.41494e-05 9.9561e-06 -9.97552e-06 5.08561e-05 4.38298e-06 -1.04995e-05 
6.0796e-06 -3.83628e-06 -6.53776e-06 -1.99802e-05 2.34761e-05 1.40437e-05 -1.79223e-06 3.97707e-07 -1.74907e-06 -9.79204e-06 -3.2102e-05 -9.54054e-06 -2.36978e-05 2.94101e-05 -2.04395e-06 -1.7557e-05 
-6.93166e-06 -6.01594e-06 2.23203e-05 1.65442e-05 3.82817e-05 -1.90824e-05 2.42768e-06 -6.80185e-06 2.9715e-06 -4.41594e-07 -5.73179e-05 1.1936e-05 -1.98304e-05 8.21204e-05 5.60416e-06 -1.9726e-05 
-5.24015e-06 -3.81668e-06 1.73447e-05 1.33237e-05 2.28928e-05 -1.37609e-05 2.67875e-06 -4.38388e-06 3.09351e-06 -5.60999e-07 -3.50473e-05 8.57787e-06 -1.13828e-05 5.08004e-05 3.91055e-06 -1.14324e-05 
-4.11049e-06 -4.11978e-06 1.41338e-05 9.45121e-06 2.61083e-05 -1.14332e-05 1.51028e-06 -4.33683e-06 1.84293e-06 -9.83279e-07 -3.8926e-05 7.11155e-06 -1.42968e-05 5.47163e-05 3.47543e-06 -1.37762e-05 
2.67844e-06 -3.77255e-06 -7.17394e-07 -1.04524e-05 2.41651e-05 5.45899e-06 -1.05266e-06 -1.32987e-06 -8.84899e-07 -6.25062e-06 -3.40139e-05 -3.99756e-06 -2.01753e-05 3.77758e-05 -3.09386e-07 -1.61973e-05 
-4.04095e-06 -3.74467e-06 1.37489e-05 9.41515e-06 2.38961e-05 -1.10314e-05 1.61044e-06 -4.14024e-06 2.00231e-06 -8.97996e-07 -3.58024e-05 6.80883e-06 -1.29013e-05 5.05855e-05 3.22102e-06 -1.25235e-05 
7.74298e-07 -3.72824e-06 3.16067e-06 -4.76976e-06 2.36371e-05 7.40235e-07 -3.83965e-07 -2.02335e-06 -2.17193e-07 -4.53849e-06 -3.38451e-05 -8.6413e-07 -1.77584e-05 4.06447e-05 7.3936e-07 -1.48423e-05 
2.32845e-06 -3.50762e-06 -3.72129e-07 -9.39519e-06 2.27078e-05 4.72893e-06 -9.44296e-07 -1.38764e-06 -7.28247e-07 -5.73458e-06 -3.2078e-05 -3.55892e-06 -1.87861e-05 3.59305e-05 -2.79541e-07 -1.51602e-05 
3.19027e-06 -3.55408e-06 -1.98059e-06 -1.17145e-05 2.25918e-05 6.76688e-06 -1.18624e-06 -8.82912e-07 -1.12155e-06 -6.46616e-06 -3.15244e-05 -4.75539e-06 -1.96242e-05 3.38586e-05 -5.95072e-07 -1.54578e-05 
-3.67559e-06 -2.31212e-06 1.12948e-05 8.85669e-06 1.6154e-05 -9.47632e-06 1.57503e-06 -3.568e-06 2.21132e-06 -7.306e-08 -2.47093e-05 5.65815e-06 -7.76986e-06 3.61672e-05 2.27613e-06 -8.18486e-06 
-1.25522e-06 -3.05583e-06 6.64719e-06 1.50076e-06 1.98703e-05 -3.98232e-06 4.197e-07 -2.63723e-06 7.3515e-07 -2.30318e-06 -2.91165e-05 2.20195e-06 -1.28971e-05 3.8001e-05 1.49507e-06 -1.15449e-05 
-7.5418e-06 -4.79235e-06 2.33827e-05 1.9047e-05 2.95872e-05 -1.9603e-05 3.49735e-06 -6.17174e-06 4.17387e-06 1.41583e-07 -4.56564e-05 1.20975e-05 -1.387e-05 6.74722e-05 5.23459e-06 -1.4437e-05 
-6.55006e-06 -4.14387e-06 2.07314e-05 1.70605e-05 2.47129e-05 -1.70601e-05 3.29306e-06 -5.09403e-06 3.76206e-06 6.23863e-08 -3.81416e-05 1.07095e-05 -1.13751e-05 5.65708e-05 4.71824e-06 -1.18861e-05 
2.74914e-06 -3.66403e-06 -7.21252e-07 -1.04493e-05 2.30411e-05 5.71088e-06 -9.59965e-07 -1.07756e-06 -8.62888e-07 -6.33195e-06 -3.2401e-05 -4.09798e-06 -1.95693e-05 3.55301e-05 -3.39026e-07 -1.55155e-05 
-6.54223e-06 -5.76076e-06 2.12837e-05 1.57012e-05 3.64214e-05 -1.8075e-05 2.36078e-06 -6.36819e-06 2.78399e-06 -5.07284e-07 -5.44515e-05 1.13969e-05 -1.89444e-05 7.79209e-05 5.39587e-06 -1.8744e-05 
6.6116e-06 -4.30769e-06 -7.43996e-06 -2.1811e-05 2.65809e-05 1.5036e-05 -2.11627e-06 3.43176e-07 -2.20063e-06 -1.04104e-05 -3.61794e-05 -1.01052e-05 -2.62953e-05 3.3841e-05 -2.05755e-06 -1.96445e-05 
-2.26579e-05 -1.7908e-05 6.92982e-05 5.26469e-05 0.000114537 -6.0927e-05 7.3444e-06 -2.13666e-05 9.3877e-06 -1.39961e-07 -0.000173316 3.71684e-05 -5.84654e-05 0.000250495 1.66826e-05 -5.84995e-05 
1.33202e-06 -3.85198e-06 2.12632e-06 -6.57828e-06 2.45877e-05 2.10273e-06 -6.00106e-07 -1.9125e-06 -4.22221e-07 -5.16717e-06 -3.505e-05 -1.79592e-06 -1.90493e-05 4.12421e-05 4.4004e-07 -1.57311e-05 
9.74097e-07 -4.0735e-06 3.71952e-06 -5.25631e-06 2.50545e-05 1.17111e-06 -2.63249e-07 -1.91106e-06 -1.49745e-07 -5.27397e-06 -3.58754e-05 -1.09474e-06 -1.91482e-05 4.26202e-05 8.26019e-07 -1.57686e-05 
9.67809e-07 -3.64398e-06 2.67641e-06 -5.31533e-06 2.3209e-05 1.2677e-06 -4.38582e-07 -1.93262e-06 -2.46425e-07 -4.6552e-06 -3.31909e-05 -1.23021e-06 -1.76659e-05 3.95052e-05 5.80601e-07 -1.4707e-05 
-7.71676e-06 -6.76543e-06 2.51488e-05 1.80763e-05 4.2355e-05 -2.09832e-05 2.86956e-06 -7.47281e-06 3.51571e-06 -9.50854e-07 -6.38692e-05 1.28915e-05 -2.24132e-05 9.0981e-05 6.07763e-06 -2.19619e-05 
-4.7649e-06 -4.10821e-06 1.61821e-05 1.16239e-05 2.50292e-05 -1.28375e-05 2.18188e-06 -4.41297e-06 2.56237e-06 -8.72423e-07 -3.78686e-05 7.96851e-06 -1.32041e-05 5.3872e-05 3.80115e-06 -1.29122e-05 
-5.25692e-06 -4.41394e-06 1.71082e-05 1.27626e-05 2.80986e-05 -1.43769e-05 2.02765e-06 -5.05555e-06 2.43311e-06 -4.00922e-07 -4.2107e-05 9.04794e-06 -1.44402e-05 6.04658e-05 4.20344e-06 -1.43904e-05 
-6.27963e-06 -5.39378e-06 2.02862e-05 1.50858e-05 3.43309e-05 -1.72532e-05 2.27604e-06 -6.13571e-06 2.7747e-06 -4.14426e-07 -5.14164e-05 1.08105e-05 -1.77233e-05 7.37173e-05 5.0642e-06 -1.76659e-05 
-5.07896e-06 -3.74613e-06 1.58051e-05 1.21092e-05 2.49727e-05 -1.34843e-05 1.90829e-06 -4.98908e-06 2.61639e-06 -1.40526e-07 -3.78034e-05 8.18024e-06 -1.24594e-05 5.47781e-05 3.54255e-06 -1.2787e-05 
-9.18952e-07 -3.0507e-06 5.94083e-06 5.02687e-07 1.98767e-05 -3.153e-06 3.02211e-07 -2.49688e-06 6.01233e-07 -2.58835e-06 -2.90164e-05 1.65989e-06 -1.327e-05 3.73323e-05 1.31324e-06 -1.17227e-05 
2.39068e-06 -3.58379e-06 -3.57795e-07 -9.47653e-06 2.28713e-05 4.80272e-06 -9.40655e-07 -1.27777e-06 -8.24374e-07 -5.81237e-06 -3.22169e-05 -3.51327e-06 -1.89692e-05 3.60149e-05 -1.96106e-07 -1.52275e-05 
2.98875e-06 -4.30408e-06 -6.49857e-07 -1.15791e-05 2.72308e-05 6.02241e-06 -1.16602e-06 -1.41727e-06 -1.05559e-06 -7.01786e-06 -3.82571e-05 -4.33255e-06 -2.2686e-05 4.25542e-05 -2.39944e-07 -1.81767e-05 
-9.97734e-06 -9.2572e-06 3.23103e-05 2.33904e-05 5.83852e-05 -2.78974e-05 3.24445e-06 -9.88832e-06 3.71772e-06 -7.89067e-07 -8.71501e-05 1.75777e-05 -3.09175e-05 0.000124124 8.47975e-06 -3.02237e-05 
4.47841e-06 -4.66356e-06 -2.38097e-06 -1.55739e-05 2.81982e-05 9.65789e-06 -1.33215e-06 -6.21643e-07 -1.34941e-06 -8.97553e-06 -3.92546e-05 -6.59894e-06 -2.52087e-05 4.10127e-05 -7.49115e-07 -1.94964e-05 
-5.4313e-06 -4.02089e-06 1.79719e-05 1.37803e-05 2.41763e-05 -1.4338e-05 2.72285e-06 -4.59654e-06 3.15441e-06 -5.5989e-07 -3.69747e-05 8.93174e-06 -1.20776e-05 5.34965e-05 4.10172e-06 -1.21136e-05 
2.83725e-06 -4.20999e-06 1.83091e-07 -1.06946e-05 2.58151e-05 5.73853e-06 -8.02119e-07 -1.17933e-06 -7.69951e-07 -7.06293e-06 -3.63341e-05 -4.04636e-06 -2.1706e-05 4.01057e-05 -8.34857e-08 -1.72151e-05 
-3.0284e-06 -5.91308e-06 1.45011e-05 5.37351e-06 3.63261e-05 -9.28699e-06 1.34044e-06 -4.68999e-06 1.57749e-06 -3.87993e-06 -5.3427e-05 5.60926e-06 -2.30274e-05 7.05655e-05 3.58538e-06 -2.05938e-05 
-1.38026e-06 -3.47095e-06 7.33569e-06 1.6398e-06 2.22897e-05 -4.46691e-06 4.09424e-07 -2.876e-06 6.89553e-07 -2.52126e-06 -3.26117e-05 2.51927e-06 -1.44732e-05 4.25759e-05 1.74539e-06 -1.29229e-05 
-4.40325e-06 -3.51578e-06 1.43263e-05 1.08261e-05 2.25395e-05 -1.19194e-05 1.80176e-06 -4.18848e-06 2.20827e-06 -3.1858e-07 -3.38646e-05 7.47879e-06 -1.14111e-05 4.88216e-05 3.40891e-06 -1.14849e-05 
-7.45471e-08 -6.98448e-06 8.48924e-06 -4.4617e-06 4.45272e-05 -2.44404e-06 -5.44278e-07 -4.7088e-06 1.72619e-07 -6.80179e-06 -6.42454e-05 6.45838e-07 -3.13424e-05 7.99976e-05 2.08636e-06 -2.72899e-05 
2.45124e-06 -5.33189e-06 1.52573e-06 -1.08553e-05 3.41658e-05 4.37643e-06 -1.12979e-06 -2.49319e-06 -8.00178e-07 -7.52915e-06 -4.85074e-05 -3.50395e-06 -2.69617e-05 5.61925e-05 2.78483e-07 -2.22187e-05 
-3.92176e-06 -4.36774e-06 1.41249e-05 8.64124e-06 2.78676e-05 -1.09908e-05 1.46441e-06 -4.46718e-06 1.83895e-06 -1.5075e-06 -4.14301e-05 6.75952e-06 -1.58023e-05 5.74718e-05 3.39125e-06 -1.49717e-05 
1.76627e-06 -5.75418e-06 3.29189e-06 -9.45235e-06 3.74413e-05 2.65002e-06 -9.76932e-07 -3.28925e-06 -4.50703e-07 -7.43745e-06 -5.35634e-05 -2.58786e-06 -2.85564e-05 6.35709e-05 6.09026e-07 -2.39732e-05 
1.83328e-06 -3.60485e-06 9.17477e-07 -7.92355e-06 2.31895e-05 3.47328e-06 -7.07084e-07 -1.61729e-06 -4.8745e-07 -5.46564e-06 -3.2947e-05 -2.72441e-06 -1.86345e-05 3.7741e-05 4.20584e-08 -1.51871e-05 
-9.19596e-07 -3.13276e-06 5.98234e-06 4.44532e-07 2.03743e-05 -3.18248e-06 2.7083e-07 -2.55459e-06 5.84339e-07 -2.63036e-06 -2.9735e-05 1.66121e-06 -1.3599e-05 3.82489e-05 1.33849e-06 -1.2034e-05 
-6.44298e-06 -4.06841e-06 2.04338e-05 1.6861e-05 2.41799e-05 -1.67964e-05 3.26725e-06 -4.99513e-06 3.73106e-06 7.79458e-08 -3.73425e-05 1.05521e-05 -1.10879e-05 5.54005e-05 4.6666e-06 -1.16161e-05 
-1.35769e-05 -9.71817e-06 4.15847e-05 3.28922e-05 6.15574e-05 -3.59093e-05 5.31978e-06 -1.22179e-05 6.66709e-06 2.04352e-07 -9.38855e-05 2.19747e-05 -3.02021e-05 0.00013698 9.70818e-06 -3.10341e-05 
-6.53178e-06 -5.27631e-06 2.08487e-05 1.59407e-05 3.28592e-05 -1.77382e-05 2.53759e-06 -5.97851e-06 2.96954e-06 -2.4032e-07 -4.95419e-05 1.11205e-05 -1.66683e-05 7.15005e-05 5.1664e-06 -1.6684e-05 
1.68315e-06 -4.47967e-06 2.09946e-06 -8.111e-06 2.87132e-05 2.7673e-06 -7.9772e-07 -2.20488e-06 -5.75883e-07 -6.08404e-06 -4.09078e-05 -2.32796e-06 -2.23694e-05 4.79572e-05 4.21459e-07 -1.84454e-05 
-9.08435e-06 -8.37597e-06 2.94802e-05 2.14301e-05 5.26944e-05 -2.53339e-05 3.01921e-06 -8.94587e-06 3.4676e-06 -7.30685e-07 -7.86088e-05 1.59976e-05 -2.77769e-05 0.000112112 7.69512e-06 -2.72385e-05 
-7.24024e-06 -4.52727e-06 2.24566e-05 1.84571e-05 2.78131e-05 -1.87723e-05 3.43153e-06 -5.89077e-06 4.12227e-06 1.81664e-07 -4.29728e-05 1.1591e-05 -1.28495e-05 6.36783e-05 5.01134e-06 -1.35389e-05 
6.29581e-06 -4.64081e-06 -6.40266e-06 -2.10958e-05 2.86098e-05 1.41271e-05 -2.04288e-06 4.00448e-08 -2.13132e-06 -1.04485e-05 -3.91827e-05 -9.52548e-06 -2.7404e-05 3.80932e-05 -1.76746e-06 -2.06903e-05 
-7.08187e-06 -4.64392e-06 2.23714e-05 1.82548e-05 2.79019e-05 -1.85388e-05 3.42233e-06 -5.64834e-06 3.93796e-06 5.15218e-08 -4.29025e-05 1.16165e-05 -1.30522e-05 6.33668e-05 5.15191e-06 -1.35572e-05 
5.26799e-06 -4.0166e-06 -5.11915e-06 -1.78115e-05 2.49082e-05 1.18416e-05 -1.6891e-06 -1.19715e-07 -1.68202e-06 -8.9744e-06 -3.42704e-05 -8.06745e-06 -2.3664e-05 3.36516e-05 -1.5009e-06 -1.79606e-05 
-8.79064e-06 -5.93167e-06 2.71583e-05 2.19334e-05 3.69322e-05 -2.30703e-05 3.79519e-06 -7.54183e-06 4.67519e-06 1.95093e-07 -5.66556e-05 1.41787e-05 -1.7613e-05 8.32267e-05 6.23162e-06 -1.83374e-05 
-7.39636e-06 -4.9989e-06 2.34162e-05 1.90933e-05 2.99699e-05 -1.94815e-05 3.49133e-06 -5.99278e-06 4.06351e-06 6.89343e-08 -4.59416e-05 1.22062e-05 -1.40725e-05 6.77021e-05 5.47759e-06 -1.46591e-05 
-4.75003e-06 -4.44981e-06 1.69313e-05 1.15347e-05 2.67136e-05 -1.28742e-05 2.37516e-06 -4.45461e-06 2.67268e-06 -1.41741e-06 -4.02898e-05 8.04321e-06 -1.4579e-05 5.6644e-05 3.95993e-06 -1.3921e-05 
-4.85114e-06 -3.83362e-06 1.55634e-05 1.17522e-05 2.48375e-05 -1.30931e-05 1.89404e-06 -4.67181e-06 2.39019e-06 -2.9507e-07 -3.7384e-05 8.13575e-06 -1.25966e-05 5.39103e-05 3.66609e-06 -1.26915e-05 
-6.30235e-06 -5.04323e-06 1.97862e-05 1.5051e-05 3.30257e-05 -1.7106e-05 2.20616e-06 -6.33347e-06 3.02653e-06 -1.22397e-07 -4.98342e-05 1.0429e-05 -1.67366e-05 7.17194e-05 4.74488e-06 -1.70609e-05 
-6.02669e-06 -4.19455e-06 1.93181e-05 1.53771e-05 2.53519e-05 -1.58428e-05 2.85958e-06 -5.02091e-06 3.40156e-06 -1.91823e-07 -3.8845e-05 9.84195e-06 -1.21891e-05 5.68518e-05 4.41968e-06 -1.25512e-05 
-1.46466e-05 -1.13647e-05 4.59037e-05 3.53902e-05 7.06183e-05 -3.93405e-05 5.67803e-06 -1.30441e-05 6.55432e-06 -3.062e-07 -0.000106915 2.45433e-05 -3.56268e-05 0.000154948 1.11961e-05 -3.56316e-05 
-9.07862e-06 -5.96816e-06 2.81322e-05 2.27406e-05 3.69663e-05 -2.37234e-05 4.06735e-06 -7.56493e-06 4.86376e-06 1.51494e-07 -5.68497e-05 1.46458e-05 -1.7566e-05 8.37151e-05 6.39023e-06 -1.81711e-05 
7.90937e-07 -3.3612e-06 2.86124e-06 -4.62775e-06 2.13517e-05 9.88982e-07 -2.99636e-07 -1.80627e-06 -1.01845e-07 -4.36061e-06 -3.06296e-05 -1.0418e-06 -1.62468e-05 3.65178e-05 5.47462e-07 -1.34934e-05 
-7.41979e-06 -6.14843e-06 2.33463e-05 1.73267e-05 3.99244e-05 -2.01193e-05 2.53088e-06 -7.3364e-06 3.22943e-06 -4.01454e-07 -5.99604e-05 1.24127e-05 -2.06077e-05 8.61658e-05 5.62801e-06 -2.05823e-05 
2.00678e-06 -5.68652e-06 2.82695e-06 -1.00206e-05 3.66598e-05 3.20279e-06 -1.01748e-06 -2.92699e-06 -6.91423e-07 -7.59325e-06 -5.22806e-05 -2.79817e-06 -2.83789e-05 6.15674e-05 5.57874e-07 -2.34973e-05 
-6.73278e-06 -5.5661e-06 2.13151e-05 1.59713e-05 3.59813e-05 -1.83172e-05 2.33492e-06 -6.64688e-06 3.02889e-06 -3.0325e-07 -5.40718e-05 1.13033e-05 -1.84397e-05 7.7742e-05 5.16983e-06 -1.85343e-05 
1.4201e-06 -5.14818e-06 4.1886e-06 -7.37785e-06 3.204e-05 1.9859e-06 -3.92122e-07 -2.46738e-06 -2.07855e-07 -6.86681e-06 -4.58336e-05 -1.78362e-06 -2.46717e-05 5.41527e-05 8.64354e-07 -2.03165e-05 
-2.0749e-06 -3.53639e-06 9.34878e-06 3.70702e-06 2.22556e-05 -6.03754e-06 9.7234e-07 -3.13242e-06 1.29452e-06 -2.37615e-06 -3.29682e-05 3.49247e-06 -1.3984e-05 4.37301e-05 2.08523e-06 -1.26354e-05 
-9.09549e-07 -3.85098e-06 7.61753e-06 3.83986e-07 2.3632e-05 -3.29161e-06 6.60062e-07 -2.61042e-06 8.46969e-07 -3.7268e-06 -3.45122e-05 1.80071e-06 -1.62707e-05 4.36948e-05 1.68908e-06 -1.40033e-05 
-1.31642e-06 -8.53982e-06 1.26779e-05 -2.82182e-06 5.56933e-05 -5.83307e-06 -2.15137e-07 -6.471e-06 5.12625e-07 -7.60532e-06 -8.09246e-05 2.58612e-06 -3.83743e-05 0.000102569 2.97811e-06 -3.35091e-05 
1.63652e-06 -4.30149e-06 1.98119e-06 -7.75388e-06 2.74281e-05 2.68488e-06 -7.62755e-07 -2.07145e-06 -5.69623e-07 -5.81516e-06 -3.90293e-05 -2.21671e-06 -2.13604e-05 4.5726e-05 4.34726e-07 -1.76223e-05 
3.27309e-06 -4.56623e-06 -9.99622e-07 -1.27522e-05 2.92835e-05 6.6883e-06 -1.30991e-06 -1.6195e-06 -1.09154e-06 -7.55847e-06 -4.11825e-05 -4.89708e-06 -2.44326e-05 4.57337e-05 -4.0082e-07 -1.96519e-05 
-1.13626e-05 -8.07661e-06 3.51395e-05 2.77057e-05 5.06119e-05 -3.00212e-05 4.63594e-06 -9.91386e-06 5.57256e-06 6.83174e-09 -7.72421e-05 1.85096e-05 -2.4882e-05 0.000112782 8.17996e-06 -2.53013e-05 
-1.25489e-06 -4.22559e-06 1.00709e-05 1.83895e-06 2.4714e-05 -4.10627e-06 1.36209e-06 -2.66904e-06 1.56823e-06 -4.40591e-06 -3.63231e-05 2.38755e-06 -1.6981e-05 4.59205e-05 2.10154e-06 -1.45188e-05 
-3.82784e-06 -2.79951e-06 1.22847e-05 9.42275e-06 1.83961e-05 -1.01741e-05 1.6449e-06 -3.63316e-06 2.10016e-06 -2.28359e-07 -2.78011e-05 6.29998e-06 -9.12954e-06 4.03137e-05 2.75672e-06 -9.32736e-06 
7.35824e-07 -3.76671e-06 3.26586e-06 -4.72191e-06 2.39623e-05 6.46893e-07 -3.8308e-07 -2.09927e-06 -1.86258e-07 -4.55097e-06 -3.43441e-05 -8.32168e-07 -1.79438e-05 4.13283e-05 7.48663e-07 -1.50386e-05 
-2.30023e-06 -4.85879e-06 1.13883e-05 3.892e-06 2.98805e-05 -7.22752e-06 8.22437e-07 -3.75969e-06 1.04524e-06 -3.17935e-06 -4.38395e-05 4.34907e-06 -1.90082e-05 5.78328e-05 2.86354e-06 -1.69736e-05 
2.48743e-06 -5.24078e-06 1.35548e-06 -1.11125e-05 3.37882e-05 4.54547e-06 -1.13232e-06 -2.41111e-06 -8.65555e-07 -7.5998e-06 -4.79781e-05 -3.61254e-06 -2.68809e-05 5.54276e-05 1.66703e-07 -2.19818e-05 
1.79259e-06 -5.36076e-06 2.94055e-06 -8.91216e-06 3.41501e-05 2.72578e-06 -8.92359e-07 -2.69197e-06 -6.21463e-07 -6.99327e-06 -4.8662e-05 -2.36432e-06 -2.62858e-05 5.74452e-05 6.74846e-07 -2.18149e-05 
-2.27789e-06 -4.22137e-06 1.04658e-05 3.7715e-06 2.67146e-05 -6.78171e-06 9.17399e-07 -3.68759e-06 1.30354e-06 -2.81416e-06 -3.94584e-05 3.88054e-06 -1.69015e-05 5.21838e-05 2.38929e-06 -1.52496e-05 
6.0819e-06 -4.10407e-06 -6.63429e-06 -2.02163e-05 2.545e-05 1.3823e-05 -1.95034e-06 1.76502e-07 -1.96571e-06 -9.77605e-06 -3.4779e-05 -9.35993e-06 -2.49249e-05 3.29513e-05 -1.89552e-06 -1.87136e-05 
-2.76836e-07 -5.67709e-06 7.27644e-06 -3.65866e-06 3.71487e-05 -2.3043e-06 -3.32396e-07 -4.15778e-06 2.76336e-07 -5.65925e-06 -5.3861e-05 5.87036e-07 -2.62161e-05 6.72453e-05 1.5731e-06 -2.27455e-05 
-1.27228e-06 -3.57156e-06 8.10627e-06 1.60125e-06 2.19668e-05 -4.04851e-06 8.61124e-07 -2.65612e-06 1.10832e-06 -3.22653e-06 -3.22926e-05 2.26752e-06 -1.47229e-05 4.14471e-05 1.7477e-06 -1.28525e-05 
2.79232e-06 -4.96556e-06 4.30703e-07 -1.17925e-05 3.19927e-05 5.39316e-06 -1.2031e-06 -2.08642e-06 -9.71835e-07 -7.60446e-06 -4.52773e-05 -4.12187e-06 -2.59372e-05 5.15753e-05 -7.45397e-08 -2.10382e-05 
-3.66047e-08 -6.60435e-06 7.82816e-06 -4.98422e-06 4.32456e-05 -2.00111e-06 -5.0228e-07 -4.79878e-06 2.90116e-07 -6.72964e-06 -6.26107e-05 2.02676e-07 -3.06871e-05 7.77516e-05 1.6944e-06 -2.66786e-05 
2.59047e-06 -3.7614e-06 -5.68108e-07 -1.02215e-05 2.41378e-05 5.25086e-06 -1.02708e-06 -1.36834e-06 -8.61183e-07 -6.16985e-06 -3.40076e-05 -3.86461e-06 -2.00718e-05 3.791e-05 -2.74959e-07 -1.61352e-05 
1.09873e-06 -4.39247e-06 4.3941e-06 -5.61728e-06 2.66335e-05 1.48465e-06 -2.80193e-08 -1.96638e-06 1.11207e-07 -6.01503e-06 -3.81952e-05 -1.32166e-06 -2.05772e-05 4.49951e-05 8.65493e-07 -1.68493e-05 
-8.04287e-06 -5.31509e-06 2.54007e-05 2.06693e-05 3.20095e-05 -2.1102e-05 3.85684e-06 -6.44151e-06 4.41759e-06 6.48873e-08 -4.92046e-05 1.32244e-05 -1.50634e-05 7.25658e-05 5.88455e-06 -1.55753e-05 
3.56997e-06 -3.55945e-06 -2.74332e-06 -1.30235e-05 2.30008e-05 7.79694e-06 -1.32126e-06 -8.6979e-07 -1.15391e-06 -6.92048e-06 -3.20897e-05 -5.54291e-06 -2.03644e-05 3.38965e-05 -9.18667e-07 -1.59816e-05 
-8.96994e-06 -6.31921e-06 2.80715e-05 2.23665e-05 3.88992e-05 -2.37344e-05 3.86133e-06 -7.61462e-06 4.55893e-06 1.8566e-08 -5.94347e-05 1.47436e-05 -1.88908e-05 8.69741e-05 6.58829e-06 -1.93056e-05 
4.48912e-06 -3.22563e-06 -5.04026e-06 -1.56738e-05 2.1291e-05 1.02264e-05 -1.61534e-06 -3.94786e-07 -1.42936e-06 -7.4769e-06 -2.94049e-05 -7.18383e-06 -2.01904e-05 2.90313e-05 -1.59952e-06 -1.54701e-05 
-3.06421e-06 -3.86926e-06 1.22772e-05 6.74103e-06 2.36045e-05 -8.56317e-06 1.54093e-06 -3.53812e-06 1.83041e-06 -2.03711e-06 -3.52277e-05 5.21629e-06 -1.39978e-05 4.79208e-05 2.81984e-06 -1.29084e-05 
5.02301e-06 -5.60103e-06 -2.81061e-06 -1.84582e-05 3.53758e-05 1.07641e-05 -1.76099e-06 -1.3193e-06 -1.64995e-06 -1.04056e-05 -4.94896e-05 -7.60034e-06 -3.09372e-05 5.29322e-05 -9.73873e-07 -2.42324e-05 
-4.93412e-06 -3.83591e-06 1.68286e-05 1.24723e-05 2.29046e-05 -1.30095e-05 2.61373e-06 -4.22261e-06 2.99435e-06 -8.76738e-07 -3.49587e-05 8.11312e-06 -1.17472e-05 5.01614e-05 3.77603e-06 -1.15851e-05 
-4.67039e-06 -4.33807e-06 1.56986e-05 1.07608e-05 2.7721e-05 -1.27649e-05 1.77788e-06 -4.77753e-06 2.18031e-06 -9.5892e-07 -4.15033e-05 7.88991e-06 -1.49825e-05 5.8693e-05 3.72404e-06 -1.45162e-05 
-2.25571e-06 -3.57017e-06 9.63726e-06 4.27156e-06 2.24879e-05 -6.57688e-06 9.31459e-07 -3.19463e-06 1.20791e-06 -2.10574e-06 -3.32477e-05 3.91261e-06 -1.3844e-05 4.45331e-05 2.2542e-06 -1.26075e-05 
3.71254e-06 -3.34613e-06 -3.30039e-06 -1.33878e-05 2.18437e-05 8.24351e-06 -1.36926e-06 -7.4515e-07 -1.16606e-06 -6.8686e-06 -3.04379e-05 -5.87231e-06 -1.97158e-05 3.15877e-05 -1.1087e-06 -1.53811e-05 
8.40076e-07 -4.06039e-06 3.54581e-06 -5.15082e-06 2.55719e-05 8.24896e-07 -3.72418e-07 -2.14537e-06 -2.16027e-07 -4.99695e-06 -3.6629e-05 -9.37545e-07 -1.92697e-05 4.39293e-05 8.15452e-07 -1.60501e-05 
-6.16619e-06 -5.15855e-06 2.0576e-05 1.49266e-05 3.17816e-05 -1.64994e-05 2.75208e-06 -5.77758e-06 3.36503e-06 -9.77157e-07 -4.82084e-05 1.0117e-05 -1.66277e-05 6.87482e-05 4.74748e-06 -1.64201e-05 
-7.34538e-06 -4.48636e-06 2.33127e-05 1.93408e-05 2.64334e-05 -1.90461e-05 3.84571e-06 -5.50771e-06 4.29889e-06 7.87966e-08 -4.09246e-05 1.20242e-05 -1.19584e-05 6.10091e-05 5.26759e-06 -1.25245e-05 
6.6088e-07 -3.78213e-06 3.43452e-06 -4.563e-06 2.41181e-05 4.69149e-07 -3.61114e-07 -2.14874e-06 -1.63537e-07 -4.52783e-06 -3.46023e-05 -7.26874e-07 -1.80001e-05 4.17614e-05 7.74661e-07 -1.50947e-05 
-3.01281e-06 -4.33588e-06 1.23659e-05 6.06861e-06 2.70681e-05 -8.59445e-06 1.30337e-06 -4.01612e-06 1.75903e-06 -2.39789e-06 -4.01921e-05 5.06591e-06 -1.63501e-05 5.41867e-05 2.83377e-06 -1.51131e-05 
6.83984e-06 -3.84489e-06 -8.51826e-06 -2.24961e-05 2.42693e-05 1.58662e-05 -2.19573e-06 5.12861e-07 -2.16325e-06 -1.03003e-05 -3.29157e-05 -1.07715e-05 -2.49595e-05 2.93635e-05 -2.5018e-06 -1.84548e-05 
4.73092e-07 -3.35517e-06 3.46254e-06 -3.69659e-06 2.13454e-05 1.94114e-07 -2.11159e-07 -1.95291e-06 5.27947e-09 -4.04886e-06 -3.07168e-05 -5.2605e-07 -1.58728e-05 3.71646e-05 7.15648e-07 -1.33248e-05 
-6.47331e-06 -4.11596e-06 2.05618e-05 1.69082e-05 2.44132e-05 -1.68747e-05 3.27893e-06 -4.99436e-06 3.70927e-06 3.63753e-08 -3.76536e-05 1.06254e-05 -1.12435e-05 5.58453e-05 4.69742e-06 -1.17187e-05 
-6.18953e-06 -3.82404e-06 1.96474e-05 1.62605e-05 2.26297e-05 -1.60737e-05 3.20899e-06 -4.71483e-06 3.63277e-06 6.73198e-08 -3.50213e-05 1.01165e-05 -1.02901e-05 5.20972e-05 4.44805e-06 -1.07919e-05 
-2.22047e-06 -3.92996e-06 1.07265e-05 4.31261e-06 2.38363e-05 -6.49209e-06 1.28002e-06 -3.17606e-06 1.54976e-06 -2.85557e-06 -3.53069e-05 3.86717e-06 -1.50929e-05 4.66125e-05 2.4077e-06 -1.34884e-05 
-1.64977e-05 -1.26077e-05 5.06674e-05 3.87414e-05 8.02431e-05 -4.40832e-05 5.77832e-06 -1.50967e-05 7.12081e-06 -2.01291e-07 -0.00012175 2.69902e-05 -4.07243e-05 0.000176415 1.20062e-05 -4.06584e-05 
-8.4979e-06 -5.85074e-06 2.65612e-05 2.13703e-05 3.59024e-05 -2.24004e-05 3.73682e-06 -7.15139e-06 4.45675e-06 8.55645e-08 -5.49619e-05 1.3897e-05 -1.72028e-05 8.06665e-05 6.18294e-06 -1.77549e-05 
-4.32836e-06 -3.53847e-06 1.40789e-05 1.0391e-05 2.22824e-05 -1.1629e-05 1.77169e-06 -4.08165e-06 2.15892e-06 -4.60926e-07 -3.36599e-05 7.18845e-06 -1.15243e-05 4.82767e-05 3.30428e-06 -1.14369e-05 
1.83256e-06 -4.58482e-06 2.03128e-06 -8.34258e-06 2.89296e-05 3.04054e-06 -7.94879e-07 -2.07422e-06 -6.42449e-07 -6.24426e-06 -4.10891e-05 -2.40858e-06 -2.26277e-05 4.79477e-05 4.95455e-07 -1.86075e-05 
-4.63319e-06 -3.68502e-06 1.50117e-05 1.13575e-05 2.36792e-05 -1.25373e-05 1.87707e-06 -4.42555e-06 2.32298e-06 -3.0639e-07 -3.56185e-05 7.83569e-06 -1.19873e-05 5.13417e-05 3.56962e-06 -1.20794e-05 
-8.82218e-06 -6.13739e-06 2.75475e-05 2.20049e-05 3.78157e-05 -2.32707e-05 3.82331e-06 -7.46274e-06 4.52875e-06 3.0753e-08 -5.78267e-05 1.44387e-05 -1.8286e-05 8.47372e-05 6.41477e-06 -1.8737e-05 
-7.38535e-06 -6.6456e-06 2.40266e-05 1.76254e-05 4.18825e-05 -2.05002e-05 2.57888e-06 -7.2243e-06 3.01017e-06 -5.81298e-07 -6.25469e-05 1.29403e-05 -2.19032e-05 8.937e-05 6.17789e-06 -2.15971e-05 
3.22163e-06 -7.34002e-06 2.81391e-06 -1.43351e-05 4.63783e-05 5.68058e-06 -1.3316e-06 -3.21299e-06 -1.05093e-06 -1.04318e-05 -6.5917e-05 -4.47649e-06 -3.67291e-05 7.63235e-05 5.5482e-07 -3.00141e-05 
2.64597e-06 -5.43447e-06 1.36595e-06 -1.11886e-05 3.42047e-05 4.6878e-06 -1.1324e-06 -2.20783e-06 -1.02721e-06 -7.69689e-06 -4.83652e-05 -3.50768e-06 -2.72238e-05 5.57015e-05 4.10572e-07 -2.22064e-05 
-8.65199e-06 -5.81443e-06 2.71576e-05 2.20668e-05 3.53052e-05 -2.27362e-05 3.98695e-06 -7.1107e-06 4.69017e-06 1.16936e-07 -5.41644e-05 1.41714e-05 -1.66753e-05 7.97602e-05 6.3049e-06 -1.73258e-05 
-9.32089e-06 -6.55686e-06 2.89918e-05 2.30791e-05 4.06264e-05 -2.45769e-05 3.96758e-06 -8.01048e-06 4.74207e-06 1.5942e-08 -6.20108e-05 1.52267e-05 -1.97179e-05 9.07791e-05 6.75129e-06 -2.02354e-05 
-7.97279e-06 -5.14545e-06 2.50339e-05 2.04221e-05 3.11362e-05 -2.07943e-05 3.82814e-06 -6.36248e-06 4.42292e-06 6.68428e-08 -4.79392e-05 1.29855e-05 -1.4561e-05 7.08782e-05 5.69539e-06 -1.51095e-05 
-6.52594e-06 -5.70042e-06 2.11613e-05 1.56741e-05 3.6151e-05 -1.80124e-05 2.3463e-06 -6.38442e-06 2.8209e-06 -4.53418e-07 -5.40995e-05 1.1318e-05 -1.87473e-05 7.74507e-05 5.34808e-06 -1.86199e-05 
-4.31867e-06 -3.40686e-06 1.41102e-05 1.05599e-05 2.12498e-05 -1.15315e-05 1.89235e-06 -3.94912e-06 2.27199e-06 -4.46861e-07 -3.21945e-05 7.15023e-06 -1.08586e-05 4.63256e-05 3.27166e-06 -1.08253e-05 
3.49088e-07 -3.94237e-06 5.19753e-06 -3.30641e-06 2.41319e-05 -2.15997e-07 1.65509e-07 -2.10101e-06 3.38704e-07 -4.88304e-06 -3.48349e-05 -2.19912e-07 -1.79582e-05 4.21139e-05 1.06e-06 -1.49441e-05 
-1.71438e-06 -3.27726e-06 8.07067e-06 2.64327e-06 2.13103e-05 -5.10364e-06 6.61788e-07 -2.98595e-06 1.02914e-06 -2.32079e-06 -3.14163e-05 2.87367e-06 -1.35415e-05 4.14699e-05 1.75271e-06 -1.22137e-05 
6.50634e-07 -6.00091e-06 5.93524e-06 -5.97022e-06 3.81408e-05 -3.70541e-07 -5.57045e-07 -3.55208e-06 -2.9012e-07 -6.53316e-06 -5.47308e-05 -3.56573e-07 -2.78564e-05 6.68761e-05 1.54839e-06 -2.36275e-05 
-6.09554e-06 -5.20391e-06 1.96934e-05 1.46844e-05 3.31273e-05 -1.67282e-05 2.2224e-06 -5.94572e-06 2.72666e-06 -3.90678e-07 -4.96299e-05 1.0476e-05 -1.70572e-05 7.1201e-05 4.89803e-06 -1.70353e-05 
-5.29132e-06 -4.44138e-06 1.72068e-05 1.28084e-05 2.82627e-05 -1.44425e-05 2.04079e-06 -5.07222e-06 2.43127e-06 -4.29558e-07 -4.23283e-05 9.09688e-06 -1.45361e-05 6.08037e-05 4.21159e-06 -1.44642e-05 
-2.87275e-06 -4.4343e-06 1.16642e-05 5.46919e-06 2.83106e-05 -8.51738e-06 9.21911e-07 -4.06933e-06 1.23889e-06 -2.20403e-06 -4.16997e-05 5.13877e-06 -1.71406e-05 5.62675e-05 2.89839e-06 -1.57726e-05 
2.16047e-06 -5.51563e-06 2.29101e-06 -1.03212e-05 3.56053e-05 3.65988e-06 -1.05084e-06 -2.80643e-06 -6.806e-07 -7.54542e-06 -5.07015e-05 -3.10161e-06 -2.77255e-05 5.93807e-05 4.0652e-07 -2.29757e-05 
-7.1466e-06 -4.48824e-06 2.26547e-05 1.87008e-05 2.66145e-05 -1.85982e-05 3.63697e-06 -5.4922e-06 4.12688e-06 7.38886e-08 -4.10991e-05 1.17047e-05 -1.21799e-05 6.10509e-05 5.15671e-06 -1.27459e-05 
-6.89721e-06 -4.42437e-06 2.21622e-05 1.80513e-05 2.61869e-05 -1.79591e-05 3.60008e-06 -5.3374e-06 4.07505e-06 -1.21751e-07 -4.04189e-05 1.12999e-05 -1.21716e-05 5.97585e-05 5.01503e-06 -1.26161e-05 
-7.23744e-06 -4.74543e-06 2.27794e-05 1.86619e-05 2.85853e-05 -1.89573e-05 3.43367e-06 -5.83361e-06 4.03997e-06 1.18952e-07 -4.39569e-05 1.18256e-05 -1.33012e-05 6.4957e-05 5.24281e-06 -1.39255e-05 
-4.14684e-06 -3.29674e-06 1.38748e-05 1.01893e-05 2.01932e-05 -1.09904e-05 1.99312e-06 -3.72812e-06 2.35919e-06 -6.579e-07 -3.07383e-05 6.78251e-06 -1.04556e-05 4.40174e-05 3.13688e-06 -1.03163e-05 
2.17035e-06 -3.61569e-06 2.39711e-07 -8.76935e-06 2.28597e-05 4.25859e-06 -8.26727e-07 -1.33095e-06 -7.14094e-07 -5.68752e-06 -3.22851e-05 -3.14657e-06 -1.87501e-05 3.64094e-05 -4.58505e-08 -1.50973e-05 
-7.15497e-06 -4.33625e-06 2.27658e-05 1.89378e-05 2.53918e-05 -1.85319e-05 3.80543e-06 -5.30248e-06 4.22846e-06 6.89666e-08 -3.93373e-05 1.17298e-05 -1.14133e-05 5.87348e-05 5.13941e-06 -1.1979e-05 
-8.81635e-06 -5.89294e-06 2.7574e-05 2.22853e-05 3.60212e-05 -2.31157e-05 4.02185e-06 -7.24878e-06 4.71411e-06 7.72583e-08 -5.52836e-05 1.43796e-05 -1.71199e-05 8.13842e-05 6.34294e-06 -1.76671e-05 
-4.63853e-06 -3.7936e-06 1.51855e-05 1.14157e-05 2.4109e-05 -1.26206e-05 1.89425e-06 -4.39211e-06 2.26706e-06 -3.73472e-07 -3.61677e-05 7.96013e-06 -1.22814e-05 5.20526e-05 3.67258e-06 -1.22895e-05 
-5.51735e-06 -4.36387e-06 1.74769e-05 1.31762e-05 2.84621e-05 -1.48739e-05 2.04287e-06 -5.38526e-06 2.64283e-06 -2.61986e-07 -4.28793e-05 9.16755e-06 -1.44673e-05 6.1816e-05 4.11523e-06 -1.45909e-05 
2.64273e-06 -6.33783e-06 3.17925e-06 -1.17296e-05 3.95355e-05 4.6856e-06 -9.37677e-07 -2.77057e-06 -5.68495e-07 -9.10856e-06 -5.6368e-05 -3.7757e-06 -3.12761e-05 6.5251e-05 5.30751e-07 -2.5607e-05 
-6.35708e-06 -5.87444e-06 2.08631e-05 1.4891e-05 3.73671e-05 -1.76187e-05 2.19519e-06 -6.46007e-06 2.69751e-06 -7.49195e-07 -5.58526e-05 1.09798e-05 -1.98244e-05 7.93785e-05 5.25257e-06 -1.94756e-05 
2.05361e-06 -3.58929e-06 4.07788e-07 -8.57059e-06 2.30187e-05 4.0222e-06 -8.08737e-07 -1.47974e-06 -6.18591e-07 -5.61787e-06 -3.26279e-05 -3.07225e-06 -1.87641e-05 3.70014e-05 -7.45593e-08 -1.51833e-05 
-6.29555e-06 -3.88321e-06 1.99096e-05 1.6479e-05 2.30838e-05 -1.63227e-05 3.23241e-06 -4.8329e-06 3.6928e-06 7.55272e-08 -3.5709e-05 1.02481e-05 -1.04901e-05 5.31356e-05 4.48405e-06 -1.10347e-05 
2.80842e-06 -3.41751e-06 -1.32078e-06 -1.06648e-05 2.19237e-05 5.95236e-06 -1.04382e-06 -1.03652e-06 -8.99459e-07 -6.11901e-06 -3.07965e-05 -4.30788e-06 -1.88121e-05 3.34961e-05 -5.2862e-07 -1.49013e-05 
2.88957e-06 -3.75601e-06 -1.17621e-06 -1.10715e-05 2.40763e-05 5.98594e-06 -1.12591e-06 -1.2252e-06 -9.76356e-07 -6.4202e-06 -3.38096e-05 -4.33265e-06 -2.03473e-05 3.71845e-05 -4.27676e-07 -1.62474e-05 
-9.6587e-06 -6.59564e-06 3.03604e-05 2.44663e-05 4.0096e-05 -2.54398e-05 4.40067e-06 -7.92926e-06 5.07896e-06 3.44418e-08 -6.13868e-05 1.5908e-05 -1.91645e-05 9.02345e-05 7.08305e-06 -1.96885e-05 
-1.7744e-06 -3.46158e-06 8.56489e-06 2.68404e-06 2.2148e-05 -5.20278e-06 8.30216e-07 -3.08748e-06 1.2291e-06 -2.62223e-06 -3.27675e-05 2.86111e-06 -1.42376e-05 4.30077e-05 1.79371e-06 -1.27837e-05 
-4.92307e-06 -4.04577e-06 1.5992e-05 1.20269e-05 2.58267e-05 -1.3408e-05 1.92891e-06 -4.72528e-06 2.36367e-06 -3.40561e-07 -3.87519e-05 8.4108e-06 -1.31617e-05 5.57548e-05 3.8793e-06 -1.32064e-05 
-4.34966e-06 -3.82278e-06 1.4423e-05 1.03015e-05 2.45579e-05 -1.18663e-05 1.68234e-06 -4.37512e-06 2.10389e-06 -6.34839e-07 -3.68006e-05 7.36531e-06 -1.29408e-05 5.24048e-05 3.43221e-06 -1.27551e-05 
-9.24964e-06 -6.28922e-06 2.88721e-05 2.32469e-05 3.86029e-05 -2.42791e-05 4.15432e-06 -7.72877e-06 4.89547e-06 5.60908e-08 -5.91063e-05 1.50987e-05 -1.84475e-05 8.68712e-05 6.67061e-06 -1.90495e-05 
5.75551e-06 -5.18175e-06 -4.68082e-06 -1.98688e-05 3.2007e-05 1.25884e-05 -1.90701e-06 -5.1647e-07 -1.97042e-06 -1.04812e-05 -4.42425e-05 -8.55912e-06 -2.92328e-05 4.52705e-05 -1.29093e-06 -2.2472e-05 
-8.6636e-07 -6.81154e-06 9.80953e-06 -2.63642e-06 4.413e-05 -4.20739e-06 -2.10794e-07 -5.00129e-06 3.43449e-07 -6.20045e-06 -6.40136e-05 1.81976e-06 -3.05594e-05 8.0862e-05 2.32456e-06 -2.66173e-05 
5.77993e-07 -3.88678e-06 3.7203e-06 -4.40413e-06 2.47994e-05 2.27115e-07 -3.53689e-07 -2.25511e-06 -1.39305e-07 -4.55793e-06 -3.56191e-05 -5.90355e-07 -1.83973e-05 4.31612e-05 8.44071e-07 -1.54673e-05 
2.07806e-06 -4.64312e-06 1.52646e-06 -9.21466e-06 2.94767e-05 3.62344e-06 -9.13034e-07 -2.02688e-06 -7.89795e-07 -6.52332e-06 -4.17951e-05 -2.79988e-06 -2.33198e-05 4.84449e-05 3.5915e-07 -1.90595e-05 
2.22071e-06 -3.63942e-06 4.63754e-08 -9.09746e-06 2.33989e-05 4.3975e-06 -8.98385e-07 -1.46497e-06 -7.0536e-07 -5.75594e-06 -3.30961e-05 -3.32003e-06 -1.91667e-05 3.73589e-05 -1.41817e-07 -1.55045e-05 
3.40217e-06 -3.73459e-06 -2.20583e-06 -1.26113e-05 2.40606e-05 7.31623e-06 -1.27947e-06 -1.05024e-06 -1.09196e-06 -6.91684e-06 -3.36576e-05 -5.24131e-06 -2.09044e-05 3.61326e-05 -7.61099e-07 -1.6544e-05 
-1.30918e-05 -9.62924e-06 3.98052e-05 3.26868e-05 6.03363e-05 -3.50433e-05 4.51305e-06 -1.23551e-05 6.78789e-06 9.6181e-07 -9.18144e-05 2.10089e-05 -2.84096e-05 0.000134442 9.49237e-06 -3.08059e-05 
-7.1249e-06 -6.23776e-06 2.29789e-05 1.69696e-05 3.96272e-05 -1.96446e-05 2.48692e-06 -6.98748e-06 3.00498e-06 -4.87867e-07 -5.92932e-05 1.23124e-05 -2.05937e-05 8.48903e-05 5.79693e-06 -2.04246e-05 
2.44776e-06 -3.26133e-06 -8.96643e-07 -9.75222e-06 2.1412e-05 5.16931e-06 -9.65962e-07 -1.25527e-06 -7.26054e-07 -5.70539e-06 -3.02471e-05 -3.88755e-06 -1.80732e-05 3.3408e-05 -5.04391e-07 -1.44657e-05 
9.46421e-07 -3.54755e-06 2.59023e-06 -5.23941e-06 2.26187e-05 1.26062e-06 -4.33502e-07 -1.86812e-06 -2.64234e-07 -4.56235e-06 -3.23441e-05 -1.21226e-06 -1.72542e-05 3.84884e-05 5.46651e-07 -1.43248e-05 
4.987e-07 -5.40951e-06 5.49361e-06 -5.64014e-06 3.51225e-05 -3.71469e-07 -5.29557e-07 -3.45008e-06 -1.48164e-07 -6.07671e-06 -5.06178e-05 -5.03108e-07 -2.57288e-05 6.19284e-05 1.18591e-06 -2.17922e-05 
2.10972e-06 -3.57512e-06 2.05817e-07 -8.67658e-06 2.29024e-05 4.13569e-06 -8.53786e-07 -1.45135e-06 -6.6397e-07 -5.57385e-06 -3.24034e-05 -3.13006e-06 -1.86729e-05 3.66864e-05 -8.38659e-08 -1.51378e-05 
5.87221e-06 -5.14459e-06 -4.93742e-06 -2.00759e-05 3.15678e-05 1.28655e-05 -1.92679e-06 -3.76704e-07 -2.03621e-06 -1.05097e-05 -4.35185e-05 -8.68467e-06 -2.90182e-05 4.4199e-05 -1.31527e-06 -2.22363e-05 
-2.46439e-06 -4.25234e-06 1.11417e-05 4.76523e-06 2.634e-05 -7.38551e-06 1.0041e-06 -3.5751e-06 1.29738e-06 -2.56659e-06 -3.88256e-05 4.45979e-06 -1.63031e-05 5.18062e-05 2.70095e-06 -1.479e-05 
-8.942e-06 -6.13197e-06 2.81303e-05 2.27522e-05 3.74121e-05 -2.3679e-05 4.04825e-06 -7.46647e-06 4.77727e-06 1.38939e-07 -5.74025e-05 1.47272e-05 -1.78809e-05 8.41791e-05 6.62933e-06 -1.8457e-05 
1.15637e-06 -5.34382e-06 4.20708e-06 -7.04654e-06 3.40437e-05 1.14872e-06 -6.89835e-07 -2.95785e-06 -3.89662e-07 -6.41192e-06 -4.87385e-05 -1.34924e-06 -2.55241e-05 5.85672e-05 1.00764e-06 -2.14203e-05 
5.4999e-06 -3.60819e-06 -6.11574e-06 -1.84868e-05 2.27864e-05 1.26435e-05 -1.76424e-06 8.6603e-08 -1.69059e-06 -8.90256e-06 -3.12436e-05 -8.6728e-06 -2.24778e-05 2.94681e-05 -1.89108e-06 -1.68521e-05 
1.08598e-06 -3.35302e-06 2.12825e-06 -5.65185e-06 2.16601e-05 1.73933e-06 -4.53788e-07 -1.78885e-06 -2.13372e-07 -4.61047e-06 -3.10045e-05 -1.59594e-06 -1.67736e-05 3.65379e-05 3.19679e-07 -1.38679e-05 
-4.74984e-06 -4.03519e-06 1.57181e-05 1.14861e-05 2.51005e-05 -1.28715e-05 1.98923e-06 -4.45276e-06 2.3241e-06 -6.13724e-07 -3.77922e-05 8.04881e-06 -1.30972e-05 5.4037e-05 3.77639e-06 -1.28866e-05 
1.81397e-06 -5.25084e-06 2.75081e-06 -9.07646e-06 3.3696e-05 2.86819e-06 -9.02014e-07 -2.66771e-06 -6.2048e-07 -6.99427e-06 -4.80472e-05 -2.49391e-06 -2.60619e-05 5.66161e-05 5.53914e-07 -2.15665e-05 
-7.6544e-06 -4.89943e-06 2.37301e-05 1.92893e-05 3.02752e-05 -1.99086e-05 3.53085e-06 -6.28828e-06 4.21003e-06 1.27481e-07 -4.66753e-05 1.22909e-05 -1.42407e-05 6.89255e-05 5.32307e-06 -1.47996e-05 
-1.37915e-06 -3.95291e-06 8.13362e-06 1.47439e-06 2.50144e-05 -4.63393e-06 4.8441e-07 -3.04194e-06 6.93362e-07 -3.07157e-06 -3.64889e-05 2.67567e-06 -1.64758e-05 4.73175e-05 1.97057e-06 -1.45286e-05 
-4.5292e-06 -3.62109e-06 1.476e-05 1.1056e-05 2.26948e-05 -1.21707e-05 1.92924e-06 -4.20879e-06 2.33697e-06 -4.15634e-07 -3.43516e-05 7.54087e-06 -1.16158e-05 4.93648e-05 3.47732e-06 -1.15971e-05 
-1.46626e-06 -3.44692e-06 8.50257e-06 2.3235e-06 2.1028e-05 -4.46404e-06 1.0276e-06 -2.61098e-06 1.24915e-06 -3.02504e-06 -3.09902e-05 2.58084e-06 -1.38956e-05 4.00679e-05 1.82297e-06 -1.21746e-05 
-6.58359e-06 -4.29459e-06 2.10105e-05 1.71949e-05 2.54208e-05 -1.72502e-05 3.32322e-06 -5.10917e-06 3.71944e-06 5.82171e-09 -3.91169e-05 1.09e-05 -1.1828e-05 5.78437e-05 4.87197e-06 -1.22536e-05 
-1.45801e-05 -1.08137e-05 4.49663e-05 3.52622e-05 6.81616e-05 -3.89254e-05 5.51449e-06 -1.31862e-05 6.87104e-06 1.70279e-07 -0.000103742 2.38879e-05 -3.3814e-05 0.000150863 1.07245e-05 -3.44289e-05 
-6.62111e-06 -4.234e-06 2.09843e-05 1.72445e-05 2.52746e-05 -1.73001e-05 3.31071e-06 -5.18428e-06 3.78457e-06 7.14237e-08 -3.89938e-05 1.08574e-05 -1.16889e-05 5.77307e-05 4.81307e-06 -1.219e-05 
-2.29032e-06 -3.76161e-06 9.82566e-06 4.19778e-06 2.37508e-05 -6.74978e-06 8.68363e-07 -3.34429e-06 1.15984e-06 -2.19775e-06 -3.50887e-05 3.98876e-06 -1.46866e-05 4.69153e-05 2.33085e-06 -1.33576e-05 
-5.93562e-07 -7.35855e-06 9.96224e-06 -3.89405e-06 4.76458e-05 -3.6976e-06 -3.16606e-07 -5.18923e-06 1.91098e-07 -7.06285e-06 -6.90021e-05 1.45659e-06 -3.34696e-05 8.65632e-05 2.33831e-06 -2.88727e-05 
-6.76348e-06 -4.39821e-06 2.14727e-05 1.75647e-05 2.62417e-05 -1.77105e-05 3.35245e-06 -5.31126e-06 3.80573e-06 3.96711e-08 -4.04051e-05 1.11383e-05 -1.22287e-05 5.97285e-05 4.95609e-06 -1.26864e-05 
-3.2536e-06 -3.3359e-06 1.14463e-05 7.32969e-06 2.11139e-05 -8.95027e-06 1.32356e-06 -3.52201e-06 1.65757e-06 -1.06672e-06 -3.16106e-05 5.4564e-06 -1.17964e-05 4.40778e-05 2.68162e-06 -1.12737e-05 
-5.77681e-06 -4.49514e-06 1.93754e-05 1.43798e-05 2.72479e-05 -1.5261e-05 2.87737e-06 -5.0622e-06 3.36356e-06 -8.88527e-07 -4.15558e-05 9.45235e-06 -1.39837e-05 5.96617e-05 4.36762e-06 -1.38359e-05 
4.97902e-07 -3.49683e-06 3.5286e-06 -3.85833e-06 2.23088e-05 1.81592e-07 -2.39003e-07 -2.04804e-06 -2.74025e-08 -4.16803e-06 -3.20567e-05 -5.16644e-07 -1.65463e-05 3.88257e-05 7.61295e-07 -1.39184e-05 
2.1359e-06 -3.81276e-06 4.09386e-07 -8.88075e-06 2.43455e-05 4.0926e-06 -8.85681e-07 -1.55639e-06 -7.221e-07 -5.79165e-06 -3.44346e-05 -3.09204e-06 -1.97142e-05 3.91946e-05 7.3799e-09 -1.60083e-05 
1.72775e-06 -4.26503e-06 1.86717e-06 -7.9035e-06 2.70287e-05 2.91724e-06 -7.51662e-07 -1.9622e-06 -5.6711e-07 -5.88555e-06 -3.84491e-05 -2.34933e-06 -2.11994e-05 4.48074e-05 4.03009e-07 -1.74199e-05 
3.21453e-07 -5.77293e-06 6.40446e-06 -4.9828e-06 3.6837e-05 -1.04093e-06 -4.37423e-07 -3.59916e-06 -9.84888e-08 -6.13605e-06 -5.30768e-05 1.79725e-08 -2.66602e-05 6.52797e-05 1.56742e-06 -2.26967e-05 
-1.88291e-06 -3.67311e-06 8.92037e-06 3.09307e-06 2.30669e-05 -5.6902e-06 7.74051e-07 -3.09721e-06 1.05279e-06 -2.48681e-06 -3.39916e-05 3.30148e-06 -1.46627e-05 4.48478e-05 2.08523e-06 -1.31753e-05 
1.70098e-06 -5.88482e-06 3.60584e-06 -9.26675e-06 3.80953e-05 2.40586e-06 -9.61263e-07 -3.32726e-06 -4.74541e-07 -7.4738e-06 -5.44952e-05 -2.3962e-06 -2.89508e-05 6.48418e-05 7.34509e-07 -2.42992e-05 
-3.63689e-06 -4.04485e-06 1.3407e-05 8.21048e-06 2.49414e-05 -1.0097e-05 1.6038e-06 -3.96578e-06 1.94044e-06 -1.56365e-06 -3.732e-05 6.17238e-06 -1.42401e-05 5.15622e-05 3.17538e-06 -1.34252e-05 
-6.41577e-06 -4.06546e-06 2.03876e-05 1.67961e-05 2.40875e-05 -1.67265e-05 3.26349e-06 -4.94381e-06 3.69717e-06 5.21725e-08 -3.71754e-05 1.05311e-05 -1.10629e-05 5.51545e-05 4.66102e-06 -1.15537e-05 
-5.83575e-06 -3.12948e-06 1.84065e-05 1.56914e-05 1.82629e-05 -1.48433e-05 3.31562e-06 -4.17869e-06 3.77353e-06 1.7604e-07 -2.87141e-05 9.32132e-06 -7.68402e-06 4.34839e-05 3.96088e-06 -8.39361e-06 
-7.30725e-06 -4.91864e-06 2.31576e-05 1.88098e-05 2.9582e-05 -1.92509e-05 3.48504e-06 -5.90454e-06 4.00066e-06 4.35725e-08 -4.54087e-05 1.20723e-05 -1.39843e-05 6.68318e-05 5.41787e-06 -1.44542e-05 
-7.44644e-06 -6.34636e-06 2.36952e-05 1.74591e-05 4.07683e-05 -2.03265e-05 2.55659e-06 -7.30089e-06 3.13162e-06 -5.00824e-07 -6.10923e-05 1.26516e-05 -2.11819e-05 8.76277e-05 5.8251e-06 -2.0993e-05 
-2.82914e-06 -7.83754e-06 1.47314e-05 1.89449e-06 5.17462e-05 -9.24018e-06 2.7147e-07 -6.97633e-06 1.27208e-06 -5.56862e-06 -7.5875e-05 4.66552e-06 -3.37868e-05 9.87772e-05 3.41437e-06 -3.04856e-05 
-6.99955e-06 -6.20437e-06 2.27151e-05 1.67451e-05 3.92502e-05 -1.93767e-05 2.47099e-06 -6.85683e-06 2.93629e-06 -5.09252e-07 -5.8687e-05 1.21939e-05 -2.04448e-05 8.39293e-05 5.79149e-06 -2.0234e-05 
5.417e-06 -4.64475e-06 -4.69361e-06 -1.8851e-05 2.91318e-05 1.20526e-05 -1.79642e-06 -5.01511e-07 -1.75386e-06 -9.80757e-06 -4.03355e-05 -8.31233e-06 -2.68994e-05 4.09204e-05 -1.45555e-06 -2.06228e-05 
4.73086e-06 -5.43364e-06 -1.86839e-06 -1.66918e-05 3.28244e-05 9.99239e-06 -1.4359e-06 -9.18753e-07 -1.45444e-06 -9.93872e-06 -4.58377e-05 -6.84857e-06 -2.87823e-05 4.87502e-05 -5.78491e-07 -2.24256e-05 
-5.6271e-06 -4.42608e-06 1.77538e-05 1.34046e-05 2.89148e-05 -1.51315e-05 2.06098e-06 -5.49706e-06 2.69722e-06 -2.58917e-07 -4.35626e-05 9.30362e-06 -1.46665e-05 6.2857e-05 4.15019e-06 -1.48257e-05 
-8.20337e-06 -5.44856e-06 2.58605e-05 2.10986e-05 3.28129e-05 -2.15324e-05 3.8785e-06 -6.62129e-06 4.51268e-06 1.00571e-07 -5.03959e-05 1.34661e-05 -1.53861e-05 7.43481e-05 5.99436e-06 -1.6008e-05 
2.64929e-06 -3.68827e-06 -6.56194e-07 -1.01987e-05 2.33414e-05 5.4117e-06 -9.91552e-07 -1.18802e-06 -8.80232e-07 -6.15783e-06 -3.28203e-05 -3.90639e-06 -1.95872e-05 3.6303e-05 -2.70293e-07 -1.56483e-05 
2.07792e-06 -3.66847e-06 3.80904e-07 -8.57937e-06 2.33664e-05 3.99504e-06 -8.44599e-07 -1.47156e-06 -6.92049e-07 -5.60119e-06 -3.30355e-05 -3.00394e-06 -1.8953e-05 3.75456e-05 3.57241e-09 -1.5376e-05 
-6.92654e-06 -6.01817e-06 2.23184e-05 1.64686e-05 3.83254e-05 -1.90536e-05 2.44446e-06 -6.77977e-06 2.94057e-06 -4.9076e-07 -5.73662e-05 1.19396e-05 -1.99203e-05 8.21568e-05 5.59535e-06 -1.97391e-05 
2.27863e-06 -3.5781e-06 -1.78871e-07 -9.28655e-06 2.30946e-05 4.57825e-06 -9.29771e-07 -1.42096e-06 -7.36101e-07 -5.76024e-06 -3.2634e-05 -3.44682e-06 -1.90201e-05 3.67038e-05 -2.18912e-07 -1.53519e-05 
1.79129e-06 -4.05524e-06 1.39735e-06 -8.02319e-06 2.58419e-05 3.14388e-06 -7.9108e-07 -1.8388e-06 -6.19709e-07 -5.71123e-06 -3.67012e-05 -2.48816e-06 -2.04081e-05 4.257e-05 2.83176e-07 -1.67292e-05 
-6.94299e-06 -4.06995e-06 2.20052e-05 1.84711e-05 2.38611e-05 -1.7912e-05 3.74201e-06 -5.1271e-06 4.21907e-06 1.50506e-07 -3.71242e-05 1.1296e-05 -1.0529e-05 5.56306e-05 4.91525e-06 -1.1202e-05 
-4.81662e-06 -3.44312e-06 1.52768e-05 1.20435e-05 2.14128e-05 -1.27754e-05 2.12254e-06 -4.15925e-06 2.50078e-06 -1.03964e-07 -3.25883e-05 7.9798e-06 -1.04691e-05 4.75674e-05 3.56428e-06 -1.06588e-05 
-3.19081e-06 -5.25001e-06 1.34554e-05 5.67647e-06 3.34635e-05 -9.37163e-06 9.81564e-07 -4.83218e-06 1.58154e-06 -2.94816e-06 -4.954e-05 5.37168e-06 -2.05978e-05 6.63359e-05 3.14386e-06 -1.89112e-05 
-5.5959e-06 -4.71674e-06 1.81286e-05 1.34975e-05 3.00736e-05 -1.52992e-05 2.11177e-06 -5.40836e-06 2.54484e-06 -4.11667e-07 -4.5064e-05 9.6063e-06 -1.54835e-05 6.46934e-05 4.45993e-06 -1.54231e-05 
9.71683e-07 -6.11296e-06 5.45458e-06 -7.07904e-06 3.90175e-05 4.30716e-07 -7.07649e-07 -3.55175e-06 -3.51176e-07 -6.99257e-06 -5.59769e-05 -9.78831e-07 -2.88599e-05 6.78702e-05 1.3335e-06 -2.43626e-05 
2.1862e-06 -3.61857e-06 9.76621e-08 -8.91956e-06 2.3152e-05 4.28687e-06 -8.80242e-07 -1.41797e-06 -7.27341e-07 -5.67125e-06 -3.2719e-05 -3.20753e-06 -1.89469e-05 3.69591e-05 -8.91028e-08 -1.53092e-05 
-5.22717e-06 -3.99488e-06 1.76699e-05 1.32504e-05 2.3827e-05 -1.37895e-05 2.73445e-06 -4.41152e-06 3.10591e-06 -8.0884e-07 -3.63773e-05 8.62693e-06 -1.21197e-05 5.23683e-05 3.99514e-06 -1.1985e-05 
