2.53258e-06 -3.75411e-06 -4.39933e-07 -1.01248e-05 2.42538e-05 5.16367e-06 -9.51255e-07 -1.4561e-06 -7.6402e-07 -6.18405e-06 -3.42207e-05 -3.8289e-06 -2.01168e-05 3.82413e-05 -2.82491e-07 -1.62296e-05 
1.76955e-06 -4.80914e-06 2.48813e-06 -8.45857e-06 3.04481e-05 2.89517e-06 -7.15694e-07 -2.23568e-06 -6.09257e-07 -6.55772e-06 -4.33062e-05 -2.32203e-06 -2.37641e-05 5.07502e-05 5.54982e-07 -1.95136e-05 
1.7658e-06 -5.00863e-06 2.52404e-06 -8.80425e-06 3.23079e-05 2.85812e-06 -8.0547e-07 -2.6072e-06 -5.34658e-07 -6.72692e-06 -4.60473e-05 -2.45494e-06 -2.49968e-05 5.42172e-05 5.01052e-07 -2.075e-05 
4.32369e-06 -3.4416e-06 -4.3949e-06 -1.52172e-05 2.25567e-05 9.75285e-06 -1.50925e-06 -6.23145e-07 -1.27941e-06 -7.52439e-06 -3.1281e-05 -6.88092e-06 -2.08485e-05 3.16249e-05 -1.40756e-06 -1.6203e-05 
1.76125e-06 -4.57537e-06 2.0858e-06 -8.36975e-06 2.92564e-05 2.96614e-06 -7.44204e-07 -2.2182e-06 -5.68373e-07 -6.27972e-06 -4.15954e-05 -2.40559e-06 -2.28294e-05 4.86973e-05 4.30926e-07 -1.88354e-05 
5.35189e-07 -5.77487e-06 5.98762e-06 -5.82142e-06 3.70915e-05 -3.43288e-07 -4.13443e-07 -3.58028e-06 -8.90076e-08 -6.52541e-06 -5.33207e-05 -4.37115e-07 -2.71386e-05 6.52361e-05 1.33954e-06 -2.30297e-05 
3.55015e-06 -3.90321e-06 -2.23894e-06 -1.30868e-05 2.5019e-05 7.63386e-06 -1.254e-06 -1.0596e-06 -1.11722e-06 -7.23313e-06 -3.49476e-05 -5.40597e-06 -2.17504e-05 3.74804e-05 -7.41246e-07 -1.72115e-05 
1.48185e-06 -4.71309e-06 2.83375e-06 -7.74205e-06 3.0212e-05 2.2611e-06 -6.51593e-07 -2.42801e-06 -4.76359e-07 -6.237e-06 -4.30929e-05 -1.97048e-06 -2.32776e-05 5.09746e-05 5.91309e-07 -1.92724e-05 
1.7039e-06 -5.72812e-06 3.60653e-06 -9.0779e-06 3.67018e-05 2.47309e-06 -7.74747e-07 -2.99987e-06 -5.49149e-07 -7.43435e-06 -5.2371e-05 -2.21313e-06 -2.81258e-05 6.2129e-05 7.94526e-07 -2.33603e-05 
1.0152e-06 -3.96752e-06 2.98051e-06 -5.72216e-06 2.5251e-05 1.31811e-06 -4.10991e-07 -2.08645e-06 -2.82093e-07 -5.07201e-06 -3.60698e-05 -1.23892e-06 -1.92207e-05 4.29952e-05 6.63623e-07 -1.59734e-05 
2.96801e-06 -3.94645e-06 -1.08424e-06 -1.1451e-05 2.53141e-05 6.16089e-06 -1.09392e-06 -1.32478e-06 -9.65306e-07 -6.73119e-06 -3.5533e-05 -4.4373e-06 -2.13253e-05 3.91899e-05 -4.14151e-07 -1.70692e-05 
2.97365e-06 -3.30954e-06 -1.79937e-06 -1.12597e-05 2.17529e-05 6.49543e-06 -1.06401e-06 -1.13657e-06 -7.6199e-07 -6.26293e-06 -3.06232e-05 -4.79378e-06 -1.88565e-05 3.29762e-05 -7.7683e-07 -1.5029e-05 
6.14704e-07 -4.09857e-06 3.97463e-06 -4.62516e-06 2.6039e-05 2.92367e-07 -2.69437e-07 -2.32773e-06 -1.28223e-07 -4.86725e-06 -3.73218e-05 -5.73426e-07 -1.93503e-05 4.5197e-05 9.19102e-07 -1.62435e-05 
-6.42224e-06 -3.9263e-06 2.05417e-05 1.69052e-05 2.32043e-05 -1.65311e-05 3.53517e-06 -4.88008e-06 3.95339e-06 -1.00913e-07 -3.59052e-05 1.04535e-05 -1.0539e-05 5.33847e-05 4.56735e-06 -1.10802e-05 
7.87482e-07 -5.25242e-06 4.81285e-06 -6.27881e-06 3.39684e-05 4.10743e-07 -4.94819e-07 -3.1766e-06 -2.08133e-07 -6.21371e-06 -4.88014e-05 -9.0446e-07 -2.52326e-05 5.91833e-05 1.04114e-06 -2.12469e-05 
-1.12346e-05 -8.36163e-06 3.52871e-05 2.71933e-05 5.19826e-05 -2.96973e-05 4.79514e-06 -9.78706e-06 5.39809e-06 -5.01053e-07 -7.88404e-05 1.85989e-05 -2.60718e-05 0.000114589 8.30139e-06 -2.60941e-05 
-9.52009e-06 -6.77037e-06 2.96199e-05 2.32924e-05 4.24227e-05 -2.50495e-05 4.11796e-06 -8.35555e-06 4.88557e-06 -1.47807e-07 -6.46814e-05 1.55201e-05 -2.08492e-05 9.43445e-05 6.86061e-06 -2.12864e-05 
-6.62533e-06 -4.38374e-06 2.11849e-05 1.71253e-05 2.62109e-05 -1.72739e-05 3.41792e-06 -5.25511e-06 3.8057e-06 -1.53481e-07 -4.02192e-05 1.09339e-05 -1.23558e-05 5.92535e-05 4.86307e-06 -1.27568e-05 
-7.0622e-06 -4.53303e-06 2.25238e-05 1.83082e-05 2.71119e-05 -1.83102e-05 3.70372e-06 -5.54745e-06 4.15435e-06 -1.37153e-07 -4.17379e-05 1.15561e-05 -1.26374e-05 6.1678e-05 5.09181e-06 -1.31302e-05 
-5.13085e-06 -3.71565e-06 1.70627e-05 1.30722e-05 2.22925e-05 -1.33964e-05 2.76927e-06 -4.28913e-06 3.13414e-06 -6.38165e-07 -3.40945e-05 8.4114e-06 -1.10824e-05 4.93868e-05 3.82324e-06 -1.11467e-05 
-1.88677e-06 -4.04802e-06 9.09583e-06 2.69765e-06 2.6002e-05 -5.85778e-06 6.15934e-07 -3.47032e-06 9.08827e-07 -2.71987e-06 -3.80716e-05 3.40583e-06 -1.6577e-05 5.01828e-05 2.18519e-06 -1.49427e-05 
2.59705e-06 -3.65352e-06 -6.30554e-07 -1.01594e-05 2.34115e-05 5.34611e-06 -9.45187e-07 -1.29002e-06 -8.04706e-07 -6.13912e-06 -3.29614e-05 -3.89408e-06 -1.95981e-05 3.65619e-05 -3.10549e-07 -1.57199e-05 
-4.98618e-06 -3.99021e-06 1.65274e-05 1.22345e-05 2.44282e-05 -1.32302e-05 2.3734e-06 -4.47336e-06 2.72822e-06 -7.06271e-07 -3.70214e-05 8.26752e-06 -1.25804e-05 5.31335e-05 3.82209e-06 -1.24662e-05 
2.60017e-06 -3.75439e-06 -5.49034e-07 -1.02712e-05 2.40918e-05 5.32063e-06 -9.55791e-07 -1.34928e-06 -8.34795e-07 -6.24312e-06 -3.39124e-05 -3.87389e-06 -2.00926e-05 3.77552e-05 -2.84208e-07 -1.61268e-05 
-1.10421e-05 -8.04953e-06 3.40894e-05 2.66389e-05 5.11268e-05 -2.92454e-05 4.47421e-06 -1.00506e-05 5.49025e-06 -4.29311e-08 -7.78956e-05 1.79734e-05 -2.53842e-05 0.000113207 7.9939e-06 -2.59036e-05 
3.17087e-06 -4.87377e-06 3.73186e-07 -1.21961e-05 3.02432e-05 6.41287e-06 -8.54213e-07 -1.53764e-06 -7.87562e-07 -8.13174e-06 -4.26081e-05 -4.56005e-06 -2.52562e-05 4.73037e-05 -9.53818e-08 -2.01495e-05 
-5.9378e-06 -3.39474e-06 1.89259e-05 1.58172e-05 1.99867e-05 -1.51388e-05 3.40292e-06 -4.41563e-06 3.85379e-06 -1.72736e-08 -3.11678e-05 9.53926e-06 -8.75652e-06 4.66956e-05 4.10571e-06 -9.4133e-06 
3.01633e-06 -3.72913e-06 -1.41055e-06 -1.14153e-05 2.39053e-05 6.34571e-06 -1.08339e-06 -1.16276e-06 -9.61999e-07 -6.56056e-06 -3.35031e-05 -4.53742e-06 -2.03783e-05 3.65719e-05 -4.97881e-07 -1.62373e-05 
-6.52947e-07 -3.83845e-06 6.65898e-06 -6.1444e-07 2.40977e-05 -2.66057e-06 4.16448e-07 -2.66371e-06 6.218e-07 -3.76954e-06 -3.50474e-05 1.356e-06 -1.67487e-05 4.41479e-05 1.49345e-06 -1.44572e-05 
4.11682e-06 -3.60958e-06 -3.79268e-06 -1.47913e-05 2.37033e-05 9.20287e-06 -1.46028e-06 -8.36302e-07 -1.2106e-06 -7.53461e-06 -3.30094e-05 -6.5559e-06 -2.14604e-05 3.41054e-05 -1.27175e-06 -1.67997e-05 
3.81336e-06 -3.93617e-06 -2.83915e-06 -1.40993e-05 2.57068e-05 8.31874e-06 -1.38358e-06 -1.13387e-06 -1.16273e-06 -7.54484e-06 -3.59234e-05 -5.96203e-06 -2.2535e-05 3.8266e-05 -9.75016e-07 -1.78362e-05 
4.14014e-06 -3.65139e-06 -3.77233e-06 -1.47856e-05 2.38049e-05 9.21467e-06 -1.45941e-06 -8.03405e-07 -1.23795e-06 -7.54832e-06 -3.31165e-05 -6.52576e-06 -2.15303e-05 3.42135e-05 -1.2201e-06 -1.68536e-05 
-1.10338e-05 -7.94285e-06 3.4306e-05 2.67841e-05 4.97798e-05 -2.90042e-05 4.68561e-06 -9.69278e-06 5.52658e-06 -2.8948e-07 -7.57389e-05 1.79857e-05 -2.46155e-05 0.000110421 7.91984e-06 -2.5003e-05 
-9.23756e-06 -6.16698e-06 2.88241e-05 2.3171e-05 3.81649e-05 -2.41054e-05 4.34069e-06 -7.75662e-06 5.06663e-06 -2.39784e-08 -5.85046e-05 1.5014e-05 -1.8234e-05 8.59443e-05 6.57708e-06 -1.88574e-05 
-6.7448e-06 -4.26115e-06 2.15898e-05 1.76181e-05 2.53009e-05 -1.74584e-05 3.62007e-06 -5.2039e-06 4.02983e-06 -1.3735e-07 -3.90245e-05 1.10438e-05 -1.17006e-05 5.77797e-05 4.86337e-06 -1.21716e-05 
2.94198e-06 -4.02457e-06 -9.23978e-07 -1.13502e-05 2.56774e-05 6.04246e-06 -1.08349e-06 -1.34222e-06 -9.76647e-07 -6.74571e-06 -3.60369e-05 -4.33445e-06 -2.15345e-05 3.98696e-05 -3.34495e-07 -1.72565e-05 
-1.9883e-06 -3.45703e-06 9.12874e-06 3.58949e-06 2.15762e-05 -5.78045e-06 1.00468e-06 -2.97798e-06 1.25477e-06 -2.3819e-06 -3.18875e-05 3.41638e-06 -1.35846e-05 4.22645e-05 2.05787e-06 -1.22455e-05 
-5.25195e-06 -3.48021e-06 1.70682e-05 1.35131e-05 2.10151e-05 -1.35767e-05 2.85254e-06 -4.29484e-06 3.29385e-06 -3.71423e-07 -3.23786e-05 8.47604e-06 -1.00612e-05 4.739e-05 3.75491e-06 -1.03673e-05 
-2.6073e-06 -4.53548e-06 1.39761e-05 5.8701e-06 2.62126e-05 -7.3716e-06 2.28517e-06 -3.35554e-06 2.54041e-06 -4.02073e-06 -3.89742e-05 4.55018e-06 -1.67957e-05 5.09924e-05 2.92704e-06 -1.48082e-05 
8.74533e-07 -4.0576e-06 3.33182e-06 -5.43322e-06 2.59802e-05 9.56916e-07 -3.90006e-07 -2.27513e-06 -1.95421e-07 -5.04346e-06 -3.71966e-05 -1.06231e-06 -1.95683e-05 4.46302e-05 7.25463e-07 -1.63804e-05 
-3.97007e-06 -3.45511e-06 1.42254e-05 9.73132e-06 2.09155e-05 -1.04482e-05 2.29533e-06 -3.71208e-06 2.65404e-06 -1.32818e-06 -3.17575e-05 6.46446e-06 -1.13198e-05 4.46752e-05 3.08392e-06 -1.09278e-05 
-7.43435e-06 -4.97762e-06 2.34305e-05 1.88284e-05 3.04444e-05 -1.93975e-05 3.60021e-06 -6.14891e-06 4.15268e-06 -1.00608e-07 -4.66739e-05 1.21334e-05 -1.45121e-05 6.85791e-05 5.35122e-06 -1.49968e-05 
3.62319e-06 -5.50181e-06 2.8079e-07 -1.43058e-05 3.46425e-05 7.51175e-06 -1.1115e-06 -1.90279e-06 -8.39888e-07 -9.38537e-06 -4.90581e-05 -5.56372e-06 -2.90376e-05 5.44869e-05 -3.59492e-07 -2.31806e-05 
1.44716e-06 -4.79955e-06 3.01404e-06 -7.58115e-06 3.05846e-05 2.12076e-06 -6.43817e-07 -2.46133e-06 -4.65754e-07 -6.23139e-06 -4.36001e-05 -1.85831e-06 -2.34422e-05 5.16931e-05 6.79348e-07 -1.94712e-05 
-5.51946e-06 -3.66898e-06 1.81714e-05 1.43547e-05 2.17467e-05 -1.42563e-05 3.10314e-06 -4.37165e-06 3.49297e-06 -4.95672e-07 -3.34926e-05 8.97503e-06 -1.04022e-05 4.90597e-05 3.99879e-06 -1.06447e-05 
-3.27885e-06 -3.94433e-06 1.24224e-05 7.14185e-06 2.51077e-05 -9.21971e-06 1.37661e-06 -3.92329e-06 1.70083e-06 -1.70487e-06 -3.71952e-05 5.68992e-06 -1.45056e-05 5.11615e-05 2.93857e-06 -1.36516e-05 
-5.3941e-06 -4.61281e-06 1.76415e-05 1.29606e-05 2.93098e-05 -1.46993e-05 2.12337e-06 -5.20926e-06 2.48169e-06 -5.59186e-07 -4.38401e-05 9.27606e-06 -1.5195e-05 6.28461e-05 4.32102e-06 -1.50671e-05 
2.33031e-06 -5.31977e-06 1.73584e-06 -1.08397e-05 3.4612e-05 4.20224e-06 -1.0202e-06 -2.66094e-06 -7.03738e-07 -7.61495e-06 -4.92431e-05 -3.43027e-06 -2.73029e-05 5.72392e-05 2.16575e-07 -2.24905e-05 
-7.76735e-06 -6.89415e-06 2.50396e-05 1.8234e-05 4.39061e-05 -2.135e-05 2.73367e-06 -7.69115e-06 3.23053e-06 -6.75123e-07 -6.56223e-05 1.33939e-05 -2.30097e-05 9.37964e-05 6.30721e-06 -2.2728e-05 
3.60736e-06 -1.0359e-05 6.89858e-06 -1.68464e-05 6.37039e-05 5.92729e-06 -1.0507e-06 -4.40666e-06 -8.26859e-07 -1.44061e-05 -9.07235e-05 -4.68703e-06 -4.98602e-05 0.000106069 1.4211e-06 -4.07641e-05 
1.07039e-06 -3.22664e-06 2.2376e-06 -5.48862e-06 2.08605e-05 1.84286e-06 -2.69122e-07 -1.78687e-06 4.28311e-08 -4.65103e-06 -2.99561e-05 -1.70159e-06 -1.62473e-05 3.50991e-05 2.47252e-07 -1.34779e-05 
2.76674e-06 -5.15536e-06 7.95409e-07 -1.16727e-05 3.2898e-05 5.27141e-06 -1.08333e-06 -2.13519e-06 -9.32496e-07 -7.75908e-06 -4.64999e-05 -3.94018e-06 -2.65258e-05 5.31336e-05 9.08897e-08 -2.15754e-05 
-1.95195e-05 -1.52069e-05 5.93245e-05 4.57384e-05 9.90781e-05 -5.25972e-05 6.75427e-06 -1.93833e-05 9.07166e-06 5.25229e-07 -0.000150584 3.18094e-05 -5.01299e-05 0.000217066 1.44961e-05 -5.13182e-05 
-3.48485e-06 -3.47546e-06 1.21176e-05 7.90441e-06 2.23377e-05 -9.55287e-06 1.39468e-06 -3.79769e-06 1.76136e-06 -1.02651e-06 -3.33402e-05 5.87381e-06 -1.23078e-05 4.67323e-05 2.83796e-06 -1.18945e-05 
-3.32118e-07 -3.1239e-06 5.1344e-06 -1.17193e-06 2.03222e-05 -1.64075e-06 2.81495e-07 -2.317e-06 5.93358e-07 -3.36523e-06 -2.94857e-05 6.76763e-07 -1.42656e-05 3.68469e-05 1.0147e-06 -1.23559e-05 
5.78867e-06 -5.09339e-06 -4.93486e-06 -2.02632e-05 3.21902e-05 1.28535e-05 -1.90297e-06 -7.37644e-07 -1.80038e-06 -1.05835e-05 -4.46134e-05 -8.89555e-06 -2.942e-05 4.56594e-05 -1.5317e-06 -2.27559e-05 
2.23268e-07 -7.24075e-06 8.14577e-06 -6.20202e-06 4.71443e-05 -1.62353e-06 -4.94186e-07 -4.89413e-06 1.58936e-08 -7.65662e-06 -6.80279e-05 1.09754e-07 -3.39434e-05 8.40193e-05 1.87673e-06 -2.90807e-05 
-6.93519e-06 -5.79696e-06 2.20103e-05 1.61577e-05 3.76316e-05 -1.87749e-05 2.48925e-06 -6.87262e-06 3.07646e-06 -5.27205e-07 -5.64824e-05 1.16315e-05 -1.95506e-05 8.10243e-05 5.2994e-06 -1.94445e-05 
-6.64523e-06 -5.72262e-06 2.14006e-05 1.56892e-05 3.662e-05 -1.81222e-05 2.43704e-06 -6.53919e-06 2.92508e-06 -5.72746e-07 -5.48055e-05 1.13452e-05 -1.90447e-05 7.85209e-05 5.27117e-06 -1.8912e-05 
4.35942e-06 -3.3248e-06 -4.63216e-06 -1.53492e-05 2.2034e-05 9.91414e-06 -1.52653e-06 -6.15866e-07 -1.24701e-06 -7.48178e-06 -3.05679e-05 -7.03553e-06 -2.0528e-05 3.06658e-05 -1.52145e-06 -1.59416e-05 
-2.54438e-06 -3.37168e-06 1.09046e-05 5.58544e-06 2.04486e-05 -6.99227e-06 1.59905e-06 -3.03897e-06 1.8846e-06 -2.23282e-06 -3.05632e-05 4.23305e-06 -1.24028e-05 4.11074e-05 2.34204e-06 -1.13295e-05 
-1.43111e-05 -1.10516e-05 4.40849e-05 3.36274e-05 7.0587e-05 -3.8155e-05 5.33448e-06 -1.33769e-05 6.48173e-06 -3.18575e-07 -0.000106906 2.34924e-05 -3.58575e-05 0.000154615 1.05092e-05 -3.60559e-05 
-4.8264e-06 -3.71235e-06 1.53414e-05 1.14692e-05 2.44669e-05 -1.28403e-05 1.93977e-06 -4.71351e-06 2.46635e-06 -3.75172e-07 -3.68925e-05 7.90394e-06 -1.2445e-05 5.32201e-05 3.48241e-06 -1.25614e-05 
1.09712e-06 -6.4349e-06 5.46185e-06 -8.14663e-06 4.18416e-05 8.61061e-07 -6.98732e-07 -3.94816e-06 -2.74739e-07 -7.68069e-06 -6.00111e-05 -1.38206e-06 -3.11008e-05 7.26712e-05 1.14573e-06 -2.62889e-05 
3.49918e-06 -6.91556e-06 2.28761e-06 -1.4486e-05 4.28033e-05 6.60668e-06 -1.1096e-06 -2.56462e-06 -9.71012e-07 -1.04837e-05 -6.06513e-05 -4.87956e-06 -3.46254e-05 6.91655e-05 3.80749e-07 -2.79651e-05 
5.11426e-06 -4.197e-06 -4.15402e-06 -1.71694e-05 2.54089e-05 1.14514e-05 -1.44791e-06 -1.34113e-07 -1.45813e-06 -9.17206e-06 -3.50683e-05 -7.75979e-06 -2.39364e-05 3.47469e-05 -1.28158e-06 -1.81915e-05 
8.338e-07 -3.43148e-06 2.77091e-06 -4.86698e-06 2.20225e-05 1.08016e-06 -3.02631e-07 -1.9135e-06 -1.00647e-07 -4.44855e-06 -3.15585e-05 -1.10666e-06 -1.67311e-05 3.7639e-05 5.37922e-07 -1.39611e-05 
1.12974e-05 -6.78292e-06 -1.29485e-05 -3.62657e-05 4.06435e-05 2.58282e-05 -3.34832e-06 1.27521e-06 -3.66489e-06 -1.72256e-05 -5.48294e-05 -1.70753e-05 -4.1525e-05 4.9068e-05 -3.46401e-06 -3.05842e-05 
1.89937e-06 -4.90355e-06 2.14154e-06 -9.101e-06 3.16361e-05 3.2024e-06 -8.28163e-07 -2.47776e-06 -5.84489e-07 -6.72661e-06 -4.50477e-05 -2.65456e-06 -2.46722e-05 5.27431e-05 4.22079e-07 -2.04057e-05 
2.51232e-06 -3.55638e-06 -6.41774e-07 -1.00552e-05 2.32489e-05 5.23711e-06 -9.42078e-07 -1.44754e-06 -6.72207e-07 -6.03749e-06 -3.28601e-05 -3.94583e-06 -1.93931e-05 3.65531e-05 -4.15536e-07 -1.56658e-05 
2.81145e-06 -4.20011e-06 -2.28092e-07 -1.09864e-05 2.64835e-05 5.69111e-06 -9.70143e-07 -1.40529e-06 -8.84161e-07 -6.90762e-06 -3.72844e-05 -4.09457e-06 -2.20628e-05 4.15273e-05 -1.82685e-07 -1.7663e-05 
1.85379e-06 -4.79131e-06 2.31104e-06 -8.59555e-06 3.01769e-05 3.09151e-06 -7.21859e-07 -2.144e-06 -6.473e-07 -6.57686e-06 -4.28403e-05 -2.40191e-06 -2.36273e-05 5.00551e-05 5.47821e-07 -1.93779e-05 
-6.55886e-06 -5.69278e-06 2.12123e-05 1.55461e-05 3.62336e-05 -1.79078e-05 2.41154e-06 -6.41785e-06 2.86998e-06 -5.98487e-07 -5.41669e-05 1.12467e-05 -1.88408e-05 7.76117e-05 5.24377e-06 -1.86946e-05 
2.44089e-06 -3.56485e-06 -4.51289e-07 -9.6427e-06 2.28586e-05 4.97742e-06 -8.97267e-07 -1.30052e-06 -7.63147e-07 -5.89407e-06 -3.21952e-05 -3.63833e-06 -1.90196e-05 3.58844e-05 -2.50706e-07 -1.52949e-05 
-2.86673e-07 -6.34336e-06 8.29888e-06 -3.83006e-06 4.07929e-05 -2.61784e-06 -1.96075e-07 -4.31599e-06 1.74539e-07 -6.3186e-06 -5.89753e-05 9.72187e-07 -2.8897e-05 7.3573e-05 1.98108e-06 -2.48564e-05 
-6.85436e-06 -5.78092e-06 2.18444e-05 1.6031e-05 3.73244e-05 -1.85738e-05 2.47679e-06 -6.76535e-06 3.03132e-06 -5.54857e-07 -5.59449e-05 1.15517e-05 -1.9382e-05 8.02587e-05 5.28498e-06 -1.92771e-05 
-1.18219e-05 -1.09363e-05 3.7915e-05 2.69544e-05 6.9521e-05 -3.26656e-05 3.87773e-06 -1.17519e-05 4.26378e-06 -1.22263e-06 -0.000103629 2.06051e-05 -3.71278e-05 0.000147618 9.76581e-06 -3.6073e-05 
-4.68453e-06 -1.15009e-05 2.27531e-05 4.05936e-06 7.57723e-05 -1.48498e-05 8.38853e-07 -1.00786e-05 1.67825e-06 -7.96945e-06 -0.000110968 8.13958e-06 -4.93483e-05 0.000145297 5.42204e-06 -4.41336e-05 
-7.82114e-06 -5.40214e-06 2.47166e-05 1.96896e-05 3.30539e-05 -2.05152e-05 3.71424e-06 -6.53342e-06 4.23795e-06 -1.63439e-07 -5.0525e-05 1.28661e-05 -1.5966e-05 7.39971e-05 5.72562e-06 -1.63582e-05 
-8.43416e-06 -5.50283e-06 2.64797e-05 2.14289e-05 3.36259e-05 -2.19107e-05 4.15364e-06 -6.87308e-06 4.75468e-06 -6.38154e-08 -5.16175e-05 1.37342e-05 -1.58636e-05 7.6098e-05 5.99966e-06 -1.64578e-05 
-1.55348e-05 -1.2227e-05 4.83038e-05 3.65432e-05 7.73708e-05 -4.153e-05 5.86961e-06 -1.43207e-05 6.84257e-06 -6.08185e-07 -0.000116937 2.57771e-05 -3.95807e-05 0.000168917 1.16246e-05 -3.94206e-05 
-1.78895e-06 -4.03197e-06 9.71266e-06 2.793e-06 2.48694e-05 -5.43592e-06 1.07797e-06 -3.15904e-06 1.31258e-06 -3.27081e-06 -3.65686e-05 3.18783e-06 -1.6227e-05 4.75999e-05 2.1726e-06 -1.43623e-05 
-6.01018e-06 -5.1483e-06 1.94723e-05 1.42936e-05 3.28528e-05 -1.63623e-05 2.2812e-06 -5.86295e-06 2.70589e-06 -5.70899e-07 -4.91472e-05 1.02798e-05 -1.70491e-05 7.04564e-05 4.7709e-06 -1.69315e-05 
2.33486e-06 -5.43714e-06 1.94084e-06 -1.07685e-05 3.50406e-05 4.14607e-06 -9.93462e-07 -2.63588e-06 -7.21328e-07 -7.69735e-06 -4.98154e-05 -3.33698e-06 -2.75901e-05 5.79381e-05 3.24305e-07 -2.27209e-05 
-7.52447e-06 -6.76264e-06 2.44406e-05 1.77557e-05 4.27421e-05 -2.07265e-05 2.67559e-06 -7.38201e-06 3.0935e-06 -7.24096e-07 -6.3777e-05 1.30805e-05 -2.24236e-05 9.1143e-05 6.19576e-06 -2.20891e-05 
-9.93687e-06 -6.88392e-06 3.10673e-05 2.47659e-05 4.26962e-05 -2.6125e-05 4.52974e-06 -8.50637e-06 5.28234e-06 -4.59994e-08 -6.52704e-05 1.62827e-05 -2.06839e-05 9.54848e-05 7.22833e-06 -2.12498e-05 
3.14486e-06 -3.63157e-06 -1.85527e-06 -1.19274e-05 2.37154e-05 6.74678e-06 -1.15216e-06 -1.20267e-06 -9.40524e-07 -6.6329e-06 -3.32841e-05 -4.89894e-06 -2.04003e-05 3.60703e-05 -6.96439e-07 -1.62573e-05 
-2.0825e-06 -3.49316e-06 9.32412e-06 3.79686e-06 2.20529e-05 -6.03935e-06 9.95854e-07 -3.09997e-06 1.26655e-06 -2.32257e-06 -3.2555e-05 3.5814e-06 -1.3766e-05 4.33257e-05 2.10313e-06 -1.24751e-05 
3.07479e-06 -4.84265e-06 -1.91046e-07 -1.23546e-05 3.09373e-05 6.14072e-06 -1.1679e-06 -1.82268e-06 -1.0159e-06 -7.73122e-06 -4.35892e-05 -4.49513e-06 -2.54576e-05 4.90105e-05 -1.83085e-07 -2.05512e-05 
1.53638e-06 -5.3072e-06 3.36021e-06 -8.28749e-06 3.40546e-05 2.16146e-06 -7.2912e-07 -2.81713e-06 -5.16457e-07 -6.79862e-06 -4.8593e-05 -1.9664e-06 -2.60115e-05 5.77552e-05 7.68692e-07 -2.16523e-05 
-7.71233e-06 -4.93952e-06 2.4431e-05 1.98881e-05 2.97341e-05 -2.00051e-05 3.98148e-06 -6.0853e-06 4.45494e-06 -9.26458e-08 -4.57312e-05 1.26297e-05 -1.38763e-05 6.76009e-05 5.53469e-06 -1.44003e-05 
2.31189e-06 -4.93244e-06 2.17001e-06 -9.77777e-06 3.05777e-05 4.28564e-06 -5.87372e-07 -1.91306e-06 -5.13356e-07 -7.45941e-06 -4.33701e-05 -3.17762e-06 -2.46022e-05 4.96496e-05 3.64484e-07 -1.98922e-05 
-2.19231e-06 -1.0918e-05 1.76775e-05 -2.11411e-06 7.0763e-05 -8.50192e-06 2.00059e-07 -8.31273e-06 9.95491e-07 -9.65959e-06 -0.000102969 4.11696e-06 -4.8454e-05 0.000131154 4.06387e-06 -4.23178e-05 
-6.69071e-06 -3.99483e-06 2.1293e-05 1.77012e-05 2.35802e-05 -1.71889e-05 3.71623e-06 -5.03539e-06 4.14999e-06 -1.18892e-08 -3.65298e-05 1.08938e-05 -1.05379e-05 5.4515e-05 4.73173e-06 -1.11852e-05 
-5.09596e-06 -4.26894e-06 1.66254e-05 1.22683e-05 2.72584e-05 -1.38237e-05 2.04042e-06 -4.91758e-06 2.41814e-06 -5.10982e-07 -4.08283e-05 8.69705e-06 -1.40651e-05 5.86059e-05 4.01651e-06 -1.3999e-05 
1.56034e-06 -4.50537e-06 2.5156e-06 -7.65881e-06 2.85506e-05 2.49013e-06 -6.26397e-07 -2.1485e-06 -5.22772e-07 -6.07124e-06 -4.06245e-05 -2.02912e-06 -2.21717e-05 4.77742e-05 5.59391e-07 -1.82558e-05 
-6.62077e-06 -5.7726e-06 2.14347e-05 1.57064e-05 3.67322e-05 -1.81188e-05 2.42926e-06 -6.49613e-06 2.88943e-06 -5.93826e-07 -5.49206e-05 1.13796e-05 -1.91203e-05 7.86394e-05 5.32753e-06 -1.89652e-05 
-4.84304e-06 -3.40409e-06 1.58666e-05 1.23034e-05 2.0654e-05 -1.26115e-05 2.55327e-06 -4.07789e-06 2.9501e-06 -4.64193e-07 -3.16524e-05 7.87149e-06 -1.01456e-05 4.60073e-05 3.53274e-06 -1.0312e-05 
-2.10494e-06 -4.10604e-06 1.00104e-05 3.39848e-06 2.62677e-05 -6.34897e-06 8.67576e-07 -3.55618e-06 1.16281e-06 -2.83474e-06 -3.85539e-05 3.74476e-06 -1.66474e-05 5.09706e-05 2.31472e-06 -1.49905e-05 
2.08651e-06 -4.85091e-06 1.75987e-06 -9.52877e-06 3.09939e-05 3.66449e-06 -8.49266e-07 -2.20511e-06 -7.50552e-07 -6.85225e-06 -4.396e-05 -2.83599e-06 -2.44722e-05 5.1093e-05 3.69931e-07 -2.0029e-05 
-5.0239e-06 -3.60673e-06 1.64809e-05 1.26789e-05 2.18857e-05 -1.31261e-05 2.60771e-06 -4.23729e-06 2.96797e-06 -5.20494e-07 -3.34596e-05 8.2207e-06 -1.08628e-05 4.85448e-05 3.70349e-06 -1.09411e-05 
-4.28317e-06 -3.94125e-06 1.43771e-05 9.88786e-06 2.54289e-05 -1.16725e-05 1.68243e-06 -4.46199e-06 2.09207e-06 -8.66776e-07 -3.80583e-05 7.20927e-06 -1.36831e-05 5.38447e-05 3.3946e-06 -1.33675e-05 
5.28295e-06 -5.50612e-06 -3.46184e-06 -1.92302e-05 3.50287e-05 1.15053e-05 -1.77645e-06 -1.26557e-06 -1.63168e-06 -1.06098e-05 -4.88961e-05 -8.09602e-06 -3.09472e-05 5.17874e-05 -1.19425e-06 -2.4238e-05 
-8.16289e-06 -6.9463e-06 2.57823e-05 1.88191e-05 4.51079e-05 -2.2162e-05 2.82627e-06 -8.16535e-06 3.47391e-06 -6.19029e-07 -6.76392e-05 1.37263e-05 -2.35778e-05 9.68864e-05 6.27957e-06 -2.33815e-05 
-1.1295e-05 -8.37226e-06 3.50232e-05 2.70566e-05 5.29215e-05 -2.99035e-05 4.56505e-06 -1.01635e-05 5.41335e-06 -2.80451e-07 -8.04036e-05 1.84954e-05 -2.65381e-05 0.00011675 8.21013e-06 -2.67553e-05 
-1.04373e-06 -3.67732e-06 6.93093e-06 4.95217e-07 2.35578e-05 -3.65753e-06 3.48704e-07 -2.83995e-06 5.76872e-07 -3.07405e-06 -3.42949e-05 2.01282e-06 -1.57756e-05 4.41089e-05 1.63506e-06 -1.38819e-05 
8.91281e-06 -5.61597e-06 -9.15669e-06 -2.83985e-05 3.27891e-05 2.04233e-05 -2.39351e-06 1.06325e-06 -2.57928e-06 -1.41777e-05 -4.44782e-05 -1.35369e-05 -3.34749e-05 3.9919e-05 -2.60988e-06 -2.46069e-05 
5.09301e-06 -4.02655e-06 -4.79236e-06 -1.74537e-05 2.53337e-05 1.14688e-05 -1.61829e-06 -3.5522e-07 -1.51418e-06 -8.89094e-06 -3.49991e-05 -7.90775e-06 -2.3768e-05 3.48439e-05 -1.48653e-06 -1.82172e-05 
-3.51176e-06 -4.41258e-06 1.33233e-05 7.26321e-06 2.80572e-05 -9.86185e-06 1.43739e-06 -4.3479e-06 1.80777e-06 -2.02533e-06 -4.16939e-05 5.95899e-06 -1.65182e-05 5.69679e-05 3.12314e-06 -1.54153e-05 
2.56495e-06 -3.58906e-06 -6.8055e-07 -1.01223e-05 2.3229e-05 5.32944e-06 -9.46802e-07 -1.3621e-06 -7.31242e-07 -6.08083e-06 -3.27564e-05 -3.94702e-06 -1.94211e-05 3.63569e-05 -3.79322e-07 -1.56434e-05 
-7.69379e-06 -6.88909e-06 2.53353e-05 1.80046e-05 4.2821e-05 -2.0925e-05 3.06995e-06 -7.3549e-06 3.42735e-06 -1.1627e-06 -6.43098e-05 1.31101e-05 -2.28462e-05 9.147e-05 6.22827e-06 -2.21784e-05 
-8.97636e-06 -6.23185e-06 2.82965e-05 2.23556e-05 3.83094e-05 -2.35036e-05 4.19169e-06 -7.51038e-06 4.7518e-06 -2.82715e-07 -5.84961e-05 1.47231e-05 -1.86669e-05 8.56079e-05 6.50407e-06 -1.8974e-05 
6.20966e-06 -4.38385e-06 -6.06349e-06 -2.04301e-05 2.64874e-05 1.4113e-05 -1.79402e-06 2.41006e-07 -1.8248e-06 -1.03442e-05 -3.62774e-05 -9.50364e-06 -2.59008e-05 3.44404e-05 -1.79292e-06 -1.94246e-05 
-7.01477e-06 -4.56776e-06 2.2118e-05 1.7882e-05 2.78431e-05 -1.8221e-05 3.48886e-06 -5.70508e-06 4.01335e-06 -8.09195e-08 -4.2803e-05 1.14011e-05 -1.31308e-05 6.30759e-05 4.99421e-06 -1.36254e-05 
-8.37705e-06 -5.73043e-06 2.65258e-05 2.11809e-05 3.49469e-05 -2.19442e-05 4.0347e-06 -6.9366e-06 4.59384e-06 -1.75763e-07 -5.34875e-05 1.37675e-05 -1.68151e-05 7.8414e-05 6.1247e-06 -1.72475e-05 
4.21811e-06 -6.73551e-06 1.75825e-07 -1.68183e-05 4.2338e-05 8.41699e-06 -1.46823e-06 -2.26517e-06 -1.44295e-06 -1.08456e-05 -5.9591e-05 -6.02257e-06 -3.50277e-05 6.68559e-05 -1.28015e-07 -2.80213e-05 
-6.40137e-06 -4.08963e-06 2.03737e-05 1.65585e-05 2.45221e-05 -1.65791e-05 3.34997e-06 -5.02703e-06 3.75686e-06 -1.25903e-07 -3.77522e-05 1.04586e-05 -1.14322e-05 5.58061e-05 4.5873e-06 -1.18668e-05 
-5.28505e-06 -4.15064e-06 1.67577e-05 1.25506e-05 2.72412e-05 -1.41335e-05 2.05043e-06 -5.21623e-06 2.64561e-06 -3.51274e-07 -4.10398e-05 8.69242e-06 -1.38633e-05 5.91436e-05 3.87491e-06 -1.40349e-05 
2.28023e-06 -3.86786e-06 2.34204e-07 -9.32794e-06 2.46559e-05 4.4581e-06 -8.57408e-07 -1.50846e-06 -7.50373e-07 -6.02118e-06 -3.47959e-05 -3.28552e-06 -2.01181e-05 3.93922e-05 -3.241e-08 -1.628e-05 
4.84682e-07 -3.15956e-06 3.18856e-06 -3.82439e-06 2.06668e-05 3.93982e-07 -1.67207e-07 -2.05814e-06 1.83597e-07 -3.99484e-06 -2.98458e-05 -7.72832e-07 -1.54098e-05 3.60189e-05 5.14264e-07 -1.30481e-05 
-1.27742e-05 -1.07732e-05 3.92337e-05 2.87529e-05 7.11578e-05 -3.46461e-05 3.95276e-06 -1.32057e-05 5.26504e-06 -4.87425e-07 -0.000107013 2.107e-05 -3.71672e-05 0.000153273 9.55127e-06 -3.71501e-05 
1.77156e-06 -6.11387e-06 3.90862e-06 -9.52055e-06 3.90643e-05 2.49086e-06 -8.16631e-07 -3.1575e-06 -6.47731e-07 -7.842e-06 -5.56977e-05 -2.20265e-06 -2.98859e-05 6.61759e-05 9.19999e-07 -2.47969e-05 
2.22021e-06 -3.86432e-06 3.70705e-07 -9.11034e-06 2.45461e-05 4.29833e-06 -8.30769e-07 -1.49721e-06 -7.44363e-07 -5.956e-06 -3.4642e-05 -3.15832e-06 -1.99776e-05 3.92989e-05 1.96452e-08 -1.61652e-05 
1.32848e-06 -3.54848e-06 1.99075e-06 -6.28352e-06 2.25372e-05 2.25958e-06 -4.38154e-07 -1.70022e-06 -2.81741e-07 -5.00658e-06 -3.21031e-05 -1.84293e-06 -1.76387e-05 3.7499e-05 3.50138e-07 -1.45097e-05 
-1.78334e-06 -3.62737e-06 8.73831e-06 2.86433e-06 2.30171e-05 -5.42825e-06 7.55978e-07 -3.06253e-06 1.00949e-06 -2.55663e-06 -3.37687e-05 3.20405e-06 -1.46519e-05 4.45286e-05 2.03358e-06 -1.31628e-05 
3.39861e-06 -7.51099e-06 2.70148e-06 -1.49577e-05 4.73811e-05 6.09615e-06 -1.25404e-06 -3.17582e-06 -1.13726e-06 -1.08076e-05 -6.71668e-05 -4.60655e-06 -3.76773e-05 7.76063e-05 5.78067e-07 -3.06988e-05 
3.91891e-06 -4.07306e-06 -2.80519e-06 -1.42034e-05 2.59779e-05 8.43369e-06 -1.38616e-06 -9.46143e-07 -1.32314e-06 -7.66166e-06 -3.61454e-05 -5.88152e-06 -2.2817e-05 3.83997e-05 -8.21893e-07 -1.7945e-05 
7.3324e-06 -6.94199e-06 -4.51698e-06 -2.50228e-05 4.17462e-05 1.61543e-05 -2.01847e-06 -6.27996e-07 -2.00269e-06 -1.41816e-05 -5.79903e-05 -1.10129e-05 -3.81891e-05 5.92713e-05 -1.49747e-06 -2.93192e-05 
-1.3013e-05 -9.49678e-06 3.99093e-05 3.12883e-05 6.09098e-05 -3.45495e-05 5.14289e-06 -1.2148e-05 6.53407e-06 1.86176e-07 -9.29271e-05 2.10764e-05 -3.01954e-05 0.000134896 9.41774e-06 -3.1053e-05 
-6.21502e-06 -3.90991e-06 1.97858e-05 1.61867e-05 2.33785e-05 -1.60761e-05 3.29852e-06 -4.8576e-06 3.72335e-06 -7.59153e-08 -3.60661e-05 1.01351e-05 -1.07833e-05 5.34091e-05 4.44654e-06 -1.12832e-05 
-4.69041e-06 -4.5438e-06 1.57449e-05 1.04454e-05 2.94384e-05 -1.28162e-05 1.70573e-06 -5.10696e-06 2.22292e-06 -1.10254e-06 -4.40707e-05 7.791e-06 -1.61323e-05 6.19674e-05 3.70799e-06 -1.56682e-05 
-3.43636e-07 -4.53084e-06 6.80338e-06 -2.4166e-06 2.92495e-05 -1.98224e-06 1.37196e-07 -3.21328e-06 5.59163e-07 -4.89737e-06 -4.2553e-05 6.26411e-07 -2.08221e-05 5.29878e-05 1.3179e-06 -1.78559e-05 
2.14867e-06 -3.83379e-06 5.60314e-07 -8.83583e-06 2.42156e-05 4.1482e-06 -7.78597e-07 -1.46885e-06 -6.94286e-07 -5.89892e-06 -3.42006e-05 -3.05165e-06 -1.96902e-05 3.88358e-05 5.38601e-08 -1.59224e-05 
-1.27317e-06 -3.68199e-06 7.41812e-06 1.17384e-06 2.36522e-05 -4.23518e-06 4.39536e-07 -2.9563e-06 6.72024e-07 -2.88387e-06 -3.44804e-05 2.40148e-06 -1.55774e-05 4.47211e-05 1.76358e-06 -1.38152e-05 
7.81575e-07 -5.13375e-06 4.69596e-06 -6.0069e-06 3.29678e-05 3.61498e-07 -4.68144e-07 -3.02644e-06 -2.42752e-07 -5.99322e-06 -4.73052e-05 -7.88453e-07 -2.4461e-05 5.73587e-05 1.10239e-06 -2.0595e-05 
-3.8892e-06 -4.22624e-06 1.38012e-05 8.57215e-06 2.72279e-05 -1.08321e-05 1.47922e-06 -4.48131e-06 1.88911e-06 -1.38339e-06 -4.04895e-05 6.64408e-06 -1.53158e-05 5.62948e-05 3.30259e-06 -1.46647e-05 
6.01218e-06 -4.62252e-06 -5.8339e-06 -2.0335e-05 2.8715e-05 1.34968e-05 -1.89185e-06 -1.80505e-07 -1.91307e-06 -1.02533e-05 -3.94643e-05 -9.15806e-06 -2.71705e-05 3.88919e-05 -1.67486e-06 -2.06876e-05 
-5.76048e-06 -4.6977e-06 1.83845e-05 1.35812e-05 3.0543e-05 -1.55091e-05 2.19647e-06 -5.65621e-06 2.7115e-06 -4.75456e-07 -4.5881e-05 9.62305e-06 -1.57534e-05 6.59351e-05 4.3488e-06 -1.57377e-05 
2.21258e-06 -8.61148e-06 6.34913e-06 -1.23849e-05 5.44956e-05 2.82094e-06 -9.58171e-07 -4.39074e-06 -7.80229e-07 -1.08908e-05 -7.78013e-05 -2.59417e-06 -4.15111e-05 9.27478e-05 1.5141e-06 -3.44139e-05 
5.05766e-06 -4.15404e-06 -4.60446e-06 -1.72756e-05 2.58658e-05 1.12521e-05 -1.60604e-06 -3.29583e-07 -1.61413e-06 -8.87015e-06 -3.56496e-05 -7.65796e-06 -2.4057e-05 3.57685e-05 -1.31564e-06 -1.84469e-05 
-7.30797e-06 -4.90175e-06 2.31018e-05 1.85572e-05 2.98558e-05 -1.90664e-05 3.5825e-06 -6.00363e-06 4.09022e-06 -1.27376e-07 -4.57474e-05 1.19644e-05 -1.42263e-05 6.72311e-05 5.28745e-06 -1.46838e-05 
-6.87125e-06 -4.36732e-06 2.19535e-05 1.79067e-05 2.59966e-05 -1.779e-05 3.65444e-06 -5.34583e-06 4.09098e-06 -1.28363e-07 -4.00598e-05 1.12426e-05 -1.20363e-05 5.92868e-05 4.95169e-06 -1.25451e-05 
-5.46922e-06 -4.18056e-06 1.83802e-05 1.37165e-05 2.52154e-05 -1.4356e-05 2.88389e-06 -4.70794e-06 3.26986e-06 -8.78906e-07 -3.84332e-05 8.98732e-06 -1.28582e-05 5.52823e-05 4.13061e-06 -1.27545e-05 
-2.93237e-06 -3.70114e-06 1.15495e-05 6.22354e-06 2.30393e-05 -8.14027e-06 1.45342e-06 -3.53276e-06 1.75501e-06 -1.95388e-06 -3.43451e-05 4.92448e-06 -1.36879e-05 4.66964e-05 2.6209e-06 -1.26838e-05 
-5.54719e-06 -4.76019e-06 1.81209e-05 1.32879e-05 3.02475e-05 -1.51213e-05 2.16396e-06 -5.36042e-06 2.52157e-06 -5.78316e-07 -4.52323e-05 9.54198e-06 -1.57073e-05 6.48267e-05 4.44491e-06 -1.55534e-05 
3.4496e-06 -4.56831e-06 -1.26977e-06 -1.31484e-05 2.90113e-05 7.09608e-06 -1.26254e-06 -1.40441e-06 -1.2119e-06 -7.7256e-06 -4.06272e-05 -5.01655e-06 -2.44785e-05 4.47467e-05 -3.92409e-07 -1.95205e-05 
-6.20312e-06 -4.3391e-06 2.03276e-05 1.58607e-05 2.60086e-05 -1.61806e-05 3.2808e-06 -5.07211e-06 3.68708e-06 -5.46007e-07 -3.98477e-05 1.01798e-05 -1.27165e-05 5.80687e-05 4.58378e-06 -1.28719e-05 
-1.3184e-05 -9.73022e-06 4.07862e-05 3.1837e-05 6.15923e-05 -3.50366e-05 5.32285e-06 -1.19764e-05 6.43664e-06 -5.04116e-08 -9.37073e-05 2.16264e-05 -3.06608e-05 0.000136092 9.67946e-06 -3.11938e-05 
-6.77925e-06 -8.33722e-06 2.43587e-05 1.36276e-05 5.34099e-05 -1.90816e-05 2.07972e-06 -8.32076e-06 2.77188e-06 -3.14462e-06 -7.92719e-05 1.14744e-05 -3.10887e-05 0.000109116 5.88079e-06 -2.9198e-05 
-6.94838e-06 -4.42295e-06 2.21757e-05 1.80307e-05 2.64141e-05 -1.79886e-05 3.67301e-06 -5.41375e-06 4.10047e-06 -1.48716e-07 -4.06988e-05 1.13616e-05 -1.22935e-05 6.01917e-05 4.99212e-06 -1.27529e-05 
2.94978e-06 -3.67675e-06 -1.39391e-06 -1.13542e-05 2.39289e-05 6.23963e-06 -1.08509e-06 -1.28881e-06 -8.80885e-07 -6.49654e-06 -3.36415e-05 -4.55553e-06 -2.03382e-05 3.6834e-05 -5.61416e-07 -1.62746e-05 
-7.3134e-06 -6.49181e-06 2.36797e-05 1.72426e-05 4.11819e-05 -2.00801e-05 2.61636e-06 -7.17999e-06 3.05892e-06 -6.82018e-07 -6.15006e-05 1.26408e-05 -2.15563e-05 8.79588e-05 5.95042e-06 -2.12779e-05 
-6.47169e-06 -4.16324e-06 2.06017e-05 1.67167e-05 2.49939e-05 -1.6786e-05 3.37044e-06 -5.10449e-06 3.77735e-06 -1.26141e-07 -3.8461e-05 1.05894e-05 -1.16929e-05 5.67972e-05 4.65713e-06 -1.21167e-05 
-8.93413e-06 -6.21508e-06 2.78147e-05 2.19759e-05 3.8873e-05 -2.34268e-05 3.96446e-06 -7.73367e-06 4.68015e-06 -1.2302e-07 -5.93985e-05 1.45197e-05 -1.89839e-05 8.68055e-05 6.38507e-06 -1.94128e-05 
-5.38075e-06 -3.93874e-06 1.75722e-05 1.34941e-05 2.4001e-05 -1.41138e-05 2.69409e-06 -4.61619e-06 3.09914e-06 -5.20623e-07 -3.66134e-05 8.82292e-06 -1.19534e-05 5.3063e-05 3.98959e-06 -1.20561e-05 
-6.06595e-06 -4.70926e-06 1.92849e-05 1.47272e-05 2.95734e-05 -1.62174e-05 2.51252e-06 -5.51657e-06 2.93283e-06 -3.20666e-07 -4.46651e-05 1.01485e-05 -1.49272e-05 6.46277e-05 4.60333e-06 -1.49958e-05 
-5.39741e-06 -4.31084e-06 1.74101e-05 1.30148e-05 2.70927e-05 -1.44389e-05 2.28897e-06 -4.98939e-06 2.66993e-06 -4.90499e-07 -4.08977e-05 9.01677e-06 -1.3892e-05 5.88689e-05 4.12101e-06 -1.38327e-05 
3.25935e-06 -3.9651e-06 -1.57477e-06 -1.21864e-05 2.52397e-05 6.84013e-06 -1.15345e-06 -1.15057e-06 -1.06839e-06 -6.98284e-06 -3.53093e-05 -4.83658e-06 -2.15807e-05 3.84208e-05 -5.03088e-07 -1.71527e-05 
-1.46201e-06 -3.79484e-06 8.26495e-06 1.74102e-06 2.38825e-05 -4.62589e-06 7.04104e-07 -3.00104e-06 9.43145e-07 -3.06218e-06 -3.5002e-05 2.62996e-06 -1.57343e-05 4.53912e-05 1.88411e-06 -1.39124e-05 
-3.81712e-06 -3.51191e-06 1.29505e-05 8.87095e-06 2.26373e-05 -1.03831e-05 1.56464e-06 -3.97493e-06 1.94174e-06 -8.48703e-07 -3.38798e-05 6.41991e-06 -1.21915e-05 4.78933e-05 3.02453e-06 -1.19047e-05 
-8.85838e-06 -6.11362e-06 2.79224e-05 2.20875e-05 3.75711e-05 -2.31713e-05 4.16089e-06 -7.38853e-06 4.71533e-06 -2.75235e-07 -5.7401e-05 1.4514e-05 -1.8274e-05 8.40506e-05 6.40116e-06 -1.85866e-05 
1.13469e-06 -3.68939e-06 2.46803e-06 -5.83545e-06 2.3417e-05 1.71867e-06 -4.20094e-07 -1.85376e-06 -2.78348e-07 -4.92565e-06 -3.34013e-05 -1.48515e-06 -1.80392e-05 3.94715e-05 5.06351e-07 -1.49259e-05 
2.48011e-06 -5.32507e-06 1.48046e-06 -1.10685e-05 3.42423e-05 4.53061e-06 -1.03297e-06 -2.46916e-06 -8.03131e-07 -7.67977e-06 -4.85428e-05 -3.53456e-06 -2.71409e-05 5.61714e-05 2.34414e-07 -2.22902e-05 
-5.37069e-06 -4.30752e-06 1.73318e-05 1.29754e-05 2.69724e-05 -1.43888e-05 2.28445e-06 -4.94914e-06 2.64498e-06 -4.7344e-07 -4.07104e-05 9.00226e-06 -1.3829e-05 5.85878e-05 4.1319e-06 -1.37669e-05 
5.53365e-06 -4.12148e-06 -5.41038e-06 -1.87083e-05 2.58217e-05 1.25403e-05 -1.66413e-06 -1.95619e-07 -1.58965e-06 -9.4498e-06 -3.55447e-05 -8.58274e-06 -2.46235e-05 3.47233e-05 -1.66626e-06 -1.87478e-05 
-6.34646e-06 -3.99621e-06 2.01402e-05 1.64219e-05 2.40261e-05 -1.63977e-05 3.33061e-06 -4.98614e-06 3.76439e-06 -9.37337e-08 -3.70485e-05 1.03192e-05 -1.1138e-05 5.48369e-05 4.50399e-06 -1.16144e-05 
2.02569e-06 -4.5554e-06 1.67094e-06 -9.00313e-06 2.88211e-05 3.62325e-06 -7.81578e-07 -1.98023e-06 -6.6694e-07 -6.5277e-06 -4.08738e-05 -2.77861e-06 -2.28533e-05 4.7324e-05 3.33107e-07 -1.86713e-05 
-3.6479e-06 -3.73836e-06 1.29359e-05 8.29022e-06 2.34003e-05 -9.98142e-06 1.59175e-06 -3.86324e-06 1.89302e-06 -1.26042e-06 -3.50002e-05 6.16144e-06 -1.30734e-05 4.88281e-05 3.03869e-06 -1.24722e-05 
-9.09414e-06 -8.02342e-06 2.89644e-05 2.08793e-05 5.15963e-05 -2.48754e-05 3.1107e-06 -9.05238e-06 3.62414e-06 -8.23573e-07 -7.71632e-05 1.55472e-05 -2.72475e-05 0.000110242 7.22769e-06 -2.67395e-05 
-5.14376e-06 -4.30774e-06 1.67623e-05 1.23772e-05 2.75227e-05 -1.39535e-05 2.05159e-06 -4.97274e-06 2.44109e-06 -5.06046e-07 -4.12282e-05 8.77165e-06 -1.41961e-05 5.91822e-05 4.05003e-06 -1.41413e-05 
3.11231e-06 -3.54898e-06 -1.65306e-06 -1.15671e-05 2.26856e-05 6.69751e-06 -1.06082e-06 -1.00021e-06 -9.04809e-07 -6.57967e-06 -3.18116e-05 -4.79417e-06 -1.96907e-05 3.42188e-05 -6.379e-07 -1.55688e-05 
-5.091e-06 -4.24385e-06 1.65476e-05 1.22086e-05 2.72493e-05 -1.378e-05 2.01438e-06 -4.97515e-06 2.4613e-06 -4.97083e-07 -4.08609e-05 8.60963e-06 -1.40455e-05 5.86408e-05 3.95944e-06 -1.40381e-05 
-7.46326e-06 -4.7341e-06 2.37018e-05 1.93999e-05 2.83248e-05 -1.9353e-05 3.91271e-06 -5.83463e-06 4.38168e-06 -5.91282e-08 -4.36182e-05 1.22333e-05 -1.30994e-05 6.45781e-05 5.37366e-06 -1.36683e-05 
-8.04841e-06 -5.20456e-06 2.53935e-05 2.0583e-05 3.15685e-05 -2.0892e-05 4.06334e-06 -6.44126e-06 4.57863e-06 -9.71752e-08 -4.85025e-05 1.31489e-05 -1.48407e-05 7.15872e-05 5.75021e-06 -1.53614e-05 
2.33965e-06 -3.81208e-06 5.3907e-08 -9.47877e-06 2.4304e-05 4.6285e-06 -8.69697e-07 -1.4383e-06 -7.79991e-07 -6.03208e-06 -3.42675e-05 -3.38489e-06 -1.995e-05 3.86339e-05 -8.39545e-08 -1.60898e-05 
-1.40593e-05 -1.05627e-05 4.35292e-05 3.35738e-05 6.66834e-05 -3.72916e-05 5.55071e-06 -1.26884e-05 6.57201e-06 -3.61051e-07 -0.000101081 2.31036e-05 -3.34892e-05 0.000146752 1.02641e-05 -3.37408e-05 
-7.03306e-06 -6.245e-06 2.27706e-05 1.64373e-05 3.93051e-05 -1.9206e-05 2.58651e-06 -6.86316e-06 3.02493e-06 -7.69986e-07 -5.89404e-05 1.1986e-05 -2.07417e-05 8.40831e-05 5.65672e-06 -2.03739e-05 
-1.12692e-05 -8.452e-06 3.50735e-05 2.71574e-05 5.31218e-05 -2.99139e-05 4.57359e-06 -1.01519e-05 5.41919e-06 -2.61377e-07 -8.06071e-05 1.85554e-05 -2.65788e-05 0.000117019 8.30988e-06 -2.68843e-05 
9.5206e-07 -5.08006e-06 4.28069e-06 -6.43784e-06 3.2532e-05 8.13493e-07 -5.21329e-07 -2.88742e-06 -3.17812e-07 -6.08846e-06 -4.65675e-05 -1.05392e-06 -2.43121e-05 5.61967e-05 9.96228e-07 -2.04051e-05 
-7.85182e-06 -5.3599e-06 2.4718e-05 1.96317e-05 3.29408e-05 -2.05051e-05 3.71984e-06 -6.53136e-06 4.22969e-06 -2.01007e-07 -5.03745e-05 1.28419e-05 -1.59365e-05 7.38461e-05 5.65123e-06 -1.6269e-05 
-1.90056e-06 -3.98454e-06 9.63374e-06 2.97029e-06 2.49575e-05 -5.72329e-06 1.00586e-06 -3.2837e-06 1.26415e-06 -3.03499e-06 -3.67187e-05 3.33926e-06 -1.61162e-05 4.80709e-05 2.17232e-06 -1.43656e-05 
4.25122e-06 -3.71066e-06 -3.90627e-06 -1.49508e-05 2.37704e-05 9.38704e-06 -1.47967e-06 -6.19237e-07 -1.39959e-06 -7.61026e-06 -3.28957e-05 -6.50419e-06 -2.16032e-05 3.38101e-05 -1.13735e-06 -1.67964e-05 
-6.83552e-06 -4.46583e-06 2.16626e-05 1.74922e-05 2.70175e-05 -1.77484e-05 3.46233e-06 -5.48676e-06 3.91341e-06 -1.36747e-07 -4.14907e-05 1.11654e-05 -1.27428e-05 6.11659e-05 4.9025e-06 -1.31795e-05 
6.01543e-06 -5.17713e-06 -5.18771e-06 -2.06137e-05 3.19842e-05 1.32657e-05 -1.9204e-06 -4.08586e-07 -2.02985e-06 -1.07412e-05 -4.40679e-05 -8.9563e-06 -2.94927e-05 4.46458e-05 -1.42011e-06 -2.26125e-05 
4.59212e-07 -6.91787e-06 7.25297e-06 -6.77065e-06 4.53334e-05 -8.80512e-07 -5.53384e-07 -4.69543e-06 1.36477e-08 -7.59135e-06 -6.53836e-05 -4.09e-07 -3.28946e-05 8.03473e-05 1.58007e-06 -2.81584e-05 
-1.89835e-06 -3.82796e-06 9.19279e-06 2.98452e-06 2.41324e-05 -5.7183e-06 8.59419e-07 -3.22382e-06 1.11776e-06 -2.71952e-06 -3.5505e-05 3.33436e-06 -1.54397e-05 4.6716e-05 2.12353e-06 -1.3843e-05 
-1.11375e-06 -3.69976e-06 8.02233e-06 8.79534e-07 2.32126e-05 -3.55282e-06 9.33934e-07 -2.85665e-06 1.28014e-06 -3.69743e-06 -3.40899e-05 1.85957e-06 -1.58175e-05 4.33167e-05 1.58126e-06 -1.3819e-05 
2.13361e-06 -4.17411e-06 9.37673e-07 -9.32408e-06 2.69337e-05 4.08735e-06 -8.26698e-07 -1.88267e-06 -6.07636e-07 -6.34385e-06 -3.82548e-05 -3.19123e-06 -2.16744e-05 4.38457e-05 2.1124e-08 -1.76608e-05 
6.02982e-06 -4.42361e-06 -6.15085e-06 -2.02965e-05 2.7584e-05 1.36116e-05 -1.90641e-06 -1.00147e-07 -1.90021e-06 -1.00652e-05 -3.78483e-05 -9.24507e-06 -2.63655e-05 3.68669e-05 -1.77257e-06 -2.00277e-05 
2.37812e-06 -5.70571e-06 2.27134e-06 -1.06884e-05 3.59811e-05 4.03414e-06 -9.6749e-07 -2.50172e-06 -8.88148e-07 -7.84801e-06 -5.09756e-05 -3.07278e-06 -2.82565e-05 5.93534e-05 6.02625e-07 -2.31793e-05 
-7.13831e-06 -4.44942e-06 2.27323e-05 1.86731e-05 2.64386e-05 -1.84551e-05 3.83552e-06 -5.47827e-06 4.25583e-06 -7.40127e-08 -4.07736e-05 1.16998e-05 -1.21208e-05 6.0513e-05 5.12345e-06 -1.26692e-05 
-9.5506e-06 -6.70232e-06 2.99517e-05 2.36551e-05 4.14242e-05 -2.50329e-05 4.32166e-06 -8.13876e-06 5.0081e-06 -2.43095e-07 -6.31703e-05 1.56177e-05 -2.01958e-05 9.23939e-05 6.89547e-06 -2.0627e-05 
1.4712e-06 -6.30626e-06 5.36364e-06 -8.48245e-06 3.96403e-05 1.79238e-06 -4.4568e-07 -3.23443e-06 -2.68504e-07 -8.09691e-06 -5.66978e-05 -1.72994e-06 -3.01542e-05 6.76121e-05 1.16793e-06 -2.50051e-05 
-7.10314e-06 -6.29185e-06 2.30258e-05 1.68021e-05 3.99013e-05 -1.95084e-05 2.55662e-06 -6.97321e-06 3.00451e-06 -6.52973e-07 -5.96011e-05 1.22768e-05 -2.0853e-05 8.52536e-05 5.78371e-06 -2.06135e-05 
2.21519e-06 -3.82279e-06 3.14523e-07 -9.13926e-06 2.43958e-05 4.33211e-06 -8.28899e-07 -1.51152e-06 -7.22053e-07 -5.94582e-06 -3.44392e-05 -3.20199e-06 -1.98763e-05 3.9053e-05 -2.94844e-08 -1.609e-05 
-6.6966e-06 -4.3179e-06 2.12116e-05 1.71769e-05 2.61123e-05 -1.73575e-05 3.42021e-06 -5.34496e-06 3.87266e-06 -1.19963e-07 -4.01627e-05 1.09102e-05 -1.22584e-05 5.92793e-05 4.77481e-06 -1.27043e-05 
1.7317e-06 -4.62569e-06 2.21998e-06 -8.35156e-06 2.95762e-05 2.86909e-06 -7.26765e-07 -2.22847e-06 -5.99659e-07 -6.32963e-06 -4.20637e-05 -2.32382e-06 -2.30824e-05 4.93034e-05 4.7193e-07 -1.89893e-05 
6.45567e-06 -3.8197e-06 -7.77503e-06 -2.13395e-05 2.42379e-05 1.49361e-05 -2.03916e-06 2.68037e-07 -1.92284e-06 -9.92915e-06 -3.30214e-05 -1.01992e-05 -2.44589e-05 3.0139e-05 -2.31847e-06 -1.83055e-05 
-2.02995e-06 -3.66137e-06 9.39257e-06 3.55494e-06 2.30893e-05 -5.98328e-06 9.49435e-07 -3.182e-06 1.23056e-06 -2.49231e-06 -3.40323e-05 3.52932e-06 -1.45358e-05 4.5094e-05 2.14417e-06 -1.3134e-05 
-1.59155e-06 -3.34111e-06 8.24594e-06 2.35823e-06 2.12735e-05 -4.68174e-06 9.39887e-07 -2.92821e-06 1.31447e-06 -2.75496e-06 -3.14514e-05 2.57754e-06 -1.38347e-05 4.09669e-05 1.69709e-06 -1.23828e-05 
-5.79277e-06 -4.90169e-06 1.87409e-05 1.38185e-05 3.13714e-05 -1.57495e-05 2.20921e-06 -5.65765e-06 2.66469e-06 -5.14549e-07 -4.699e-05 9.86265e-06 -1.62213e-05 6.74094e-05 4.56257e-06 -1.61627e-05 
-6.21625e-06 -3.72951e-06 1.9896e-05 1.64657e-05 2.19576e-05 -1.5965e-05 3.4834e-06 -4.68182e-06 3.90274e-06 -7.0916e-08 -3.40535e-05 1.00965e-05 -9.85506e-06 5.07462e-05 4.4045e-06 -1.04367e-05 
-3.58047e-06 -3.60146e-06 1.24706e-05 8.13172e-06 2.3059e-05 -9.84915e-06 1.42079e-06 -3.88319e-06 1.76862e-06 -1.05144e-06 -3.43942e-05 6.07885e-06 -1.27215e-05 4.81997e-05 2.95244e-06 -1.22655e-05 
2.84509e-06 -4.16059e-06 -5.52674e-07 -1.11406e-05 2.64433e-05 5.74989e-06 -1.04987e-06 -1.41485e-06 -9.85936e-07 -6.79892e-06 -3.71409e-05 -4.11614e-06 -2.20004e-05 4.13992e-05 -2.17868e-07 -1.76444e-05 
-8.00494e-06 -7.10486e-06 2.57525e-05 1.87486e-05 4.52808e-05 -2.19905e-05 2.79466e-06 -7.93752e-06 3.31231e-06 -6.86991e-07 -6.76737e-05 1.37851e-05 -2.37329e-05 9.67395e-05 6.48226e-06 -2.34487e-05 
-1.21672e-05 -9.10168e-06 3.79697e-05 2.92715e-05 5.71005e-05 -3.22649e-05 4.97847e-06 -1.08357e-05 5.79563e-06 -3.97533e-07 -8.66657e-05 2.0048e-05 -2.86812e-05 0.000125808 8.95225e-06 -2.88114e-05 
1.95236e-06 -4.44689e-06 1.57973e-06 -8.79273e-06 2.83342e-05 3.45216e-06 -7.84794e-07 -1.99797e-06 -6.72122e-07 -6.3101e-06 -4.01908e-05 -2.67057e-06 -2.24054e-05 4.66274e-05 3.2913e-07 -1.83393e-05 
4.02436e-06 -3.88784e-06 -3.26103e-06 -1.44958e-05 2.50075e-05 8.79893e-06 -1.41891e-06 -8.58181e-07 -1.31691e-06 -7.6225e-06 -3.47563e-05 -6.15649e-06 -2.22581e-05 3.64899e-05 -9.98107e-07 -1.74443e-05 
-7.31827e-06 -6.11696e-06 2.31175e-05 1.70145e-05 3.98024e-05 -1.98116e-05 2.58919e-06 -7.31357e-06 3.25326e-06 -4.99626e-07 -5.97516e-05 1.22379e-05 -2.06418e-05 8.57212e-05 5.57508e-06 -2.06102e-05 
-1.51949e-06 -8.75539e-06 1.33358e-05 -2.42216e-06 5.71191e-05 -6.32831e-06 -6.58747e-08 -6.72036e-06 6.37153e-07 -7.70795e-06 -8.29629e-05 2.94583e-06 -3.91651e-05 0.000105457 3.13679e-06 -3.4316e-05 
-4.1827e-06 -3.57607e-06 1.3916e-05 9.98961e-06 2.24068e-05 -1.12369e-05 1.82452e-06 -4.00637e-06 2.15346e-06 -6.90483e-07 -3.3738e-05 6.99366e-06 -1.17883e-05 4.81031e-05 3.26251e-06 -1.15958e-05 
2.78552e-06 -4.17433e-06 -4.34793e-07 -1.10308e-05 2.66531e-05 5.6119e-06 -1.03784e-06 -1.49729e-06 -9.40351e-07 -6.77387e-06 -3.74909e-05 -4.0612e-06 -2.20857e-05 4.19237e-05 -2.09176e-07 -1.77634e-05 
5.52449e-06 -4.00325e-06 -5.47553e-06 -1.84375e-05 2.47392e-05 1.25094e-05 -1.63516e-06 -7.82072e-09 -1.6327e-06 -9.27151e-06 -3.39376e-05 -8.47533e-06 -2.38311e-05 3.27516e-05 -1.61698e-06 -1.80326e-05 
-7.32459e-06 -4.54386e-06 2.3187e-05 1.90518e-05 2.72763e-05 -1.89298e-05 3.87199e-06 -5.71011e-06 4.36422e-06 -2.2322e-08 -4.21109e-05 1.19357e-05 -1.2524e-05 6.2461e-05 5.2047e-06 -1.31268e-05 
2.53436e-06 -3.69012e-06 -4.69401e-07 -9.97382e-06 2.35673e-05 5.15806e-06 -9.23879e-07 -1.29534e-06 -8.26832e-07 -6.09977e-06 -3.31625e-05 -3.73583e-06 -1.96426e-05 3.69319e-05 -2.38092e-07 -1.57527e-05 
2.57355e-06 -5.1756e-06 1.10614e-06 -1.13225e-05 3.34579e-05 4.82445e-06 -1.06799e-06 -2.38589e-06 -8.1524e-07 -7.64696e-06 -4.74384e-05 -3.758e-06 -2.67158e-05 5.46202e-05 1.00773e-07 -2.18801e-05 
-2.35251e-06 -4.0973e-06 1.07215e-05 4.41057e-06 2.55234e-05 -6.97534e-06 1.02539e-06 -3.46029e-06 1.27503e-06 -2.60685e-06 -3.75722e-05 4.2247e-06 -1.58826e-05 5.00759e-05 2.54502e-06 -1.43698e-05 
-6.97439e-06 -4.59631e-06 2.20911e-05 1.78257e-05 2.78693e-05 -1.81557e-05 3.49219e-06 -5.6478e-06 3.97048e-06 -1.13098e-07 -4.27882e-05 1.14067e-05 -1.31835e-05 6.3001e-05 5.02947e-06 -1.36358e-05 
5.62769e-06 -5.58272e-06 -3.92853e-06 -1.97571e-05 3.45169e-05 1.21593e-05 -1.80932e-06 -8.00586e-07 -1.93361e-06 -1.07868e-05 -4.78233e-05 -8.24305e-06 -3.08903e-05 4.99434e-05 -1.06182e-06 -2.39353e-05 
-7.09414e-07 -3.62112e-06 6.98981e-06 -1.26126e-07 2.23729e-05 -2.63142e-06 7.02589e-07 -2.46995e-06 9.07057e-07 -3.79238e-06 -3.26462e-05 1.37199e-06 -1.56116e-05 4.09973e-05 1.45323e-06 -1.34086e-05 
-5.75422e-06 -4.0475e-06 1.87706e-05 1.46269e-05 2.44009e-05 -1.50167e-05 2.99339e-06 -4.75462e-06 3.3752e-06 -4.89563e-07 -3.7334e-05 9.44036e-06 -1.19593e-05 5.4385e-05 4.23911e-06 -1.21087e-05 
2.71904e-06 -4.07745e-06 5.32978e-07 -1.02447e-05 2.49226e-05 5.61161e-06 -6.00285e-07 -1.17108e-06 -5.16728e-07 -7.04761e-06 -3.5157e-05 -3.98251e-06 -2.10335e-05 3.87029e-05 -1.17658e-07 -1.6683e-05 
-5.21913e-06 -4.31078e-06 1.68875e-05 1.25162e-05 2.77342e-05 -1.41176e-05 2.06742e-06 -5.08785e-06 2.51301e-06 -4.59075e-07 -4.16058e-05 8.82719e-06 -1.42608e-05 5.97645e-05 4.04999e-06 -1.42715e-05 
-3.75485e-07 -8.00663e-06 1.03149e-05 -4.94016e-06 5.15737e-05 -3.35866e-06 -2.85992e-07 -5.37854e-06 2.1468e-08 -7.92382e-06 -7.44116e-05 1.36447e-06 -3.65569e-05 9.29506e-05 2.51963e-06 -3.13291e-05 
-1.05426e-05 -7.76934e-06 3.28407e-05 2.55565e-05 4.87686e-05 -2.79301e-05 4.37606e-06 -9.40285e-06 5.17934e-06 -2.17707e-07 -7.41457e-05 1.73147e-05 -2.4282e-05 0.00010777 7.73123e-06 -2.46009e-05 
-7.53305e-06 -6.33924e-06 2.38273e-05 1.74442e-05 4.11793e-05 -2.04122e-05 2.64371e-06 -7.49413e-06 3.26883e-06 -5.60777e-07 -6.17895e-05 1.26341e-05 -2.14511e-05 8.8593e-05 5.75928e-06 -2.13025e-05 
6.86375e-06 -4.10049e-06 -8.237e-06 -2.25924e-05 2.57829e-05 1.58085e-05 -2.17168e-06 3.57183e-07 -2.12718e-06 -1.05125e-05 -3.50466e-05 -1.07181e-05 -2.59825e-05 3.20101e-05 -2.37292e-06 -1.94153e-05 
-3.79388e-06 -3.82188e-06 1.31579e-05 8.59308e-06 2.44488e-05 -1.04507e-05 1.4852e-06 -4.09925e-06 1.82184e-06 -1.08569e-06 -3.6452e-05 6.46713e-06 -1.34942e-05 5.11026e-05 3.14249e-06 -1.29931e-05 
-3.08522e-06 -4.87498e-06 1.29235e-05 5.72484e-06 3.08342e-05 -9.00097e-06 1.1392e-06 -4.3868e-06 1.49259e-06 -2.74013e-06 -4.55577e-05 5.36439e-06 -1.89258e-05 6.11837e-05 3.07905e-06 -1.72838e-05 
-5.4441e-06 -4.25965e-06 1.81812e-05 1.34913e-05 2.59544e-05 -1.43605e-05 2.7635e-06 -4.82206e-06 3.16773e-06 -8.4146e-07 -3.94644e-05 8.96529e-06 -1.33251e-05 5.66347e-05 4.13333e-06 -1.32213e-05 
-6.78303e-06 -8.3058e-06 2.43181e-05 1.36172e-05 5.32908e-05 -1.90643e-05 2.07568e-06 -8.333e-06 2.79022e-06 -3.12851e-06 -7.91188e-05 1.14419e-05 -3.10039e-05 0.00010893 5.84709e-06 -2.91384e-05 
6.61301e-06 -4.08711e-06 -7.64434e-06 -2.163e-05 2.5192e-05 1.51364e-05 -2.0447e-06 4.49471e-07 -2.11459e-06 -1.02308e-05 -3.41855e-05 -1.0154e-05 -2.5297e-05 3.13528e-05 -2.12901e-06 -1.88402e-05 
-2.52499e-06 -3.85695e-06 1.08735e-05 4.9588e-06 2.39719e-05 -7.21574e-06 1.29418e-06 -3.41735e-06 1.54387e-06 -2.42108e-06 -3.55032e-05 4.34909e-06 -1.47778e-05 4.75098e-05 2.4854e-06 -1.3433e-05 
-5.95756e-06 -3.36308e-06 1.89113e-05 1.58433e-05 1.99125e-05 -1.51646e-05 3.39854e-06 -4.45618e-06 3.8887e-06 1.86488e-08 -3.11066e-05 9.51805e-06 -8.68379e-06 4.66421e-05 4.07623e-06 -9.38242e-06 
5.54311e-06 -5.57569e-06 -3.79981e-06 -1.95801e-05 3.46565e-05 1.19837e-05 -1.80739e-06 -9.20408e-07 -1.84743e-06 -1.07248e-05 -4.80994e-05 -8.1973e-06 -3.08777e-05 5.04276e-05 -1.07777e-06 -2.40234e-05 
-2.49548e-06 -4.1815e-06 1.09838e-05 4.68432e-06 2.61584e-05 -7.3585e-06 1.0269e-06 -3.60832e-06 1.2868e-06 -2.52153e-06 -3.85379e-05 4.4456e-06 -1.61709e-05 5.15364e-05 2.62839e-06 -1.46953e-05 
5.79141e-06 -5.3465e-06 -4.55523e-06 -2.01371e-05 3.31796e-05 1.26673e-05 -1.87136e-06 -6.54519e-07 -1.93772e-06 -1.07237e-05 -4.58943e-05 -8.61457e-06 -3.0109e-05 4.7275e-05 -1.27575e-06 -2.32438e-05 
1.44798e-06 -6.11359e-06 4.4519e-06 -8.93943e-06 3.97881e-05 1.81316e-06 -7.87152e-07 -3.57982e-06 -3.8703e-07 -7.69041e-06 -5.70233e-05 -1.98825e-06 -3.00788e-05 6.83182e-05 8.74773e-07 -2.52097e-05 
-7.18554e-06 -6.04336e-06 2.27905e-05 1.67566e-05 3.917e-05 -1.94815e-05 2.5524e-06 -7.1472e-06 3.17706e-06 -5.25007e-07 -5.87645e-05 1.2066e-05 -2.03323e-05 8.42878e-05 5.51511e-06 -2.02647e-05 
2.86673e-06 -3.87742e-06 -9.35279e-07 -1.10937e-05 2.48402e-05 5.92968e-06 -1.04306e-06 -1.30949e-06 -9.25561e-07 -6.58143e-06 -3.48901e-05 -4.27214e-06 -2.08937e-05 3.85397e-05 -3.72026e-07 -1.67223e-05 
-5.45925e-06 -4.66635e-06 1.78039e-05 1.30323e-05 2.97849e-05 -1.4851e-05 2.12133e-06 -5.32332e-06 2.52497e-06 -5.75391e-07 -4.45809e-05 9.32655e-06 -1.54705e-05 6.38719e-05 4.32865e-06 -1.53501e-05 
-3.42883e-07 -4.59616e-06 6.40131e-06 -2.41291e-06 2.96829e-05 -2.16725e-06 -2.63116e-08 -3.23886e-06 2.88978e-07 -4.58424e-06 -4.29652e-05 8.5528e-07 -2.09061e-05 5.37673e-05 1.45554e-06 -1.80539e-05 
2.51895e-06 -3.87811e-06 -8.34157e-08 -9.97842e-06 2.4569e-05 5.08121e-06 -8.81347e-07 -1.37369e-06 -7.72371e-07 -6.32512e-06 -3.4636e-05 -3.6983e-06 -2.03704e-05 3.87302e-05 -1.58095e-07 -1.63587e-05 
-2.18458e-06 -3.93478e-06 9.98406e-06 3.75835e-06 2.47684e-05 -6.43221e-06 1.01047e-06 -3.41372e-06 1.29022e-06 -2.64171e-06 -3.65387e-05 3.78283e-06 -1.56221e-05 4.83947e-05 2.29819e-06 -1.41022e-05 
-6.74831e-06 -5.3017e-06 2.13212e-05 1.61755e-05 3.35532e-05 -1.80727e-05 2.6999e-06 -6.23084e-06 3.15479e-06 -3.51809e-07 -5.06212e-05 1.12879e-05 -1.70578e-05 7.3132e-05 5.11081e-06 -1.70746e-05 
-2.46729e-06 -3.79391e-06 1.01829e-05 4.62844e-06 2.40939e-05 -7.16295e-06 9.74607e-07 -3.46843e-06 1.22707e-06 -2.10616e-06 -3.55665e-05 4.30386e-06 -1.47314e-05 4.78282e-05 2.4264e-06 -1.34842e-05 
-2.05363e-06 -3.55385e-06 9.2613e-06 3.66253e-06 2.2441e-05 -6.01154e-06 9.43103e-07 -3.12296e-06 1.20274e-06 -2.34661e-06 -3.30974e-05 3.56408e-06 -1.40505e-05 4.39915e-05 2.12247e-06 -1.27173e-05 
9.19394e-07 -3.99042e-06 3.77798e-06 -5.14786e-06 2.47766e-05 1.15573e-06 -1.62376e-07 -1.98379e-06 -8.82833e-09 -5.2685e-06 -3.55064e-05 -1.11055e-06 -1.8912e-05 4.22207e-05 7.5994e-07 -1.56413e-05 
-1.82975e-05 -1.49352e-05 5.69783e-05 4.29622e-05 9.42739e-05 -4.93291e-05 6.52444e-06 -1.7202e-05 7.76945e-06 -6.63768e-07 -0.000142077 3.05972e-05 -4.84006e-05 0.000204792 1.39933e-05 -4.83013e-05 
-4.00073e-06 -4.05114e-06 1.38501e-05 9.09002e-06 2.58106e-05 -1.10567e-05 1.53373e-06 -4.30435e-06 1.87594e-06 -1.0983e-06 -3.84591e-05 6.85762e-06 -1.4218e-05 5.39485e-05 3.34796e-06 -1.37014e-05 
-1.20923e-06 -3.45505e-06 7.3039e-06 1.16497e-06 2.1923e-05 -3.87644e-06 6.31634e-07 -2.75498e-06 8.94352e-07 -2.95654e-06 -3.2127e-05 2.13105e-06 -1.46017e-05 4.14057e-05 1.60522e-06 -1.28818e-05 
2.24849e-06 -3.91686e-06 3.61058e-07 -9.25529e-06 2.49253e-05 4.35959e-06 -8.44581e-07 -1.53315e-06 -7.53417e-07 -6.03876e-06 -3.5181e-05 -3.20952e-06 -2.02801e-05 3.99239e-05 1.10094e-08 -1.64179e-05 
-5.02034e-06 -5.05485e-06 1.7074e-05 1.13722e-05 3.20999e-05 -1.39145e-05 1.80678e-06 -5.32638e-06 2.16522e-06 -1.17773e-06 -4.77914e-05 8.66842e-06 -1.75959e-05 6.72293e-05 4.22471e-06 -1.69764e-05 
-4.36732e-06 -3.87254e-06 1.46513e-05 1.03717e-05 2.46412e-05 -1.18516e-05 1.81601e-06 -4.3615e-06 2.19923e-06 -7.71971e-07 -3.69176e-05 7.38684e-06 -1.30378e-05 5.24996e-05 3.46974e-06 -1.28308e-05 
3.83643e-06 -4.94601e-06 -1.05849e-06 -1.41367e-05 3.04677e-05 7.97771e-06 -1.19406e-06 -1.18982e-06 -1.23018e-06 -8.61803e-06 -4.26257e-05 -5.51095e-06 -2.60742e-05 4.63919e-05 -3.58283e-07 -2.05606e-05 
-6.71655e-06 -5.50753e-06 2.11987e-05 1.56518e-05 3.60112e-05 -1.81138e-05 2.43097e-06 -6.69925e-06 3.07744e-06 -4.49328e-07 -5.4134e-05 1.11649e-05 -1.861e-05 7.77408e-05 5.0461e-06 -1.86251e-05 
-4.26781e-06 -3.26829e-06 1.37255e-05 1.03609e-05 2.13878e-05 -1.13724e-05 1.80095e-06 -4.14737e-06 2.294e-06 -3.25386e-07 -3.22441e-05 7.03109e-06 -1.07654e-05 4.65583e-05 3.1308e-06 -1.09643e-05 
-4.34797e-06 -4.34046e-06 1.48746e-05 9.85645e-06 2.77055e-05 -1.19899e-05 1.623e-06 -4.65341e-06 1.99657e-06 -1.09564e-06 -4.12971e-05 7.42782e-06 -1.51947e-05 5.80489e-05 3.5992e-06 -1.4684e-05 
-5.96399e-06 -4.87521e-06 1.89801e-05 1.40792e-05 3.16548e-05 -1.60535e-05 2.24194e-06 -5.88366e-06 2.81629e-06 -4.49979e-07 -4.7526e-05 9.9454e-06 -1.62602e-05 6.83476e-05 4.4975e-06 -1.63332e-05 
7.7957e-07 -5.56636e-06 5.29109e-06 -6.06163e-06 3.52191e-05 1.47595e-07 -4.54765e-07 -3.11765e-06 -3.35668e-07 -6.33829e-06 -5.04347e-05 -5.55326e-07 -2.60346e-05 6.12751e-05 1.36779e-06 -2.18817e-05 
6.31351e-06 -4.10936e-06 -7.09718e-06 -2.09538e-05 2.5687e-05 1.44352e-05 -1.9844e-06 1.82827e-07 -1.96964e-06 -1.00328e-05 -3.50525e-05 -9.78319e-06 -2.53327e-05 3.29191e-05 -2.05241e-06 -1.90374e-05 
1.01192e-06 -5.01913e-06 4.09056e-06 -6.55989e-06 3.21576e-05 9.71536e-07 -5.40926e-07 -2.83348e-06 -3.30421e-07 -6.06592e-06 -4.60287e-05 -1.15869e-06 -2.41059e-05 5.54242e-05 9.5171e-07 -2.02129e-05 
-6.8536e-06 -4.14448e-06 2.17913e-05 1.80497e-05 2.45652e-05 -1.76393e-05 3.75982e-06 -5.20665e-06 4.20132e-06 -2.09202e-08 -3.80065e-05 1.11708e-05 -1.10718e-05 5.66123e-05 4.86092e-06 -1.17023e-05 
-5.42847e-06 -4.13779e-06 1.73559e-05 1.33609e-05 2.58159e-05 -1.4474e-05 2.35094e-06 -4.85379e-06 2.72807e-06 -2.86647e-07 -3.90341e-05 9.08694e-06 -1.29121e-05 5.65972e-05 4.11959e-06 -1.3029e-05 
-8.03194e-06 -5.76799e-06 2.56218e-05 2.02497e-05 3.49739e-05 -2.12288e-05 3.78369e-06 -6.70115e-06 4.21984e-06 -2.54514e-07 -5.32595e-05 1.34096e-05 -1.70775e-05 7.77656e-05 6.06576e-06 -1.7341e-05 
8.4397e-08 -6.34701e-06 7.4406e-06 -5.06734e-06 4.11167e-05 -1.68542e-06 -3.51815e-07 -4.23879e-06 2.14427e-08 -6.65897e-06 -5.93148e-05 3.33617e-07 -2.95341e-05 7.34198e-05 1.73104e-06 -2.52646e-05 
-6.85292e-06 -5.60836e-06 2.15627e-05 1.59998e-05 3.66439e-05 -1.84513e-05 2.45852e-06 -6.85651e-06 3.16906e-06 -4.27097e-07 -5.5059e-05 1.13517e-05 -1.88457e-05 7.91541e-05 5.11815e-06 -1.89725e-05 
2.60513e-06 -3.44808e-06 -9.56169e-07 -1.02897e-05 2.26086e-05 5.51505e-06 -9.67614e-07 -1.34734e-06 -7.0301e-07 -6.03642e-06 -3.19182e-05 -4.12654e-06 -1.90588e-05 3.5223e-05 -5.16082e-07 -1.53256e-05 
3.8292e-06 -7.12985e-06 1.41581e-06 -1.59511e-05 4.48252e-05 7.31532e-06 -1.35962e-06 -2.6697e-06 -1.32948e-06 -1.08806e-05 -6.32845e-05 -5.32566e-06 -3.63777e-05 7.20813e-05 2.17369e-07 -2.93283e-05 
-5.75578e-06 -4.05981e-06 1.90299e-05 1.47455e-05 2.43075e-05 -1.49961e-05 3.12696e-06 -4.72819e-06 3.51308e-06 -6.21185e-07 -3.72302e-05 9.44212e-06 -1.19493e-05 5.41259e-05 4.26134e-06 -1.20666e-05 
-4.69723e-06 -3.69578e-06 1.50905e-05 1.13054e-05 2.40649e-05 -1.25706e-05 1.91473e-06 -4.57288e-06 2.40814e-06 -3.78433e-07 -3.62131e-05 7.79482e-06 -1.2223e-05 5.21999e-05 3.49472e-06 -1.23582e-05 
-2.03797e-06 -3.79032e-06 9.33489e-06 3.36947e-06 2.4036e-05 -6.077e-06 8.35774e-07 -3.27707e-06 1.08449e-06 -2.50441e-06 -3.53678e-05 3.58272e-06 -1.51756e-05 4.68668e-05 2.18539e-06 -1.36826e-05 
-6.13601e-06 -5.5395e-06 1.98788e-05 1.38564e-05 3.61274e-05 -1.67035e-05 2.15185e-06 -6.43993e-06 2.75327e-06 -8.91457e-07 -5.41478e-05 1.02279e-05 -1.93412e-05 7.68449e-05 4.7519e-06 -1.8995e-05 
2.14791e-06 -5.65065e-06 2.56814e-06 -1.03385e-05 3.62817e-05 3.62759e-06 -9.3416e-07 -2.81034e-06 -6.75919e-07 -7.74222e-06 -5.1601e-05 -2.98198e-06 -2.82517e-05 6.04925e-05 4.99383e-07 -2.33656e-05 
-3.95566e-06 -2.85477e-06 1.25793e-05 9.60074e-06 1.90632e-05 -1.04227e-05 1.71205e-06 -3.8682e-06 2.25771e-06 -2.45142e-07 -2.88799e-05 6.36825e-06 -9.46836e-06 4.18397e-05 2.76227e-06 -9.76584e-06 
4.14308e-06 -3.66377e-06 -3.79953e-06 -1.47875e-05 2.38494e-05 9.19622e-06 -1.46955e-06 -7.82921e-07 -1.28274e-06 -7.53427e-06 -3.31293e-05 -6.48524e-06 -2.15522e-05 3.42589e-05 -1.19911e-06 -1.68592e-05 
-2.3778e-06 -3.83622e-06 9.95165e-06 4.24811e-06 2.46917e-05 -6.97633e-06 8.43337e-07 -3.53987e-06 1.13179e-06 -2.18071e-06 -3.63764e-05 4.15066e-06 -1.51861e-05 4.88064e-05 2.36219e-06 -1.38853e-05 
-8.24267e-06 -5.56082e-06 2.62486e-05 2.11414e-05 3.34156e-05 -2.15718e-05 4.13123e-06 -6.61118e-06 4.57476e-06 -1.62075e-07 -5.1133e-05 1.36707e-05 -1.58868e-05 7.52062e-05 6.09349e-06 -1.63219e-05 
-4.59809e-06 -4.00198e-06 1.52394e-05 1.07913e-05 2.57276e-05 -1.24263e-05 1.86715e-06 -4.6148e-06 2.29387e-06 -7.65905e-07 -3.86158e-05 7.69047e-06 -1.36187e-05 5.49563e-05 3.56392e-06 -1.34001e-05 
-4.57093e-06 -4.59047e-06 1.56258e-05 1.03584e-05 2.92158e-05 -1.26359e-05 1.68597e-06 -4.86836e-06 2.04142e-06 -1.13628e-06 -4.35175e-05 7.85487e-06 -1.60351e-05 6.11771e-05 3.81771e-06 -1.54679e-05 
-6.60745e-06 -4.26942e-06 2.09851e-05 1.70137e-05 2.57048e-05 -1.71351e-05 3.40349e-06 -5.24946e-06 3.83786e-06 -1.2322e-07 -3.95224e-05 1.07951e-05 -1.20409e-05 5.83504e-05 4.7401e-06 -1.24929e-05 
-7.03517e-06 -4.54493e-06 2.21113e-05 1.79116e-05 2.78384e-05 -1.82549e-05 3.4965e-06 -5.7607e-06 4.05629e-06 -4.25153e-08 -4.28436e-05 1.13921e-05 -1.30999e-05 6.31478e-05 4.97847e-06 -1.36431e-05 
-5.85313e-06 -4.89123e-06 1.88189e-05 1.39061e-05 3.14705e-05 -1.58474e-05 2.22638e-06 -5.74046e-06 2.72283e-06 -4.99576e-07 -4.71693e-05 9.88827e-06 -1.62323e-05 6.77307e-05 4.53389e-06 -1.62269e-05 
5.55571e-06 -4.12426e-06 -5.51918e-06 -1.87866e-05 2.5807e-05 1.25775e-05 -1.73486e-06 -1.72401e-07 -1.66145e-06 -9.41551e-06 -3.55236e-05 -8.61254e-06 -2.46214e-05 3.47098e-05 -1.67145e-06 -1.87365e-05 
-1.16791e-07 -3.42337e-06 4.80609e-06 -2.06209e-06 2.19055e-05 -1.23592e-06 6.79994e-08 -2.30275e-06 3.11897e-07 -3.68791e-06 -3.17193e-05 3.97311e-07 -1.56547e-05 3.93298e-05 1.02784e-06 -1.3404e-05 
-7.00749e-06 -4.29058e-06 2.22741e-05 1.83764e-05 2.55153e-05 -1.8075e-05 3.79588e-06 -5.36104e-06 4.23794e-06 -3.51241e-08 -3.94354e-05 1.14378e-05 -1.16021e-05 5.86275e-05 4.98827e-06 -1.21939e-05 
-5.8021e-06 -4.13094e-06 1.92149e-05 1.48646e-05 2.46938e-05 -1.51468e-05 3.14135e-06 -4.76811e-06 3.51408e-06 -6.35214e-07 -3.77865e-05 9.55252e-06 -1.21696e-05 5.48973e-05 4.32783e-06 -1.22656e-05 
-7.18456e-06 -6.38645e-06 2.33028e-05 1.69828e-05 4.0476e-05 -1.97441e-05 2.58487e-06 -7.05468e-06 3.02183e-06 -6.69987e-07 -6.0443e-05 1.24373e-05 -2.11758e-05 8.64347e-05 5.86734e-06 -2.09149e-05 
-9.11505e-06 -6.44778e-06 2.88457e-05 2.27936e-05 3.95115e-05 -2.401e-05 4.22441e-06 -7.68433e-06 4.7992e-06 -2.38855e-07 -6.0286e-05 1.50589e-05 -1.92929e-05 8.80645e-05 6.74355e-06 -1.96251e-05 
-9.63003e-06 -6.9638e-06 3.04861e-05 2.39114e-05 4.2759e-05 -2.54498e-05 4.36502e-06 -8.19677e-06 4.93111e-06 -3.07028e-07 -6.50973e-05 1.59753e-05 -2.10727e-05 9.48869e-05 7.18349e-06 -2.13141e-05 
-6.60991e-06 -5.4554e-06 2.09409e-05 1.54444e-05 3.55482e-05 -1.78505e-05 2.4105e-06 -6.57332e-06 3.01995e-06 -4.68752e-07 -5.3401e-05 1.10345e-05 -1.83858e-05 7.66647e-05 5.00751e-06 -1.83768e-05 
4.41732e-06 -3.51387e-06 -4.47871e-06 -1.5356e-05 2.26263e-05 9.8782e-06 -1.52438e-06 -4.56893e-07 -1.43855e-06 -7.59079e-06 -3.12209e-05 -6.83243e-06 -2.09869e-05 3.14436e-05 -1.31452e-06 -1.6199e-05 
-1.87732e-07 -3.96706e-06 5.53565e-06 -2.26646e-06 2.5388e-05 -1.58863e-06 2.27347e-08 -2.68072e-06 2.89104e-07 -4.14109e-06 -3.67447e-05 5.72337e-07 -1.80478e-05 4.57207e-05 1.22588e-06 -1.54871e-05 
-4.4891e-06 -3.64162e-06 1.46641e-05 1.09278e-05 2.33556e-05 -1.21057e-05 1.87396e-06 -4.3129e-06 2.26676e-06 -4.33346e-07 -3.50513e-05 7.59477e-06 -1.19248e-05 5.04307e-05 3.47296e-06 -1.19668e-05 
-2.01169e-06 -3.59727e-06 9.19679e-06 3.47683e-06 2.27885e-05 -5.92601e-06 9.133e-07 -3.15042e-06 1.17414e-06 -2.41845e-06 -3.35895e-05 3.49769e-06 -1.43439e-05 4.45414e-05 2.10751e-06 -1.29524e-05 
-2.69196e-06 -9.90613e-06 1.70324e-05 4.15173e-09 6.43668e-05 -9.49045e-06 2.82024e-07 -7.83076e-06 9.05613e-07 -7.96872e-06 -9.36159e-05 4.99906e-06 -4.3183e-05 0.000120639 4.05928e-06 -3.80586e-05 
2.09582e-06 -4.32067e-06 1.14613e-06 -9.08458e-06 2.74653e-05 3.85268e-06 -8.2254e-07 -1.84474e-06 -7.13564e-07 -6.30381e-06 -3.88721e-05 -2.91127e-06 -2.19189e-05 4.47705e-05 2.1745e-07 -1.78846e-05 
1.54483e-06 -4.70558e-06 2.64274e-06 -7.91644e-06 3.029e-05 2.40646e-06 -7.0141e-07 -2.47668e-06 -4.5409e-07 -6.23542e-06 -4.32128e-05 -2.11499e-06 -2.33326e-05 5.10465e-05 5.40552e-07 -1.93925e-05 
-5.37539e-06 -4.27162e-06 1.76018e-05 1.303e-05 2.64905e-05 -1.42535e-05 2.46745e-06 -4.90995e-06 2.89197e-06 -6.86099e-07 -4.01804e-05 8.84405e-06 -1.36576e-05 5.76705e-05 4.05553e-06 -1.35609e-05 
-5.57247e-06 -3.86667e-06 1.81946e-05 1.42403e-05 2.32727e-05 -1.45215e-05 2.94166e-06 -4.58046e-06 3.33078e-06 -4.53715e-07 -3.56763e-05 9.12073e-06 -1.13416e-05 5.20214e-05 4.09256e-06 -1.15249e-05 
1.20692e-07 -7.40815e-06 8.57881e-06 -6.00142e-06 4.80012e-05 -1.91602e-06 -4.52672e-07 -4.92944e-06 -2.69602e-08 -7.76773e-06 -6.92008e-05 3.63346e-07 -3.44849e-05 8.56667e-05 2.0006e-06 -2.94916e-05 
-9.23613e-07 -3.93664e-06 7.00263e-06 -3.18309e-08 2.51007e-05 -3.43793e-06 3.02409e-07 -2.91609e-06 5.13887e-07 -3.4427e-06 -3.64874e-05 1.85429e-06 -1.70372e-05 4.66136e-05 1.66016e-06 -1.48814e-05 
-1.63909e-06 -3.72886e-06 8.82072e-06 2.49674e-06 2.32768e-05 -5.05148e-06 7.92199e-07 -2.97398e-06 1.0614e-06 -2.90268e-06 -3.41966e-05 2.93637e-06 -1.50932e-05 4.46819e-05 1.99932e-06 -1.34163e-05 
-2.79631e-06 -3.72208e-06 1.08142e-05 5.59914e-06 2.36978e-05 -7.91061e-06 1.12371e-06 -3.6032e-06 1.42322e-06 -1.81349e-06 -3.51481e-05 4.76031e-06 -1.4122e-05 4.7791e-05 2.54073e-06 -1.31075e-05 
-6.2604e-06 -3.95116e-06 1.99242e-05 1.62824e-05 2.36467e-05 -1.6199e-05 3.31015e-06 -4.90311e-06 3.73651e-06 -8.07022e-08 -3.6466e-05 1.0211e-05 -1.09287e-05 5.398e-05 4.48053e-06 -1.14227e-05 
-6.93489e-06 -4.56324e-06 2.19812e-05 1.76923e-05 2.76533e-05 -1.80319e-05 3.48781e-06 -5.58218e-06 3.92859e-06 -1.51493e-07 -4.24481e-05 1.13442e-05 -1.31134e-05 6.25054e-05 4.9889e-06 -1.35054e-05 
-6.44342e-06 -5.32178e-06 2.04686e-05 1.50917e-05 3.46188e-05 -1.7415e-05 2.35888e-06 -6.382e-06 2.9416e-06 -4.79562e-07 -5.20065e-05 1.07731e-05 -1.79177e-05 7.46514e-05 4.89445e-06 -1.78785e-05 
4.76496e-06 -6.25244e-06 -1.47841e-06 -1.79023e-05 3.91432e-05 9.86807e-06 -1.61686e-06 -1.73976e-06 -1.57747e-06 -1.07406e-05 -5.4839e-05 -6.92587e-06 -3.32479e-05 6.00706e-05 -5.05332e-07 -2.63768e-05 
-9.32397e-06 -6.49208e-06 2.94591e-05 2.3404e-05 3.96329e-05 -2.44657e-05 4.41679e-06 -7.7314e-06 4.93299e-06 -2.40184e-07 -6.04436e-05 1.54284e-05 -1.92165e-05 8.85355e-05 6.85758e-06 -1.95775e-05 
2.42453e-06 -3.51482e-06 -5.45286e-07 -9.74715e-06 2.29424e-05 5.01709e-06 -9.182e-07 -1.43853e-06 -6.69502e-07 -5.88805e-06 -3.24085e-05 -3.77411e-06 -1.9059e-05 3.61645e-05 -3.64879e-07 -1.54178e-05 
-6.5096e-06 -4.17772e-06 2.06866e-05 1.68014e-05 2.51433e-05 -1.68828e-05 3.37554e-06 -5.15678e-06 3.80688e-06 -1.07232e-07 -3.87079e-05 1.06323e-05 -1.17534e-05 5.71637e-05 4.67062e-06 -1.22027e-05 
1.77975e-06 -5.93494e-06 3.57976e-06 -9.59662e-06 3.83357e-05 2.61511e-06 -8.58005e-07 -3.20114e-06 -5.81666e-07 -7.71156e-06 -5.47112e-05 -2.38101e-06 -2.93594e-05 6.4951e-05 7.5345e-07 -2.44308e-05 
2.95653e-06 -3.92049e-06 -1.10648e-06 -1.14392e-05 2.52444e-05 6.1547e-06 -1.0942e-06 -1.35405e-06 -9.36552e-07 -6.70645e-06 -3.54594e-05 -4.45831e-06 -2.12602e-05 3.91136e-05 -4.3973e-07 -1.70417e-05 
-5.56537e-06 -4.00619e-06 1.82924e-05 1.41063e-05 2.41516e-05 -1.45538e-05 2.90211e-06 -4.65057e-06 3.2773e-06 -5.73089e-07 -3.69054e-05 9.14305e-06 -1.19615e-05 5.3578e-05 4.13339e-06 -1.20486e-05 
2.16475e-06 -4.01118e-06 6.45474e-07 -9.06294e-06 2.54856e-05 4.11538e-06 -8.23773e-07 -1.61124e-06 -7.37869e-07 -6.05126e-06 -3.6005e-05 -3.04835e-06 -2.0589e-05 4.10883e-05 9.41308e-08 -1.67062e-05 
-4.49407e-06 -4.11306e-06 1.49851e-05 1.03274e-05 2.66006e-05 -1.22263e-05 1.73895e-06 -4.68726e-06 2.17236e-06 -8.73324e-07 -3.98154e-05 7.53886e-06 -1.42944e-05 5.63742e-05 3.53329e-06 -1.39842e-05 
-7.4397e-06 -4.79831e-06 2.35596e-05 1.91025e-05 2.90326e-05 -1.93026e-05 3.77897e-06 -5.9624e-06 4.31524e-06 -9.98052e-08 -4.46894e-05 1.21052e-05 -1.36118e-05 6.59485e-05 5.3121e-06 -1.41421e-05 
-5.91279e-06 -3.63325e-06 1.8865e-05 1.55052e-05 2.15816e-05 -1.5233e-05 3.2257e-06 -4.53233e-06 3.61418e-06 -8.18737e-08 -3.33667e-05 9.62477e-06 -9.84223e-06 4.95592e-05 4.20252e-06 -1.03346e-05 
1.30091e-06 -3.47023e-06 1.8537e-06 -6.23171e-06 2.22268e-05 2.2173e-06 -4.63617e-07 -1.72807e-06 -2.80124e-07 -4.87521e-06 -3.16785e-05 -1.84043e-06 -1.73629e-05 3.70457e-05 3.11648e-07 -1.43263e-05 
-7.33595e-06 -6.2577e-06 2.33702e-05 1.7018e-05 4.04497e-05 -1.99311e-05 2.62414e-06 -7.26033e-06 3.1413e-06 -6.35995e-07 -6.0616e-05 1.24109e-05 -2.11662e-05 8.68059e-05 5.69852e-06 -2.0911e-05 
-5.14018e-07 -8.05918e-06 1.06072e-05 -4.56459e-06 5.21628e-05 -3.74791e-06 -2.67282e-07 -5.62919e-06 1.79864e-07 -7.7879e-06 -7.54193e-05 1.5157e-06 -3.6745e-05 9.44129e-05 2.59515e-06 -3.17041e-05 
1.00712e-06 -3.89198e-06 2.90513e-06 -5.66186e-06 2.48202e-05 1.33305e-06 -4.04569e-07 -2.06852e-06 -2.54415e-07 -4.99959e-06 -3.54683e-05 -1.26149e-06 -1.89002e-05 4.22563e-05 6.28863e-07 -1.57225e-05 
-4.17172e-06 -3.19687e-06 1.3458e-05 1.01659e-05 2.0872e-05 -1.11211e-05 1.77649e-06 -4.0409e-06 2.25426e-06 -3.26718e-07 -3.14614e-05 6.88801e-06 -1.04967e-05 4.54321e-05 3.0733e-06 -1.06915e-05 
-2.10826e-06 -4.07627e-06 1.02244e-05 3.61479e-06 2.53508e-05 -6.29277e-06 1.0989e-06 -3.37039e-06 1.33451e-06 -2.9272e-06 -3.73354e-05 3.73866e-06 -1.61709e-05 4.91605e-05 2.35993e-06 -1.44773e-05 
-5.43133e-06 -3.98563e-06 1.79753e-05 1.37112e-05 2.40482e-05 -1.42112e-05 2.84384e-06 -4.59064e-06 3.22362e-06 -6.6452e-07 -3.67159e-05 8.91187e-06 -1.20268e-05 5.3136e-05 4.04628e-06 -1.2059e-05 
3.67086e-07 -3.66841e-06 3.96756e-06 -3.66918e-06 2.35065e-05 -1.65667e-07 -1.65413e-07 -2.24722e-06 3.51789e-08 -4.25356e-06 -3.38233e-05 -2.99567e-07 -1.72801e-05 4.12248e-05 8.72952e-07 -1.46103e-05 
-9.45458e-06 -6.22728e-06 2.92773e-05 2.35667e-05 3.88816e-05 -2.45834e-05 4.37628e-06 -8.01079e-06 5.20436e-06 1.94802e-08 -5.96607e-05 1.52203e-05 -1.85264e-05 8.77302e-05 6.59331e-06 -1.92411e-05 
-4.7917e-06 -3.94298e-06 1.55867e-05 1.14061e-05 2.5512e-05 -1.28884e-05 1.94439e-06 -4.71017e-06 2.39842e-06 -5.50667e-07 -3.83324e-05 8.00154e-06 -1.32083e-05 5.49518e-05 3.6403e-06 -1.31699e-05 
3.08214e-06 -3.43074e-06 -1.79198e-06 -1.13898e-05 2.19441e-05 6.63885e-06 -1.06665e-06 -9.37978e-07 -9.25514e-07 -6.38816e-06 -3.07248e-05 -4.73137e-06 -1.90982e-05 3.29568e-05 -6.45275e-07 -1.50911e-05 
-7.8294e-07 -4.05013e-06 7.15899e-06 -3.02063e-07 2.56938e-05 -3.13402e-06 3.83505e-07 -2.88722e-06 5.8864e-07 -3.7861e-06 -3.72417e-05 1.70843e-06 -1.75994e-05 4.72595e-05 1.67301e-06 -1.52957e-05 
-6.45692e-06 -5.6191e-06 2.09325e-05 1.53119e-05 3.57466e-05 -1.76488e-05 2.3937e-06 -6.30971e-06 2.81951e-06 -6.128e-07 -5.34357e-05 1.11008e-05 -1.86225e-05 7.65221e-05 5.18644e-06 -1.84383e-05 
-2.73834e-06 -4.03579e-06 1.13891e-05 5.41664e-06 2.51954e-05 -7.8256e-06 1.27821e-06 -3.64713e-06 1.54861e-06 -2.32463e-06 -3.73166e-05 4.72262e-06 -1.53626e-05 5.01931e-05 2.65568e-06 -1.40609e-05 
-3.77856e-06 -3.71594e-06 1.31958e-05 8.49886e-06 2.37645e-05 -1.02318e-05 1.64783e-06 -4.09205e-06 2.07467e-06 -1.2395e-06 -3.56726e-05 6.20973e-06 -1.32152e-05 4.98221e-05 2.98968e-06 -1.27087e-05 
-7.28547e-06 -6.18756e-06 2.3176e-05 1.69547e-05 4.00156e-05 -1.97846e-05 2.59801e-06 -7.23032e-06 3.16629e-06 -5.84531e-07 -5.99867e-05 1.22965e-05 -2.08617e-05 8.59602e-05 5.64186e-06 -2.06992e-05 
-7.13609e-06 -4.74406e-06 2.25802e-05 1.81646e-05 2.88091e-05 -1.85775e-05 3.53888e-06 -5.8056e-06 4.02005e-06 -1.42469e-07 -4.41646e-05 1.16729e-05 -1.36805e-05 6.49876e-05 5.14193e-06 -1.41238e-05 
1.96022e-06 -5.41194e-06 2.69049e-06 -9.54992e-06 3.46661e-05 3.20302e-06 -8.55711e-07 -2.7119e-06 -6.10236e-07 -7.30418e-06 -4.93467e-05 -2.67118e-06 -2.68888e-05 5.79856e-05 5.63585e-07 -2.22686e-05 
-6.40479e-06 -4.09474e-06 2.03801e-05 1.65971e-05 2.45392e-05 -1.65933e-05 3.35071e-06 -5.04488e-06 3.77679e-06 -1.04867e-07 -3.77765e-05 1.04637e-05 -1.14082e-05 5.58526e-05 4.59734e-06 -1.18869e-05 
-4.85772e-06 -4.80837e-06 1.64312e-05 1.09758e-05 3.07812e-05 -1.34153e-05 1.75078e-06 -5.20118e-06 2.16901e-06 -1.10353e-06 -4.59206e-05 8.29006e-06 -1.68389e-05 6.4613e-05 4.00947e-06 -1.63041e-05 
6.96015e-06 -4.11739e-06 -8.36914e-06 -2.27566e-05 2.56134e-05 1.60001e-05 -2.18345e-06 4.98907e-07 -2.22128e-06 -1.05722e-05 -3.47056e-05 -1.07629e-05 -2.59633e-05 3.14426e-05 -2.34538e-06 -1.93077e-05 
-5.12639e-06 -4.14206e-06 1.64819e-05 1.22681e-05 2.68619e-05 -1.38093e-05 2.02874e-06 -5.0146e-06 2.52004e-06 -4.1375e-07 -4.03787e-05 8.57984e-06 -1.37591e-05 5.80677e-05 3.89433e-06 -1.38217e-05 
-6.5361e-06 -4.19159e-06 2.07495e-05 1.68727e-05 2.52369e-05 -1.69488e-05 3.37585e-06 -5.1888e-06 3.82747e-06 -9.41687e-08 -3.88519e-05 1.0661e-05 -1.17746e-05 5.73924e-05 4.68065e-06 -1.22533e-05 
-4.92069e-06 -4.06333e-06 1.60189e-05 1.18934e-05 2.6016e-05 -1.33109e-05 1.986e-06 -4.75692e-06 2.40078e-06 -4.62225e-07 -3.90021e-05 8.3491e-06 -1.33423e-05 5.60578e-05 3.83591e-06 -1.33602e-05 
-5.55074e-06 -3.36982e-06 1.79538e-05 1.46616e-05 1.99229e-05 -1.42226e-05 3.18123e-06 -4.24633e-06 3.60365e-06 -2.18121e-07 -3.09329e-05 8.94821e-06 -9.08309e-06 4.58647e-05 3.90933e-06 -9.55324e-06 
4.99157e-06 -4.57114e-06 -3.41787e-06 -1.70632e-05 2.77133e-05 1.10381e-05 -1.42061e-06 -3.92738e-07 -1.42437e-06 -9.46327e-06 -3.84302e-05 -7.51768e-06 -2.54738e-05 3.91083e-05 -1.09947e-06 -1.9525e-05 
-6.52306e-06 -5.72031e-06 2.11965e-05 1.54956e-05 3.62964e-05 -1.78731e-05 2.40937e-06 -6.37257e-06 2.82631e-06 -6.21771e-07 -5.42362e-05 1.1257e-05 -1.89272e-05 7.763e-05 5.28487e-06 -1.87244e-05 
-9.06309e-06 -6.52362e-06 2.84877e-05 2.23712e-05 4.03868e-05 -2.39194e-05 4.02454e-06 -7.82223e-06 4.63856e-06 -2.26384e-07 -6.15042e-05 1.49415e-05 -1.98856e-05 8.96625e-05 6.67557e-06 -2.01952e-05 
1.7251e-06 -4.22828e-06 1.78453e-06 -8.00325e-06 2.69946e-05 2.97064e-06 -6.96129e-07 -1.97764e-06 -5.66997e-07 -5.91068e-06 -3.83618e-05 -2.35561e-06 -2.12158e-05 4.47098e-05 3.65842e-07 -1.74158e-05 
-9.35851e-06 -6.81556e-06 2.94186e-05 2.30344e-05 4.21825e-05 -2.47301e-05 4.10084e-06 -8.11207e-06 4.72671e-06 -2.61986e-07 -6.41401e-05 1.54562e-05 -2.08281e-05 9.34469e-05 6.91549e-06 -2.11279e-05 
-5.57784e-06 -4.21195e-06 1.77622e-05 1.3717e-05 2.62567e-05 -1.48404e-05 2.42104e-06 -4.95807e-06 2.80116e-06 -2.6668e-07 -3.97352e-05 9.31275e-06 -1.31023e-05 5.76706e-05 4.20653e-06 -1.3231e-05 
2.04582e-06 -4.09297e-06 9.70272e-07 -8.82133e-06 2.60846e-05 3.80757e-06 -7.99137e-07 -1.73861e-06 -6.90283e-07 -6.04647e-06 -3.69245e-05 -2.87676e-06 -2.08995e-05 4.24196e-05 1.58866e-07 -1.702e-05 
-1.45966e-06 -3.56375e-06 8.26459e-06 2.12943e-06 2.21925e-05 -4.55614e-06 7.46311e-07 -2.79951e-06 1.02152e-06 -2.87597e-06 -3.25681e-05 2.62751e-06 -1.44794e-05 4.23782e-05 1.86011e-06 -1.28567e-05 
2.12831e-06 -3.94615e-06 6.47442e-07 -8.9192e-06 2.50794e-05 4.05418e-06 -8.06004e-07 -1.58876e-06 -7.16703e-07 -5.96641e-06 -3.54331e-05 -3.00724e-06 -2.02633e-05 4.04343e-05 8.53026e-08 -1.64419e-05 
2.83244e-06 -4.67205e-06 8.02374e-08 -1.14925e-05 2.97499e-05 5.5724e-06 -1.07362e-06 -1.76273e-06 -9.78472e-07 -7.31973e-06 -4.19012e-05 -4.05862e-06 -2.43467e-05 4.73367e-05 -7.29719e-08 -1.96651e-05 
-8.19225e-06 -5.57145e-06 2.59803e-05 2.07573e-05 3.38199e-05 -2.14042e-05 3.98931e-06 -6.70259e-06 4.5072e-06 -2.15246e-07 -5.17426e-05 1.34606e-05 -1.62204e-05 7.59681e-05 5.96518e-06 -1.66318e-05 
-1.86383e-06 -3.415e-06 8.40345e-06 3.08107e-06 2.19924e-05 -5.56584e-06 6.89854e-07 -3.0737e-06 9.86232e-07 -2.18836e-06 -3.2325e-05 3.25447e-06 -1.37741e-05 4.29541e-05 1.95489e-06 -1.25253e-05 
-5.6519e-06 -4.30633e-06 1.79888e-05 1.37724e-05 2.70484e-05 -1.50551e-05 2.41233e-06 -5.08346e-06 2.79154e-06 -3.14629e-07 -4.09098e-05 9.42861e-06 -1.36104e-05 5.92648e-05 4.25175e-06 -1.36686e-05 
-7.10606e-06 -4.41744e-06 2.26288e-05 1.86064e-05 2.62583e-05 -1.83738e-05 3.82929e-06 -5.45743e-06 4.25395e-06 -5.59691e-08 -4.05185e-05 1.16458e-05 -1.20207e-05 6.01384e-05 5.10423e-06 -1.25816e-05 
-8.22036e-06 -5.52609e-06 2.59502e-05 2.08633e-05 3.38115e-05 -2.15119e-05 3.98046e-06 -6.83419e-06 4.60742e-06 -6.91214e-08 -5.18853e-05 1.34409e-05 -1.61345e-05 7.615e-05 5.97183e-06 -1.66828e-05 
-1.10763e-05 -7.61443e-06 3.40794e-05 2.70804e-05 4.81558e-05 -2.8996e-05 4.76782e-06 -9.74522e-06 5.7955e-06 3.3386e-08 -7.36363e-05 1.78501e-05 -2.33943e-05 0.000107733 7.7794e-06 -2.41208e-05 
-6.81566e-06 -4.44343e-06 2.15981e-05 1.74647e-05 2.6915e-05 -1.77209e-05 3.44994e-06 -5.48457e-06 3.91535e-06 -1.05127e-07 -4.13777e-05 1.11321e-05 -1.26882e-05 6.09753e-05 4.89997e-06 -1.3134e-05 
-7.51557e-06 -6.40329e-06 2.38812e-05 1.74756e-05 4.13434e-05 -2.03992e-05 2.65482e-06 -7.45797e-06 3.24595e-06 -5.98915e-07 -6.19346e-05 1.26822e-05 -2.15329e-05 8.8786e-05 5.81616e-06 -2.13895e-05 
2.20342e-06 -3.75102e-06 2.75951e-07 -9.03863e-06 2.39182e-05 4.32988e-06 -8.18421e-07 -1.47707e-06 -6.93048e-07 -5.86968e-06 -3.37799e-05 -3.21002e-06 -1.95217e-05 3.82373e-05 -4.80899e-08 -1.58029e-05 
-5.45473e-06 -4.7973e-06 1.81363e-05 1.27282e-05 3.01167e-05 -1.46341e-05 2.31756e-06 -5.34947e-06 2.78413e-06 -1.0396e-06 -4.54065e-05 9.00393e-06 -1.6095e-05 6.44329e-05 4.21789e-06 -1.57308e-05 
-5.86359e-06 -3.14894e-06 1.84285e-05 1.55628e-05 1.88859e-05 -1.48154e-05 3.36464e-06 -4.40814e-06 3.9284e-06 9.12024e-08 -2.96799e-05 9.21943e-06 -8.07074e-06 4.46908e-05 3.87683e-06 -8.86659e-06 
-3.13088e-06 -5.25312e-06 1.36096e-05 5.82257e-06 3.27877e-05 -9.2721e-06 1.19369e-06 -4.48294e-06 1.46602e-06 -3.05778e-06 -4.82911e-05 5.6226e-06 -2.02596e-05 6.46545e-05 3.32325e-06 -1.83828e-05 
2.27664e-06 -3.81363e-06 1.57248e-07 -9.35009e-06 2.44459e-05 4.49557e-06 -8.62725e-07 -1.52822e-06 -7.18708e-07 -5.99459e-06 -3.45221e-05 -3.34393e-06 -1.99698e-05 3.90536e-05 -9.00504e-08 -1.61771e-05 
2.34724e-06 -4.23461e-06 6.51608e-07 -9.71453e-06 2.67997e-05 4.52408e-06 -8.69807e-07 -1.65168e-06 -7.59446e-07 -6.49664e-06 -3.78741e-05 -3.34963e-06 -2.17585e-05 4.30668e-05 5.60114e-08 -1.76127e-05 
5.27029e-06 -5.18142e-06 -3.33011e-06 -1.82614e-05 3.15274e-05 1.14762e-05 -1.55553e-06 -6.04339e-07 -1.63515e-06 -1.02335e-05 -4.37445e-05 -7.78133e-06 -2.84671e-05 4.53044e-05 -9.94121e-07 -2.19466e-05 
-2.73284e-06 -4.34201e-06 1.12788e-05 5.0603e-06 2.77451e-05 -8.05244e-06 9.3555e-07 -3.97152e-06 1.24034e-06 -2.30762e-06 -4.08137e-05 4.85177e-06 -1.69016e-05 5.49467e-05 2.75758e-06 -1.55416e-05 
-2.81581e-06 -3.58502e-06 1.0946e-05 5.88177e-06 2.26221e-05 -7.88459e-06 1.26974e-06 -3.47172e-06 1.55667e-06 -1.78665e-06 -3.36248e-05 4.78049e-06 -1.33947e-05 4.5808e-05 2.53067e-06 -1.24455e-05 
-6.79176e-06 -4.42722e-06 2.15315e-05 1.7414e-05 2.67692e-05 -1.76431e-05 3.4464e-06 -5.44959e-06 3.90452e-06 -1.20439e-07 -4.11337e-05 1.10938e-05 -1.26048e-05 6.06458e-05 4.87699e-06 -1.30542e-05 
1.77244e-06 -4.4225e-06 1.904e-06 -8.25992e-06 2.82249e-05 3.02601e-06 -7.31646e-07 -2.09239e-06 -5.78478e-07 -6.12905e-06 -4.01079e-05 -2.41586e-06 -2.21142e-05 4.68204e-05 3.98829e-07 -1.81999e-05 
2.66309e-06 -3.40573e-06 -1.09917e-06 -1.02349e-05 2.19541e-05 5.59236e-06 -9.68228e-07 -1.13964e-06 -8.25783e-07 -5.95302e-06 -3.08488e-05 -4.05176e-06 -1.86307e-05 3.38385e-05 -4.44548e-07 -1.48736e-05 
1.71455e-06 -5.11205e-06 2.77024e-06 -8.69775e-06 3.28602e-05 2.679e-06 -7.80001e-07 -2.63398e-06 -5.64197e-07 -6.78033e-06 -4.68292e-05 -2.30244e-06 -2.53616e-05 5.52676e-05 5.94331e-07 -2.10254e-05 
1.92377e-06 -4.33373e-06 1.45417e-06 -8.774e-06 2.79341e-05 3.47303e-06 -8.01273e-07 -2.07605e-06 -5.78857e-07 -6.22075e-06 -3.97055e-05 -2.77923e-06 -2.20819e-05 4.60618e-05 2.14311e-07 -1.81513e-05 
2.75347e-06 -5.13281e-06 7.4409e-07 -1.16603e-05 3.28795e-05 5.22491e-06 -1.0971e-06 -2.16021e-06 -9.42624e-07 -7.70594e-06 -4.64839e-05 -3.92286e-06 -2.6495e-05 5.31487e-05 8.50494e-08 -2.15612e-05 
-5.11906e-06 -3.62578e-06 1.71703e-05 1.31841e-05 2.15871e-05 -1.32887e-05 2.90566e-06 -4.1974e-06 3.26941e-06 -7.06974e-07 -3.30991e-05 8.36275e-06 -1.0665e-05 4.79996e-05 3.78639e-06 -1.07397e-05 
-1.30241e-06 -3.33141e-06 7.65289e-06 1.71756e-06 2.09501e-05 -4.06322e-06 7.00858e-07 -2.66538e-06 1.00806e-06 -2.8302e-06 -3.07926e-05 2.26934e-06 -1.37948e-05 3.98865e-05 1.65116e-06 -1.22165e-05 
-6.21687e-06 -5.32104e-06 2.00806e-05 1.47773e-05 3.39863e-05 -1.69366e-05 2.31562e-06 -6.08804e-06 2.79258e-06 -5.4268e-07 -5.08674e-05 1.06077e-05 -1.76098e-05 7.29371e-05 4.92375e-06 -1.75284e-05 
6.03561e-06 -4.52793e-06 -6.01667e-06 -2.04127e-05 2.82907e-05 1.36092e-05 -1.9089e-06 -1.84744e-07 -1.87623e-06 -1.02037e-05 -3.88934e-05 -9.27806e-06 -2.68917e-05 3.81356e-05 -1.76317e-06 -2.0478e-05 
1.86825e-06 -4.91811e-06 2.22136e-06 -9.05975e-06 3.17447e-05 3.13855e-06 -8.24948e-07 -2.49335e-06 -5.84829e-07 -6.74187e-06 -4.52081e-05 -2.61814e-06 -2.47374e-05 5.29933e-05 4.22893e-07 -2.04494e-05 
-5.81484e-06 -4.97841e-06 1.8893e-05 1.38597e-05 3.17623e-05 -1.58432e-05 2.23441e-06 -5.66187e-06 2.63226e-06 -5.66499e-07 -4.75288e-05 9.96573e-06 -1.64988e-05 6.811e-05 4.63343e-06 -1.6361e-05 
3.37146e-07 -3.73839e-06 4.11855e-06 -3.60122e-06 2.3857e-05 -2.68881e-07 -1.54513e-07 -2.26016e-06 1.39485e-08 -4.2902e-06 -3.43034e-05 -2.06086e-07 -1.75017e-05 4.18806e-05 9.30117e-07 -1.47853e-05 
-2.42816e-06 -4.53991e-06 1.08112e-05 3.98648e-06 2.89811e-05 -7.38372e-06 7.9098e-07 -3.93585e-06 1.04416e-06 -2.72675e-06 -4.24933e-05 4.41329e-06 -1.81404e-05 5.65495e-05 2.6736e-06 -1.64337e-05 
-1.71504e-06 -3.56447e-06 8.72621e-06 2.57266e-06 2.26556e-05 -5.07614e-06 9.45526e-07 -3.10208e-06 1.31387e-06 -2.83257e-06 -3.34617e-05 2.82987e-06 -1.4673e-05 4.36936e-05 1.84765e-06 -1.31453e-05 
-4.55244e-06 -3.72846e-06 1.48695e-05 1.10064e-05 2.39711e-05 -1.22745e-05 1.88164e-06 -4.41937e-06 2.29354e-06 -4.73034e-07 -3.59714e-05 7.67883e-06 -1.22993e-05 5.16779e-05 3.51281e-06 -1.23231e-05 
-2.10154e-06 -3.53924e-06 9.62917e-06 3.79361e-06 2.22944e-05 -5.98762e-06 1.1615e-06 -3.18994e-06 1.51779e-06 -2.55931e-06 -3.30511e-05 3.45737e-06 -1.40416e-05 4.37431e-05 2.05304e-06 -1.27181e-05 
-4.92781e-06 -3.51087e-06 1.56156e-05 1.22511e-05 2.19989e-05 -1.29834e-05 2.24552e-06 -4.32718e-06 2.65277e-06 -1.69847e-07 -3.34635e-05 8.10137e-06 -1.07683e-05 4.87938e-05 3.59874e-06 -1.10211e-05 
8.49274e-07 -3.60347e-06 2.8956e-06 -5.02613e-06 2.30853e-05 1.04138e-06 -3.33523e-07 -1.9939e-06 -1.56099e-07 -4.59421e-06 -3.30524e-05 -1.07455e-06 -1.74946e-05 3.94962e-05 6.0239e-07 -1.45991e-05 
-2.12846e-05 -1.67726e-05 6.5024e-05 4.89387e-05 0.000107966 -5.68134e-05 7.29098e-06 -2.01677e-05 8.97861e-06 -6.72739e-07 -0.000163061 3.48223e-05 -5.5418e-05 0.000235523 1.54195e-05 -5.52978e-05 
2.69749e-06 -3.56597e-06 -9.3111e-07 -1.03755e-05 2.28237e-05 5.62309e-06 -9.69529e-07 -1.18226e-06 -8.38923e-07 -6.13854e-06 -3.20727e-05 -4.05928e-06 -1.92826e-05 3.52982e-05 -3.86626e-07 -1.54105e-05 
-6.03984e-06 -5.15153e-06 1.95253e-05 1.43722e-05 3.29057e-05 -1.64271e-05 2.27895e-06 -5.90313e-06 2.73869e-06 -5.48224e-07 -4.92395e-05 1.02996e-05 -1.70342e-05 7.06291e-05 4.76925e-06 -1.69645e-05 
-8.39649e-06 -5.66597e-06 2.64524e-05 2.12088e-05 3.46626e-05 -2.1908e-05 4.02845e-06 -6.97329e-06 4.65877e-06 -1.34426e-07 -5.30817e-05 1.36989e-05 -1.65563e-05 7.79706e-05 6.04272e-06 -1.71072e-05 
1.94593e-06 -3.97154e-06 1.06441e-06 -8.41708e-06 2.52582e-05 3.604e-06 -7.42411e-07 -1.69567e-06 -6.30711e-07 -5.84819e-06 -3.57804e-05 -2.73417e-06 -2.0206e-05 4.11408e-05 1.81038e-07 -1.64678e-05 
-3.61211e-06 -3.64415e-06 1.25863e-05 8.21432e-06 2.3293e-05 -9.94415e-06 1.43074e-06 -3.91335e-06 1.77633e-06 -1.0569e-06 -3.47287e-05 6.14652e-06 -1.28441e-05 4.86746e-05 2.99049e-06 -1.2388e-05 
2.05518e-06 -6.01303e-06 3.27383e-06 -9.98029e-06 3.7958e-05 3.13513e-06 -8.82947e-07 -2.83798e-06 -7.87482e-07 -7.86793e-06 -5.39253e-05 -2.51563e-06 -2.93192e-05 6.35463e-05 8.67638e-07 -2.42159e-05 
2.1984e-06 -3.77591e-06 3.10454e-07 -9.04034e-06 2.40873e-05 4.29218e-06 -8.19558e-07 -1.48733e-06 -7.10155e-07 -5.87997e-06 -3.40207e-05 -3.17663e-06 -1.9645e-05 3.85452e-05 -2.61388e-08 -1.58927e-05 
5.60238e-06 -5.35154e-06 -4.23611e-06 -1.97925e-05 3.36347e-05 1.22685e-05 -1.84786e-06 -9.10896e-07 -1.77853e-06 -1.0627e-05 -4.67116e-05 -8.4853e-06 -3.02296e-05 4.85828e-05 -1.29324e-06 -2.35073e-05 
2.23281e-06 -4.33362e-06 9.95164e-07 -9.48051e-06 2.74783e-05 4.20747e-06 -8.41449e-07 -1.77233e-06 -7.26268e-07 -6.50193e-06 -3.89043e-05 -3.16074e-06 -2.21357e-05 4.45221e-05 1.41999e-07 -1.79669e-05 
-4.89293e-06 -4.00272e-06 1.58795e-05 1.18228e-05 2.57134e-05 -1.32121e-05 1.9736e-06 -4.74357e-06 2.41422e-06 -4.34837e-07 -3.85823e-05 8.26285e-06 -1.31537e-05 5.54855e-05 3.78184e-06 -1.3209e-05 
-6.96493e-06 -4.53521e-06 2.19758e-05 1.77925e-05 2.75764e-05 -1.80767e-05 3.48433e-06 -5.65472e-06 4.00578e-06 -8.58939e-08 -4.23693e-05 1.13249e-05 -1.29659e-05 6.24753e-05 4.96173e-06 -1.34916e-05 
-2.1793e-06 -3.5497e-06 9.54561e-06 3.9351e-06 2.29747e-05 -6.31868e-06 9.33769e-07 -3.33688e-06 1.29881e-06 -2.2856e-06 -3.39022e-05 3.70485e-06 -1.42232e-05 4.52797e-05 2.11883e-06 -1.29909e-05 
-6.7068e-06 -5.57548e-06 2.12848e-05 1.56771e-05 3.62293e-05 -1.81387e-05 2.43408e-06 -6.65776e-06 3.03024e-06 -4.96581e-07 -5.43932e-05 1.12287e-05 -1.87686e-05 7.80594e-05 5.11114e-06 -1.87272e-05 
-4.76091e-06 -3.79449e-06 1.53503e-05 1.14478e-05 2.46068e-05 -1.27736e-05 1.93581e-06 -4.61758e-06 2.39527e-06 -4.13411e-07 -3.69936e-05 7.9488e-06 -1.25569e-05 5.32722e-05 3.58333e-06 -1.26303e-05 
-2.73298e-06 -3.42076e-06 1.03751e-05 5.59134e-06 2.19131e-05 -7.61923e-06 1.1455e-06 -3.45583e-06 1.50061e-06 -1.63364e-06 -3.26028e-05 4.54358e-06 -1.29198e-05 4.44862e-05 2.36518e-06 -1.20969e-05 
1.90169e-06 -4.09829e-06 1.28976e-06 -8.3659e-06 2.60428e-05 3.44462e-06 -7.36161e-07 -1.78033e-06 -6.37297e-07 -5.92173e-06 -3.68957e-05 -2.62309e-06 -2.07093e-05 4.26154e-05 2.54216e-07 -1.69118e-05 
3.43367e-06 -4.61516e-06 -1.13038e-06 -1.30963e-05 2.9227e-05 7.04365e-06 -1.24416e-06 -1.42132e-06 -1.19045e-06 -7.76545e-06 -4.09662e-05 -4.98289e-06 -2.46251e-05 4.51647e-05 -3.55454e-07 -1.96425e-05 
-1.10497e-06 -3.55133e-06 7.33767e-06 8.10219e-07 2.24929e-05 -3.60835e-06 6.34953e-07 -2.77127e-06 9.2953e-07 -3.22924e-06 -3.29629e-05 1.9232e-06 -1.51628e-05 4.22114e-05 1.55929e-06 -1.33029e-05 
2.36331e-06 -3.75129e-06 -7.97423e-08 -9.52967e-06 2.3998e-05 4.7176e-06 -8.84655e-07 -1.43193e-06 -7.5779e-07 -5.99802e-06 -3.38432e-05 -3.47028e-06 -1.9744e-05 3.80678e-05 -1.39198e-07 -1.59389e-05 
6.72977e-06 -4.21325e-06 -7.8464e-06 -2.22902e-05 2.65352e-05 1.54448e-05 -2.13959e-06 2.07726e-07 -2.06905e-06 -1.05027e-05 -3.61794e-05 -1.05048e-05 -2.63605e-05 3.36407e-05 -2.27555e-06 -1.98158e-05 
4.48688e-06 -4.79123e-06 -2.20705e-06 -1.58068e-05 2.92251e-05 9.71396e-06 -1.28548e-06 -7.74897e-07 -1.27265e-06 -9.22306e-06 -4.07582e-05 -6.67999e-06 -2.59982e-05 4.28417e-05 -7.74892e-07 -2.01844e-05 
-1.44953e-05 -1.09257e-05 4.4585e-05 3.43588e-05 6.98633e-05 -3.85586e-05 5.51932e-06 -1.34899e-05 6.82882e-06 -1.64359e-07 -0.000106121 2.3642e-05 -3.51833e-05 0.000153736 1.05409e-05 -3.56262e-05 
1.7856e-06 -4.3657e-06 1.84695e-06 -8.24725e-06 2.7808e-05 3.09005e-06 -7.19071e-07 -2.03149e-06 -5.73667e-07 -6.10762e-06 -3.95065e-05 -2.44664e-06 -2.18471e-05 4.60363e-05 3.73561e-07 -1.79492e-05 
3.70651e-06 -4.27056e-06 -1.44825e-06 -1.33167e-05 2.63775e-05 7.92863e-06 -1.00984e-06 -9.21495e-07 -9.80254e-07 -7.97385e-06 -3.68586e-05 -5.48596e-06 -2.3057e-05 3.93128e-05 -5.59688e-07 -1.80671e-05 
-6.34243e-06 -5.1709e-06 2.00671e-05 1.48342e-05 3.38073e-05 -1.70864e-05 2.33713e-06 -6.30422e-06 2.94877e-06 -4.41336e-07 -5.08316e-05 1.05409e-05 -1.74449e-05 7.30248e-05 4.7575e-06 -1.74674e-05 
-1.3715e-05 -1.03594e-05 4.2429e-05 3.25484e-05 6.57097e-05 -3.63696e-05 5.38084e-06 -1.25184e-05 6.40919e-06 -3.93755e-07 -9.96298e-05 2.24734e-05 -3.31533e-05 0.000144446 9.99267e-06 -3.33639e-05 
2.27169e-06 -4.65344e-06 1.14341e-06 -9.87898e-06 2.97321e-05 4.1849e-06 -9.10325e-07 -2.03971e-06 -7.63769e-07 -6.78248e-06 -4.20949e-05 -3.18637e-06 -2.37072e-05 4.84929e-05 2.06696e-07 -1.93836e-05 
-1.813e-06 -7.4729e-06 1.24526e-05 -8.78389e-07 4.91233e-05 -6.59674e-06 1.11673e-07 -6.01444e-06 7.22286e-07 -6.3035e-06 -7.16304e-05 3.21568e-06 -3.33235e-05 9.17668e-05 2.83953e-06 -2.92541e-05 
5.08681e-06 -4.30389e-06 -4.04326e-06 -1.7257e-05 2.62971e-05 1.13613e-05 -1.47384e-06 -2.86324e-07 -1.4425e-06 -9.25221e-06 -3.63779e-05 -7.7512e-06 -2.45269e-05 3.64337e-05 -1.27279e-06 -1.87446e-05 
-6.00699e-06 -3.02362e-06 1.86805e-05 1.6031e-05 1.82198e-05 -1.50702e-05 3.50565e-06 -4.45462e-06 4.11888e-06 2.20086e-07 -2.88116e-05 9.36277e-06 -7.48261e-06 4.3745e-05 3.8625e-06 -8.43231e-06 
-6.40372e-06 -5.48794e-06 2.06433e-05 1.5135e-05 3.5152e-05 -1.74441e-05 2.37994e-06 -6.29046e-06 2.84654e-06 -5.68632e-07 -5.26221e-05 1.09249e-05 -1.82767e-05 7.54015e-05 5.06621e-06 -1.81439e-05 
2.02428e-06 -4.14917e-06 1.12399e-06 -8.77836e-06 2.63935e-05 3.7505e-06 -7.78176e-07 -1.77481e-06 -6.59439e-07 -6.10721e-06 -3.7384e-05 -2.84547e-06 -2.11034e-05 4.30089e-05 1.8555e-07 -1.72023e-05 
-1.29309e-05 -9.79662e-06 4.02705e-05 3.10526e-05 6.16424e-05 -3.44057e-05 5.16929e-06 -1.17071e-05 6.12522e-06 -3.29866e-07 -9.35016e-05 2.13288e-05 -3.09929e-05 0.000135568 9.5809e-06 -3.12467e-05 
5.21163e-06 -5.39579e-06 -2.86136e-06 -1.82071e-05 3.2799e-05 1.12883e-05 -1.53412e-06 -7.55108e-07 -1.56413e-06 -1.04469e-05 -4.56441e-05 -7.70749e-06 -2.93379e-05 4.77197e-05 -9.12773e-07 -2.27103e-05 
-7.92759e-06 -5.56293e-06 2.55223e-05 2.03147e-05 3.32254e-05 -2.08807e-05 3.95431e-06 -6.38741e-06 4.31398e-06 -2.93443e-07 -5.07095e-05 1.32776e-05 -1.60477e-05 7.42586e-05 6.01508e-06 -1.63102e-05 
6.63827e-08 -4.30206e-06 5.26606e-06 -3.32535e-06 2.76553e-05 -1.08079e-06 -1.33793e-07 -2.81467e-06 1.21368e-07 -4.63546e-06 -3.98872e-05 2.13093e-07 -1.99083e-05 4.92775e-05 1.18398e-06 -1.69997e-05 
7.34158e-06 -4.80532e-06 -7.63869e-06 -2.38313e-05 2.88134e-05 1.67741e-05 -2.09119e-06 5.74085e-07 -2.19649e-06 -1.18105e-05 -3.92238e-05 -1.12039e-05 -2.88168e-05 3.61904e-05 -2.19377e-06 -2.14044e-05 
-1.18219e-05 -1.09363e-05 3.7915e-05 2.69544e-05 6.9521e-05 -3.26656e-05 3.87773e-06 -1.17519e-05 4.26378e-06 -1.22263e-06 -0.000103629 2.06051e-05 -3.71278e-05 0.000147618 9.76581e-06 -3.6073e-05 
-9.38774e-06 -6.86665e-06 2.95393e-05 2.30795e-05 4.24644e-05 -2.48039e-05 4.12826e-06 -8.13092e-06 4.71799e-06 -2.94455e-07 -6.45255e-05 1.55334e-05 -2.1011e-05 9.39789e-05 6.95723e-06 -2.12739e-05 
-1.28418e-07 -3.2867e-06 4.83137e-06 -1.99271e-06 2.14612e-05 -1.15975e-06 1.56147e-07 -2.37643e-06 5.04456e-07 -3.70421e-06 -3.11156e-05 2.92594e-07 -1.53179e-05 3.85434e-05 9.09162e-07 -1.31858e-05 
2.47783e-06 -4.47354e-06 5.3411e-07 -1.03646e-05 2.85791e-05 4.74686e-06 -9.5539e-07 -1.81337e-06 -8.5501e-07 -6.80347e-06 -4.03698e-05 -3.51802e-06 -2.31475e-05 4.5995e-05 5.09783e-08 -1.87721e-05 
8.27619e-07 -3.84508e-06 3.29608e-06 -5.00939e-06 2.43203e-05 8.95581e-07 -3.1785e-07 -2.05616e-06 -1.76752e-07 -4.7995e-06 -3.48032e-05 -9.49267e-07 -1.83554e-05 4.17024e-05 7.40882e-07 -1.53079e-05 
3.47223e-06 -3.66015e-06 -2.29593e-06 -1.25924e-05 2.32432e-05 7.49263e-06 -1.18827e-06 -8.52317e-07 -1.10919e-06 -6.91591e-06 -3.24116e-05 -5.24831e-06 -2.04283e-05 3.44272e-05 -7.22231e-07 -1.60527e-05 
-6.46637e-06 -5.55856e-06 2.08565e-05 1.53302e-05 3.54954e-05 -1.76286e-05 2.37763e-06 -6.34249e-06 2.86981e-06 -5.58691e-07 -5.31129e-05 1.10375e-05 -1.84136e-05 7.61413e-05 5.12621e-06 -1.83166e-05 
-1.17743e-05 -8.71853e-06 3.67199e-05 2.84859e-05 5.46343e-05 -3.11782e-05 4.872e-06 -1.04691e-05 5.73042e-06 -3.08858e-07 -8.29972e-05 1.9355e-05 -2.72616e-05 0.000120633 8.63564e-06 -2.75489e-05 
-1.14562e-05 -8.28572e-06 3.55569e-05 2.7612e-05 5.21808e-05 -3.01603e-05 4.7779e-06 -1.01164e-05 5.63115e-06 -3.07639e-07 -7.94105e-05 1.86683e-05 -2.59707e-05 0.000115622 8.2146e-06 -2.62342e-05 
-2.61348e-06 -5.63289e-06 1.24265e-05 3.77668e-06 3.57704e-05 -8.20742e-06 7.58166e-07 -4.63857e-06 1.00633e-06 -3.60219e-06 -5.22798e-05 4.88721e-06 -2.27749e-05 6.90495e-05 3.13777e-06 -2.04461e-05 
-4.7558e-06 -3.90314e-06 1.55034e-05 1.15244e-05 2.49983e-05 -1.28495e-05 1.94249e-06 -4.58448e-06 2.34736e-06 -4.53066e-07 -3.74888e-05 8.06164e-06 -1.28012e-05 5.39038e-05 3.6973e-06 -1.28256e-05 
-2.23129e-05 -1.74765e-05 6.74498e-05 5.14052e-05 0.000114695 -5.99763e-05 7.46356e-06 -2.22763e-05 9.98773e-06 3.05435e-07 -0.000174148 3.62107e-05 -5.86084e-05 0.000250788 1.63166e-05 -5.9492e-05 
2.51176e-06 -3.56852e-06 -6.22493e-07 -9.97229e-06 2.31404e-05 5.19795e-06 -9.35643e-07 -1.37833e-06 -7.25481e-07 -6.00683e-06 -3.26356e-05 -3.8585e-06 -1.92988e-05 3.63053e-05 -3.59918e-07 -1.55578e-05 
1.9282e-06 -4.33508e-06 1.51462e-06 -8.64742e-06 2.76399e-05 3.45211e-06 -7.72743e-07 -1.96527e-06 -6.17676e-07 -6.19809e-06 -3.92282e-05 -2.69271e-06 -2.18745e-05 4.54595e-05 2.82074e-07 -1.79273e-05 
1.86713e-06 -4.34005e-06 1.63741e-06 -8.36231e-06 2.74604e-05 3.25003e-06 -7.46079e-07 -1.90915e-06 -6.60031e-07 -6.07983e-06 -3.89136e-05 -2.48643e-06 -2.16511e-05 4.52052e-05 3.86192e-07 -1.77377e-05 
6.76828e-06 -4.26075e-06 -7.83239e-06 -2.2369e-05 2.66267e-05 1.55052e-05 -2.13686e-06 2.9592e-07 -2.14786e-06 -1.05791e-05 -3.62362e-05 -1.04778e-05 -2.64926e-05 3.36551e-05 -2.23528e-06 -1.98387e-05 
-2.00163e-06 -4.28231e-06 9.55893e-06 2.86369e-06 2.74032e-05 -6.22815e-06 6.21715e-07 -3.62955e-06 8.93948e-07 -2.81947e-06 -4.01133e-05 3.64208e-06 -1.74606e-05 5.292e-05 2.33388e-06 -1.57213e-05 
-3.86617e-07 -3.7172e-06 6.36214e-06 -1.1585e-06 2.30741e-05 -1.8842e-06 5.31934e-07 -2.4265e-06 7.52619e-07 -4.10636e-06 -3.35555e-05 8.60383e-07 -1.64169e-05 4.16541e-05 1.30941e-06 -1.40081e-05 
5.28865e-06 -4.01165e-06 -4.72722e-06 -1.75557e-05 2.42771e-05 1.19466e-05 -1.49456e-06 3.25919e-08 -1.49504e-06 -9.14443e-06 -3.33986e-05 -8.08248e-06 -2.33113e-05 3.23835e-05 -1.44142e-06 -1.76065e-05 
3.05748e-06 -4.84955e-06 -1.94862e-07 -1.22976e-05 3.10455e-05 6.05431e-06 -1.17911e-06 -1.85789e-06 -1.02459e-06 -7.66714e-06 -4.37529e-05 -4.44276e-06 -2.54885e-05 4.92606e-05 -1.50296e-07 -2.06085e-05 
1.35818e-06 -4.91933e-06 3.28969e-06 -7.54017e-06 3.15819e-05 1.86986e-06 -6.47736e-07 -2.63005e-06 -4.50781e-07 -6.3044e-06 -4.51092e-05 -1.74735e-06 -2.41053e-05 5.3698e-05 7.20242e-07 -2.00436e-05 
-1.5726e-05 -1.24729e-05 4.89772e-05 3.6917e-05 7.87865e-05 -4.20252e-05 5.96649e-06 -1.44771e-05 6.86095e-06 -7.48686e-07 -0.000118902 2.61637e-05 -4.04026e-05 0.000171706 1.17975e-05 -4.01536e-05 
-3.47107e-06 -3.67484e-06 1.22749e-05 7.73198e-06 2.35008e-05 -9.60318e-06 1.35744e-06 -3.87506e-06 1.69443e-06 -1.1915e-06 -3.50024e-05 5.90781e-06 -1.31609e-05 4.87868e-05 2.91666e-06 -1.25933e-05 
2.88454e-06 -3.55406e-06 -1.27764e-06 -1.09723e-05 2.28892e-05 6.13084e-06 -1.01858e-06 -1.16661e-06 -8.21888e-07 -6.35642e-06 -3.21828e-05 -4.45831e-06 -1.95557e-05 3.50832e-05 -5.42429e-07 -1.5597e-05 
4.1349e-06 -3.89509e-06 -3.43368e-06 -1.46618e-05 2.47761e-05 9.00819e-06 -1.43967e-06 -7.17545e-07 -1.40329e-06 -7.65881e-06 -3.43382e-05 -6.22289e-06 -2.21896e-05 3.58001e-05 -9.68453e-07 -1.73137e-05 
1.14476e-06 -3.38729e-06 2.04644e-06 -5.70494e-06 2.16744e-05 1.83497e-06 -4.18589e-07 -1.72388e-06 -2.55906e-07 -4.62561e-06 -3.09181e-05 -1.56585e-06 -1.67941e-05 3.63705e-05 3.87884e-07 -1.38909e-05 
1.82866e-06 -4.30915e-06 1.65425e-06 -8.34147e-06 2.74617e-05 3.19976e-06 -7.35504e-07 -1.96865e-06 -6.21306e-07 -6.06528e-06 -3.89682e-05 -2.49278e-06 -2.16424e-05 4.53159e-05 3.46227e-07 -1.7747e-05 
-1.00646e-05 -7.25918e-06 3.16805e-05 2.46336e-05 4.48862e-05 -2.64686e-05 4.48182e-06 -8.56798e-06 5.02348e-06 -4.32018e-07 -6.82653e-05 1.65961e-05 -2.22804e-05 9.95253e-05 7.35618e-06 -2.23707e-05 
2.23054e-06 -3.93587e-06 4.21233e-07 -9.20331e-06 2.50289e-05 4.30435e-06 -8.44888e-07 -1.55023e-06 -7.47042e-07 -6.0347e-06 -3.53362e-05 -3.17681e-06 -2.03276e-05 4.01496e-05 2.87177e-08 -1.64709e-05 
-1.02181e-05 -7.38982e-06 3.21082e-05 2.51461e-05 4.57711e-05 -2.69663e-05 4.49879e-06 -8.83344e-06 5.18522e-06 -2.82863e-07 -6.96635e-05 1.68368e-05 -2.2586e-05 0.000101531 7.51896e-06 -2.2903e-05 
2.41712e-06 -3.55087e-06 -4.75769e-07 -9.71428e-06 2.31279e-05 4.95878e-06 -9.14206e-07 -1.44559e-06 -6.82756e-07 -5.89163e-06 -3.26865e-05 -3.72424e-06 -1.91878e-05 3.6512e-05 -3.19487e-07 -1.55152e-05 
2.51109e-06 -3.68677e-06 -5.08006e-07 -1.01288e-05 2.40233e-05 5.18356e-06 -9.54409e-07 -1.49812e-06 -7.12737e-07 -6.15147e-06 -3.39263e-05 -3.89276e-06 -1.9937e-05 3.79084e-05 -3.62008e-07 -1.61163e-05 
3.92914e-06 -3.90276e-06 -3.0826e-06 -1.43137e-05 2.52795e-05 8.59274e-06 -1.40476e-06 -9.82775e-07 -1.24067e-06 -7.58491e-06 -3.52146e-05 -6.07886e-06 -2.23445e-05 3.72131e-05 -9.97998e-07 -1.75992e-05 
-7.42579e-06 -6.48904e-06 2.38535e-05 1.74522e-05 4.15254e-05 -2.03461e-05 2.64001e-06 -7.37704e-06 3.17893e-06 -5.95186e-07 -6.21434e-05 1.2719e-05 -2.16759e-05 8.89035e-05 5.95485e-06 -2.15015e-05 
2.58046e-06 -3.78432e-06 -4.73436e-07 -1.02017e-05 2.42461e-05 5.25161e-06 -9.52421e-07 -1.37357e-06 -8.24884e-07 -6.23338e-06 -3.41378e-05 -3.82871e-06 -2.01612e-05 3.80738e-05 -2.51591e-07 -1.62106e-05 
-4.49346e-06 -3.69587e-06 1.4724e-05 1.08813e-05 2.37085e-05 -1.21286e-05 1.86918e-06 -4.34787e-06 2.25755e-06 -4.86479e-07 -3.55638e-05 7.60412e-06 -1.21823e-05 5.10735e-05 3.48775e-06 -1.218e-05 
2.41008e-06 -3.64478e-06 -3.20594e-07 -9.65714e-06 2.34897e-05 4.88303e-06 -9.03813e-07 -1.41472e-06 -7.32442e-07 -5.94902e-06 -3.31459e-05 -3.61828e-06 -1.94316e-05 3.71114e-05 -2.32731e-07 -1.5687e-05 
-5.80611e-06 -3.94675e-06 1.8879e-05 1.491e-05 2.36526e-05 -1.51045e-05 3.08694e-06 -4.68207e-06 3.45454e-06 -4.04433e-07 -3.62908e-05 9.52086e-06 -1.14133e-05 5.30979e-05 4.25083e-06 -1.16262e-05 
1.07669e-06 -3.8796e-06 2.76003e-06 -5.79621e-06 2.46345e-05 1.4876e-06 -4.20208e-07 -1.99284e-06 -2.96998e-07 -5.02163e-06 -3.51472e-05 -1.3316e-06 -1.88289e-05 4.17557e-05 6.17966e-07 -1.56264e-05 
1.69531e-06 -4.36982e-06 1.9682e-06 -8.05704e-06 2.80086e-05 2.8639e-06 -7.16506e-07 -2.13525e-06 -5.3656e-07 -6.01717e-06 -3.98481e-05 -2.33591e-06 -2.18784e-05 4.66204e-05 3.96855e-07 -1.80455e-05 
-1.21728e-05 -8.71302e-06 3.75695e-05 2.94472e-05 5.51282e-05 -3.2071e-05 5.07819e-06 -1.08536e-05 6.07986e-06 -1.06868e-07 -8.39904e-05 1.98087e-05 -2.72411e-05 0.000122378 8.72624e-06 -2.77608e-05 
-9.20022e-06 -6.33481e-06 2.88165e-05 2.28734e-05 3.92165e-05 -2.40715e-05 4.22357e-06 -7.81034e-06 4.92137e-06 -1.66118e-07 -5.99577e-05 1.4986e-05 -1.9009e-05 8.77954e-05 6.5997e-06 -1.9484e-05 
6.95774e-07 -3.79083e-06 3.41943e-06 -4.68834e-06 2.42293e-05 5.94808e-07 -2.95273e-07 -2.16097e-06 -1.19783e-07 -4.63018e-06 -3.47275e-05 -7.84387e-07 -1.81326e-05 4.18416e-05 7.54166e-07 -1.52084e-05 
2.32023e-06 -3.87495e-06 1.79719e-07 -9.40566e-06 2.45949e-05 4.53905e-06 -8.59903e-07 -1.44852e-06 -7.92872e-07 -6.05129e-06 -3.46678e-05 -3.30352e-06 -2.0124e-05 3.91702e-05 -2.18317e-08 -1.62391e-05 
-3.36475e-06 -3.84699e-06 1.31356e-05 7.69805e-06 2.3358e-05 -9.19908e-06 1.85755e-06 -3.63307e-06 2.1288e-06 -1.96264e-06 -3.49575e-05 5.68612e-06 -1.35819e-05 4.79169e-05 2.96449e-06 -1.26378e-05 
-2.36157e-06 -4.51123e-06 1.12059e-05 4.15146e-06 2.805e-05 -7.13817e-06 9.86676e-07 -3.69906e-06 1.24344e-06 -2.98475e-06 -4.12452e-05 4.28476e-06 -1.76929e-05 5.46391e-05 2.69006e-06 -1.59081e-05 
2.66618e-06 -5.32841e-06 1.90038e-06 -1.10982e-05 3.321e-05 5.03303e-06 -7.26323e-07 -2.06515e-06 -6.18354e-07 -8.14774e-06 -4.70478e-05 -3.71855e-06 -2.68273e-05 5.36485e-05 2.92104e-07 -2.17046e-05 
2.60838e-06 -4.21011e-06 -1.43768e-08 -1.04951e-05 2.67832e-05 5.14808e-06 -9.76586e-07 -1.55768e-06 -8.95332e-07 -6.64283e-06 -3.77219e-05 -3.738e-06 -2.19907e-05 4.24997e-05 -8.09454e-08 -1.77333e-05 
-3.4641e-06 -3.68416e-06 1.22711e-05 7.71661e-06 2.35343e-05 -9.58858e-06 1.35358e-06 -3.87132e-06 1.69007e-06 -1.20279e-06 -3.5039e-05 5.90159e-06 -1.31851e-05 4.88275e-05 2.91788e-06 -1.26154e-05 
3.57473e-06 -7.25784e-06 2.02191e-06 -1.53295e-05 4.59245e-05 6.63508e-06 -1.32705e-06 -3.02932e-06 -1.12788e-06 -1.07237e-05 -6.50685e-05 -5.01323e-06 -3.67972e-05 7.47113e-05 3.52091e-07 -2.99549e-05 
3.14732e-06 -3.96035e-06 -1.29774e-06 -1.18879e-05 2.51691e-05 6.6047e-06 -1.10673e-06 -1.17938e-06 -1.01085e-06 -6.94109e-06 -3.52807e-05 -4.69737e-06 -2.14586e-05 3.85299e-05 -4.70661e-07 -1.70557e-05 
-4.72192e-06 -3.91951e-06 1.54455e-05 1.13787e-05 2.51174e-05 -1.27635e-05 1.92793e-06 -4.57307e-06 2.31753e-06 -5.1462e-07 -3.76532e-05 8.00471e-06 -1.2949e-05 5.40464e-05 3.67639e-06 -1.29111e-05 
1.76053e-06 -4.35564e-06 1.87987e-06 -8.06466e-06 2.75384e-05 2.98487e-06 -7.08151e-07 -1.95106e-06 -6.29323e-07 -6.01245e-06 -3.90527e-05 -2.30819e-06 -2.16019e-05 4.55491e-05 4.47347e-07 -1.77226e-05 
-8.219e-06 -5.52541e-06 2.59471e-05 2.08133e-05 3.36863e-05 -2.14263e-05 3.98696e-06 -6.76803e-06 4.57687e-06 -1.58729e-07 -5.15921e-05 1.34231e-05 -1.60646e-05 7.58316e-05 5.91738e-06 -1.65833e-05 
-9.23808e-06 -6.32937e-06 2.88724e-05 2.29551e-05 3.93142e-05 -2.41737e-05 4.22219e-06 -7.88014e-06 4.96286e-06 -1.21185e-07 -6.01688e-05 1.50087e-05 -1.90367e-05 8.80994e-05 6.60381e-06 -1.95496e-05 
7.83623e-07 -4.39532e-06 4.49043e-06 -5.05647e-06 2.75161e-05 6.62738e-07 -9.90951e-08 -2.33746e-06 4.00704e-08 -5.5417e-06 -3.94387e-05 -7.979e-07 -2.06987e-05 4.73215e-05 9.72458e-07 -1.72404e-05 
-5.24069e-07 -3.72704e-06 5.89462e-06 -1.08549e-06 2.38832e-05 -2.38149e-06 1.52517e-07 -2.65276e-06 3.6806e-07 -3.56678e-06 -3.46028e-05 1.16768e-06 -1.65734e-05 4.36558e-05 1.36526e-06 -1.43568e-05 
1.15001e-06 -3.48027e-06 2.3145e-06 -5.73659e-06 2.21049e-05 1.86487e-06 -3.68514e-07 -1.74249e-06 -1.84376e-07 -4.82029e-06 -3.15878e-05 -1.60613e-06 -1.71672e-05 3.71145e-05 4.03795e-07 -1.4168e-05 
4.83363e-06 -6.16377e-06 -1.72499e-06 -1.80849e-05 3.86148e-05 1.00942e-05 -1.63588e-06 -1.65929e-06 -1.59684e-06 -1.07523e-05 -5.40442e-05 -7.07335e-06 -3.29596e-05 5.89745e-05 -5.9996e-07 -2.60931e-05 
-5.96399e-06 -4.87521e-06 1.89801e-05 1.40792e-05 3.16548e-05 -1.60535e-05 2.24194e-06 -5.88366e-06 2.81629e-06 -4.49979e-07 -4.7526e-05 9.9454e-06 -1.62602e-05 6.83476e-05 4.4975e-06 -1.63332e-05 
-1.97749e-06 -3.97431e-06 9.38486e-06 3.072e-06 2.52267e-05 -6.00687e-06 7.82782e-07 -3.37616e-06 1.03697e-06 -2.695e-06 -3.70515e-05 3.52447e-06 -1.60602e-05 4.8888e-05 2.22241e-06 -1.44372e-05 
1.40219e-06 -4.81238e-06 3.3413e-06 -7.36702e-06 3.02994e-05 2.02937e-06 -5.48311e-07 -2.33427e-06 -4.53005e-07 -6.31802e-06 -4.32125e-05 -1.7404e-06 -2.33173e-05 5.11862e-05 7.44855e-07 -1.92225e-05 
-7.43329e-07 -3.68857e-06 6.61226e-06 -2.69172e-07 2.32026e-05 -2.8466e-06 4.21506e-07 -2.61503e-06 6.20793e-07 -3.51323e-06 -3.37654e-05 1.49491e-06 -1.59899e-05 4.27437e-05 1.49157e-06 -1.38509e-05 
-2.18991e-06 -4.47457e-06 1.02622e-05 3.34583e-06 2.86423e-05 -6.76488e-06 7.25613e-07 -3.83105e-06 1.00029e-06 -2.87918e-06 -4.19155e-05 4.00623e-06 -1.81228e-05 5.54563e-05 2.51401e-06 -1.63678e-05 
-2.77708e-06 -3.9553e-06 1.12323e-05 5.50382e-06 2.49018e-05 -7.92558e-06 1.18926e-06 -3.64548e-06 1.44969e-06 -2.13567e-06 -3.68558e-05 4.8004e-06 -1.5052e-05 4.98121e-05 2.64204e-06 -1.38264e-05 
1.95688e-06 -4.40534e-06 1.50293e-06 -8.78903e-06 2.81273e-05 3.49545e-06 -7.9388e-07 -2.01205e-06 -6.36795e-07 -6.27347e-06 -3.9902e-05 -2.72517e-06 -2.22323e-05 4.62731e-05 2.88272e-07 -1.82425e-05 
-2.73962e-06 -3.44824e-06 1.07264e-05 5.76882e-06 2.17518e-05 -7.62215e-06 1.30416e-06 -3.35945e-06 1.60129e-06 -1.79276e-06 -3.23589e-05 4.61405e-06 -1.28842e-05 4.4061e-05 2.42941e-06 -1.19689e-05 
3.17745e-06 -3.79731e-06 -1.06317e-06 -1.18026e-05 2.40408e-05 6.8816e-06 -8.81153e-07 -1.10201e-06 -6.68239e-07 -7.15114e-06 -3.38326e-05 -4.96194e-06 -2.08529e-05 3.63911e-05 -6.20252e-07 -1.64855e-05 
5.00973e-06 -5.39878e-06 -2.56671e-06 -1.77009e-05 3.2982e-05 1.07798e-05 -1.49389e-06 -8.78627e-07 -1.53865e-06 -1.02403e-05 -4.59305e-05 -7.36737e-06 -2.9227e-05 4.84494e-05 -8.16614e-07 -2.27117e-05 
-1.13699e-06 -4.11762e-06 7.81855e-06 5.22054e-07 2.60017e-05 -3.97453e-06 4.78933e-07 -3.065e-06 6.90759e-07 -3.54689e-06 -3.79127e-05 2.18959e-06 -1.75477e-05 4.85826e-05 1.83307e-06 -1.53452e-05 
-4.50663e-06 -4.05445e-06 1.51592e-05 1.06867e-05 2.57002e-05 -1.22733e-05 1.86254e-06 -4.48826e-06 2.20997e-06 -8.14712e-07 -3.84598e-05 7.68377e-06 -1.36515e-05 5.46441e-05 3.63311e-06 -1.33774e-05 
